%YAML:1.0
my_nn: !!opencv-ml-ann-mlp
   layer_sizes: !!opencv-matrix
      rows: 1
      cols: 3
      dt: i
      data: [ 2500, 12, 2 ]
   activation_function: SIGMOID_SYM
   f_param1: 1.
   f_param2: 1.
   min_val: -9.4999999999999996e-01
   max_val: 9.4999999999999996e-01
   min_val1: -9.7999999999999998e-01
   max_val1: 9.7999999999999998e-01
   training_params:
      train_method: RPROP
      dw0: 1.0000000000000001e-01
      dw_plus: 1.2000000000000000e+00
      dw_minus: 5.0000000000000000e-01
      dw_min: 1.1920928955078125e-07
      dw_max: 50.
      term_criteria: { epsilon:9.9999997473787516e-06, iterations:45000 }
   input_scale: [ 3.2477905972597831e+00, -9.4239498528961585e-01,
       3.2845787976096879e+00, -9.4094342162550126e-01,
       3.3480416333233198e+00, -9.4239981979354970e-01,
       3.4136853289628166e+00, -9.5038410749084901e-01,
       3.4704288044579155e+00, -9.5635881756162022e-01,
       3.5531988851426370e+00, -9.7543985889688600e-01,
       3.6057393039048913e+00, -9.8660658403576962e-01,
       3.7074548826190332e+00, -1.0123018287530918e+00,
       3.7443988562541564e+00, -1.0311361290981083e+00,
       3.7770854783410193e+00, -1.0590449806708440e+00,
       3.8104093153946477e+00, -1.0941981316352052e+00,
       3.8189959704493082e+00, -1.1260369114396902e+00,
       3.8229168672800236e+00, -1.1641348905627351e+00,
       3.8126126087321466e+00, -1.2000808293723308e+00,
       3.8013462980064543e+00, -1.2349515269447517e+00,
       3.7764038478983357e+00, -1.2651603236922688e+00,
       3.7373709634886461e+00, -1.2878351079654273e+00,
       3.6864642914780199e+00, -1.3038644123107763e+00,
       3.6458855728686888e+00, -1.3120319977876249e+00,
       3.6187390146085097e+00, -1.3214837650532145e+00,
       3.5929411671425644e+00, -1.3317588368706519e+00,
       3.5603334029515863e+00, -1.3405965288306074e+00,
       3.5519109533960509e+00, -1.3430604036491178e+00,
       3.5379259766211995e+00, -1.3431753480332469e+00,
       3.5371820704881061e+00, -1.3433818110568214e+00,
       3.5427769542196330e+00, -1.3423756188219889e+00,
       3.5400072259364923e+00, -1.3428732366785965e+00,
       3.5388821975454872e+00, -1.3439586101090133e+00,
       3.5595596791716004e+00, -1.3437109398366978e+00,
       3.5860115946047761e+00, -1.3394520765456084e+00,
       3.6100612342998830e+00, -1.3323805759454208e+00,
       3.6409965775671820e+00, -1.3211807720088720e+00,
       3.6700355674027167e+00, -1.3064733617830921e+00,
       3.7183469875624042e+00, -1.2905014865014268e+00,
       3.7541173569999260e+00, -1.2638582910309144e+00,
       3.7791677145682998e+00, -1.2402602331213195e+00,
       3.7964345447081533e+00, -1.2048325510160602e+00,
       3.7866273910629000e+00, -1.1687150874491488e+00,
       3.7955269410053614e+00, -1.1374445587738398e+00,
       3.8026318105409795e+00, -1.1058369760705333e+00,
       3.7780930934167141e+00, -1.0692342899905534e+00,
       3.7690685648484545e+00, -1.0433151572638273e+00,
       3.7011944649116089e+00, -1.0177974617707322e+00,
       3.6147845897600166e+00, -9.9857772179203241e-01,
       3.5529402098037925e+00, -9.8851001691457596e-01,
       3.5101598067912674e+00, -9.7331053769714948e-01,
       3.4377533088318741e+00, -9.6052785784421202e-01,
       3.3730137009271584e+00, -9.5421234523951237e-01,
       3.3131536044572827e+00, -9.4725572016369475e-01,
       3.2660937064022777e+00, -9.4446967899900336e-01,
       3.2410108742431105e+00, -9.3619113248379016e-01,
       3.2866456250121079e+00, -9.3849005558462617e-01,
       3.3586110097929640e+00, -9.4232810687959156e-01,
       3.4263989496330605e+00, -9.5125226918389361e-01,
       3.4716156970965724e+00, -9.5851395816752594e-01,
       3.5521932314998872e+00, -9.7420951943124934e-01,
       3.6203157918702638e+00, -9.8977750173248247e-01,
       3.6990261525092061e+00, -1.0154478016708768e+00,
       3.7542640690886171e+00, -1.0446545138628907e+00,
       3.7776431885394062e+00, -1.0726000309975394e+00,
       3.7933141686102281e+00, -1.1137275415427224e+00,
       3.8075425897016770e+00, -1.1508144711073935e+00,
       3.8021845399143488e+00, -1.1919540799793285e+00,
       3.8056546104075033e+00, -1.2307245296122811e+00,
       3.7643892057528077e+00, -1.2651949386685652e+00,
       3.7372783070329416e+00, -1.2906332521677824e+00,
       3.6927915101145419e+00, -1.3088483497392436e+00,
       3.6511961544119558e+00, -1.3224261120737342e+00,
       3.6239455333597577e+00, -1.3336178113177481e+00,
       3.5908133608017541e+00, -1.3412840849547851e+00,
       3.5710805254093403e+00, -1.3528844786702934e+00,
       3.5325315697794895e+00, -1.3553345743010536e+00,
       3.5236932489515769e+00, -1.3600274430792156e+00,
       3.5142246064789804e+00, -1.3627794981962793e+00,
       3.5209321070407653e+00, -1.3610282441103729e+00,
       3.5183239857777999e+00, -1.3602118402001102e+00,
       3.5177509756809644e+00, -1.3590898102451479e+00,
       3.5189384623376250e+00, -1.3598054814426896e+00,
       3.5292025670680607e+00, -1.3573893736996205e+00,
       3.5476828446069293e+00, -1.3543451208045441e+00,
       3.5788634333088769e+00, -1.3503883824528209e+00,
       3.6057829446177481e+00, -1.3400073462096174e+00,
       3.6370523449551633e+00, -1.3315309195131677e+00,
       3.6600935536335477e+00, -1.3126989758972234e+00,
       3.7202402570765813e+00, -1.2960687030421880e+00,
       3.7555382144975011e+00, -1.2712563059186823e+00,
       3.7754319221214083e+00, -1.2343378627521955e+00,
       3.7872544894872635e+00, -1.1963160485395834e+00,
       3.7840074624018158e+00, -1.1633725583566239e+00,
       3.7738907939987238e+00, -1.1272763511341848e+00,
       3.7520440499575312e+00, -1.0885728887870350e+00,
       3.7322152011627376e+00, -1.0514589061922270e+00,
       3.6874614487669803e+00, -1.0256462122868246e+00,
       3.6236342028847699e+00, -9.9949168872201832e-01,
       3.5559144760310182e+00, -9.8651327108941100e-01,
       3.5146354491378111e+00, -9.7521179818650494e-01,
       3.4573341224568579e+00, -9.6258658967684796e-01,
       3.3849174563556250e+00, -9.5303653416222733e-01,
       3.3362095306594952e+00, -9.4945080614859734e-01,
       3.2801099747327700e+00, -9.4157881187639514e-01,
       3.2212875340547567e+00, -9.3380800269536068e-01,
       3.2784968717239580e+00, -9.3758004688322460e-01,
       3.3574444296012591e+00, -9.4602033933108975e-01,
       3.4259732156407208e+00, -9.5396183339222185e-01,
       3.4857565075105108e+00, -9.6086093920566207e-01,
       3.5531096504266353e+00, -9.8121158573476552e-01,
       3.6138248429293096e+00, -1.0018687497910537e+00,
       3.7007542592204588e+00, -1.0268292831338068e+00,
       3.7423185219645658e+00, -1.0586872309202886e+00,
       3.7655034321312839e+00, -1.0940868091892499e+00,
       3.7799692472304764e+00, -1.1391876744562068e+00,
       3.7803962860701938e+00, -1.1794497047441821e+00,
       3.7684864788804964e+00, -1.2190787273225689e+00,
       3.7591061412214013e+00, -1.2571406993016776e+00,
       3.7450520478873610e+00, -1.2909229475268502e+00,
       3.6973916887878349e+00, -1.3098022314397313e+00,
       3.6626839181345656e+00, -1.3285975351108923e+00,
       3.6402147648667356e+00, -1.3421772427294421e+00,
       3.6129771286361043e+00, -1.3504245403033797e+00,
       3.5824867613213236e+00, -1.3604415695034009e+00,
       3.5552131356820724e+00, -1.3629226098136680e+00,
       3.5329661150369822e+00, -1.3624028918481410e+00,
       3.5207818061600045e+00, -1.3677828263033844e+00,
       3.5186227876680642e+00, -1.3679886370940613e+00,
       3.5165818188188180e+00, -1.3700771485230678e+00,
       3.5190037289607914e+00, -1.3708563271666636e+00,
       3.5093302911622892e+00, -1.3687924244281513e+00,
       3.5175028229470082e+00, -1.3684604948112398e+00,
       3.5294287245450735e+00, -1.3659615942968739e+00,
       3.5365754746970341e+00, -1.3664694020539643e+00,
       3.5589000195386538e+00, -1.3631097525696916e+00,
       3.5930497958608476e+00, -1.3546780658657949e+00,
       3.6248728496536784e+00, -1.3485306052005070e+00,
       3.6420145031534523e+00, -1.3364848124080233e+00,
       3.6796870859746020e+00, -1.3185335675406384e+00,
       3.7166286620252316e+00, -1.2974585145542854e+00,
       3.7524494379581665e+00, -1.2633223365749815e+00,
       3.7668630973966604e+00, -1.2233125914409269e+00,
       3.7746698046480924e+00, -1.1869363219179638e+00,
       3.7541571135343350e+00, -1.1515168087200491e+00,
       3.7328226784207796e+00, -1.1109907229183213e+00,
       3.7126083984227356e+00, -1.0694200525804798e+00,
       3.6790728174220377e+00, -1.0374792895682698e+00,
       3.6340540204587852e+00, -1.0125032256320063e+00,
       3.5571404020684199e+00, -9.9133012072352922e-01,
       3.5080485245953841e+00, -9.7458943431268974e-01,
       3.4558551669225941e+00, -9.6464714481981184e-01,
       3.3837285983709382e+00, -9.5489198585662982e-01,
       3.3303429987067288e+00, -9.4758675957507121e-01,
       3.2731821173510123e+00, -9.4216433315042214e-01,
       3.2355351151162637e+00, -9.3788464770188651e-01,
       3.2954017474469737e+00, -9.4258768650097557e-01,
       3.3558498042250671e+00, -9.4257576572959856e-01,
       3.4297715258451151e+00, -9.5356396532858123e-01,
       3.5085908005097202e+00, -9.6365146433405524e-01,
       3.5706612017126802e+00, -9.9167835251332637e-01,
       3.6248919947122755e+00, -1.0117217194185173e+00,
       3.6829649579831338e+00, -1.0394873819897616e+00,
       3.7309377139848006e+00, -1.0738355408642395e+00,
       3.7590243888375907e+00, -1.1232198688115798e+00,
       3.7715663287470367e+00, -1.1705642685815405e+00,
       3.7561479325799740e+00, -1.2054793477853780e+00,
       3.7384493988746468e+00, -1.2446688869248521e+00,
       3.7257671363104921e+00, -1.2800107483412804e+00,
       3.6989511821347616e+00, -1.3092169804897846e+00,
       3.6665562781030370e+00, -1.3290528924784895e+00,
       3.6517814991441089e+00, -1.3456884586893298e+00,
       3.6374213136754667e+00, -1.3536945629554249e+00,
       3.6164269713933122e+00, -1.3633299795404186e+00,
       3.5912065111339166e+00, -1.3689995445237095e+00,
       3.5680354892025412e+00, -1.3644625187222368e+00,
       3.5430483203936363e+00, -1.3607455418220082e+00,
       3.5357832169164145e+00, -1.3609425259227741e+00,
       3.5243075657431100e+00, -1.3647514241820411e+00,
       3.5354347343676422e+00, -1.3659288458612526e+00,
       3.5346291133757757e+00, -1.3656485540214505e+00,
       3.5283444920775993e+00, -1.3643914950548461e+00,
       3.5374824741182791e+00, -1.3679974090431706e+00,
       3.5393989931615160e+00, -1.3667783378292682e+00,
       3.5617922849146422e+00, -1.3718826688029306e+00,
       3.5796354623468556e+00, -1.3735882124908134e+00,
       3.5885184547915756e+00, -1.3700460838459838e+00,
       3.6094837982342178e+00, -1.3623040221289491e+00,
       3.6289928633075235e+00, -1.3549413446543659e+00,
       3.6532224775939630e+00, -1.3359645024149778e+00,
       3.6791444660543093e+00, -1.3189049368886878e+00,
       3.7159178064857787e+00, -1.2929497257928422e+00,
       3.7383419214901390e+00, -1.2539881021560644e+00,
       3.7492982531285590e+00, -1.2157945829293964e+00,
       3.7426931084692705e+00, -1.1755188790075688e+00,
       3.7287846261054409e+00, -1.1348169429882835e+00,
       3.7214477643984831e+00, -1.0950216528063497e+00,
       3.6750869374519262e+00, -1.0553854248007697e+00,
       3.6344328458561845e+00, -1.0256834558503261e+00,
       3.5739794500024660e+00, -9.9884068331261322e-01,
       3.5127747891478687e+00, -9.7718804833432915e-01,
       3.4521522732985441e+00, -9.6664435344167521e-01,
       3.3810742462590193e+00, -9.5469250880485379e-01,
       3.3260681218237731e+00, -9.4716681848379980e-01,
       3.2654251584457237e+00, -9.4320206796125039e-01,
       3.2241443996169248e+00, -9.3712788115589229e-01,
       3.2886858534346439e+00, -9.4142856790159246e-01,
       3.3658448012808888e+00, -9.4753878559999027e-01,
       3.4324768340747416e+00, -9.5250197337307452e-01,
       3.5009883425875765e+00, -9.7411032932938679e-01,
       3.5916679603641275e+00, -9.9903676264751917e-01,
       3.6177803932289296e+00, -1.0193500313788524e+00,
       3.6647090540805967e+00, -1.0551089573119761e+00,
       3.7301839410230326e+00, -1.0992732611576728e+00,
       3.7395971293664836e+00, -1.1517790158574464e+00,
       3.7431169172544458e+00, -1.1927937561287700e+00,
       3.7044062258375079e+00, -1.2252364039763013e+00,
       3.7038384910752673e+00, -1.2665719078787228e+00,
       3.6964124154431133e+00, -1.3033749570792841e+00,
       3.6728907249092724e+00, -1.3284103879385671e+00,
       3.6539113911806398e+00, -1.3467436206145289e+00,
       3.6530927122313419e+00, -1.3577205076394052e+00,
       3.6462462892664624e+00, -1.3630831621293475e+00,
       3.6260275269202542e+00, -1.3694903478255600e+00,
       3.6101796617751680e+00, -1.3636489432220262e+00,
       3.5820141294446732e+00, -1.3566919104569564e+00,
       3.5728918196665953e+00, -1.3536054533636199e+00,
       3.5538609198307936e+00, -1.3488860661026789e+00,
       3.5490836307982687e+00, -1.3483095140002495e+00,
       3.5469678893982062e+00, -1.3496220510370815e+00,
       3.5456851345744704e+00, -1.3505972470299570e+00,
       3.5545136485446269e+00, -1.3529360603910032e+00,
       3.5540153780774881e+00, -1.3520787713903355e+00,
       3.5614714862092169e+00, -1.3550678773812042e+00,
       3.5796229435426898e+00, -1.3622215165593381e+00,
       3.5888433830144808e+00, -1.3687134933910925e+00,
       3.6053956742149391e+00, -1.3718819113788043e+00,
       3.6088653222617264e+00, -1.3693522910530522e+00,
       3.6255343767843451e+00, -1.3635943963394244e+00,
       3.6380741124666143e+00, -1.3516570608044620e+00,
       3.6512678719587179e+00, -1.3373571811197347e+00,
       3.6818426462341920e+00, -1.3164497810444893e+00,
       3.7178312610225213e+00, -1.2848872124764792e+00,
       3.7244621544431280e+00, -1.2459898888382885e+00,
       3.7465848044407104e+00, -1.2056192883911221e+00,
       3.7201200397706340e+00, -1.1629867962889699e+00,
       3.7169872438652205e+00, -1.1192803072126634e+00,
       3.6684788627259977e+00, -1.0738905207124998e+00,
       3.6295310766470807e+00, -1.0371381328156462e+00,
       3.5710888211901128e+00, -1.0091312675495980e+00,
       3.5234458757684863e+00, -9.8986887407603319e-01,
       3.4505493316111249e+00, -9.6795538765619182e-01,
       3.3869089981448419e+00, -9.5680814747137444e-01,
       3.3315845177619625e+00, -9.5033640193648061e-01,
       3.2612354772850782e+00, -9.4684854302277022e-01,
       3.2116429633070149e+00, -9.4066840527284024e-01,
       3.2918370646794148e+00, -9.4705022596588839e-01,
       3.3696822160161051e+00, -9.5225641347752799e-01,
       3.4358838166459242e+00, -9.6401863146096745e-01,
       3.5134504091849701e+00, -9.8643153308889020e-01,
       3.5798176678715277e+00, -1.0072842548117797e+00,
       3.6247065587813077e+00, -1.0389171376136244e+00,
       3.6550204602720751e+00, -1.0775355010452663e+00,
       3.7077936447153670e+00, -1.1279774387612453e+00,
       3.7160902637215867e+00, -1.1790994680248865e+00,
       3.7026648295976416e+00, -1.2154163412386356e+00,
       3.6792028040123732e+00, -1.2514328795122791e+00,
       3.6707338653336343e+00, -1.2907584247768595e+00,
       3.6640082640485234e+00, -1.3225373142460264e+00,
       3.6557094580947420e+00, -1.3422219992656597e+00,
       3.6543143752292657e+00, -1.3577619565833254e+00,
       3.6629203151009722e+00, -1.3659045002050068e+00,
       3.6549521681350825e+00, -1.3678887647770062e+00,
       3.6344064814802324e+00, -1.3628100851881042e+00,
       3.6169667444389364e+00, -1.3541266292304870e+00,
       3.6095261637805027e+00, -1.3472866855577814e+00,
       3.6020037022974960e+00, -1.3446857148449622e+00,
       3.5910864855355888e+00, -1.3414525174136440e+00,
       3.5863161022513741e+00, -1.3391504246140948e+00,
       3.5789468704536445e+00, -1.3387047994074532e+00,
       3.5734472028102950e+00, -1.3389780189231812e+00,
       3.5696669516836725e+00, -1.3382182286068209e+00,
       3.5834790080846539e+00, -1.3442507171297760e+00,
       3.5941243225152406e+00, -1.3490521409443235e+00,
       3.6148563502954425e+00, -1.3519713703744831e+00,
       3.6199257814933330e+00, -1.3602165304881797e+00,
       3.6237383101530098e+00, -1.3694722566405835e+00,
       3.6315781628818580e+00, -1.3714241331765973e+00,
       3.6351397378115538e+00, -1.3700977720715404e+00,
       3.6367443867782669e+00, -1.3576903667895339e+00,
       3.6470105896092448e+00, -1.3513316292417270e+00,
       3.6560884442817816e+00, -1.3313650712193537e+00,
       3.6846243697200145e+00, -1.3087832933671801e+00,
       3.6925035905389607e+00, -1.2719145290136571e+00,
       3.7140583500906788e+00, -1.2353299377835756e+00,
       3.7024363539749783e+00, -1.1919856807739220e+00,
       3.6959751546337358e+00, -1.1446031627651283e+00,
       3.6616603873874727e+00, -1.0972846251201009e+00,
       3.6308334624063283e+00, -1.0547916426028137e+00,
       3.5748850973578370e+00, -1.0204896202234301e+00,
       3.5310455716196731e+00, -1.0000977963548299e+00,
       3.4507951363562026e+00, -9.8147961954396279e-01,
       3.3750910450335629e+00, -9.6551928672259602e-01,
       3.3054545927633079e+00, -9.5072986134901372e-01,
       3.2540430765731077e+00, -9.4778825807853340e-01,
       3.2179675023305880e+00, -9.4569996357050135e-01,
       3.2845299325771133e+00, -9.5029648645314513e-01,
       3.3712659295402920e+00, -9.5985079394214257e-01,
       3.4437211088794304e+00, -9.7424200986185494e-01,
       3.5154513864131323e+00, -9.9983843886043011e-01,
       3.5917477668050628e+00, -1.0242334835791418e+00,
       3.6169761616248377e+00, -1.0574514552076346e+00,
       3.6638729769827183e+00, -1.1070735168827786e+00,
       3.6922379635635783e+00, -1.1599987739379263e+00,
       3.6887379847856012e+00, -1.2042995303168396e+00,
       3.6736327809085796e+00, -1.2419185404221704e+00,
       3.6542069209156400e+00, -1.2783029281217975e+00,
       3.6471584636686982e+00, -1.3167854570573199e+00,
       3.6372541115305514e+00, -1.3358708091542475e+00,
       3.6493166751317991e+00, -1.3518841848000349e+00,
       3.6604608263874057e+00, -1.3591015168132865e+00,
       3.6650254313772836e+00, -1.3657976739572175e+00,
       3.6599955954502126e+00, -1.3613405261052962e+00,
       3.6610805987886716e+00, -1.3519267635230390e+00,
       3.6522320049944064e+00, -1.3419939058582888e+00,
       3.6463827654606238e+00, -1.3301022051031277e+00,
       3.6369202291344775e+00, -1.3258363403176590e+00,
       3.6258189116574777e+00, -1.3288476401159952e+00,
       3.6158403968399102e+00, -1.3253524491765556e+00,
       3.6153676646543258e+00, -1.3214349934189753e+00,
       3.6103298824956811e+00, -1.3201629376217601e+00,
       3.6010100701417289e+00, -1.3219494276220871e+00,
       3.6093254726078778e+00, -1.3272293503588510e+00,
       3.6164550437742031e+00, -1.3303016150532831e+00,
       3.6402768258839688e+00, -1.3321834678414490e+00,
       3.6509137581563689e+00, -1.3413425059121362e+00,
       3.6517084262353650e+00, -1.3533708900699772e+00,
       3.6566028906973753e+00, -1.3625379450273249e+00,
       3.6513208602533771e+00, -1.3648522568332599e+00,
       3.6487471366264592e+00, -1.3620896191870620e+00,
       3.6398141403820219e+00, -1.3540076021828256e+00,
       3.6366881992287001e+00, -1.3438538716179618e+00,
       3.6550013481700403e+00, -1.3270416779415475e+00,
       3.6643761173703493e+00, -1.2998291546727203e+00,
       3.6750271153511918e+00, -1.2642026703916587e+00,
       3.6778745777507487e+00, -1.2226755766745820e+00,
       3.6911444706866554e+00, -1.1800870405759023e+00,
       3.6665585943079066e+00, -1.1268424241953676e+00,
       3.6166041505702338e+00, -1.0772070094333539e+00,
       3.5814422270652608e+00, -1.0403349555819197e+00,
       3.5338082123527657e+00, -1.0156188645699844e+00,
       3.4523682265532498e+00, -9.9504234042170536e-01,
       3.3889488654948154e+00, -9.7709345629209354e-01,
       3.3173878939285384e+00, -9.6172432927575768e-01,
       3.2513969370452789e+00, -9.4951764333389743e-01,
       3.2183443979449526e+00, -9.4886494232226382e-01,
       3.3030991764281374e+00, -9.5717687881287294e-01,
       3.3778732520304562e+00, -9.6852460244707750e-01,
       3.4628507332185885e+00, -9.8624995365515589e-01,
       3.5306758056877463e+00, -1.0157598774441210e+00,
       3.5924496202616232e+00, -1.0454590343196859e+00,
       3.6122305631630818e+00, -1.0835444123191269e+00,
       3.6607697818612981e+00, -1.1402352728302978e+00,
       3.6628705476955514e+00, -1.1924210366915267e+00,
       3.6501841997355782e+00, -1.2349720367059316e+00,
       3.6537280957724310e+00, -1.2734482193135273e+00,
       3.6357888548126240e+00, -1.3084056056751732e+00,
       3.6188266577806991e+00, -1.3337347420583876e+00,
       3.6142021202907340e+00, -1.3474806628208984e+00,
       3.6374271495185986e+00, -1.3549465086515899e+00,
       3.6595821191484363e+00, -1.3591385832155174e+00,
       3.6751767929886090e+00, -1.3568995465886409e+00,
       3.6704374220529750e+00, -1.3444391831219322e+00,
       3.6765986514745421e+00, -1.3301665832010732e+00,
       3.6873447596900357e+00, -1.3174049660469827e+00,
       3.6795104021172174e+00, -1.3048967573333716e+00,
       3.6779482940801205e+00, -1.3107042166606169e+00,
       3.6422464633947351e+00, -1.3038661265975735e+00,
       3.6264721292672966e+00, -1.3013288982695363e+00,
       3.6128286686210567e+00, -1.2947627228361538e+00,
       3.6120177412691716e+00, -1.2930482427593433e+00,
       3.6075411376719142e+00, -1.2973342160077972e+00,
       3.6194808192197114e+00, -1.3045872268818866e+00,
       3.6560162130399139e+00, -1.3076104868251783e+00,
       3.6503474785547954e+00, -1.3046983078585268e+00,
       3.6603012385946259e+00, -1.3146189413664386e+00,
       3.6627195780495261e+00, -1.3342967335170006e+00,
       3.6655542409336763e+00, -1.3468141695395228e+00,
       3.6599257715041698e+00, -1.3613644289306275e+00,
       3.6467018506495568e+00, -1.3645454703098496e+00,
       3.6285223529732722e+00, -1.3573085460528216e+00,
       3.6221458911054998e+00, -1.3550255659846155e+00,
       3.6205226725985340e+00, -1.3406783172537990e+00,
       3.6313460846729089e+00, -1.3220299613805837e+00,
       3.6454767647842381e+00, -1.2970992320120107e+00,
       3.6641365933075907e+00, -1.2575996370305007e+00,
       3.6715041822002465e+00, -1.2167590547160614e+00,
       3.6545997302093354e+00, -1.1616519342866722e+00,
       3.6102159235633207e+00, -1.1087114100693509e+00,
       3.5707342684694034e+00, -1.0594261527218529e+00,
       3.5354990716425161e+00, -1.0330700665441832e+00,
       3.4668616624856292e+00, -1.0082529637537554e+00,
       3.3876407316105883e+00, -9.8611363423603871e-01,
       3.3296240578722887e+00, -9.7330568908674864e-01,
       3.2708655770830810e+00, -9.5664852049668236e-01,
       3.2310692208390508e+00, -9.5195617252174092e-01,
       3.3163109227836456e+00, -9.6266453025187582e-01,
       3.3913853417515294e+00, -9.8120912336736432e-01,
       3.4697191414200090e+00, -1.0033866542714014e+00,
       3.5402859248247851e+00, -1.0359642960328117e+00,
       3.5753688991723371e+00, -1.0674480981996104e+00,
       3.6089301677751626e+00, -1.1156616050758672e+00,
       3.6309790186303323e+00, -1.1735781994295855e+00,
       3.6306623575670294e+00, -1.2262327366572243e+00,
       3.6241223165598293e+00, -1.2626533903126329e+00,
       3.6195531702954700e+00, -1.3029504296427539e+00,
       3.6052468927931223e+00, -1.3314634594587773e+00,
       3.5990133506504187e+00, -1.3454680187602637e+00,
       3.6073963365598534e+00, -1.3540197372883160e+00,
       3.6338354658146619e+00, -1.3581146643747215e+00,
       3.6541096237368724e+00, -1.3491427488308261e+00,
       3.6713917585814690e+00, -1.3420443015306387e+00,
       3.6944788033885994e+00, -1.3245997888929841e+00,
       3.7068626279724972e+00, -1.3004173919967408e+00,
       3.7113021888215956e+00, -1.2850763127429199e+00,
       3.6798121866802802e+00, -1.2771489648823027e+00,
       3.6537066258056234e+00, -1.2786329091920647e+00,
       3.6346192151099630e+00, -1.2824106272023004e+00,
       3.6114613160762437e+00, -1.2765105703741291e+00,
       3.6044111778417167e+00, -1.2757166401754862e+00,
       3.5961130506089947e+00, -1.2734902131230326e+00,
       3.5929379587688275e+00, -1.2756426328338217e+00,
       3.6048627997720883e+00, -1.2774203292368400e+00,
       3.6285744656280907e+00, -1.2757677105405139e+00,
       3.6678095728378919e+00, -1.2755893350852998e+00,
       3.6709127465987024e+00, -1.2786551598064892e+00,
       3.6772623665593311e+00, -1.2977571570669699e+00,
       3.6728355283755287e+00, -1.3228278783605265e+00,
       3.6677749745108517e+00, -1.3450383195022870e+00,
       3.6409877159491084e+00, -1.3555711324358726e+00,
       3.6198012565517548e+00, -1.3576083130490435e+00,
       3.6015665708236644e+00, -1.3592001909740774e+00,
       3.6068008355279417e+00, -1.3534978146166305e+00,
       3.6025493932021866e+00, -1.3399593040287956e+00,
       3.6105546953742658e+00, -1.3211658855456709e+00,
       3.6253111061621301e+00, -1.2885373211219118e+00,
       3.6439965560516057e+00, -1.2531061424783168e+00,
       3.6388479046916347e+00, -1.2013392816356392e+00,
       3.6072173852090264e+00, -1.1422969778114112e+00,
       3.5627193611380341e+00, -1.0882403072080666e+00,
       3.5294987962800861e+00, -1.0500705660455631e+00,
       3.4762416591133580e+00, -1.0226000183402693e+00,
       3.3987562802925657e+00, -9.9756667266897492e-01,
       3.3417186137691988e+00, -9.8112482547161162e-01,
       3.2688075774426562e+00, -9.6177038866156306e-01,
       3.2499885717692951e+00, -9.5672681511095548e-01,
       3.3363257542410589e+00, -9.7640453438875696e-01,
       3.4203728098241220e+00, -9.9510234061093106e-01,
       3.4904061773227695e+00, -1.0220750478750824e+00,
       3.5507468063540211e+00, -1.0567791971537686e+00,
       3.5757287338277108e+00, -1.0956735506058635e+00,
       3.6052958500794983e+00, -1.1552829809479277e+00,
       3.6154488965505154e+00, -1.2094288566164495e+00,
       3.6034617983378952e+00, -1.2557252815422137e+00,
       3.6006055097938394e+00, -1.2937886657758957e+00,
       3.5882447979914391e+00, -1.3255964926887074e+00,
       3.5688293866961667e+00, -1.3401273852507183e+00,
       3.5776979417548871e+00, -1.3532568004831949e+00,
       3.5907718226697010e+00, -1.3550809105055821e+00,
       3.6258616265613695e+00, -1.3501442500135756e+00,
       3.6554762744618317e+00, -1.3392793069278996e+00,
       3.6868326395975850e+00, -1.3213954534855656e+00,
       3.6878207642506142e+00, -1.2908513022908301e+00,
       3.7129774295090243e+00, -1.2613198896068958e+00,
       3.7065412548388688e+00, -1.2437790778369680e+00,
       3.6682727617050923e+00, -1.2421631051153041e+00,
       3.6436956256634088e+00, -1.2493745486709089e+00,
       3.6317061531954136e+00, -1.2590530414415309e+00,
       3.5905591769284237e+00, -1.2556499552935776e+00,
       3.5736947284024057e+00, -1.2499157948897537e+00,
       3.5658159553631870e+00, -1.2520087767853743e+00,
       3.5639342462294126e+00, -1.2534502363973181e+00,
       3.5869336000927299e+00, -1.2565745894393521e+00,
       3.6252087240926540e+00, -1.2529049757938335e+00,
       3.6433874145808898e+00, -1.2435133226529245e+00,
       3.6732177203907441e+00, -1.2473163243379046e+00,
       3.6816023510375877e+00, -1.2593765058545470e+00,
       3.6874034506765927e+00, -1.2907985471804564e+00,
       3.6691328261567651e+00, -1.3161016366927851e+00,
       3.6441226459766587e+00, -1.3373861133291971e+00,
       3.6137731298568485e+00, -1.3501135502356856e+00,
       3.5837610321697806e+00, -1.3533735134660430e+00,
       3.5768491108341638e+00, -1.3581161653274869e+00,
       3.5729415438899084e+00, -1.3520732501149064e+00,
       3.5744636849646843e+00, -1.3390318560606209e+00,
       3.5975871232020835e+00, -1.3168235124756689e+00,
       3.6169831297385802e+00, -1.2793776566825792e+00,
       3.6152403841371408e+00, -1.2337552374539094e+00,
       3.5959916494061881e+00, -1.1753077387080240e+00,
       3.5606879605708581e+00, -1.1170959660992952e+00,
       3.5275440589213352e+00, -1.0739560129893537e+00,
       3.4915853020380387e+00, -1.0396608333441484e+00,
       3.4152915920832498e+00, -1.0104745383094313e+00,
       3.3577402300508377e+00, -9.9381298646808380e-01,
       3.2763719107298557e+00, -9.7123187988534099e-01,
       3.2693651942529520e+00, -9.6563852272861905e-01,
       3.3521029594935343e+00, -9.8525035516266524e-01,
       3.4359339174185979e+00, -1.0069503033484004e+00,
       3.5086345697112455e+00, -1.0408032842407982e+00,
       3.5465753007374556e+00, -1.0809237317207778e+00,
       3.5842266275347376e+00, -1.1280810522046381e+00,
       3.5945972186070372e+00, -1.1869576565358568e+00,
       3.5901953664593287e+00, -1.2420236104848352e+00,
       3.5871522890113297e+00, -1.2837731924833897e+00,
       3.5765074822011051e+00, -1.3169716383361003e+00,
       3.5560849396368037e+00, -1.3363385751622443e+00,
       3.5457460777201266e+00, -1.3461235477736337e+00,
       3.5561320320865417e+00, -1.3536905105663402e+00,
       3.5858954426600076e+00, -1.3515792957469972e+00,
       3.6206339359274975e+00, -1.3416569269976855e+00,
       3.6656465842737043e+00, -1.3180265709249279e+00,
       3.7080446225505419e+00, -1.2897591147344654e+00,
       3.7233391701158585e+00, -1.2604547227254519e+00,
       3.7099604643434190e+00, -1.2216099783536705e+00,
       3.6629846716114174e+00, -1.2027655112135873e+00,
       3.6286968771908090e+00, -1.2099118216265501e+00,
       3.5903152176363067e+00, -1.2213841411645869e+00,
       3.5707185857774530e+00, -1.2277611699919100e+00,
       3.5456450305444904e+00, -1.2305975013652710e+00,
       3.5526047006672554e+00, -1.2300461579439255e+00,
       3.5490277275066981e+00, -1.2308803096675491e+00,
       3.5431555863078850e+00, -1.2307060100600926e+00,
       3.5672467398038861e+00, -1.2279840332084140e+00,
       3.5926957488209643e+00, -1.2204280363577584e+00,
       3.6176095991779125e+00, -1.2052502089565622e+00,
       3.6554440733031712e+00, -1.2050358410442767e+00,
       3.6830556136821735e+00, -1.2216089521558906e+00,
       3.6962420031464109e+00, -1.2528069898514427e+00,
       3.6815363053135042e+00, -1.2849929280893790e+00,
       3.6583140782173027e+00, -1.3177010195460277e+00,
       3.6260915250857058e+00, -1.3426028158081980e+00,
       3.5760355740779368e+00, -1.3506057367923268e+00,
       3.5468909815520586e+00, -1.3560555224727451e+00,
       3.5420984598586340e+00, -1.3528579647838939e+00,
       3.5538903835449358e+00, -1.3500283843096532e+00,
       3.5677156499033953e+00, -1.3344794552452219e+00,
       3.5834457287147456e+00, -1.3045006467042120e+00,
       3.5978391646861261e+00, -1.2672517564006607e+00,
       3.5975585218853952e+00, -1.2116415433511745e+00,
       3.5761753951115787e+00, -1.1547998483525646e+00,
       3.5290750615892295e+00, -1.0990818038872407e+00,
       3.4919051868429336e+00, -1.0556998319636404e+00,
       3.4343231616489502e+00, -1.0247864825990465e+00,
       3.3699877441034380e+00, -1.0037030113352614e+00,
       3.2869017498772322e+00, -9.8128288799158081e-01,
       3.2751066322760285e+00, -9.7611982709779110e-01,
       3.3684152164333581e+00, -9.9182841251230602e-01,
       3.4486525071881298e+00, -1.0193077369777586e+00,
       3.5262898494029291e+00, -1.0595671044460955e+00,
       3.5502125904557693e+00, -1.1039059222562675e+00,
       3.5704859310588994e+00, -1.1607020860558799e+00,
       3.5784513794936998e+00, -1.2171670805681989e+00,
       3.5792029515273294e+00, -1.2702017638037939e+00,
       3.5736460106599739e+00, -1.3092047343232438e+00,
       3.5578653482133662e+00, -1.3325611465404936e+00,
       3.5342858068764591e+00, -1.3477033573199400e+00,
       3.5318984880856403e+00, -1.3525133876610771e+00,
       3.5436905558705698e+00, -1.3448361466137320e+00,
       3.5710399384497213e+00, -1.3361086977067329e+00,
       3.6227603446209509e+00, -1.3240735851082848e+00,
       3.6712669880374609e+00, -1.2917892066273811e+00,
       3.7118042324229581e+00, -1.2606250956371190e+00,
       3.7203852538870485e+00, -1.2243292631956291e+00,
       3.7085026048461889e+00, -1.1934658289475750e+00,
       3.6419240757421467e+00, -1.1805223474510027e+00,
       3.5992732755460168e+00, -1.1804686524081853e+00,
       3.5437872539561699e+00, -1.1866813249659127e+00,
       3.5193952773833104e+00, -1.1976005455809722e+00,
       3.4707900268280514e+00, -1.2014418063622994e+00,
       3.4935339851090546e+00, -1.2031635214295979e+00,
       3.4766008743458814e+00, -1.2023433585880128e+00,
       3.4756311455355196e+00, -1.2035235526794825e+00,
       3.5134127220270672e+00, -1.1998804652635633e+00,
       3.5595728706903693e+00, -1.1890085160057273e+00,
       3.6043267218346995e+00, -1.1796281998406926e+00,
       3.6575716358239547e+00, -1.1815004210598652e+00,
       3.7162797167034904e+00, -1.1909082051082081e+00,
       3.7017040181258234e+00, -1.2126797361936996e+00,
       3.6846348383859322e+00, -1.2491238960519893e+00,
       3.6647529627588238e+00, -1.2882700919259560e+00,
       3.6274510907940312e+00, -1.3162267861766537e+00,
       3.5887034224805152e+00, -1.3396750974449445e+00,
       3.5377530500459193e+00, -1.3514117850754772e+00,
       3.5130997737738010e+00, -1.3526663271073318e+00,
       3.5317341172441443e+00, -1.3549461129531304e+00,
       3.5528946404897086e+00, -1.3489619550829948e+00,
       3.5688145898912622e+00, -1.3274464664601946e+00,
       3.5903187919475852e+00, -1.2944711026178697e+00,
       3.5937394329210557e+00, -1.2457296972303122e+00,
       3.5802114696812195e+00, -1.1841065831552147e+00,
       3.5294101364169221e+00, -1.1235355672949356e+00,
       3.4933065570009321e+00, -1.0744129620925968e+00,
       3.4401731734050398e+00, -1.0374982498805199e+00,
       3.3814962808823283e+00, -1.0125284478902787e+00,
       3.3061547806659553e+00, -9.9111117421537320e-01,
       3.2734807429332142e+00, -9.8397988833720174e-01,
       3.3816523395177795e+00, -1.0041226500095306e+00,
       3.4714012853865635e+00, -1.0353976634450022e+00,
       3.5189836855778989e+00, -1.0794571534728961e+00,
       3.5480973822253272e+00, -1.1266594214039471e+00,
       3.5645906919595407e+00, -1.1877528595957667e+00,
       3.5675670048599568e+00, -1.2441265340512917e+00,
       3.5670502563676170e+00, -1.2911299466272441e+00,
       3.5566810358300618e+00, -1.3273471531491041e+00,
       3.5420372928463055e+00, -1.3467082347670454e+00,
       3.5213175896065128e+00, -1.3539008353103181e+00,
       3.5138448976953187e+00, -1.3503539128539055e+00,
       3.5456724307377230e+00, -1.3422303231077577e+00,
       3.5883636841144790e+00, -1.3289409971167905e+00,
       3.6246228466628727e+00, -1.3035335422716190e+00,
       3.6758308483826938e+00, -1.2660247703409577e+00,
       3.6876996209527326e+00, -1.2372052616966149e+00,
       3.7127610588987214e+00, -1.2131327573845252e+00,
       3.6924085104494582e+00, -1.1914922529818468e+00,
       3.6582498898471796e+00, -1.1867223073812259e+00,
       3.5813691724264483e+00, -1.1790828890472089e+00,
       3.5362576401779866e+00, -1.1874848782031098e+00,
       3.4708003925758675e+00, -1.1947395622534018e+00,
       3.4183614882767293e+00, -1.2011770171153624e+00,
       3.4399965316371008e+00, -1.2079523249028359e+00,
       3.4278705267248317e+00, -1.2056461200863822e+00,
       3.4165797275715657e+00, -1.2020407389469858e+00,
       3.4409602785710369e+00, -1.1981426407583800e+00,
       3.5062571804127831e+00, -1.1898023916496090e+00,
       3.5620823545072060e+00, -1.1832384680978152e+00,
       3.6165848392108453e+00, -1.1794264300486568e+00,
       3.7006361945192379e+00, -1.1937942270815836e+00,
       3.7024002883972251e+00, -1.2076428607359249e+00,
       3.6883203675110781e+00, -1.2268482285653699e+00,
       3.6717249380028534e+00, -1.2622554714998797e+00,
       3.6433776619619782e+00, -1.2972530930353141e+00,
       3.6029538223316333e+00, -1.3226524692177732e+00,
       3.5505004758957157e+00, -1.3457306226306616e+00,
       3.5159180212225691e+00, -1.3521396108630170e+00,
       3.5205467516539790e+00, -1.3586348131096042e+00,
       3.5353158564896443e+00, -1.3582472302262389e+00,
       3.5652014523156543e+00, -1.3439945597060146e+00,
       3.5838751865942990e+00, -1.3173370021897313e+00,
       3.5985519035999736e+00, -1.2769388007113978e+00,
       3.5793885135531656e+00, -1.2149634583125140e+00,
       3.5608737849760650e+00, -1.1546763675438112e+00,
       3.4996410933549194e+00, -1.0958454125749975e+00,
       3.4489142877183379e+00, -1.0550392845797520e+00,
       3.3921138199290604e+00, -1.0256886123260243e+00,
       3.3145830358546551e+00, -1.0034422021905782e+00,
       3.2996699816710553e+00, -9.9795435032014590e-01,
       3.3887063981771530e+00, -1.0186124222348980e+00,
       3.4768619954558129e+00, -1.0541942113082750e+00,
       3.5194537664410355e+00, -1.0997850423654740e+00,
       3.5536231063517443e+00, -1.1551787717201161e+00,
       3.5732539975745072e+00, -1.2164913387243725e+00,
       3.5612504628357651e+00, -1.2644927754365383e+00,
       3.5715548058532094e+00, -1.3089287837412145e+00,
       3.5498391129389728e+00, -1.3388874563810862e+00,
       3.5223486422993564e+00, -1.3517362264612827e+00,
       3.5188119158830209e+00, -1.3589071841023062e+00,
       3.5206276053822334e+00, -1.3509009973658594e+00,
       3.5580515199763636e+00, -1.3371468585980568e+00,
       3.5928248730767454e+00, -1.3111007738156719e+00,
       3.6109323401936027e+00, -1.2773744796449384e+00,
       3.6348218174978006e+00, -1.2474851945512768e+00,
       3.6465778183622310e+00, -1.2240905719763611e+00,
       3.6522382323553249e+00, -1.2113517863226442e+00,
       3.6427336003425421e+00, -1.2021186401598469e+00,
       3.6045655348417611e+00, -1.1910070809074678e+00,
       3.5636531972567194e+00, -1.1920537585200552e+00,
       3.5276552365211069e+00, -1.1972558217009099e+00,
       3.4569943854659986e+00, -1.2035440178591303e+00,
       3.4195850667203209e+00, -1.2100844143861029e+00,
       3.4337878295558411e+00, -1.2172426701395203e+00,
       3.4317434717822097e+00, -1.2161137960755264e+00,
       3.4161884957573734e+00, -1.2104286445869721e+00,
       3.4463489416327584e+00, -1.2071975057994744e+00,
       3.4943322003214017e+00, -1.2039383954785570e+00,
       3.5291570419163412e+00, -1.1997784637519615e+00,
       3.5767418287715098e+00, -1.2010412826040417e+00,
       3.6362308471401370e+00, -1.2128450373221620e+00,
       3.6598578263857506e+00, -1.2226493134138996e+00,
       3.6708337947947323e+00, -1.2302105751732118e+00,
       3.6542230785359271e+00, -1.2473787791878268e+00,
       3.6249635973360124e+00, -1.2737854522474967e+00,
       3.6041637777087825e+00, -1.3070823498552573e+00,
       3.5602862548426262e+00, -1.3311738076870299e+00,
       3.5212160353808497e+00, -1.3457184652900165e+00,
       3.5183423091390398e+00, -1.3558697732913367e+00,
       3.5290402137608297e+00, -1.3637502687849727e+00,
       3.5463778498008280e+00, -1.3523315850732631e+00,
       3.5802154937166497e+00, -1.3358409375468703e+00,
       3.5931731210202287e+00, -1.2988926580110629e+00,
       3.5903164640263729e+00, -1.2440679000496333e+00,
       3.5639025402886739e+00, -1.1794514951366952e+00,
       3.5142594068943533e+00, -1.1216576536261311e+00,
       3.4619869325601957e+00, -1.0731032916260794e+00,
       3.3946175490331716e+00, -1.0396092181158736e+00,
       3.3320040090845526e+00, -1.0153905705669199e+00,
       3.3093974486245727e+00, -1.0090265254127770e+00,
       3.3928232416031054e+00, -1.0339311504063198e+00,
       3.4775134597920867e+00, -1.0718978577414235e+00,
       3.5247915815330733e+00, -1.1195676924982811e+00,
       3.5582226616922386e+00, -1.1805987372425024e+00,
       3.5745307123669856e+00, -1.2385284503102620e+00,
       3.5652500394046260e+00, -1.2814419809689346e+00,
       3.5645821398196693e+00, -1.3194604756023403e+00,
       3.5443451861326132e+00, -1.3493485787229624e+00,
       3.5203654402631237e+00, -1.3530104920913537e+00,
       3.5207026634405234e+00, -1.3555114615889259e+00,
       3.5128027102584674e+00, -1.3430296551329461e+00,
       3.5464076747205278e+00, -1.3268890566079405e+00,
       3.5699292357280559e+00, -1.2955181966680611e+00,
       3.5934007932949203e+00, -1.2669370845998287e+00,
       3.6040351013486220e+00, -1.2451977989681207e+00,
       3.6118932469124903e+00, -1.2420347409841068e+00,
       3.6199774982653916e+00, -1.2384231581739655e+00,
       3.5977840670223813e+00, -1.2334324840672402e+00,
       3.5874111616444502e+00, -1.2278930118310922e+00,
       3.5465642194938991e+00, -1.2214753168342072e+00,
       3.5360312241390384e+00, -1.2267342242056791e+00,
       3.4880945991918999e+00, -1.2291740576520700e+00,
       3.4559564588323615e+00, -1.2322425799045897e+00,
       3.4508722801399152e+00, -1.2417894373589973e+00,
       3.4399684463556102e+00, -1.2363790947320761e+00,
       3.4353762618308492e+00, -1.2324782316707368e+00,
       3.4526878234407015e+00, -1.2292959977762883e+00,
       3.4934717873283296e+00, -1.2245029123024282e+00,
       3.5165044284562965e+00, -1.2234853294306074e+00,
       3.5447954897339615e+00, -1.2299300197507033e+00,
       3.5680217966477970e+00, -1.2349187732037685e+00,
       3.5809226222883574e+00, -1.2411126225280331e+00,
       3.5994200772474287e+00, -1.2430427544802740e+00,
       3.6096551936091372e+00, -1.2522234460261044e+00,
       3.5983974648198203e+00, -1.2654450036664189e+00,
       3.5900216024276363e+00, -1.2942311696042050e+00,
       3.5691393684583499e+00, -1.3265910842701281e+00,
       3.5304365904149444e+00, -1.3419058255189111e+00,
       3.5178264993244794e+00, -1.3548595005429374e+00,
       3.5168044756646943e+00, -1.3608327140054615e+00,
       3.5389606066644785e+00, -1.3641943887967605e+00,
       3.5644681007139023e+00, -1.3452411814098018e+00,
       3.5808389077626401e+00, -1.3129725933333183e+00,
       3.5835176559093012e+00, -1.2689356359913713e+00,
       3.5580073218168136e+00, -1.2011918151363352e+00,
       3.5320534789600786e+00, -1.1437013208448827e+00,
       3.4678049853005422e+00, -1.0883709211870303e+00,
       3.4059023249300582e+00, -1.0528347631545125e+00,
       3.3410224276006550e+00, -1.0253093499611512e+00,
       3.3276329593962424e+00, -1.0179905714721489e+00,
       3.4016636752846052e+00, -1.0456740435815226e+00,
       3.4842350344870452e+00, -1.0881624102025682e+00,
       3.5252588328434120e+00, -1.1400977864922994e+00,
       3.5574776667070225e+00, -1.2023287971496248e+00,
       3.5724574751754266e+00, -1.2564757089888612e+00,
       3.5785740591047950e+00, -1.2994286408573779e+00,
       3.5560712846645606e+00, -1.3301135772415742e+00,
       3.5379674926306790e+00, -1.3522822929094793e+00,
       3.5232286389493255e+00, -1.3586753047449200e+00,
       3.5081088336027393e+00, -1.3526431400965437e+00,
       3.5060041306881300e+00, -1.3414336743743880e+00,
       3.5427902123299928e+00, -1.3200596454662932e+00,
       3.5512197401072978e+00, -1.2929559027421960e+00,
       3.5664469782393740e+00, -1.2731105046327593e+00,
       3.5748888884505927e+00, -1.2617151195436100e+00,
       3.5799320605910121e+00, -1.2672931269675889e+00,
       3.5658630964893536e+00, -1.2659431617461305e+00,
       3.5529396895716192e+00, -1.2711487576480947e+00,
       3.5541580676800577e+00, -1.2701974455685261e+00,
       3.5375227913720160e+00, -1.2677677764091608e+00,
       3.5240187011339348e+00, -1.2707281570991131e+00,
       3.4894193713433683e+00, -1.2698166238614186e+00,
       3.4526571620057855e+00, -1.2695248302133730e+00,
       3.4398604648846325e+00, -1.2740403218148653e+00,
       3.4430953757549121e+00, -1.2732075745117788e+00,
       3.4372999767062518e+00, -1.2695255220296984e+00,
       3.4431316332269595e+00, -1.2670746568432465e+00,
       3.4778661279953837e+00, -1.2648676144868021e+00,
       3.5009082843608739e+00, -1.2648481998132064e+00,
       3.5224232724451321e+00, -1.2712808367045962e+00,
       3.5179017121417075e+00, -1.2688477180548554e+00,
       3.5377916609795439e+00, -1.2700713917299384e+00,
       3.5609241860083385e+00, -1.2739083551836128e+00,
       3.5725026415771155e+00, -1.2711273143079771e+00,
       3.5736041129457345e+00, -1.2803506706939785e+00,
       3.5604802193191234e+00, -1.3013075145159085e+00,
       3.5521076768048436e+00, -1.3242055659334950e+00,
       3.5287598487059482e+00, -1.3427934951722638e+00,
       3.5137899760217532e+00, -1.3566360437569416e+00,
       3.5146401839367165e+00, -1.3617912233663394e+00,
       3.5348804776529481e+00, -1.3665094912041043e+00,
       3.5536612759216828e+00, -1.3524732719990047e+00,
       3.5668399153083938e+00, -1.3250142945051417e+00,
       3.5917407415103861e+00, -1.2880477779668793e+00,
       3.5722224393205129e+00, -1.2272734125019642e+00,
       3.5549574230222074e+00, -1.1703908903044409e+00,
       3.4975886881001155e+00, -1.1094021902974420e+00,
       3.4235865348711929e+00, -1.0687980584269685e+00,
       3.3470669398256341e+00, -1.0320608221874874e+00,
       3.3470370533123748e+00, -1.0280868763738764e+00,
       3.4068767321538735e+00, -1.0581465005592103e+00,
       3.4898731171772197e+00, -1.1030485437217323e+00,
       3.5359606249796331e+00, -1.1623297355327427e+00,
       3.5630969480894792e+00, -1.2229452339036471e+00,
       3.5713602057556657e+00, -1.2712804822528356e+00,
       3.5738740494249290e+00, -1.3111249677891144e+00,
       3.5492917195342590e+00, -1.3381697097000980e+00,
       3.5317809776875371e+00, -1.3538606196898584e+00,
       3.5265427433624410e+00, -1.3629430496623200e+00,
       3.5034161953487031e+00, -1.3526035613921128e+00,
       3.5052668425730271e+00, -1.3454845674448392e+00,
       3.5170589995717085e+00, -1.3263766320499633e+00,
       3.5190696386834013e+00, -1.3091558361643039e+00,
       3.5383518353332910e+00, -1.3005590601386667e+00,
       3.5365680827431869e+00, -1.2959379309316086e+00,
       3.5456563878253737e+00, -1.3045070346627381e+00,
       3.5313044609730655e+00, -1.3065822062293597e+00,
       3.5138271541618162e+00, -1.3059811324995900e+00,
       3.5167221161302793e+00, -1.3093470537470830e+00,
       3.5153756314863358e+00, -1.3122263099077727e+00,
       3.4998422063509160e+00, -1.3122122350802137e+00,
       3.4595301947047412e+00, -1.3085230578606204e+00,
       3.4448866798695783e+00, -1.3120039878123491e+00,
       3.4446395901862905e+00, -1.3134052269901137e+00,
       3.4506406066268362e+00, -1.3119451195615919e+00,
       3.4445315746260889e+00, -1.3128812558316969e+00,
       3.4519556630163248e+00, -1.3144039369577847e+00,
       3.4852757151264258e+00, -1.3137084472047436e+00,
       3.5032509743263884e+00, -1.3130708907273725e+00,
       3.5036470096400394e+00, -1.3097204401931264e+00,
       3.4989340744742550e+00, -1.3108841111520242e+00,
       3.4984674013889179e+00, -1.3058671014676906e+00,
       3.5132015542460344e+00, -1.3007116580597240e+00,
       3.5192488063367446e+00, -1.3000595187589306e+00,
       3.5239041428661557e+00, -1.3043722996541749e+00,
       3.5210397010341374e+00, -1.3126510197160892e+00,
       3.5076350166582233e+00, -1.3275101643173808e+00,
       3.5083601110617066e+00, -1.3470133892161320e+00,
       3.5091875917988560e+00, -1.3562595176440437e+00,
       3.5100746437018953e+00, -1.3626256066405402e+00,
       3.5350775207103551e+00, -1.3682338152083886e+00,
       3.5561097915244537e+00, -1.3584759295967495e+00,
       3.5721117835703269e+00, -1.3352476298048257e+00,
       3.5863662503805971e+00, -1.3011689809598284e+00,
       3.5791597893121381e+00, -1.2513255693121719e+00,
       3.5678636176279825e+00, -1.1950318300183580e+00,
       3.5037252052999479e+00, -1.1280284146161397e+00,
       3.4340000595036941e+00, -1.0822601588714682e+00,
       3.3816593376845048e+00, -1.0448272830251497e+00,
       3.3752319293117443e+00, -1.0352886638522374e+00,
       3.4243783386515565e+00, -1.0706817861722546e+00,
       3.5052520821338362e+00, -1.1226858392720809e+00,
       3.5430113420632297e+00, -1.1825694814808345e+00,
       3.5668506821472028e+00, -1.2385024721143201e+00,
       3.5743328731261572e+00, -1.2864669710238552e+00,
       3.5650598690107569e+00, -1.3211432918195569e+00,
       3.5456380010836575e+00, -1.3466657527951533e+00,
       3.5396290042693597e+00, -1.3602936289905809e+00,
       3.5195186575367896e+00, -1.3676038447408512e+00,
       3.4899763516841436e+00, -1.3579451349391947e+00,
       3.4797077221617894e+00, -1.3505085119471691e+00,
       3.4817371460571196e+00, -1.3417733461058430e+00,
       3.4873393130836092e+00, -1.3337831698544313e+00,
       3.4866583068842107e+00, -1.3274378257745414e+00,
       3.4894171674457035e+00, -1.3276390828868105e+00,
       3.4953987651512373e+00, -1.3327761835244725e+00,
       3.4897212408032163e+00, -1.3394461121277943e+00,
       3.5100489405064530e+00, -1.3441360225266710e+00,
       3.5052310839019212e+00, -1.3389850737924294e+00,
       3.5046194072131560e+00, -1.3381442276681397e+00,
       3.4843113097859355e+00, -1.3329472478257218e+00,
       3.4530731651552369e+00, -1.3326662697181351e+00,
       3.4450877873532861e+00, -1.3234111313810724e+00,
       3.4509834771290477e+00, -1.3163279287495380e+00,
       3.4541512864301334e+00, -1.3154618608486159e+00,
       3.4351062548653268e+00, -1.3221345681253391e+00,
       3.4338141797487345e+00, -1.3282114760379942e+00,
       3.4691998604869365e+00, -1.3355641011959107e+00,
       3.4834706968752225e+00, -1.3375386245829564e+00,
       3.4798233536981114e+00, -1.3368189585523929e+00,
       3.4812283174435441e+00, -1.3391511587819145e+00,
       3.4753419675441175e+00, -1.3391261420308398e+00,
       3.4730109243263456e+00, -1.3372002968398196e+00,
       3.4719111545470098e+00, -1.3345633922099869e+00,
       3.4808688464104978e+00, -1.3352792436856800e+00,
       3.4749763857045872e+00, -1.3322307863737990e+00,
       3.4685974624437268e+00, -1.3392586083201052e+00,
       3.4755254223754206e+00, -1.3501877182278568e+00,
       3.4790938198972232e+00, -1.3546623143595335e+00,
       3.5098973930866988e+00, -1.3640975532462996e+00,
       3.5318140160605096e+00, -1.3678507275861340e+00,
       3.5478822302155399e+00, -1.3644806414828685e+00,
       3.5750263246776619e+00, -1.3437731980166472e+00,
       3.5815839716229312e+00, -1.3137861269382574e+00,
       3.5842548855784160e+00, -1.2683489412563718e+00,
       3.5711678258262562e+00, -1.2147939466133060e+00,
       3.5233497815192210e+00, -1.1495319607504033e+00,
       3.4522285205878922e+00, -1.0952798267143256e+00,
       3.3938363150972082e+00, -1.0577134181247856e+00,
       3.3923587261325352e+00, -1.0423646365794308e+00,
       3.4303519607677440e+00, -1.0826329543817925e+00,
       3.5195694926992314e+00, -1.1434272218065809e+00,
       3.5478571836885799e+00, -1.2017432552355451e+00,
       3.5638974886033847e+00, -1.2550572708542138e+00,
       3.5755982516629259e+00, -1.3008016678703909e+00,
       3.5585687787364626e+00, -1.3314426011399307e+00,
       3.5365564149432744e+00, -1.3554777998020586e+00,
       3.5224795715464881e+00, -1.3712126619491236e+00,
       3.4941161295035368e+00, -1.3712449722959497e+00,
       3.4664302772021478e+00, -1.3644589918206540e+00,
       3.4494308576827044e+00, -1.3550481308504800e+00,
       3.4442876495343464e+00, -1.3515425785835231e+00,
       3.4340207199105777e+00, -1.3444521340671289e+00,
       3.4351309737578335e+00, -1.3484911402986377e+00,
       3.4386348731398830e+00, -1.3519484260929733e+00,
       3.4514897140869722e+00, -1.3556251126739063e+00,
       3.4561703374145010e+00, -1.3546141797052791e+00,
       3.4802561831309107e+00, -1.3496069000631634e+00,
       3.4984361331781453e+00, -1.3405300937199893e+00,
       3.5077087156183349e+00, -1.3286340072211524e+00,
       3.4973345957623043e+00, -1.3211847263692398e+00,
       3.4551356406724745e+00, -1.3151372321198329e+00,
       3.4522322577417182e+00, -1.3068950868210583e+00,
       3.4857509631895542e+00, -1.3026200760336188e+00,
       3.4874386243766908e+00, -1.3015399516513972e+00,
       3.4607530349507005e+00, -1.3090327404548965e+00,
       3.4434346680225811e+00, -1.3112699938537955e+00,
       3.4738900711154339e+00, -1.3158885785209540e+00,
       3.4786782409764783e+00, -1.3237800367815138e+00,
       3.4713269752905460e+00, -1.3395995775853013e+00,
       3.4503335123515826e+00, -1.3475072824229186e+00,
       3.4428171170790418e+00, -1.3555597815346951e+00,
       3.4330787296824332e+00, -1.3609180016556501e+00,
       3.4322983390674842e+00, -1.3623057591439616e+00,
       3.4350803589496923e+00, -1.3598892743975384e+00,
       3.4317123474422635e+00, -1.3509402642906485e+00,
       3.4345645278739592e+00, -1.3546338187005651e+00,
       3.4409685765364886e+00, -1.3553544245243272e+00,
       3.4626940755715743e+00, -1.3668844851842319e+00,
       3.4874716083111412e+00, -1.3723034087619668e+00,
       3.5155285075812444e+00, -1.3745667755083577e+00,
       3.5343776582610591e+00, -1.3670960244215069e+00,
       3.5525657948226854e+00, -1.3499539817727022e+00,
       3.5714700762689828e+00, -1.3249753370060997e+00,
       3.5857343938926256e+00, -1.2860229540406329e+00,
       3.5591207904925422e+00, -1.2305770923077499e+00,
       3.5285504210072820e+00, -1.1702041375012764e+00,
       3.4585431732257339e+00, -1.1066214407945933e+00,
       3.4093697178132243e+00, -1.0647845208129032e+00,
       3.4127780396451426e+00, -1.0523692029370653e+00,
       3.4445693872354899e+00, -1.0956292389044746e+00,
       3.5184010897093416e+00, -1.1605917822990237e+00,
       3.5431348390808597e+00, -1.2206632058063003e+00,
       3.5580166747937838e+00, -1.2717322919325242e+00,
       3.5616512360895221e+00, -1.3123470195937050e+00,
       3.5443061649635226e+00, -1.3435380620177539e+00,
       3.5157973093614441e+00, -1.3620684661104319e+00,
       3.4923052646873725e+00, -1.3792430210222650e+00,
       3.4544708994292930e+00, -1.3775821231957621e+00,
       3.4262534424361810e+00, -1.3725357377016685e+00,
       3.4067810355772781e+00, -1.3634287331997088e+00,
       3.3947136926865866e+00, -1.3568381233231663e+00,
       3.3912217743370188e+00, -1.3549605163239737e+00,
       3.4006248319818297e+00, -1.3617957534466287e+00,
       3.4123380249874589e+00, -1.3620224608518587e+00,
       3.4357373139604990e+00, -1.3643796689599030e+00,
       3.4523590949592009e+00, -1.3568805786402742e+00,
       3.4928124890482328e+00, -1.3382392402547656e+00,
       3.5238096750710484e+00, -1.3223063114887070e+00,
       3.5507695482412158e+00, -1.2999599245610924e+00,
       3.5457142871626268e+00, -1.2875416788743721e+00,
       3.5177931053742220e+00, -1.2822888062701694e+00,
       3.5188803915672944e+00, -1.2800923731969804e+00,
       3.5521481579362284e+00, -1.2818740310917744e+00,
       3.5609521229950345e+00, -1.2785766538638252e+00,
       3.5323554494823157e+00, -1.2815080065980038e+00,
       3.5084647198462480e+00, -1.2794860781582071e+00,
       3.5339738601223507e+00, -1.2814312815029441e+00,
       3.5255048727724905e+00, -1.2928001444014501e+00,
       3.4964593862803093e+00, -1.3170731127517399e+00,
       3.4673362591878458e+00, -1.3401722197940216e+00,
       3.4390172448635918e+00, -1.3549071607227039e+00,
       3.4206585999952623e+00, -1.3677174860686676e+00,
       3.4108480231796805e+00, -1.3748401267701851e+00,
       3.4056146589952614e+00, -1.3737781485507781e+00,
       3.3991929830442342e+00, -1.3654374645230307e+00,
       3.3945267446941068e+00, -1.3663780815861000e+00,
       3.3978158778373517e+00, -1.3647652284070544e+00,
       3.4261111539631401e+00, -1.3735458600164321e+00,
       3.4582182048994143e+00, -1.3825401044298224e+00,
       3.4869875826096575e+00, -1.3800040188112113e+00,
       3.5147335470048668e+00, -1.3757919833410248e+00,
       3.5358397851259094e+00, -1.3598320279526304e+00,
       3.5543927807380893e+00, -1.3340870412845494e+00,
       3.5670532587188482e+00, -1.2998699072213471e+00,
       3.5629829641494570e+00, -1.2455866887793403e+00,
       3.5350601255620773e+00, -1.1861915811304002e+00,
       3.4719002376944892e+00, -1.1194550948872002e+00,
       3.4212904034510769e+00, -1.0757303923928094e+00,
       3.4121027902229728e+00, -1.0636155275013357e+00,
       3.4668540423661618e+00, -1.1108126314889910e+00,
       3.5152585630852511e+00, -1.1760674632315309e+00,
       3.5372274259203120e+00, -1.2379083051414987e+00,
       3.5412906677668383e+00, -1.2883757279170698e+00,
       3.5386015799331152e+00, -1.3275022045866987e+00,
       3.5167904496692950e+00, -1.3548164706647119e+00,
       3.4856821073479183e+00, -1.3794771867222986e+00,
       3.4463855485680428e+00, -1.3926565687277994e+00,
       3.4071561654571223e+00, -1.3923212891990149e+00,
       3.3804282258878238e+00, -1.3857520746815140e+00,
       3.3644730692623299e+00, -1.3711752519065792e+00,
       3.3512678097128594e+00, -1.3650269630744574e+00,
       3.3660907969185199e+00, -1.3678374196607563e+00,
       3.3874548714535355e+00, -1.3683617775659431e+00,
       3.4055422012114986e+00, -1.3693668388331082e+00,
       3.4375994394962688e+00, -1.3650053837926446e+00,
       3.4790679306923988e+00, -1.3532536917777531e+00,
       3.5372971727020941e+00, -1.3321876506939341e+00,
       3.5973047699544369e+00, -1.3023259713121957e+00,
       3.6280124555695989e+00, -1.2634684405594461e+00,
       3.6246221889406773e+00, -1.2411657906588447e+00,
       3.5919015000227605e+00, -1.2513052129085338e+00,
       3.5889007740227874e+00, -1.2695563167651582e+00,
       3.6147542839049143e+00, -1.2785716901950988e+00,
       3.6233264430383594e+00, -1.2803905525344037e+00,
       3.5905186397119584e+00, -1.2731341393323061e+00,
       3.5972904943230293e+00, -1.2625732445560953e+00,
       3.6016583454629463e+00, -1.2473283615133459e+00,
       3.6058199228955066e+00, -1.2581895632069515e+00,
       3.5714645551262691e+00, -1.2931900872004480e+00,
       3.5217921868030331e+00, -1.3289671961213185e+00,
       3.4703379268540346e+00, -1.3537019212479953e+00,
       3.4350845741649407e+00, -1.3678517929434419e+00,
       3.4105336090781289e+00, -1.3772263264940132e+00,
       3.3966253753500428e+00, -1.3781228954072458e+00,
       3.3754174145924103e+00, -1.3765094883858959e+00,
       3.3491883197549632e+00, -1.3742986311642977e+00,
       3.3580474263202715e+00, -1.3764630298871579e+00,
       3.3777054530343507e+00, -1.3823575836549296e+00,
       3.4064828513982253e+00, -1.3938763815706474e+00,
       3.4486902443636023e+00, -1.3972165054467571e+00,
       3.4770210283352991e+00, -1.3882330285613731e+00,
       3.5146853604698500e+00, -1.3734879152166646e+00,
       3.5369459140231458e+00, -1.3472442690682365e+00,
       3.5469426884208444e+00, -1.3129448936217296e+00,
       3.5489203713859721e+00, -1.2626674526222093e+00,
       3.5305836826748518e+00, -1.2051466515015576e+00,
       3.4854463758504250e+00, -1.1373555334011090e+00,
       3.4287466043627806e+00, -1.0845558661917720e+00,
       3.4248115243426938e+00, -1.0757074593707070e+00,
       3.4815272113385070e+00, -1.1275473063543913e+00,
       3.5165024539609098e+00, -1.1941072919002864e+00,
       3.5179955760006405e+00, -1.2532432983234025e+00,
       3.5162445022467153e+00, -1.3037925053068258e+00,
       3.5048213756493141e+00, -1.3406877638284584e+00,
       3.4821948275385322e+00, -1.3707184755743287e+00,
       3.4450389472717835e+00, -1.3945032341278454e+00,
       3.3989679389543479e+00, -1.4072239846799635e+00,
       3.3577945130836531e+00, -1.4088883583225305e+00,
       3.3243579638985330e+00, -1.4011878637107267e+00,
       3.3070546750811962e+00, -1.3861436318020697e+00,
       3.3150495180155084e+00, -1.3820313961171664e+00,
       3.3436632094462793e+00, -1.3809195265041287e+00,
       3.3844030628465607e+00, -1.3780689041398373e+00,
       3.4245020081721109e+00, -1.3777838667195861e+00,
       3.4762258603447567e+00, -1.3682064651530677e+00,
       3.5401580152234073e+00, -1.3521685258502427e+00,
       3.6083016929761529e+00, -1.3255112682916297e+00,
       3.6450223701488782e+00, -1.2800782686788603e+00,
       3.6827144936321088e+00, -1.2338480531942273e+00,
       3.6671914605195828e+00, -1.2161864496702275e+00,
       3.6242019383242017e+00, -1.2470787136298120e+00,
       3.5953981318547821e+00, -1.2802920900308667e+00,
       3.5822956539451463e+00, -1.2902813214002504e+00,
       3.5783335128024003e+00, -1.2931138362819263e+00,
       3.5675571394097298e+00, -1.2861117189104168e+00,
       3.5982916935603875e+00, -1.2618249080113693e+00,
       3.6281569060184138e+00, -1.2317995854791095e+00,
       3.6519511552716870e+00, -1.2392346200048723e+00,
       3.6188497536745494e+00, -1.2755257723027187e+00,
       3.5852056170494127e+00, -1.3168245172152446e+00,
       3.5291589761199962e+00, -1.3490185552536960e+00,
       3.4787970186568247e+00, -1.3689881958770351e+00,
       3.4374954446072397e+00, -1.3803114418294686e+00,
       3.3966169809311082e+00, -1.3869036590398240e+00,
       3.3413795920918457e+00, -1.3850434583739437e+00,
       3.3175046369179109e+00, -1.3876111071205515e+00,
       3.3083493720409596e+00, -1.3892913896868957e+00,
       3.3225001481272098e+00, -1.3974490205141645e+00,
       3.3500889717621622e+00, -1.4075399306087351e+00,
       3.3872622643222661e+00, -1.4111541194965389e+00,
       3.4284569834710075e+00, -1.4010224488800413e+00,
       3.4773944772518939e+00, -1.3858334733685205e+00,
       3.5056294141373261e+00, -1.3635580197202042e+00,
       3.5264060408963016e+00, -1.3278731167390401e+00,
       3.5327847203873559e+00, -1.2786481028609347e+00,
       3.5281238080163582e+00, -1.2196434451407960e+00,
       3.5018723624424544e+00, -1.1557973997479438e+00,
       3.4492906055010732e+00, -1.1019956900539682e+00,
       3.4370667699106972e+00, -1.0867360095936984e+00,
       3.4916669853488460e+00, -1.1452785250373239e+00,
       3.5152308052671772e+00, -1.2137802028682496e+00,
       3.4978853293145722e+00, -1.2702282077745897e+00,
       3.4814650627121431e+00, -1.3183004752481207e+00,
       3.4710988877776505e+00, -1.3568029463160847e+00,
       3.4380969059987989e+00, -1.3860645122920561e+00,
       3.3914410744930392e+00, -1.4115053123058556e+00,
       3.3414552861774531e+00, -1.4247145626213016e+00,
       3.2984027493905743e+00, -1.4252515325425570e+00,
       3.2711208310613018e+00, -1.4190092706539781e+00,
       3.2555911344172785e+00, -1.4056307343969134e+00,
       3.2537350291084075e+00, -1.3930038569825625e+00,
       3.2943771637768893e+00, -1.3927581924552455e+00,
       3.3581034604010016e+00, -1.3855431806584846e+00,
       3.4305567876802527e+00, -1.3844538508771065e+00,
       3.4965525769929524e+00, -1.3695567639393689e+00,
       3.5762168521004036e+00, -1.3519551605181712e+00,
       3.6300894056213546e+00, -1.3281125854239497e+00,
       3.6405045520950825e+00, -1.2962265550498984e+00,
       3.6341644484320819e+00, -1.2530783771883411e+00,
       3.6120471086939681e+00, -1.2397989056370637e+00,
       3.5612807288865258e+00, -1.2738348582871071e+00,
       3.4877253415270455e+00, -1.3124829262701139e+00,
       3.4424667580097768e+00, -1.3251417798068335e+00,
       3.4263031956648282e+00, -1.3239021903684021e+00,
       3.4549947620002666e+00, -1.3127665934898087e+00,
       3.5255349905867326e+00, -1.2803547407949227e+00,
       3.5971201209475590e+00, -1.2433828642770841e+00,
       3.6304777259866352e+00, -1.2502735626938393e+00,
       3.6385942700446341e+00, -1.2965769856773977e+00,
       3.6190420819552234e+00, -1.3283119292475285e+00,
       3.5770604055078512e+00, -1.3484964353646645e+00,
       3.5100838795876568e+00, -1.3674361943578934e+00,
       3.4469226611682542e+00, -1.3816745809526005e+00,
       3.3712475259676169e+00, -1.3913174862691022e+00,
       3.3051664847777635e+00, -1.3950354790077646e+00,
       3.2669474031231078e+00, -1.3969623660674366e+00,
       3.2536615617961342e+00, -1.4045316054994783e+00,
       3.2652418337947089e+00, -1.4170659988043117e+00,
       3.2935740887612148e+00, -1.4263611874335247e+00,
       3.3292412868796828e+00, -1.4263571651983029e+00,
       3.3796879280976526e+00, -1.4172258504465234e+00,
       3.4354560630812578e+00, -1.4029396233962357e+00,
       3.4643299846649738e+00, -1.3754341176080809e+00,
       3.4910200774422520e+00, -1.3420751441007874e+00,
       3.5120645482204318e+00, -1.2969338117224849e+00,
       3.5282443984024612e+00, -1.2358188415054561e+00,
       3.5070932387233937e+00, -1.1740593445151351e+00,
       3.4729539942146079e+00, -1.1141327744747940e+00,
       3.4551538616465458e+00, -1.1031088687772050e+00,
       3.4922944023082509e+00, -1.1645434898361837e+00,
       3.4901474594632300e+00, -1.2287730304760360e+00,
       3.4779001101727451e+00, -1.2869783215542785e+00,
       3.4534470319044712e+00, -1.3360139382461029e+00,
       3.4319685089726399e+00, -1.3739365948028741e+00,
       3.3934437510117594e+00, -1.4018122868552918e+00,
       3.3361026552526623e+00, -1.4306930741862678e+00,
       3.2829661112994430e+00, -1.4428409921394139e+00,
       3.2391217774306127e+00, -1.4453162437809595e+00,
       3.2070812100382828e+00, -1.4337040924046820e+00,
       3.1942244130446906e+00, -1.4210917606206510e+00,
       3.1961167506970298e+00, -1.4095896237616556e+00,
       3.2304959576939916e+00, -1.3983299238355438e+00,
       3.3010427903292423e+00, -1.3954123430499812e+00,
       3.3889319084097762e+00, -1.3839603127649713e+00,
       3.4771819790963647e+00, -1.3659429001353431e+00,
       3.5721534005362718e+00, -1.3560098714948308e+00,
       3.6190113362687124e+00, -1.3443985237811025e+00,
       3.5838441450854459e+00, -1.3288334377230153e+00,
       3.5644820436229536e+00, -1.3057226178045156e+00,
       3.5414600991827752e+00, -1.2983200009155624e+00,
       3.4621981475237993e+00, -1.3256132454339371e+00,
       3.3522986435177811e+00, -1.3542061056402075e+00,
       3.2876932039428586e+00, -1.3653658040919514e+00,
       3.2744409822281679e+00, -1.3648819395144796e+00,
       3.3055058914813884e+00, -1.3496304774609176e+00,
       3.4005929813022275e+00, -1.3236163348859167e+00,
       3.4845221105048667e+00, -1.2941939672680438e+00,
       3.5493570248556749e+00, -1.3014188887752904e+00,
       3.5843523453404642e+00, -1.3293986590413671e+00,
       3.6092120066621871e+00, -1.3503943363224331e+00,
       3.5890164479544793e+00, -1.3612828406735504e+00,
       3.5101775495882719e+00, -1.3718083267010006e+00,
       3.4156340452893059e+00, -1.3859550239262719e+00,
       3.3161590816422688e+00, -1.3967928349902270e+00,
       3.2439382936008507e+00, -1.4029802257475010e+00,
       3.2107143716963447e+00, -1.4100368195944137e+00,
       3.1935497201925238e+00, -1.4207511850267776e+00,
       3.2080042350623712e+00, -1.4336171307782377e+00,
       3.2375036573002842e+00, -1.4444303683986954e+00,
       3.2692347804340716e+00, -1.4424479649466302e+00,
       3.3249249183509435e+00, -1.4331163610212703e+00,
       3.3791190786297873e+00, -1.4172668777139501e+00,
       3.4215158813378057e+00, -1.3893474294647450e+00,
       3.4551094392267769e+00, -1.3554796657250463e+00,
       3.4880771924265299e+00, -1.3113286017003147e+00,
       3.5104892064513780e+00, -1.2515908920211014e+00,
       3.5068455702742281e+00, -1.1925006155403586e+00,
       3.4889446723777833e+00, -1.1294843266964296e+00,
       3.4557355609752682e+00, -1.1155952335975130e+00,
       3.4801853406422207e+00, -1.1822085861991223e+00,
       3.4696307238633013e+00, -1.2423189786580910e+00,
       3.4527878960888563e+00, -1.3024239497525119e+00,
       3.4254400055835599e+00, -1.3518351801899275e+00,
       3.3911012520849009e+00, -1.3896982190368354e+00,
       3.3404738578693745e+00, -1.4182940168406177e+00,
       3.2879718886608726e+00, -1.4479372663910166e+00,
       3.2299683709237854e+00, -1.4588154500360104e+00,
       3.1872133169043697e+00, -1.4606250970482089e+00,
       3.1536065208231441e+00, -1.4525416201647439e+00,
       3.1369139503995092e+00, -1.4394762657956495e+00,
       3.1452436337719867e+00, -1.4264855310656019e+00,
       3.1734399889746809e+00, -1.4126819637901253e+00,
       3.2337578351741021e+00, -1.4039532333560889e+00,
       3.3145933188436225e+00, -1.3898744732450830e+00,
       3.4249118914517576e+00, -1.3757152725993258e+00,
       3.5342628737908846e+00, -1.3719398997597017e+00,
       3.5811776080945696e+00, -1.3698507477410700e+00,
       3.5429491820836740e+00, -1.3648352971509639e+00,
       3.5161861365634040e+00, -1.3564043956905778e+00,
       3.4664341812600621e+00, -1.3558635670076926e+00,
       3.3650074959248446e+00, -1.3728636543138850e+00,
       3.2414457020300755e+00, -1.3923708965973212e+00,
       3.1783549479701323e+00, -1.4000143968694880e+00,
       3.1754815910583605e+00, -1.3987549110364978e+00,
       3.2059038803163107e+00, -1.3874823391464992e+00,
       3.3147711174980401e+00, -1.3712037322153159e+00,
       3.4186068193909271e+00, -1.3522296930130140e+00,
       3.4968021932562237e+00, -1.3550362371335660e+00,
       3.5477941087502058e+00, -1.3676375036983461e+00,
       3.5815767700832204e+00, -1.3784850556542239e+00,
       3.5581863269934377e+00, -1.3786775760927206e+00,
       3.4586119603328598e+00, -1.3813408660661779e+00,
       3.3383193113429410e+00, -1.3910663737508928e+00,
       3.2481534611652889e+00, -1.4059888343334088e+00,
       3.1863980221610406e+00, -1.4129763026197710e+00,
       3.1529218482521122e+00, -1.4254382640865937e+00,
       3.1382228317985117e+00, -1.4385923818283695e+00,
       3.1475824910696772e+00, -1.4489305936002246e+00,
       3.1777611498232892e+00, -1.4598256289472640e+00,
       3.2130507659260967e+00, -1.4595966387761743e+00,
       3.2667327072856649e+00, -1.4517445614125430e+00,
       3.3293935774383923e+00, -1.4349938419934285e+00,
       3.3823126447338905e+00, -1.4064089947687366e+00,
       3.4180363778522160e+00, -1.3709573838093119e+00,
       3.4497727103754583e+00, -1.3220914364253296e+00,
       3.4845852104192314e+00, -1.2683287825797327e+00,
       3.4880666327054244e+00, -1.2039083547856557e+00,
       3.4862486939332484e+00, -1.1383468997521584e+00,
       3.4530862632698551e+00, -1.1246952923210798e+00,
       3.4647678324607538e+00, -1.1922279599116976e+00,
       3.4514561017576262e+00, -1.2582624988967921e+00,
       3.4185212097782189e+00, -1.3159940667599657e+00,
       3.3842196642904492e+00, -1.3631251962386164e+00,
       3.3503700459932144e+00, -1.4017359834485288e+00,
       3.2957651853106888e+00, -1.4315573306907343e+00,
       3.2366522803883018e+00, -1.4582491397276072e+00,
       3.1772855540588378e+00, -1.4667293218117927e+00,
       3.1289228836984524e+00, -1.4687432496778974e+00,
       3.1022016855932195e+00, -1.4671759114528720e+00,
       3.0887882041156192e+00, -1.4555016556898721e+00,
       3.0974192716266882e+00, -1.4451669602916901e+00,
       3.1224731340631653e+00, -1.4303848194483963e+00,
       3.1661802221941406e+00, -1.4162917187816020e+00,
       3.2364799882648283e+00, -1.4056422500472474e+00,
       3.3398600258508129e+00, -1.3927291362783707e+00,
       3.4651869894117899e+00, -1.3916871933716053e+00,
       3.5297588174406558e+00, -1.3981232527533138e+00,
       3.5117029954610279e+00, -1.3970145548249018e+00,
       3.4887097204138753e+00, -1.3974195043147257e+00,
       3.4370737864043308e+00, -1.4043395913801091e+00,
       3.3221458976445679e+00, -1.4163489362762576e+00,
       3.2017976173482814e+00, -1.4316724353676298e+00,
       3.1412936359359569e+00, -1.4379729196367419e+00,
       3.1381558507955836e+00, -1.4398353896167033e+00,
       3.1740599633098654e+00, -1.4309940113126534e+00,
       3.2834217574124209e+00, -1.4153618046959482e+00,
       3.3896279250547963e+00, -1.3952838223179085e+00,
       3.4690289490452089e+00, -1.3907281909336477e+00,
       3.5135974311280660e+00, -1.3949467678981802e+00,
       3.5309773968293285e+00, -1.3976126847980197e+00,
       3.4884878590117716e+00, -1.3956702520035029e+00,
       3.3685352494873753e+00, -1.3951063632279519e+00,
       3.2580975743791663e+00, -1.4056251826589516e+00,
       3.1815114396441131e+00, -1.4172442945300558e+00,
       3.1331589209611739e+00, -1.4291959288187053e+00,
       3.1004095797322950e+00, -1.4427809266541067e+00,
       3.0892297919380312e+00, -1.4548648139890448e+00,
       3.0970792425663971e+00, -1.4633123399389016e+00,
       3.1226444956294341e+00, -1.4701120421890999e+00,
       3.1621796527087445e+00, -1.4704823382249768e+00,
       3.2142775226484281e+00, -1.4620779888147395e+00,
       3.2838522910504357e+00, -1.4476477339253022e+00,
       3.3409052100298298e+00, -1.4203209429941530e+00,
       3.3811102885131179e+00, -1.3831817075792132e+00,
       3.4103376174890645e+00, -1.3334970344989305e+00,
       3.4643506239623747e+00, -1.2833098246139785e+00,
       3.4715315476618662e+00, -1.2171842858851232e+00,
       3.4801741190521569e+00, -1.1523416582813280e+00,
       3.4546494459925574e+00, -1.1362604405747800e+00,
       3.4527017368300790e+00, -1.2058033731478750e+00,
       3.4320831673110410e+00, -1.2743700866276515e+00,
       3.3935897149147087e+00, -1.3302976794702652e+00,
       3.3484848674775085e+00, -1.3732408056406185e+00,
       3.3071210522122918e+00, -1.4061224302889364e+00,
       3.2540914177661131e+00, -1.4434978597527943e+00,
       3.1933718737520085e+00, -1.4670405217374012e+00,
       3.1312237359954729e+00, -1.4759431329638999e+00,
       3.0844468054766523e+00, -1.4781640169795855e+00,
       3.0567751965528513e+00, -1.4737216061731457e+00,
       3.0501041232950188e+00, -1.4667112778641067e+00,
       3.0583837841904939e+00, -1.4596725006575582e+00,
       3.0770970279013699e+00, -1.4479918377438787e+00,
       3.1120427622724445e+00, -1.4337064451859363e+00,
       3.1686714578338586e+00, -1.4186644408317639e+00,
       3.2558240633091042e+00, -1.4117999549300313e+00,
       3.3767600968365938e+00, -1.4143514568830182e+00,
       3.4656567538161780e+00, -1.4137985903999339e+00,
       3.4746184901886559e+00, -1.4087120983755361e+00,
       3.4530834060720790e+00, -1.4147628612663539e+00,
       3.3992456901637262e+00, -1.4261020857014401e+00,
       3.2929316112264058e+00, -1.4439515297833891e+00,
       3.1868365474353850e+00, -1.4589263140010886e+00,
       3.1276530977495378e+00, -1.4701137867548177e+00,
       3.1211484922825656e+00, -1.4709844149158278e+00,
       3.1700616920578621e+00, -1.4621048179809792e+00,
       3.2699011474435471e+00, -1.4426051195069334e+00,
       3.3701696634125100e+00, -1.4250239158331277e+00,
       3.4419591166067214e+00, -1.4150863428404141e+00,
       3.4840062815739681e+00, -1.4139967069815840e+00,
       3.4690480868156452e+00, -1.4109006075944821e+00,
       3.3969285625937418e+00, -1.4120500439110133e+00,
       3.2759181290570449e+00, -1.4104277633708513e+00,
       3.1834898120075477e+00, -1.4214255973924006e+00,
       3.1279597600515396e+00, -1.4348589007450931e+00,
       3.0806761227097721e+00, -1.4444346218983624e+00,
       3.0615257380878966e+00, -1.4571819844800227e+00,
       3.0504422810317626e+00, -1.4668649813458217e+00,
       3.0576353391996731e+00, -1.4725053897594342e+00,
       3.0749009412704016e+00, -1.4754299782681546e+00,
       3.1181008407445363e+00, -1.4775694689905849e+00,
       3.1696290179925173e+00, -1.4697969778806241e+00,
       3.2394342858252316e+00, -1.4565828220226291e+00,
       3.2988384146784320e+00, -1.4290777063450790e+00,
       3.3474526941955767e+00, -1.3943281042176963e+00,
       3.3853705538762728e+00, -1.3488332966800836e+00,
       3.4292415104026333e+00, -1.2960820994559408e+00,
       3.4590859032321282e+00, -1.2288131510102998e+00,
       3.4790962473117162e+00, -1.1641856972187741e+00,
       3.4507295198245687e+00, -1.1451346273027618e+00,
       3.4322510516916367e+00, -1.2106077415113898e+00,
       3.4080184869869377e+00, -1.2847171741191885e+00,
       3.3625761538453403e+00, -1.3372900926983580e+00,
       3.3175629376364149e+00, -1.3784939031683086e+00,
       3.2709237363147379e+00, -1.4140558801764769e+00,
       3.2176020360967366e+00, -1.4507435387354468e+00,
       3.1589965168575276e+00, -1.4719692567366767e+00,
       3.0979247533598930e+00, -1.4805433450738974e+00,
       3.0597748459783949e+00, -1.4846205533655501e+00,
       3.0380122204662139e+00, -1.4836951234231901e+00,
       3.0321392482821738e+00, -1.4781795946066403e+00,
       3.0368080957398864e+00, -1.4700068049564323e+00,
       3.0501807585945411e+00, -1.4607154274081895e+00,
       3.0731685993645321e+00, -1.4505971661305768e+00,
       3.1120564870463006e+00, -1.4351182589147355e+00,
       3.1867870953780981e+00, -1.4257639067594940e+00,
       3.2976117745861906e+00, -1.4306037259658002e+00,
       3.3923020540795612e+00, -1.4260781053448048e+00,
       3.4378279469833823e+00, -1.4229077280055871e+00,
       3.4285384746012642e+00, -1.4268650225834825e+00,
       3.3826756807086102e+00, -1.4394814428497111e+00,
       3.2907536170929150e+00, -1.4623906887543077e+00,
       3.1885651405005015e+00, -1.4801575985189037e+00,
       3.1149021450829268e+00, -1.4850886022605814e+00,
       3.1078697286186561e+00, -1.4857862390166559e+00,
       3.1703781125966874e+00, -1.4829289825574745e+00,
       3.2714525166714541e+00, -1.4649486187908058e+00,
       3.3548367924923892e+00, -1.4429559096189659e+00,
       3.4212646754665252e+00, -1.4288462414675405e+00,
       3.4402479232826382e+00, -1.4241906248790970e+00,
       3.4030110007497791e+00, -1.4229915874083250e+00,
       3.3243315343523570e+00, -1.4293045762231458e+00,
       3.2135354466149746e+00, -1.4287510277175495e+00,
       3.1295818148778283e+00, -1.4362639806494304e+00,
       3.0817781320634734e+00, -1.4485148502953535e+00,
       3.0553238018433047e+00, -1.4571860860103802e+00,
       3.0405244209822846e+00, -1.4675322950039464e+00,
       3.0365504194048634e+00, -1.4776700337187072e+00,
       3.0400833041448805e+00, -1.4831797399048519e+00,
       3.0549727222021690e+00, -1.4845206710441123e+00,
       3.0915788113053675e+00, -1.4823943670622630e+00,
       3.1414836275254387e+00, -1.4754588375754447e+00,
       3.2095702396768586e+00, -1.4649507895073082e+00,
       3.2640768988859130e+00, -1.4366329830269049e+00,
       3.3166449338005575e+00, -1.4022981968807797e+00,
       3.3622253426373061e+00, -1.3570609120277657e+00,
       3.4059991380436427e+00, -1.3053554292452025e+00,
       3.4338906252528378e+00, -1.2390042372220678e+00,
       3.4622217634287358e+00, -1.1687263251858755e+00,
       3.4541029803963963e+00, -1.1507558395104498e+00,
       3.4077926643275753e+00, -1.2154343418900073e+00,
       3.3869662057958001e+00, -1.2902182811780172e+00,
       3.3437878019736922e+00, -1.3432563578756835e+00,
       3.2939490198451242e+00, -1.3840970032039737e+00,
       3.2463970134073956e+00, -1.4186578305912745e+00,
       3.1893354595808483e+00, -1.4552493428877713e+00,
       3.1324164349195653e+00, -1.4756120012726011e+00,
       3.0777980614555545e+00, -1.4830512220555583e+00,
       3.0505723160846410e+00, -1.4869401246205955e+00,
       3.0372523394007414e+00, -1.4869277045420002e+00,
       3.0383585655057486e+00, -1.4842812577016891e+00,
       3.0380436735540588e+00, -1.4756673488470744e+00,
       3.0482815037270283e+00, -1.4722049818117489e+00,
       3.0588603673115040e+00, -1.4627492335078485e+00,
       3.0946168867999537e+00, -1.4553747096801786e+00,
       3.1400491787142557e+00, -1.4437053893841845e+00,
       3.2388284533873928e+00, -1.4401445658537366e+00,
       3.3401731872101581e+00, -1.4397959905076136e+00,
       3.3899532552961542e+00, -1.4347848149317406e+00,
       3.4034099635754540e+00, -1.4371279030697814e+00,
       3.3651604907587025e+00, -1.4508354590811967e+00,
       3.2914497043307520e+00, -1.4725545605073891e+00,
       3.1931312450671290e+00, -1.4913494378016983e+00,
       3.1130703427015849e+00, -1.4943205122529253e+00,
       3.1067797219161277e+00, -1.4939831525451726e+00,
       3.1749146923883651e+00, -1.4899088291837876e+00,
       3.2716709642536266e+00, -1.4738450291993177e+00,
       3.3489289243216978e+00, -1.4554548039383826e+00,
       3.3982940863169575e+00, -1.4404187237278829e+00,
       3.3943045813529711e+00, -1.4335407512572307e+00,
       3.3451597990333020e+00, -1.4311161587386387e+00,
       3.2520895061319095e+00, -1.4344083411181758e+00,
       3.1635767718304000e+00, -1.4429078821835697e+00,
       3.1045317604866209e+00, -1.4519846316902671e+00,
       3.0600554610221775e+00, -1.4571702068825398e+00,
       3.0555624647332236e+00, -1.4715101037061369e+00,
       3.0477897169862138e+00, -1.4779776410166441e+00,
       3.0428346053127528e+00, -1.4825821179437280e+00,
       3.0422421582508128e+00, -1.4872770242435722e+00,
       3.0504924368003237e+00, -1.4860104430312537e+00,
       3.0788912648575013e+00, -1.4846358562759927e+00,
       3.1184480795829890e+00, -1.4785565798247853e+00,
       3.1850540355519934e+00, -1.4669084436018192e+00,
       3.2455805903920725e+00, -1.4393497360721339e+00,
       3.2963048650588282e+00, -1.4041320399863093e+00,
       3.3460496285178825e+00, -1.3627288973705622e+00,
       3.3835253146082103e+00, -1.3113645708032442e+00,
       3.4175742161967149e+00, -1.2479429802109487e+00,
       3.4482454581575470e+00, -1.1725065579972604e+00,
       3.4450373321862604e+00, -1.1523897724110486e+00,
       3.3987374967720010e+00, -1.2249442355114486e+00,
       3.3693439842675867e+00, -1.2944162411445508e+00,
       3.3214561680790289e+00, -1.3454970283203702e+00,
       3.2752438554211820e+00, -1.3846182278990025e+00,
       3.2234554646137661e+00, -1.4182928733342979e+00,
       3.1728603676218556e+00, -1.4521265790403834e+00,
       3.1190064382063603e+00, -1.4717265576796026e+00,
       3.0782038710365072e+00, -1.4807929374274027e+00,
       3.0580646809283882e+00, -1.4837580300426305e+00,
       3.0509369663894486e+00, -1.4876612997468903e+00,
       3.0560174848365467e+00, -1.4837879785863186e+00,
       3.0535986477095660e+00, -1.4772101450279764e+00,
       3.0613213732810429e+00, -1.4746678817381140e+00,
       3.0671981848744982e+00, -1.4681902799656690e+00,
       3.0849929247773811e+00, -1.4603222566883340e+00,
       3.1245311721096778e+00, -1.4530996662401954e+00,
       3.1956046720155356e+00, -1.4451768737566213e+00,
       3.2851263457323068e+00, -1.4424122653210716e+00,
       3.3530020898413260e+00, -1.4439389155063620e+00,
       3.3740378015466921e+00, -1.4469944650202415e+00,
       3.3556862917187122e+00, -1.4573986489463144e+00,
       3.2979963975744511e+00, -1.4777497717279600e+00,
       3.2007615472290940e+00, -1.4970721467664432e+00,
       3.1135290619119758e+00, -1.5017381633958753e+00,
       3.1054697393835538e+00, -1.5021249826142147e+00,
       3.1805097407702037e+00, -1.4963050134268681e+00,
       3.2783747901148752e+00, -1.4800783096230647e+00,
       3.3397437722517815e+00, -1.4593133270738015e+00,
       3.3694344788117565e+00, -1.4472372807892295e+00,
       3.3495829088764619e+00, -1.4362687088505337e+00,
       3.3014785406669742e+00, -1.4384092884964081e+00,
       3.2166570757928192e+00, -1.4458810131523308e+00,
       3.1410900289941122e+00, -1.4529462635413890e+00,
       3.0933559612840393e+00, -1.4592769393251004e+00,
       3.0695417288236744e+00, -1.4641941558526126e+00,
       3.0651254587996557e+00, -1.4713450389720863e+00,
       3.0582922781255748e+00, -1.4750126445965597e+00,
       3.0586203946157711e+00, -1.4799133575568710e+00,
       3.0547674490477310e+00, -1.4836627262612423e+00,
       3.0607606009449326e+00, -1.4848932861638513e+00,
       3.0811130907379054e+00, -1.4847925352581983e+00,
       3.1075467307407010e+00, -1.4746461683948737e+00,
       3.1660431728823406e+00, -1.4650772075164340e+00,
       3.2231863035301545e+00, -1.4372206404385941e+00,
       3.2766627474753087e+00, -1.4035660673220727e+00,
       3.3226722018731429e+00, -1.3614808533980522e+00,
       3.3624888607826597e+00, -1.3137859135844718e+00,
       3.3997048269556580e+00, -1.2521127516743349e+00,
       3.4305806572738429e+00, -1.1766341848177246e+00,
       3.4249590277843711e+00, -1.1529240898639019e+00,
       3.3953114447757433e+00, -1.2326389556805741e+00,
       3.3627899588303758e+00, -1.2938851374956559e+00,
       3.3081733627031986e+00, -1.3427437528298314e+00,
       3.2638068843780137e+00, -1.3792050435082186e+00,
       3.2162286651048131e+00, -1.4124491152365186e+00,
       3.1707737776764078e+00, -1.4449405152588266e+00,
       3.1280819218863600e+00, -1.4629655118613729e+00,
       3.0930125679795419e+00, -1.4705580035097481e+00,
       3.0844009132501595e+00, -1.4751278583519196e+00,
       3.0812134206479449e+00, -1.4742932091881231e+00,
       3.0879383988437210e+00, -1.4737539628691934e+00,
       3.0931386405454933e+00, -1.4702777391071791e+00,
       3.0935910305510230e+00, -1.4674515623267819e+00,
       3.0927505147294476e+00, -1.4644881003832688e+00,
       3.1012642295233128e+00, -1.4605444744770162e+00,
       3.1237975037319790e+00, -1.4532419044800591e+00,
       3.1837965674686921e+00, -1.4485230120942156e+00,
       3.2662731391328106e+00, -1.4466094216720573e+00,
       3.3247198173642247e+00, -1.4440467710515998e+00,
       3.3435002981442263e+00, -1.4420372340050043e+00,
       3.3409307304713360e+00, -1.4559427653099402e+00,
       3.3000936239831802e+00, -1.4783200950266058e+00,
       3.2009801936602993e+00, -1.4958845424153318e+00,
       3.1155938572525224e+00, -1.5026006363213016e+00,
       3.1072404780341860e+00, -1.5019229584391300e+00,
       3.1824762322117488e+00, -1.4975802011442112e+00,
       3.2747248989909314e+00, -1.4756606481386925e+00,
       3.3326398150970404e+00, -1.4577338029689781e+00,
       3.3421616172639483e+00, -1.4434800076117087e+00,
       3.3310735072784099e+00, -1.4399360772933318e+00,
       3.2732130978528491e+00, -1.4404374981987573e+00,
       3.2039231180789982e+00, -1.4485489870530663e+00,
       3.1471466440679583e+00, -1.4549850742133223e+00,
       3.1147150423725520e+00, -1.4594151992754780e+00,
       3.1004620377728780e+00, -1.4620829787836265e+00,
       3.0951898196890659e+00, -1.4617146602329936e+00,
       3.0982922528102050e+00, -1.4667594063786633e+00,
       3.0882855281782282e+00, -1.4672795178206319e+00,
       3.0857958381297230e+00, -1.4696588070654621e+00,
       3.0837834488202880e+00, -1.4708614946903000e+00,
       3.0936987876888735e+00, -1.4730312536139407e+00,
       3.1126572320782913e+00, -1.4639407456797848e+00,
       3.1624205223666046e+00, -1.4561396070767068e+00,
       3.2231131145213703e+00, -1.4319332467155808e+00,
       3.2657423251501920e+00, -1.3978266058451096e+00,
       3.3210259121702501e+00, -1.3617857177733783e+00,
       3.3534302482757341e+00, -1.3136443856859534e+00,
       3.3864171763979458e+00, -1.2516719630085769e+00,
       3.4243677400007533e+00, -1.1810193842241909e+00,
       3.4277398072914145e+00, -1.1531828894010394e+00,
       3.3955505619384296e+00, -1.2328612705744650e+00,
       3.3555896655423352e+00, -1.2910232628264691e+00,
       3.3118531856596634e+00, -1.3364009074201078e+00,
       3.2653536479914109e+00, -1.3695419557843480e+00,
       3.2254744013975229e+00, -1.4027711857085841e+00,
       3.1816156783269878e+00, -1.4300866183968122e+00,
       3.1572025294956414e+00, -1.4527505395990659e+00,
       3.1389994008625188e+00, -1.4600207684190631e+00,
       3.1332413548265463e+00, -1.4603495683836811e+00,
       3.1313647259567081e+00, -1.4576309432412258e+00,
       3.1414107487520231e+00, -1.4573569742567656e+00,
       3.1509586897085282e+00, -1.4572841672706029e+00,
       3.1604930903671060e+00, -1.4565625889125380e+00,
       3.1596000818239118e+00, -1.4552868577023375e+00,
       3.1498683835478767e+00, -1.4547962890915855e+00,
       3.1516909410602438e+00, -1.4510917934774166e+00,
       3.1874227419113050e+00, -1.4444643273423197e+00,
       3.2555519221316147e+00, -1.4416392570079797e+00,
       3.3120128353568048e+00, -1.4372123957803691e+00,
       3.3458339229346952e+00, -1.4389827122991994e+00,
       3.3369882256041778e+00, -1.4479007892491911e+00,
       3.2934530249611327e+00, -1.4697803688173523e+00,
       3.1994702621199638e+00, -1.4928152744087526e+00,
       3.1185162650044402e+00, -1.4993052542141390e+00,
       3.1121576627348522e+00, -1.5001982389030664e+00,
       3.1848787266820477e+00, -1.4933075221804299e+00,
       3.2797207271864690e+00, -1.4727020925636631e+00,
       3.3259284170991905e+00, -1.4503922740412845e+00,
       3.3425849653814788e+00, -1.4370843623045215e+00,
       3.3268155555780345e+00, -1.4353009889603274e+00,
       3.2684770342960232e+00, -1.4377615783805320e+00,
       3.2110877426135205e+00, -1.4430400580987917e+00,
       3.1619542000131236e+00, -1.4461626069081330e+00,
       3.1571902064549056e+00, -1.4480493163535204e+00,
       3.1573098599418854e+00, -1.4511066358204645e+00,
       3.1572343756719476e+00, -1.4504450411921206e+00,
       3.1573799597419701e+00, -1.4524418869410989e+00,
       3.1471281872262455e+00, -1.4547345470563868e+00,
       3.1348020900982019e+00, -1.4523749372385282e+00,
       3.1344642704847727e+00, -1.4595283449359868e+00,
       3.1358900653067021e+00, -1.4563463857171868e+00,
       3.1453346004769163e+00, -1.4522216689331415e+00,
       3.1765567945455739e+00, -1.4399420792549640e+00,
       3.2298694410124722e+00, -1.4231992735653793e+00,
       3.2726254014466267e+00, -1.3909522762409283e+00,
       3.3172801001032290e+00, -1.3545379541531619e+00,
       3.3578200080263803e+00, -1.3105759544110109e+00,
       3.3840504852124118e+00, -1.2516305327032058e+00,
       3.4158263905232866e+00, -1.1761252846544414e+00,
       3.4360267165631186e+00, -1.1500144377423458e+00,
       3.3989071508101585e+00, -1.2258820740931533e+00,
       3.3594494801778807e+00, -1.2852295459682375e+00,
       3.3214684928899203e+00, -1.3306435970814219e+00,
       3.2871664486241268e+00, -1.3640336139658333e+00,
       3.2528598077695174e+00, -1.3906566539727467e+00,
       3.2147018738010908e+00, -1.4145853032458733e+00,
       3.1973477822966796e+00, -1.4347803157044836e+00,
       3.1886150428279727e+00, -1.4369011697482186e+00,
       3.1918143821801199e+00, -1.4348167922155626e+00,
       3.2046577516933277e+00, -1.4369376821013442e+00,
       3.2156065996058767e+00, -1.4356843364284386e+00,
       3.2345285321803585e+00, -1.4382357529502841e+00,
       3.2458707623044560e+00, -1.4333998872402729e+00,
       3.2560417192594979e+00, -1.4362085971328582e+00,
       3.2443662716797115e+00, -1.4384101614194786e+00,
       3.2221775330169460e+00, -1.4370029128100597e+00,
       3.2237708782812033e+00, -1.4379896289535028e+00,
       3.2654166522604973e+00, -1.4353792155482481e+00,
       3.3167042842378445e+00, -1.4311678495564826e+00,
       3.3499385606929031e+00, -1.4286446419246768e+00,
       3.3467799581542312e+00, -1.4385230780067013e+00,
       3.2934688475441312e+00, -1.4587054974088622e+00,
       3.1998393181651767e+00, -1.4847184259004576e+00,
       3.1180690131086850e+00, -1.4944194736942755e+00,
       3.1099001351039610e+00, -1.4943576579305158e+00,
       3.1881941440903305e+00, -1.4898534985086433e+00,
       3.2795394507231772e+00, -1.4663673855419117e+00,
       3.3321878936568030e+00, -1.4368533684894778e+00,
       3.3440032213000630e+00, -1.4229855071249597e+00,
       3.3260591613548200e+00, -1.4248999532437157e+00,
       3.2834999281939830e+00, -1.4311387376369564e+00,
       3.2389502680573838e+00, -1.4329162572953591e+00,
       3.2262070591427836e+00, -1.4333925772006697e+00,
       3.2412268527799086e+00, -1.4311188028398043e+00,
       3.2470763345200417e+00, -1.4275385951158659e+00,
       3.2394221342081240e+00, -1.4241262212367569e+00,
       3.2252997992632002e+00, -1.4294860278449588e+00,
       3.2166477205427539e+00, -1.4328930579679655e+00,
       3.2027686184091322e+00, -1.4343791774404171e+00,
       3.1950823854751533e+00, -1.4353684418843116e+00,
       3.1878127859818006e+00, -1.4348268942761573e+00,
       3.1963642791741518e+00, -1.4330011904928073e+00,
       3.2124396374074196e+00, -1.4228138431831729e+00,
       3.2521756945666671e+00, -1.4068340638233039e+00,
       3.2841572065139282e+00, -1.3767795638400355e+00,
       3.3238823681239582e+00, -1.3428596160253323e+00,
       3.3541607925458132e+00, -1.3015637885164073e+00,
       3.3881569953136674e+00, -1.2441496399031879e+00,
       3.4292063443172567e+00, -1.1720673761107021e+00,
       3.4478852801029465e+00, -1.1432745832981142e+00,
       3.4069439488169331e+00, -1.2192071228095891e+00,
       3.3718393833266083e+00, -1.2773669538753036e+00,
       3.3318118686960334e+00, -1.3142431304164683e+00,
       3.3057399438533648e+00, -1.3475380768228560e+00,
       3.2889767097594498e+00, -1.3739116372829816e+00,
       3.2755118827042891e+00, -1.3936775478622110e+00,
       3.2774731945936271e+00, -1.4080411894138665e+00,
       3.2822989946999725e+00, -1.4118268109513628e+00,
       3.2972220418181322e+00, -1.4156750611194171e+00,
       3.3105717016693528e+00, -1.4136184971687136e+00,
       3.3255698281704462e+00, -1.4097520469422693e+00,
       3.3422782729080867e+00, -1.4074365987762218e+00,
       3.3580985419133396e+00, -1.4074339409932528e+00,
       3.3776022438668951e+00, -1.4099175289614401e+00,
       3.3775053146370566e+00, -1.4105509945483867e+00,
       3.3524902906629817e+00, -1.4130127599498603e+00,
       3.3129537369596767e+00, -1.4183858566562166e+00,
       3.3117827751221776e+00, -1.4213594351441059e+00,
       3.3418925341849746e+00, -1.4181189425870884e+00,
       3.3710318197372890e+00, -1.4173791912156370e+00,
       3.3653889737394382e+00, -1.4265008722722607e+00,
       3.3097439506260473e+00, -1.4488142043162451e+00,
       3.2020172344703055e+00, -1.4727949302701471e+00,
       3.1154252476989388e+00, -1.4844191971917611e+00,
       3.1097280165703927e+00, -1.4898073827092260e+00,
       3.1912920362091715e+00, -1.4826597116211506e+00,
       3.2882709309472866e+00, -1.4536539890811448e+00,
       3.3520477483144848e+00, -1.4233581281466694e+00,
       3.3657403571858384e+00, -1.4101224221680120e+00,
       3.3500676337604105e+00, -1.4142448271625812e+00,
       3.3269822412029595e+00, -1.4162800599314356e+00,
       3.3209788351548299e+00, -1.4122148954074556e+00,
       3.3413365573607900e+00, -1.4050171462936578e+00,
       3.3751911660281251e+00, -1.4056455874344922e+00,
       3.3688321937866248e+00, -1.3992034968939193e+00,
       3.3538485021119011e+00, -1.3996689997340110e+00,
       3.3318295818394241e+00, -1.4049175783318597e+00,
       3.3193963845821606e+00, -1.4087827967058320e+00,
       3.3080852520213160e+00, -1.4145273449061466e+00,
       3.3007474703212822e+00, -1.4151261428070552e+00,
       3.2865432544512796e+00, -1.4148999843519614e+00,
       3.2771730844910727e+00, -1.4112105003108315e+00,
       3.2802660508539239e+00, -1.4008216204588930e+00,
       3.2895852351444175e+00, -1.3851674644467344e+00,
       3.3092460234007279e+00, -1.3603245501148242e+00,
       3.3284013081496688e+00, -1.3279330460305603e+00,
       3.3642233410497786e+00, -1.2913618813261878e+00,
       3.3982691156905234e+00, -1.2358362278563351e+00,
       3.4468472512932640e+00, -1.1600640597499394e+00,
       3.4578043112139363e+00, -1.1264002746394584e+00,
       3.4266434687894054e+00, -1.2111413215827498e+00,
       3.3877818430461084e+00, -1.2662004115028371e+00,
       3.3611784839009555e+00, -1.3010023230240695e+00,
       3.3507511963101573e+00, -1.3308685679718131e+00,
       3.3478782723650209e+00, -1.3523096449172056e+00,
       3.3525176213389813e+00, -1.3650628757739274e+00,
       3.3777836227085576e+00, -1.3748672776408477e+00,
       3.4090753938460638e+00, -1.3763255660764313e+00,
       3.4314197714015817e+00, -1.3796051995904655e+00,
       3.4437964885278940e+00, -1.3842829444395790e+00,
       3.4491957799792288e+00, -1.3811555650625968e+00,
       3.4640470961803600e+00, -1.3716365550698431e+00,
       3.4851929560279098e+00, -1.3672783859909521e+00,
       3.5177239237305065e+00, -1.3695599949320474e+00,
       3.5327208754202637e+00, -1.3765506823231388e+00,
       3.5297874847410293e+00, -1.3836326522509024e+00,
       3.4678980258580427e+00, -1.3886748503535244e+00,
       3.4034569153155143e+00, -1.3931814995446885e+00,
       3.3863749717917990e+00, -1.3949929533964025e+00,
       3.4005675841662653e+00, -1.3986152501715421e+00,
       3.3898365001593334e+00, -1.4121110812117383e+00,
       3.3220692804074772e+00, -1.4354779220345402e+00,
       3.1981678294611324e+00, -1.4627378502764485e+00,
       3.1102987980216290e+00, -1.4768179490965181e+00,
       3.1033103794518069e+00, -1.4798972908036607e+00,
       3.1818825653976819e+00, -1.4683682977346493e+00,
       3.3038927463345660e+00, -1.4411526324908241e+00,
       3.3747832719258843e+00, -1.4112766660045208e+00,
       3.3941547576344910e+00, -1.3915706558925904e+00,
       3.4009307182521114e+00, -1.3914191646021772e+00,
       3.4082827699419393e+00, -1.3897429283804916e+00,
       3.4465131997476619e+00, -1.3806516670447502e+00,
       3.5054101580930199e+00, -1.3786558693815485e+00,
       3.5291552837615727e+00, -1.3717365767414267e+00,
       3.5115892664767272e+00, -1.3690856355602694e+00,
       3.4838188184418009e+00, -1.3699064201135893e+00,
       3.4511623056044565e+00, -1.3740154492973853e+00,
       3.4233923976639709e+00, -1.3774973759378317e+00,
       3.4213480650906525e+00, -1.3812303859342066e+00,
       3.4253483366950923e+00, -1.3799514098834100e+00,
       3.4101534223985004e+00, -1.3768570509880214e+00,
       3.3861943053474626e+00, -1.3753013143341302e+00,
       3.3615083793345995e+00, -1.3685830018391030e+00,
       3.3513318717140717e+00, -1.3590281950812282e+00,
       3.3467891702236501e+00, -1.3405855752791649e+00,
       3.3605397332384617e+00, -1.3170247042121543e+00,
       3.3831299422286243e+00, -1.2768167799557331e+00,
       3.4123918533333417e+00, -1.2218741295713744e+00,
       3.4651328448077141e+00, -1.1452634083745390e+00,
       3.4740360376936574e+00, -1.1075750732415834e+00,
       3.4548479770261817e+00, -1.1966328721227277e+00,
       3.4119854196540169e+00, -1.2506147138420500e+00,
       3.3995651328650727e+00, -1.2879928373039271e+00,
       3.3989284644840332e+00, -1.3154321501015653e+00,
       3.4232166333509277e+00, -1.3260248391314442e+00,
       3.4570787878749374e+00, -1.3214693174872487e+00,
       3.5135409661330752e+00, -1.3148074242474963e+00,
       3.5569624768682102e+00, -1.3182152569515178e+00,
       3.5678689056773902e+00, -1.3298312259415643e+00,
       3.5543168851595643e+00, -1.3309588023342460e+00,
       3.5593170476200688e+00, -1.3283794098589186e+00,
       3.5910695921459914e+00, -1.3180171056045376e+00,
       3.6363953059543346e+00, -1.3171007888833410e+00,
       3.6689138737766691e+00, -1.3233509620774666e+00,
       3.6940980918993844e+00, -1.3384789278966376e+00,
       3.7090293882980472e+00, -1.3479756362828925e+00,
       3.6381297576142089e+00, -1.3521557843410812e+00,
       3.5121328502088627e+00, -1.3519795275666517e+00,
       3.4398524142521389e+00, -1.3585274132827909e+00,
       3.4356934273315791e+00, -1.3703347727568889e+00,
       3.4172170359115910e+00, -1.3915831716897760e+00,
       3.3302981202047786e+00, -1.4242199896523278e+00,
       3.1884868240204272e+00, -1.4524165886219111e+00,
