%YAML:1.0
my_nn: !!opencv-ml-ann-mlp
   layer_sizes: !!opencv-matrix
      rows: 1
      cols: 3
      dt: i
      data: [ 2500, 12, 2 ]
   activation_function: SIGMOID_SYM
   f_param1: 1.
   f_param2: 1.
   min_val: -9.4999999999999996e-01
   max_val: 9.4999999999999996e-01
   min_val1: -9.7999999999999998e-01
   max_val1: 9.7999999999999998e-01
   training_params:
      train_method: RPROP
      dw0: 1.0000000000000001e-01
      dw_plus: 1.2000000000000000e+00
      dw_minus: 5.0000000000000000e-01
      dw_min: 1.1920928955078125e-07
      dw_max: 50.
      term_criteria: { epsilon:9.9999997764825821e-03, iterations:1000 }
   input_scale: [ 3.2372137620581718e+00, -9.2441593069545125e-01,
       3.2789003670367678e+00, -9.2549157834941009e-01,
       3.3541468278855247e+00, -9.2810266667016983e-01,
       3.4202201049453538e+00, -9.3399783742830178e-01,
       3.4742627503085108e+00, -9.3684150436144253e-01,
       3.5598187034161661e+00, -9.5241583362013538e-01,
       3.6234178239800854e+00, -9.6333949197061075e-01,
       3.7308484581938623e+00, -9.8825301063602800e-01,
       3.7788839604796345e+00, -1.0077148446640547e+00,
       3.8096478164188086e+00, -1.0338588983240204e+00,
       3.8284782453704840e+00, -1.0664501192582267e+00,
       3.8445556538279084e+00, -1.0992525868913678e+00,
       3.8484821426057341e+00, -1.1366341639474669e+00,
       3.8340303519235364e+00, -1.1727706758065457e+00,
       3.8162919660390839e+00, -1.2026282863389595e+00,
       3.7828310761666777e+00, -1.2306537977977094e+00,
       3.7342207016946536e+00, -1.2515537440753697e+00,
       3.6837240993354157e+00, -1.2654474910375768e+00,
       3.6391944461985681e+00, -1.2722840213476525e+00,
       3.6067154430372406e+00, -1.2815632084940265e+00,
       3.5744509160814619e+00, -1.2926478922367504e+00,
       3.5382681685641484e+00, -1.3010594086339351e+00,
       3.5211875481628301e+00, -1.3028712379279130e+00,
       3.5074749044723430e+00, -1.3037175642219747e+00,
       3.5073203342004633e+00, -1.3031191515280320e+00,
       3.5089839513417278e+00, -1.2994420689682107e+00,
       3.5045541394934081e+00, -1.2982386547037301e+00,
       3.5039862433095257e+00, -1.2993966438352413e+00,
       3.5250262537828916e+00, -1.2983456971686169e+00,
       3.5638981506532690e+00, -1.2947651339922353e+00,
       3.5917228167246562e+00, -1.2890638571585207e+00,
       3.6306246453497004e+00, -1.2790141151295569e+00,
       3.6761166863341912e+00, -1.2661476643891967e+00,
       3.7418839571427762e+00, -1.2509171844691822e+00,
       3.7836809796107445e+00, -1.2272094205830577e+00,
       3.8090095248242495e+00, -1.2057749604252097e+00,
       3.8280450447433108e+00, -1.1723007783093700e+00,
       3.8186369662197404e+00, -1.1390184211918979e+00,
       3.8212263635431700e+00, -1.1092602618927188e+00,
       3.8240655337192382e+00, -1.0763730131822498e+00,
       3.7916004823766438e+00, -1.0439173497106997e+00,
       3.7747337315174265e+00, -1.0202837345586184e+00,
       3.7077423043301336e+00, -9.9346854951439811e-01,
       3.6238492178539028e+00, -9.7338416648758963e-01,
       3.5558885766108128e+00, -9.6511451842524987e-01,
       3.4948107657984373e+00, -9.5232188723918509e-01,
       3.4366235006674959e+00, -9.4340944934478632e-01,
       3.3716011740939553e+00, -9.3916159890454409e-01,
       3.3104062784339403e+00, -9.3176620761243989e-01,
       3.2596330049055076e+00, -9.2708827354577217e-01,
       3.2409572480093609e+00, -9.2203541214485163e-01,
       3.2864309387529476e+00, -9.2491012061450317e-01,
       3.3572606783295837e+00, -9.2669837816942091e-01,
       3.4313450955641169e+00, -9.3320355246397868e-01,
       3.4844345748585646e+00, -9.3805973118278452e-01,
       3.5638495734576288e+00, -9.5127217141607467e-01,
       3.6359575032750384e+00, -9.6692789977153926e-01,
       3.7234799251421404e+00, -9.9095260499438043e-01,
       3.7861988970887466e+00, -1.0195640788916140e+00,
       3.8074143971669168e+00, -1.0465012272531673e+00,
       3.8136397341019714e+00, -1.0880017414923187e+00,
       3.8227023572745082e+00, -1.1248302550954226e+00,
       3.8153352740572402e+00, -1.1640054648473104e+00,
       3.8079132219708840e+00, -1.1976136087518396e+00,
       3.7715866278073880e+00, -1.2323054254976438e+00,
       3.7362129507860078e+00, -1.2559201767384518e+00,
       3.6909697424149841e+00, -1.2743036619294392e+00,
       3.6489395688600386e+00, -1.2868113250565478e+00,
       3.6173703779663020e+00, -1.3002313887764179e+00,
       3.5734175412666782e+00, -1.3072648145972212e+00,
       3.5442243065557228e+00, -1.3168693222618930e+00,
       3.5036605650271300e+00, -1.3198492307503464e+00,
       3.4904593126253332e+00, -1.3232570874530514e+00,
       3.4818073131046150e+00, -1.3247341068523948e+00,
       3.4875178481669864e+00, -1.3239769412038516e+00,
       3.4827404160258459e+00, -1.3232604674376702e+00,
       3.4785703095884650e+00, -1.3201958410747283e+00,
       3.4784386518063348e+00, -1.3194000940202204e+00,
       3.4889948643836091e+00, -1.3153664950357056e+00,
       3.5167276172013624e+00, -1.3122846711741238e+00,
       3.5599175339839859e+00, -1.3119796534453709e+00,
       3.5902634826640294e+00, -1.3014020985091670e+00,
       3.6349552900488433e+00, -1.2913391341792559e+00,
       3.6778079165425033e+00, -1.2751424487834118e+00,
       3.7470580525489039e+00, -1.2580901525233119e+00,
       3.7752557518967547e+00, -1.2344169145104260e+00,
       3.8007549613812617e+00, -1.2017192274257811e+00,
       3.8052087119647071e+00, -1.1632636145811157e+00,
       3.7992770902135886e+00, -1.1344822578790146e+00,
       3.7962277932031956e+00, -1.1006663052069630e+00,
       3.7743807433479586e+00, -1.0625903712097362e+00,
       3.7414713606487444e+00, -1.0272056849606679e+00,
       3.6872040966854596e+00, -1.0011666663717007e+00,
       3.6277769465977601e+00, -9.7516141676036372e-01,
       3.5482293525582591e+00, -9.6207313169776776e-01,
       3.5020557024522221e+00, -9.5473664970058869e-01,
       3.4547084727148798e+00, -9.4449676953936956e-01,
       3.3886766124413241e+00, -9.3892489425929815e-01,
       3.3328651216774476e+00, -9.3413924379738478e-01,
       3.2726901347792539e+00, -9.2530671050558377e-01,
       3.2218398133144963e+00, -9.2164694313516871e-01,
       3.2817098595308418e+00, -9.2406966688291647e-01,
       3.3542700297729140e+00, -9.3042265453018169e-01,
       3.4338738914883797e+00, -9.3535998976575674e-01,
       3.4954828983276847e+00, -9.3930963318549199e-01,
       3.5617104781584605e+00, -9.5810766998761709e-01,
       3.6277889565715435e+00, -9.7792266633563019e-01,
       3.7258243181662025e+00, -1.0001720033845083e+00,
       3.7786870899757399e+00, -1.0317975001525423e+00,
       3.7956179857068628e+00, -1.0706618172302567e+00,
       3.7852288473165578e+00, -1.1129134462439694e+00,
       3.7809791132687529e+00, -1.1504798231681104e+00,
       3.7813284359236068e+00, -1.1893476542738834e+00,
       3.7635570675918650e+00, -1.2230907552607591e+00,
       3.7457238877596040e+00, -1.2576831745113692e+00,
       3.6900968493736359e+00, -1.2760245988777494e+00,
       3.6535895509100924e+00, -1.2945579593181891e+00,
       3.6378889338882057e+00, -1.3101892463368738e+00,
       3.6030650325883316e+00, -1.3201208465208116e+00,
       3.5611071022793852e+00, -1.3269051738348689e+00,
       3.5275183576409139e+00, -1.3285742087369679e+00,
       3.5008219586486318e+00, -1.3269214025845324e+00,
       3.4834240057631911e+00, -1.3310915720407528e+00,
       3.4795455120851564e+00, -1.3302299288157402e+00,
       3.4749747249622529e+00, -1.3321164787737130e+00,
       3.4779455728364002e+00, -1.3319618218450535e+00,
       3.4706718925943933e+00, -1.3306796106276013e+00,
       3.4772050037773257e+00, -1.3274827738248189e+00,
       3.4881501762901777e+00, -1.3241559446699631e+00,
       3.5066611271213333e+00, -1.3258856454713315e+00,
       3.5333178662276765e+00, -1.3232332640613165e+00,
       3.5769945230741791e+00, -1.3169702785625772e+00,
       3.6132504301998534e+00, -1.3113351813417620e+00,
       3.6381313979154961e+00, -1.2978201457880738e+00,
       3.6848697782320836e+00, -1.2775989470879878e+00,
       3.7295127025039809e+00, -1.2573355077495314e+00,
       3.7656333885902535e+00, -1.2267889878431208e+00,
       3.7784497099423153e+00, -1.1906947871331506e+00,
       3.7837020985264300e+00, -1.1550996317791751e+00,
       3.7661387239993314e+00, -1.1230503303132882e+00,
       3.7577561338323635e+00, -1.0886898452517670e+00,
       3.7331427508901345e+00, -1.0452636928315922e+00,
       3.6838287192536172e+00, -1.0119483178404338e+00,
       3.6363795147861300e+00, -9.8973331522888741e-01,
       3.5529807602871468e+00, -9.6879093792672710e-01,
       3.4983862153371197e+00, -9.5358702175383425e-01,
       3.4531235523411272e+00, -9.4567259615427202e-01,
       3.3864434070240215e+00, -9.3934334765249727e-01,
       3.3278225238047883e+00, -9.3197236812585804e-01,
       3.2714061090470317e+00, -9.2609953812134826e-01,
       3.2330925412542126e+00, -9.2398884230837752e-01,
       3.2987843805047738e+00, -9.2897857773349068e-01,
       3.3581846678236547e+00, -9.2784240180432509e-01,
       3.4353140235024306e+00, -9.3368922153274503e-01,
       3.5165333092583273e+00, -9.4404311811711883e-01,
       3.5871059300554142e+00, -9.6949079283005424e-01,
       3.6425674360182652e+00, -9.8688709383722484e-01,
       3.7153369114731678e+00, -1.0131296658602351e+00,
       3.7669556686547780e+00, -1.0481999999827141e+00,
       3.7721176862870496e+00, -1.0975628271510212e+00,
       3.7673797104856517e+00, -1.1397892821244253e+00,
       3.7628028487251708e+00, -1.1757866856449704e+00,
       3.7500833234993527e+00, -1.2134530652034150e+00,
       3.7266490022990859e+00, -1.2470429938068821e+00,
       3.6946289002627886e+00, -1.2764197364973759e+00,
       3.6600910440658549e+00, -1.2969697012940311e+00,
       3.6448593122118713e+00, -1.3124524382982592e+00,
       3.6323437403270713e+00, -1.3226869466484561e+00,
       3.6013090527244755e+00, -1.3310672177152174e+00,
       3.5658453757080792e+00, -1.3326688351699483e+00,
       3.5362926638317522e+00, -1.3287107593059930e+00,
       3.5075405301318776e+00, -1.3223851506714026e+00,
       3.4981311008518303e+00, -1.3214665176419012e+00,
       3.4878742026627676e+00, -1.3246845234282894e+00,
       3.4969915755370664e+00, -1.3268198976324652e+00,
       3.4937894011044723e+00, -1.3258762836976521e+00,
       3.4882152353602729e+00, -1.3251460128338093e+00,
       3.4960055658089231e+00, -1.3265337451896910e+00,
       3.4975526422305845e+00, -1.3256592738576116e+00,
       3.5173508909312385e+00, -1.3290233183427396e+00,
       3.5402479969072025e+00, -1.3296005363332575e+00,
       3.5664905271207719e+00, -1.3316576243665490e+00,
       3.5977911617767351e+00, -1.3239935145626458e+00,
       3.6162315909281846e+00, -1.3168000671024309e+00,
       3.6430203079072356e+00, -1.2974401284032129e+00,
       3.6776370335374193e+00, -1.2779957832022202e+00,
       3.7237046953453743e+00, -1.2530108611332149e+00,
       3.7511411664304797e+00, -1.2177632614017020e+00,
       3.7597551312912389e+00, -1.1806415215717125e+00,
       3.7561211567131823e+00, -1.1433310051091117e+00,
       3.7417834520554005e+00, -1.1089931684762491e+00,
       3.7389558591126639e+00, -1.0724537035088455e+00,
       3.6834005793146711e+00, -1.0319243650985939e+00,
       3.6388609666777905e+00, -1.0031183994810489e+00,
       3.5705221580021727e+00, -9.7620250746155202e-01,
       3.5002419884454281e+00, -9.5406223697798831e-01,
       3.4423314507568503e+00, -9.4587633062522503e-01,
       3.3827844497000141e+00, -9.3983816449444502e-01,
       3.3237444756737831e+00, -9.3158653402017311e-01,
       3.2651200012175221e+00, -9.2742377865024317e-01,
       3.2275263428163896e+00, -9.2124358889632407e-01,
       3.2934894843479103e+00, -9.2614366585223173e-01,
       3.3633840815175198e+00, -9.3095297415586820e-01,
       3.4431626177027694e+00, -9.3373957554428744e-01,
       3.5195291671607536e+00, -9.5478795630528968e-01,
       3.6171385610468851e+00, -9.7605275009389936e-01,
       3.6468033799291111e+00, -9.9436556560437706e-01,
       3.6984991991499014e+00, -1.0280628772776506e+00,
       3.7474866774741811e+00, -1.0718015387953979e+00,
       3.7381118762839551e+00, -1.1200453886492963e+00,
       3.7474217027626251e+00, -1.1617120616241201e+00,
       3.7208240121318701e+00, -1.1949129782550212e+00,
       3.7075900721502828e+00, -1.2339369804227613e+00,
       3.6896511423694114e+00, -1.2692150363063595e+00,
       3.6636724004408014e+00, -1.2950527064228869e+00,
       3.6461535058260588e+00, -1.3124916903835586e+00,
       3.6426489167205149e+00, -1.3222994584067247e+00,
       3.6297280788182342e+00, -1.3283294698422159e+00,
       3.6052400835393574e+00, -1.3317432418215174e+00,
       3.5830866303643076e+00, -1.3270286917752558e+00,
       3.5555352933637425e+00, -1.3201579655579518e+00,
       3.5402827550712574e+00, -1.3143940614612137e+00,
       3.5221778190617776e+00, -1.3093058840483036e+00,
       3.5199311027001392e+00, -1.3068342914086390e+00,
       3.5202632280113244e+00, -1.3084362883929253e+00,
       3.5196177356290979e+00, -1.3087084239737625e+00,
       3.5293517165478083e+00, -1.3125092873817892e+00,
       3.5296357374898792e+00, -1.3116457978195217e+00,
       3.5285747035331503e+00, -1.3158138463558207e+00,
       3.5414319932253862e+00, -1.3209453904303909e+00,
       3.5551047210025080e+00, -1.3284213814199004e+00,
       3.5693712917635958e+00, -1.3312729721795975e+00,
       3.5846151841945870e+00, -1.3285515656262692e+00,
       3.6023733369272493e+00, -1.3224997212530407e+00,
       3.6214383837509270e+00, -1.3117635487155102e+00,
       3.6375579411817305e+00, -1.2963621736713917e+00,
       3.6833254708524188e+00, -1.2759877361785612e+00,
       3.7245370140072303e+00, -1.2459532881635373e+00,
       3.7322699267470636e+00, -1.2091587611301085e+00,
       3.7578553108921922e+00, -1.1697272010234616e+00,
       3.7258612701989078e+00, -1.1318255627993443e+00,
       3.7332962378121390e+00, -1.0961865767031429e+00,
       3.6788147493803285e+00, -1.0497786738036350e+00,
       3.6391839975467501e+00, -1.0151260829131612e+00,
       3.5747739774592211e+00, -9.8652700716916963e-01,
       3.5185301445610104e+00, -9.6783014082983443e-01,
       3.4448242585203928e+00, -9.4701725615034205e-01,
       3.3873939806028455e+00, -9.4050373045505553e-01,
       3.3294014259281970e+00, -9.3317936074431840e-01,
       3.2583820385102298e+00, -9.2991538969158483e-01,
       3.2169238657629640e+00, -9.2182067952550117e-01,
       3.2952984441235018e+00, -9.2999748689368722e-01,
       3.3794721311805982e+00, -9.3475906518620611e-01,
       3.4540677353162192e+00, -9.4515660990736894e-01,
       3.5384068510731330e+00, -9.6510736655108287e-01,
       3.6127163731046741e+00, -9.8580223833095615e-01,
       3.6639922100863118e+00, -1.0126554789457511e+00,
       3.6819779208646257e+00, -1.0497791148437969e+00,
       3.7240818949484229e+00, -1.0976932345235861e+00,
       3.7149697896317124e+00, -1.1447841504053318e+00,
       3.7097135927412901e+00, -1.1829327398138056e+00,
       3.6830751456102342e+00, -1.2194890382525443e+00,
       3.6696184929086604e+00, -1.2559093584778800e+00,
       3.6568598041013272e+00, -1.2892244066489817e+00,
       3.6471859594840743e+00, -1.3080040126854688e+00,
       3.6461996329278419e+00, -1.3213348747844311e+00,
       3.6469089015789287e+00, -1.3284056125357326e+00,
       3.6401188022088520e+00, -1.3306308805336087e+00,
       3.6138300145417057e+00, -1.3252074576653428e+00,
       3.5940347400089618e+00, -1.3156839267080991e+00,
       3.5818393096177545e+00, -1.3078499159152324e+00,
       3.5699233314391798e+00, -1.3035575689033370e+00,
       3.5645766862961308e+00, -1.2995386501675705e+00,
       3.5658623374171614e+00, -1.2958063765728807e+00,
       3.5635183369843677e+00, -1.2961824770196206e+00,
       3.5528256299809780e+00, -1.2949475404272761e+00,
       3.5521882702333003e+00, -1.2947851750976178e+00,
       3.5643925135818790e+00, -1.3006256168789565e+00,
       3.5680270398739689e+00, -1.3059368005722516e+00,
       3.5893675104080942e+00, -1.3089457233456268e+00,
       3.5942633079988724e+00, -1.3168173639831913e+00,
       3.5963237951507341e+00, -1.3257037440118451e+00,
       3.6033821757618583e+00, -1.3281322232574404e+00,
       3.6077742809103972e+00, -1.3270200976305320e+00,
       3.6137208208373801e+00, -1.3154588824610463e+00,
       3.6279025319248768e+00, -1.3090213552318948e+00,
       3.6419207535480482e+00, -1.2895868069771421e+00,
       3.6791223596296398e+00, -1.2696338319483165e+00,
       3.6993321975968945e+00, -1.2334588079780895e+00,
       3.7258771140893900e+00, -1.1999103974639722e+00,
       3.7127482527862448e+00, -1.1577130859807201e+00,
       3.7013449557675022e+00, -1.1160860883293620e+00,
       3.6683342278941766e+00, -1.0744075723418649e+00,
       3.6421889704354591e+00, -1.0325621717826852e+00,
       3.5912938340297580e+00, -9.9961464932122379e-01,
       3.5414077981541223e+00, -9.7950384441554661e-01,
       3.4582805238064078e+00, -9.6055597983295360e-01,
       3.3784243655282409e+00, -9.4779558544758868e-01,
       3.3191856552061081e+00, -9.3541731273969642e-01,
       3.2564582363916719e+00, -9.3137186141252937e-01,
       3.2195981927574104e+00, -9.2372105580312702e-01,
       3.2889798926933493e+00, -9.3046286692129321e-01,
       3.3880748289686502e+00, -9.4200845297415481e-01,
       3.4703981496064986e+00, -9.5380482204157357e-01,
       3.5500185242603024e+00, -9.7650707668515124e-01,
       3.6264291046281536e+00, -1.0001316551056452e+00,
       3.6535732841607285e+00, -1.0320008731803061e+00,
       3.6870678523521416e+00, -1.0782085218914252e+00,
       3.7000045129532961e+00, -1.1267352648160620e+00,
       3.6910452533065525e+00, -1.1684888752132292e+00,
       3.6772591746171566e+00, -1.2087420143308201e+00,
       3.6573983267263723e+00, -1.2452618307501204e+00,
       3.6413971078114162e+00, -1.2824983953978002e+00,
       3.6240713555367181e+00, -1.3005071973129785e+00,
       3.6387323507747600e+00, -1.3160933498540164e+00,
       3.6468598317835315e+00, -1.3218693266285924e+00,
       3.6516555896918974e+00, -1.3277658905815182e+00,
       3.6397020581392465e+00, -1.3212894545389060e+00,
       3.6416291717421170e+00, -1.3119665160449825e+00,
       3.6300389146039391e+00, -1.3009134151922133e+00,
       3.6227301450385507e+00, -1.2880581197735506e+00,
       3.6095636210781903e+00, -1.2828950661639069e+00,
       3.6045864591976908e+00, -1.2849665811850126e+00,
       3.6011072163380784e+00, -1.2809649264463590e+00,
       3.5922649907154196e+00, -1.2779099994629697e+00,
       3.5857495261440002e+00, -1.2771729162410059e+00,
       3.5811073355864989e+00, -1.2780147872627403e+00,
       3.5971923303985509e+00, -1.2827714245304227e+00,
       3.6034874167545974e+00, -1.2860411398349441e+00,
       3.6298610907392526e+00, -1.2897795390780986e+00,
       3.6393213570756573e+00, -1.2969110035831919e+00,
       3.6318009976667645e+00, -1.3082628455822232e+00,
       3.6328339043670699e+00, -1.3182716148233848e+00,
       3.6311615807853932e+00, -1.3230429426824974e+00,
       3.6271380821188424e+00, -1.3190614505126090e+00,
       3.6231173765482589e+00, -1.3125540261001509e+00,
       3.6192019481222295e+00, -1.3012024906584347e+00,
       3.6379119589064088e+00, -1.2864840052301516e+00,
       3.6588800252645739e+00, -1.2590102068425921e+00,
       3.6779652126425062e+00, -1.2264551676973761e+00,
       3.6884080535122634e+00, -1.1876297325476595e+00,
       3.6983420837468493e+00, -1.1469503340079110e+00,
       3.6748298514972655e+00, -1.1021455177103401e+00,
       3.6343931943501708e+00, -1.0553665361288589e+00,
       3.6012510723194464e+00, -1.0183641708830280e+00,
       3.5492536067043940e+00, -9.9384930054910803e-01,
       3.4711721484757656e+00, -9.7402802460259552e-01,
       3.4041522200084273e+00, -9.5862912667432487e-01,
       3.3309615812247126e+00, -9.4518533515572167e-01,
       3.2570677382684732e+00, -9.3211267536786269e-01,
       3.2270951210714296e+00, -9.2785586308514312e-01,
       3.3115279711972603e+00, -9.3648679342710395e-01,
       3.3976149162967335e+00, -9.4950738059461348e-01,
       3.4977395488367020e+00, -9.6438405555316464e-01,
       3.5656735055120654e+00, -9.9105583115591134e-01,
       3.6316677203697560e+00, -1.0195962044537392e+00,
       3.6462836987863696e+00, -1.0570125000739325e+00,
       3.6832684318563591e+00, -1.1087497770240675e+00,
       3.6687404320460542e+00, -1.1580887901756733e+00,
       3.6537268796400566e+00, -1.2016502541586507e+00,
       3.6537840476294918e+00, -1.2409856804322417e+00,
       3.6269184185639887e+00, -1.2727848962358412e+00,
       3.5972904091393980e+00, -1.2960359139638611e+00,
       3.5924799793052196e+00, -1.3081433898440702e+00,
       3.6271552061029912e+00, -1.3172782526884161e+00,
       3.6459601244508479e+00, -1.3205541250034725e+00,
       3.6570645245253441e+00, -1.3201836618355565e+00,
       3.6534960454002223e+00, -1.3069299496691507e+00,
       3.6679835116783552e+00, -1.2928652014292146e+00,
       3.6765831196931229e+00, -1.2787717190640593e+00,
       3.6672543337424468e+00, -1.2664328523527340e+00,
       3.6670508978078993e+00, -1.2707148840215661e+00,
       3.6352565868117797e+00, -1.2644812275385586e+00,
       3.6181365032665003e+00, -1.2587280576135385e+00,
       3.6042851895533476e+00, -1.2541340004489236e+00,
       3.6029332455299912e+00, -1.2518545779985575e+00,
       3.6017381773818018e+00, -1.2569709355970482e+00,
       3.6155719148693515e+00, -1.2652396327722162e+00,
       3.6565752032830416e+00, -1.2689167589295640e+00,
       3.6582030777016570e+00, -1.2666605104893653e+00,
       3.6636924220242513e+00, -1.2749774539810759e+00,
       3.6628730731697758e+00, -1.2944936906985576e+00,
       3.6529710252192000e+00, -1.3050838318268181e+00,
       3.6433502087754088e+00, -1.3191226040789372e+00,
       3.6313831557981979e+00, -1.3240849721858308e+00,
       3.6208661284323367e+00, -1.3177786849967879e+00,
       3.6100735564956001e+00, -1.3131202693486361e+00,
       3.6031717269556438e+00, -1.2980050658448188e+00,
       3.6151440761746723e+00, -1.2800618122724159e+00,
       3.6393842059301549e+00, -1.2554905783373649e+00,
       3.6641749526443053e+00, -1.2193194884356511e+00,
       3.6811542403344983e+00, -1.1802525871684502e+00,
       3.6630745603844614e+00, -1.1312005995551002e+00,
       3.6321328783444096e+00, -1.0863521596151740e+00,
       3.5947989524112667e+00, -1.0386626866342219e+00,
       3.5654500471309274e+00, -1.0130726604785121e+00,
       3.4894708171266853e+00, -9.8788854693396555e-01,
       3.3981831469050343e+00, -9.6625610205104817e-01,
       3.3424636742327030e+00, -9.5449659820641808e-01,
       3.2726761261921369e+00, -9.3876326138686006e-01,
       3.2403794497100558e+00, -9.3184552079272520e-01,
       3.3329922314707772e+00, -9.4235992144041547e-01,
       3.4226157313598851e+00, -9.6048147747928492e-01,
       3.5059021824352468e+00, -9.7898347330968183e-01,
       3.5803389556231733e+00, -1.0111503613579451e+00,
       3.6125315252333361e+00, -1.0411702302167976e+00,
       3.6400225798705650e+00, -1.0893450283648305e+00,
       3.6624675611753834e+00, -1.1427115740870137e+00,
       3.6379349154021816e+00, -1.1912633258464220e+00,
       3.6273902945177365e+00, -1.2314458502610717e+00,
       3.6142510080017232e+00, -1.2683790908078514e+00,
       3.5857499920438953e+00, -1.2924782446816856e+00,
       3.5723529620796062e+00, -1.3051442319348099e+00,
       3.5859041406510692e+00, -1.3135391048641085e+00,
       3.6235274193820013e+00, -1.3202257005411611e+00,
       3.6393587805344474e+00, -1.3119646755782808e+00,
       3.6533784466398846e+00, -1.3058008712419753e+00,
       3.6847877294357292e+00, -1.2862728342876641e+00,
       3.6932001617984538e+00, -1.2620893862708544e+00,
       3.7019078647080184e+00, -1.2479116179787588e+00,
       3.6769374985180190e+00, -1.2425710539172194e+00,
       3.6493483622165988e+00, -1.2433393503364008e+00,
       3.6361797159572227e+00, -1.2464220537674764e+00,
       3.6213978656726726e+00, -1.2405944951533734e+00,
       3.6188362821476057e+00, -1.2391310945914966e+00,
       3.6056254440594446e+00, -1.2364889029723014e+00,
       3.5973443483485128e+00, -1.2370017206935644e+00,
       3.6091007183661570e+00, -1.2404166059430315e+00,
       3.6309143004246414e+00, -1.2403236473630253e+00,
       3.6740541875264756e+00, -1.2409375633117199e+00,
       3.6877920475772417e+00, -1.2442827043230262e+00,
       3.6855319008819047e+00, -1.2604364557787218e+00,
       3.6746583058454227e+00, -1.2844613172327124e+00,
       3.6613120250123314e+00, -1.3037103073293281e+00,
       3.6368738310389146e+00, -1.3171755780062886e+00,
       3.6101739769695986e+00, -1.3186657993255415e+00,
       3.5966715177940092e+00, -1.3185337298607207e+00,
       3.5895832365420373e+00, -1.3099549926531571e+00,
       3.5851187503797628e+00, -1.2970626381301016e+00,
       3.6005860109319312e+00, -1.2783848464501457e+00,
       3.6277684602323750e+00, -1.2507215327717098e+00,
       3.6438065194874154e+00, -1.2151562781705787e+00,
       3.6471287949590372e+00, -1.1665785961324877e+00,
       3.6219837033098603e+00, -1.1156625628747665e+00,
       3.5884239574167118e+00, -1.0669749929229850e+00,
       3.5634899621459653e+00, -1.0307156758977221e+00,
       3.5010016201604315e+00, -1.0032930812559868e+00,
       3.4115692257895383e+00, -9.7755220115600150e-01,
       3.3560654465805153e+00, -9.6169218234519049e-01,
       3.2794101598703214e+00, -9.4546959431479916e-01,
       3.2620758072309153e+00, -9.3759951407847419e-01,
       3.3569398121029805e+00, -9.5615183718770480e-01,
       3.4529014714860540e+00, -9.7147336579437593e-01,
       3.5268746647051978e+00, -9.9579262462764706e-01,
       3.5846917909104281e+00, -1.0290762823259050e+00,
       3.6075124933769165e+00, -1.0692136063647710e+00,
       3.6352657923464426e+00, -1.1248795601409105e+00,
       3.6409998007846580e+00, -1.1773154130894523e+00,
       3.6139967866722085e+00, -1.2228231111366037e+00,
       3.5983346444087108e+00, -1.2609552452188275e+00,
       3.5749980930757337e+00, -1.2880278760250548e+00,
       3.5463598900580942e+00, -1.2982391455765006e+00,
       3.5509821215864519e+00, -1.3110948785241641e+00,
       3.5735496493521723e+00, -1.3150452315069321e+00,
       3.6159526861478679e+00, -1.3140483706538308e+00,
       3.6393025615039369e+00, -1.3005468936905336e+00,
       3.6683691432158203e+00, -1.2833223389655712e+00,
       3.6736062246324419e+00, -1.2516321760629239e+00,
       3.7121226922104511e+00, -1.2266867293736980e+00,
       3.6963149366771106e+00, -1.2111767467380312e+00,
       3.6698705131341440e+00, -1.2105966821203700e+00,
       3.6483178922499797e+00, -1.2150883675640785e+00,
       3.6268743249046254e+00, -1.2237445783151524e+00,
       3.5947217738664636e+00, -1.2218731975257080e+00,
       3.5796671830286213e+00, -1.2154794982702148e+00,
       3.5647325872373639e+00, -1.2161288603225591e+00,
       3.5697232648989612e+00, -1.2167927654226156e+00,
       3.5879459869911172e+00, -1.2183376717967731e+00,
       3.6365316080069054e+00, -1.2156858098051579e+00,
       3.6541246815942610e+00, -1.2072932008092783e+00,
       3.6797027599819820e+00, -1.2139487680339414e+00,
       3.6908060668851612e+00, -1.2276808392776721e+00,
       3.6915590068613686e+00, -1.2541993409989591e+00,
       3.6719974334792931e+00, -1.2759355790692575e+00,
       3.6443699386411645e+00, -1.2966052423483649e+00,
       3.6070042261756172e+00, -1.3100507479785355e+00,
       3.5773491900326300e+00, -1.3118923882446214e+00,
       3.5644695128305659e+00, -1.3146983115479953e+00,
       3.5597093630684631e+00, -1.3095159700768664e+00,
       3.5608520746604757e+00, -1.2956528119815922e+00,
       3.5899891295823823e+00, -1.2754235464313239e+00,
       3.6177337263658269e+00, -1.2406610217965013e+00,
       3.6241847188868954e+00, -1.1994429633472772e+00,
       3.6113981902729502e+00, -1.1458385278934344e+00,
       3.5846493691706987e+00, -1.0945008448012643e+00,
       3.5594546005849863e+00, -1.0546467818148961e+00,
       3.5197442091671576e+00, -1.0222130099571329e+00,
       3.4315082130933203e+00, -9.9128335865090966e-01,
       3.3741805715620554e+00, -9.7553473827034720e-01,
       3.2946988519506357e+00, -9.5694126406246416e-01,
       3.2901958923623931e+00, -9.4692359197735354e-01,
       3.3842161229392582e+00, -9.6574595845657796e-01,
       3.4688098142573005e+00, -9.8414902735054166e-01,
       3.5340581368661517e+00, -1.0146063331914215e+00,
       3.5808810501353965e+00, -1.0549160390553154e+00,
       3.6182487946082995e+00, -1.1001289669541374e+00,
       3.6307827914715269e+00, -1.1546737848069530e+00,
       3.6157084111059619e+00, -1.2109079017635638e+00,
       3.5949717142384410e+00, -1.2510938732494317e+00,
       3.5691910998217744e+00, -1.2808327995862858e+00,
       3.5411087347256345e+00, -1.2960030621630452e+00,
       3.5271746403108275e+00, -1.3045579282259068e+00,
       3.5384458896245823e+00, -1.3117961234221351e+00,
       3.5735875892820412e+00, -1.3104582000433767e+00,
       3.6102915417307684e+00, -1.3028209704855183e+00,
       3.6501071805578289e+00, -1.2792055696567561e+00,
       3.6926105017898809e+00, -1.2509373874421295e+00,
       3.7178502199092471e+00, -1.2197176589044720e+00,
       3.7027442333607765e+00, -1.1862512938825938e+00,
       3.6571843025621340e+00, -1.1731194139782501e+00,
       3.6413036508850167e+00, -1.1781704626307903e+00,
       3.6070199005308310e+00, -1.1854092227602608e+00,
       3.5776382527708863e+00, -1.1909376941993057e+00,
       3.5530249810626060e+00, -1.1941320499899479e+00,
       3.5535166631770698e+00, -1.1907017050561146e+00,
       3.5508061027575706e+00, -1.1922637858379559e+00,
       3.5524811833528607e+00, -1.1953871042268036e+00,
       3.5814381545173291e+00, -1.1938793832411960e+00,
       3.6109412601744415e+00, -1.1848098619673171e+00,
       3.6316312162200326e+00, -1.1702976167292114e+00,
       3.6711722625390570e+00, -1.1709320368742075e+00,
       3.6975186412210324e+00, -1.1887431563167943e+00,
       3.6971322491484804e+00, -1.2142714728029449e+00,
       3.6847944635581302e+00, -1.2447425214057770e+00,
       3.6637811837486765e+00, -1.2752768634626961e+00,
       3.6168469451743115e+00, -1.2983973815356362e+00,
       3.5642083370606263e+00, -1.3069797782298622e+00,
       3.5346944046048652e+00, -1.3106721395989687e+00,
       3.5305147619511703e+00, -1.3099603662641068e+00,
       3.5393487646495649e+00, -1.3047244115860559e+00,
       3.5578847074471387e+00, -1.2911832532583059e+00,
       3.5804683889234181e+00, -1.2634989617011734e+00,
       3.6029203261013452e+00, -1.2310958808712336e+00,
       3.6107643014721211e+00, -1.1791865985463921e+00,
       3.6012261681641089e+00, -1.1285477420628771e+00,
       3.5642592561323734e+00, -1.0796352109108325e+00,
       3.5258994866193749e+00, -1.0379549770967726e+00,
       3.4585016909302655e+00, -1.0081418997512541e+00,
       3.3846250430251597e+00, -9.8665893251942038e-01,
       3.3080230791715954e+00, -9.6484237715610965e-01,
       3.3051294894478995e+00, -9.5832219645731420e-01,
       3.4038413989537823e+00, -9.7218042106367031e-01,
       3.4854624906074383e+00, -9.9605672283165791e-01,
       3.5524972246831572e+00, -1.0318456899782498e+00,
       3.5781644354965882e+00, -1.0759328790463583e+00,
       3.6043386562022315e+00, -1.1303747577385528e+00,
       3.6124068264293414e+00, -1.1850654991164045e+00,
       3.5968779275463429e+00, -1.2394342115834300e+00,
       3.5768791085138281e+00, -1.2744360188952384e+00,
       3.5467804958887164e+00, -1.2940439072788543e+00,
       3.5201831573094209e+00, -1.3066737292313793e+00,
       3.5174031065972042e+00, -1.3102281579903754e+00,
       3.5245813938273205e+00, -1.3020720224386120e+00,
       3.5573028287614594e+00, -1.2940267326373573e+00,
       3.6099839873417650e+00, -1.2808449344711486e+00,
       3.6589564227145872e+00, -1.2507794037840008e+00,
       3.6898309025282843e+00, -1.2200912350011428e+00,
       3.7128912094423625e+00, -1.1870977008272159e+00,
       3.7052264618376949e+00, -1.1616134349121561e+00,
       3.6490078356600115e+00, -1.1464513256404694e+00,
       3.6215436154025054e+00, -1.1470886221798784e+00,
       3.5671920713372454e+00, -1.1516040351620864e+00,
       3.5373332235513604e+00, -1.1596130975208665e+00,
       3.4897303087688480e+00, -1.1678052399862882e+00,
       3.5053296676126240e+00, -1.1685966645438655e+00,
       3.4902634803094297e+00, -1.1664717571087715e+00,
       3.4929718530809333e+00, -1.1682862898503112e+00,
       3.5219903258119682e+00, -1.1653900346533870e+00,
       3.5630492024227216e+00, -1.1564481088560956e+00,
       3.6056990887927731e+00, -1.1453555506926818e+00,
       3.6667313253888820e+00, -1.1489874248460257e+00,
       3.7230800474849892e+00, -1.1571838828066419e+00,
       3.7066435910980378e+00, -1.1787628005256876e+00,
       3.6858921071525597e+00, -1.2106886672860051e+00,
       3.6635825750226791e+00, -1.2469185863169685e+00,
       3.6152173407083814e+00, -1.2713005835796258e+00,
       3.5750468325790892e+00, -1.2931801619340266e+00,
       3.5248557244098713e+00, -1.3032452740150233e+00,
       3.5002141698465898e+00, -1.3059924145323687e+00,
       3.5196353565603258e+00, -1.3101279515704898e+00,
       3.5419913514460952e+00, -1.3056404416564602e+00,
       3.5607835810751953e+00, -1.2853098271175674e+00,
       3.5888198186707858e+00, -1.2551124362809307e+00,
       3.6084710441332204e+00, -1.2108761225719809e+00,
       3.5990012495303874e+00, -1.1553023954531954e+00,
       3.5601183138601629e+00, -1.1025064010219212e+00,
       3.5313341335335662e+00, -1.0581467974890697e+00,
       3.4731652222243929e+00, -1.0224196563386625e+00,
       3.4069714522717405e+00, -9.9636707064786212e-01,
       3.3290503441357258e+00, -9.7389225705465898e-01,
       3.3055723392076160e+00, -9.6594276129381740e-01,
       3.4225971830554762e+00, -9.8357999782870575e-01,
       3.5095471865115266e+00, -1.0126829813291038e+00,
       3.5504053867956431e+00, -1.0525830625029546e+00,
       3.5781212888017961e+00, -1.0975841411621083e+00,
       3.5928660696622376e+00, -1.1554277459258266e+00,
       3.5956665272839361e+00, -1.2124241660547319e+00,
       3.5849390550542197e+00, -1.2596923768743093e+00,
       3.5583586727710372e+00, -1.2897982886485870e+00,
       3.5342240735996220e+00, -1.3061677911506031e+00,
       3.5112002602464485e+00, -1.3130796958996591e+00,
       3.5007604711546310e+00, -1.3077165298973878e+00,
       3.5248504134987479e+00, -1.2968928530272104e+00,
       3.5718575638017400e+00, -1.2862712323066312e+00,
       3.6079469146090539e+00, -1.2613439127818575e+00,
       3.6697887860555349e+00, -1.2258843442353373e+00,
       3.6871612579708781e+00, -1.2001187718751816e+00,
       3.7105552173420295e+00, -1.1778961162920820e+00,
       3.6963694057172853e+00, -1.1546194285242279e+00,
       3.6708894730212256e+00, -1.1494913119972974e+00,
       3.5932121077524650e+00, -1.1370890198046173e+00,
       3.5359761404395824e+00, -1.1462724962790987e+00,
       3.4723320230028536e+00, -1.1544130098830512e+00,
       3.4236932249479763e+00, -1.1611364428207223e+00,
       3.4488706266326234e+00, -1.1670193390071235e+00,
       3.4344089014583941e+00, -1.1646128481383087e+00,
       3.4236863015129657e+00, -1.1622838440577012e+00,
       3.4409327254307396e+00, -1.1575845244014955e+00,
       3.5105912861620174e+00, -1.1516759994876140e+00,
       3.5546312226622110e+00, -1.1422569470717461e+00,
       3.6221303785437309e+00, -1.1439858593467831e+00,
       3.7039528780679896e+00, -1.1592896052341526e+00,
       3.7038563072443695e+00, -1.1716612767803662e+00,
       3.6864831232426032e+00, -1.1871309029298394e+00,
       3.6669269636777662e+00, -1.2195172682385609e+00,
       3.6391913321498985e+00, -1.2545920471806653e+00,
       3.5950978816152528e+00, -1.2771952871707135e+00,
       3.5370861476518214e+00, -1.2979395716557240e+00,
       3.5059478298567637e+00, -1.3048412346898692e+00,
       3.5130759775847036e+00, -1.3113755038968600e+00,
       3.5263111243418628e+00, -1.3135425248288535e+00,
       3.5583519621939410e+00, -1.3012084281511387e+00,
       3.5805658509991329e+00, -1.2758279340972851e+00,
       3.6082325447560608e+00, -1.2392340987155193e+00,
       3.5994157465443424e+00, -1.1844772561772283e+00,
       3.5933040351054313e+00, -1.1316820154526024e+00,
       3.5421236169200809e+00, -1.0803036869518388e+00,
       3.4868464839567452e+00, -1.0392056047741309e+00,
       3.4217446761317389e+00, -1.0086338530776735e+00,
       3.3384264343828072e+00, -9.8694798602693956e-01,
       3.3391268903422313e+00, -9.7803083821666281e-01,
       3.4329372861481264e+00, -9.9791484442068024e-01,
       3.5186442631743806e+00, -1.0308270516047593e+00,
       3.5509286511422165e+00, -1.0712507617642872e+00,
       3.5828402258495555e+00, -1.1238951131460744e+00,
       3.6012466709168134e+00, -1.1847331068070865e+00,
       3.5894284676781543e+00, -1.2329761559581121e+00,
       3.5863378425333106e+00, -1.2739655020213818e+00,
       3.5483986501377385e+00, -1.2982479962231290e+00,
       3.5218743481643151e+00, -1.3114506504701393e+00,
       3.5129547611333058e+00, -1.3160184232066026e+00,
       3.5074597852882539e+00, -1.3040917849212410e+00,
       3.5413243542024877e+00, -1.2904804721271625e+00,
       3.5782923156343447e+00, -1.2668723109597724e+00,
       3.6020981109573964e+00, -1.2391131483398914e+00,
       3.6337717737097557e+00, -1.2126564954683428e+00,
       3.6450981903033912e+00, -1.1891392100036031e+00,
       3.6482214151381909e+00, -1.1752886558015296e+00,
       3.6410397395468803e+00, -1.1639857133478737e+00,
       3.6101070897693561e+00, -1.1537218522277726e+00,
       3.5712436223897965e+00, -1.1528534076599564e+00,
       3.5274801895847521e+00, -1.1560589368422960e+00,
       3.4514132201317431e+00, -1.1610914526318081e+00,
       3.4107745785083643e+00, -1.1683137162637540e+00,
       3.4299486047073846e+00, -1.1765736485451388e+00,
       3.4246272241890554e+00, -1.1745946649891519e+00,
       3.4116108086051113e+00, -1.1701824820343558e+00,
       3.4455058264967140e+00, -1.1652664249565035e+00,
       3.4982095262943105e+00, -1.1620940389378687e+00,
       3.5457958171829524e+00, -1.1605255477867624e+00,
       3.5783726317373175e+00, -1.1574602973761310e+00,
       3.6281977373526630e+00, -1.1680481544776329e+00,
       3.6470731025957530e+00, -1.1821237041173074e+00,
       3.6554314077370340e+00, -1.1879597908637702e+00,
       3.6522505717399376e+00, -1.2074810282459303e+00,
       3.6309270131853140e+00, -1.2322572801357079e+00,
       3.6040696652235846e+00, -1.2619951167422281e+00,
       3.5552419400081163e+00, -1.2847523265796981e+00,
       3.5130650112437829e+00, -1.2965225212798914e+00,
       3.5112287984325339e+00, -1.3069257686369191e+00,
       3.5216595117108054e+00, -1.3166675386346367e+00,
       3.5370647087719163e+00, -1.3075929292618444e+00,
       3.5781887217318444e+00, -1.2940387556293169e+00,
       3.5978720244721698e+00, -1.2596478557415369e+00,
       3.6095939438189095e+00, -1.2117346420321713e+00,
       3.5887960230297171e+00, -1.1551748814472751e+00,
       3.5525697641699412e+00, -1.1019796675693105e+00,
       3.5050192671622544e+00, -1.0569866530345660e+00,
       3.4262798468553606e+00, -1.0215968271080398e+00,
       3.3561881108075622e+00, -9.9866036383953094e-01,
       3.3576667035026806e+00, -9.8875746523601848e-01,
       3.4424599512470762e+00, -1.0103079666980452e+00,
       3.5241992884037487e+00, -1.0463905016233772e+00,
       3.5626478290523313e+00, -1.0906202169025978e+00,
       3.5861069491783799e+00, -1.1478210349495923e+00,
       3.5978198194435707e+00, -1.2052633092382574e+00,
       3.5897947785137734e+00, -1.2498145048593636e+00,
       3.5788009387846951e+00, -1.2836745760390684e+00,
       3.5461330354641705e+00, -1.3067171694242135e+00,
       3.5232016613039892e+00, -1.3122108296360069e+00,
       3.5222539656795280e+00, -1.3126207414661659e+00,
       3.5049292144327304e+00, -1.2964452726200171e+00,
       3.5365868438460724e+00, -1.2800303771600714e+00,
       3.5601039798767498e+00, -1.2526947991892192e+00,
       3.5884238168123201e+00, -1.2292395848700763e+00,
       3.6075889178736409e+00, -1.2092028605310672e+00,
       3.6051280465745448e+00, -1.2037167004306955e+00,
       3.6114004784572513e+00, -1.1997826204393205e+00,
       3.5887217467726482e+00, -1.1961778382229402e+00,
       3.5799952379472137e+00, -1.1897759979854230e+00,
       3.5446271181435964e+00, -1.1827444351031431e+00,
       3.5303082183384107e+00, -1.1845354374133314e+00,
       3.4792722907361662e+00, -1.1868708363432956e+00,
       3.4533014079777242e+00, -1.1918938231031877e+00,
       3.4493504452320272e+00, -1.2012309135209214e+00,
       3.4391301732598869e+00, -1.1999477317771834e+00,
       3.4338669808469597e+00, -1.1935888293592294e+00,
       3.4516547581521118e+00, -1.1886522893291416e+00,
       3.4910862325960368e+00, -1.1842484634211912e+00,
       3.5223726132759867e+00, -1.1873210069851770e+00,
       3.5381603634457961e+00, -1.1914622887258621e+00,
       3.5515199897837242e+00, -1.1950015119930530e+00,
       3.5661094282368637e+00, -1.2017244292254599e+00,
       3.5861925019782923e+00, -1.2014387919739786e+00,
       3.5998720596181153e+00, -1.2087821119347615e+00,
       3.6011041860401254e+00, -1.2222818127032096e+00,
       3.5938796682496061e+00, -1.2495501691008544e+00,
       3.5658252832665953e+00, -1.2777448638793802e+00,
       3.5222818052823595e+00, -1.2932661268880075e+00,
       3.5087093633529931e+00, -1.3049824139075683e+00,
       3.5107255113557576e+00, -1.3132785041730979e+00,
       3.5308980650937598e+00, -1.3173329768456101e+00,
       3.5629803056639346e+00, -1.3020317702286019e+00,
       3.5850602815958972e+00, -1.2742920824033548e+00,
       3.6014880671692922e+00, -1.2360904164789350e+00,
       3.5799141483595984e+00, -1.1736151051280266e+00,
       3.5642350297836005e+00, -1.1215561525116762e+00,
       3.5087373961075303e+00, -1.0702134197891371e+00,
       3.4406014728670331e+00, -1.0333227538605565e+00,
       3.3713548814527017e+00, -1.0076061717536580e+00,
       3.3879812925578845e+00, -9.9709516855579405e-01,
       3.4579462678496720e+00, -1.0221533500037079e+00,
       3.5287135100789140e+00, -1.0609629193231638e+00,
       3.5628263892473488e+00, -1.1108045032525893e+00,
       3.5884458442746174e+00, -1.1703945357273347e+00,
       3.5973835755665622e+00, -1.2220578386523178e+00,
       3.5996427804546456e+00, -1.2658355619032990e+00,
       3.5675061124210963e+00, -1.2909754287164146e+00,
       3.5452226299521472e+00, -1.3107251171481027e+00,
       3.5282243271976874e+00, -1.3168641859884394e+00,
       3.5101225768534432e+00, -1.3098430040229325e+00,
       3.5005076430718898e+00, -1.2965213966394182e+00,
       3.5410579846248851e+00, -1.2755052872778996e+00,
       3.5504793044337779e+00, -1.2502402761794735e+00,
       3.5718515810435476e+00, -1.2326546719714602e+00,
       3.5755274933828374e+00, -1.2201636123276844e+00,
       3.5781869436861982e+00, -1.2257994144861413e+00,
       3.5592360652923150e+00, -1.2269188764133248e+00,
       3.5432131096669872e+00, -1.2310851847348181e+00,
       3.5495657308031072e+00, -1.2302754521365962e+00,
       3.5292437503004885e+00, -1.2290188840437175e+00,
       3.5106167130791097e+00, -1.2287034364758052e+00,
       3.4757426280178034e+00, -1.2291508673102665e+00,
       3.4456815889704919e+00, -1.2293263873273530e+00,
       3.4408956487394589e+00, -1.2354215309907428e+00,
       3.4421860156377480e+00, -1.2354480453672054e+00,
       3.4315460063466281e+00, -1.2317868562460337e+00,
       3.4276073625809969e+00, -1.2275309962671759e+00,
       3.4567891756900497e+00, -1.2253711886970415e+00,
       3.4856054838830897e+00, -1.2234116558577310e+00,
       3.5035543530839148e+00, -1.2286307654944211e+00,
       3.4918346419992532e+00, -1.2228975289741226e+00,
       3.5114243134455778e+00, -1.2257864706508890e+00,
       3.5390766506984299e+00, -1.2264618694786271e+00,
       3.5655942787851047e+00, -1.2259045613737864e+00,
       3.5779999163748966e+00, -1.2352148359128168e+00,
       3.5563023400097067e+00, -1.2523374409796404e+00,
       3.5469424902188855e+00, -1.2735238178184560e+00,
       3.5245824997504784e+00, -1.2957764337689379e+00,
       3.5080797039658016e+00, -1.3083170341080794e+00,
       3.5067447187409990e+00, -1.3122190126753099e+00,
       3.5290995731543751e+00, -1.3172178825104792e+00,
       3.5543078779616670e+00, -1.3082443091425431e+00,
       3.5751846029810115e+00, -1.2855373899080411e+00,
       3.6094855074524594e+00, -1.2539337727411279e+00,
       3.5930355369231308e+00, -1.1961064339869485e+00,
       3.5797470031995418e+00, -1.1465450481378385e+00,
       3.5361580612833539e+00, -1.0888122035864061e+00,
       3.4617345579555918e+00, -1.0493750873682293e+00,
       3.3798965238817384e+00, -1.0132905733439956e+00,
       3.4083701504413138e+00, -1.0076032662592740e+00,
       3.4632010306208092e+00, -1.0334653850131366e+00,
       3.5339513976614212e+00, -1.0752289552204981e+00,
       3.5771880162660419e+00, -1.1344089748598543e+00,
       3.5975025804217737e+00, -1.1921825313655232e+00,
       3.5960011602172850e+00, -1.2351198155486562e+00,
       3.5946004642856995e+00, -1.2745806911794080e+00,
       3.5658649626320673e+00, -1.2978980732465135e+00,
       3.5411006399311304e+00, -1.3110527087685504e+00,
       3.5345245786352195e+00, -1.3202982520348872e+00,
       3.5028648742484108e+00, -1.3083187115214061e+00,
       3.5046288220137018e+00, -1.3004898392647000e+00,
       3.5158116227345695e+00, -1.2807873507335346e+00,
       3.5212417946778229e+00, -1.2642189901523910e+00,
       3.5349952399927016e+00, -1.2547102167476223e+00,
       3.5379470347393212e+00, -1.2511447684469412e+00,
       3.5445255530308062e+00, -1.2589342768628216e+00,
       3.5283427688735483e+00, -1.2637077721554775e+00,
       3.5120010287791872e+00, -1.2659800606531018e+00,
       3.5051752638730100e+00, -1.2672081079946951e+00,
       3.4995839458579270e+00, -1.2685401514610117e+00,
       3.4730050898452949e+00, -1.2661315763782166e+00,
       3.4397336820861661e+00, -1.2637285179670099e+00,
       3.4314119331397976e+00, -1.2661213506260887e+00,
       3.4399689431099456e+00, -1.2678412768038598e+00,
       3.4312209492272228e+00, -1.2646321131774196e+00,
       3.4165179502855603e+00, -1.2641836538128037e+00,
       3.4241955335877363e+00, -1.2664364514288156e+00,
       3.4646746049089931e+00, -1.2688325634317670e+00,
       3.4846978318861077e+00, -1.2687971603825821e+00,
       3.4932865563415110e+00, -1.2686457321370630e+00,
       3.4863738174732855e+00, -1.2662153429514500e+00,
       3.4853889289204671e+00, -1.2615341470492694e+00,
       3.5044821398535730e+00, -1.2536974791774294e+00,
       3.5136824866032792e+00, -1.2526148545740419e+00,
       3.5231177002362002e+00, -1.2546257624323813e+00,
       3.5157714288586148e+00, -1.2629549279884285e+00,
       3.4999407822481787e+00, -1.2770041966709984e+00,
       3.5044657442844191e+00, -1.2994901240846828e+00,
       3.5054779724325686e+00, -1.3064494432895448e+00,
       3.5060846440689288e+00, -1.3127237226530624e+00,
       3.5322307831251987e+00, -1.3194800586340780e+00,
       3.5592582058781130e+00, -1.3136911556991377e+00,
       3.5811192228411408e+00, -1.2940918087683273e+00,
       3.6014389901044401e+00, -1.2643359122957269e+00,
       3.6003259127680538e+00, -1.2197058504474054e+00,
       3.5899490410086878e+00, -1.1674212137794324e+00,
       3.5412292438152866e+00, -1.1052718699177517e+00,
       3.4758539244952416e+00, -1.0630883684437258e+00,
       3.4203028938936648e+00, -1.0262798638306172e+00,
       3.4389107623699307e+00, -1.0155447196406087e+00,
       3.4842622618239418e+00, -1.0461077088234692e+00,
       3.5504076781069891e+00, -1.0955300158877397e+00,
       3.5754257049877429e+00, -1.1516768802413222e+00,
       3.5997642820171971e+00, -1.2061352130955014e+00,
       3.6016256826229767e+00, -1.2501986365827722e+00,
       3.5834041220196298e+00, -1.2806806945185754e+00,
       3.5567602497000657e+00, -1.3042758322427304e+00,
       3.5465879125552573e+00, -1.3148184674171877e+00,
       3.5246237579515998e+00, -1.3227956940485759e+00,
       3.4884252098331965e+00, -1.3112633039468853e+00,
       3.4741473481535174e+00, -1.3017350647601948e+00,
       3.4787062165584053e+00, -1.2936027405702508e+00,
       3.4884546571714741e+00, -1.2874055467364203e+00,
       3.4823627395434804e+00, -1.2807995052802175e+00,
       3.4911695014883706e+00, -1.2823850011796794e+00,
       3.4911024588469806e+00, -1.2876189402954061e+00,
       3.4803036773735769e+00, -1.2942995669634072e+00,
       3.4958504883744390e+00, -1.2977907065434187e+00,
       3.4876906511217403e+00, -1.2944333680935871e+00,
       3.4848061619682236e+00, -1.2931493394806144e+00,
       3.4676351048617642e+00, -1.2884009499398845e+00,
       3.4364560782124016e+00, -1.2867441019320467e+00,
       3.4307833268427239e+00, -1.2790920163081183e+00,
       3.4412585250003032e+00, -1.2727697717264361e+00,
       3.4447489897695824e+00, -1.2713928905802037e+00,
       3.4224708051287145e+00, -1.2788980499366087e+00,
       3.4217066476603031e+00, -1.2843990966314551e+00,
       3.4504008329189095e+00, -1.2912257954599411e+00,
       3.4712225780464592e+00, -1.2950840042425378e+00,
       3.4692293746044314e+00, -1.2943251772683388e+00,
       3.4703999892470612e+00, -1.2957337482132674e+00,
       3.4641505510535215e+00, -1.2958445596575459e+00,
       3.4660922433860399e+00, -1.2937613944090380e+00,
       3.4678859130780708e+00, -1.2899432402168005e+00,
       3.4754016858985022e+00, -1.2871960169839005e+00,
       3.4664927295077828e+00, -1.2817691016530717e+00,
       3.4615308324097795e+00, -1.2902753471446127e+00,
       3.4736575494251314e+00, -1.3023684916597411e+00,
       3.4762434319267008e+00, -1.3075398841951855e+00,
       3.5054258206216504e+00, -1.3141412349052259e+00,
       3.5262240389143793e+00, -1.3198090152702506e+00,
       3.5444482046933179e+00, -1.3162352285048693e+00,
       3.5804468683226061e+00, -1.2999469708979587e+00,
       3.5965592967483353e+00, -1.2758221132321235e+00,
       3.6096421479736880e+00, -1.2362395715443313e+00,
       3.5884541747816585e+00, -1.1838454920392942e+00,
       3.5571886248852347e+00, -1.1264129691932065e+00,
       3.4963433826930443e+00, -1.0740593046464055e+00,
       3.4330876201287759e+00, -1.0368606764311441e+00,
       3.4569982368325651e+00, -1.0203869673462376e+00,
       3.4839688963270876e+00, -1.0551509117387863e+00,
       3.5592391684460112e+00, -1.1132680111375879e+00,
       3.5812614040546675e+00, -1.1675420129471268e+00,
       3.5893236064588327e+00, -1.2200854355875037e+00,
       3.5996941396334248e+00, -1.2624278748644897e+00,
       3.5782636135965529e+00, -1.2897328217143889e+00,
       3.5469688953636700e+00, -1.3111495824363435e+00,
       3.5268751471152475e+00, -1.3255464892295206e+00,
       3.4959414705583418e+00, -1.3235839515716779e+00,
       3.4666519741889052e+00, -1.3169580908841190e+00,
       3.4411270261785671e+00, -1.3039563760307258e+00,
       3.4310274740789009e+00, -1.2992510885234743e+00,
       3.4236442295780329e+00, -1.2950770391958510e+00,
       3.4235853490803381e+00, -1.3004101168469253e+00,
       3.4303666598682994e+00, -1.3054174871254858e+00,
       3.4453802496491250e+00, -1.3105165497272722e+00,
       3.4490906896706410e+00, -1.3107243317971313e+00,
       3.4697093327357438e+00, -1.3066762646642434e+00,
       3.4827641539535557e+00, -1.2986852684701158e+00,
       3.4887667398571729e+00, -1.2867040310336930e+00,
       3.4748460346954109e+00, -1.2771454386093324e+00,
       3.4373638289838584e+00, -1.2706487231579666e+00,
       3.4331874432386269e+00, -1.2597198855391802e+00,
       3.4662279381298648e+00, -1.2559221225204875e+00,
       3.4651275447544574e+00, -1.2528284122397333e+00,
       3.4420081294455556e+00, -1.2621694930267142e+00,
       3.4298983458333514e+00, -1.2664445645650302e+00,
       3.4578179867804701e+00, -1.2729408160776960e+00,
       3.4697208254585354e+00, -1.2824806970817975e+00,
       3.4595340593191470e+00, -1.2969445447911729e+00,
       3.4434158478800398e+00, -1.3065676632271563e+00,
       3.4400088595353524e+00, -1.3133803456797100e+00,
       3.4289882783258614e+00, -1.3171771789572735e+00,
       3.4209767923093293e+00, -1.3154281884490016e+00,
       3.4256446335938255e+00, -1.3097060705761894e+00,
       3.4208382004478031e+00, -1.2991608341172054e+00,
       3.4264384714418630e+00, -1.3029706034009689e+00,
       3.4384870347802634e+00, -1.3065292322940072e+00,
       3.4618305892857548e+00, -1.3190761479504176e+00,
       3.4819459188645134e+00, -1.3240822079301355e+00,
       3.5109903917875767e+00, -1.3262397970384192e+00,
       3.5332050612438843e+00, -1.3183676094470875e+00,
       3.5589369297203528e+00, -1.3059305005154462e+00,
       3.5852508904749572e+00, -1.2853880577234078e+00,
       3.6057385530439752e+00, -1.2524743126466518e+00,
       3.5842792058972175e+00, -1.1995235475638122e+00,
       3.5599169632152510e+00, -1.1460933606356953e+00,
       3.5024997949351877e+00, -1.0834062792184413e+00,
       3.4481074814156161e+00, -1.0423512454994206e+00,
       3.4712088836598474e+00, -1.0278203830462902e+00,
       3.4951681078006809e+00, -1.0680627168099481e+00,
       3.5562789018714347e+00, -1.1300695110160515e+00,
       3.5778595862539255e+00, -1.1866397046458199e+00,
       3.5831893748004724e+00, -1.2339882852904827e+00,
       3.5810839370713157e+00, -1.2728356227007089e+00,
       3.5574620987109213e+00, -1.3015251147587101e+00,
       3.5196640500513396e+00, -1.3174114705001609e+00,
       3.4982612427218203e+00, -1.3330722768298013e+00,
       3.4563749862467548e+00, -1.3303551839726602e+00,
       3.4248511213704735e+00, -1.3228821844058058e+00,
       3.4016464827881276e+00, -1.3128289136816693e+00,
       3.3805395136164438e+00, -1.3055297283324951e+00,
       3.3732077673829215e+00, -1.3039270166381935e+00,
       3.3811943247703784e+00, -1.3117484967154960e+00,
       3.3950329371465213e+00, -1.3154311946662325e+00,
       3.4199280098121387e+00, -1.3183805884630104e+00,
       3.4387652253140168e+00, -1.3129205780262152e+00,
       3.4791224636022671e+00, -1.2978296806045921e+00,
       3.5019135237958929e+00, -1.2817653485324441e+00,
       3.5289783341247980e+00, -1.2610247475581196e+00,
       3.5258805137512224e+00, -1.2465497781336392e+00,
       3.4977649480746242e+00, -1.2393989820827966e+00,
       3.4939126115966341e+00, -1.2341317521318089e+00,
       3.5282358960198650e+00, -1.2350051687399592e+00,
       3.5357387655769079e+00, -1.2302789689493094e+00,
       3.5068248910820361e+00, -1.2349064871274502e+00,
       3.4873626547837580e+00, -1.2335805765765573e+00,
       3.5146193752002417e+00, -1.2378434943197141e+00,
       3.5130124478585603e+00, -1.2518533631848447e+00,
       3.4810108658073138e+00, -1.2748989984923693e+00,
       3.4577221939357066e+00, -1.2983380181070632e+00,
       3.4325759189952580e+00, -1.3121420414539424e+00,
       3.4117751357700721e+00, -1.3238923573933414e+00,
       3.3939167565637716e+00, -1.3269159956507461e+00,
       3.3883489996921181e+00, -1.3234196781140652e+00,
       3.3814643062990006e+00, -1.3140836911187279e+00,
       3.3806332397932892e+00, -1.3155209829600853e+00,
       3.3933832453096771e+00, -1.3162174035140306e+00,
       3.4255529463681871e+00, -1.3270165854786840e+00,
       3.4523419491934879e+00, -1.3360876572690887e+00,
       3.4765257967579637e+00, -1.3307335637542239e+00,
       3.5102248543113825e+00, -1.3267492964852672e+00,
       3.5377177000341149e+00, -1.3143859816233014e+00,
       3.5618231622295893e+00, -1.2923164376900598e+00,
       3.5828554537181372e+00, -1.2640277877707629e+00,
       3.5809371288388285e+00, -1.2135800212615668e+00,
       3.5569983972696653e+00, -1.1597914555966280e+00,
       3.5100291129617172e+00, -1.0948695878034265e+00,
       3.4588647022919519e+00, -1.0506579948348882e+00,
       3.4701166254794718e+00, -1.0384139750602319e+00,
       3.5132184114441065e+00, -1.0821601032023898e+00,
       3.5535018313174174e+00, -1.1453535546289164e+00,
       3.5747966739175401e+00, -1.2056881553183969e+00,
       3.5638902581339771e+00, -1.2499648667666541e+00,
       3.5475407832970824e+00, -1.2865950403885356e+00,
       3.5238276351830065e+00, -1.3123437518038792e+00,
       3.4865799474400636e+00, -1.3337391848290003e+00,
       3.4496187359489965e+00, -1.3457768401749164e+00,
       3.4078997715037951e+00, -1.3431936618135560e+00,
       3.3766042576060200e+00, -1.3349476358017873e+00,
       3.3564081458920798e+00, -1.3203323031793111e+00,
       3.3352843983263512e+00, -1.3155507289107513e+00,
       3.3409384747957267e+00, -1.3162423051987751e+00,
       3.3610540637567605e+00, -1.3188472819873365e+00,
       3.3808539410226466e+00, -1.3220455286800561e+00,
       3.4156165291593688e+00, -1.3176862128003979e+00,
       3.4589048813799774e+00, -1.3072763671105403e+00,
       3.5155169803558306e+00, -1.2894555877458267e+00,
       3.5777076829533137e+00, -1.2598517632650643e+00,
       3.6185603149364161e+00, -1.2258713621763415e+00,
       3.6221947810988895e+00, -1.2071090807371097e+00,
       3.5909399472040464e+00, -1.2111603668588160e+00,
       3.5800521336730289e+00, -1.2231213969554366e+00,
       3.6138753201309095e+00, -1.2327755876791255e+00,
       3.6211807842522354e+00, -1.2334970164547367e+00,
       3.5829010582565175e+00, -1.2247022165751074e+00,
       3.5824925638146712e+00, -1.2164310217088723e+00,
       3.5939465302645996e+00, -1.2072366518169340e+00,
       3.5953210830354667e+00, -1.2173142159906680e+00,
       3.5580780863069403e+00, -1.2511918486221878e+00,
       3.5061466735458260e+00, -1.2858460670059828e+00,
       3.4614837702148207e+00, -1.3105494252648926e+00,
       3.4177565341473328e+00, -1.3227962544171954e+00,
       3.3868184831669863e+00, -1.3299313657155343e+00,
       3.3704470626779672e+00, -1.3285204914961806e+00,
       3.3539750351214872e+00, -1.3240603005842517e+00,
       3.3325586695260054e+00, -1.3226122009489321e+00,
       3.3479129072793450e+00, -1.3290391905295786e+00,
       3.3721180766292709e+00, -1.3356638885315122e+00,
       3.3982518894129909e+00, -1.3460078077091748e+00,
       3.4343819335509034e+00, -1.3462529958812501e+00,
       3.4666611077685805e+00, -1.3387283287600362e+00,
       3.5098665960336155e+00, -1.3257269898493080e+00,
       3.5404555870034971e+00, -1.3037304562760021e+00,
       3.5591698242447993e+00, -1.2754573421463045e+00,
       3.5694935041625802e+00, -1.2305562779299990e+00,
       3.5524834630488344e+00, -1.1756003617003179e+00,
       3.5178422354435144e+00, -1.1121719383039876e+00,
       3.4650124672292062e+00, -1.0575817107331384e+00,
       3.4849195279884020e+00, -1.0508757447514780e+00,
       3.5321085587152719e+00, -1.0990444177432674e+00,
       3.5532809986751452e+00, -1.1635390141688198e+00,
       3.5518928219967729e+00, -1.2207508659553512e+00,
       3.5333229532565742e+00, -1.2656460724236389e+00,
       3.5107646343893859e+00, -1.2991874849831762e+00,
       3.4776990830960659e+00, -1.3266366570562107e+00,
       3.4393225130640590e+00, -1.3482009542341657e+00,
       3.3939571703880795e+00, -1.3586001928209728e+00,
       3.3490300622666256e+00, -1.3577791254746703e+00,
       3.3155838376080453e+00, -1.3495180458540978e+00,
       3.2966230498605316e+00, -1.3365608855198947e+00,
       3.2968481738435695e+00, -1.3313580151089321e+00,
       3.3149317787744881e+00, -1.3316622100835800e+00,
       3.3519366267224466e+00, -1.3292431895942176e+00,
       3.3922498146898343e+00, -1.3298896488048999e+00,
       3.4474685906347653e+00, -1.3204521001431553e+00,
       3.5200815680184436e+00, -1.3066629733478221e+00,
       3.6018316789723683e+00, -1.2824676645252051e+00,
       3.6492035932785609e+00, -1.2378851315668133e+00,
       3.6895017229098488e+00, -1.1904397348476574e+00,
       3.6748975974694060e+00, -1.1722931000697592e+00,
       3.6361666622077471e+00, -1.2051148132206444e+00,
       3.6013399670957673e+00, -1.2320292343393056e+00,
       3.5936833802406203e+00, -1.2424846222725765e+00,
       3.5841517288304519e+00, -1.2427530003088541e+00,
       3.5692943162933264e+00, -1.2352197293229830e+00,
       3.6055895949433285e+00, -1.2157819618009074e+00,
       3.6326708509564156e+00, -1.1873619813716105e+00,
       3.6498041630753844e+00, -1.1919560169669938e+00,
       3.6169976219541859e+00, -1.2299474124610308e+00,
       3.5716887478382584e+00, -1.2725632630339263e+00,
       3.5130943964720824e+00, -1.3032623085959862e+00,
       3.4594338621176730e+00, -1.3236159669579457e+00,
       3.4097686368257132e+00, -1.3328935248574443e+00,
       3.3678894662871453e+00, -1.3370541255797128e+00,
       3.3178612633109159e+00, -1.3325704583580276e+00,
       3.2999240708468554e+00, -1.3371339655373002e+00,
       3.2936621157577317e+00, -1.3416006115602990e+00,
       3.3098774202605639e+00, -1.3492338125332244e+00,
       3.3355259362161713e+00, -1.3561243820178144e+00,
       3.3691633468871753e+00, -1.3593704608621529e+00,
       3.4127962125242939e+00, -1.3511451983043650e+00,
       3.4640085816267123e+00, -1.3371469813677086e+00,
       3.5020002440973093e+00, -1.3184652860774169e+00,
       3.5350431050078037e+00, -1.2898272560496653e+00,
       3.5508255238032196e+00, -1.2449243306075206e+00,
       3.5547510068830301e+00, -1.1895443579281262e+00,
       3.5319963977814965e+00, -1.1296864146615879e+00,
       3.4872041002591350e+00, -1.0739448641822156e+00,
       3.4907144389495430e+00, -1.0615965117661896e+00,
       3.5350518652108800e+00, -1.1167659357982369e+00,
       3.5532592911238439e+00, -1.1830011280811543e+00,
       3.5294117199967499e+00, -1.2374513702608181e+00,
       3.4948763673301366e+00, -1.2793654769988796e+00,
       3.4703777935342788e+00, -1.3146000964920668e+00,
       3.4253879220067636e+00, -1.3404492493348286e+00,
       3.3789900436465006e+00, -1.3640745238012761e+00,
       3.3279315768132083e+00, -1.3743037629895101e+00,
       3.2816577453210543e+00, -1.3722242725630569e+00,
       3.2536067527047736e+00, -1.3659116540229119e+00,
       3.2397133831941733e+00, -1.3565245173981171e+00,
       3.2358241857690171e+00, -1.3418348768010817e+00,
       3.2647409769030769e+00, -1.3424231400483277e+00,
       3.3225411567069205e+00, -1.3383680276503691e+00,
       3.3951242798885861e+00, -1.3366282015985964e+00,
       3.4723405667488221e+00, -1.3243722438168211e+00,
       3.5654718283068263e+00, -1.3093424975212662e+00,
       3.6349936245796304e+00, -1.2871180402153708e+00,
       3.6466856439807800e+00, -1.2555960087629414e+00,
       3.6437375735246795e+00, -1.2095730659093620e+00,
       3.6245548967418224e+00, -1.1935349564968076e+00,
       3.5760343468323437e+00, -1.2240605744501623e+00,
       3.4932668798903532e+00, -1.2569685704231344e+00,
       3.4447642208968841e+00, -1.2658706097425905e+00,
       3.4306577649205492e+00, -1.2673066444561842e+00,
       3.4652447141451508e+00, -1.2597620328026007e+00,
       3.5365070216654217e+00, -1.2301168811171284e+00,
       3.6009632051681026e+00, -1.1937350745777093e+00,
       3.6323747478391151e+00, -1.2035481564365247e+00,
       3.6370044104466972e+00, -1.2511884666425941e+00,
       3.6125617567400248e+00, -1.2852014924551869e+00,
       3.5587249072920049e+00, -1.3021778736470773e+00,
       3.4889582607630438e+00, -1.3222834801518377e+00,
       3.4135630471500558e+00, -1.3351571905839652e+00,
       3.3394833319858450e+00, -1.3413605826251553e+00,
       3.2823186157109343e+00, -1.3447570460567650e+00,
       3.2487882574891285e+00, -1.3477225766659435e+00,
       3.2404063646211516e+00, -1.3570450819778292e+00,
       3.2481438615402212e+00, -1.3652988628096920e+00,
       3.2731904481453293e+00, -1.3730876723123147e+00,
       3.3068572667743816e+00, -1.3734251579886356e+00,
       3.3587152535400531e+00, -1.3660264097604968e+00,
       3.4181360607977935e+00, -1.3542650764353559e+00,
       3.4502773051570865e+00, -1.3290083555642453e+00,
       3.4915251046082352e+00, -1.3022576781165998e+00,
       3.5269513461444046e+00, -1.2620558566386457e+00,
       3.5571856514210611e+00, -1.2057991308318667e+00,
       3.5386323499167225e+00, -1.1460458613273534e+00,
       3.5052809253089490e+00, -1.0855165518750960e+00,
       3.4984851656571139e+00, -1.0774305459575291e+00,
       3.5331363271874516e+00, -1.1355854600881441e+00,
       3.5253521524629785e+00, -1.1975111048489420e+00,
       3.5027189933152281e+00, -1.2529824346778640e+00,
       3.4605687764887176e+00, -1.2964466542761470e+00,
       3.4264140257033815e+00, -1.3310945010965960e+00,
       3.3775758478848457e+00, -1.3566056710987251e+00,
       3.3194724128695556e+00, -1.3816638595019755e+00,
       3.2624305746162525e+00, -1.3904144974932426e+00,
       3.2165601349546771e+00, -1.3906954723143305e+00,
       3.1844210197347111e+00, -1.3794403751333757e+00,
       3.1732095495107751e+00, -1.3695089702770862e+00,
       3.1740788608884842e+00, -1.3571208249467643e+00,
       3.2041209363700274e+00, -1.3472993297814593e+00,
       3.2665489992345305e+00, -1.3462967186923225e+00,
       3.3527216818243843e+00, -1.3385618511536801e+00,
       3.4499555631226286e+00, -1.3246275266917893e+00,
       3.5504262163387321e+00, -1.3146413302101307e+00,
       3.6079820725394374e+00, -1.3034399574080744e+00,
       3.5768857748121397e+00, -1.2850339677322737e+00,
       3.5499329952002601e+00, -1.2585754313956008e+00,
       3.5284691073550380e+00, -1.2469014362518520e+00,
       3.4582481198311612e+00, -1.2735985067469564e+00,
       3.3462799808811217e+00, -1.2986352622261379e+00,
       3.2772929304974263e+00, -1.3073215157220583e+00,
       3.2647039466163403e+00, -1.3070172936263242e+00,
       3.3059403743251914e+00, -1.2953696158848556e+00,
       3.4047446229629927e+00, -1.2740805171278859e+00,
       3.4843767535422971e+00, -1.2468975386776184e+00,
       3.5359579559903387e+00, -1.2551602256530630e+00,
       3.5708735608782516e+00, -1.2859793793164318e+00,
       3.5977804997683300e+00, -1.3055987717115949e+00,
       3.5698339261186014e+00, -1.3150368026863457e+00,
       3.4835217843828654e+00, -1.3272307322905177e+00,
       3.3798493877789442e+00, -1.3393953724648295e+00,
       3.2811209686572762e+00, -1.3470838641081737e+00,
       3.2186150516566192e+00, -1.3542671074885633e+00,
       3.1883146189703369e+00, -1.3594304013161218e+00,
       3.1720233391286836e+00, -1.3682683573720860e+00,
       3.1845596186391982e+00, -1.3798905699955113e+00,
       3.2142455124408316e+00, -1.3905209960434792e+00,
       3.2436285520001555e+00, -1.3885714994232550e+00,
       3.2998526904628664e+00, -1.3804389028166115e+00,
       3.3543437710319579e+00, -1.3676829056972846e+00,
       3.4031332544603403e+00, -1.3425955641475045e+00,
       3.4492119642232613e+00, -1.3151018595347861e+00,
       3.4973915742131561e+00, -1.2761505951809753e+00,
       3.5329024589920701e+00, -1.2210102653368367e+00,
       3.5342262377411942e+00, -1.1614476886340341e+00,
       3.5211524313786202e+00, -1.1012627020321670e+00,
       3.5002111590218004e+00, -1.0896055416715134e+00,
       3.5186190122132524e+00, -1.1536821737308882e+00,
       3.5000799058206735e+00, -1.2115577939921995e+00,
       3.4692553941578517e+00, -1.2668176470627472e+00,
       3.4227848199876640e+00, -1.3099643232799565e+00,
       3.3781226500096428e+00, -1.3459722873991005e+00,
       3.3186206518349168e+00, -1.3706474887211806e+00,
       3.2638817564163958e+00, -1.3962527580341917e+00,
       3.2050024024928176e+00, -1.4054927197325018e+00,
       3.1603427980551482e+00, -1.4053539741144412e+00,
       3.1270954206147059e+00, -1.3977151866362338e+00,
       3.1105627275477388e+00, -1.3862799042807787e+00,
       3.1197078248217749e+00, -1.3744767879087854e+00,
       3.1486640326978126e+00, -1.3631967254123056e+00,
       3.2042182684360818e+00, -1.3558820343023203e+00,
       3.2829726933035173e+00, -1.3439871672590229e+00,
       3.3942163019881373e+00, -1.3343846001815602e+00,
       3.5082791523311530e+00, -1.3288460692791033e+00,
       3.5639825012724788e+00, -1.3270799071777173e+00,
       3.5240436116252893e+00, -1.3213752404405150e+00,
       3.5000040759017259e+00, -1.3132266389719569e+00,
       3.4481448432220136e+00, -1.3096482367117408e+00,
       3.3401284216749398e+00, -1.3222550399260453e+00,
       3.2121059601655420e+00, -1.3363809176214183e+00,
       3.1517085109971674e+00, -1.3416089643602882e+00,
       3.1533645760160183e+00, -1.3419586233790859e+00,
       3.1909302873162226e+00, -1.3355990400469639e+00,
       3.3065880869500304e+00, -1.3250876461712429e+00,
       3.4106139786757388e+00, -1.3096862839132954e+00,
       3.4776948736724376e+00, -1.3104558338469501e+00,
       3.5268416712686688e+00, -1.3211474199880646e+00,
       3.5606770471154854e+00, -1.3302387153116557e+00,
       3.5356340359248399e+00, -1.3305247059350953e+00,
       3.4272629224599327e+00, -1.3356344357675454e+00,
       3.3027100617026952e+00, -1.3451054521962547e+00,
       3.2128991632139505e+00, -1.3577102705468058e+00,
       3.1571843886795312e+00, -1.3625167753112144e+00,
       3.1236198299895066e+00, -1.3711467777960722e+00,
       3.1095955061760598e+00, -1.3820629398765398e+00,
       3.1201260168401466e+00, -1.3939857293381399e+00,
       3.1471798940400078e+00, -1.4042101796552047e+00,
       3.1829430054514720e+00, -1.4049203283528060e+00,
       3.2366597803806081e+00, -1.3976507927188000e+00,
       3.2995434091262190e+00, -1.3831139558234413e+00,
       3.3572536355805620e+00, -1.3580319833495762e+00,
       3.4052956750448411e+00, -1.3283475527276596e+00,
       3.4549013352815003e+00, -1.2863378686247975e+00,
       3.5032769131080639e+00, -1.2362974557078621e+00,
       3.5165714590565860e+00, -1.1740408206301873e+00,
       3.5132194323733552e+00, -1.1092731311048158e+00,
       3.4976261685030177e+00, -1.0970573326355413e+00,
       3.4988904954349191e+00, -1.1632043763081126e+00,
       3.4810162348445464e+00, -1.2269223984068931e+00,
       3.4293735343984424e+00, -1.2787127094878648e+00,
       3.3753854582869631e+00, -1.3194936032697151e+00,
       3.3282742747154521e+00, -1.3551966838009319e+00,
       3.2701654807139269e+00, -1.3826718645465710e+00,
       3.2080543685462835e+00, -1.4054344240589605e+00,
       3.1517274259356634e+00, -1.4135378100459579e+00,
       3.1021186216976218e+00, -1.4125885294164418e+00,
       3.0734793536926199e+00, -1.4108907544127154e+00,
       3.0619964850049546e+00, -1.3999890567379600e+00,
       3.0725457859553136e+00, -1.3905112761535181e+00,
       3.0933295759783697e+00, -1.3784067584040078e+00,
       3.1411165147338833e+00, -1.3691410182375683e+00,
       3.2062958440220211e+00, -1.3581185012723105e+00,
       3.3039314722752118e+00, -1.3461883861823281e+00,
       3.4314738472798942e+00, -1.3448240188410414e+00,
       3.5019683075383732e+00, -1.3509341233973555e+00,
       3.4940591107912717e+00, -1.3506922752321053e+00,
       3.4735148203218671e+00, -1.3500609680302336e+00,
       3.4173395735472361e+00, -1.3533476617971012e+00,
       3.2927338366732068e+00, -1.3625239181861553e+00,
       3.1672978138415195e+00, -1.3717422358746327e+00,
       3.1117583260720503e+00, -1.3768086850492476e+00,
       3.1063781693045391e+00, -1.3783019501252456e+00,
       3.1447779562426832e+00, -1.3722540010395534e+00,
       3.2623385078408846e+00, -1.3629219017702758e+00,
       3.3753383382965509e+00, -1.3450438311194568e+00,
       3.4529229494762936e+00, -1.3422538748824862e+00,
       3.4931140721551812e+00, -1.3470484868110071e+00,
       3.5047714273959603e+00, -1.3483120084972613e+00,
       3.4501680058226527e+00, -1.3442965614714280e+00,
       3.3323701612984213e+00, -1.3487283025313361e+00,
       3.2210294512912330e+00, -1.3579502270170924e+00,
       3.1470289992778895e+00, -1.3680071417452795e+00,
       3.1036466108017104e+00, -1.3765433617835545e+00,
       3.0687617319361067e+00, -1.3858044425388703e+00,
       3.0566997587482496e+00, -1.3977645930198324e+00,
       3.0651516967689707e+00, -1.4064107448964349e+00,
       3.0916646917047781e+00, -1.4140171118256144e+00,
       3.1323982114400661e+00, -1.4164981887049439e+00,
       3.1845929491445881e+00, -1.4082995933751219e+00,
       3.2503031715053008e+00, -1.3938607754833865e+00,
       3.3105265128756525e+00, -1.3693251703311107e+00,
       3.3636248376553968e+00, -1.3388123518045112e+00,
       3.4105789743468558e+00, -1.2961935615041744e+00,
       3.4767434173763294e+00, -1.2493914468258578e+00,
       3.5002731061760572e+00, -1.1865377992615889e+00,
       3.5040183368924045e+00, -1.1215964004183139e+00,
       3.4961637365085507e+00, -1.1079761967752040e+00,
       3.4826884465929742e+00, -1.1750833558495932e+00,
       3.4537775571322524e+00, -1.2405378024825238e+00,
       3.3953816870327516e+00, -1.2909712277061711e+00,
       3.3338587387180678e+00, -1.3288427787041668e+00,
       3.2834406875628135e+00, -1.3591453591281517e+00,
       3.2268097013931945e+00, -1.3929984797097603e+00,
       3.1625867084428343e+00, -1.4125823597316909e+00,
       3.1018085386119929e+00, -1.4203326929166389e+00,
       3.0556379076324696e+00, -1.4216124951122542e+00,
       3.0293995689669870e+00, -1.4167652735942278e+00,
       3.0227816593946630e+00, -1.4098313372641029e+00,
       3.0297341544449758e+00, -1.4022432755460343e+00,
       3.0482282739882391e+00, -1.3932605601256851e+00,
       3.0831299746127354e+00, -1.3825191715959542e+00,
       3.1362227444561332e+00, -1.3708742882115115e+00,
       3.2211316992094812e+00, -1.3651461191204790e+00,
       3.3372800782526979e+00, -1.3647410954176993e+00,
       3.4284980526646414e+00, -1.3635760151697101e+00,
       3.4567701596983511e+00, -1.3600846177154415e+00,
       3.4395181683717304e+00, -1.3639594535221722e+00,
       3.3874522609417643e+00, -1.3755574800953259e+00,
       3.2726085693363571e+00, -1.3897010855179537e+00,
       3.1548957398431758e+00, -1.3991459111335212e+00,
       3.0950189559847034e+00, -1.4080115254406380e+00,
       3.0869509517459655e+00, -1.4089166740037000e+00,
       3.1398215243614982e+00, -1.4017787963616160e+00,
       3.2526152846437530e+00, -1.3873378513781305e+00,
       3.3593118734635135e+00, -1.3725932083128014e+00,
       3.4281983613078282e+00, -1.3615742998759082e+00,
       3.4631013010911889e+00, -1.3594276238686025e+00,
       3.4426027854134169e+00, -1.3598088746893786e+00,
       3.3558831918849585e+00, -1.3597719698704289e+00,
       3.2358664051467705e+00, -1.3618797663869258e+00,
       3.1456646018994308e+00, -1.3698640238436373e+00,
       3.0915095599667501e+00, -1.3811432025270451e+00,
       3.0471612079690105e+00, -1.3881729676541661e+00,
       3.0280592191510602e+00, -1.3983445337289484e+00,
       3.0166539952621712e+00, -1.4080062402420954e+00,
       3.0240761319513219e+00, -1.4143252707688654e+00,
       3.0436554557425386e+00, -1.4194603749172847e+00,
       3.0893612338756227e+00, -1.4230139218750477e+00,
       3.1381880999782545e+00, -1.4144649704754209e+00,
       3.2043557931409401e+00, -1.4013920097697685e+00,
       3.2666855870630509e+00, -1.3771483152791102e+00,
       3.3232973293510852e+00, -1.3471755826486431e+00,
       3.3777767510425414e+00, -1.3084052237964390e+00,
       3.4378917659745949e+00, -1.2630555737607096e+00,
       3.4850713857352131e+00, -1.1977735529909856e+00,
       3.5039133924119890e+00, -1.1303209159750520e+00,
       3.4873982474670093e+00, -1.1153227980193843e+00,
       3.4584172561308275e+00, -1.1794842512532768e+00,
       3.4233021454201262e+00, -1.2476447087012399e+00,
       3.3620929772051729e+00, -1.2966000957221562e+00,
       3.2983990279393720e+00, -1.3327997108103093e+00,
       3.2460189466352758e+00, -1.3663941165919808e+00,
       3.1911455944543459e+00, -1.4003515972599225e+00,
       3.1287615759634835e+00, -1.4181324223608160e+00,
       3.0684815022653997e+00, -1.4253154908047601e+00,
       3.0295632112864488e+00, -1.4272841749495222e+00,
       3.0096307847436958e+00, -1.4262821143775453e+00,
       3.0072879178458489e+00, -1.4217604811353692e+00,
       3.0082252125258364e+00, -1.4120815832916118e+00,
       3.0230589115024502e+00, -1.4043488865190517e+00,
       3.0432343322600248e+00, -1.3967570083132756e+00,
       3.0815549854440363e+00, -1.3875231595551190e+00,
       3.1546184907460941e+00, -1.3806544459821761e+00,
       3.2557539646326985e+00, -1.3810587327705586e+00,
       3.3569019827454718e+00, -1.3761031399901431e+00,
       3.4098199525774704e+00, -1.3709627275625784e+00,
       3.4130704745523168e+00, -1.3753236431551379e+00,
       3.3685105493890863e+00, -1.3886882862854455e+00,
       3.2723238502264436e+00, -1.4075244041824602e+00,
       3.1576953193040800e+00, -1.4199552266998350e+00,
       3.0785517780373586e+00, -1.4214933916897621e+00,
       3.0744295715958505e+00, -1.4237467482032293e+00,
       3.1397929008688483e+00, -1.4221329843042256e+00,
       3.2536288498319461e+00, -1.4085552391842311e+00,
       3.3424651008614421e+00, -1.3866052750620712e+00,
       3.4103980648549412e+00, -1.3736648042980646e+00,
       3.4192556927598727e+00, -1.3693331068669190e+00,
       3.3683693122472529e+00, -1.3712092700528538e+00,
       3.2851022254907596e+00, -1.3786308185840905e+00,
       3.1747090800117803e+00, -1.3782858728589580e+00,
       3.0908754992297047e+00, -1.3821278284642955e+00,
       3.0445575888060201e+00, -1.3899342503982710e+00,
       3.0203161007308488e+00, -1.3989349766333554e+00,
       3.0053022796109845e+00, -1.4079283583324929e+00,
       3.0019799401151555e+00, -1.4186172444679317e+00,
       3.0056736921997520e+00, -1.4245383400454288e+00,
       3.0206439442433743e+00, -1.4277510177795290e+00,
       3.0606885166204054e+00, -1.4270290517826658e+00,
       3.1080347002182078e+00, -1.4200014450503187e+00,
       3.1753202099158644e+00, -1.4096209967557720e+00,
       3.2311618843697660e+00, -1.3840051394028596e+00,
       3.2888253584143352e+00, -1.3534847748764209e+00,
       3.3484213031160786e+00, -1.3144140777792088e+00,
       3.4077635561248014e+00, -1.2681276077566788e+00,
       3.4498483706637448e+00, -1.2048384051020551e+00,
       3.4860585521194833e+00, -1.1339648497852397e+00,
       3.4766572173186598e+00, -1.1177899946238417e+00,
       3.4327479507471566e+00, -1.1826670191187008e+00,
       3.3969724414655458e+00, -1.2516748410967335e+00,
       3.3408540205173818e+00, -1.3007285615654978e+00,
       3.2728823900232951e+00, -1.3359898238737031e+00,
       3.2227741751759615e+00, -1.3702383062606094e+00,
       3.1627414154742484e+00, -1.4022551599322544e+00,
       3.1021533345654229e+00, -1.4205143303257262e+00,
       3.0467808056311494e+00, -1.4269036799884671e+00,
       3.0185815336047939e+00, -1.4295498471370871e+00,
       3.0073894245894590e+00, -1.4289077101916550e+00,
       3.0114952954453598e+00, -1.4267242934601279e+00,
       3.0104376855531174e+00, -1.4174538080056205e+00,
       3.0233101488296432e+00, -1.4139967946530536e+00,
       3.0316475448517348e+00, -1.4060935875403027e+00,
       3.0649238427876591e+00, -1.4022058865822884e+00,
       3.1078522844561136e+00, -1.3966578676954771e+00,
       3.1988943825166851e+00, -1.3926314492476830e+00,
       3.3032594897217900e+00, -1.3904566958358668e+00,
       3.3610201426260460e+00, -1.3830083474511554e+00,
       3.3870840803202569e+00, -1.3855524589346224e+00,
       3.3487192860763511e+00, -1.3977348291489273e+00,
       3.2680115942281573e+00, -1.4170947011926003e+00,
       3.1599069966456872e+00, -1.4299195662718642e+00,
       3.0777491099498522e+00, -1.4317312254191308e+00,
       3.0743857213093579e+00, -1.4326148941732328e+00,
       3.1478195438702814e+00, -1.4303550940487397e+00,
       3.2527872833354716e+00, -1.4164387415841821e+00,
       3.3333276091003832e+00, -1.3983696143877489e+00,
       3.3833482389146510e+00, -1.3842981134001902e+00,
       3.3711085925413706e+00, -1.3798765864936469e+00,
       3.3110505995101747e+00, -1.3810704588394322e+00,
       3.2146173841731058e+00, -1.3845175993195420e+00,
       3.1259656432982528e+00, -1.3905081096099390e+00,
       3.0693573194699266e+00, -1.3941515845470169e+00,
       3.0275406224699655e+00, -1.3983004429076644e+00,
       3.0212087206719640e+00, -1.4111797702918396e+00,
       3.0150340813234107e+00, -1.4184109030566370e+00,
       3.0099488028740304e+00, -1.4231699298250413e+00,
       3.0053749682689812e+00, -1.4269873318689417e+00,
       3.0129468222577449e+00, -1.4272966138176233e+00,
       3.0456223305006449e+00, -1.4283667250261292e+00,
       3.0879595150734085e+00, -1.4234930948831308e+00,
       3.1523830348217796e+00, -1.4111111090986497e+00,
       3.2153672724892974e+00, -1.3870845645959915e+00,
       3.2709320220657889e+00, -1.3548620341835649e+00,
       3.3322645479143831e+00, -1.3178187992729391e+00,
       3.3835947127748627e+00, -1.2718289856231952e+00,
       3.4285699122695501e+00, -1.2101023163811224e+00,
       3.4651732233877190e+00, -1.1369544119446569e+00,
       3.4659761676707936e+00, -1.1201642802147267e+00,
       3.4210305260599592e+00, -1.1893851740706283e+00,
       3.3775145444773265e+00, -1.2544178551483394e+00,
       3.3115922183707194e+00, -1.3011921869301653e+00,
       3.2536303064082484e+00, -1.3366373518598689e+00,
       3.2004994874976966e+00, -1.3683367978138030e+00,
       3.1456458616397178e+00, -1.3981853420425840e+00,
       3.0892244908261204e+00, -1.4157666533375481e+00,
       3.0459536495217847e+00, -1.4246704161103516e+00,
       3.0250569097851860e+00, -1.4248071029127742e+00,
       3.0195103586632155e+00, -1.4295669403378188e+00,
       3.0270779059926078e+00, -1.4266497264253737e+00,
       3.0246692808186304e+00, -1.4190560996873001e+00,
       3.0332320760862590e+00, -1.4159729085170321e+00,
       3.0414078814601595e+00, -1.4109565027595450e+00,
       3.0604715410285119e+00, -1.4042130911140884e+00,
       3.0954044790320996e+00, -1.4000909678209750e+00,
       3.1632829853082551e+00, -1.3973913915168787e+00,
       3.2504471142176681e+00, -1.3922655934293326e+00,
       3.3207046043361976e+00, -1.3923403616901262e+00,
       3.3558502206539940e+00, -1.3937255033186156e+00,
       3.3384693771222405e+00, -1.4021152194849607e+00,
       3.2772675899556063e+00, -1.4207677713846174e+00,
       3.1675016363266288e+00, -1.4362667831660623e+00,
       3.0758139011259469e+00, -1.4386098987401403e+00,
       3.0712656216946512e+00, -1.4385722639772494e+00,
       3.1526845598330553e+00, -1.4355419351175576e+00,
       3.2611400710039411e+00, -1.4211247818440860e+00,
       3.3234296620570922e+00, -1.4015572667220344e+00,
       3.3546641317940216e+00, -1.3914458072880702e+00,
       3.3199147354614991e+00, -1.3817826016227244e+00,
       3.2646158299747392e+00, -1.3866069730616317e+00,
       3.1821288991655314e+00, -1.3941636145986616e+00,
       3.1076509586556558e+00, -1.3975872140618635e+00,
       3.0599039989749781e+00, -1.4005385714568250e+00,
       3.0381761616833654e+00, -1.4047114316349560e+00,
       3.0336595453312385e+00, -1.4131991133739070e+00,
       3.0251267065727943e+00, -1.4169278400824465e+00,
       3.0241498562051841e+00, -1.4212802226440882e+00,
       3.0197871473666473e+00, -1.4246307331769752e+00,
       3.0263826422883868e+00, -1.4267060697892373e+00,
       3.0459322529560020e+00, -1.4272492887750232e+00,
       3.0755165423871111e+00, -1.4182247418531548e+00,
       3.1349451741563534e+00, -1.4091865298709718e+00,
       3.1959240880681907e+00, -1.3851190137431577e+00,
       3.2524258261164176e+00, -1.3540274535327033e+00,
       3.3089156042169834e+00, -1.3151797828714753e+00,
       3.3600307119489492e+00, -1.2723993286421480e+00,
       3.4075586035991927e+00, -1.2135631990031148e+00,
       3.4442286609964157e+00, -1.1380921917043763e+00,
       3.4479711090800529e+00, -1.1211191781734589e+00,
       3.4171501865451477e+00, -1.1958260121688418e+00,
       3.3673143276242374e+00, -1.2528395360001989e+00,
       3.3006379417716212e+00, -1.2967436070817580e+00,
       3.2464656444877633e+00, -1.3300610765545910e+00,
       3.1939117248861728e+00, -1.3614710039896847e+00,
       3.1461541549073031e+00, -1.3906953750364466e+00,
       3.1001144269769556e+00, -1.4057277971751845e+00,
       3.0620769703039858e+00, -1.4126335714940434e+00,
       3.0529038204077161e+00, -1.4157787010112490e+00,
       3.0509567844616869e+00, -1.4156633902682505e+00,
       3.0547020606308393e+00, -1.4160679684347344e+00,
       3.0586093715538420e+00, -1.4119305209156465e+00,
       3.0579798117547052e+00, -1.4081844418017062e+00,
       3.0597767671072469e+00, -1.4060665392073155e+00,
       3.0703696255750126e+00, -1.4024134713591669e+00,
       3.0959129319344432e+00, -1.3979232580928702e+00,
       3.1535009118453559e+00, -1.3951053662940665e+00,
       3.2362045577793488e+00, -1.3953125044317185e+00,
       3.2990092817904850e+00, -1.3912081805688870e+00,
       3.3300308537203045e+00, -1.3887978827352911e+00,
       3.3313379215664543e+00, -1.4008473972052373e+00,
       3.2821221453967273e+00, -1.4215726553667560e+00,
       3.1734405447783183e+00, -1.4360229320287867e+00,
       3.0769482422135259e+00, -1.4397934159660379e+00,
       3.0729681617740723e+00, -1.4387848342444545e+00,
       3.1588224543753891e+00, -1.4364915873064990e+00,
       3.2600404967686250e+00, -1.4167656963713147e+00,
       3.3195997085328806e+00, -1.4012929246777783e+00,
       3.3272924451333243e+00, -1.3893701059842380e+00,
       3.3066910309624946e+00, -1.3877125126794452e+00,
       3.2448724169718326e+00, -1.3882698530003057e+00,
       3.1736035020436173e+00, -1.3946672051302704e+00,
       3.1142041603340247e+00, -1.3976694222578914e+00,
       3.0799881241870195e+00, -1.4003346631949425e+00,
       3.0642107404267418e+00, -1.4032170434158009e+00,
       3.0565320498658126e+00, -1.4033918922714275e+00,
       3.0585790836492053e+00, -1.4081559441389029e+00,
       3.0544219062501541e+00, -1.4097268467750546e+00,
       3.0536746652893743e+00, -1.4121912119984279e+00,
       3.0535955370652110e+00, -1.4149938513011069e+00,
       3.0640488469707683e+00, -1.4177496555145357e+00,
       3.0846237110993231e+00, -1.4076722940730344e+00,
       3.1354502792825394e+00, -1.3998684052222916e+00,
       3.1977596199204528e+00, -1.3792508989772658e+00,
       3.2422096633929014e+00, -1.3461461631757552e+00,
       3.3063972893786651e+00, -1.3137665237025915e+00,
       3.3468047315989016e+00, -1.2695764483463909e+00,
       3.3916240291708455e+00, -1.2127781131499298e+00,
       3.4378888978939228e+00, -1.1409350441967501e+00,
       3.4513949447398988e+00, -1.1212772674471558e+00,
       3.4152638739070902e+00, -1.1944374000996307e+00,
       3.3605319913506744e+00, -1.2494485645198699e+00,
       3.3043185840786835e+00, -1.2897894626755337e+00,
       3.2490930110205478e+00, -1.3198282662793166e+00,
       3.2080976611494414e+00, -1.3511367241053238e+00,
       3.1580721059264643e+00, -1.3752775646156354e+00,
       3.1293861016775004e+00, -1.3955178378240312e+00,
       3.1072365489660712e+00, -1.4022273554297171e+00,
       3.1011637345555334e+00, -1.4033540600079633e+00,
       3.1000429478618909e+00, -1.4021449215271096e+00,
       3.1106890857120533e+00, -1.4019751565732412e+00,
       3.1166800063102711e+00, -1.4011636801975238e+00,
       3.1275755679991164e+00, -1.3999825176485514e+00,
       3.1254485478366458e+00, -1.3981415011753997e+00,
       3.1133251280907723e+00, -1.3967640650665798e+00,
       3.1226772258586233e+00, -1.3956174189966095e+00,
       3.1607598353713282e+00, -1.3915953248303745e+00,
       3.2307523427162130e+00, -1.3895973137777691e+00,
       3.2905232595396408e+00, -1.3849120006870552e+00,
       3.3327364525540188e+00, -1.3857228566611273e+00,
       3.3289564014853301e+00, -1.3931893151845840e+00,
       3.2822321228287805e+00, -1.4134055070212557e+00,
       3.1739641206003815e+00, -1.4328469356074198e+00,
       3.0827629919682482e+00, -1.4366467118014024e+00,
       3.0801425753073746e+00, -1.4372887616010401e+00,
       3.1630928877320068e+00, -1.4336933191088830e+00,
       3.2646298234140092e+00, -1.4141819729674052e+00,
       3.3163171375488374e+00, -1.3945129309830449e+00,
       3.3319423026119810e+00, -1.3834135553701707e+00,
       3.3101754174701283e+00, -1.3825339888522157e+00,
       3.2503787151590440e+00, -1.3860141124050891e+00,
       3.1815296215020887e+00, -1.3886911683311611e+00,
       3.1301724183618478e+00, -1.3890272523560017e+00,
       3.1215570968024045e+00, -1.3894382925932449e+00,
       3.1229471987166302e+00, -1.3939377742723500e+00,
       3.1210912443677050e+00, -1.3948266591265863e+00,
       3.1201955110438537e+00, -1.3961670479442734e+00,
       3.1123142483079334e+00, -1.3994018368136258e+00,
       3.1032927318356860e+00, -1.3972498491857879e+00,
       3.1060372579587403e+00, -1.4043940611345116e+00,
       3.1090548799914659e+00, -1.4020004384483886e+00,
       3.1190165399126704e+00, -1.3978299024264289e+00,
       3.1537591474282540e+00, -1.3858256887875289e+00,
       3.2057964107785089e+00, -1.3693460157423887e+00,
       3.2513298106279422e+00, -1.3389678795903242e+00,
       3.3007480604225168e+00, -1.3048385771283755e+00,
       3.3468633815912261e+00, -1.2640997611381684e+00,
       3.3858264910947571e+00, -1.2116679880460079e+00,
       3.4293468620609677e+00, -1.1364121056471106e+00,
       3.4613652422149905e+00, -1.1178410886829333e+00,
       3.4204768022153655e+00, -1.1873480524964031e+00,
       3.3619526447248549e+00, -1.2428459339070539e+00,
       3.3125402771400001e+00, -1.2831136832591028e+00,
       3.2718370660248306e+00, -1.3154383756474242e+00,
       3.2357786095547443e+00, -1.3399860195193363e+00,
       3.1940739402809104e+00, -1.3607085936575238e+00,
       3.1718604700184083e+00, -1.3779790232985305e+00,
       3.1636692826125836e+00, -1.3813591227842144e+00,
       3.1636965850361065e+00, -1.3807169695595503e+00,
       3.1771504369987742e+00, -1.3820114291885410e+00,
       3.1857742764860797e+00, -1.3808629486734223e+00,
       3.2059637837019292e+00, -1.3835154380411103e+00,
       3.2122236452998671e+00, -1.3761638778858636e+00,
       3.2235696238442468e+00, -1.3792298210546767e+00,
       3.2100080187229949e+00, -1.3817633774532663e+00,
       3.1929556664199694e+00, -1.3832561966471850e+00,
       3.1964578569697144e+00, -1.3847769168197330e+00,
       3.2416874154749262e+00, -1.3831448646906084e+00,
       3.2969588760435262e+00, -1.3787522680336035e+00,
       3.3401272319419060e+00, -1.3762307801851785e+00,
       3.3427315159995530e+00, -1.3842512772820275e+00,
       3.2851900216941687e+00, -1.4036073288377047e+00,
       3.1750405419354646e+00, -1.4248098332626977e+00,
       3.0822521592973087e+00, -1.4321806372052053e+00,
       3.0754308874389817e+00, -1.4318840995691162e+00,
       3.1638672885554406e+00, -1.4301335049626953e+00,
       3.2658906053499646e+00, -1.4094729744602077e+00,
       3.3209933325568297e+00, -1.3818864093510235e+00,
       3.3390000674544087e+00, -1.3714199127786617e+00,
       3.3147524937288173e+00, -1.3743981500442650e+00,
       3.2685775608665733e+00, -1.3807562182495401e+00,
       3.2133655377839805e+00, -1.3790292513316043e+00,
       3.1929703685736932e+00, -1.3771293237485553e+00,
       3.2075064362111116e+00, -1.3767744323165625e+00,
       3.2161835724412602e+00, -1.3730053530052195e+00,
       3.2086788563736111e+00, -1.3695207582652709e+00,
       3.1944509979895699e+00, -1.3737074816970194e+00,
       3.1856845164382399e+00, -1.3777539648933033e+00,
       3.1763783297408392e+00, -1.3807096394416905e+00,
       3.1651741370358635e+00, -1.3808840094983053e+00,
       3.1629881634454304e+00, -1.3837639368932366e+00,
       3.1725880467275589e+00, -1.3817586091747227e+00,
       3.1903709292050686e+00, -1.3708152274181413e+00,
       3.2340067115770945e+00, -1.3561054887807877e+00,
       3.2686540046094876e+00, -1.3261294823293417e+00,
       3.3139938450474187e+00, -1.2930331590464947e+00,
       3.3453824549040285e+00, -1.2540075388190666e+00,
       3.3920944935266819e+00, -1.2036105902003034e+00,
       3.4402559216575019e+00, -1.1336108168611632e+00,
       3.4714880103891317e+00, -1.1091066350581360e+00,
       3.4233899446023295e+00, -1.1802443380175938e+00,
       3.3731780604692427e+00, -1.2339078080442378e+00,
       3.3249372265037178e+00, -1.2662676822510786e+00,
       3.2920039788691620e+00, -1.2988395485947817e+00,
       3.2711601284514229e+00, -1.3222690693659682e+00,
       3.2552453055422985e+00, -1.3406337776999100e+00,
       3.2558208600322311e+00, -1.3523672893851661e+00,
       3.2620082892620044e+00, -1.3595582444262755e+00,
       3.2750116123943420e+00, -1.3641323778006005e+00,
       3.2923786724239825e+00, -1.3616062370222863e+00,
       3.3048686596848729e+00, -1.3584278947968473e+00,
       3.3170251936794228e+00, -1.3554675369890292e+00,
       3.3293396292006818e+00, -1.3537913086694773e+00,
       3.3504532863340941e+00, -1.3552628711901755e+00,
       3.3452570121704031e+00, -1.3561359972967757e+00,
       3.3153716281893835e+00, -1.3585345025043418e+00,
       3.2803100848482400e+00, -1.3662711588223440e+00,
       3.2879871224263897e+00, -1.3700189867212551e+00,
       3.3179343015229854e+00, -1.3648218748696272e+00,
       3.3546850280886504e+00, -1.3647689161549004e+00,
       3.3569204723273876e+00, -1.3724055933117991e+00,
       3.2987841808718179e+00, -1.3927695465629730e+00,
       3.1798993073732409e+00, -1.4140330448870007e+00,
       3.0804015545698213e+00, -1.4225193579268092e+00,
       3.0742954604059194e+00, -1.4266843651952250e+00,
       3.1624484905527916e+00, -1.4209510517607509e+00,
       3.2705271671168203e+00, -1.3952425470208878e+00,
       3.3405001885354402e+00, -1.3712869597614232e+00,
       3.3536836424084200e+00, -1.3589504367159886e+00,
       3.3375218764199972e+00, -1.3640367866971768e+00,
       3.3088535611201104e+00, -1.3647530907394536e+00,
       3.2902894729093979e+00, -1.3582047910328729e+00,
       3.3063422224583428e+00, -1.3505812396785579e+00,
       3.3434741904504803e+00, -1.3505196999588833e+00,
       3.3387278379022338e+00, -1.3449138220839691e+00,
       3.3253213850614869e+00, -1.3455698611288824e+00,
       3.3035864768353260e+00, -1.3516527199335688e+00,
       3.2921448412756331e+00, -1.3558808261366730e+00,
       3.2864135153379759e+00, -1.3627485991325479e+00,
       3.2813626087869308e+00, -1.3662572767368149e+00,
       3.2649739317842355e+00, -1.3657193781175510e+00,
       3.2529382870579315e+00, -1.3596601380334352e+00,
       3.2565727032548857e+00, -1.3476745380287833e+00,
       3.2710550287173410e+00, -1.3329467238677755e+00,
       3.2920774330662366e+00, -1.3094558991278058e+00,
       3.3161368799807107e+00, -1.2767984682835696e+00,
       3.3555507735168750e+00, -1.2434377789021678e+00,
       3.4026475453759999e+00, -1.1960511026729481e+00,
       3.4465465345557371e+00, -1.1208218574137740e+00,
       3.4742807857306861e+00, -1.0913728697048648e+00,
       3.4408820449266093e+00, -1.1718590796181496e+00,
       3.3913686076579448e+00, -1.2211264794048280e+00,
       3.3549352734552773e+00, -1.2537570044023525e+00,
       3.3355502358174296e+00, -1.2819598349498109e+00,
       3.3333680887762274e+00, -1.3021786239701767e+00,
       3.3369622641955758e+00, -1.3129528648753570e+00,
       3.3633563824867712e+00, -1.3246549534126082e+00,
       3.3970679039089213e+00, -1.3282074513421953e+00,
       3.4168335217677326e+00, -1.3279594699587172e+00,
       3.4277177408591557e+00, -1.3309073088862919e+00,
       3.4344672041712165e+00, -1.3288731732383270e+00,
       3.4519034677371216e+00, -1.3196925867378846e+00,
       3.4678553753991692e+00, -1.3163986158043530e+00,
       3.4940446305547104e+00, -1.3172435254700425e+00,
       3.5075164176490015e+00, -1.3256181657539581e+00,
       3.4995084217409107e+00, -1.3309444589416322e+00,
       3.4303152912212749e+00, -1.3372554891630588e+00,
       3.3654395298216504e+00, -1.3430908748252595e+00,
       3.3593853441433774e+00, -1.3458157584350141e+00,
       3.3825824393865092e+00, -1.3484744673354321e+00,
       3.3750110669586277e+00, -1.3589757343531472e+00,
       3.3080542427602340e+00, -1.3796903775905487e+00,
       3.1738645489356130e+00, -1.4046592924958257e+00,
       3.0771524110198154e+00, -1.4150037957786081e+00,
       3.0722027949532746e+00, -1.4182291042067561e+00,
       3.1530359447266969e+00, -1.4075818225832399e+00,
       3.2817672408982848e+00, -1.3842099566104651e+00,
       3.3523414541327150e+00, -1.3576218135394582e+00,
       3.3797673347597406e+00, -1.3430266496985828e+00,
       3.3813205320701671e+00, -1.3430816338927805e+00,
       3.3773981012378580e+00, -1.3380508112210510e+00,
       3.4116477590996221e+00, -1.3286645963398458e+00,
       3.4738929584264659e+00, -1.3263931448806670e+00,
       3.5036990806548696e+00, -1.3210978489278209e+00,
       3.4825596106461520e+00, -1.3150737026854331e+00,
       3.4559705785606902e+00, -1.3168848667673019e+00,
       3.4299511353667231e+00, -1.3211189094263167e+00,
       3.4082236584632395e+00, -1.3261082350641396e+00,
       3.4102162217255239e+00, -1.3314159304153781e+00,
       3.4139974069136136e+00, -1.3304722161741840e+00,
       3.3975915440140678e+00, -1.3294491106437405e+00,
       3.3721255717145238e+00, -1.3271348726066898e+00,
       3.3438792438817351e+00, -1.3197528625481170e+00,
       3.3321922371769550e+00, -1.3088635314348429e+00,
       3.3298709073241581e+00, -1.2904095078980222e+00,
       3.3477386217090155e+00, -1.2648075266629213e+00,
       3.3737170526194622e+00, -1.2289863180706977e+00,
       3.4143913152274763e+00, -1.1805258378174781e+00,
       3.4671217104764382e+00, -1.1075637329074122e+00,
       3.4909449781157331e+00, -1.0738100366460530e+00,
       3.4712600642617826e+00, -1.1582107073634746e+00,
       3.4194353987409891e+00, -1.2088832071655065e+00,
       3.3971007931739825e+00, -1.2447508633756521e+00,
       3.3863607484763527e+00, -1.2683198281289392e+00,
       3.4133764126661497e+00, -1.2760112215197776e+00,
       3.4518766759116049e+00, -1.2748014326355879e+00,
       3.5067865694829909e+00, -1.2682049241790478e+00,
       3.5570315746915973e+00, -1.2726522123626625e+00,
       3.5672666923207608e+00, -1.2815977216783994e+00,
       3.5553017074328923e+00, -1.2838522120930858e+00,
       3.5566403620656244e+00, -1.2808419016816930e+00,
       3.5892350713528138e+00, -1.2703460545994429e+00,
       3.6288939211111089e+00, -1.2673213294985457e+00,
       3.6554342509687525e+00, -1.2735390855682602e+00,
       3.6800573622009214e+00, -1.2887920445098917e+00,
       3.6866677959726575e+00, -1.2978539256333885e+00,
       3.6040457917741340e+00, -1.3043478728805691e+00,
       3.4649137872693729e+00, -1.3041804667828583e+00,
       3.4010066454786947e+00, -1.3105469681883744e+00,
       3.4054273139582483e+00, -1.3221257726889959e+00,
       3.3965527213132014e+00, -1.3401034606788598e+00,
       3.3107566288013706e+00, -1.3711333605883731e+00,
       3.1633644229471130e+00, -1.3951400733637707e+00,
