%YAML:1.0
my_nn: !!opencv-ml-ann-mlp
   layer_sizes: !!opencv-matrix
      rows: 1
      cols: 3
      dt: i
      data: [ 2500, 12, 2 ]
   activation_function: SIGMOID_SYM
   f_param1: 1.
   f_param2: 1.
   min_val: -9.4999999999999996e-01
   max_val: 9.4999999999999996e-01
   min_val1: -9.7999999999999998e-01
   max_val1: 9.7999999999999998e-01
   training_params:
      train_method: RPROP
      dw0: 1.0000000000000001e-01
      dw_plus: 1.2000000000000000e+00
      dw_minus: 5.0000000000000000e-01
      dw_min: 1.1920928955078125e-07
      dw_max: 50.
      term_criteria: { epsilon:9.9999997764825821e-03, iterations:1000 }
   input_scale: [ 3.2443629741134297e+00, -9.2307175301147548e-01,
       3.2783289465957832e+00, -9.2391736494330678e-01,
       3.3454425777097079e+00, -9.2540141238921603e-01,
       3.4101421101135294e+00, -9.3121961413676702e-01,
       3.4701494284688179e+00, -9.3617266808124722e-01,
       3.5483885056543687e+00, -9.5337510141066761e-01,
       3.6124450923221025e+00, -9.6435406075059737e-01,
       3.7160526298793477e+00, -9.8595975919242795e-01,
       3.7650882320062133e+00, -1.0044766250313908e+00,
       3.7995183660567231e+00, -1.0292064251694815e+00,
       3.8280018414955639e+00, -1.0625403928239381e+00,
       3.8431273714262337e+00, -1.0964017226383278e+00,
       3.8468407370965991e+00, -1.1329597232794255e+00,
       3.8321771806550307e+00, -1.1670477184348156e+00,
       3.8171982017521922e+00, -1.1990305916165289e+00,
       3.7851027312667629e+00, -1.2267306710856103e+00,
       3.7321683009138349e+00, -1.2460933604147710e+00,
       3.6787536282409929e+00, -1.2598406387662291e+00,
       3.6384951330728303e+00, -1.2694086999514063e+00,
       3.6023264913024633e+00, -1.2779743264230563e+00,
       3.5698952389030763e+00, -1.2892236018807213e+00,
       3.5394840935518186e+00, -1.2983432728225597e+00,
       3.5248942259208285e+00, -1.3011349507717749e+00,
       3.5131676437638215e+00, -1.3022518683303066e+00,
       3.5127459316607155e+00, -1.3008428847446987e+00,
       3.5172819912904716e+00, -1.2981442349365522e+00,
       3.5160107347414939e+00, -1.2967673648089373e+00,
       3.5161974276642818e+00, -1.2978247211502247e+00,
       3.5350831851680886e+00, -1.2963461145142881e+00,
       3.5675442994199460e+00, -1.2916097401250162e+00,
       3.5921872155901355e+00, -1.2866174577155842e+00,
       3.6315085123410049e+00, -1.2761713677647930e+00,
       3.6702343665058463e+00, -1.2630456769128315e+00,
       3.7322226432668080e+00, -1.2470464230725600e+00,
       3.7695044874637107e+00, -1.2236381037468738e+00,
       3.7957100166432207e+00, -1.2029143058129925e+00,
       3.8073659496924814e+00, -1.1693581670293201e+00,
       3.7955272104650004e+00, -1.1368168739946596e+00,
       3.8016054303746500e+00, -1.1076357005193216e+00,
       3.8066762223895654e+00, -1.0761004860892898e+00,
       3.7720981469323189e+00, -1.0435818983531664e+00,
       3.7529058117211238e+00, -1.0186163033329614e+00,
       3.6884318210224634e+00, -9.9126396222106050e-01,
       3.6134020322787936e+00, -9.7203257034833479e-01,
       3.5502291205447269e+00, -9.6598237568507217e-01,
       3.4870712383593587e+00, -9.5348569233353342e-01,
       3.4212780592594738e+00, -9.4397227420550067e-01,
       3.3589646368475456e+00, -9.3791608312362884e-01,
       3.2987309933879074e+00, -9.2851249007146808e-01,
       3.2574118870189976e+00, -9.2544459842295579e-01,
       3.2405424304343065e+00, -9.1958848295337636e-01,
       3.2827643374073956e+00, -9.2292661396085685e-01,
       3.3527154051312280e+00, -9.2410145827633483e-01,
       3.4308327036600490e+00, -9.3110517171088925e-01,
       3.4716855419520654e+00, -9.3725166160425144e-01,
       3.5543083482267690e+00, -9.5164528708442664e-01,
       3.6269788869916382e+00, -9.6691669829047400e-01,
       3.7068934184850453e+00, -9.8894289548911063e-01,
       3.7728439327037520e+00, -1.0154766776214803e+00,
       3.7983099069150290e+00, -1.0419753397545086e+00,
       3.8116945223709484e+00, -1.0846365138296576e+00,
       3.8203335547718318e+00, -1.1207942170756373e+00,
       3.8059381105444565e+00, -1.1567213142103352e+00,
       3.8072306129139553e+00, -1.1932342604823258e+00,
       3.7701195971811572e+00, -1.2283824999273840e+00,
       3.7373657514018639e+00, -1.2508948595292761e+00,
       3.6887423957629593e+00, -1.2701250548095646e+00,
       3.6436858298702370e+00, -1.2838425614112554e+00,
       3.6087478377392874e+00, -1.2962675810981954e+00,
       3.5639597336772835e+00, -1.3034344979574111e+00,
       3.5380353278803534e+00, -1.3136409377169802e+00,
       3.5005659180993867e+00, -1.3173968450358808e+00,
       3.4873519586773782e+00, -1.3211520826419680e+00,
       3.4824938224670006e+00, -1.3241496094415246e+00,
       3.4909111942287048e+00, -1.3234856775721537e+00,
       3.4888687254673867e+00, -1.3231693009750225e+00,
       3.4866988933728531e+00, -1.3200388886642684e+00,
       3.4893403136348158e+00, -1.3188556284879227e+00,
       3.4960731898109345e+00, -1.3149144310340499e+00,
       3.5207229574184598e+00, -1.3104519172841163e+00,
       3.5627728048085356e+00, -1.3091268914927492e+00,
       3.5907760407582265e+00, -1.2985948412567434e+00,
       3.6282690019439103e+00, -1.2872492263951643e+00,
       3.6725242937658460e+00, -1.2733346535930175e+00,
       3.7367405839162986e+00, -1.2553004665330809e+00,
       3.7660717420787679e+00, -1.2320113140531168e+00,
       3.7879086844359020e+00, -1.1989047050023778e+00,
       3.7877162186510498e+00, -1.1605512568201142e+00,
       3.7832704064097791e+00, -1.1321359966465896e+00,
       3.7756171964027652e+00, -1.0972305338673254e+00,
       3.7544925204792428e+00, -1.0613529041929097e+00,
       3.7193200274732328e+00, -1.0239639391897331e+00,
       3.6693439093425102e+00, -9.9937171129173297e-01,
       3.6150541380265717e+00, -9.7241768328498757e-01,
       3.5420824511542186e+00, -9.6237475817138463e-01,
       3.4995170937810562e+00, -9.5601984945163654e-01,
       3.4403375555780511e+00, -9.4557683203473020e-01,
       3.3727838832301997e+00, -9.3813333341896954e-01,
       3.3223867007022743e+00, -9.3155486732920945e-01,
       3.2736747036674263e+00, -9.2428875591582504e-01,
       3.2219271618828365e+00, -9.1833431420916645e-01,
       3.2777173530110568e+00, -9.2194152706889732e-01,
       3.3545813980401915e+00, -9.2763946010661213e-01,
       3.4320639625403588e+00, -9.3354172042162475e-01,
       3.4864534817584785e+00, -9.3967491952690307e-01,
       3.5526663454914944e+00, -9.5822801252480838e-01,
       3.6200329011807111e+00, -9.7902358227661090e-01,
       3.7099867435760596e+00, -9.9877349285805439e-01,
       3.7670749307008395e+00, -1.0287791846791934e+00,
       3.7867876610114228e+00, -1.0660294040566280e+00,
       3.7818306464654334e+00, -1.1107104931539200e+00,
       3.7727225529723154e+00, -1.1444183624958333e+00,
       3.7742353874683734e+00, -1.1833968238911974e+00,
       3.7579123300005444e+00, -1.2195503670335561e+00,
       3.7417601465603552e+00, -1.2529305023289286e+00,
       3.6906454550374126e+00, -1.2725243659554863e+00,
       3.6521410588255048e+00, -1.2916876644744959e+00,
       3.6257409083297256e+00, -1.3069444712228124e+00,
       3.5921573055829654e+00, -1.3172639082804185e+00,
       3.5509680862830009e+00, -1.3238342221230388e+00,
       3.5223176406074939e+00, -1.3264112460268367e+00,
       3.4953160657351066e+00, -1.3259318306906542e+00,
       3.4786853833874805e+00, -1.3300495070239171e+00,
       3.4789217379562327e+00, -1.3295538238793232e+00,
       3.4755726960209565e+00, -1.3311481197042008e+00,
       3.4804405716029998e+00, -1.3317371106748959e+00,
       3.4747578369392129e+00, -1.3303419000521242e+00,
       3.4819532274357767e+00, -1.3275510370230783e+00,
       3.4922627820801662e+00, -1.3239751761392635e+00,
       3.5056457319917507e+00, -1.3244049764591124e+00,
       3.5321878545462480e+00, -1.3206849833539558e+00,
       3.5744604182028006e+00, -1.3147313237716356e+00,
       3.6072762002113481e+00, -1.3079871549433828e+00,
       3.6315823017578746e+00, -1.2939385932807623e+00,
       3.6748343151791016e+00, -1.2750882838543156e+00,
       3.7191914854173032e+00, -1.2551659134772288e+00,
       3.7556446373742136e+00, -1.2234690651905500e+00,
       3.7685205144279941e+00, -1.1895197997872182e+00,
       3.7713726444587850e+00, -1.1519214724834470e+00,
       3.7530331457270010e+00, -1.1203164276527504e+00,
       3.7395376189595884e+00, -1.0858659813449156e+00,
       3.7164305828760198e+00, -1.0422430165074821e+00,
       3.6663239545399069e+00, -1.0094297675484549e+00,
       3.6178587299711769e+00, -9.8606962640770879e-01,
       3.5412099317910370e+00, -9.6682483472935321e-01,
       3.4954696712542157e+00, -9.5439413502668236e-01,
       3.4430665741395443e+00, -9.4665833768806329e-01,
       3.3744066073486323e+00, -9.3747732915247817e-01,
       3.3197785224225997e+00, -9.2999559750173932e-01,
       3.2616231051266809e+00, -9.2318379442122489e-01,
       3.2339462482977184e+00, -9.2011156989918319e-01,
       3.2974303910012734e+00, -9.2513816317076558e-01,
       3.3642005309054084e+00, -9.2442976631335660e-01,
       3.4370400918148021e+00, -9.3228977201832841e-01,
       3.5078172985133782e+00, -9.4313832177102663e-01,
       3.5752613429412978e+00, -9.6999318178255356e-01,
       3.6334422397071906e+00, -9.8793227341438550e-01,
       3.6958974949654002e+00, -1.0110388054718429e+00,
       3.7523947704788689e+00, -1.0443001309583777e+00,
       3.7607033233174176e+00, -1.0933448198575453e+00,
       3.7607685397550759e+00, -1.1344281211061413e+00,
       3.7482841576096280e+00, -1.1697246709239471e+00,
       3.7379153729664116e+00, -1.2092786036501637e+00,
       3.7208199976127414e+00, -1.2423980100690060e+00,
       3.6929201863807268e+00, -1.2727148626385487e+00,
       3.6589842430769708e+00, -1.2932394166989878e+00,
       3.6384914493216352e+00, -1.3092838597492749e+00,
       3.6193674685087163e+00, -1.3195929233032360e+00,
       3.5927552903527702e+00, -1.3288371133574566e+00,
       3.5542474163617861e+00, -1.3300294490343172e+00,
       3.5275577588381575e+00, -1.3262699489072403e+00,
       3.5013710247280487e+00, -1.3206719863803305e+00,
       3.4924184612138047e+00, -1.3195759110552558e+00,
       3.4830215075920021e+00, -1.3225671626725024e+00,
       3.4956239087615151e+00, -1.3256700534341950e+00,
       3.4926651936799709e+00, -1.3252165975992809e+00,
       3.4905813121064062e+00, -1.3244411865463781e+00,
       3.4952116088844356e+00, -1.3261407230835163e+00,
       3.4987458020547724e+00, -1.3259699036885870e+00,
       3.5203961012300717e+00, -1.3281984324235168e+00,
       3.5403911618751187e+00, -1.3278341013585886e+00,
       3.5652954624963815e+00, -1.3288636018339186e+00,
       3.5936115429806557e+00, -1.3214451432859862e+00,
       3.6102531908995261e+00, -1.3135844784658934e+00,
       3.6401084619740240e+00, -1.2932056649133354e+00,
       3.6706781629060825e+00, -1.2751920756317292e+00,
       3.7130638044301745e+00, -1.2504009818711874e+00,
       3.7422340587331302e+00, -1.2177617314062481e+00,
       3.7495784139177264e+00, -1.1790823578909004e+00,
       3.7451096383871949e+00, -1.1409419207876998e+00,
       3.7275783979443129e+00, -1.1068993012521744e+00,
       3.7251279067273106e+00, -1.0695264858431728e+00,
       3.6685253574914265e+00, -1.0277489663048711e+00,
       3.6206451798462518e+00, -9.9814837275921320e-01,
       3.5616196587682349e+00, -9.7371786228852819e-01,
       3.4969887830478239e+00, -9.5383346025681492e-01,
       3.4449040253350032e+00, -9.4561852718600148e-01,
       3.3771506593758627e+00, -9.3687652008021871e-01,
       3.3173286215706215e+00, -9.2930202936008766e-01,
       3.2564822240867963e+00, -9.2372353347542024e-01,
       3.2279716128045761e+00, -9.1825632252766032e-01,
       3.2970487966951287e+00, -9.2276977346308198e-01,
       3.3701808473230117e+00, -9.2742972539605395e-01,
       3.4393729439941407e+00, -9.3135744942347443e-01,
       3.5137599900589636e+00, -9.5474880296312936e-01,
       3.6039724221778919e+00, -9.7636740283419765e-01,
       3.6330459837887004e+00, -9.9569330035407577e-01,
       3.6746091065405042e+00, -1.0248669952757705e+00,
       3.7307791997258746e+00, -1.0669210835505005e+00,
       3.7297186998299909e+00, -1.1165717826721775e+00,
       3.7331680017360762e+00, -1.1572239493293133e+00,
       3.7061409562045040e+00, -1.1901733077646051e+00,
       3.6954005154687168e+00, -1.2301590490729217e+00,
       3.6841667663391870e+00, -1.2655995585589457e+00,
       3.6605007395049367e+00, -1.2912808196586782e+00,
       3.6422141654959268e+00, -1.3087190256374457e+00,
       3.6295645656080562e+00, -1.3180857674224149e+00,
       3.6172949019408347e+00, -1.3249309010025963e+00,
       3.5940501189156739e+00, -1.3284196518285332e+00,
       3.5723306449785897e+00, -1.3254249099074114e+00,
       3.5504632741534201e+00, -1.3197505821479318e+00,
       3.5398811323130825e+00, -1.3140513411250720e+00,
       3.5225811012974879e+00, -1.3088739502299036e+00,
       3.5171545157683264e+00, -1.3064998070726357e+00,
       3.5173393746516863e+00, -1.3079035778564565e+00,
       3.5169446660101435e+00, -1.3094687781047996e+00,
       3.5280419761552824e+00, -1.3134038318222134e+00,
       3.5252860078641484e+00, -1.3116104589185411e+00,
       3.5262216456027864e+00, -1.3152256805740778e+00,
       3.5424169894828097e+00, -1.3214290408235512e+00,
       3.5561547769651400e+00, -1.3282302486519262e+00,
       3.5685781331678581e+00, -1.3294039937167752e+00,
       3.5824070781831878e+00, -1.3265771581960166e+00,
       3.5993033440181534e+00, -1.3207702744931757e+00,
       3.6141395862163650e+00, -1.3088667452412746e+00,
       3.6332334031881999e+00, -1.2930683038685813e+00,
       3.6753168937915088e+00, -1.2728033056234467e+00,
       3.7131887418528189e+00, -1.2447931023981875e+00,
       3.7255315504567506e+00, -1.2080841816849623e+00,
       3.7447790392480029e+00, -1.1671069890572461e+00,
       3.7193465170976214e+00, -1.1293461111503216e+00,
       3.7237273254097087e+00, -1.0943789480793833e+00,
       3.6640676134346672e+00, -1.0454822852830976e+00,
       3.6221985503238385e+00, -1.0097977290275961e+00,
       3.5656954178606384e+00, -9.8373297224996570e-01,
       3.5092777937806585e+00, -9.6536190294887092e-01,
       3.4413227544835245e+00, -9.4452254503180066e-01,
       3.3837968772145190e+00, -9.3725080219975920e-01,
       3.3226809314743546e+00, -9.3169915413723103e-01,
       3.2572164036352627e+00, -9.2722401287294587e-01,
       3.2171576784369074e+00, -9.1985006681936399e-01,
       3.2993846269860381e+00, -9.2755598454736365e-01,
       3.3776539365256411e+00, -9.3240508103047826e-01,
       3.4445187881088408e+00, -9.4346304319250540e-01,
       3.5255047867870615e+00, -9.6539465726558638e-01,
       3.5984959324457853e+00, -9.8563780305840976e-01,
       3.6417521139146647e+00, -1.0115719711562488e+00,
       3.6610216317684929e+00, -1.0469599337168782e+00,
       3.7081325540490861e+00, -1.0942819716923997e+00,
       3.7048882976774511e+00, -1.1414789122000286e+00,
       3.6991114987782261e+00, -1.1782571577379934e+00,
       3.6716908006748890e+00, -1.2156513318880637e+00,
       3.6597696336218095e+00, -1.2522063549037779e+00,
       3.6518397737618664e+00, -1.2851097176256459e+00,
       3.6371981965714451e+00, -1.3031807193730853e+00,
       3.6361322652169386e+00, -1.3170700798154067e+00,
       3.6346538237231143e+00, -1.3249912696528912e+00,
       3.6277297405329167e+00, -1.3282926152963408e+00,
       3.6034139970601595e+00, -1.3228147571906745e+00,
       3.5900157112497428e+00, -1.3144600675722282e+00,
       3.5808623833113504e+00, -1.3074814558415924e+00,
       3.5725181015520948e+00, -1.3031763579089437e+00,
       3.5694640818098962e+00, -1.2996258637224904e+00,
       3.5664732001910675e+00, -1.2960712733482425e+00,
       3.5655017701661493e+00, -1.2974226562242428e+00,
       3.5577487887048118e+00, -1.2963255337171167e+00,
       3.5555145738475074e+00, -1.2955814675747299e+00,
       3.5669195248656074e+00, -1.3007790552632299e+00,
       3.5724213887072409e+00, -1.3062595105518846e+00,
       3.5888340044090250e+00, -1.3097561631114261e+00,
       3.5986107629032911e+00, -1.3186738678561136e+00,
       3.5986222251992643e+00, -1.3280862316173199e+00,
       3.6023470756289835e+00, -1.3282984423405901e+00,
       3.6065955097525819e+00, -1.3260026306450068e+00,
       3.6085937047894112e+00, -1.3145635754918099e+00,
       3.6200654056020545e+00, -1.3061183212006182e+00,
       3.6404951613281686e+00, -1.2869156541955984e+00,
       3.6727188856532678e+00, -1.2667651737777306e+00,
       3.6917931025599620e+00, -1.2328269557098903e+00,
       3.7143853223383561e+00, -1.1967011269001255e+00,
       3.7021718188507275e+00, -1.1547674586714889e+00,
       3.6950797679001526e+00, -1.1145041040842474e+00,
       3.6569975898057838e+00, -1.0708311969757101e+00,
       3.6289029150670982e+00, -1.0270092521798426e+00,
       3.5802461683287259e+00, -9.9657876275118662e-01,
       3.5300050527129474e+00, -9.7660099630507036e-01,
       3.4543874028201329e+00, -9.5746815793473983e-01,
       3.3768265909360515e+00, -9.4390836425916269e-01,
       3.3086048417730214e+00, -9.3178757249278044e-01,
       3.2495989860637873e+00, -9.2812682414903336e-01,
       3.2185557161830327e+00, -9.2203831962467042e-01,
       3.2905826101941131e+00, -9.2874577558226634e-01,
       3.3746814376167227e+00, -9.3869066668101508e-01,
       3.4529271045404895e+00, -9.5140153316939191e-01,
       3.5380125807772482e+00, -9.7591370932525034e-01,
       3.6142030692069773e+00, -9.9946009094629207e-01,
       3.6287243501683175e+00, -1.0290585298123258e+00,
       3.6642396411288156e+00, -1.0754208730393908e+00,
       3.6854805289054404e+00, -1.1233645995010140e+00,
       3.6813443233862744e+00, -1.1653614359977504e+00,
       3.6688783377373704e+00, -1.2056500525687577e+00,
       3.6443406033699657e+00, -1.2408359021020134e+00,
       3.6366070720316586e+00, -1.2781062925973083e+00,
       3.6175718972184874e+00, -1.2963030951401988e+00,
       3.6296954438692666e+00, -1.3111055808973493e+00,
       3.6384664210289852e+00, -1.3179633130327342e+00,
       3.6417913506161970e+00, -1.3246333291642425e+00,
       3.6334797341491347e+00, -1.3193446114097225e+00,
       3.6382268516808636e+00, -1.3116799960686663e+00,
       3.6305491713240401e+00, -1.3004290836569565e+00,
       3.6287105540518994e+00, -1.2893866022239828e+00,
       3.6205459593949874e+00, -1.2836379192673792e+00,
       3.6162946508841207e+00, -1.2848245495259150e+00,
       3.6084823450961041e+00, -1.2809200193407511e+00,
       3.6031854487747061e+00, -1.2781883986029425e+00,
       3.5977663827001596e+00, -1.2771397372602580e+00,
       3.5903601353737287e+00, -1.2766471817464604e+00,
       3.6040785869692162e+00, -1.2821756404421241e+00,
       3.6119777573635869e+00, -1.2861592941819504e+00,
       3.6355169995277263e+00, -1.2900632798802392e+00,
       3.6456373064752490e+00, -1.2987390421868319e+00,
       3.6362237336121734e+00, -1.3107310947302453e+00,
       3.6394180004012870e+00, -1.3203901165467646e+00,
       3.6328962782631851e+00, -1.3233372067073681e+00,
       3.6295619190554871e+00, -1.3196769025883408e+00,
       3.6226064080161802e+00, -1.3114178667129017e+00,
       3.6183474114094327e+00, -1.2993080842457576e+00,
       3.6348713565185435e+00, -1.2832377865217286e+00,
       3.6534686639837921e+00, -1.2585908970082731e+00,
       3.6719206073485173e+00, -1.2246965978652014e+00,
       3.6786966856292707e+00, -1.1847442153836425e+00,
       3.6960098471345644e+00, -1.1449656317294121e+00,
       3.6656061286385473e+00, -1.0999405263363145e+00,
       3.6214800081976617e+00, -1.0510265048334331e+00,
       3.5881092799251508e+00, -1.0142672041614642e+00,
       3.5428564214134122e+00, -9.9088759216369171e-01,
       3.4602332046812361e+00, -9.7076167869071373e-01,
       3.3986273716759969e+00, -9.5460102717195006e-01,
       3.3203293138231635e+00, -9.4204485958968343e-01,
       3.2469382855101303e+00, -9.2878760065447918e-01,
       3.2269872301077838e+00, -9.2623283703861758e-01,
       3.3068374630020139e+00, -9.3318891236410573e-01,
       3.3818497667958662e+00, -9.4587476896723244e-01,
       3.4783471775906762e+00, -9.6256440666298471e-01,
       3.5540421009422185e+00, -9.9028387477452751e-01,
       3.6181962628145321e+00, -1.0186914524245936e+00,
       3.6210426809364900e+00, -1.0535732561429381e+00,
       3.6601700867732365e+00, -1.1056522918077414e+00,
       3.6564618692689961e+00, -1.1549488437056552e+00,
       3.6483617439374161e+00, -1.2000892846354616e+00,
       3.6476728228315936e+00, -1.2387464444595762e+00,
       3.6195811120018528e+00, -1.2685074936349605e+00,
       3.5950960204646032e+00, -1.2929761993951896e+00,
       3.5892195329447558e+00, -1.3042078217990773e+00,
       3.6243891492703759e+00, -1.3136015221213737e+00,
       3.6391837829676290e+00, -1.3158107746145065e+00,
       3.6526962253046236e+00, -1.3167567529641826e+00,
       3.6526071575894172e+00, -1.3049977850863570e+00,
       3.6709130957039728e+00, -1.2915487052773926e+00,
       3.6816323115355076e+00, -1.2783491501791706e+00,
       3.6746678286166690e+00, -1.2662716878286884e+00,
       3.6732916374560145e+00, -1.2690280519267578e+00,
       3.6408431173641231e+00, -1.2631108673898279e+00,
       3.6260316583489285e+00, -1.2584047002325363e+00,
       3.6180099460064481e+00, -1.2540416728712795e+00,
       3.6187826553524642e+00, -1.2523896180836311e+00,
       3.6173691274755018e+00, -1.2565656992471426e+00,
       3.6293369372854842e+00, -1.2646969966464301e+00,
       3.6671739564267272e+00, -1.2676045201134494e+00,
       3.6667244645724510e+00, -1.2666068453270607e+00,
       3.6677927613616013e+00, -1.2746229983455482e+00,
       3.6646390262210060e+00, -1.2927326278703883e+00,
       3.6584907409424652e+00, -1.3035501245557466e+00,
       3.6460666476727268e+00, -1.3184509531779465e+00,
       3.6348800264663281e+00, -1.3238610093107530e+00,
       3.6211882038278476e+00, -1.3175908922152428e+00,
       3.6122312858321446e+00, -1.3121902277809954e+00,
       3.5999390003947278e+00, -1.2959269146004080e+00,
       3.6137683162198875e+00, -1.2790331124623282e+00,
       3.6360866419716018e+00, -1.2553513472868181e+00,
       3.6594146346242917e+00, -1.2181276989719791e+00,
       3.6752988619419478e+00, -1.1778204268267249e+00,
       3.6525831468583951e+00, -1.1279287632928736e+00,
       3.6199812596657868e+00, -1.0815376426933441e+00,
       3.5823793392395107e+00, -1.0349331544541647e+00,
       3.5484946352998072e+00, -1.0088527900885329e+00,
       3.4778970487063647e+00, -9.8331844912592525e-01,
       3.3897034940302961e+00, -9.6245077132820478e-01,
       3.3324532788092629e+00, -9.5082505692690478e-01,
       3.2671094162678482e+00, -9.3511150289993639e-01,
       3.2434887083937345e+00, -9.2983030322987492e-01,
       3.3255363516992453e+00, -9.3881495922400049e-01,
       3.4119907383242616e+00, -9.5774614068709329e-01,
       3.4957881071728467e+00, -9.7775383256712589e-01,
       3.5708198704799292e+00, -1.0101298916504720e+00,
       3.5974977397045631e+00, -1.0387144419131233e+00,
       3.6124513994914476e+00, -1.0850256751753884e+00,
       3.6385566895415686e+00, -1.1389169622783031e+00,
       3.6268166902386096e+00, -1.1882970398291131e+00,
       3.6161886783338342e+00, -1.2280861023033489e+00,
       3.6057264712858803e+00, -1.2648550316354583e+00,
       3.5823469074140397e+00, -1.2887044746831489e+00,
       3.5730560379413876e+00, -1.3023563734854389e+00,
       3.5884719018345694e+00, -1.3101539375838758e+00,
       3.6219420789140049e+00, -1.3159000518285968e+00,
       3.6400673975762254e+00, -1.3081905389170252e+00,
       3.6573337386724045e+00, -1.3038900061897245e+00,
       3.6903515567313874e+00, -1.2857122128065446e+00,
       3.6959403252171139e+00, -1.2622050774919036e+00,
       3.7065780233541301e+00, -1.2482776674532856e+00,
       3.6843814376381196e+00, -1.2428135533728775e+00,
       3.6582232015780134e+00, -1.2438939952504251e+00,
       3.6457401826797988e+00, -1.2465207777746985e+00,
       3.6317027706083369e+00, -1.2425237005224554e+00,
       3.6286248284936775e+00, -1.2393629437210976e+00,
       3.6133333389458953e+00, -1.2354997917642505e+00,
       3.6072643079856155e+00, -1.2363880080781640e+00,
       3.6161184367175854e+00, -1.2390627956365108e+00,
       3.6388353381595029e+00, -1.2390331009863274e+00,
       3.6824410693016247e+00, -1.2410633695319757e+00,
       3.6964531628142687e+00, -1.2459191871338895e+00,
       3.6897968763878413e+00, -1.2605671480396166e+00,
       3.6763762194016119e+00, -1.2809477878779283e+00,
       3.6597674590842919e+00, -1.3021674899350291e+00,
       3.6345602963266326e+00, -1.3159202223643380e+00,
       3.6080172608453536e+00, -1.3168163538188349e+00,
       3.5913373198053442e+00, -1.3160203747806125e+00,
       3.5903038125879849e+00, -1.3088158827227923e+00,
       3.5827713220991355e+00, -1.2956921155830985e+00,
       3.5951309491714962e+00, -1.2773250129038063e+00,
       3.6248981635039188e+00, -1.2501284813526043e+00,
       3.6413173342594756e+00, -1.2153896787413199e+00,
       3.6360951271683675e+00, -1.1630413880360311e+00,
       3.6104999488770511e+00, -1.1118290663882027e+00,
       3.5731638836001349e+00, -1.0627385559428564e+00,
       3.5431074074194076e+00, -1.0256108095973060e+00,
       3.4836628388760023e+00, -9.9881964539451928e-01,
       3.3957030172618126e+00, -9.7329933772497923e-01,
       3.3466034373173574e+00, -9.5738470567375200e-01,
       3.2659982259449118e+00, -9.4058824581843969e-01,
       3.2625234073784646e+00, -9.3487668017310821e-01,
       3.3488318509094825e+00, -9.5339920852800886e-01,
       3.4416277508927089e+00, -9.6893774646902819e-01,
       3.5186081891081038e+00, -9.9515986626446806e-01,
       3.5797764630056728e+00, -1.0292198076875025e+00,
       3.5903723434919539e+00, -1.0654413576876784e+00,
       3.6113426326124429e+00, -1.1204080754908483e+00,
       3.6201105349598337e+00, -1.1727824262674360e+00,
       3.6043856239812815e+00, -1.2201467461427158e+00,
       3.5887617458898555e+00, -1.2566152917012015e+00,
       3.5706401936495658e+00, -1.2832432549007784e+00,
       3.5428677029445805e+00, -1.2950966310642895e+00,
       3.5486987111966828e+00, -1.3081128923167618e+00,
       3.5744522626569446e+00, -1.3110216133641108e+00,
       3.6149183263024716e+00, -1.3099040366745862e+00,
       3.6424636205822707e+00, -1.2981901603353141e+00,
       3.6703900647081378e+00, -1.2812389187850475e+00,
       3.6865101996435801e+00, -1.2541615835934794e+00,
       3.7229445583492904e+00, -1.2298515418892941e+00,
       3.7052503436784914e+00, -1.2134034363681847e+00,
       3.6733703811857779e+00, -1.2129365788281341e+00,
       3.6491466260904084e+00, -1.2188451763184263e+00,
       3.6238547904784864e+00, -1.2251517679931487e+00,
       3.5933328527331554e+00, -1.2240975420535702e+00,
       3.5790107255119983e+00, -1.2177034833115667e+00,
       3.5647337656628797e+00, -1.2179541817674751e+00,
       3.5719737720582940e+00, -1.2190837387073563e+00,
       3.5878990970214888e+00, -1.2194795481418346e+00,
       3.6303120544596665e+00, -1.2165055531377433e+00,
       3.6503488844529963e+00, -1.2101545595388217e+00,
       3.6793974949835087e+00, -1.2166131171729067e+00,
       3.6870636251660334e+00, -1.2277467775705879e+00,
       3.6899657611821284e+00, -1.2532382548791408e+00,
       3.6695450578392976e+00, -1.2756253310894201e+00,
       3.6400036639650324e+00, -1.2957167453481397e+00,
       3.6036637303370100e+00, -1.3078835315657915e+00,
       3.5760326852637512e+00, -1.3099270400900143e+00,
       3.5601874772981579e+00, -1.3119778831754885e+00,
       3.5593146231789432e+00, -1.3082416493919584e+00,
       3.5586815301446544e+00, -1.2937497017016153e+00,
       3.5868506478009721e+00, -1.2745871061691743e+00,
       3.6141083207567730e+00, -1.2404021291459353e+00,
       3.6140910809414772e+00, -1.1963791581391425e+00,
       3.5958043902010703e+00, -1.1411819366405833e+00,
       3.5711045950555111e+00, -1.0908378900798967e+00,
       3.5373870365661011e+00, -1.0504222367571572e+00,
       3.4992109393171469e+00, -1.0162305472530120e+00,
       3.4123136111508927e+00, -9.8804900487096614e-01,
       3.3606295527182146e+00, -9.7146250366532216e-01,
       3.2823421792526997e+00, -9.5225359122362796e-01,
       3.2846732796518214e+00, -9.4345860485086508e-01,
       3.3743222540309317e+00, -9.6309605018116418e-01,
       3.4580257181647642e+00, -9.8225449449719004e-01,
       3.5231139696200651e+00, -1.0145165974969697e+00,
       3.5694911973209438e+00, -1.0534855948830582e+00,
       3.5960385273933002e+00, -1.0956653129959453e+00,
       3.6065446305574582e+00, -1.1511394372165911e+00,
       3.5951018249696349e+00, -1.2063426907882604e+00,
       3.5846153781271850e+00, -1.2474113189860372e+00,
       3.5625678165667161e+00, -1.2768192278922106e+00,
       3.5360557414777207e+00, -1.2929352981928020e+00,
       3.5226545784742940e+00, -1.3009633098951405e+00,
       3.5397487182419458e+00, -1.3089568813644556e+00,
       3.5734087762839630e+00, -1.3066283674951045e+00,
       3.6147234943936830e+00, -1.2983745057262108e+00,
       3.6515102221708444e+00, -1.2761702878431467e+00,
       3.6971114342236899e+00, -1.2510345536053422e+00,
       3.7245820855877367e+00, -1.2225902904007573e+00,
       3.7097974872714281e+00, -1.1896106914150533e+00,
       3.6608237814750080e+00, -1.1755442707740573e+00,
       3.6433489340593894e+00, -1.1822397425539932e+00,
       3.6085097065773315e+00, -1.1896487529661091e+00,
       3.5814747227596384e+00, -1.1931511259205840e+00,
       3.5556717951006127e+00, -1.1960990028789398e+00,
       3.5572714411235919e+00, -1.1926291378588094e+00,
       3.5529978576196934e+00, -1.1940257699136518e+00,
       3.5572773642662461e+00, -1.1964873445839499e+00,
       3.5805860234139946e+00, -1.1948055967556086e+00,
       3.6121677531975189e+00, -1.1862870448989800e+00,
       3.6350445669757465e+00, -1.1746183856256673e+00,
       3.6674342038061392e+00, -1.1744776388239238e+00,
       3.6893252987897367e+00, -1.1907056663868272e+00,
       3.6856904407603643e+00, -1.2153153399851488e+00,
       3.6769540465894903e+00, -1.2452835581149957e+00,
       3.6552599847674450e+00, -1.2753336420878354e+00,
       3.6183679340707280e+00, -1.2977559742616755e+00,
       3.5644244375256799e+00, -1.3043647696377241e+00,
       3.5317349259190238e+00, -1.3083616813813808e+00,
       3.5281716191590449e+00, -1.3074700173997371e+00,
       3.5360635914365508e+00, -1.3031923376520933e+00,
       3.5520078268817850e+00, -1.2892680755726857e+00,
       3.5793029307208468e+00, -1.2640234528023457e+00,
       3.6010450791002504e+00, -1.2293797405909204e+00,
       3.5974813917050579e+00, -1.1756672538668989e+00,
       3.5838560567234325e+00, -1.1249037437822669e+00,
       3.5412789368220912e+00, -1.0755254110526498e+00,
       3.5039544660828499e+00, -1.0319202510395369e+00,
       3.4402587400878519e+00, -1.0039079521899272e+00,
       3.3677081758935259e+00, -9.8285472842168753e-01,
       3.2950208647243717e+00, -9.6114737356312918e-01,
       3.2983956338950957e+00, -9.5557955056121258e-01,
       3.3930649712875072e+00, -9.7031994554751322e-01,
       3.4700976013435421e+00, -9.9529468750205241e-01,
       3.5399300103658611e+00, -1.0314636554060668e+00,
       3.5657347480976682e+00, -1.0742821102434941e+00,
       3.5847573139108211e+00, -1.1274139314368483e+00,
       3.5936665074646803e+00, -1.1816929779557896e+00,
       3.5790733230261256e+00, -1.2350059692309547e+00,
       3.5671409063292412e+00, -1.2707595053293101e+00,
       3.5422259032646912e+00, -1.2893753339380984e+00,
       3.5154043524249077e+00, -1.3019427184726837e+00,
       3.5155772440861237e+00, -1.3047871384230834e+00,
       3.5326231242969173e+00, -1.2979209885386966e+00,
       3.5649047182070586e+00, -1.2898936742489062e+00,
       3.6149359205890006e+00, -1.2745232451961761e+00,
       3.6616529720969178e+00, -1.2451082749587692e+00,
       3.6997356811701150e+00, -1.2185867836904278e+00,
       3.7214330524871229e+00, -1.1866453529362522e+00,
       3.7084661138901298e+00, -1.1609253047190919e+00,
       3.6494107088225318e+00, -1.1491128379439917e+00,
       3.6161705821607928e+00, -1.1503471713163673e+00,
       3.5658584542170009e+00, -1.1556124180911758e+00,
       3.5391684627500961e+00, -1.1647055919431186e+00,
       3.4933130190672448e+00, -1.1727528299328067e+00,
       3.5095094671402443e+00, -1.1741515803485010e+00,
       3.4979997173807589e+00, -1.1711273473305537e+00,
       3.4943482807062587e+00, -1.1731921191591848e+00,
       3.5328027050541713e+00, -1.1700188748749476e+00,
       3.5753619717825371e+00, -1.1605422029271044e+00,
       3.6204490529499997e+00, -1.1491379395407140e+00,
       3.6753063011896527e+00, -1.1527277661784217e+00,
       3.7175001111787007e+00, -1.1591988836905549e+00,
       3.6944415320931316e+00, -1.1776829915370124e+00,
       3.6763907027669722e+00, -1.2084203496973465e+00,
       3.6551994252632989e+00, -1.2453248225908409e+00,
       3.6147757139786791e+00, -1.2699432259019396e+00,
       3.5743952340796685e+00, -1.2905320123661150e+00,
       3.5228419566013041e+00, -1.3007434929091051e+00,
       3.4961915775029588e+00, -1.3033174154923048e+00,
       3.5160018971255558e+00, -1.3083100766835136e+00,
       3.5386066789176458e+00, -1.3045205283577039e+00,
       3.5592406665512621e+00, -1.2847684657482286e+00,
       3.5892360466992308e+00, -1.2534833593458174e+00,
       3.5995457937746562e+00, -1.2080819335334960e+00,
       3.5832523485983874e+00, -1.1508270069524316e+00,
       3.5393745413824282e+00, -1.0985602794964933e+00,
       3.5080075712772034e+00, -1.0520358608828457e+00,
       3.4533263109176318e+00, -1.0159222479757748e+00,
       3.3836486333387010e+00, -9.9138587702911363e-01,
       3.3154580486620238e+00, -9.7047080714285405e-01,
       3.2969724093071888e+00, -9.6415101985101481e-01,
       3.4091046930874551e+00, -9.8268214842443380e-01,
       3.4932600074555609e+00, -1.0117930534262101e+00,
       3.5398231088674237e+00, -1.0515134800543589e+00,
       3.5625201511386275e+00, -1.0949730260975339e+00,
       3.5766854100181300e+00, -1.1527868868213524e+00,
       3.5800040079275446e+00, -1.2090304772344340e+00,
       3.5683929202958362e+00, -1.2551313119568039e+00,
       3.5462679195553215e+00, -1.2852605847892409e+00,
       3.5289016346994941e+00, -1.3009079861764257e+00,
       3.5090253135542429e+00, -1.3085852484090634e+00,
       3.5023383166904378e+00, -1.3032794732192132e+00,
       3.5340867461217629e+00, -1.2929228039104197e+00,
       3.5821876639386394e+00, -1.2818642789474961e+00,
       3.6182888636730817e+00, -1.2554049038032546e+00,
       3.6788261452905799e+00, -1.2213337259197221e+00,
       3.6930746720828260e+00, -1.1947638031515322e+00,
       3.7170469031085300e+00, -1.1736789442474014e+00,
       3.6998566275271014e+00, -1.1539117570768866e+00,
       3.6791193905393889e+00, -1.1514928964415334e+00,
       3.6037212501909388e+00, -1.1426261764144781e+00,
       3.5451531203255717e+00, -1.1518224165016153e+00,
       3.4766702325881282e+00, -1.1584185617975742e+00,
       3.4255448316875050e+00, -1.1651780586300156e+00,
       3.4484732146730797e+00, -1.1712493279665201e+00,
       3.4390681097908291e+00, -1.1692286746321205e+00,
       3.4158563628653318e+00, -1.1653500995219768e+00,
       3.4428884990731659e+00, -1.1628710338856572e+00,
       3.5184443399492227e+00, -1.1570464564560845e+00,
       3.5670423250887531e+00, -1.1479815282465338e+00,
       3.6322676495693100e+00, -1.1468061031134482e+00,
       3.7131840386783570e+00, -1.1598961154142868e+00,
       3.7051558878007347e+00, -1.1698351213408666e+00,
       3.6815578582679942e+00, -1.1863623760436230e+00,
       3.6657039290639677e+00, -1.2198683824122707e+00,
       3.6390712307625912e+00, -1.2529543750371497e+00,
       3.5934768795309715e+00, -1.2745164090120393e+00,
       3.5335584484256706e+00, -1.2925633217278774e+00,
       3.5025116032754973e+00, -1.3011945762197521e+00,
       3.5060810494307808e+00, -1.3095698084700444e+00,
       3.5222454056101875e+00, -1.3112651751623194e+00,
       3.5567652190207584e+00, -1.2999045244921286e+00,
       3.5821086107660354e+00, -1.2745634281451632e+00,
       3.6030348842481694e+00, -1.2367789609054527e+00,
       3.5891726076192332e+00, -1.1812125021026589e+00,
       3.5745537603433628e+00, -1.1279234359137533e+00,
       3.5180277866014551e+00, -1.0739014418642865e+00,
       3.4647204983734166e+00, -1.0324407156517295e+00,
       3.3989912179463806e+00, -1.0030384859290353e+00,
       3.3275464261410237e+00, -9.8399721562620468e-01,
       3.3249630539398916e+00, -9.7628638389401534e-01,
       3.4199831419525659e+00, -9.9673429790705859e-01,
       3.5016899155182672e+00, -1.0303531846095157e+00,
       3.5402474189884989e+00, -1.0701080219965231e+00,
       3.5716694156507036e+00, -1.1222428722737003e+00,
       3.5839336556188477e+00, -1.1813897366186996e+00,
       3.5719108918813971e+00, -1.2293617914177659e+00,
       3.5738932265651528e+00, -1.2695370140872886e+00,
       3.5370675971939649e+00, -1.2938740389030010e+00,
       3.5134145532912489e+00, -1.3059522177899583e+00,
       3.5108526995037237e+00, -1.3116439613425692e+00,
       3.5100086958611754e+00, -1.3007660785095181e+00,
       3.5514925011425520e+00, -1.2870259083874378e+00,
       3.5868023720620381e+00, -1.2619518454143437e+00,
       3.6122430247925279e+00, -1.2315747023446861e+00,
       3.6467426618833061e+00, -1.2045670261665611e+00,
       3.6552950576556293e+00, -1.1830893342572120e+00,
       3.6562107488503650e+00, -1.1700754921512262e+00,
       3.6483146177852745e+00, -1.1609277561372289e+00,
       3.6202054445605811e+00, -1.1526444888270158e+00,
       3.5785791244310627e+00, -1.1530292771529818e+00,
       3.5289037170495012e+00, -1.1562591143558929e+00,
       3.4544268523027601e+00, -1.1627854424219970e+00,
       3.4094353983104493e+00, -1.1686120913543507e+00,
       3.4298085667797742e+00, -1.1774710665906516e+00,
       3.4272019104439710e+00, -1.1744317838104796e+00,
       3.4047519071384817e+00, -1.1689099542334744e+00,
       3.4473939731438259e+00, -1.1659049939720800e+00,
       3.5048266299607049e+00, -1.1627088321160439e+00,
       3.5466658186456246e+00, -1.1600266094233265e+00,
       3.5849517115666276e+00, -1.1590119031300599e+00,
       3.6446420357480491e+00, -1.1680915399685581e+00,
       3.6585543240315332e+00, -1.1797980405379493e+00,
       3.6640046822446823e+00, -1.1866858804154043e+00,
       3.6511051407198236e+00, -1.2042706729500487e+00,
       3.6314664399439143e+00, -1.2309983690457125e+00,
       3.6051520246829249e+00, -1.2600473822090621e+00,
       3.5554508887725489e+00, -1.2808996958868768e+00,
       3.5089194822024243e+00, -1.2932538120905561e+00,
       3.5048193862499644e+00, -1.3053605464967573e+00,
       3.5167704192950464e+00, -1.3144933949367397e+00,
       3.5381367689918490e+00, -1.3057328631559486e+00,
       3.5781945450626935e+00, -1.2921620817453685e+00,
       3.5989486069729533e+00, -1.2573319870575885e+00,
       3.6001863573981807e+00, -1.2085095818688218e+00,
       3.5731505899859854e+00, -1.1498848123830836e+00,
       3.5268984873973301e+00, -1.0965552081717864e+00,
       3.4826594946177396e+00, -1.0504913822907962e+00,
       3.4088597483053262e+00, -1.0165295448950915e+00,
       3.3418359922104641e+00, -9.9490886910108889e-01,
       3.3354721852847122e+00, -9.8647961091085956e-01,
       3.4282124576667159e+00, -1.0098728622880837e+00,
       3.5065823612906386e+00, -1.0460695674462437e+00,
       3.5499733265705036e+00, -1.0884255504984219e+00,
       3.5757539759706090e+00, -1.1462518219569733e+00,
       3.5835511860887994e+00, -1.2019886158941728e+00,
       3.5767932165521423e+00, -1.2454522403598700e+00,
       3.5699091316052805e+00, -1.2803641302717796e+00,
       3.5388294588310374e+00, -1.3017961359758452e+00,
       3.5164447910188352e+00, -1.3064400391648281e+00,
       3.5194106084462029e+00, -1.3062599172142928e+00,
       3.5079976271904760e+00, -1.2914098159079053e+00,
       3.5449418314776766e+00, -1.2751321342609709e+00,
       3.5731118652989311e+00, -1.2482118353258673e+00,
       3.6011698862688073e+00, -1.2225601637462447e+00,
       3.6150991294028274e+00, -1.2028937267490170e+00,
       3.6077067411132058e+00, -1.1982595031777323e+00,
       3.6179170174560586e+00, -1.1964386049200673e+00,
       3.5972945571271469e+00, -1.1925700578350995e+00,
       3.5901963424289907e+00, -1.1863838676954626e+00,
       3.5502395160814482e+00, -1.1793898859329317e+00,
       3.5326363707934947e+00, -1.1819894566752944e+00,
       3.4842278396190798e+00, -1.1851806481858398e+00,
       3.4605318915055427e+00, -1.1910695871728705e+00,
       3.4536769295178695e+00, -1.2014493348533009e+00,
       3.4422607587937155e+00, -1.1981180520072126e+00,
       3.4347950902485986e+00, -1.1892035838801858e+00,
       3.4564499867640444e+00, -1.1855812232557670e+00,
       3.4948531289000537e+00, -1.1818065333381755e+00,
       3.5284201093253849e+00, -1.1861405251066077e+00,
       3.5429769870980756e+00, -1.1904643623382212e+00,
       3.5646448856822492e+00, -1.1933855037176808e+00,
       3.5830600206568413e+00, -1.2002129797133201e+00,
       3.5970985185242403e+00, -1.1971166568606777e+00,
       3.6079378317901352e+00, -1.2055389116313679e+00,
       3.6071823511581425e+00, -1.2216222295586467e+00,
       3.5925430361324175e+00, -1.2476942813797807e+00,
       3.5649112157757239e+00, -1.2753973355910280e+00,
       3.5215653481970279e+00, -1.2913119606713992e+00,
       3.5042969292303243e+00, -1.3030691483854540e+00,
       3.5080266679649386e+00, -1.3110256235254465e+00,
       3.5354822438453333e+00, -1.3162162040731940e+00,
       3.5659383698479834e+00, -1.3002769235363749e+00,
       3.5866294168519084e+00, -1.2708087715510761e+00,
       3.5964876121552751e+00, -1.2313606301706552e+00,
       3.5673844196012965e+00, -1.1687464945486017e+00,
       3.5436880080648638e+00, -1.1173466831684680e+00,
       3.4912164389721427e+00, -1.0630285367220247e+00,
       3.4307743966307083e+00, -1.0273240422326617e+00,
       3.3586107658217359e+00, -1.0026253202948692e+00,
       3.3615276229906410e+00, -9.9394660099701382e-01,
       3.4409180006042162e+00, -1.0218925719754524e+00,
       3.5132298067269851e+00, -1.0608499992326437e+00,
       3.5531696464448435e+00, -1.1097371355671801e+00,
       3.5767144592074822e+00, -1.1679611213732433e+00,
       3.5799059013002950e+00, -1.2181137853726594e+00,
       3.5867271506755816e+00, -1.2617959071588527e+00,
       3.5594522564329463e+00, -1.2877105490060323e+00,
       3.5387292381476931e+00, -1.3051153858176758e+00,
       3.5219791330901997e+00, -1.3103454373735197e+00,
       3.5061720784149424e+00, -1.3026580079330266e+00,
       3.5036775936942828e+00, -1.2895971778439030e+00,
       3.5468683961486382e+00, -1.2695009618378026e+00,
       3.5544281620030707e+00, -1.2439439716071528e+00,
       3.5745209149438635e+00, -1.2279101219439124e+00,
       3.5804265200506200e+00, -1.2181225209623798e+00,
       3.5804258551087331e+00, -1.2240480592221361e+00,
       3.5611209014773570e+00, -1.2228784867991453e+00,
       3.5492977011453459e+00, -1.2265096958121506e+00,
       3.5522204676020359e+00, -1.2265443838157308e+00,
       3.5361731804136940e+00, -1.2247594064104121e+00,
       3.5179125116490333e+00, -1.2271278396273577e+00,
       3.4824355124566972e+00, -1.2267179054053183e+00,
       3.4591622562116786e+00, -1.2292735923236837e+00,
       3.4477055685751066e+00, -1.2350455733434544e+00,
       3.4508435220847926e+00, -1.2341350322889346e+00,
       3.4381807197476952e+00, -1.2287150504535769e+00,
       3.4365386160749454e+00, -1.2236322389464482e+00,
       3.4664862966834065e+00, -1.2211186162556698e+00,
       3.4978361739423454e+00, -1.2201171042398888e+00,
       3.5193839219818499e+00, -1.2263475698894297e+00,
       3.5095411295015690e+00, -1.2205567976073655e+00,
       3.5294170579818327e+00, -1.2250756219779708e+00,
       3.5569041524055178e+00, -1.2256286792286535e+00,
       3.5748434724805729e+00, -1.2238523783263722e+00,
       3.5819328108173152e+00, -1.2359848372317486e+00,
       3.5579618295740887e+00, -1.2516724942039905e+00,
       3.5445447404495747e+00, -1.2700612312350485e+00,
       3.5224799390964221e+00, -1.2937665785608092e+00,
       3.5070492797490198e+00, -1.3070964304044208e+00,
       3.5060144460893379e+00, -1.3099667989609134e+00,
       3.5322118541543679e+00, -1.3163432891567739e+00,
       3.5582035381512052e+00, -1.3060778586667730e+00,
       3.5752961717458027e+00, -1.2816861074533215e+00,
       3.6068969953421579e+00, -1.2488167620821535e+00,
       3.5840726986874900e+00, -1.1916054883652774e+00,
       3.5673505880177170e+00, -1.1416888286399858e+00,
       3.5243822896543180e+00, -1.0825300720458857e+00,
       3.4539446967963676e+00, -1.0434621856156590e+00,
       3.3670139528853986e+00, -1.0086807145596874e+00,
       3.3824053460458998e+00, -1.0038419426985392e+00,
       3.4387580716298278e+00, -1.0308130905722654e+00,
       3.5200071855502633e+00, -1.0746019285150299e+00,
       3.5671712623404126e+00, -1.1326879011825326e+00,
       3.5824948756901076e+00, -1.1889764938635918e+00,
       3.5787542724802219e+00, -1.2308519541903826e+00,
       3.5837197792706372e+00, -1.2706833940634106e+00,
       3.5564421503484471e+00, -1.2927760787933509e+00,
       3.5368195171976713e+00, -1.3054750020814603e+00,
       3.5293991437408794e+00, -1.3136272382352663e+00,
       3.5017907907135934e+00, -1.3024973164829790e+00,
       3.5081303682299940e+00, -1.2949507916129617e+00,
       3.5204057853791815e+00, -1.2760029977076317e+00,
       3.5257117483524087e+00, -1.2600310370224914e+00,
       3.5393078360556345e+00, -1.2517460159714080e+00,
       3.5419665575088888e+00, -1.2485677364949315e+00,
       3.5508455533042733e+00, -1.2566733154401075e+00,
       3.5349029874250717e+00, -1.2608449694223454e+00,
       3.5173959324963664e+00, -1.2624534631156741e+00,
       3.5121787980101189e+00, -1.2644382227206428e+00,
       3.5052589317876501e+00, -1.2659730227230701e+00,
       3.4811004776974421e+00, -1.2638241304646802e+00,
       3.4458456440209400e+00, -1.2612020025206423e+00,
       3.4370744758207725e+00, -1.2635674155545098e+00,
       3.4437401986223635e+00, -1.2648463746389751e+00,
       3.4439531996601573e+00, -1.2620878450363890e+00,
       3.4349875685670819e+00, -1.2643896195563606e+00,
       3.4389876962077026e+00, -1.2659673637113580e+00,
       3.4729516865114154e+00, -1.2661918862183699e+00,
       3.4936804797527183e+00, -1.2661250845142040e+00,
       3.5052184054541158e+00, -1.2664185012222759e+00,
       3.5002508242688117e+00, -1.2640915268791406e+00,
       3.4977822253615223e+00, -1.2608354412768681e+00,
       3.5192648364323049e+00, -1.2546626871190742e+00,
       3.5219800664051317e+00, -1.2527335210816968e+00,
       3.5259111127610856e+00, -1.2544171681443026e+00,
       3.5187705220401102e+00, -1.2625118760168885e+00,
       3.5028343495457688e+00, -1.2751248828232271e+00,
       3.5056725184236970e+00, -1.2963750844313411e+00,
       3.5060808601366893e+00, -1.3056232766226896e+00,
       3.5049756629844331e+00, -1.3103301451569123e+00,
       3.5321397086675113e+00, -1.3174987093760249e+00,
       3.5611305128632678e+00, -1.3120098736771015e+00,
       3.5814868299790885e+00, -1.2912079999332366e+00,
       3.6022103284703619e+00, -1.2601658761608283e+00,
       3.5966723712952651e+00, -1.2144944361452583e+00,
       3.5784774103434227e+00, -1.1620584171704136e+00,
       3.5302850695762036e+00, -1.1003152004341663e+00,
       3.4672684512069032e+00, -1.0586230046517948e+00,
       3.4101398515007868e+00, -1.0212607951858221e+00,
       3.4144882431359846e+00, -1.0108051076341773e+00,
       3.4630028651581357e+00, -1.0431947475088712e+00,
       3.5365389252687844e+00, -1.0927786903978807e+00,
       3.5650261950163404e+00, -1.1494229253746411e+00,
       3.5834802773377312e+00, -1.2027880120700158e+00,
       3.5846947170712395e+00, -1.2458469091222713e+00,
       3.5746880870302520e+00, -1.2771120580597495e+00,
       3.5517571634108864e+00, -1.2986647642975910e+00,
       3.5417316519815776e+00, -1.3099807141905973e+00,
       3.5216034617447143e+00, -1.3176327504349943e+00,
       3.4915957248111753e+00, -1.3073599944875660e+00,
       3.4837046343072009e+00, -1.2991883950942844e+00,
       3.4848198014345009e+00, -1.2908214679679191e+00,
       3.4951375501415129e+00, -1.2850201224947562e+00,
       3.4921851686709124e+00, -1.2810276011923081e+00,
       3.4987649086478267e+00, -1.2811448835846684e+00,
       3.4971494698364993e+00, -1.2853619747099205e+00,
       3.4870767033731953e+00, -1.2915849771378061e+00,
       3.4989732849955577e+00, -1.2940508493322107e+00,
       3.4906591158892954e+00, -1.2902313765888727e+00,
       3.4913767268197957e+00, -1.2900192291010235e+00,
       3.4730682854502795e+00, -1.2842346683167878e+00,
       3.4426549052556465e+00, -1.2834163958183031e+00,
       3.4375558738033098e+00, -1.2748221813238849e+00,
       3.4466208310543904e+00, -1.2676952407126771e+00,
       3.4494031453396934e+00, -1.2669527223807706e+00,
       3.4303690293066502e+00, -1.2746110134903850e+00,
       3.4283664402232445e+00, -1.2805123271027228e+00,
       3.4536172958306603e+00, -1.2868798117077411e+00,
       3.4770834368367964e+00, -1.2903862685785423e+00,
       3.4784628007657812e+00, -1.2916820027667173e+00,
       3.4825778367809681e+00, -1.2944176889703860e+00,
       3.4782345670203414e+00, -1.2958053387509740e+00,
       3.4791226966977726e+00, -1.2941267722099175e+00,
       3.4769844389629276e+00, -1.2892465406955220e+00,
       3.4818636892173331e+00, -1.2864776218900027e+00,
       3.4723409298085257e+00, -1.2815879586205203e+00,
       3.4670954719267670e+00, -1.2879994435943445e+00,
       3.4729227736416726e+00, -1.2975684317128908e+00,
       3.4791868744316581e+00, -1.3047993328316931e+00,
       3.5086341084122177e+00, -1.3131179234284445e+00,
       3.5270652890746277e+00, -1.3175890473342169e+00,
       3.5472956577217807e+00, -1.3159228787673600e+00,
       3.5846044508355419e+00, -1.2987469521777346e+00,
       3.5993834316831625e+00, -1.2719416746182568e+00,
       3.6040601482377177e+00, -1.2307875422490413e+00,
       3.5768443243647843e+00, -1.1780316434507132e+00,
       3.5460967813587629e+00, -1.1207788257832996e+00,
       3.4837159550061796e+00, -1.0695857404679199e+00,
       3.4244135738471608e+00, -1.0323829726647387e+00,
       3.4353511983525791e+00, -1.0168722771021386e+00,
       3.4663838062486527e+00, -1.0552777432304716e+00,
       3.5476496492724645e+00, -1.1120102456034593e+00,
       3.5730561088564325e+00, -1.1663639270669681e+00,
       3.5766438513626237e+00, -1.2171564112476907e+00,
       3.5851581031117270e+00, -1.2588242091942989e+00,
       3.5705740175799399e+00, -1.2866018864152047e+00,
       3.5421171489507106e+00, -1.3062331410486210e+00,
       3.5247213256740539e+00, -1.3202567502372735e+00,
       3.4965368189477024e+00, -1.3206500686060405e+00,
       3.4738663404991410e+00, -1.3144091785729213e+00,
       3.4506525117046674e+00, -1.3031118581189127e+00,
       3.4408578898772366e+00, -1.2994732185843840e+00,
       3.4315000816641881e+00, -1.2939797413959691e+00,
       3.4298569802102161e+00, -1.2975247122853364e+00,
       3.4354257180055905e+00, -1.3019876169329077e+00,
       3.4505626901017958e+00, -1.3077696526403446e+00,
       3.4491824017242472e+00, -1.3061976264238968e+00,
       3.4702076064063734e+00, -1.3028097846278850e+00,
       3.4837787737440076e+00, -1.2946049207535675e+00,
       3.4974734904943046e+00, -1.2847388560018627e+00,
       3.4864982282626049e+00, -1.2760010221759372e+00,
       3.4476389701058396e+00, -1.2693934516856964e+00,
       3.4416419812987229e+00, -1.2567495155641144e+00,
       3.4733298648240076e+00, -1.2519451797509293e+00,
       3.4741826837921064e+00, -1.2487106509112025e+00,
       3.4531581523931889e+00, -1.2587714511883230e+00,
       3.4414763546324370e+00, -1.2640939461832945e+00,
       3.4652535562372990e+00, -1.2701931331307639e+00,
       3.4748829806318771e+00, -1.2802493235397747e+00,
       3.4677253902139422e+00, -1.2946137556308706e+00,
       3.4504475313526277e+00, -1.3045857192330559e+00,
       3.4452808409569475e+00, -1.3113003211886405e+00,
       3.4316714380104636e+00, -1.3152986305177765e+00,
       3.4273138734074542e+00, -1.3139021357900633e+00,
       3.4307485240691142e+00, -1.3091017286722435e+00,
       3.4269676237626605e+00, -1.2989170490626956e+00,
       3.4347335383288460e+00, -1.3031229667016362e+00,
       3.4439282269971589e+00, -1.3031229154531403e+00,
       3.4641513760055131e+00, -1.3161559153711497e+00,
       3.4826759917201824e+00, -1.3207025805502159e+00,
       3.5105070284579036e+00, -1.3236110791074769e+00,
       3.5334358780866024e+00, -1.3167066813524164e+00,
       3.5615738153219016e+00, -1.3039527564447790e+00,
       3.5858624259837137e+00, -1.2823202406638872e+00,
       3.6016810800169727e+00, -1.2471093505103066e+00,
       3.5722615456133506e+00, -1.1927741595386119e+00,
       3.5497122570522213e+00, -1.1399618025744818e+00,
       3.4927705211737532e+00, -1.0790824697173584e+00,
       3.4404916773853853e+00, -1.0380957603141110e+00,
       3.4533659520966160e+00, -1.0245543401760919e+00,
       3.4788246172419353e+00, -1.0674028095621686e+00,
       3.5434747484250209e+00, -1.1289931523908150e+00,
       3.5693676063772286e+00, -1.1855568221364217e+00,
       3.5696908482194427e+00, -1.2315302322260788e+00,
       3.5730181472068616e+00, -1.2700508522704597e+00,
       3.5492377606414376e+00, -1.2973630894213983e+00,
       3.5165171728626179e+00, -1.3116291449881985e+00,
       3.4965313791043853e+00, -1.3284123472256411e+00,
       3.4564204639468534e+00, -1.3262590491596389e+00,
       3.4319996065586551e+00, -1.3217314755405520e+00,
       3.4103335961767276e+00, -1.3131375198730668e+00,
       3.3910840225550438e+00, -1.3062151839311327e+00,
       3.3846913570899804e+00, -1.3045414083090896e+00,
       3.3886161960043673e+00, -1.3090232396611992e+00,
       3.4005872885999473e+00, -1.3113525330780016e+00,
       3.4239070014611319e+00, -1.3143339133383720e+00,
       3.4422542979234234e+00, -1.3101220380448850e+00,
       3.4816236043469670e+00, -1.2953502854211754e+00,
       3.5068429933549110e+00, -1.2782835151798093e+00,
       3.5349317131119733e+00, -1.2577269729107374e+00,
       3.5375289084204171e+00, -1.2457148440010117e+00,
       3.5068657818866349e+00, -1.2353160048825571e+00,
       3.5049395470924209e+00, -1.2309913482401384e+00,
       3.5397837680928070e+00, -1.2329836047423108e+00,
       3.5473404342471446e+00, -1.2294459618346354e+00,
       3.5186668508401810e+00, -1.2322291736153910e+00,
       3.4989558421843494e+00, -1.2304207541336505e+00,
       3.5220704283934512e+00, -1.2359369314207771e+00,
       3.5185309346091667e+00, -1.2487932518311196e+00,
       3.4872029632353208e+00, -1.2725244596516032e+00,
       3.4665720050455633e+00, -1.2957037603872035e+00,
       3.4410099660677247e+00, -1.3098855813218215e+00,
       3.4200468733795661e+00, -1.3224107146164379e+00,
       3.4000906838872176e+00, -1.3237880527905503e+00,
       3.3950535041225640e+00, -1.3221499821140852e+00,
       3.3895491331392136e+00, -1.3134028567565528e+00,
       3.3887570087761332e+00, -1.3140485937193971e+00,
       3.4004781486111839e+00, -1.3139774884757212e+00,
       3.4265672460312566e+00, -1.3221057219159014e+00,
       3.4540440467675158e+00, -1.3316947729477522e+00,
       3.4791551816107384e+00, -1.3278086530413145e+00,
       3.5109162456690721e+00, -1.3243337700887716e+00,
       3.5393680466749111e+00, -1.3120489433524261e+00,
       3.5629026920166931e+00, -1.2900384004122323e+00,
       3.5820525948433080e+00, -1.2600417041615239e+00,
       3.5746963248999748e+00, -1.2078401661569469e+00,
       3.5449634887667139e+00, -1.1526139127973407e+00,
       3.5018017631716347e+00, -1.0903152026610392e+00,
       3.4543436175830098e+00, -1.0475842881902107e+00,
       3.4556629289782648e+00, -1.0374341620956495e+00,
       3.5007118584311510e+00, -1.0823209458951804e+00,
       3.5376600427245486e+00, -1.1429679374538215e+00,
       3.5589069245964602e+00, -1.2028165896871856e+00,
       3.5479700815495998e+00, -1.2470901574230810e+00,
       3.5410527822668731e+00, -1.2831884306345964e+00,
       3.5155097048081378e+00, -1.3070732499394788e+00,
       3.4813892691075403e+00, -1.3279643784259587e+00,
       3.4475431337145546e+00, -1.3407810590865032e+00,
       3.4078434508796143e+00, -1.3393653997513566e+00,
       3.3817763016496194e+00, -1.3343067471035879e+00,
       3.3631242257746337e+00, -1.3197920350103225e+00,
       3.3455279965806581e+00, -1.3150605528306250e+00,
       3.3562613823129923e+00, -1.3161516368464403e+00,
       3.3723690117998175e+00, -1.3171339537887043e+00,
       3.3875574806525668e+00, -1.3181487407256711e+00,
       3.4185378388470689e+00, -1.3149353642958648e+00,
       3.4616023119281483e+00, -1.3042442004283472e+00,
       3.5171825656449052e+00, -1.2876272651102798e+00,
       3.5815545999801706e+00, -1.2572886139570343e+00,
       3.6235923092114586e+00, -1.2236796670748140e+00,
       3.6244188154535104e+00, -1.2031719157274616e+00,
       3.5987637102280297e+00, -1.2086736978108676e+00,
       3.5916038135902868e+00, -1.2222356022593392e+00,
       3.6198020742101753e+00, -1.2305565666738929e+00,
       3.6256251344139421e+00, -1.2312511370307824e+00,
       3.5883092709386806e+00, -1.2220996802227719e+00,
       3.5880033561367908e+00, -1.2145186446899534e+00,
       3.5966666155758524e+00, -1.2043419187239017e+00,
       3.5965835409774995e+00, -1.2143464134449191e+00,
       3.5638640107818285e+00, -1.2486535783878125e+00,
       3.5135076493495339e+00, -1.2826998772131226e+00,
       3.4718866732403053e+00, -1.3099496452863020e+00,
       3.4252805461705962e+00, -1.3206313330583019e+00,
       3.3921873677132188e+00, -1.3264699197579679e+00,
       3.3774113094958782e+00, -1.3264922877722343e+00,
       3.3641150302166207e+00, -1.3225875406625389e+00,
       3.3382521309961066e+00, -1.3196864470909366e+00,
       3.3525930995245141e+00, -1.3264229532395699e+00,
       3.3765254557159357e+00, -1.3314076357451285e+00,
       3.3985370603325982e+00, -1.3408454859994055e+00,
       3.4333358097255866e+00, -1.3425604710507173e+00,
       3.4663461420974793e+00, -1.3368169797049869e+00,
       3.5094618295659732e+00, -1.3232438674413574e+00,
       3.5405349659504814e+00, -1.3018735696798664e+00,
       3.5586851958764769e+00, -1.2710989293142849e+00,
       3.5640169015538561e+00, -1.2241107784844820e+00,
       3.5421000199692370e+00, -1.1689250360687176e+00,
       3.5074257005092342e+00, -1.1068567856957918e+00,
       3.4611525420884885e+00, -1.0553510605090972e+00,
       3.4675407164038257e+00, -1.0512489339799811e+00,
       3.5180006803288628e+00, -1.0994688337251115e+00,
       3.5387375093359634e+00, -1.1618811905843229e+00,
       3.5331976505171778e+00, -1.2159371825654335e+00,
       3.5160916798178175e+00, -1.2614276475425541e+00,
       3.5024322048816008e+00, -1.2952687878937081e+00,
       3.4724510027878086e+00, -1.3212426547160254e+00,
       3.4366673216601069e+00, -1.3422429513656400e+00,
       3.3919476211862531e+00, -1.3525084616159011e+00,
       3.3507152820135002e+00, -1.3536205081787287e+00,
       3.3187844203712351e+00, -1.3470197686487773e+00,
       3.3018206282535241e+00, -1.3359593042306126e+00,
       3.3077423139920406e+00, -1.3319545546643590e+00,
       3.3303970784516919e+00, -1.3314958692639713e+00,
       3.3669929742303970e+00, -1.3303338298716192e+00,
       3.4005179795228120e+00, -1.3282507459727739e+00,
       3.4516210836621073e+00, -1.3186935735039944e+00,
       3.5229976994094958e+00, -1.3050131426866092e+00,
       3.5990702825309140e+00, -1.2803033536673609e+00,
       3.6490509627830017e+00, -1.2370030961610672e+00,
       3.6934155418392067e+00, -1.1900258841398523e+00,
       3.6775731598630501e+00, -1.1721891703146567e+00,
       3.6369719980550883e+00, -1.2030901510380196e+00,
       3.6059361966261507e+00, -1.2305840980397975e+00,
       3.5903685931331335e+00, -1.2401799679403889e+00,
       3.5804246370089916e+00, -1.2412374406562605e+00,
       3.5703031554479820e+00, -1.2323038649491953e+00,
       3.6076960378301930e+00, -1.2127786826396278e+00,
       3.6317278320642505e+00, -1.1855798838028024e+00,
       3.6537107343635982e+00, -1.1920767730938902e+00,
       3.6248374968882939e+00, -1.2300954664225776e+00,
       3.5791731897331029e+00, -1.2711385288282977e+00,
       3.5178034099992699e+00, -1.3009610610303526e+00,
       3.4644219671210537e+00, -1.3212800378962690e+00,
       3.4145515093616288e+00, -1.3307068321568025e+00,
       3.3761366595036302e+00, -1.3346556692858760e+00,
       3.3278160122607203e+00, -1.3304603153306143e+00,
       3.3047967981264863e+00, -1.3336966572995532e+00,
       3.2972771193422341e+00, -1.3375546475837983e+00,
       3.3125810266633557e+00, -1.3456796138447926e+00,
       3.3365475562211571e+00, -1.3524008786426034e+00,
       3.3688248404040619e+00, -1.3556740772523506e+00,
       3.4128728739124399e+00, -1.3487078496154923e+00,
       3.4655263367588929e+00, -1.3356933595106364e+00,
       3.5043472970341996e+00, -1.3162132501738466e+00,
       3.5345186443025001e+00, -1.2852785218396918e+00,
       3.5492998802127054e+00, -1.2393033403944211e+00,
       3.5441205908443942e+00, -1.1838392721794915e+00,
       3.5229574155749024e+00, -1.1256045604567542e+00,
       3.4784307889780672e+00, -1.0717224004748054e+00,
       3.4764207280734287e+00, -1.0618204670877494e+00,
       3.5187268118817023e+00, -1.1170166012639258e+00,
       3.5376155126058442e+00, -1.1816315586672190e+00,
       3.5125945989572878e+00, -1.2321660349583705e+00,
       3.4801678203146285e+00, -1.2752716731868650e+00,
       3.4644468751933526e+00, -1.3103600474623085e+00,
       3.4242047435961052e+00, -1.3353977829716221e+00,
       3.3757720724579370e+00, -1.3583146719592776e+00,
       3.3258536880591474e+00, -1.3685669940893144e+00,
       3.2834658768216780e+00, -1.3679806596895427e+00,
       3.2557903552468868e+00, -1.3619634186324470e+00,
       3.2437233454873069e+00, -1.3539066247848477e+00,
       3.2445090452419709e+00, -1.3422243765756217e+00,
       3.2774030163670789e+00, -1.3430908925222080e+00,
       3.3376507576751346e+00, -1.3390217100668247e+00,
       3.4056634826266929e+00, -1.3371600257888212e+00,
       3.4751279596758171e+00, -1.3223676577829080e+00,
       3.5664894929129729e+00, -1.3081049675107161e+00,
       3.6320668591229222e+00, -1.2842540943007847e+00,
       3.6400866039429070e+00, -1.2515678971182376e+00,
       3.6436587021625328e+00, -1.2073188578411682e+00,
       3.6185992388200474e+00, -1.1918667250973476e+00,
       3.5698586265506753e+00, -1.2252034278073718e+00,
       3.4940444193961691e+00, -1.2601837019716844e+00,
       3.4438565191039752e+00, -1.2680271524503917e+00,
       3.4277670366323534e+00, -1.2661975459023731e+00,
       3.4637872070090068e+00, -1.2588608481149246e+00,
       3.5365710429924109e+00, -1.2301275439658341e+00,
       3.6032550698177301e+00, -1.1947746867795459e+00,
       3.6382457667589119e+00, -1.2038338727727751e+00,
       3.6451458120579914e+00, -1.2508790988227074e+00,
       3.6175700399532356e+00, -1.2834415432502391e+00,
       3.5634837033625173e+00, -1.3014205319089316e+00,
       3.4924615884993591e+00, -1.3190726420925862e+00,
       3.4212267295596033e+00, -1.3327618820842382e+00,
       3.3487565551485106e+00, -1.3393598335328751e+00,
       3.2884132295906308e+00, -1.3416568463340772e+00,
       3.2525284564943830e+00, -1.3447093900235663e+00,
       3.2419018929948873e+00, -1.3525612315504170e+00,
       3.2492276574386856e+00, -1.3617025451836569e+00,
       3.2735827710038268e+00, -1.3696391067985838e+00,
       3.3051708258788071e+00, -1.3692900393702516e+00,
       3.3574178853648200e+00, -1.3631960228333120e+00,
       3.4192464441495969e+00, -1.3520494300172909e+00,
       3.4532280874343999e+00, -1.3268774903917715e+00,
       3.4915740027473756e+00, -1.2985864025174234e+00,
       3.5267724430960503e+00, -1.2577520350795470e+00,
       3.5461937738616500e+00, -1.2002499662862709e+00,
       3.5272385055821203e+00, -1.1419120582108084e+00,
       3.5029423684300944e+00, -1.0838458902032084e+00,
       3.4889041538558829e+00, -1.0782543462641498e+00,
       3.5169865174985149e+00, -1.1356769135602653e+00,
       3.5112538788662628e+00, -1.1950535510060423e+00,
       3.4880201136962552e+00, -1.2470833929128207e+00,
       3.4494022383334917e+00, -1.2923915799763270e+00,
       3.4241560561738367e+00, -1.3278013964046587e+00,
       3.3759975770365056e+00, -1.3513038750777655e+00,
       3.3180446171769553e+00, -1.3761188599656864e+00,
       3.2624824371634653e+00, -1.3855866385178550e+00,
       3.2193519753586815e+00, -1.3867011452050204e+00,
       3.1873653697289663e+00, -1.3761169908149253e+00,
       3.1781536587977359e+00, -1.3664905597499222e+00,
       3.1796154342288099e+00, -1.3558742894815574e+00,
       3.2120728320635021e+00, -1.3477548141196480e+00,
       3.2789748154482607e+00, -1.3471962954652650e+00,
       3.3664630962731326e+00, -1.3399199605444676e+00,
       3.4558165782213148e+00, -1.3234227365918989e+00,
       3.5543010412948992e+00, -1.3125963398107587e+00,
       3.6025141432002377e+00, -1.3003848230851958e+00,
       3.5680978656791744e+00, -1.2812874531853682e+00,
       3.5479602159469463e+00, -1.2571192067582109e+00,
       3.5257557811033142e+00, -1.2470533397607986e+00,
       3.4603405259208260e+00, -1.2739867888155969e+00,
       3.3519636201976972e+00, -1.2988756603906539e+00,
       3.2785456913378579e+00, -1.3064656075229375e+00,
       3.2628507966904250e+00, -1.3064217252786403e+00,
       3.3030951189518012e+00, -1.2937272299921756e+00,
       3.4020909040403344e+00, -1.2718519418054413e+00,
       3.4842441189682103e+00, -1.2456571209876262e+00,
       3.5430703342690522e+00, -1.2557238032453668e+00,
       3.5777729993184684e+00, -1.2847304405643807e+00,
       3.5976031063469911e+00, -1.3029213213594968e+00,
       3.5736735772492239e+00, -1.3128782435508237e+00,
       3.4890114121052376e+00, -1.3258759328797693e+00,
       3.3901501435783046e+00, -1.3381484351179429e+00,
       3.2912727168691696e+00, -1.3443752168832075e+00,
       3.2234415646885353e+00, -1.3509841326160927e+00,
       3.1908007678405070e+00, -1.3562985190815826e+00,
       3.1739602004979117e+00, -1.3653784407636977e+00,
       3.1843192581049995e+00, -1.3760837030392561e+00,
       3.2135391813822651e+00, -1.3861940010409091e+00,
       3.2430553301310745e+00, -1.3846792555198493e+00,
       3.2997585499938320e+00, -1.3780172192273790e+00,
       3.3563461130088594e+00, -1.3654446853387443e+00,
       3.4063103078141443e+00, -1.3405252831620134e+00,
       3.4489174017151294e+00, -1.3112281572573308e+00,
       3.4966661144444404e+00, -1.2708216613396075e+00,
       3.5240370006291237e+00, -1.2158569182632408e+00,
       3.5241729093994030e+00, -1.1570606141354831e+00,
       3.5187989559952424e+00, -1.0991794340152603e+00,
       3.4886859552654230e+00, -1.0900591484301279e+00,
       3.5024381259914499e+00, -1.1528670283977998e+00,
       3.4863660032471664e+00, -1.2087213575229270e+00,
       3.4558187456713800e+00, -1.2610644028221576e+00,
       3.4142764795628189e+00, -1.3062411687829960e+00,
       3.3769245559386114e+00, -1.3423587501410676e+00,
       3.3180873722110031e+00, -1.3653929824826838e+00,
       3.2644722062436338e+00, -1.3912131989139294e+00,
       3.2059844612879687e+00, -1.4013748421166501e+00,
       3.1620606900376034e+00, -1.4016005397614428e+00,
       3.1308695880334243e+00, -1.3951553666368737e+00,
       3.1164415746845604e+00, -1.3840522933675508e+00,
       3.1271301177690378e+00, -1.3722737506639151e+00,
       3.1559452247715152e+00, -1.3623651994000376e+00,
       3.2152199386925471e+00, -1.3558527083120520e+00,
       3.2943482387159588e+00, -1.3441864104091361e+00,
       3.4051532762708607e+00, -1.3339351370213766e+00,
       3.5124736138355948e+00, -1.3274878302237476e+00,
       3.5642243480088083e+00, -1.3264486747463708e+00,
       3.5199161726151753e+00, -1.3215987879700841e+00,
       3.4978442410552386e+00, -1.3120680661450610e+00,
       3.4539621072472677e+00, -1.3086613234463749e+00,
       3.3485795666914919e+00, -1.3211903947962829e+00,
       3.2215266390229598e+00, -1.3363887359331235e+00,
       3.1577067921066635e+00, -1.3416131223193504e+00,
       3.1543833777906745e+00, -1.3395110001338879e+00,
       3.1931088206992513e+00, -1.3326966573570580e+00,
       3.3076228859785175e+00, -1.3224051957695431e+00,
       3.4124470203280177e+00, -1.3074487184656456e+00,
       3.4849314137347545e+00, -1.3117035904456684e+00,
       3.5352412611399906e+00, -1.3230950752994730e+00,
       3.5655171402365111e+00, -1.3298861908036355e+00,
       3.5415870294565801e+00, -1.3303668720059045e+00,
       3.4363465751670916e+00, -1.3345508946684534e+00,
       3.3123916417108670e+00, -1.3422148296927703e+00,
       3.2183854132732237e+00, -1.3539205260664775e+00,
       3.1616439206519344e+00, -1.3598623236742429e+00,
       3.1284260279040041e+00, -1.3699952196336287e+00,
       3.1142323950898430e+00, -1.3814223721392918e+00,
       3.1228891334158710e+00, -1.3905128633261092e+00,
       3.1475454049549487e+00, -1.4006100156552224e+00,
       3.1823489750762231e+00, -1.4014276535457444e+00,
       3.2378834326502988e+00, -1.3952146489655806e+00,
       3.3019538373478778e+00, -1.3812853752505976e+00,
       3.3590164685441648e+00, -1.3559966329747044e+00,
       3.4047852325248753e+00, -1.3245767045710790e+00,
       3.4530558348054146e+00, -1.2803777232334439e+00,
       3.4979126359998673e+00, -1.2308765621709954e+00,
       3.5087896692531708e+00, -1.1685411142319331e+00,
       3.5099039550189319e+00, -1.1066751666703891e+00,
       3.4870776494663964e+00, -1.0969375915363271e+00,
       3.4832181664580992e+00, -1.1622501467859445e+00,
       3.4655301924512529e+00, -1.2230828795941053e+00,
       3.4177225331459673e+00, -1.2737104016290570e+00,
       3.3695079362532598e+00, -1.3148149269121403e+00,
       3.3296186027553891e+00, -1.3517667678839074e+00,
       3.2685047662762168e+00, -1.3777900944046166e+00,
       3.2091079391913238e+00, -1.4008656035602691e+00,
       3.1518136181611811e+00, -1.4091185726447879e+00,
       3.1052433049483130e+00, -1.4098605381399696e+00,
       3.0775516293806411e+00, -1.4093061371734930e+00,
       3.0664041849086794e+00, -1.3981904974874233e+00,
       3.0784577152154480e+00, -1.3893545963825800e+00,
       3.1009829229740169e+00, -1.3767493226663592e+00,
       3.1482602022030686e+00, -1.3679500046135566e+00,
       3.2150418797666118e+00, -1.3576872861203599e+00,
       3.3143224186319720e+00, -1.3463435170115570e+00,
       3.4374844913271625e+00, -1.3440586716565963e+00,
       3.5045748755929553e+00, -1.3514374431912231e+00,
       3.4922359985885900e+00, -1.3515537572465002e+00,
       3.4743769210069617e+00, -1.3495485177984863e+00,
       3.4236167251568896e+00, -1.3532307635297924e+00,
       3.3033407717567784e+00, -1.3627286426542724e+00,
       3.1747054405592139e+00, -1.3717902376265734e+00,
       3.1166020047262863e+00, -1.3765926236074695e+00,
       3.1125389884195727e+00, -1.3777056616898455e+00,
       3.1524834728930324e+00, -1.3707609639146150e+00,
       3.2689841689335277e+00, -1.3606598678821475e+00,
       3.3839655589579354e+00, -1.3449096030915575e+00,
       3.4618476778149967e+00, -1.3430458757848702e+00,
       3.5012611361149806e+00, -1.3486697385414645e+00,
       3.5114210869651910e+00, -1.3484042078107559e+00,
       3.4579096456348686e+00, -1.3445252166386288e+00,
       3.3413510805693130e+00, -1.3462665824437314e+00,
       3.2267186245355548e+00, -1.3544965574841936e+00,
       3.1506337647711642e+00, -1.3651144541068241e+00,
       3.1077964275505776e+00, -1.3750421352147097e+00,
       3.0743458096711369e+00, -1.3850102323014741e+00,
       3.0640698697097468e+00, -1.3961138943673934e+00,
       3.0708591654844271e+00, -1.4041688496803197e+00,
       3.0930744922396651e+00, -1.4105340830487021e+00,
       3.1320472586014159e+00, -1.4125673576598354e+00,
       3.1854456176678756e+00, -1.4058158858237244e+00,
       3.2526676476004792e+00, -1.3922275792278849e+00,
       3.3130085138668988e+00, -1.3681411288156708e+00,
       3.3641393746067076e+00, -1.3359885331255674e+00,
       3.4092711455235771e+00, -1.2907588709416353e+00,
       3.4748893388771482e+00, -1.2449012435774451e+00,
       3.4957071213299162e+00, -1.1821526733155692e+00,
       3.5012868149959933e+00, -1.1205995113732321e+00,
       3.4855656269255273e+00, -1.1066268742205121e+00,
       3.4666847335644682e+00, -1.1715000293377815e+00,
       3.4383554023118199e+00, -1.2349457717616941e+00,
       3.3856402549434064e+00, -1.2858045202728781e+00,
       3.3313273316024343e+00, -1.3240767376807383e+00,
       3.2849070653866415e+00, -1.3553541480727507e+00,
       3.2255035976465911e+00, -1.3885429010957706e+00,
       3.1637991192153176e+00, -1.4084967651382114e+00,
       3.1026045285242221e+00, -1.4158676821862928e+00,
       3.0619853309524365e+00, -1.4192265592801536e+00,
       3.0329085186102271e+00, -1.4150057240086868e+00,
       3.0259239241283322e+00, -1.4079835803117147e+00,
       3.0346736574120010e+00, -1.4014986381827363e+00,
       3.0548510207143269e+00, -1.3928524193153686e+00,
       3.0900372144123884e+00, -1.3812831388238349e+00,
       3.1466571858509509e+00, -1.3715526273828369e+00,
       3.2319227993116417e+00, -1.3648831381147297e+00,
       3.3440192817493806e+00, -1.3644865076156047e+00,
       3.4317024379676866e+00, -1.3636717389062381e+00,
       3.4577291867922417e+00, -1.3602047520904474e+00,
       3.4414278173119466e+00, -1.3641671153968367e+00,
       3.3930618317658752e+00, -1.3777908429362080e+00,
       3.2791883470152539e+00, -1.3911930651727566e+00,
       3.1601067118361890e+00, -1.3997734388398566e+00,
       3.0979402048488747e+00, -1.4072936593626257e+00,
       3.0900948100968955e+00, -1.4067685507463839e+00,
       3.1438764554690333e+00, -1.3997786799837149e+00,
       3.2565606820063131e+00, -1.3855082585709861e+00,
       3.3632519312377673e+00, -1.3708993461329231e+00,
       3.4324540201803129e+00, -1.3617738990681409e+00,
       3.4655166516321079e+00, -1.3595531419356326e+00,
       3.4479392229433281e+00, -1.3594500848792590e+00,
       3.3634681440500613e+00, -1.3586141956326918e+00,
       3.2463661762222298e+00, -1.3608193929271331e+00,
       3.1508479709195583e+00, -1.3691364551679268e+00,
       3.0958176432815114e+00, -1.3806600803570090e+00,
       3.0520489600399379e+00, -1.3870977859780653e+00,
       3.0346611548100362e+00, -1.3966662210023690e+00,
       3.0243374426111682e+00, -1.4065539505589635e+00,
       3.0304623424874881e+00, -1.4124655413584157e+00,
       3.0479160436210977e+00, -1.4172264498140545e+00,
       3.0879945060379956e+00, -1.4192192877691587e+00,
       3.1384137086884349e+00, -1.4122047161621440e+00,
       3.2070038317543155e+00, -1.4005645259224722e+00,
       3.2691114912557890e+00, -1.3758573250356065e+00,
       3.3243996591123088e+00, -1.3442841281783418e+00,
       3.3784406216187097e+00, -1.3040132920409360e+00,
       3.4390802415324737e+00, -1.2586280093729527e+00,
       3.4832882763574498e+00, -1.1944134894981693e+00,
       3.5009738890730420e+00, -1.1300658344209884e+00,
       3.4766396165059112e+00, -1.1131027991700853e+00,
       3.4439607534216266e+00, -1.1752696836115815e+00,
       3.4098589957463665e+00, -1.2414621506232231e+00,
       3.3557463421505096e+00, -1.2914581374524114e+00,
       3.2956754177515455e+00, -1.3283284170126375e+00,
       3.2470319931799456e+00, -1.3626257921400835e+00,
       3.1895604051342294e+00, -1.3949737335171133e+00,
       3.1310416673874215e+00, -1.4143983002524356e+00,
       3.0711280588070595e+00, -1.4217643190713758e+00,
       3.0331172984216153e+00, -1.4240680257941700e+00,
       3.0136162132486688e+00, -1.4235622671486388e+00,
       3.0106962012730718e+00, -1.4194922568370629e+00,
       3.0119111944965904e+00, -1.4100459924820918e+00,
       3.0275346993710874e+00, -1.4023215025825426e+00,
       3.0479497101299606e+00, -1.3942134832142565e+00,
       3.0869944657698274e+00, -1.3855656426536187e+00,
       3.1625487301112072e+00, -1.3797766672168914e+00,
       3.2640112189035242e+00, -1.3806088959205989e+00,
       3.3602380272540948e+00, -1.3751072135347298e+00,
       3.4134589484143163e+00, -1.3709285297404556e+00,
       3.4167750596292183e+00, -1.3747607816469634e+00,
       3.3712399484595443e+00, -1.3879622511064467e+00,
       3.2733561408722305e+00, -1.4075924530505475e+00,
       3.1597571652034055e+00, -1.4190297668052307e+00,
       3.0803110843620769e+00, -1.4209714140313039e+00,
       3.0752919130413430e+00, -1.4221411433803319e+00,
       3.1432884943828392e+00, -1.4211993723857270e+00,
       3.2565856559170063e+00, -1.4076088427377873e+00,
       3.3433012625933198e+00, -1.3863670034968167e+00,
       3.4096798010936467e+00, -1.3726295386561518e+00,
       3.4220365300950748e+00, -1.3685938312319772e+00,
       3.3757388263531101e+00, -1.3702987526753643e+00,
       3.2927482638124563e+00, -1.3771787336944212e+00,
       3.1840066910180318e+00, -1.3778955861615514e+00,
       3.0981156250668920e+00, -1.3823898310390315e+00,
       3.0516508194922380e+00, -1.3901281373006056e+00,
       3.0277264116966531e+00, -1.3969124208138286e+00,
       3.0124951089810823e+00, -1.4059365862526196e+00,
       3.0095574898868098e+00, -1.4163974107363331e+00,
       3.0112447632292754e+00, -1.4217107940298277e+00,
       3.0245514091184460e+00, -1.4247046600370841e+00,
       3.0602258847158414e+00, -1.4233620511109417e+00,
       3.1098412185275404e+00, -1.4180611446573612e+00,
       3.1770585816151091e+00, -1.4083804975440799e+00,
       3.2333812075146837e+00, -1.3829007816645260e+00,
       3.2902865108747643e+00, -1.3504437211919533e+00,
       3.3493647369224218e+00, -1.3098859041570989e+00,
       3.4097952003132779e+00, -1.2638818246863024e+00,
       3.4513264026302295e+00, -1.2021833083836180e+00,
       3.4837426729104450e+00, -1.1350597680155783e+00,
       3.4704170179406000e+00, -1.1169149665074625e+00,
       3.4205222380764440e+00, -1.1780209261701087e+00,
       3.3909651131042096e+00, -1.2467498230895757e+00,
       3.3352618279852710e+00, -1.2949941213405478e+00,
       3.2696525805980343e+00, -1.3314095424989092e+00,
       3.2237644505387490e+00, -1.3663712184996770e+00,
       3.1637179332325180e+00, -1.3981095619639987e+00,
       3.1049542234469736e+00, -1.4171539374454398e+00,
       3.0489891764035266e+00, -1.4236221341004365e+00,
       3.0225303875032670e+00, -1.4267283279868204e+00,
       3.0106084796616552e+00, -1.4258529800225663e+00,
       3.0142842512346766e+00, -1.4247417198359253e+00,
       3.0153608149783624e+00, -1.4163381583992520e+00,
       3.0270016192549001e+00, -1.4123624362181983e+00,
       3.0369906201178503e+00, -1.4043460073780178e+00,
       3.0719572664421015e+00, -1.4009040002257853e+00,
       3.1137178024855547e+00, -1.3945696307527664e+00,
       3.2021655283113697e+00, -1.3893758035754316e+00,
       3.3069665972644446e+00, -1.3887071944652851e+00,
       3.3624793049017745e+00, -1.3817770472900810e+00,
       3.3883754898241789e+00, -1.3852504821486173e+00,
       3.3524640005548494e+00, -1.3973395638043764e+00,
       3.2684852318785813e+00, -1.4159414537697825e+00,
       3.1616069405139648e+00, -1.4289181092369254e+00,
       3.0785803707412116e+00, -1.4305486141258978e+00,
       3.0753718416822213e+00, -1.4308641995973079e+00,
       3.1495953580741931e+00, -1.4287709864512379e+00,
       3.2541271143985440e+00, -1.4150892953750878e+00,
       3.3334423915395055e+00, -1.3972910304937933e+00,
       3.3837150294820675e+00, -1.3831675054669990e+00,
       3.3761290122082595e+00, -1.3794941273533212e+00,
       3.3187899382673187e+00, -1.3789184071311640e+00,
       3.2235555142338082e+00, -1.3826441933695690e+00,
       3.1335668612293288e+00, -1.3900879429990627e+00,
       3.0756305436102234e+00, -1.3945248010176101e+00,
       3.0371402537779524e+00, -1.3982523814578542e+00,
       3.0311852087040032e+00, -1.4104217462602013e+00,
       3.0241110640758100e+00, -1.4177587961539084e+00,
       3.0168089961675739e+00, -1.4223380369152492e+00,
       3.0095830712310061e+00, -1.4252751574050166e+00,
       3.0165274564724616e+00, -1.4249176731750468e+00,
       3.0452931323904089e+00, -1.4245780026707111e+00,
       3.0882829066795341e+00, -1.4208652767751411e+00,
       3.1516249793574875e+00, -1.4092445324853500e+00,
       3.2155038038348689e+00, -1.3844174912479608e+00,
       3.2708075918210526e+00, -1.3520519487155429e+00,
       3.3304144735618930e+00, -1.3131489738372260e+00,
       3.3869639291712930e+00, -1.2676824914272047e+00,
       3.4320319625112892e+00, -1.2083095811330857e+00,
       3.4655237137865318e+00, -1.1381990920122036e+00,
       3.4583813125375893e+00, -1.1169795777418319e+00,
       3.4108714202652095e+00, -1.1847674229394152e+00,
       3.3709899652817201e+00, -1.2489561364513009e+00,
       3.3098111500139278e+00, -1.2952968869824812e+00,
       3.2544506936441140e+00, -1.3325884743122596e+00,
       3.2033612038636745e+00, -1.3643496931329882e+00,
       3.1500483638071159e+00, -1.3949597205384665e+00,
       3.0946448259829960e+00, -1.4137755436472463e+00,
       3.0515079741470394e+00, -1.4228855327930496e+00,
       3.0307234854167850e+00, -1.4234944476945957e+00,
       3.0247690031323704e+00, -1.4274475321792197e+00,
       3.0308965756005635e+00, -1.4246134799671559e+00,
       3.0297820577877537e+00, -1.4182532717018825e+00,
       3.0369373489690976e+00, -1.4142609566166824e+00,
       3.0446852010709580e+00, -1.4092862563481019e+00,
       3.0647839356921982e+00, -1.4031979196630699e+00,
       3.0982616636443936e+00, -1.3979602825272721e+00,
       3.1668487269393757e+00, -1.3949620003429530e+00,
       3.2509305269730642e+00, -1.3888880682693017e+00,
       3.3227959907293001e+00, -1.3903930604279560e+00,
       3.3560253544199279e+00, -1.3921462442228463e+00,
       3.3417543967508569e+00, -1.4024201731796089e+00,
       3.2797943907424170e+00, -1.4204998654284293e+00,
       3.1713365299878968e+00, -1.4355495696036387e+00,
       3.0808169136266272e+00, -1.4374551479787312e+00,
       3.0751510429260893e+00, -1.4372604364583483e+00,
       3.1570680509439635e+00, -1.4344712378006164e+00,
       3.2615601639775571e+00, -1.4196595408338273e+00,
       3.3237500144128918e+00, -1.4000053576924458e+00,
       3.3594921564051483e+00, -1.3908024514962192e+00,
       3.3283303130478590e+00, -1.3812730871063150e+00,
       3.2721611930092238e+00, -1.3850369105222531e+00,
       3.1909941288561079e+00, -1.3950876691564758e+00,
       3.1161290998428068e+00, -1.3987855859097489e+00,
       3.0691469982927471e+00, -1.4009821347330333e+00,
       3.0478038385876025e+00, -1.4044452973210519e+00,
       3.0433730486587827e+00, -1.4130633190838788e+00,
       3.0331930330362664e+00, -1.4160575386354242e+00,
       3.0297330607528714e+00, -1.4193107564475671e+00,
       3.0250757496251288e+00, -1.4225724214367481e+00,
       3.0285562676513127e+00, -1.4233047524350890e+00,
       3.0487307895744284e+00, -1.4236749077590425e+00,
       3.0782098913481342e+00, -1.4169447035686480e+00,
       3.1366471703995042e+00, -1.4078242961950598e+00,
       3.1973933332422697e+00, -1.3825799911197842e+00,
       3.2520512874901519e+00, -1.3503532972446946e+00,
       3.3078678087483602e+00, -1.3117383219494105e+00,
       3.3640034786836890e+00, -1.2686931312477416e+00,
       3.4124812855048043e+00, -1.2112998058649875e+00,
       3.4463808033260861e+00, -1.1392331065802248e+00,
       3.4372243367274833e+00, -1.1157448697058998e+00,
       3.4055568666601315e+00, -1.1901074747067995e+00,
       3.3622560290923342e+00, -1.2479857969407508e+00,
       3.2994534462348284e+00, -1.2915826583083010e+00,
       3.2480322928572476e+00, -1.3259668213873077e+00,
       3.1975496497491234e+00, -1.3573169244615033e+00,
       3.1518888767056339e+00, -1.3883551111192476e+00,
       3.1043123345528332e+00, -1.4035835743052700e+00,
       3.0666005350180052e+00, -1.4100341978614792e+00,
       3.0580888063289686e+00, -1.4146573980033277e+00,
       3.0559863288923053e+00, -1.4142998938122573e+00,
       3.0621655850872438e+00, -1.4145670021525918e+00,
       3.0636163963699161e+00, -1.4107867632255968e+00,
       3.0654138879832016e+00, -1.4074934167057673e+00,
       3.0658687805075648e+00, -1.4044894374205776e+00,
       3.0757755973130640e+00, -1.4018142297295304e+00,
       3.0988568516135699e+00, -1.3957814099322385e+00,
       3.1581107225501182e+00, -1.3942083293711471e+00,
       3.2402548592105220e+00, -1.3933194165461433e+00,
       3.2995208656047139e+00, -1.3882946648048753e+00,
       3.3319198632580447e+00, -1.3881569647616834e+00,
       3.3355134650712248e+00, -1.4010926927307508e+00,
       3.2879867069638209e+00, -1.4222712536395103e+00,
       3.1809981124041173e+00, -1.4363215928589450e+00,
       3.0841522845974496e+00, -1.4389810083512709e+00,
       3.0779653907525786e+00, -1.4377845740489075e+00,
       3.1621460482751540e+00, -1.4357442718523139e+00,
       3.2619482705158913e+00, -1.4154538734581554e+00,
       3.3222045723771210e+00, -1.4000594148087846e+00,
       3.3340148160920990e+00, -1.3875563758195477e+00,
       3.3118100485868882e+00, -1.3857200191078201e+00,
       3.2530979376180702e+00, -1.3883906439958960e+00,
       3.1818472175886088e+00, -1.3951400630898392e+00,
       3.1214880410565802e+00, -1.3972746589122509e+00,
       3.0887078430865187e+00, -1.4000656434000807e+00,
       3.0728465790145236e+00, -1.4025061870210913e+00,
       3.0644442269783623e+00, -1.4027708614307870e+00,
       3.0649403347901480e+00, -1.4074670882290221e+00,
       3.0590890791215246e+00, -1.4082033503677176e+00,
       3.0580608246470447e+00, -1.4104696952908558e+00,
       3.0549059877861255e+00, -1.4123963978623082e+00,
       3.0648417178505873e+00, -1.4136642981949430e+00,
       3.0880995989447313e+00, -1.4054751397718432e+00,
       3.1374881226492866e+00, -1.3994260054535863e+00,
       3.1992077129803302e+00, -1.3779682286224246e+00,
       3.2427198027610054e+00, -1.3435840951663722e+00,
       3.3068709815114423e+00, -1.3105906253688473e+00,
       3.3501823599661673e+00, -1.2669438112889528e+00,
       3.3993945533485124e+00, -1.2097520616021311e+00,
       3.4417374480764473e+00, -1.1423703899820168e+00,
       3.4432692696644938e+00, -1.1162419115045448e+00,
       3.4078270698495046e+00, -1.1889325623815770e+00,
       3.3551905441842478e+00, -1.2449522040891836e+00,
       3.2998300635263615e+00, -1.2834676512511320e+00,
       3.2513149649304491e+00, -1.3156698757810399e+00,
       3.2126659698145374e+00, -1.3480036852185080e+00,
       3.1630213719583402e+00, -1.3734193014032272e+00,
       3.1335998142466384e+00, -1.3930401780439290e+00,
       3.1139304288805163e+00, -1.4004929964758737e+00,
       3.1078905504895395e+00, -1.4020601363763778e+00,
       3.1059260439828940e+00, -1.4009360633750203e+00,
       3.1172587640325871e+00, -1.4015909574441157e+00,
       3.1222105422160129e+00, -1.3996301937348428e+00,
       3.1311162950675890e+00, -1.3976046268308346e+00,
       3.1304168764154663e+00, -1.3966657852857960e+00,
       3.1222970385334148e+00, -1.3969810279573356e+00,
       3.1287347405096595e+00, -1.3940808416462704e+00,
       3.1638711351692934e+00, -1.3898261043706250e+00,
       3.2357212905856367e+00, -1.3876499537209206e+00,
       3.2937966403088477e+00, -1.3829929282450020e+00,
       3.3378516368566680e+00, -1.3851039897991830e+00,
       3.3333670033486937e+00, -1.3933724614694880e+00,
       3.2892266663094558e+00, -1.4150502691512852e+00,
       3.1808314012946823e+00, -1.4337445883792801e+00,
       3.0887100833659735e+00, -1.4361712915857929e+00,
       3.0830715565169804e+00, -1.4360384396059955e+00,
       3.1657642034324978e+00, -1.4320575460083300e+00,
       3.2651265379177454e+00, -1.4123255752595116e+00,
       3.3199978330515219e+00, -1.3929192550474072e+00,
       3.3342812163586193e+00, -1.3808504207921015e+00,
       3.3175581716580060e+00, -1.3829864450539355e+00,
       3.2550844613931211e+00, -1.3844671602465484e+00,
       3.1884797187363954e+00, -1.3880869852564930e+00,
       3.1364654336576105e+00, -1.3882276259363826e+00,
       3.1271642555424832e+00, -1.3901621497815992e+00,
       3.1297201690430407e+00, -1.3944000989178218e+00,
       3.1258073973691811e+00, -1.3930500376355488e+00,
       3.1264567977610280e+00, -1.3944919825512774e+00,
       3.1174457014330854e+00, -1.3975589955905920e+00,
       3.1064789463112406e+00, -1.3952047558929788e+00,
       3.1068385749453191e+00, -1.4015073945036882e+00,
       3.1108641789205249e+00, -1.3995495219839909e+00,
       3.1218786018429974e+00, -1.3956122316021387e+00,
       3.1555288528242080e+00, -1.3847669873412727e+00,
       3.2083244667835729e+00, -1.3688009544139008e+00,
       3.2523232759493479e+00, -1.3364739596752016e+00,
       3.3030093756523344e+00, -1.3036838808597111e+00,
       3.3479243475976337e+00, -1.2614132193876888e+00,
       3.3907483026451946e+00, -1.2093715972313293e+00,
       3.4352653263714577e+00, -1.1362915499853730e+00,
       3.4543633475708790e+00, -1.1120392288209884e+00,
       3.4132343069259710e+00, -1.1817947562396305e+00,
       3.3596214770270088e+00, -1.2385590192678499e+00,
       3.3098021408948122e+00, -1.2778460040238833e+00,
       3.2752307530277207e+00, -1.3114000653039641e+00,
       3.2399280907307251e+00, -1.3363563355214509e+00,
       3.1989303247675238e+00, -1.3589387816150611e+00,
       3.1771760734842198e+00, -1.3774419271286118e+00,
       3.1696405679242168e+00, -1.3802425881356521e+00,
       3.1683335093454734e+00, -1.3784153405092376e+00,
       3.1823423104450859e+00, -1.3803848961593661e+00,
       3.1920692338521253e+00, -1.3793769354175780e+00,
       3.2105399571919366e+00, -1.3817746124861570e+00,
       3.2184260193627541e+00, -1.3760433284414859e+00,
       3.2286313241800579e+00, -1.3793612252993412e+00,
       3.2160802314732146e+00, -1.3814607567013297e+00,
       3.1993891884509087e+00, -1.3820081159930366e+00,
       3.2019563336533827e+00, -1.3834777846512365e+00,
       3.2476042767190814e+00, -1.3809836926744132e+00,
       3.3024141170254033e+00, -1.3771646527794188e+00,
       3.3421716405686630e+00, -1.3744298894807174e+00,
       3.3473921689385082e+00, -1.3854526204446878e+00,
       3.2897018265079381e+00, -1.4043043075389534e+00,
       3.1821826544565304e+00, -1.4263161832495301e+00,
       3.0873004315429196e+00, -1.4316760273675337e+00,
       3.0787600247079387e+00, -1.4305613715099441e+00,
       3.1666371812019110e+00, -1.4281398521098225e+00,
       3.2664723485026506e+00, -1.4071585267973727e+00,
       3.3240477320939474e+00, -1.3796157854610662e+00,
       3.3416299174255482e+00, -1.3696123379518415e+00,
       3.3201795471794742e+00, -1.3724353849253639e+00,
       3.2758006166065052e+00, -1.3796758857222677e+00,
       3.2201061935900270e+00, -1.3783996137396370e+00,
       3.1992794280555179e+00, -1.3772956888319805e+00,
       3.2145861387061649e+00, -1.3758714270599293e+00,
       3.2224823882125722e+00, -1.3709637763113249e+00,
       3.2144431249884953e+00, -1.3682046257035998e+00,
       3.1998320436084753e+00, -1.3720242138494974e+00,
       3.1911714974662981e+00, -1.3763395076193328e+00,
       3.1797181358230464e+00, -1.3793787971292144e+00,
       3.1683705635506145e+00, -1.3795301284769375e+00,
       3.1643504833220506e+00, -1.3815215621752868e+00,
       3.1739598056113283e+00, -1.3786445486718943e+00,
       3.1921747387659791e+00, -1.3698722776114052e+00,
       3.2357449533181648e+00, -1.3548841016608790e+00,
       3.2686660028645100e+00, -1.3245003294189250e+00,
       3.3145324318653961e+00, -1.2917277545381300e+00,
       3.3456954411733091e+00, -1.2510176922391500e+00,
       3.3954550839526747e+00, -1.2011965060619341e+00,
       3.4472346823289897e+00, -1.1327240281619537e+00,
       3.4662912672042077e+00, -1.1038896971654462e+00,
       3.4144174030453689e+00, -1.1748464966275944e+00,
       3.3701479210046554e+00, -1.2291828820585087e+00,
       3.3229948861649823e+00, -1.2614677054500614e+00,
       3.2943685401483629e+00, -1.2956931369400957e+00,
       3.2762914586544598e+00, -1.3191000431589830e+00,
       3.2636864026014765e+00, -1.3403722583183442e+00,
       3.2615265120856090e+00, -1.3515369892939377e+00,
       3.2686117526967982e+00, -1.3583130892910420e+00,
       3.2818563932567932e+00, -1.3619179753963282e+00,
       3.2962227588554729e+00, -1.3596083563637789e+00,
       3.3091399324071338e+00, -1.3563465523513651e+00,
       3.3231112929505753e+00, -1.3543376393561088e+00,
       3.3366525922948505e+00, -1.3531843813912579e+00,
       3.3572805422064786e+00, -1.3542859304270727e+00,
       3.3485883030504868e+00, -1.3553179981340024e+00,
       3.3203914472722516e+00, -1.3586955000455709e+00,
       3.2867170617516606e+00, -1.3661066250228151e+00,
       3.2943346915361600e+00, -1.3693233028223215e+00,
       3.3245989040877961e+00, -1.3641775512510268e+00,
       3.3566650112959482e+00, -1.3640102366154716e+00,
       3.3587975611742293e+00, -1.3723279508378579e+00,
       3.3018337489618417e+00, -1.3934394738089011e+00,
       3.1852350633182951e+00, -1.4152768361901602e+00,
       3.0847278270440719e+00, -1.4222159234276313e+00,
       3.0769158184809777e+00, -1.4249048434078870e+00,
       3.1652256987156782e+00, -1.4192801156545141e+00,
       3.2727287357825903e+00, -1.3931351963193634e+00,
       3.3410165757519645e+00, -1.3680635392876515e+00,
       3.3594519106134242e+00, -1.3592776633575891e+00,
       3.3461914521168628e+00, -1.3637952286424151e+00,
       3.3169563651537688e+00, -1.3641438473057135e+00,
       3.2994767895982577e+00, -1.3579837655637761e+00,
       3.3139272993329731e+00, -1.3507396935007445e+00,
       3.3507096907085847e+00, -1.3493628543067671e+00,
       3.3410198490708281e+00, -1.3428987296054311e+00,
       3.3250844519279452e+00, -1.3425860096247388e+00,
       3.3051368862399007e+00, -1.3503094243203460e+00,
       3.2935727639491059e+00, -1.3547828185713915e+00,
       3.2870633645476244e+00, -1.3620004940262136e+00,
       3.2807312856279092e+00, -1.3643758937623038e+00,
       3.2639772126145674e+00, -1.3642349042312014e+00,
       3.2503622317646701e+00, -1.3571967500174720e+00,
       3.2587964318382707e+00, -1.3470191728753371e+00,
       3.2744645081468584e+00, -1.3344506979363158e+00,
       3.2924981043965169e+00, -1.3085643527785773e+00,
       3.3161801313384944e+00, -1.2757413773775146e+00,
       3.3556945104414790e+00, -1.2408738075125758e+00,
       3.4039839906485931e+00, -1.1926260289108750e+00,
       3.4557470390696525e+00, -1.1197728611828641e+00,
       3.4706904239124707e+00, -1.0875305152619845e+00,
       3.4362203967387552e+00, -1.1676966723231119e+00,
       3.3860520005815142e+00, -1.2164452889161179e+00,
       3.3563415913191985e+00, -1.2490654317161356e+00,
       3.3392540104516684e+00, -1.2779882010955783e+00,
       3.3387232076516118e+00, -1.2992926892842518e+00,
       3.3444587445909550e+00, -1.3105757153982673e+00,
       3.3703051266029331e+00, -1.3212533248529756e+00,
       3.4021509049973804e+00, -1.3232801889794461e+00,
       3.4233906382505448e+00, -1.3239395496451534e+00,
       3.4328400151962275e+00, -1.3270231613921899e+00,
       3.4397172467307837e+00, -1.3258964507461231e+00,
       3.4570817268488625e+00, -1.3185562073520023e+00,
       3.4726822512863547e+00, -1.3150627776906811e+00,
       3.4992425110043519e+00, -1.3166729597084768e+00,
       3.5120533065138488e+00, -1.3247280985066172e+00,
       3.5022570769069121e+00, -1.3300819694101580e+00,
       3.4339471695361734e+00, -1.3362334595546204e+00,
       3.3713576010153576e+00, -1.3414107737623289e+00,
       3.3655413073796798e+00, -1.3451894558690443e+00,
       3.3867762717189978e+00, -1.3475233957953603e+00,
       3.3767336098130243e+00, -1.3589933734452644e+00,
       3.3105253989025911e+00, -1.3803371616552622e+00,
       3.1789264685699625e+00, -1.4055746701925356e+00,
       3.0840323454446521e+00, -1.4153674160037633e+00,
       3.0752189754348191e+00, -1.4164963824182815e+00,
       3.1567691667626079e+00, -1.4058885114919801e+00,
       3.2849537176747687e+00, -1.3816515920656702e+00,
       3.3571753136728613e+00, -1.3572584876602130e+00,
       3.3871386755164199e+00, -1.3428768533317539e+00,
       3.3893862856767232e+00, -1.3415211477039506e+00,
       3.3897766820594692e+00, -1.3384830634463807e+00,
       3.4187810953324242e+00, -1.3288360686041187e+00,
       3.4750203812001788e+00, -1.3256908380719850e+00,
       3.5057200435048759e+00, -1.3200536567070817e+00,
       3.4802191192432774e+00, -1.3138053914014485e+00,
       3.4578315327141462e+00, -1.3162209428929061e+00,
       3.4314860668395268e+00, -1.3194879645889537e+00,
       3.4104870852156188e+00, -1.3244035572239043e+00,
       3.4107075598760983e+00, -1.3292572827995375e+00,
       3.4131547118128851e+00, -1.3288893222111176e+00,
       3.3937017387273496e+00, -1.3281015407415007e+00,
       3.3657536594907422e+00, -1.3250763126359830e+00,
       3.3453800559310891e+00, -1.3201805234835584e+00,
       3.3365327665353703e+00, -1.3109005924972261e+00,
       3.3330402846808620e+00, -1.2895959874699490e+00,
       3.3493587155769373e+00, -1.2631956835927389e+00,
       3.3743275405136708e+00, -1.2262447402427459e+00,
       3.4165124070596433e+00, -1.1768529718238072e+00,
       3.4789346688611502e+00, -1.1053512306265438e+00,
       3.4868749622421582e+00, -1.0697813445991613e+00,
       3.4687908003770862e+00, -1.1533950588492552e+00,
       3.4177996388559597e+00, -1.2033436954147929e+00,
       3.3990005209077370e+00, -1.2404089181417963e+00,
       3.3915914946892198e+00, -1.2651702657118784e+00,
       3.4222294862562217e+00, -1.2752365592415293e+00,
       3.4605693969171889e+00, -1.2711486806554362e+00,
       3.5158795920113111e+00, -1.2652936659352840e+00,
       3.5647494890216063e+00, -1.2692953798421958e+00,
       3.5719012837298658e+00, -1.2784177943426340e+00,
       3.5568728621808541e+00, -1.2813030388202407e+00,
       3.5551400303443614e+00, -1.2784271391909567e+00,
       3.5893172832021412e+00, -1.2675560743235275e+00,
       3.6322783330718864e+00, -1.2664133216383919e+00,
       3.6576244317047077e+00, -1.2728297634015764e+00,
       3.6780515271144547e+00, -1.2874096337726544e+00,
       3.6869504631706929e+00, -1.2975420602278893e+00,
       3.6074429183736241e+00, -1.3039949406276796e+00,
       3.4736487795935145e+00, -1.3038205118998529e+00,
       3.4074450340705389e+00, -1.3095577845721640e+00,
       3.4112317262110574e+00, -1.3218306766627788e+00,
       3.4007384431134584e+00, -1.3403859660056894e+00,
       3.3172123340979027e+00, -1.3720688395365574e+00,
       3.1704267642248016e+00, -1.3956537246099217e+00,
