%YAML:1.0
my_nn: !!opencv-ml-ann-mlp
   layer_sizes: !!opencv-matrix
      rows: 1
      cols: 3
      dt: i
      data: [ 2500, 12, 2 ]
   activation_function: SIGMOID_SYM
   f_param1: 1.
   f_param2: 1.
   min_val: -9.4999999999999996e-01
   max_val: 9.4999999999999996e-01
   min_val1: -9.7999999999999998e-01
   max_val1: 9.7999999999999998e-01
   training_params:
      train_method: RPROP
      dw0: 1.0000000000000001e-01
      dw_plus: 1.2000000000000000e+00
      dw_minus: 5.0000000000000000e-01
      dw_min: 1.1920928955078125e-07
      dw_max: 50.
      term_criteria: { epsilon:9.9999997473787516e-06, iterations:45000 }
   input_scale: [ 3.2679246332352254e+00, -9.3584023453686771e-01,
       3.3033910640644328e+00, -9.3524462459434354e-01,
       3.3675639835946769e+00, -9.3707424226433333e-01,
       3.4356499542967436e+00, -9.4432480373094241e-01,
       3.4898853261231775e+00, -9.4983416827615519e-01,
       3.5729942253361480e+00, -9.6862793776512290e-01,
       3.6233554740740206e+00, -9.7897330734178822e-01,
       3.7350487264806125e+00, -1.0044242684736318e+00,
       3.7718539453731115e+00, -1.0225235870178668e+00,
       3.7930954833904074e+00, -1.0491039198853847e+00,
       3.8196450929583303e+00, -1.0851207429236363e+00,
       3.8287426269991505e+00, -1.1194115657463537e+00,
       3.8279026732227037e+00, -1.1566295349469289e+00,
       3.8130651235384301e+00, -1.1954207442558789e+00,
       3.7950210647724636e+00, -1.2296672782875586e+00,
       3.7712720148183179e+00, -1.2594514714970095e+00,
       3.7310197048026539e+00, -1.2802067349773028e+00,
       3.6820949949031734e+00, -1.2965944532300102e+00,
       3.6481394605291673e+00, -1.3056075599926322e+00,
       3.6197471594385298e+00, -1.3152957060340875e+00,
       3.5980828498129767e+00, -1.3274086090041226e+00,
       3.5624916176539614e+00, -1.3356604189277008e+00,
       3.5505982623876027e+00, -1.3380239393508884e+00,
       3.5354445111329866e+00, -1.3370170458110500e+00,
       3.5353886869513951e+00, -1.3371980579692495e+00,
       3.5388222427489544e+00, -1.3350710277824689e+00,
       3.5399918773811514e+00, -1.3357764209028919e+00,
       3.5407325198342368e+00, -1.3365396637026918e+00,
       3.5593075815658319e+00, -1.3352599179396478e+00,
       3.5826687681727591e+00, -1.3288666413454739e+00,
       3.6072350709988226e+00, -1.3228504214716859e+00,
       3.6390564324419947e+00, -1.3128581267381703e+00,
       3.6673156345133084e+00, -1.2981776000418692e+00,
       3.7163927906301217e+00, -1.2812487066616680e+00,
       3.7547556629819669e+00, -1.2560641358599303e+00,
       3.7789302878805704e+00, -1.2325534427911820e+00,
       3.7927514100285347e+00, -1.1959065118161576e+00,
       3.7893670649561590e+00, -1.1612816973044779e+00,
       3.8027133464456604e+00, -1.1310768393800714e+00,
       3.8086008592572154e+00, -1.0991996483785671e+00,
       3.7835880420757726e+00, -1.0637317007749303e+00,
       3.7656455802815190e+00, -1.0355785905140233e+00,
       3.7049820712224930e+00, -1.0090335591675699e+00,
       3.6258111335336363e+00, -9.9009979352795119e-01,
       3.5605041129616892e+00, -9.7927712072089335e-01,
       3.5097114750923679e+00, -9.6507590654932485e-01,
       3.4362003128939063e+00, -9.5473155254260866e-01,
       3.3755188994906002e+00, -9.4926405819012727e-01,
       3.3197774585144857e+00, -9.4244130792899239e-01,
       3.2734449512696626e+00, -9.3969858405166040e-01,
       3.2617836895504233e+00, -9.3079136690064135e-01,
       3.3050809339183909e+00, -9.3240511484411182e-01,
       3.3725915292094792e+00, -9.3526726188232268e-01,
       3.4477471425741792e+00, -9.4425550171446249e-01,
       3.4951741575128130e+00, -9.5189679705769481e-01,
       3.5738522637096151e+00, -9.6650218861932158e-01,
       3.6420278930352739e+00, -9.8151260387044847e-01,
       3.7268399040195326e+00, -1.0073159630795090e+00,
       3.7808392607372685e+00, -1.0372253690556765e+00,
       3.7960720199332751e+00, -1.0653691766516244e+00,
       3.8045398739079928e+00, -1.1059391027833452e+00,
       3.8157388974029844e+00, -1.1428563541211465e+00,
       3.8078765259412335e+00, -1.1859568303365562e+00,
       3.8052614705781540e+00, -1.2266063183420597e+00,
       3.7606501232533196e+00, -1.2593952335664420e+00,
       3.7308994351561005e+00, -1.2835529703542121e+00,
       3.6889885261764279e+00, -1.3029075563324550e+00,
       3.6488384863976737e+00, -1.3163306147973375e+00,
       3.6253219118070210e+00, -1.3287139151446605e+00,
       3.5910985414617937e+00, -1.3363361606638380e+00,
       3.5693843016496678e+00, -1.3482888731378089e+00,
       3.5313056032128838e+00, -1.3506551285540564e+00,
       3.5195143431535860e+00, -1.3555989203764296e+00,
       3.5111323667806666e+00, -1.3579026202242899e+00,
       3.5175230834095270e+00, -1.3556227259275977e+00,
       3.5151615877076621e+00, -1.3546990027721382e+00,
       3.5186520415052409e+00, -1.3541757206817213e+00,
       3.5163700727935794e+00, -1.3534508229707451e+00,
       3.5274257405737126e+00, -1.3502888755691813e+00,
       3.5449153189056375e+00, -1.3462596264738502e+00,
       3.5745658522935777e+00, -1.3406687931305039e+00,
       3.6018871811913922e+00, -1.3303792298569987e+00,
       3.6314407210159501e+00, -1.3214273643289367e+00,
       3.6613837542635772e+00, -1.3030636226258734e+00,
       3.7214257174387630e+00, -1.2866079535991739e+00,
       3.7588473830631375e+00, -1.2649361586100394e+00,
       3.7782790774609638e+00, -1.2282332015787583e+00,
       3.7872158028541802e+00, -1.1890232881258895e+00,
       3.7859061582756803e+00, -1.1562149993429061e+00,
       3.7824700658422907e+00, -1.1217203241950295e+00,
       3.7606722173435871e+00, -1.0823824414626972e+00,
       3.7365384109498319e+00, -1.0456848056186565e+00,
       3.6973365230058897e+00, -1.0189499365128549e+00,
       3.6340069237389225e+00, -9.9230964635382402e-01,
       3.5537610972465949e+00, -9.7755338682580561e-01,
       3.5110403409734054e+00, -9.6757450072128182e-01,
       3.4555293667429376e+00, -9.5616093346091136e-01,
       3.3874238178575422e+00, -9.4777365213720499e-01,
       3.3402289299198999e+00, -9.4493930248711100e-01,
       3.2835233970696631e+00, -9.3767914483242476e-01,
       3.2438268248279818e+00, -9.2947366987696722e-01,
       3.2950299865783714e+00, -9.3157476038618126e-01,
       3.3676713125062383e+00, -9.3944389056967315e-01,
       3.4467577128788451e+00, -9.4815943275354586e-01,
       3.5068841362450098e+00, -9.5364852732440586e-01,
       3.5773237992586098e+00, -9.7385741777694057e-01,
       3.6411601638010778e+00, -9.9467926556644648e-01,
       3.7291060711524895e+00, -1.0198603471473218e+00,
       3.7715062539831705e+00, -1.0512313402915292e+00,
       3.7879302337304810e+00, -1.0886384012171888e+00,
       3.7844934631978284e+00, -1.1313930264648944e+00,
       3.7860492459094877e+00, -1.1729366349599890e+00,
       3.7713397392008083e+00, -1.2132452669073239e+00,
       3.7580052151275658e+00, -1.2519984284596104e+00,
       3.7440160962487146e+00, -1.2845681673537530e+00,
       3.6928360015252499e+00, -1.3031965032780612e+00,
       3.6586511737319629e+00, -1.3225295172154914e+00,
       3.6378248463070841e+00, -1.3373748688718015e+00,
       3.6098204579700996e+00, -1.3457970769728567e+00,
       3.5754992124664806e+00, -1.3538485728746785e+00,
       3.5512519873042852e+00, -1.3567356958921810e+00,
       3.5278895417442881e+00, -1.3572043745161928e+00,
       3.5156076009692465e+00, -1.3627402418787893e+00,
       3.5166573033476913e+00, -1.3634027083713269e+00,
       3.5187156229711021e+00, -1.3652611200688449e+00,
       3.5214399004914241e+00, -1.3655162484900150e+00,
       3.5112872948419782e+00, -1.3636072177600842e+00,
       3.5198181591113968e+00, -1.3632365913069071e+00,
       3.5287345161179142e+00, -1.3592596418130376e+00,
       3.5358665492890675e+00, -1.3587896089953129e+00,
       3.5561013349779214e+00, -1.3551803818859529e+00,
       3.5889687030254751e+00, -1.3464080356840282e+00,
       3.6219633528708708e+00, -1.3390650021525521e+00,
       3.6421277568878376e+00, -1.3269079071723273e+00,
       3.6825805926672239e+00, -1.3089267076600379e+00,
       3.7187152431835515e+00, -1.2882653525913634e+00,
       3.7511555985389933e+00, -1.2561429367739414e+00,
       3.7707294084557756e+00, -1.2180620202394377e+00,
       3.7747589720537937e+00, -1.1804962785107027e+00,
       3.7582185434605595e+00, -1.1442704225559270e+00,
       3.7385576312677959e+00, -1.1053938677953097e+00,
       3.7208666374591344e+00, -1.0642591006688604e+00,
       3.6871355564693036e+00, -1.0306301617197098e+00,
       3.6452166853564667e+00, -1.0054410184055198e+00,
       3.5580842557234202e+00, -9.8324541783440322e-01,
       3.5047820218464736e+00, -9.6749017277923044e-01,
       3.4576480524761899e+00, -9.5745413521990419e-01,
       3.3877994080566065e+00, -9.4824641239158047e-01,
       3.3356535577844819e+00, -9.4261708398491084e-01,
       3.2785191509910718e+00, -9.3837542837014054e-01,
       3.2582181479152692e+00, -9.3280483858328311e-01,
       3.3130290182259361e+00, -9.3610807794322148e-01,
       3.3686927761862315e+00, -9.3662123850699130e-01,
       3.4460250600370030e+00, -9.4754048650450851e-01,
       3.5290875129330299e+00, -9.5742941993057962e-01,
       3.5949639972467269e+00, -9.8360625276086533e-01,
       3.6521116334111534e+00, -1.0050389799971344e+00,
       3.7131867165635777e+00, -1.0326299828419230e+00,
       3.7549818903922838e+00, -1.0670125911174091e+00,
       3.7671676816502577e+00, -1.1163426909935381e+00,
       3.7737275578394764e+00, -1.1627675131397219e+00,
       3.7574622137132834e+00, -1.2003409986646894e+00,
       3.7392780560096441e+00, -1.2396213676826322e+00,
       3.7231650023427783e+00, -1.2747083497582632e+00,
       3.6971167588470446e+00, -1.3029374060303898e+00,
       3.6658733888612649e+00, -1.3228276864689370e+00,
       3.6489277670183906e+00, -1.3399680534918001e+00,
       3.6342654344747998e+00, -1.3486913517809105e+00,
       3.6119762520887910e+00, -1.3568908728743991e+00,
       3.5835969541355222e+00, -1.3617658727533233e+00,
       3.5648024021954181e+00, -1.3588313050131844e+00,
       3.5425534855390231e+00, -1.3568624033080312e+00,
       3.5387389171533710e+00, -1.3572256139522410e+00,
       3.5302072014059220e+00, -1.3613662722390814e+00,
       3.5445643884764695e+00, -1.3623622051387385e+00,
       3.5438944753173072e+00, -1.3613526636010127e+00,
       3.5356787645355876e+00, -1.3597144381210116e+00,
       3.5451285816139739e+00, -1.3630428129137619e+00,
       3.5442222253597411e+00, -1.3614373533317177e+00,
       3.5642283428302801e+00, -1.3658135754290124e+00,
       3.5787993769425639e+00, -1.3654185765500335e+00,
       3.5856107261217671e+00, -1.3616173175991968e+00,
       3.6104096181420138e+00, -1.3539128624248808e+00,
       3.6322934867560979e+00, -1.3462806489882997e+00,
       3.6563420955225974e+00, -1.3266656869131352e+00,
       3.6839140055466322e+00, -1.3100789025489716e+00,
       3.7167403789290181e+00, -1.2839220344415512e+00,
       3.7382041101190331e+00, -1.2469881774468674e+00,
       3.7522021779078378e+00, -1.2097138132251055e+00,
       3.7436430242354688e+00, -1.1688099725391097e+00,
       3.7304832796099618e+00, -1.1282888373609141e+00,
       3.7318363478565217e+00, -1.0907897315124155e+00,
       3.6881003653326365e+00, -1.0510060032390312e+00,
       3.6432570329710003e+00, -1.0202151101561165e+00,
       3.5748833749890547e+00, -9.9242219502420603e-01,
       3.5046607495135200e+00, -9.6925999309401889e-01,
       3.4499427008456451e+00, -9.5881390566857050e-01,
       3.3826271436607365e+00, -9.4798525298623604e-01,
       3.3296686099372779e+00, -9.4200344756541809e-01,
       3.2686599511031362e+00, -9.3832179997136522e-01,
       3.2454702412895426e+00, -9.3085658438749208e-01,
       3.3064440112018838e+00, -9.3442047493778224e-01,
       3.3790895156247167e+00, -9.4137502680142560e-01,
       3.4505490503356828e+00, -9.4630013319573170e-01,
       3.5208780375192843e+00, -9.6745723498455471e-01,
       3.6133993702255105e+00, -9.9093671310550713e-01,
       3.6429965337784451e+00, -1.0124642246143831e+00,
       3.6941079300420339e+00, -1.0479141500883575e+00,
       3.7465317232216311e+00, -1.0928669034437370e+00,
       3.7421740143419147e+00, -1.1446940636373419e+00,
       3.7438632382301824e+00, -1.1867131240044690e+00,
       3.7069543530991007e+00, -1.2206366958343886e+00,
       3.7060069650298568e+00, -1.2624775892841071e+00,
       3.6938634633119536e+00, -1.2979466286106700e+00,
       3.6724862072107007e+00, -1.3223064888278042e+00,
       3.6548775872975803e+00, -1.3402192475799706e+00,
       3.6527962843942441e+00, -1.3518233500408388e+00,
       3.6430557334031430e+00, -1.3557271928746073e+00,
       3.6248020905550522e+00, -1.3611225034745205e+00,
       3.6089182743878698e+00, -1.3554238669620295e+00,
       3.5831031367204940e+00, -1.3502558672801774e+00,
       3.5792933423608631e+00, -1.3479530954362946e+00,
       3.5571659214020612e+00, -1.3423430268821672e+00,
       3.5549120629764701e+00, -1.3414408326942460e+00,
       3.5514741610475236e+00, -1.3413652423528004e+00,
       3.5514804006770686e+00, -1.3425892993451061e+00,
       3.5644867795612445e+00, -1.3457860880904726e+00,
       3.5642223159843609e+00, -1.3444256186434180e+00,
       3.5688361315145318e+00, -1.3480022693356275e+00,
       3.5821788705955804e+00, -1.3547255297638416e+00,
       3.5884978628057591e+00, -1.3594137564857283e+00,
       3.6055181526537918e+00, -1.3636324472391168e+00,
       3.6113017941747345e+00, -1.3602873508532025e+00,
       3.6301735979869147e+00, -1.3547323082066720e+00,
       3.6447385773580216e+00, -1.3430068694631503e+00,
       3.6568256810398423e+00, -1.3278510445968534e+00,
       3.6864940218935378e+00, -1.3082457897840236e+00,
       3.7183291725989314e+00, -1.2752109443682855e+00,
       3.7258943415146466e+00, -1.2385891078528095e+00,
       3.7471431847511618e+00, -1.1992303968035547e+00,
       3.7211295841566514e+00, -1.1566968328879832e+00,
       3.7255231002586608e+00, -1.1147093801650443e+00,
       3.6794959533786971e+00, -1.0692051011286596e+00,
       3.6344170165148912e+00, -1.0319711407465226e+00,
       3.5716228365165192e+00, -1.0027408185040361e+00,
       3.5226472686451977e+00, -9.8316403263662455e-01,
       3.4454082214573947e+00, -9.6080215643325950e-01,
       3.3850074154970824e+00, -9.5085654982567791e-01,
       3.3329598937408127e+00, -9.4511784124480869e-01,
       3.2587908922639062e+00, -9.4097380780894957e-01,
       3.2299245518715707e+00, -9.3338043650171909e-01,
       3.3050657081076475e+00, -9.4056432324689854e-01,
       3.3868168086987911e+00, -9.4609744841326815e-01,
       3.4524533523394654e+00, -9.5759807344847847e-01,
       3.5345468571644765e+00, -9.8046061238094739e-01,
       3.5991960115984103e+00, -1.0000574800152655e+00,
       3.6400574864594519e+00, -1.0308038370202040e+00,
       3.6750852114384651e+00, -1.0702951529537308e+00,
       3.7174976942041957e+00, -1.1211444970936815e+00,
       3.7132372950563650e+00, -1.1714607003743387e+00,
       3.7010292477822238e+00, -1.2095261958152295e+00,
       3.6856780290279887e+00, -1.2484059303997257e+00,
       3.6727267630013696e+00, -1.2858645974593041e+00,
       3.6635745719634398e+00, -1.3167121684686640e+00,
       3.6559219234842448e+00, -1.3356637966381479e+00,
       3.6544548603690150e+00, -1.3516297621194067e+00,
       3.6621279960905238e+00, -1.3594074209321712e+00,
       3.6574239081977709e+00, -1.3616270414011675e+00,
       3.6415340044299027e+00, -1.3572816264885030e+00,
       3.6216216493679450e+00, -1.3482806257618833e+00,
       3.6146242580107595e+00, -1.3407474415093308e+00,
       3.6058792674573343e+00, -1.3369865945273700e+00,
       3.5946902911805800e+00, -1.3330225633401396e+00,
       3.5958929031037941e+00, -1.3314405825455871e+00,
       3.5883929332715367e+00, -1.3305030159519351e+00,
       3.5855684109094725e+00, -1.3318392061771782e+00,
       3.5829759139293960e+00, -1.3310324744820821e+00,
       3.5967728649790662e+00, -1.3370466258515659e+00,
       3.6066729515440685e+00, -1.3411916568757472e+00,
       3.6227888277518687e+00, -1.3435827914766871e+00,
       3.6263676058914918e+00, -1.3519871944235173e+00,
       3.6300089180285622e+00, -1.3609038647851075e+00,
       3.6353649250501849e+00, -1.3624327656868582e+00,
       3.6374681115706871e+00, -1.3613211514230157e+00,
       3.6430178937320625e+00, -1.3490588583723011e+00,
       3.6530237191787021e+00, -1.3431146474119260e+00,
       3.6598349698897383e+00, -1.3230921984121042e+00,
       3.6884248062196483e+00, -1.2997169286194394e+00,
       3.6930465739978167e+00, -1.2632479110638848e+00,
       3.7141916750906852e+00, -1.2268024502609207e+00,
       3.7044169053542868e+00, -1.1855563389697821e+00,
       3.7003934793251343e+00, -1.1379198663207344e+00,
       3.6699895385474632e+00, -1.0924103711310946e+00,
       3.6383733100562639e+00, -1.0501443415115201e+00,
       3.5731014829046885e+00, -1.0144813252853848e+00,
       3.5319655375966454e+00, -9.9389659662706187e-01,
       3.4507015400014218e+00, -9.7541587571014821e-01,
       3.3711892460200277e+00, -9.5968900608760732e-01,
       3.3084685168193690e+00, -9.4664936383387677e-01,
       3.2533104353640092e+00, -9.4281492107193599e-01,
       3.2343268832448584e+00, -9.3701258193267689e-01,
       3.2953203104883984e+00, -9.4285534634159718e-01,
       3.3846600581330035e+00, -9.5334998513246216e-01,
       3.4594023890236727e+00, -9.6808028200230889e-01,
       3.5415065200263247e+00, -9.9266238439301147e-01,
       3.6108373631755599e+00, -1.0168049433163429e+00,
       3.6285283360090146e+00, -1.0489342410883977e+00,
       3.6739940976735732e+00, -1.0981628876805636e+00,
       3.6962693361582555e+00, -1.1529448291542506e+00,
       3.6902551592711808e+00, -1.1990393215209316e+00,
       3.6785721812138990e+00, -1.2377470946152813e+00,
       3.6579104287207675e+00, -1.2742616112798670e+00,
       3.6499171207589942e+00, -1.3123800892854887e+00,
       3.6367431186121753e+00, -1.3303731652333397e+00,
       3.6488470975387655e+00, -1.3463487551673334e+00,
       3.6560147866251764e+00, -1.3531065606437898e+00,
       3.6660439236898412e+00, -1.3593619193096231e+00,
       3.6648885569836542e+00, -1.3563268558034169e+00,
       3.6660342117547273e+00, -1.3462818941917074e+00,
       3.6569856140047481e+00, -1.3354499888892055e+00,
       3.6568858640016964e+00, -1.3230997407982279e+00,
       3.6474944212881311e+00, -1.3188288102439829e+00,
       3.6343929205005012e+00, -1.3219134916681567e+00,
       3.6255174494136360e+00, -1.3185447495266009e+00,
       3.6258639638139987e+00, -1.3143526974246753e+00,
       3.6209006800418617e+00, -1.3135780725904955e+00,
       3.6122232995437811e+00, -1.3146899482626300e+00,
       3.6235731729341345e+00, -1.3204605623281864e+00,
       3.6325894637665246e+00, -1.3232568936648390e+00,
       3.6541279464732450e+00, -1.3235996869467059e+00,
       3.6651654667409241e+00, -1.3335536830744312e+00,
       3.6600652257378470e+00, -1.3446254387117196e+00,
       3.6617328576237060e+00, -1.3543854568917884e+00,
       3.6542085932760164e+00, -1.3570944316639189e+00,
       3.6524244153380772e+00, -1.3541808810945684e+00,
       3.6472020705876229e+00, -1.3473710232760057e+00,
       3.6429969151133648e+00, -1.3360356578951711e+00,
       3.6608333248682068e+00, -1.3180114534580880e+00,
       3.6660515666829583e+00, -1.2901634677757554e+00,
       3.6747574933649205e+00, -1.2546168306369625e+00,
       3.6803265510872234e+00, -1.2146253351507328e+00,
       3.6888840789244379e+00, -1.1717560915206398e+00,
       3.6729929828161727e+00, -1.1217669295872825e+00,
       3.6236614077578366e+00, -1.0728546847793641e+00,
       3.5811571802277107e+00, -1.0339076535872636e+00,
       3.5287818137117068e+00, -1.0097626542801807e+00,
       3.4523305075603594e+00, -9.8979960378594789e-01,
       3.3838629478158007e+00, -9.7131071471927466e-01,
       3.3161261425545665e+00, -9.5698627017698279e-01,
       3.2512607530866098e+00, -9.4490198795779690e-01,
       3.2271979105837629e+00, -9.4127040578716004e-01,
       3.3118259143102482e+00, -9.4974090940361089e-01,
       3.3915334108529125e+00, -9.6168464249114527e-01,
       3.4830799404152213e+00, -9.7902975272576753e-01,
       3.5535391560078087e+00, -1.0084726256956276e+00,
       3.6085950833355831e+00, -1.0376890330713735e+00,
       3.6230770920934599e+00, -1.0745740002225173e+00,
       3.6645530165601521e+00, -1.1308932976536352e+00,
       3.6683642054635968e+00, -1.1862177050895659e+00,
       3.6548068086698917e+00, -1.2309866394840367e+00,
       3.6561485447447284e+00, -1.2688154232225746e+00,
       3.6366453745937655e+00, -1.3046338451696777e+00,
       3.6178772645927948e+00, -1.3286848076960502e+00,
       3.6094093635817273e+00, -1.3410585383484619e+00,
       3.6340205920134356e+00, -1.3496040851101245e+00,
       3.6564562797208393e+00, -1.3536561596616845e+00,
       3.6755975488198125e+00, -1.3512683837469457e+00,
       3.6698590010395131e+00, -1.3387215054553823e+00,
       3.6799867512791300e+00, -1.3247147101472534e+00,
       3.6950540800623277e+00, -1.3125152448741972e+00,
       3.6909324063239008e+00, -1.2997743697553819e+00,
       3.6873536414454229e+00, -1.3048491474944095e+00,
       3.6457731163041007e+00, -1.2970910250704932e+00,
       3.6318510523217031e+00, -1.2937989451621867e+00,
       3.6195557573202235e+00, -1.2882369243140397e+00,
       3.6187140829877205e+00, -1.2874008603534968e+00,
       3.6166515734092339e+00, -1.2913106375634829e+00,
       3.6315806266538533e+00, -1.2981436192923868e+00,
       3.6688172544535473e+00, -1.3009488692478659e+00,
       3.6670144501924384e+00, -1.2968166488703980e+00,
       3.6734523516460924e+00, -1.3059206827345662e+00,
       3.6753346068056172e+00, -1.3270288341039904e+00,
       3.6741572255902968e+00, -1.3397732066363319e+00,
       3.6650815924767457e+00, -1.3538554312399891e+00,
       3.6501807698930460e+00, -1.3568259395185873e+00,
       3.6353943676313443e+00, -1.3518192748904529e+00,
       3.6258959773512154e+00, -1.3480027085947393e+00,
       3.6234487258544994e+00, -1.3324619501990276e+00,
       3.6324818183636367e+00, -1.3124573524630043e+00,
       3.6405251750812258e+00, -1.2866869010633797e+00,
       3.6627717129087429e+00, -1.2484483968026898e+00,
       3.6652445670209159e+00, -1.2067212425223570e+00,
       3.6545572629148277e+00, -1.1552960624030535e+00,
       3.6199102043840341e+00, -1.1045692764054198e+00,
       3.5775342764469182e+00, -1.0551869421911995e+00,
       3.5334544249756665e+00, -1.0291712786076617e+00,
       3.4682323979000387e+00, -1.0040679282451443e+00,
       3.3881978500702359e+00, -9.8097966685254578e-01,
       3.3317773832992943e+00, -9.6730140310353974e-01,
       3.2721689707826664e+00, -9.5161261725939239e-01,
       3.2421454813284605e+00, -9.4483215340066318e-01,
       3.3260758038586848e+00, -9.5613182431497601e-01,
       3.4106310211206088e+00, -9.7457559301061203e-01,
       3.4930973593788774e+00, -9.9527310020201432e-01,
       3.5602661624455267e+00, -1.0284385935385822e+00,
       3.5938395085616253e+00, -1.0588155882987635e+00,
       3.6194513070479104e+00, -1.1072736472523335e+00,
       3.6404043132203956e+00, -1.1654367077456149e+00,
       3.6398138480305922e+00, -1.2221347050912372e+00,
       3.6263933674625943e+00, -1.2584049679097296e+00,
       3.6168784086230765e+00, -1.2967995015954414e+00,
       3.6029133675072185e+00, -1.3274066618858693e+00,
       3.5926411323190908e+00, -1.3403566749374183e+00,
       3.5980917546628617e+00, -1.3475468579736891e+00,
       3.6281620901914753e+00, -1.3519390109238718e+00,
       3.6501387595747605e+00, -1.3431433265909303e+00,
       3.6736418584579260e+00, -1.3374672094680795e+00,
       3.7009897025999048e+00, -1.3203867861776089e+00,
       3.7135268609055205e+00, -1.2952841102723691e+00,
       3.7182204408713195e+00, -1.2789675922829395e+00,
       3.6885673850715284e+00, -1.2719488199850124e+00,
       3.6623643512515658e+00, -1.2733289719227023e+00,
       3.6396012902237267e+00, -1.2766158291235203e+00,
       3.6200039148805212e+00, -1.2712783304864936e+00,
       3.6097638820974920e+00, -1.2701692167833059e+00,
       3.6020869873504173e+00, -1.2686232824078918e+00,
       3.5979427093902268e+00, -1.2703677321649363e+00,
       3.6141088360927984e+00, -1.2717120856824486e+00,
       3.6334357280819920e+00, -1.2683410673152791e+00,
       3.6809090444191841e+00, -1.2677813508628211e+00,
       3.6879668339060325e+00, -1.2701550208324524e+00,
       3.6911727027859547e+00, -1.2899227246874529e+00,
       3.6853595521941300e+00, -1.3156818393483347e+00,
       3.6757186219489677e+00, -1.3377460181118133e+00,
       3.6476616196097496e+00, -1.3489192893583779e+00,
       3.6270183347979650e+00, -1.3509926589052079e+00,
       3.6074712047385087e+00, -1.3541323094443174e+00,
       3.6089829461700149e+00, -1.3463381374733323e+00,
       3.6045423331788209e+00, -1.3313389682348029e+00,
       3.6071100051770202e+00, -1.3126821312173234e+00,
       3.6217518019502211e+00, -1.2793393173300991e+00,
       3.6399828580557596e+00, -1.2436860078780148e+00,
       3.6369058920496538e+00, -1.1940960892458394e+00,
       3.6133986247833456e+00, -1.1375368906324834e+00,
       3.5686351693595446e+00, -1.0851264386399657e+00,
       3.5303131377864716e+00, -1.0473073012311598e+00,
       3.4790622972528915e+00, -1.0195217173766047e+00,
       3.4010017015572847e+00, -9.9316630570198228e-01,
       3.3403942200559387e+00, -9.7538344709007940e-01,
       3.2709067199089521e+00, -9.5719790679706007e-01,
       3.2609906119029430e+00, -9.4939818051007541e-01,
       3.3475667969719805e+00, -9.6949154514554881e-01,
       3.4330132189763352e+00, -9.8702565859048863e-01,
       3.5100750608790392e+00, -1.0145795498050010e+00,
       3.5657801360249723e+00, -1.0483719303883561e+00,
       3.5917491322207731e+00, -1.0878460074774585e+00,
       3.6180860778547355e+00, -1.1466730489508699e+00,
       3.6270828586913848e+00, -1.2028032112608629e+00,
       3.6113817281929319e+00, -1.2529787706013116e+00,
       3.5986056979257581e+00, -1.2879918493403995e+00,
       3.5821780436981729e+00, -1.3193680482845875e+00,
       3.5610801309271602e+00, -1.3342926972761819e+00,
       3.5684524464372545e+00, -1.3471830644700649e+00,
       3.5854363595094112e+00, -1.3490679036089450e+00,
       3.6268622912493993e+00, -1.3449283359609026e+00,
       3.6555861950030972e+00, -1.3338939782823189e+00,
       3.6931905628536499e+00, -1.3160368392193376e+00,
       3.6936522434268837e+00, -1.2841462845051259e+00,
       3.7235211960055916e+00, -1.2550397875101935e+00,
       3.7157871771279800e+00, -1.2379656833744521e+00,
       3.6710402889839977e+00, -1.2360274175022088e+00,
       3.6479080800310126e+00, -1.2430109992852072e+00,
       3.6283221676415311e+00, -1.2510651416258485e+00,
       3.5909205186999298e+00, -1.2484511416826101e+00,
       3.5749749443029910e+00, -1.2435690192531725e+00,
       3.5676114377474284e+00, -1.2459511601222040e+00,
       3.5699489519385512e+00, -1.2466637329830563e+00,
       3.5938755179214370e+00, -1.2496770046142216e+00,
       3.6322941069639980e+00, -1.2474648479123629e+00,
       3.6493645141961220e+00, -1.2376229414253985e+00,
       3.6837951457392220e+00, -1.2412607464678820e+00,
       3.6928622127338220e+00, -1.2527681051007946e+00,
       3.7006875400988175e+00, -1.2851721457254286e+00,
       3.6795372554194583e+00, -1.3104050184021667e+00,
       3.6529892000985331e+00, -1.3302455121880394e+00,
       3.6250726601274956e+00, -1.3450058818901787e+00,
       3.5895075120173012e+00, -1.3477997326426197e+00,
       3.5791263148922452e+00, -1.3521005833542021e+00,
       3.5749485632706537e+00, -1.3452568329629642e+00,
       3.5708054961815243e+00, -1.3304351013289588e+00,
       3.5907192735508229e+00, -1.3082969565874780e+00,
       3.6132540026697493e+00, -1.2707425504527727e+00,
       3.6140290495235772e+00, -1.2269492453529036e+00,
       3.5963776613658376e+00, -1.1699026909594055e+00,
       3.5659125496402453e+00, -1.1148027642441900e+00,
       3.5323729597985225e+00, -1.0718306934422437e+00,
       3.4930702593091403e+00, -1.0367326533180659e+00,
       3.4143047582190866e+00, -1.0060964807006607e+00,
       3.3549887947956889e+00, -9.8771075704456157e-01,
       3.2810863564560324e+00, -9.6686313986364802e-01,
       3.2773017067549057e+00, -9.5831033607480598e-01,
       3.3596865593889835e+00, -9.7898201838570964e-01,
       3.4502422051544648e+00, -9.9974566677531362e-01,
       3.5199792321457899e+00, -1.0341283656252784e+00,
       3.5612498051827859e+00, -1.0733114739484293e+00,
       3.5999421009042791e+00, -1.1211541389194686e+00,
       3.6076996697731487e+00, -1.1784345342956537e+00,
       3.5994291789864796e+00, -1.2370916319763237e+00,
       3.5907018307061600e+00, -1.2806849385293901e+00,
       3.5716112027861424e+00, -1.3104058888803924e+00,
       3.5514314786580305e+00, -1.3301474972096889e+00,
       3.5399212362257981e+00, -1.3396121778108572e+00,
       3.5523005037306414e+00, -1.3473156737249619e+00,
       3.5854813235393435e+00, -1.3464999028782141e+00,
       3.6237888543881014e+00, -1.3376962233772993e+00,
       3.6656984189102944e+00, -1.3125487525526078e+00,
       3.7084015352837416e+00, -1.2844983542424409e+00,
       3.7232887552591198e+00, -1.2539440169897671e+00,
       3.7143847945640012e+00, -1.2158416984324336e+00,
       3.6671890334564266e+00, -1.1971237085945563e+00,
       3.6304894610127452e+00, -1.2023568498283443e+00,
       3.5897763667253959e+00, -1.2119602725206684e+00,
       3.5678549271761084e+00, -1.2178386686625606e+00,
       3.5450828961914285e+00, -1.2214088028973962e+00,
       3.5564866398614705e+00, -1.2227979120860812e+00,
       3.5488430128979118e+00, -1.2231032048853920e+00,
       3.5485253057237509e+00, -1.2241249887090178e+00,
       3.5751495888424185e+00, -1.2214960846701481e+00,
       3.6022267810677002e+00, -1.2141252119954149e+00,
       3.6259179488330302e+00, -1.1987487725684003e+00,
       3.6704063934698201e+00, -1.1997282432617364e+00,
       3.7005077452747837e+00, -1.2146878738280407e+00,
       3.7086238912709351e+00, -1.2449873913574945e+00,
       3.6925677767240028e+00, -1.2780657306071324e+00,
       3.6650655003447987e+00, -1.3116118333276463e+00,
       3.6321527194696244e+00, -1.3357612459543473e+00,
       3.5804654020189122e+00, -1.3440472146998819e+00,
       3.5476478010408625e+00, -1.3486930492921609e+00,
       3.5445181529608099e+00, -1.3473074894499824e+00,
       3.5519872014581915e+00, -1.3432455451531202e+00,
       3.5619151019786641e+00, -1.3261838455348045e+00,
       3.5802859239443694e+00, -1.2969011715693046e+00,
       3.5942590577548339e+00, -1.2595031698276813e+00,
       3.5886946766247969e+00, -1.2045253853622810e+00,
       3.5812173285479991e+00, -1.1518535890525765e+00,
       3.5368380039203817e+00, -1.0978649264262110e+00,
       3.4926963080508875e+00, -1.0525522485990053e+00,
       3.4365666102513903e+00, -1.0219772248537922e+00,
       3.3721551335810456e+00, -9.9910702638888016e-01,
       3.2910430832009538e+00, -9.7624859732483282e-01,
       3.2847996282673901e+00, -9.6886451060955836e-01,
       3.3759419181515278e+00, -9.8547210347908099e-01,
       3.4586711783086121e+00, -1.0127854175027635e+00,
       3.5332825789157618e+00, -1.0517626384227698e+00,
       3.5588191500850832e+00, -1.0963874793907165e+00,
       3.5866326049270252e+00, -1.1536683294170051e+00,
       3.5882289041163702e+00, -1.2106624509921269e+00,
       3.5857078210714248e+00, -1.2669199357020127e+00,
       3.5752821929459109e+00, -1.3059740178096193e+00,
       3.5534096987926289e+00, -1.3261057058705008e+00,
       3.5273556128042967e+00, -1.3397584259815705e+00,
       3.5282404657234516e+00, -1.3457903763533456e+00,
       3.5433078431297478e+00, -1.3408628692310174e+00,
       3.5700381201631908e+00, -1.3325707605801436e+00,
       3.6230262608910682e+00, -1.3213215051773217e+00,
       3.6704949999708925e+00, -1.2877472251550393e+00,
       3.7064248766714041e+00, -1.2557385466852586e+00,
       3.7203484861342506e+00, -1.2196323836639058e+00,
       3.7123575506995352e+00, -1.1890077697679624e+00,
       3.6446763274127636e+00, -1.1731861569007214e+00,
       3.5997259773406500e+00, -1.1742289102722236e+00,
       3.5413111922599043e+00, -1.1780316113935068e+00,
       3.5129539040627398e+00, -1.1877225354063414e+00,
       3.4695168713770728e+00, -1.1929193368247895e+00,
       3.4899326562102488e+00, -1.1957184240373251e+00,
       3.4762587005961576e+00, -1.1944760862306156e+00,
       3.4774846018852243e+00, -1.1956757192059759e+00,
       3.5151585998609440e+00, -1.1936045049833965e+00,
       3.5631782337386824e+00, -1.1854887661801636e+00,
       3.6090423645467777e+00, -1.1736867937673530e+00,
       3.6686487355957431e+00, -1.1740380468858991e+00,
       3.7282535855216352e+00, -1.1836763674577888e+00,
       3.7097871927471964e+00, -1.2056229369372988e+00,
       3.6954830398784351e+00, -1.2430790809791705e+00,
       3.6659809300578807e+00, -1.2821635643363656e+00,
       3.6277640565868490e+00, -1.3093607030369123e+00,
       3.5914289957991885e+00, -1.3340578493253010e+00,
       3.5380868668751839e+00, -1.3431212506417887e+00,
       3.5123372507016324e+00, -1.3459391001307188e+00,
       3.5286149999222634e+00, -1.3487609558441807e+00,
       3.5498478572990160e+00, -1.3422920434065801e+00,
       3.5643889422291748e+00, -1.3202385306531303e+00,
       3.5835757547043108e+00, -1.2863557831278967e+00,
       3.5855414286083342e+00, -1.2373182156438307e+00,
       3.5811512472355393e+00, -1.1802564023041586e+00,
       3.5353176390641159e+00, -1.1227195280390723e+00,
       3.4946341513750081e+00, -1.0728378591105590e+00,
       3.4465902103565624e+00, -1.0352245221826846e+00,
       3.3832628401602540e+00, -1.0092400619316999e+00,
       3.3075512161093337e+00, -9.8594668426151189e-01,
       3.2867585619769271e+00, -9.7774212904579971e-01,
       3.3914468209304460e+00, -9.9798393538856822e-01,
       3.4840639806209777e+00, -1.0304539638641543e+00,
       3.5293624829527763e+00, -1.0710950611061019e+00,
       3.5595008380103801e+00, -1.1197483811885056e+00,
       3.5759699459265426e+00, -1.1795467363240837e+00,
       3.5762587618782442e+00, -1.2403803768614847e+00,
       3.5735887012384597e+00, -1.2896549495931027e+00,
       3.5576547258894999e+00, -1.3225326215130535e+00,
       3.5396827372950312e+00, -1.3392200850264886e+00,
       3.5173022280871460e+00, -1.3470441573088914e+00,
       3.5109614109472602e+00, -1.3447042293715992e+00,
       3.5381337174910819e+00, -1.3360043813502624e+00,
       3.5802814175058155e+00, -1.3236340845152272e+00,
       3.6212430478866784e+00, -1.3006382416091380e+00,
       3.6718028612749083e+00, -1.2631470755138947e+00,
       3.6898690189728343e+00, -1.2331064270074061e+00,
       3.7091009798030781e+00, -1.2061439155548623e+00,
       3.6889612066825204e+00, -1.1845563088750304e+00,
       3.6639794509373478e+00, -1.1812742683720732e+00,
       3.5866163474676260e+00, -1.1730665626100363e+00,
       3.5343224291073874e+00, -1.1802583040828769e+00,
       3.4684131049137514e+00, -1.1877841369421855e+00,
       3.4212864295317345e+00, -1.1953890628537149e+00,
       3.4434436021562056e+00, -1.2025868387660112e+00,
       3.4332835470041139e+00, -1.2013440681621552e+00,
       3.4261004073307255e+00, -1.1991725598855496e+00,
       3.4453256663245737e+00, -1.1933653824109949e+00,
       3.5121483507405054e+00, -1.1860820557812193e+00,
       3.5671534424587859e+00, -1.1787505623613028e+00,
       3.6183519670590201e+00, -1.1734500661092555e+00,
       3.7055972050273738e+00, -1.1881136653534587e+00,
       3.7069348011966592e+00, -1.2010895416369078e+00,
       3.6864030541227422e+00, -1.2188026420557840e+00,
       3.6690455144422587e+00, -1.2543554589472219e+00,
       3.6437938329616317e+00, -1.2917013880187878e+00,
       3.6041297423327201e+00, -1.3166476153180231e+00,
       3.5512457630790064e+00, -1.3385053884916329e+00,
       3.5144010050981516e+00, -1.3457014840537920e+00,
       3.5175855146825348e+00, -1.3523643405559376e+00,
       3.5313107802735968e+00, -1.3526520550450827e+00,
       3.5612811902948054e+00, -1.3369113476355703e+00,
       3.5802958122588846e+00, -1.3098626989090889e+00,
       3.5920855678084695e+00, -1.2684980858641266e+00,
       3.5752165199892199e+00, -1.2089604740612085e+00,
       3.5646931381758789e+00, -1.1520689812172238e+00,
       3.5023266444629368e+00, -1.0948901155880255e+00,
       3.4551015785144483e+00, -1.0528303428037311e+00,
       3.3952327129695092e+00, -1.0229439263442055e+00,
       3.3174594849998433e+00, -9.9857630082522708e-01,
       3.3152390960064069e+00, -9.9218329706308717e-01,
       3.4028612496810675e+00, -1.0133090453338029e+00,
       3.4906848741260523e+00, -1.0504205807584897e+00,
       3.5308079527392708e+00, -1.0928762737257891e+00,
       3.5687521001830613e+00, -1.1484598535226027e+00,
       3.5813649984758111e+00, -1.2105398523743423e+00,
       3.5669012127402571e+00, -1.2619617912669447e+00,
       3.5747215783045041e+00, -1.3069573650408739e+00,
       3.5504369306093455e+00, -1.3335112702895171e+00,
       3.5219867707383683e+00, -1.3461113776217521e+00,
       3.5152161301707023e+00, -1.3521380722521046e+00,
       3.5150547700631058e+00, -1.3441738287954732e+00,
       3.5483394664601722e+00, -1.3288931456268800e+00,
       3.5786421175939567e+00, -1.3036122286726466e+00,
       3.6024631561686813e+00, -1.2723303556896168e+00,
       3.6284525784227375e+00, -1.2435542378674689e+00,
       3.6399237694262450e+00, -1.2191947344511116e+00,
       3.6458800278123911e+00, -1.2055249930625769e+00,
       3.6343051689708168e+00, -1.1976337170913105e+00,
       3.5992850556371838e+00, -1.1870036337288559e+00,
       3.5637756792686512e+00, -1.1882913442387546e+00,
       3.5256917532727692e+00, -1.1930711836029857e+00,
       3.4536353126411559e+00, -1.1976826491220967e+00,
       3.4149514316713945e+00, -1.2024874654218893e+00,
       3.4297935504866177e+00, -1.2096413620537290e+00,
       3.4290458531769468e+00, -1.2092115194120077e+00,
       3.4225670561340071e+00, -1.2055073941608809e+00,
       3.4516627339816370e+00, -1.2027012664370043e+00,
       3.4972655479743109e+00, -1.1983528142881696e+00,
       3.5303984663864836e+00, -1.1933673542851306e+00,
       3.5779764302654229e+00, -1.1928911704756431e+00,
       3.6331050391415300e+00, -1.2033287003032964e+00,
       3.6559184174169546e+00, -1.2141545965545080e+00,
       3.6582324191288031e+00, -1.2216015895731578e+00,
       3.6521065756322955e+00, -1.2407930005365198e+00,
       3.6230986431303065e+00, -1.2674710809075593e+00,
       3.6051839434456325e+00, -1.3001873346053734e+00,
       3.5626685170402483e+00, -1.3249419177840103e+00,
       3.5194664429354323e+00, -1.3395618906552476e+00,
       3.5129150762604184e+00, -1.3498028448808554e+00,
       3.5262379937914523e+00, -1.3571772295924269e+00,
       3.5422332368643739e+00, -1.3449389910926284e+00,
       3.5777107020018910e+00, -1.3289135715776630e+00,
       3.5885190845550410e+00, -1.2920387169843763e+00,
       3.5853854518184907e+00, -1.2376951989915665e+00,
       3.5647852900583423e+00, -1.1759196148169957e+00,
       3.5166693686704757e+00, -1.1207570700677061e+00,
       3.4649764168704271e+00, -1.0701695494689676e+00,
       3.4011972922868496e+00, -1.0362597423027144e+00,
       3.3398884252986738e+00, -1.0101788780190837e+00,
       3.3253042182095456e+00, -1.0033736308572061e+00,
       3.4095229376895695e+00, -1.0290962569051105e+00,
       3.4921238751580828e+00, -1.0678914946136042e+00,
       3.5361684955580666e+00, -1.1143787666362461e+00,
       3.5703257847588334e+00, -1.1739623862270265e+00,
       3.5780219690782240e+00, -1.2328060391184652e+00,
       3.5700438282564426e+00, -1.2801422988825961e+00,
       3.5669933234002227e+00, -1.3169344820592273e+00,
       3.5442041987308657e+00, -1.3430222785594803e+00,
       3.5192094333730073e+00, -1.3469118076002704e+00,
       3.5175569265955073e+00, -1.3489618576214726e+00,
       3.5083863036823040e+00, -1.3357253839981209e+00,
       3.5352862151279365e+00, -1.3185645203927190e+00,
       3.5596898715656420e+00, -1.2881574192042811e+00,
       3.5794434812676847e+00, -1.2602877151760188e+00,
       3.5937788347862547e+00, -1.2377753844948005e+00,
       3.6000119636851515e+00, -1.2351291012402004e+00,
       3.6132668897017419e+00, -1.2341237096969722e+00,
       3.5929778518748727e+00, -1.2302403355957396e+00,
       3.5852028578407187e+00, -1.2252713748555675e+00,
       3.5462171642160558e+00, -1.2171262224217787e+00,
       3.5370609933043764e+00, -1.2211641346418103e+00,
       3.4911350849923535e+00, -1.2239685494066745e+00,
       3.4592694837013620e+00, -1.2254372793986545e+00,
       3.4566495317458568e+00, -1.2347050931024719e+00,
       3.4449541954943159e+00, -1.2308914148828904e+00,
       3.4444541934534354e+00, -1.2287301703500622e+00,
       3.4648564708951448e+00, -1.2266240927236562e+00,
       3.5024137688381218e+00, -1.2213895956665497e+00,
       3.5228261369351128e+00, -1.2196632151935787e+00,
       3.5447267679687475e+00, -1.2248617962570341e+00,
       3.5598300447900737e+00, -1.2272727635217551e+00,
       3.5763901781611964e+00, -1.2336023016576787e+00,
       3.5948653138875879e+00, -1.2365437241164940e+00,
       3.6028330345039095e+00, -1.2452124236801916e+00,
       3.5971756927201199e+00, -1.2591762586953728e+00,
       3.5853221257763055e+00, -1.2877226634427783e+00,
       3.5651507900831731e+00, -1.3182613723292955e+00,
       3.5292810053445463e+00, -1.3358694468912697e+00,
       3.5136995123453767e+00, -1.3478673043141156e+00,
       3.5088694404168717e+00, -1.3529235093575873e+00,
       3.5356409320172846e+00, -1.3570412688041258e+00,
       3.5616826577665299e+00, -1.3385978852154923e+00,
       3.5763294549173188e+00, -1.3063115095038595e+00,
       3.5795641563216258e+00, -1.2629212631124682e+00,
       3.5574483099566074e+00, -1.1972642860934259e+00,
       3.5302429806115834e+00, -1.1418210694352158e+00,
       3.4657333329565159e+00, -1.0851329073268561e+00,
       3.4106073884165564e+00, -1.0487308032005458e+00,
       3.3454814102349970e+00, -1.0197999513580462e+00,
       3.3500896526214246e+00, -1.0123326540139312e+00,
       3.4197084950706698e+00, -1.0406006653464885e+00,
       3.4988081378507068e+00, -1.0836156748946244e+00,
       3.5378715062102741e+00, -1.1346997071352001e+00,
       3.5663421922099507e+00, -1.1957788066805894e+00,
       3.5740888484647759e+00, -1.2509147137299210e+00,
       3.5810453938610043e+00, -1.2973601905083056e+00,
       3.5594503328231459e+00, -1.3265526807578356e+00,
       3.5362549925277555e+00, -1.3456057735660609e+00,
       3.5205375312848948e+00, -1.3515445229887471e+00,
       3.5023523541366113e+00, -1.3455779271402886e+00,
       3.5001814026295133e+00, -1.3344568444025928e+00,
       3.5335034212520200e+00, -1.3123972405849846e+00,
       3.5418268634140890e+00, -1.2854650958900440e+00,
       3.5549890709357808e+00, -1.2660492870140887e+00,
       3.5649655500286808e+00, -1.2553767162408125e+00,
       3.5759083913060414e+00, -1.2629689787526939e+00,
       3.5637004333374573e+00, -1.2613508044674560e+00,
       3.5500338268587561e+00, -1.2659804843248430e+00,
       3.5552959433894178e+00, -1.2648597697609190e+00,
       3.5392506702944635e+00, -1.2632359810046057e+00,
       3.5253454009490524e+00, -1.2644525792670174e+00,
       3.4882011954593959e+00, -1.2633860935441572e+00,
       3.4619210072556941e+00, -1.2648842971234264e+00,
       3.4524498326762636e+00, -1.2698509867778660e+00,
       3.4515044767038261e+00, -1.2690551072921117e+00,
       3.4478094041269336e+00, -1.2662932987089828e+00,
       3.4552398189855373e+00, -1.2644654701248945e+00,
       3.4862939038554019e+00, -1.2621784240854363e+00,
       3.5077655038427240e+00, -1.2605366435005643e+00,
       3.5279881664874000e+00, -1.2662824817842853e+00,
       3.5181843532013897e+00, -1.2618806828363167e+00,
       3.5377436898396497e+00, -1.2634214366544383e+00,
       3.5536203007749756e+00, -1.2644289193550371e+00,
       3.5657379366467348e+00, -1.2624969585330055e+00,
       3.5710300368718304e+00, -1.2727516668052570e+00,
       3.5545038669854070e+00, -1.2942474931616879e+00,
       3.5469620410249658e+00, -1.3163133131622189e+00,
       3.5235197622181285e+00, -1.3361402341796083e+00,
       3.5102268204352458e+00, -1.3493243420868406e+00,
       3.5069211856388702e+00, -1.3527126342493501e+00,
       3.5310602762679162e+00, -1.3583249521463348e+00,
       3.5500852516064514e+00, -1.3458734649288318e+00,
       3.5630425562813035e+00, -1.3185486818790015e+00,
       3.5886523219963227e+00, -1.2826002693365091e+00,
       3.5692557277819237e+00, -1.2229202507968047e+00,
       3.5510919473147227e+00, -1.1681267154102752e+00,
       3.4945827874963258e+00, -1.1057366644310580e+00,
       3.4240901112510409e+00, -1.0644894966743124e+00,
       3.3462807917451114e+00, -1.0260196783671824e+00,
       3.3669530135456522e+00, -1.0225474549384974e+00,
       3.4245153214267199e+00, -1.0521412700704273e+00,
       3.5042264342087579e+00, -1.0986385525756597e+00,
       3.5480424302370435e+00, -1.1578717187578782e+00,
       3.5688904442038427e+00, -1.2173759738092194e+00,
       3.5700957884663627e+00, -1.2661882295826092e+00,
       3.5774282949857064e+00, -1.3079296390204380e+00,
       3.5512583845070944e+00, -1.3340193912696421e+00,
       3.5288611166764068e+00, -1.3465913297426513e+00,
       3.5214516992413403e+00, -1.3561028509953692e+00,
       3.4976979694234838e+00, -1.3457250334936077e+00,
       3.4989951581168461e+00, -1.3383410962988702e+00,
       3.5067392899673537e+00, -1.3184206855094300e+00,
       3.5082844965520761e+00, -1.3004230914485904e+00,
       3.5273090058330352e+00, -1.2907541633181381e+00,
       3.5293153232825580e+00, -1.2876409184354936e+00,
       3.5388808533835836e+00, -1.2977697496019809e+00,
       3.5272825931742040e+00, -1.3011145877274783e+00,
       3.5106977617839941e+00, -1.3019469716866072e+00,
       3.5142648382099364e+00, -1.3034230665551105e+00,
       3.5175649230186066e+00, -1.3070466647921699e+00,
       3.5015641078735982e+00, -1.3067471431910755e+00,
       3.4652230530128705e+00, -1.3048534781452159e+00,
       3.4524079269953210e+00, -1.3082910054408108e+00,
       3.4527582387621494e+00, -1.3097219051787545e+00,
       3.4545259874199781e+00, -1.3080492381849271e+00,
       3.4479450502058779e+00, -1.3081099664776243e+00,
       3.4558244180864315e+00, -1.3104161674548431e+00,
       3.4897381707060982e+00, -1.3095230628960197e+00,
       3.5085266173191076e+00, -1.3093964762577042e+00,
       3.5126298060640444e+00, -1.3062578428988698e+00,
       3.5048334641303791e+00, -1.3064762991075995e+00,
       3.5028426946856444e+00, -1.3000250383799605e+00,
       3.5142660663324676e+00, -1.2918759938279656e+00,
       3.5144784007326981e+00, -1.2899481793420235e+00,
       3.5165923453598533e+00, -1.2939204064853949e+00,
       3.5136866594404510e+00, -1.3049688970369953e+00,
       3.4977498794359478e+00, -1.3191386719301179e+00,
       3.4994056571285284e+00, -1.3393322819742923e+00,
       3.5029224688791922e+00, -1.3483427275817643e+00,
       3.5045873482144572e+00, -1.3542982601456135e+00,
       3.5305368240276476e+00, -1.3608946923962963e+00,
       3.5519912166049035e+00, -1.3527708084326080e+00,
       3.5692576338544915e+00, -1.3296923754502761e+00,
       3.5804512080805462e+00, -1.2955767206547015e+00,
       3.5753078691036486e+00, -1.2470557838993341e+00,
       3.5632917199570620e+00, -1.1910648978483087e+00,
       3.5008082392150968e+00, -1.1250784849829207e+00,
       3.4310687382973426e+00, -1.0774943166081581e+00,
       3.3825475529598727e+00, -1.0388899062638766e+00,
       3.3920690548334065e+00, -1.0294060825895794e+00,
       3.4395951689509903e+00, -1.0636170008405452e+00,
       3.5130058550812517e+00, -1.1171487554749973e+00,
       3.5490253677959873e+00, -1.1766669516318429e+00,
       3.5687273070252523e+00, -1.2334697445178349e+00,
       3.5760542219877562e+00, -1.2816910862172746e+00,
       3.5657726183916294e+00, -1.3156027079286479e+00,
       3.5432827733801120e+00, -1.3406233415774425e+00,
       3.5339617457543100e+00, -1.3519278837929665e+00,
       3.5132521563687589e+00, -1.3595394791833824e+00,
       3.4823442777167424e+00, -1.3503526836795792e+00,
       3.4708489591619474e+00, -1.3417246710733111e+00,
       3.4746628389673591e+00, -1.3328354653572441e+00,
       3.4799604941822140e+00, -1.3240330072779993e+00,
       3.4764329324257388e+00, -1.3174020267207132e+00,
       3.4840398754085622e+00, -1.3188127336576545e+00,
       3.4857452241545093e+00, -1.3256259564258246e+00,
       3.4829792087741294e+00, -1.3329137393553068e+00,
       3.5039230673782811e+00, -1.3382363270635720e+00,
       3.5009720425303268e+00, -1.3343851070300743e+00,
       3.4998773315651781e+00, -1.3320958068897444e+00,
       3.4859088967661731e+00, -1.3285728988052656e+00,
       3.4531653813997822e+00, -1.3284440726117768e+00,
       3.4436294556663354e+00, -1.3194064986235432e+00,
       3.4523212640155592e+00, -1.3130754261742850e+00,
       3.4537705945438346e+00, -1.3106614744677081e+00,
       3.4348369873907045e+00, -1.3175953978047947e+00,
       3.4347266963253027e+00, -1.3239766564358035e+00,
       3.4677445999310526e+00, -1.3313040469945687e+00,
       3.4855646022992488e+00, -1.3333695016288025e+00,
       3.4825255409845908e+00, -1.3329830929954587e+00,
       3.4854188746165451e+00, -1.3347423921232782e+00,
       3.4801638032484004e+00, -1.3344903030885691e+00,
       3.4726973583468337e+00, -1.3309340454320073e+00,
       3.4674251481884228e+00, -1.3270285000855140e+00,
       3.4728216435856498e+00, -1.3270814265665043e+00,
       3.4660603409846860e+00, -1.3238797185753601e+00,
       3.4593352057395368e+00, -1.3324132336147365e+00,
       3.4676920192812339e+00, -1.3435419282170007e+00,
       3.4715750442773290e+00, -1.3469941327699950e+00,
       3.5027510498281842e+00, -1.3574071116662705e+00,
       3.5257936446403146e+00, -1.3615330918912649e+00,
       3.5438381060677426e+00, -1.3593667618016207e+00,
       3.5703918402030812e+00, -1.3390479421342845e+00,
       3.5759698449856634e+00, -1.3084532873995109e+00,
       3.5779863128077909e+00, -1.2634601779730172e+00,
       3.5657085774947217e+00, -1.2092212868379497e+00,
       3.5185996312469756e+00, -1.1464630876916895e+00,
       3.4488878935319587e+00, -1.0903557474777472e+00,
       3.3933499217902323e+00, -1.0511252012180181e+00,
       3.4108365333360844e+00, -1.0365128191669788e+00,
       3.4429038883772938e+00, -1.0769173484760399e+00,
       3.5236559112030212e+00, -1.1380174714261897e+00,
       3.5521104283001921e+00, -1.1947277812536534e+00,
       3.5614223340194067e+00, -1.2493665625260595e+00,
       3.5735370147171648e+00, -1.2955057115936084e+00,
       3.5578138814911249e+00, -1.3255739140709761e+00,
       3.5342773716159672e+00, -1.3491855488489237e+00,
       3.5185363129884064e+00, -1.3640527806500862e+00,
       3.4879113932234547e+00, -1.3629077402680976e+00,
       3.4611062406670872e+00, -1.3569143015174792e+00,
       3.4434650207465558e+00, -1.3480461331159403e+00,
       3.4376734762988912e+00, -1.3436402784699624e+00,
       3.4301651223355223e+00, -1.3387345373562587e+00,
       3.4298260274134544e+00, -1.3420353945236674e+00,
       3.4319445287511128e+00, -1.3444938613264537e+00,
       3.4438492322418122e+00, -1.3492844416380536e+00,
       3.4485722531332921e+00, -1.3476361516704392e+00,
       3.4724220862809805e+00, -1.3428947137002210e+00,
       3.4906663744206936e+00, -1.3348103818715398e+00,
       3.5022503872636941e+00, -1.3239717711321406e+00,
       3.4973397402452968e+00, -1.3175436904632103e+00,
       3.4560137191997078e+00, -1.3119145794853897e+00,
       3.4544589967569856e+00, -1.3034245540780243e+00,
       3.4885793533771698e+00, -1.2987000767561887e+00,
       3.4899270463636660e+00, -1.2958978043591831e+00,
       3.4651724100915380e+00, -1.3032126026410982e+00,
       3.4455600823372148e+00, -1.3056893353346726e+00,
       3.4753376319100204e+00, -1.3104335623292886e+00,
       3.4816964142568607e+00, -1.3186510272322494e+00,
       3.4759970607457551e+00, -1.3351492752837291e+00,
       3.4541627591019934e+00, -1.3431533791160266e+00,
       3.4449843376099842e+00, -1.3514416729257026e+00,
       3.4303954614561443e+00, -1.3566481253395648e+00,
       3.4265230471347232e+00, -1.3564547579557520e+00,
       3.4285507439295890e+00, -1.3530780233207307e+00,
       3.4243740952567339e+00, -1.3425932352893248e+00,
       3.4303243304442650e+00, -1.3476485030984169e+00,
       3.4329089699918547e+00, -1.3487237900236466e+00,
       3.4543032454599354e+00, -1.3603492336296388e+00,
       3.4790568256700793e+00, -1.3660587812566185e+00,
       3.5083263576595964e+00, -1.3678320922798628e+00,
       3.5301646472857628e+00, -1.3618835017670912e+00,
       3.5485422357262797e+00, -1.3454913669583077e+00,
       3.5663876259987357e+00, -1.3198591407794147e+00,
       3.5781775126717208e+00, -1.2799764570850058e+00,
       3.5558312291110599e+00, -1.2253014992117213e+00,
       3.5267788246815397e+00, -1.1669057939309204e+00,
       3.4528026667701921e+00, -1.1009649432817519e+00,
       3.4074657035681639e+00, -1.0570693947690677e+00,
       3.4285627148432227e+00, -1.0447268725995587e+00,
       3.4557718181180936e+00, -1.0905865055539508e+00,
       3.5197913845124047e+00, -1.1551564501462690e+00,
       3.5458746272647463e+00, -1.2142839274141854e+00,
       3.5554279104961957e+00, -1.2655268640186834e+00,
       3.5586657155998362e+00, -1.3062079976449523e+00,
       3.5425736886691022e+00, -1.3380962881617804e+00,
       3.5130328079784916e+00, -1.3556862032696129e+00,
       3.4885055375714158e+00, -1.3722398976465069e+00,
       3.4494447178264775e+00, -1.3703754137221691e+00,
       3.4235259477805919e+00, -1.3651674759304262e+00,
       3.4026986262175529e+00, -1.3556522746239339e+00,
       3.3917780592442694e+00, -1.3504995226550687e+00,
       3.3875083665526056e+00, -1.3487797693776709e+00,
       3.3951771041498611e+00, -1.3543828842199759e+00,
       3.4061890465517251e+00, -1.3547687480097512e+00,
       3.4277608935132595e+00, -1.3573998310982269e+00,
       3.4422601924476135e+00, -1.3493389844714165e+00,
       3.4832758782479272e+00, -1.3315792618391908e+00,
       3.5157127027057089e+00, -1.3174678275199048e+00,
       3.5455957277194838e+00, -1.2963842216180907e+00,
       3.5432661141570390e+00, -1.2846690120457260e+00,
       3.5193990346990773e+00, -1.2783960173740283e+00,
       3.5205439144170310e+00, -1.2753902213411714e+00,
       3.5557400581030683e+00, -1.2772632031804798e+00,
       3.5613824857594594e+00, -1.2734095212356586e+00,
       3.5321684151657573e+00, -1.2757474861495499e+00,
       3.5107495373146631e+00, -1.2735361713592310e+00,
       3.5371457124710468e+00, -1.2758108608969350e+00,
       3.5264608049861983e+00, -1.2864696184059294e+00,
       3.4986239624827280e+00, -1.3108741930474774e+00,
       3.4677664014661902e+00, -1.3340779336368203e+00,
       3.4389818168579103e+00, -1.3499033660674344e+00,
       3.4176334223322322e+00, -1.3616984114496762e+00,
       3.4056387950696148e+00, -1.3678228375068298e+00,
       3.3977918927993178e+00, -1.3660936019402108e+00,
       3.3910726003111051e+00, -1.3583119778461097e+00,
       3.3867659373904200e+00, -1.3588021352375155e+00,
       3.3893514046894579e+00, -1.3572284269020836e+00,
       3.4162185232543436e+00, -1.3673713447123286e+00,
       3.4472092956091425e+00, -1.3767359371045176e+00,
       3.4775348812609606e+00, -1.3728544265213889e+00,
       3.5066909510956443e+00, -1.3691415352113976e+00,
       3.5321810378459246e+00, -1.3545872300099409e+00,
       3.5510065430509621e+00, -1.3291143433195867e+00,
       3.5609856486312781e+00, -1.2934744452346110e+00,
       3.5594391121222158e+00, -1.2402101485221462e+00,
       3.5353852024161876e+00, -1.1829770165658575e+00,
       3.4680818921741543e+00, -1.1142921494691422e+00,
       3.4136107902442907e+00, -1.0676885060457668e+00,
       3.4326605065172715e+00, -1.0562171066691235e+00,
       3.4801708200840413e+00, -1.1058977403959267e+00,
       3.5157867171927570e+00, -1.1698814709913916e+00,
       3.5374824224445378e+00, -1.2319427998043238e+00,
       3.5385764279308956e+00, -1.2814531157910793e+00,
       3.5348595196466666e+00, -1.3215498041742464e+00,
       3.5151416672002065e+00, -1.3494968791636626e+00,
       3.4786818577692911e+00, -1.3714363965007881e+00,
       3.4412726161601612e+00, -1.3855025786664152e+00,
       3.4021602503199566e+00, -1.3850785473022917e+00,
       3.3750480353032732e+00, -1.3773798165408444e+00,
       3.3606034790344834e+00, -1.3642393034112066e+00,
       3.3498407459187627e+00, -1.3594092315376183e+00,
       3.3622114331511970e+00, -1.3598584367028579e+00,
       3.3805698490291056e+00, -1.3600080243736996e+00,
       3.3990640216391883e+00, -1.3618423530555415e+00,
       3.4302592724525773e+00, -1.3572823212732368e+00,
       3.4729258439995832e+00, -1.3460139687611812e+00,
       3.5312397521202255e+00, -1.3259348571371579e+00,
       3.5937687110583485e+00, -1.2979858129160200e+00,
       3.6259004543023003e+00, -1.2595760862554806e+00,
       3.6220584185063505e+00, -1.2352276852269417e+00,
       3.5898235588619789e+00, -1.2452695208552209e+00,
       3.5888104070566142e+00, -1.2627789214531631e+00,
       3.6154194564609958e+00, -1.2729194766907077e+00,
       3.6210125437620748e+00, -1.2736606204427614e+00,
       3.5900600141607875e+00, -1.2659355514785775e+00,
       3.5937034041242479e+00, -1.2565434944559621e+00,
       3.6000357173328332e+00, -1.2425537108312721e+00,
       3.6016599927938198e+00, -1.2508901208527852e+00,
       3.5693203767483292e+00, -1.2857107833760948e+00,
       3.5187436320998748e+00, -1.3202368692951503e+00,
       3.4663343135494724e+00, -1.3460053130228300e+00,
       3.4271091337736013e+00, -1.3596091562571646e+00,
       3.4021234695812912e+00, -1.3686263305311024e+00,
       3.3892968554536482e+00, -1.3707738196695829e+00,
       3.3667814216721981e+00, -1.3686427162118693e+00,
       3.3407942706258282e+00, -1.3665731310498652e+00,
       3.3479065627716107e+00, -1.3696641315952411e+00,
       3.3672783243235540e+00, -1.3763755209112019e+00,
       3.3955454312602997e+00, -1.3873440296527211e+00,
       3.4357644590935488e+00, -1.3893874861570636e+00,
       3.4665736824780140e+00, -1.3804588225075183e+00,
       3.5083007034042413e+00, -1.3655239845655924e+00,
       3.5335766754249782e+00, -1.3408989178815740e+00,
       3.5392088667341470e+00, -1.3052086249966399e+00,
       3.5430504829138130e+00, -1.2572244872573415e+00,
       3.5256493179634107e+00, -1.2004840261295964e+00,
       3.4797556561778182e+00, -1.1327039657370441e+00,
       3.4162739698475000e+00, -1.0759963428077597e+00,
       3.4421119957672648e+00, -1.0695385039375973e+00,
       3.4960743785514996e+00, -1.1240890043652925e+00,
       3.5182364192126268e+00, -1.1887039720224990e+00,
       3.5176359191546536e+00, -1.2478075168784990e+00,
       3.5154766942414821e+00, -1.2974205921599240e+00,
       3.5030712245710509e+00, -1.3348661233477097e+00,
       3.4766956768950297e+00, -1.3644275625430422e+00,
       3.4373486905661683e+00, -1.3861477358797025e+00,
       3.3923149846430305e+00, -1.3993634964705828e+00,
       3.3513132429736054e+00, -1.4014019557970219e+00,
       3.3186856241744604e+00, -1.3937171564872681e+00,
       3.3039338810851602e+00, -1.3796558404948538e+00,
       3.3141292343332776e+00, -1.3761929780788429e+00,
       3.3371706111661767e+00, -1.3738801552348188e+00,
       3.3751137257366013e+00, -1.3696686045326270e+00,
       3.4166663986105501e+00, -1.3699078793054067e+00,
       3.4705544982081840e+00, -1.3600400241461554e+00,
       3.5373261607498132e+00, -1.3454615139853012e+00,
       3.6062162989259035e+00, -1.3183114373867366e+00,
       3.6460879455104878e+00, -1.2729413602587469e+00,
       3.6838422698199427e+00, -1.2280795671839373e+00,
       3.6650428075076129e+00, -1.2090094283694288e+00,
       3.6289364524468106e+00, -1.2403266857458326e+00,
       3.6024083368382818e+00, -1.2737282419746017e+00,
       3.5917528718612188e+00, -1.2845263213684475e+00,
       3.5817691901529103e+00, -1.2864014536115398e+00,
       3.5677521081504504e+00, -1.2807241486820617e+00,
       3.5948119836058510e+00, -1.2562518484549945e+00,
       3.6263016901535696e+00, -1.2270923331716181e+00,
       3.6486879010066993e+00, -1.2310329312360633e+00,
       3.6155385440088632e+00, -1.2671070915449565e+00,
       3.5816028099288602e+00, -1.3085361595726561e+00,
       3.5233848106426917e+00, -1.3406162677047697e+00,
       3.4731724093589342e+00, -1.3608740953503584e+00,
       3.4287826806054924e+00, -1.3711210912230616e+00,
       3.3884337924022314e+00, -1.3778518434106497e+00,
       3.3358424106816216e+00, -1.3759710286027842e+00,
       3.3110221204293673e+00, -1.3799591878161650e+00,
       3.3008175444096124e+00, -1.3821799438871507e+00,
       3.3126659998897003e+00, -1.3904412240419397e+00,
       3.3392367754766470e+00, -1.4008626242232398e+00,
       3.3751843878018426e+00, -1.4024030319859784e+00,
       3.4185160092103075e+00, -1.3918995751941441e+00,
       3.4689015612475815e+00, -1.3770093031073394e+00,
       3.5024925699477585e+00, -1.3570218537208538e+00,
       3.5182372192918043e+00, -1.3199377690662009e+00,
       3.5283439585294771e+00, -1.2728002725565553e+00,
       3.5229903628245069e+00, -1.2150773040168248e+00,
       3.4973059632327974e+00, -1.1508032824659056e+00,
       3.4402420999596846e+00, -1.0934295653608150e+00,
       3.4472748057952001e+00, -1.0795772896663693e+00,
       3.5001188888537986e+00, -1.1407942490775593e+00,
       3.5171904470852886e+00, -1.2083531783492287e+00,
       3.5032818319373651e+00, -1.2657385772815786e+00,
       3.4828724047588535e+00, -1.3125625649186696e+00,
       3.4707412600526473e+00, -1.3520348760531538e+00,
       3.4332350022329772e+00, -1.3795352022945606e+00,
       3.3839769523967824e+00, -1.4031281474102988e+00,
       3.3338795190266710e+00, -1.4166448719530920e+00,
       3.2907358085597984e+00, -1.4180217098407828e+00,
       3.2626528126287391e+00, -1.4114340866394204e+00,
       3.2487563753449376e+00, -1.3993907496930642e+00,
       3.2484851093788820e+00, -1.3845044126310448e+00,
       3.2861603063938336e+00, -1.3845731580377574e+00,
       3.3489043330320998e+00, -1.3785063690600243e+00,
       3.4229515961894683e+00, -1.3764711762117658e+00,
       3.4913861326895241e+00, -1.3622186815192217e+00,
       3.5731497801571752e+00, -1.3448742562308265e+00,
       3.6322841767798217e+00, -1.3212767234209295e+00,
       3.6367799986848737e+00, -1.2884503067172817e+00,
       3.6320728132673703e+00, -1.2439397358707205e+00,
       3.6173393898962094e+00, -1.2306248955621542e+00,
       3.5656972931278847e+00, -1.2659757583930411e+00,
       3.4925587687620330e+00, -1.3056742408667110e+00,
       3.4462214814450070e+00, -1.3173874706294277e+00,
       3.4272861128480705e+00, -1.3164922750377170e+00,
       3.4534134557737990e+00, -1.3049977268698032e+00,
       3.5209765214025373e+00, -1.2729402895395141e+00,
       3.5929686793592288e+00, -1.2377156911801439e+00,
       3.6309018499159356e+00, -1.2440734875080521e+00,
       3.6395026015288936e+00, -1.2884168245712104e+00,
       3.6157810889205817e+00, -1.3199930789121570e+00,
       3.5729030093166760e+00, -1.3389822479513469e+00,
       3.5075881704467098e+00, -1.3582279710074316e+00,
       3.4406402231533328e+00, -1.3726887825068401e+00,
       3.3633729163628532e+00, -1.3818808271138405e+00,
       3.3001356139141103e+00, -1.3862146905757677e+00,
       3.2598588910050919e+00, -1.3891687062096070e+00,
       3.2471657668112668e+00, -1.3969813060551484e+00,
       3.2548167635925465e+00, -1.4093846106887262e+00,
       3.2830683233124920e+00, -1.4182489481250893e+00,
       3.3180081558908943e+00, -1.4168905341356872e+00,
       3.3693991456930323e+00, -1.4078776119065326e+00,
       3.4269723412777062e+00, -1.3941505447477598e+00,
       3.4590590405828152e+00, -1.3684498652736472e+00,
       3.4823196966608885e+00, -1.3347939626049887e+00,
       3.5059614469202622e+00, -1.2906271055574341e+00,
       3.5262617173383646e+00, -1.2316058760762565e+00,
       3.5053617732529232e+00, -1.1691061576326456e+00,
       3.4648359843360117e+00, -1.1055539700280375e+00,
       3.4635730510140972e+00, -1.0948373190958285e+00,
       3.4973387621308070e+00, -1.1589407626898889e+00,
       3.4913440522263848e+00, -1.2231385124925385e+00,
       3.4821212801157690e+00, -1.2819825729884660e+00,
       3.4540929314901092e+00, -1.3299556333604128e+00,
       3.4329587813474052e+00, -1.3686561396052548e+00,
       3.3902290526762311e+00, -1.3950076240846996e+00,
       3.3301444823014639e+00, -1.4216729743068466e+00,
       3.2737706131437179e+00, -1.4334026769009216e+00,
       3.2308240312312670e+00, -1.4369831781010605e+00,
       3.1997495444353183e+00, -1.4257634735705567e+00,
       3.1880910382497301e+00, -1.4141367243908323e+00,
       3.1894788059428754e+00, -1.4008753872819424e+00,
       3.2236299244162532e+00, -1.3893985265017941e+00,
       3.2954548570819440e+00, -1.3877484243013556e+00,
       3.3830851504241362e+00, -1.3774307585315364e+00,
       3.4724759382834267e+00, -1.3596556771725652e+00,
       3.5684653546588749e+00, -1.3480766106636410e+00,
       3.6194396723598135e+00, -1.3368869021591305e+00,
       3.5814957267643632e+00, -1.3181415342374714e+00,
       3.5619261923057661e+00, -1.2950931490035344e+00,
       3.5359030321033069e+00, -1.2872930600292276e+00,
       3.4546981211588657e+00, -1.3144414260204171e+00,
       3.3502598449177095e+00, -1.3455807269014344e+00,
       3.2826001233080175e+00, -1.3567769534112786e+00,
       3.2661911674115842e+00, -1.3571412214773020e+00,
       3.2969951048396497e+00, -1.3416441962681716e+00,
       3.3915297415152006e+00, -1.3142665268800722e+00,
       3.4777605340547946e+00, -1.2870429186327186e+00,
       3.5467907062107895e+00, -1.2953123624622893e+00,
       3.5843568872083380e+00, -1.3222475621916234e+00,
       3.6042184200851080e+00, -1.3412079143211939e+00,
       3.5857779047882663e+00, -1.3533208170449862e+00,
       3.5097498538280663e+00, -1.3641664853739244e+00,
       3.4100110531734416e+00, -1.3766203995559643e+00,
       3.3093210664569717e+00, -1.3873665191623936e+00,
       3.2384528928154444e+00, -1.3949149022419043e+00,
       3.2023170554161631e+00, -1.4012637849727061e+00,
       3.1863716943129807e+00, -1.4123922162165707e+00,
       3.1981520859288346e+00, -1.4248192413730572e+00,
       3.2269775211155891e+00, -1.4349408972381914e+00,
       3.2583185416835390e+00, -1.4328128130124556e+00,
       3.3136014416015533e+00, -1.4234212928813501e+00,
       3.3700440446090498e+00, -1.4083364826719236e+00,
       3.4159867826381158e+00, -1.3814756622591142e+00,
       3.4469793468792997e+00, -1.3486169433312281e+00,
       3.4804094002319412e+00, -1.3042080203451598e+00,
       3.5067788552154662e+00, -1.2463722427842865e+00,
       3.5050517339880720e+00, -1.1867660173120276e+00,
       3.4833908692601696e+00, -1.1218201178019256e+00,
       3.4618763100156253e+00, -1.1081352668540325e+00,
       3.4834812104761408e+00, -1.1771975404260586e+00,
       3.4706089826066560e+00, -1.2367789717036550e+00,
       3.4562551120800933e+00, -1.2975547049228606e+00,
       3.4256967809541821e+00, -1.3454155673548054e+00,
       3.3910092448788229e+00, -1.3839988397427250e+00,
       3.3362074232590522e+00, -1.4113591757714050e+00,
       3.2805691440971421e+00, -1.4380419358436494e+00,
       3.2222299515033357e+00, -1.4499840464836169e+00,
       3.1804666000836748e+00, -1.4519904846144867e+00,
       3.1461681374133379e+00, -1.4441488342610636e+00,
       3.1303559674759516e+00, -1.4315096235821658e+00,
       3.1383524013065829e+00, -1.4178200471231364e+00,
       3.1666908401522784e+00, -1.4039845352471361e+00,
       3.2264740037543760e+00, -1.3956860973064731e+00,
       3.3065455921367612e+00, -1.3817621253208503e+00,
       3.4152905605343324e+00, -1.3689690358973736e+00,
       3.5307532254245459e+00, -1.3647860413119524e+00,
       3.5786571600598336e+00, -1.3621358515629227e+00,
       3.5366769431471963e+00, -1.3559070118579086e+00,
       3.5100341958650771e+00, -1.3472673732051701e+00,
       3.4590475203177733e+00, -1.3471108514550234e+00,
       3.3535877544953943e+00, -1.3634320426914592e+00,
       3.2340249901878844e+00, -1.3837598308591297e+00,
       3.1718961484661281e+00, -1.3928546315582457e+00,
       3.1662758005368867e+00, -1.3909971643227894e+00,
       3.1979600259742504e+00, -1.3794781590074552e+00,
       3.3076036726344653e+00, -1.3654032045009581e+00,
       3.4134900213113610e+00, -1.3481563823105440e+00,
       3.4914103002276149e+00, -1.3498422189478616e+00,
       3.5434678355108913e+00, -1.3604368089160870e+00,
       3.5739030236253155e+00, -1.3687936604891129e+00,
       3.5544048754069926e+00, -1.3698194286450500e+00,
       3.4538206685201005e+00, -1.3732952784002079e+00,
       3.3335751787756340e+00, -1.3833925098005135e+00,
       3.2424785529359181e+00, -1.3976763228885205e+00,
       3.1790225358508208e+00, -1.4041750315950565e+00,
       3.1443588552967996e+00, -1.4164111339570138e+00,
       3.1303407729593040e+00, -1.4294278844485884e+00,
       3.1391447055380839e+00, -1.4402009901631556e+00,
       3.1681816168952128e+00, -1.4504711993098742e+00,
       3.2028391955212743e+00, -1.4499669465330904e+00,
       3.2564836007182647e+00, -1.4416555971316081e+00,
       3.3218152636417386e+00, -1.4256685910560030e+00,
       3.3773488870771513e+00, -1.3981872022958846e+00,
       3.4108611453324658e+00, -1.3631910359817414e+00,
       3.4446995492433774e+00, -1.3152401901487512e+00,
       3.4797002276232769e+00, -1.2625898841168646e+00,
       3.4856997803019678e+00, -1.1984193078358059e+00,
       3.4823184945052574e+00, -1.1308825577554007e+00,
       3.4586245370408895e+00, -1.1180569101930844e+00,
       3.4657110492394110e+00, -1.1871005932915535e+00,
       3.4512947147777284e+00, -1.2532128248216203e+00,
       3.4204505095513111e+00, -1.3107642629117224e+00,
       3.3834139032644326e+00, -1.3568212265946216e+00,
       3.3490972996074682e+00, -1.3960941733543417e+00,
       3.2935413862718770e+00, -1.4256678475439486e+00,
       3.2298677773051412e+00, -1.4489329409247356e+00,
       3.1717104766531001e+00, -1.4586915500183046e+00,
       3.1249679884590469e+00, -1.4613344829430848e+00,
       3.0965967344789052e+00, -1.4586953851258815e+00,
       3.0822958944070544e+00, -1.4463974193616791e+00,
       3.0922573033019369e+00, -1.4364733631118176e+00,
       3.1147667844109077e+00, -1.4214349101123207e+00,
       3.1576949177246671e+00, -1.4074590188984630e+00,
       3.2303290124427084e+00, -1.3969060507916853e+00,
       3.3292482759353539e+00, -1.3831615388915257e+00,
       3.4553771422558057e+00, -1.3822145499692422e+00,
       3.5243034598643428e+00, -1.3908565997770188e+00,
       3.5084648200061959e+00, -1.3894199356873091e+00,
       3.4838813274042888e+00, -1.3897986022439293e+00,
       3.4291315908236886e+00, -1.3958231240331427e+00,
       3.3131215912300092e+00, -1.4079013839866972e+00,
       3.1942905287342827e+00, -1.4233898199760999e+00,
       3.1336285477484540e+00, -1.4297024493473658e+00,
       3.1281084757840731e+00, -1.4314487818882049e+00,
       3.1664430767496077e+00, -1.4224041678032233e+00,
       3.2720886480984896e+00, -1.4068093831191235e+00,
       3.3818114013126199e+00, -1.3891812225710036e+00,
       3.4673569342717729e+00, -1.3868722908050768e+00,
       3.5081372429785929e+00, -1.3880596228203756e+00,
       3.5254323503794334e+00, -1.3891089342296807e+00,
       3.4815397011726859e+00, -1.3856527744340077e+00,
       3.3624286412786799e+00, -1.3881428771423052e+00,
       3.2522816023625776e+00, -1.3978207763873527e+00,
       3.1735664456263901e+00, -1.4079154888323886e+00,
       3.1253048065340794e+00, -1.4199599606867876e+00,
       3.0921740894868650e+00, -1.4331866788196610e+00,
       3.0828485563374808e+00, -1.4457038120074246e+00,
       3.0889853698008660e+00, -1.4545142887877522e+00,
       3.1146795864423704e+00, -1.4612014231775898e+00,
       3.1538606890072702e+00, -1.4617349110267630e+00,
       3.2068494903372962e+00, -1.4528265635316238e+00,
       3.2766321372795719e+00, -1.4383386681451831e+00,
       3.3357766473099111e+00, -1.4118945298122114e+00,
       3.3755847593256423e+00, -1.3760124387125743e+00,
       3.4053875646382443e+00, -1.3260317266953210e+00,
       3.4573785290719758e+00, -1.2761899666978442e+00,
       3.4678342671926781e+00, -1.2104766368020041e+00,
       3.4794557007786318e+00, -1.1453712609643603e+00,
       3.4571670169973681e+00, -1.1302588567085101e+00,
       3.4494468497244184e+00, -1.2001475866308566e+00,
       3.4291159816770249e+00, -1.2689941176279007e+00,
       3.3911417226465237e+00, -1.3242897379083800e+00,
       3.3498968633712232e+00, -1.3679107402251591e+00,
       3.3066946430209465e+00, -1.4015623317602715e+00,
       3.2531539988743363e+00, -1.4376943841390821e+00,
       3.1894357648198226e+00, -1.4587956505852029e+00,
       3.1265765563252561e+00, -1.4683429734299824e+00,
       3.0813391250490980e+00, -1.4706234047336406e+00,
       3.0511524136310060e+00, -1.4651451563946729e+00,
       3.0436662010834903e+00, -1.4578990487559360e+00,
       3.0524505802048933e+00, -1.4504350636155063e+00,
       3.0700334449861262e+00, -1.4387332721811297e+00,
       3.1034463037186062e+00, -1.4240726070648269e+00,
       3.1617222966431870e+00, -1.4099066906964295e+00,
       3.2457930367647014e+00, -1.4018224844403651e+00,
       3.3668943025156368e+00, -1.4035521276473879e+00,
       3.4611151634436608e+00, -1.4061253794667494e+00,
       3.4725032780405911e+00, -1.4024205196660788e+00,
       3.4482557706168220e+00, -1.4079981710613503e+00,
       3.3959363072165907e+00, -1.4209305001591204e+00,
       3.2912550296114378e+00, -1.4382101347428806e+00,
       3.1828477884090804e+00, -1.4520875466804222e+00,
       3.1240940875424386e+00, -1.4627240115386606e+00,
       3.1125846644039372e+00, -1.4621941741660591e+00,
       3.1636076647655349e+00, -1.4536805412824263e+00,
       3.2615168115037676e+00, -1.4349745607804323e+00,
       3.3605626677084643e+00, -1.4169374466059605e+00,
       3.4374226605471834e+00, -1.4081813893134316e+00,
       3.4781743634821973e+00, -1.4067027601520345e+00,
       3.4670837226956168e+00, -1.4033158911762504e+00,
       3.3901130139918942e+00, -1.4015759500753728e+00,
       3.2711068810043229e+00, -1.4021493612983928e+00,
       3.1776396360191757e+00, -1.4121026966858741e+00,
       3.1204627856912883e+00, -1.4249988762504711e+00,
       3.0720189111161185e+00, -1.4344632559098676e+00,
       3.0543361694271729e+00, -1.4471075900756722e+00,
       3.0447200008165431e+00, -1.4579553587698926e+00,
       3.0496308170957844e+00, -1.4633211031651978e+00,
       3.0686372927697825e+00, -1.4669668165335057e+00,
       3.1122960252424745e+00, -1.4688291338987325e+00,
       3.1616846257581690e+00, -1.4603121419042726e+00,
       3.2315742996664096e+00, -1.4468301178535405e+00,
       3.2922900079468240e+00, -1.4196357470171024e+00,
       3.3425762354036084e+00, -1.3862954191765464e+00,
       3.3809731981102535e+00, -1.3412306676584156e+00,
       3.4242286003684539e+00, -1.2897452283728523e+00,
       3.4558814847706159e+00, -1.2216819743943184e+00,
       3.4811457639897561e+00, -1.1579768553633956e+00,
       3.4538404285548951e+00, -1.1399345762141802e+00,
       3.4304766580484047e+00, -1.2058733522283582e+00,
       3.4055464098112229e+00, -1.2785307350007213e+00,
       3.3638455380315206e+00, -1.3316915607019584e+00,
       3.3194446462208282e+00, -1.3734080948329612e+00,
       3.2683353042171888e+00, -1.4083341954228308e+00,
       3.2148916290535015e+00, -1.4449279583339363e+00,
       3.1536144329991358e+00, -1.4639371281721281e+00,
       3.0944585681827355e+00, -1.4723840657893799e+00,
       3.0557216791886863e+00, -1.4762252924055077e+00,
       3.0342862879611188e+00, -1.4752491855980796e+00,
       3.0291433775722569e+00, -1.4700189483999984e+00,
       3.0326729516728230e+00, -1.4609703777067300e+00,
       3.0454743860101319e+00, -1.4513284267201521e+00,
       3.0675305797404548e+00, -1.4409281276058492e+00,
       3.1075880225160288e+00, -1.4267590516354502e+00,
       3.1822360316365272e+00, -1.4169421076481785e+00,
       3.2910666506886752e+00, -1.4206517440717916e+00,
       3.3886329874013965e+00, -1.4182883733752423e+00,
       3.4362058269110878e+00, -1.4170393707006010e+00,
       3.4287773325748203e+00, -1.4223021746528277e+00,
       3.3829951032494159e+00, -1.4361318773302616e+00,
       3.2904113702658937e+00, -1.4577532163928177e+00,
       3.1860465265299696e+00, -1.4731172748066164e+00,
       3.1121932806940498e+00, -1.4775715088666872e+00,
       3.1033703470054492e+00, -1.4781069454464626e+00,
       3.1665868960331354e+00, -1.4753257708593399e+00,
       3.2646278597102523e+00, -1.4566178538407659e+00,
       3.3467700435824788e+00, -1.4343907895976198e+00,
       3.4160052971013664e+00, -1.4203209159306047e+00,
       3.4371642643392040e+00, -1.4160623943634267e+00,
       3.4025016881593317e+00, -1.4144920215031531e+00,
       3.3226460682986341e+00, -1.4195053375760607e+00,
       3.2089406312951705e+00, -1.4198898867561798e+00,
       3.1234455419475600e+00, -1.4258888335492252e+00,
       3.0758912304587795e+00, -1.4382832924529037e+00,
       3.0472408521347756e+00, -1.4468197748241483e+00,
       3.0315827699615161e+00, -1.4569376682362032e+00,
       3.0297123161618154e+00, -1.4673856614200724e+00,
       3.0329810799403982e+00, -1.4732509182892659e+00,
       3.0470287565957568e+00, -1.4743641761359536e+00,
       3.0851183715031953e+00, -1.4734016928701417e+00,
       3.1346521361386221e+00, -1.4663521339503067e+00,
       3.2025505273529422e+00, -1.4559621595168288e+00,
       3.2570441403801986e+00, -1.4271363728864217e+00,
       3.3114463668801131e+00, -1.3935937628913575e+00,
       3.3579284473569873e+00, -1.3491227522910585e+00,
       3.3991411177636528e+00, -1.2975158905970112e+00,
       3.4322430405966449e+00, -1.2312287274954512e+00,
       3.4634286780490910e+00, -1.1624033611661642e+00,
       3.4549485315443529e+00, -1.1444583546822595e+00,
       3.4057089270006267e+00, -1.2108164909814303e+00,
       3.3849640525739479e+00, -1.2855211748229303e+00,
       3.3453602346211793e+00, -1.3369609566276535e+00,
       3.2936140403666054e+00, -1.3780497098949438e+00,
       3.2434793227834597e+00, -1.4128952930326717e+00,
       3.1840291799039599e+00, -1.4484551389120581e+00,
       3.1260317177537176e+00, -1.4679871371761977e+00,
       3.0751410825209322e+00, -1.4764557820019000e+00,
       3.0471018478525491e+00, -1.4800273148615231e+00,
       3.0345554064485558e+00, -1.4797731433328656e+00,
       3.0339583018682794e+00, -1.4763891700427421e+00,
       3.0347022817300777e+00, -1.4674028931890040e+00,
       3.0457947691409251e+00, -1.4630417201799319e+00,
       3.0546650503628574e+00, -1.4528104308910796e+00,
       3.0895351225426650e+00, -1.4451960534006503e+00,
       3.1354710995537571e+00, -1.4339520710782341e+00,
       3.2337965475441730e+00, -1.4306530957846888e+00,
       3.3356021897898169e+00, -1.4307356420042381e+00,
       3.3877324866724994e+00, -1.4280781036053942e+00,
       3.4032547313453745e+00, -1.4319996795238623e+00,
       3.3637283239427775e+00, -1.4462319740687304e+00,
       3.2875834208646060e+00, -1.4670513509665228e+00,
       3.1897732124315703e+00, -1.4841563685787968e+00,
       3.1112781007529500e+00, -1.4876437561834890e+00,
       3.1019250755312271e+00, -1.4863818267521351e+00,
       3.1697085021563587e+00, -1.4823241385060948e+00,
       3.2643173179251330e+00, -1.4659434234396596e+00,
       3.3404251809587469e+00, -1.4464219702484240e+00,
       3.3941972226492041e+00, -1.4319149546072323e+00,
       3.3925684921623498e+00, -1.4252677478066522e+00,
       3.3454730270880226e+00, -1.4220477736440584e+00,
       3.2485289560798858e+00, -1.4244786995170531e+00,
       3.1574435531685379e+00, -1.4326925624273223e+00,
       3.0976863450749441e+00, -1.4413006520749987e+00,
       3.0544981975822996e+00, -1.4471399594364807e+00,
       3.0486781277117792e+00, -1.4610028313989418e+00,
       3.0399176911957322e+00, -1.4667758044224917e+00,
       3.0343062886943986e+00, -1.4708573397274582e+00,
       3.0342782505338084e+00, -1.4760009202860120e+00,
       3.0420915896528351e+00, -1.4755892417609835e+00,
       3.0732002113466641e+00, -1.4760718620466364e+00,
       3.1132414066131830e+00, -1.4703552974571041e+00,
       3.1781630873636990e+00, -1.4575293243746736e+00,
       3.2376889286308468e+00, -1.4291844333645645e+00,
       3.2902735369899108e+00, -1.3954884945116781e+00,
       3.3429870405570083e+00, -1.3543830181324266e+00,
       3.3784389642605657e+00, -1.3030750635899124e+00,
       3.4136093871911073e+00, -1.2394526812699318e+00,
       3.4437703769991268e+00, -1.1655564165528920e+00,
       3.4454512273386908e+00, -1.1458662928213106e+00,
       3.3956942457817747e+00, -1.2189700159175596e+00,
       3.3699443560068874e+00, -1.2895613295778248e+00,
       3.3219984713559896e+00, -1.3399566470740811e+00,
       3.2740019566977385e+00, -1.3792854509007741e+00,
       3.2204103195651577e+00, -1.4119364848806446e+00,
       3.1699993482406352e+00, -1.4457220301001537e+00,
       3.1156637699024938e+00, -1.4652105761015615e+00,
       3.0761232160623413e+00, -1.4753355926187823e+00,
       3.0560539197226899e+00, -1.4770284087901924e+00,
       3.0479295135484805e+00, -1.4797411683894519e+00,
       3.0526283188326579e+00, -1.4757987276852420e+00,
       3.0508643882462461e+00, -1.4695506922369250e+00,
       3.0580427505666217e+00, -1.4667499792258929e+00,
       3.0638578015606295e+00, -1.4598486091669105e+00,
       3.0806226017683471e+00, -1.4509765124716161e+00,
       3.1173443258482711e+00, -1.4427413008935424e+00,
       3.1895141501921054e+00, -1.4361306098464286e+00,
       3.2786279257863735e+00, -1.4323397059989322e+00,
       3.3484744962952600e+00, -1.4353451850860364e+00,
       3.3693398874884957e+00, -1.4402309830194859e+00,
       3.3517489484289902e+00, -1.4517766754612671e+00,
       3.2930241410738148e+00, -1.4717862832853090e+00,
       3.1966049353413166e+00, -1.4896706106764803e+00,
       3.1095729701719956e+00, -1.4941957214381936e+00,
       3.0995586661014429e+00, -1.4932311728116670e+00,
       3.1726466461052798e+00, -1.4873473826743611e+00,
       3.2689480778319302e+00, -1.4709435659360337e+00,
       3.3319334251468216e+00, -1.4495703912099402e+00,
       3.3635342819451144e+00, -1.4369801739424679e+00,
       3.3466288269113731e+00, -1.4269559024218670e+00,
       3.2959382670472324e+00, -1.4278934706845750e+00,
       3.2131295926706458e+00, -1.4368908008638510e+00,
       3.1345929868919367e+00, -1.4420948020078315e+00,
       3.0882903497226146e+00, -1.4491804499459287e+00,
       3.0667333312977014e+00, -1.4553674783588517e+00,
       3.0629008495856844e+00, -1.4622834501027400e+00,
       3.0533331530604562e+00, -1.4649348873051826e+00,
       3.0525967338215954e+00, -1.4698260751656917e+00,
       3.0470630607789682e+00, -1.4725796741655708e+00,
       3.0541191989853256e+00, -1.4743087786999824e+00,
       3.0739985038315667e+00, -1.4746501790270341e+00,
       3.1029438586488163e+00, -1.4657203748488059e+00,
       3.1618892954662838e+00, -1.4563745946004993e+00,
       3.2157019224056316e+00, -1.4279607524920397e+00,
       3.2694936239430796e+00, -1.3940411800490791e+00,
       3.3173069519045248e+00, -1.3526387874683199e+00,
       3.3565018138615255e+00, -1.3048070788437405e+00,
       3.3933980257908440e+00, -1.2438629328913162e+00,
       3.4220659830845843e+00, -1.1675384058170710e+00,
       3.4258118380056546e+00, -1.1464188472788182e+00,
       3.3944339098384821e+00, -1.2267998636146220e+00,
       3.3634878296274304e+00, -1.2883650036694867e+00,
       3.3119278995240928e+00, -1.3371718884561468e+00,
       3.2653081236832637e+00, -1.3740534803099496e+00,
       3.2137455986205077e+00, -1.4062366350047133e+00,
       3.1692465864571351e+00, -1.4394301568592307e+00,
       3.1231796627471615e+00, -1.4555409919398834e+00,
       3.0901475569457335e+00, -1.4640356651874129e+00,
       3.0803647487561405e+00, -1.4676719503895659e+00,
       3.0774358243149567e+00, -1.4662495956317423e+00,
       3.0845148022749709e+00, -1.4651390141301794e+00,
       3.0894919181391352e+00, -1.4618000665363249e+00,
       3.0896895959829562e+00, -1.4586900935461025e+00,
       3.0881222962176365e+00, -1.4548948966208690e+00,
       3.0971325854229317e+00, -1.4503585384572333e+00,
       3.1171486183860266e+00, -1.4426899912647235e+00,
       3.1762298098826536e+00, -1.4383852776272550e+00,
       3.2586695062387205e+00, -1.4376215539026489e+00,
       3.3179054083025741e+00, -1.4341469591425278e+00,
       3.3387661767689001e+00, -1.4345677601749736e+00,
       3.3345349478070494e+00, -1.4488054884968140e+00,
       3.2959391333553998e+00, -1.4722970527353156e+00,
       3.1970034876563012e+00, -1.4886853294272611e+00,
       3.1116462687251345e+00, -1.4949989967901500e+00,
       3.1011700748030906e+00, -1.4927513658571716e+00,
       3.1756600034335483e+00, -1.4882307699557775e+00,
       3.2687335570483249e+00, -1.4671031423717309e+00,
       3.3267797946475937e+00, -1.4483405179683793e+00,
       3.3380419568236928e+00, -1.4337455203426224e+00,
       3.3236453000947477e+00, -1.4284958974734787e+00,
       3.2672320182546133e+00, -1.4308405563184623e+00,
       3.1981963300397429e+00, -1.4381866566869630e+00,
       3.1406073209094671e+00, -1.4435166203708829e+00,
       3.1084638207909707e+00, -1.4486887784935163e+00,
       3.0949598749566376e+00, -1.4519532396305666e+00,
       3.0873222772524547e+00, -1.4513707866285803e+00,
       3.0898555672481494e+00, -1.4567175008926263e+00,
       3.0830641598994224e+00, -1.4577489798234866e+00,
       3.0800810922105830e+00, -1.4604244545076526e+00,
       3.0785966609491147e+00, -1.4625963941023599e+00,
       3.0897432873782176e+00, -1.4640028123901356e+00,
       3.1099123798785122e+00, -1.4551860047319725e+00,
       3.1590830069401985e+00, -1.4469668441932584e+00,
       3.2158443606237426e+00, -1.4234151843971290e+00,
       3.2568913989561543e+00, -1.3882765270637283e+00,
       3.3140752009869683e+00, -1.3518830225978167e+00,
       3.3490236896442576e+00, -1.3049180914723757e+00,
       3.3804763757619134e+00, -1.2436076155946467e+00,
       3.4155812672463406e+00, -1.1712404247836610e+00,
       3.4289262051665026e+00, -1.1484877422252435e+00,
       3.3951605261883842e+00, -1.2261676121312080e+00,
       3.3569026491123117e+00, -1.2864606309878495e+00,
       3.3172509489355275e+00, -1.3322396332241560e+00,
       3.2673930471607835e+00, -1.3646029246478977e+00,
       3.2249958636704075e+00, -1.3974310978536615e+00,
       3.1798244132399573e+00, -1.4249272271712441e+00,
       3.1539142823229542e+00, -1.4455559740300803e+00,
       3.1381632173807139e+00, -1.4541645619134338e+00,
       3.1307752732761394e+00, -1.4537809391232290e+00,
       3.1278856179248726e+00, -1.4509600232899662e+00,
       3.1398772224758060e+00, -1.4514507251888698e+00,
       3.1487837949177111e+00, -1.4506860017956675e+00,
       3.1582777590775843e+00, -1.4491687426618880e+00,
       3.1569098806794296e+00, -1.4480118755297005e+00,
       3.1471151816446041e+00, -1.4467761879940608e+00,
       3.1462685154768653e+00, -1.4410363993495068e+00,
       3.1820061482780533e+00, -1.4351827992802533e+00,
       3.2465803713812309e+00, -1.4313601529644449e+00,
       3.3070399985545880e+00, -1.4287582611650613e+00,
       3.3399350530794329e+00, -1.4311247973375347e+00,
       3.3324194868830896e+00, -1.4407790247287335e+00,
       3.2906922818121438e+00, -1.4636811050152954e+00,
       3.1997771747170649e+00, -1.4875243193644496e+00,
       3.1161697374553534e+00, -1.4925100654143213e+00,
       3.1064224593743766e+00, -1.4917968707311748e+00,
       3.1790906259216771e+00, -1.4847463217340426e+00,
       3.2712201097212819e+00, -1.4634897893619976e+00,
       3.3175217023540999e+00, -1.4407994815668455e+00,
       3.3381082502318042e+00, -1.4277316717120863e+00,
       3.3196262327320385e+00, -1.4244235078436438e+00,
       3.2636616152649052e+00, -1.4283345169360602e+00,
       3.2050414074880513e+00, -1.4328514406064596e+00,
       3.1550275435682882e+00, -1.4366652029184455e+00,
       3.1496338923108866e+00, -1.4394555787197330e+00,
       3.1507490987735496e+00, -1.4422886600172158e+00,
       3.1509501769365658e+00, -1.4418769125607382e+00,
       3.1505941637993566e+00, -1.4430786680371142e+00,
       3.1405694869892793e+00, -1.4457846973954147e+00,
       3.1281629433393499e+00, -1.4431650866927574e+00,
       3.1292230688009943e+00, -1.4505009629677663e+00,
       3.1321118976949731e+00, -1.4490993946759223e+00,
       3.1412884990503254e+00, -1.4456560658744657e+00,
       3.1719296218803472e+00, -1.4324268224414876e+00,
       3.2220861808939238e+00, -1.4138420732785439e+00,
       3.2667402712811011e+00, -1.3818512969887240e+00,
       3.3099632571469710e+00, -1.3447531330156677e+00,
       3.3505124399482993e+00, -1.3007060879622636e+00,
       3.3749739350909609e+00, -1.2428653663221390e+00,
       3.4079653085159567e+00, -1.1663733306534600e+00,
       3.4367979947918488e+00, -1.1466517621519789e+00,
       3.4015754760571437e+00, -1.2201714947736959e+00,
       3.3638129983924818e+00, -1.2801157570909767e+00,
       3.3283731886731531e+00, -1.3262341583147372e+00,
       3.2889778415995994e+00, -1.3591102486407487e+00,
       3.2480688486067057e+00, -1.3837919402926544e+00,
       3.2129571049825865e+00, -1.4088057343177460e+00,
       3.1956692302980803e+00, -1.4278470866875168e+00,
       3.1891452945313681e+00, -1.4312858078759922e+00,
       3.1898933595005841e+00, -1.4285892414839245e+00,
       3.2015371973733400e+00, -1.4299911787254478e+00,
       3.2120690792625530e+00, -1.4283520175891931e+00,
       3.2305747856406390e+00, -1.4302420303360264e+00,
       3.2409942008970942e+00, -1.4252794015775814e+00,
       3.2499564084836416e+00, -1.4276807023090654e+00,
       3.2389393612121316e+00, -1.4294884544945596e+00,
       3.2178024790734483e+00, -1.4293456439562584e+00,
       3.2170111656306681e+00, -1.4304031654637637e+00,
       3.2563848772844488e+00, -1.4265540479612797e+00,
       3.3099132523462256e+00, -1.4216541432453047e+00,
       3.3452169260317786e+00, -1.4202500719920594e+00,
       3.3425604544002776e+00, -1.4316505428491839e+00,
       3.2912930948903725e+00, -1.4529899633329730e+00,
       3.1985664012200639e+00, -1.4787510568218574e+00,
       3.1150453047431026e+00, -1.4877486313084618e+00,
       3.1050437809803131e+00, -1.4863387497536205e+00,
       3.1810756547241890e+00, -1.4812469537355699e+00,
       3.2705835190118746e+00, -1.4570725565000093e+00,
       3.3208953725832600e+00, -1.4265255800990186e+00,
       3.3359225651356392e+00, -1.4129907029081183e+00,
       3.3216395414737159e+00, -1.4162815056068725e+00,
       3.2768452299324689e+00, -1.4222573128038589e+00,
       3.2309672845437212e+00, -1.4237220877927255e+00,
       3.2165076211911785e+00, -1.4237804457535412e+00,
       3.2318293258814079e+00, -1.4223826618029225e+00,
       3.2370008813810314e+00, -1.4177768863824698e+00,
       3.2306064651091115e+00, -1.4146287073090202e+00,
       3.2174203021702859e+00, -1.4202997869179290e+00,
       3.2071179452431107e+00, -1.4235367425843146e+00,
       3.1970621010768432e+00, -1.4255666292457798e+00,
       3.1877517403357567e+00, -1.4259898874835970e+00,
       3.1835054687604214e+00, -1.4273448893624383e+00,
       3.1899752884059795e+00, -1.4258593938636441e+00,
       3.2092423533789778e+00, -1.4148798195456946e+00,
       3.2477663749750794e+00, -1.3993325203501374e+00,
       3.2770251574443789e+00, -1.3677429278880067e+00,
       3.3197745006306283e+00, -1.3349934498677258e+00,
       3.3475137965504782e+00, -1.2920359157484465e+00,
       3.3802990341729444e+00, -1.2365654930421450e+00,
       3.4198846416774273e+00, -1.1643518407295479e+00,
       3.4473442643780441e+00, -1.1390031281909996e+00,
       3.4062692639966423e+00, -1.2127419700208721e+00,
       3.3731276147440643e+00, -1.2708607128147245e+00,
       3.3350039530131892e+00, -1.3087948621588814e+00,
       3.3072777344619748e+00, -1.3417071618596608e+00,
       3.2875030849865854e+00, -1.3681054497749436e+00,
       3.2769069089219909e+00, -1.3875521737600480e+00,
       3.2787519562918748e+00, -1.4015344116640218e+00,
       3.2832823469996715e+00, -1.4057393957530839e+00,
       3.2951456116857081e+00, -1.4085995122091983e+00,
       3.3086492856617062e+00, -1.4066677606590687e+00,
       3.3238317430588062e+00, -1.4030961660024723e+00,
       3.3410218965930030e+00, -1.4005690430363036e+00,
       3.3565075343707642e+00, -1.4005036854550297e+00,
       3.3748714474601522e+00, -1.4019459761538948e+00,
       3.3725798784004763e+00, -1.4027130373644507e+00,
       3.3428622385299720e+00, -1.4037699617046493e+00,
       3.3047005771532332e+00, -1.4106441911084731e+00,
       3.3037990990406758e+00, -1.4138193453016581e+00,
       3.3328040981115619e+00, -1.4090958996625078e+00,
       3.3641625108772608e+00, -1.4088288044591704e+00,
       3.3619765396883179e+00, -1.4202212526557090e+00,
       3.3069444050008752e+00, -1.4424223948975798e+00,
       3.2004707280963869e+00, -1.4673535056110334e+00,
       3.1135980704795196e+00, -1.4786849882236539e+00,
       3.1055678275531231e+00, -1.4814406647977634e+00,
       3.1837129963014545e+00, -1.4738955236129145e+00,
       3.2773750002908746e+00, -1.4435015019394788e+00,
       3.3409538676003496e+00, -1.4138656879725300e+00,
       3.3589918487832469e+00, -1.4020935995875983e+00,
       3.3431016415042132e+00, -1.4059178510722459e+00,
       3.3167752985068080e+00, -1.4057804404746161e+00,
       3.3088955009409307e+00, -1.4023765440177409e+00,
       3.3307663302886796e+00, -1.3965571203387626e+00,
       3.3638077993633817e+00, -1.3961929166288847e+00,
       3.3559154179044328e+00, -1.3890180470860416e+00,
       3.3422534388409946e+00, -1.3901418614358385e+00,
       3.3228067579762524e+00, -1.3964653314691027e+00,
       3.3114300048178160e+00, -1.4006590648844224e+00,
       3.3023132707260019e+00, -1.4063867845271387e+00,
       3.2948826745319835e+00, -1.4080560906652773e+00,
       3.2829952284993253e+00, -1.4076492802166427e+00,
       3.2702700616451374e+00, -1.4032261782258706e+00,
       3.2738791560717502e+00, -1.3921581146630826e+00,
       3.2866278242627032e+00, -1.3779674829598647e+00,
       3.3038675237638366e+00, -1.3510966392112398e+00,
       3.3239580091031860e+00, -1.3204325966209500e+00,
       3.3591012516928340e+00, -1.2838854581350689e+00,
       3.3916799188128599e+00, -1.2289859187756584e+00,
       3.4383030195418103e+00, -1.1531910070836682e+00,
       3.4551204093026033e+00, -1.1217787923516500e+00,
       3.4308495133444343e+00, -1.2048341882654794e+00,
       3.3902665737507696e+00, -1.2594432739977661e+00,
       3.3642448343739213e+00, -1.2954324568614988e+00,
       3.3526771413791305e+00, -1.3253469042609605e+00,
       3.3486209938198610e+00, -1.3468791430821483e+00,
       3.3570866765739522e+00, -1.3597603028411904e+00,
       3.3799184040504375e+00, -1.3685594096687230e+00,
       3.4113253649753172e+00, -1.3698125625546362e+00,
       3.4314677970570235e+00, -1.3723577596422569e+00,
       3.4408925309586977e+00, -1.3750533961594620e+00,
       3.4448504408475129e+00, -1.3716513036854530e+00,
       3.4628606565022322e+00, -1.3640178937246468e+00,
       3.4846528094071667e+00, -1.3605133944782140e+00,
       3.5146882389314329e+00, -1.3616891003404008e+00,
       3.5310738618223936e+00, -1.3691528035388263e+00,
       3.5245351024956793e+00, -1.3754118276867213e+00,
       3.4571808302785567e+00, -1.3804235321948215e+00,
       3.3935709197311050e+00, -1.3849851644230660e+00,
       3.3783804853914776e+00, -1.3874608730761320e+00,
       3.3935703118107576e+00, -1.3912032659542557e+00,
       3.3835510208183641e+00, -1.4047417005850769e+00,
       3.3212276823610298e+00, -1.4296999560005699e+00,
       3.1985579764643903e+00, -1.4575997993930587e+00,
       3.1090181672974473e+00, -1.4705448741919269e+00,
       3.0999807551835730e+00, -1.4722299783157413e+00,
       3.1745325280565546e+00, -1.4595280068447933e+00,
       3.2913189962599771e+00, -1.4317733570536466e+00,
       3.3635036168789014e+00, -1.4026405829979136e+00,
       3.3908439302865609e+00, -1.3848645231687842e+00,
       3.3913955901028774e+00, -1.3820565866057157e+00,
       3.3939618815742039e+00, -1.3785342950218122e+00,
       3.4334710064918799e+00, -1.3716218087477101e+00,
       3.4932647881952539e+00, -1.3706288364945622e+00,
       3.5175088663096798e+00, -1.3652053260930248e+00,
       3.4980356993583741e+00, -1.3604574510291734e+00,
       3.4736319325695626e+00, -1.3630198718437714e+00,
       3.4414786514253048e+00, -1.3667938479751640e+00,
       3.4161883532942405e+00, -1.3699115144696141e+00,
       3.4174501251590921e+00, -1.3741926386836667e+00,
       3.4196762645561343e+00, -1.3719033384728569e+00,
       3.4035880815151947e+00, -1.3695123509497420e+00,
       3.3787551351460468e+00, -1.3672600610722097e+00,
       3.3566663065376559e+00, -1.3614602989658622e+00,
       3.3480809250987229e+00, -1.3527222924910463e+00,
       3.3403569789046692e+00, -1.3329966694976374e+00,
       3.3542380189282941e+00, -1.3087959675387635e+00,
       3.3768292082325706e+00, -1.2694249010294667e+00,
       3.4029055291328363e+00, -1.2141526436963899e+00,
       3.4565337520415529e+00, -1.1383382462566813e+00,
       3.4711519134221791e+00, -1.1034017855820890e+00,
       3.4571998695468817e+00, -1.1902086698596019e+00,
       3.4136695139101807e+00, -1.2433910287316414e+00,
       3.4003652608783139e+00, -1.2831162385182517e+00,
       3.3982163720149030e+00, -1.3093037944118724e+00,
       3.4246845115287146e+00, -1.3197970920476412e+00,
       3.4661423382565775e+00, -1.3178451993837204e+00,
       3.5161213419607074e+00, -1.3100502867775954e+00,
       3.5590682294314622e+00, -1.3109218968600049e+00,
       3.5691461688227251e+00, -1.3228513893235176e+00,
       3.5547693719421383e+00, -1.3253558481497452e+00,
       3.5546702550300702e+00, -1.3216436140691181e+00,
       3.5888347314534998e+00, -1.3107505896438774e+00,
       3.6362647526746890e+00, -1.3097579779004120e+00,
       3.6662556210114814e+00, -1.3162795733899169e+00,
       3.6919669119709111e+00, -1.3318821824617431e+00,
       3.7073098874662227e+00, -1.3415125255577067e+00,
       3.6354364019240371e+00, -1.3462724646713335e+00,
       3.5065284549580338e+00, -1.3449771506109525e+00,
       3.4326210827249906e+00, -1.3515377668286330e+00,
       3.4299897273142745e+00, -1.3639925395192556e+00,
       3.4106377346405843e+00, -1.3849638574882930e+00,
       3.3290950533912231e+00, -1.4185280981849842e+00,
       3.1898415654992709e+00, -1.4460053352907951e+00,
