%YAML:1.0
my_nn: !!opencv-ml-ann-mlp
   layer_sizes: !!opencv-matrix
      rows: 1
      cols: 3
      dt: i
      data: [ 2500, 11, 2 ]
   activation_function: SIGMOID_SYM
   f_param1: 1.
   f_param2: 1.
   min_val: -9.4999999999999996e-01
   max_val: 9.4999999999999996e-01
   min_val1: -9.7999999999999998e-01
   max_val1: 9.7999999999999998e-01
   training_params:
      train_method: RPROP
      dw0: 1.0000000000000001e-01
      dw_plus: 1.2000000000000000e+00
      dw_minus: 5.0000000000000000e-01
      dw_min: 1.1920928955078125e-07
      dw_max: 50.
      term_criteria: { epsilon:9.9999997473787516e-06, iterations:45000 }
   input_scale: [ 3.2443323445090146e+00, -9.3556969263164502e-01,
       3.2836118321727685e+00, -9.3546120190384618e-01,
       3.3516538934571587e+00, -9.3789867599486620e-01,
       3.4190025451207169e+00, -9.4646460922363107e-01,
       3.4750970872122853e+00, -9.5231845403883397e-01,
       3.5583649502169057e+00, -9.7160641511848422e-01,
       3.6118090756159495e+00, -9.8153043564019316e-01,
       3.7148522578203487e+00, -1.0066424567474015e+00,
       3.7502011226276459e+00, -1.0239470316234784e+00,
       3.7767934766820357e+00, -1.0513692426540842e+00,
       3.8042922255390552e+00, -1.0854777264995521e+00,
       3.8123928996464165e+00, -1.1205754080504196e+00,
       3.8167605746546784e+00, -1.1575087043309866e+00,
       3.8019369117617781e+00, -1.1945182160771950e+00,
       3.7834544133916546e+00, -1.2271879401175043e+00,
       3.7592971933751822e+00, -1.2579549598272732e+00,
       3.7183389463336582e+00, -1.2797433861789465e+00,
       3.6685801511431264e+00, -1.2961794645694189e+00,
       3.6304386006692635e+00, -1.3040641256611851e+00,
       3.6073438192250307e+00, -1.3140570743390743e+00,
       3.5821792029199693e+00, -1.3248286017237654e+00,
       3.5500853144133537e+00, -1.3335890505848074e+00,
       3.5379794870440278e+00, -1.3354867478285688e+00,
       3.5269926853728335e+00, -1.3356970811383100e+00,
       3.5245507007895664e+00, -1.3337955059297955e+00,
       3.5296526869909108e+00, -1.3327095847516073e+00,
       3.5282747531842626e+00, -1.3328560010892248e+00,
       3.5273210616725752e+00, -1.3334288432192991e+00,
       3.5456189267215925e+00, -1.3324300472421344e+00,
       3.5695607510347296e+00, -1.3262944872359925e+00,
       3.5931889529960084e+00, -1.3201192758581299e+00,
       3.6238162076762603e+00, -1.3085433044687693e+00,
       3.6519457018604240e+00, -1.2948105748867482e+00,
       3.6973083273276588e+00, -1.2778076823036233e+00,
       3.7358186203263628e+00, -1.2520170594375015e+00,
       3.7662687268036819e+00, -1.2291791442067301e+00,
       3.7851783470737148e+00, -1.1936983465500275e+00,
       3.7789962439180211e+00, -1.1594071028359147e+00,
       3.7858840138713958e+00, -1.1290976826841295e+00,
       3.7954645983339708e+00, -1.0978872512628393e+00,
       3.7725140158956920e+00, -1.0642702432003537e+00,
       3.7554844205636475e+00, -1.0372748361636703e+00,
       3.6913225025402663e+00, -1.0090048192528700e+00,
       3.6158323390074187e+00, -9.9143925215037321e-01,
       3.5522559031793932e+00, -9.8051954402154928e-01,
       3.5047539088180848e+00, -9.6787636348655681e-01,
       3.4385240078244137e+00, -9.5692320518125762e-01,
       3.3726601942456869e+00, -9.5114980280095107e-01,
       3.3082059341799064e+00, -9.4250943741955096e-01,
       3.2607589869011946e+00, -9.3940613799548733e-01,
       3.2414238381232643e+00, -9.3098694116741909e-01,
       3.2876978621079371e+00, -9.3312088218760936e-01,
       3.3576752960115943e+00, -9.3681158051003510e-01,
       3.4317102389919860e+00, -9.4705610700984078e-01,
       3.4769815516548022e+00, -9.5422636068083544e-01,
       3.5631165274791958e+00, -9.6931994245691078e-01,
       3.6279064454958756e+00, -9.8397148513966193e-01,
       3.7039905672907643e+00, -1.0091942304006303e+00,
       3.7570223966206626e+00, -1.0370042774424919e+00,
       3.7760917583844753e+00, -1.0649282965308537e+00,
       3.7896467127980418e+00, -1.1081499932443604e+00,
       3.7984633220133852e+00, -1.1439172917500591e+00,
       3.7923398529649854e+00, -1.1854689240263754e+00,
       3.7902984720219974e+00, -1.2234431894556925e+00,
       3.7474843903766102e+00, -1.2581345607833267e+00,
       3.7171489172586969e+00, -1.2832635301727535e+00,
       3.6743084505341286e+00, -1.3010552865116340e+00,
       3.6343975672222459e+00, -1.3154844590739450e+00,
       3.6097673216223143e+00, -1.3274413400810954e+00,
       3.5767849322999470e+00, -1.3349574056197411e+00,
       3.5540246833489095e+00, -1.3466333977959011e+00,
       3.5185817778463231e+00, -1.3494571672956037e+00,
       3.5053580542924090e+00, -1.3531287080432968e+00,
       3.4983035212986304e+00, -1.3552293340830190e+00,
       3.5061970784437166e+00, -1.3528885958386150e+00,
       3.5047312418233179e+00, -1.3519528189298706e+00,
       3.5037983162287771e+00, -1.3500005917444799e+00,
       3.5026986323844005e+00, -1.3496990769778325e+00,
       3.5105081888657792e+00, -1.3468846231271290e+00,
       3.5291841758702716e+00, -1.3428228718435780e+00,
       3.5583555397099791e+00, -1.3375819133302143e+00,
       3.5869805681724038e+00, -1.3276887845599945e+00,
       3.6155897161902844e+00, -1.3181889670733795e+00,
       3.6433368527208287e+00, -1.3006619873016612e+00,
       3.7038533795356043e+00, -1.2838884405205651e+00,
       3.7426396502816512e+00, -1.2605989001769349e+00,
       3.7648171694867258e+00, -1.2251813116705910e+00,
       3.7750020921640259e+00, -1.1871676854705875e+00,
       3.7729133941047408e+00, -1.1547550121000680e+00,
       3.7638719629581621e+00, -1.1179628731561631e+00,
       3.7452825363980451e+00, -1.0803991243206035e+00,
       3.7219629136744588e+00, -1.0445704259496720e+00,
       3.6775037282589760e+00, -1.0171190062887758e+00,
       3.6184052611854121e+00, -9.9227797002184115e-01,
       3.5466806948630767e+00, -9.7881910712870757e-01,
       3.5072809235411460e+00, -9.6957680670196278e-01,
       3.4549538566940359e+00, -9.5839206786606324e-01,
       3.3837495431882756e+00, -9.4846702903045232e-01,
       3.3323919719754165e+00, -9.4508919065394037e-01,
       3.2731076948560740e+00, -9.3721985003331276e-01,
       3.2193137859221679e+00, -9.2921607037726672e-01,
       3.2792077275992222e+00, -9.3303400210832188e-01,
       3.3551227412126043e+00, -9.4099561149369038e-01,
       3.4285145962992543e+00, -9.4943997266628366e-01,
       3.4914402103755742e+00, -9.5549121051829689e-01,
       3.5644339091482680e+00, -9.7510794928494249e-01,
       3.6247525874386497e+00, -9.9626654338687648e-01,
       3.7023799324870583e+00, -1.0199775012811148e+00,
       3.7499787458407172e+00, -1.0517572020623016e+00,
       3.7689110517808655e+00, -1.0888586699058584e+00,
       3.7697371315392414e+00, -1.1332060883179831e+00,
       3.7721589706155125e+00, -1.1734253870969413e+00,
       3.7547483681049290e+00, -1.2119500341866078e+00,
       3.7439090936898141e+00, -1.2508756880211604e+00,
       3.7331938221718270e+00, -1.2852177474398607e+00,
       3.6786893548666453e+00, -1.3030307401116652e+00,
       3.6443464567081247e+00, -1.3221154361551590e+00,
       3.6246510137454657e+00, -1.3361810579693898e+00,
       3.5930266471773664e+00, -1.3445844990038427e+00,
       3.5608066097716633e+00, -1.3531780072709239e+00,
       3.5346925554905577e+00, -1.3557627520518638e+00,
       3.5121001479494121e+00, -1.3557687080088907e+00,
       3.5024387411418383e+00, -1.3607614204676943e+00,
       3.4994257298474478e+00, -1.3608149494761836e+00,
       3.5027117479844003e+00, -1.3628055491927089e+00,
       3.5045908415780418e+00, -1.3634619388242259e+00,
       3.4933835931052699e+00, -1.3603576330370446e+00,
       3.4997114053105371e+00, -1.3594101545193180e+00,
       3.5089032483272988e+00, -1.3561972892835106e+00,
       3.5176623908016595e+00, -1.3551685284919841e+00,
       3.5387676711696714e+00, -1.3516712325782769e+00,
       3.5737751132660245e+00, -1.3440914951600489e+00,
       3.6047249444267253e+00, -1.3361324492074846e+00,
       3.6223532861275647e+00, -1.3233506057643487e+00,
       3.6610185873026930e+00, -1.3057362265799872e+00,
       3.7006948503870394e+00, -1.2849487658892360e+00,
       3.7346878771199719e+00, -1.2520108533805840e+00,
       3.7538712009050341e+00, -1.2148351893291056e+00,
       3.7578229178220006e+00, -1.1782476087157456e+00,
       3.7430681141631545e+00, -1.1425918377532787e+00,
       3.7211981056602910e+00, -1.1036614399125482e+00,
       3.7046460283436788e+00, -1.0620283816609832e+00,
       3.6694418675831497e+00, -1.0281698550732965e+00,
       3.6246434282611322e+00, -1.0042726887521700e+00,
       3.5490719671044331e+00, -9.8388106856517621e-01,
       3.5012342733613560e+00, -9.6844806401939310e-01,
       3.4577548751558083e+00, -9.5900153094314822e-01,
       3.3832669585490360e+00, -9.4997752042621431e-01,
       3.3273250441248452e+00, -9.4323302975182055e-01,
       3.2668647933012016e+00, -9.3830980431780775e-01,
       3.2369978775806625e+00, -9.3324135492733140e-01,
       3.2976562448863298e+00, -9.3798598727139115e-01,
       3.3609601584760882e+00, -9.3807003936271249e-01,
       3.4337745132337067e+00, -9.4817480094014484e-01,
       3.5131731993431194e+00, -9.5862686583509671e-01,
       3.5829994914740113e+00, -9.8554407959133383e-01,
       3.6325193041411059e+00, -1.0061662081177372e+00,
       3.6869663266486752e+00, -1.0329801356996409e+00,
       3.7324642865828541e+00, -1.0655581476194913e+00,
       3.7559094504445798e+00, -1.1170499702916810e+00,
       3.7600150018584122e+00, -1.1637780549112662e+00,
       3.7444905928114895e+00, -1.1993176007273605e+00,
       3.7266061921219937e+00, -1.2389268560439568e+00,
       3.7148083443450988e+00, -1.2745002208358938e+00,
       3.6833208723123896e+00, -1.3040181151079262e+00,
       3.6478832290407985e+00, -1.3225077501050269e+00,
       3.6337173130816516e+00, -1.3395267542250382e+00,
       3.6184039091752460e+00, -1.3478751192828413e+00,
       3.5948317126907203e+00, -1.3568806637699684e+00,
       3.5685318772089816e+00, -1.3615219671502712e+00,
       3.5454642147223727e+00, -1.3570771443426681e+00,
       3.5253807180223742e+00, -1.3553920152344838e+00,
       3.5202392453434954e+00, -1.3553118796827204e+00,
       3.5101747017799227e+00, -1.3596785213346922e+00,
       3.5228750520053187e+00, -1.3605733091189196e+00,
       3.5229736033053083e+00, -1.3602460952390407e+00,
       3.5139682960614760e+00, -1.3582264442703880e+00,
       3.5219654176501165e+00, -1.3600923110069993e+00,
       3.5211715639636263e+00, -1.3579500692249296e+00,
       3.5432815940955447e+00, -1.3619206628639351e+00,
       3.5584214172352930e+00, -1.3621746250046975e+00,
       3.5678266769727709e+00, -1.3588362927593240e+00,
       3.5914326676301309e+00, -1.3502278567666743e+00,
       3.6134631603901983e+00, -1.3436151481264753e+00,
       3.6352275217480030e+00, -1.3233337078380161e+00,
       3.6621873362947683e+00, -1.3057946549996433e+00,
       3.6997328608783473e+00, -1.2798645338686587e+00,
       3.7235834129438965e+00, -1.2425620349675246e+00,
       3.7346006283263402e+00, -1.2068472847547596e+00,
       3.7287672258251798e+00, -1.1675330728706756e+00,
       3.7111237281553349e+00, -1.1258534130306177e+00,
       3.7125878606728513e+00, -1.0869371110355910e+00,
       3.6685538883870503e+00, -1.0471990079959919e+00,
       3.6256487803827078e+00, -1.0181300551150185e+00,
       3.5613172108857323e+00, -9.9213809427995447e-01,
       3.5004210030482157e+00, -9.6988176652917257e-01,
       3.4426089166095215e+00, -9.5913084033992191e-01,
       3.3772502236929673e+00, -9.4805901944411852e-01,
       3.3182958992601086e+00, -9.4264129475441671e-01,
       3.2575771435565013e+00, -9.3906081348841874e-01,
       3.2254613094963123e+00, -9.3260948488367501e-01,
       3.2922208659677721e+00, -9.3625491633155533e-01,
       3.3682056323092753e+00, -9.4188087629517003e-01,
       3.4373009695971115e+00, -9.4725669296252069e-01,
       3.5092428338703043e+00, -9.6762661925673032e-01,
       3.6009183237218809e+00, -9.9200466311570290e-01,
       3.6219814789480114e+00, -1.0134430973149215e+00,
       3.6675682788842896e+00, -1.0468003841432723e+00,
       3.7301935360390450e+00, -1.0906384744499509e+00,
       3.7304034826257970e+00, -1.1455253003973331e+00,
       3.7354434222486224e+00, -1.1872259366580122e+00,
       3.6970207024343691e+00, -1.2206436438541597e+00,
       3.6922630381793811e+00, -1.2608940206462247e+00,
       3.6828406907992988e+00, -1.2984558148165215e+00,
       3.6563961461312617e+00, -1.3229048409567670e+00,
       3.6388340570506537e+00, -1.3409722244888782e+00,
       3.6395804636763174e+00, -1.3524977053799989e+00,
       3.6248553634485310e+00, -1.3556735329730965e+00,
       3.6076484090302579e+00, -1.3613023622517473e+00,
       3.5909528706397578e+00, -1.3551625681701025e+00,
       3.5609275904484412e+00, -1.3490936599938541e+00,
       3.5558327912944612e+00, -1.3477078517983336e+00,
       3.5336339926800329e+00, -1.3428826836145582e+00,
       3.5309275656542636e+00, -1.3423673866986188e+00,
       3.5289892350235839e+00, -1.3431590503582569e+00,
       3.5268308880195898e+00, -1.3442616329294683e+00,
       3.5368455646944215e+00, -1.3460121380350072e+00,
       3.5376864451204284e+00, -1.3448752334561809e+00,
       3.5460324208167169e+00, -1.3482541805457535e+00,
       3.5615566121335465e+00, -1.3540704296701354e+00,
       3.5720742553403801e+00, -1.3600351928202676e+00,
       3.5881003247891923e+00, -1.3627574356848537e+00,
       3.5935034881272747e+00, -1.3581865459484368e+00,
       3.6105641532916799e+00, -1.3522074888664337e+00,
       3.6242254273448169e+00, -1.3395817234113006e+00,
       3.6369859031561806e+00, -1.3237799778266603e+00,
       3.6682197056268806e+00, -1.3040569109817612e+00,
       3.7026666106529569e+00, -1.2723545502857900e+00,
       3.7081791940286499e+00, -1.2343134778155613e+00,
       3.7281730677819649e+00, -1.1961757682944203e+00,
       3.7019661018084280e+00, -1.1544168579213605e+00,
       3.7053719239112457e+00, -1.1112328365798443e+00,
       3.6625502174966864e+00, -1.0654308174901095e+00,
       3.6193935878429979e+00, -1.0298622648218902e+00,
       3.5595127779038367e+00, -1.0023106464649081e+00,
       3.5142738206042439e+00, -9.8341849342243359e-01,
       3.4421354823539567e+00, -9.6134376216933493e-01,
       3.3806415756141459e+00, -9.4991845102237282e-01,
       3.3230237840618955e+00, -9.4522407532175434e-01,
       3.2498275397332792e+00, -9.4308725663404347e-01,
       3.2104582818053355e+00, -9.3514672100681662e-01,
       3.2944295341062491e+00, -9.4242170727273911e-01,
       3.3724102193989896e+00, -9.4664805121567841e-01,
       3.4398821817240450e+00, -9.5773116871593389e-01,
       3.5227953309431506e+00, -9.8120156629717925e-01,
       3.5824679182903614e+00, -1.0012866203641730e+00,
       3.6249703690126807e+00, -1.0308378870390589e+00,
       3.6527505085648175e+00, -1.0676203976352252e+00,
       3.7071678363516622e+00, -1.1202707344481504e+00,
       3.7042391047196332e+00, -1.1728395120944251e+00,
       3.6958203982421627e+00, -1.2109467719444076e+00,
       3.6739662433925244e+00, -1.2490207806339146e+00,
       3.6613632348126397e+00, -1.2859342294380487e+00,
       3.6529350780895604e+00, -1.3188810078854185e+00,
       3.6448583853673231e+00, -1.3376330939251893e+00,
       3.6430831864817401e+00, -1.3523802160936007e+00,
       3.6477783672603761e+00, -1.3594358405094982e+00,
       3.6365976680247969e+00, -1.3603646123373827e+00,
       3.6193097536449770e+00, -1.3562018020782676e+00,
       3.5999830566269906e+00, -1.3474493609118894e+00,
       3.5901077663269723e+00, -1.3400794538128775e+00,
       3.5809804988441960e+00, -1.3369362393961630e+00,
       3.5703681282029667e+00, -1.3330295334677982e+00,
       3.5654193536623442e+00, -1.3308121871805652e+00,
       3.5611003021124672e+00, -1.3296348685030390e+00,
       3.5503580622330917e+00, -1.3296800952181653e+00,
       3.5507984782652646e+00, -1.3291672126484755e+00,
       3.5649930494888227e+00, -1.3344011995368443e+00,
       3.5774313652876120e+00, -1.3393828034535409e+00,
       3.5993508241793637e+00, -1.3416915432297782e+00,
       3.6056228159701700e+00, -1.3512443314172391e+00,
       3.6104992000035185e+00, -1.3606532657769865e+00,
       3.6154630158118373e+00, -1.3613292685772287e+00,
       3.6192542625992958e+00, -1.3594425941482609e+00,
       3.6231224572646483e+00, -1.3462272995509723e+00,
       3.6337482984522484e+00, -1.3398057816065854e+00,
       3.6412524785760012e+00, -1.3191088213256223e+00,
       3.6676846067161519e+00, -1.2962824252326217e+00,
       3.6735364826721444e+00, -1.2598100154187830e+00,
       3.6954596607234729e+00, -1.2238810439709160e+00,
       3.6860102977538767e+00, -1.1830122605198368e+00,
       3.6823835275072554e+00, -1.1356072691226564e+00,
       3.6563183186637658e+00, -1.0892444550967424e+00,
       3.6246326135578952e+00, -1.0481382207618823e+00,
       3.5673536913560575e+00, -1.0132745870765629e+00,
       3.5242352714435694e+00, -9.9509190779165058e-01,
       3.4446740614960230e+00, -9.7645917860278753e-01,
       3.3657820260356197e+00, -9.5950974298529301e-01,
       3.2982184071527985e+00, -9.4627010812905310e-01,
       3.2411662684520519e+00, -9.4377731466815373e-01,
       3.2174203379645716e+00, -9.3935702824948519e-01,
       3.2810659756466434e+00, -9.4304680240682903e-01,
       3.3685337621349865e+00, -9.5343299872740750e-01,
       3.4431654957367135e+00, -9.6781720870508514e-01,
       3.5221326426495270e+00, -9.9423200511515519e-01,
       3.5913505891914914e+00, -1.0179922243891204e+00,
       3.6135132965607450e+00, -1.0481757487048682e+00,
       3.6592911142952307e+00, -1.0971260865977051e+00,
       3.6856707493830441e+00, -1.1528817711106571e+00,
       3.6805142015082124e+00, -1.2003965332143909e+00,
       3.6697778091246831e+00, -1.2389912462879427e+00,
       3.6522714558636471e+00, -1.2763353147149583e+00,
       3.6408038050726930e+00, -1.3131604222426785e+00,
       3.6267715444647832e+00, -1.3322605438916220e+00,
       3.6407891615302592e+00, -1.3473021500084870e+00,
       3.6480357134735382e+00, -1.3532324306021528e+00,
       3.6540828851762801e+00, -1.3593280406873933e+00,
       3.6487572590956376e+00, -1.3549956731773343e+00,
       3.6477441041871113e+00, -1.3451924195589895e+00,
       3.6366267958298786e+00, -1.3341470118199685e+00,
       3.6291282811871324e+00, -1.3220523423011228e+00,
       3.6199416669987361e+00, -1.3182532586595832e+00,
       3.6079415079137060e+00, -1.3209768540320201e+00,
       3.6021012501309073e+00, -1.3178053824261369e+00,
       3.6020396678111237e+00, -1.3136397481602926e+00,
       3.5920111049480097e+00, -1.3121578252188988e+00,
       3.5836834544256675e+00, -1.3131752277220758e+00,
       3.5928612937204107e+00, -1.3186689601293031e+00,
       3.6034738770811354e+00, -1.3211044723706136e+00,
       3.6278395984725988e+00, -1.3212348649548622e+00,
       3.6399418385172373e+00, -1.3300901271571848e+00,
       3.6442777161355870e+00, -1.3429783058156430e+00,
       3.6421224910006926e+00, -1.3528317845181221e+00,
       3.6355538162217256e+00, -1.3549892649233286e+00,
       3.6367321684064131e+00, -1.3534867094355474e+00,
       3.6280989443910414e+00, -1.3438119058526630e+00,
       3.6249691430160760e+00, -1.3330596981462943e+00,
       3.6402835548923962e+00, -1.3152091884251980e+00,
       3.6467091317189446e+00, -1.2874696519438487e+00,
       3.6582376918581891e+00, -1.2522628062702819e+00,
       3.6620150355377241e+00, -1.2113001135795958e+00,
       3.6745819747229405e+00, -1.1699690744122433e+00,
       3.6588968304002796e+00, -1.1194331255986707e+00,
       3.6120514237869270e+00, -1.0700928453152685e+00,
       3.5740012519960520e+00, -1.0325412546458628e+00,
       3.5238745932935314e+00, -1.0108170038149917e+00,
       3.4442209943670243e+00, -9.9030140664208233e-01,
       3.3804631536106795e+00, -9.7200543302620068e-01,
       3.3083568760573896e+00, -9.5621884810151336e-01,
       3.2417382746618078e+00, -9.4490510057148003e-01,
       3.2168797540703733e+00, -9.4227585371664535e-01,
       3.2971466574122523e+00, -9.4936844301743351e-01,
       3.3735985156316732e+00, -9.6114308528114900e-01,
       3.4679511231068529e+00, -9.8001292714482047e-01,
       3.5288076028857009e+00, -1.0087339438798288e+00,
       3.5874001722439157e+00, -1.0370866333847466e+00,
       3.6098358000407176e+00, -1.0740467560104827e+00,
       3.6527329232210120e+00, -1.1310257861548996e+00,
       3.6567407817508233e+00, -1.1866722146765969e+00,
       3.6470979249541360e+00, -1.2330339429838924e+00,
       3.6510209838352230e+00, -1.2713981591394634e+00,
       3.6293762303497550e+00, -1.3052686361490937e+00,
       3.6092021665787963e+00, -1.3291745356068059e+00,
       3.6032127794388531e+00, -1.3413399642642694e+00,
       3.6316736438620447e+00, -1.3495313133408398e+00,
       3.6531118487072201e+00, -1.3535330831033523e+00,
       3.6653050921585657e+00, -1.3504821824878874e+00,
       3.6604959279097899e+00, -1.3387643341569175e+00,
       3.6606376768096940e+00, -1.3226232937582549e+00,
       3.6704978685693699e+00, -1.3097999925878629e+00,
       3.6613115750205720e+00, -1.2968647026729954e+00,
       3.6606467523131552e+00, -1.3015775477380389e+00,
       3.6214445343268551e+00, -1.2943378958001013e+00,
       3.6115286193507918e+00, -1.2920432115938543e+00,
       3.5984975306744733e+00, -1.2865095299587486e+00,
       3.5971387404194219e+00, -1.2842809193899751e+00,
       3.5978889979520594e+00, -1.2891926368742506e+00,
       3.6074016552366839e+00, -1.2954291419064270e+00,
       3.6433152138591542e+00, -1.2988678815429573e+00,
       3.6417634076441603e+00, -1.2948104622934584e+00,
       3.6501218824370931e+00, -1.3030948366213979e+00,
       3.6564968858265989e+00, -1.3236074055950413e+00,
       3.6582343118871110e+00, -1.3386426123128568e+00,
       3.6481181031551753e+00, -1.3527680854380280e+00,
       3.6373785399822078e+00, -1.3560112379521563e+00,
       3.6194564816319255e+00, -1.3499682367919736e+00,
       3.6115949666986404e+00, -1.3447648059882529e+00,
       3.6083653383990901e+00, -1.3299677596538937e+00,
       3.6148838841961211e+00, -1.3100922610389394e+00,
       3.6230085720507832e+00, -1.2840979276601625e+00,
       3.6460423359303871e+00, -1.2458976924072143e+00,
       3.6533966628387331e+00, -1.2055499830084173e+00,
       3.6432177732455964e+00, -1.1530034591364713e+00,
       3.6082204570397378e+00, -1.1027854579003300e+00,
       3.5699776232095277e+00, -1.0540581890458907e+00,
       3.5273895357942151e+00, -1.0282114522023227e+00,
       3.4585332908686666e+00, -1.0038170688669612e+00,
       3.3767165414508784e+00, -9.8081303883142101e-01,
       3.3213671579333557e+00, -9.6689884322621944e-01,
       3.2611431173235093e+00, -9.5331998339972446e-01,
       3.2302391762166582e+00, -9.4440174435326452e-01,
       3.3099969773598117e+00, -9.5480693328248500e-01,
       3.3955909062981968e+00, -9.7398944811699217e-01,
       3.4711339484412296e+00, -9.9570189991913938e-01,
       3.5389021091365729e+00, -1.0283061065567765e+00,
       3.5748459794723937e+00, -1.0586063175388356e+00,
       3.6087203516829107e+00, -1.1066938833723776e+00,
       3.6302350988215677e+00, -1.1660928476045740e+00,
       3.6302462829414313e+00, -1.2239596104269002e+00,
       3.6200110444607687e+00, -1.2612239325729524e+00,
       3.6125742069854856e+00, -1.2999330799743012e+00,
       3.5973053080388535e+00, -1.3277910329422615e+00,
       3.5874886146269169e+00, -1.3405409908518018e+00,
       3.5983945013661933e+00, -1.3475312277132729e+00,
       3.6308785231663374e+00, -1.3517549809065843e+00,
       3.6476442226793595e+00, -1.3424127438386060e+00,
       3.6638662185041184e+00, -1.3366241672686954e+00,
       3.6850205707392494e+00, -1.3187674081989034e+00,
       3.6913879035875907e+00, -1.2939791057352157e+00,
       3.6930925080765085e+00, -1.2772202813724363e+00,
       3.6618906109304388e+00, -1.2700878041734713e+00,
       3.6407281266874514e+00, -1.2718674136067110e+00,
       3.6211770072587628e+00, -1.2754238154902322e+00,
       3.6006781956883143e+00, -1.2687795756586187e+00,
       3.5936769554900883e+00, -1.2668209473547956e+00,
       3.5840057850819935e+00, -1.2644327664934747e+00,
       3.5778231715096878e+00, -1.2672751338581045e+00,
       3.5946409449399082e+00, -1.2681709033688131e+00,
       3.6112549887054270e+00, -1.2655043883638406e+00,
       3.6545745392639875e+00, -1.2660452464385010e+00,
       3.6639669011568419e+00, -1.2682765016164070e+00,
       3.6748884914595856e+00, -1.2875935948664872e+00,
       3.6725665980990865e+00, -1.3142891219489410e+00,
       3.6599475917592037e+00, -1.3362727428636374e+00,
       3.6304865815801191e+00, -1.3470849614130667e+00,
       3.6120335882448127e+00, -1.3501537503139249e+00,
       3.5943328697374008e+00, -1.3509316047688071e+00,
       3.5979878025078627e+00, -1.3441225598479529e+00,
       3.5907758062693405e+00, -1.3295980816240400e+00,
       3.5907387369994295e+00, -1.3085336914641958e+00,
       3.6087213472708277e+00, -1.2769150217195235e+00,
       3.6287963258787950e+00, -1.2419982757504417e+00,
       3.6289493279521645e+00, -1.1923101024805614e+00,
       3.6041912485377194e+00, -1.1362343744081216e+00,
       3.5588019593821989e+00, -1.0822019442612756e+00,
       3.5259300871174610e+00, -1.0452109407768737e+00,
       3.4690526786214848e+00, -1.0187398308451296e+00,
       3.3886803679637749e+00, -9.9320649629220614e-01,
       3.3321596335628105e+00, -9.7551365024685432e-01,
       3.2585949011318296e+00, -9.5774721979922406e-01,
       3.2492047427344573e+00, -9.4793467914053187e-01,
       3.3347644743051266e+00, -9.6800383149440994e-01,
       3.4209603209672093e+00, -9.8648410017288990e-01,
       3.4914140913440255e+00, -1.0138037084567040e+00,
       3.5481498893483687e+00, -1.0475927850066991e+00,
       3.5792286276779017e+00, -1.0888921492567472e+00,
       3.6094393391830772e+00, -1.1473812585059247e+00,
       3.6169598407402064e+00, -1.2048472287952938e+00,
       3.6005353578499508e+00, -1.2546164744650443e+00,
       3.5901942997014475e+00, -1.2903075192967683e+00,
       3.5761433157209055e+00, -1.3213799741433623e+00,
       3.5574742430495356e+00, -1.3356718100026304e+00,
       3.5679344294667463e+00, -1.3475925361457544e+00,
       3.5861266019712543e+00, -1.3489071439879836e+00,
       3.6246879248075805e+00, -1.3442063247427400e+00,
       3.6520651720765329e+00, -1.3333558878916796e+00,
       3.6812570936347102e+00, -1.3156583867146985e+00,
       3.6777051055327297e+00, -1.2836910458295887e+00,
       3.7051795103092329e+00, -1.2545482823164604e+00,
       3.6975328507890262e+00, -1.2385948363165107e+00,
       3.6534048705038904e+00, -1.2366991313168252e+00,
       3.6292284326862241e+00, -1.2438342074223088e+00,
       3.6140018691064228e+00, -1.2526691440341644e+00,
       3.5777766234784978e+00, -1.2500559474337423e+00,
       3.5632431372600908e+00, -1.2455408322962820e+00,
       3.5568352626039386e+00, -1.2459823956626617e+00,
       3.5598411699372319e+00, -1.2475562594614158e+00,
       3.5824493002390012e+00, -1.2502062605291464e+00,
       3.6175125839812736e+00, -1.2463073525782817e+00,
       3.6336634919022797e+00, -1.2362382410618873e+00,
       3.6628822260097875e+00, -1.2400456965461961e+00,
       3.6749999806144227e+00, -1.2521498724279023e+00,
       3.6867205584261971e+00, -1.2830867833203092e+00,
       3.6653092440385859e+00, -1.3083853181697713e+00,
       3.6361895832752333e+00, -1.3284159761684851e+00,
       3.6061959592971609e+00, -1.3427649889742526e+00,
       3.5781350768743536e+00, -1.3455405711444881e+00,
       3.5695860447195007e+00, -1.3490361147748291e+00,
       3.5628571271592020e+00, -1.3419427839356410e+00,
       3.5585859752293261e+00, -1.3271271023743207e+00,
       3.5826235148052619e+00, -1.3054062424780750e+00,
       3.6014513371084922e+00, -1.2682842472010911e+00,
       3.5995742782675464e+00, -1.2240440230749086e+00,
       3.5873253647304435e+00, -1.1682789099349666e+00,
       3.5540594050274978e+00, -1.1118616910469497e+00,
       3.5240222936221408e+00, -1.0692797703526160e+00,
       3.4850307112978505e+00, -1.0356737076651306e+00,
       3.4051681403990370e+00, -1.0067236119141973e+00,
       3.3456807924688921e+00, -9.8757379009206203e-01,
       3.2696194865328811e+00, -9.6663338073133165e-01,
       3.2693114692750238e+00, -9.5763394765903109e-01,
       3.3544547154783593e+00, -9.7664488492245793e-01,
       3.4344326771045166e+00, -9.9812326242197946e-01,
       3.5045070685219808e+00, -1.0316882780710754e+00,
       3.5455913719137921e+00, -1.0729040426750456e+00,
       3.5891273774369989e+00, -1.1220986172779661e+00,
       3.5953430358150884e+00, -1.1791468799873235e+00,
       3.5888784948248791e+00, -1.2398538919089830e+00,
       3.5813783181944014e+00, -1.2826379945136945e+00,
       3.5663990039526627e+00, -1.3138086776401312e+00,
       3.5452604203770264e+00, -1.3315051844934345e+00,
       3.5350055838844554e+00, -1.3413692157444608e+00,
       3.5498601192332822e+00, -1.3479930494538763e+00,
       3.5823755221795137e+00, -1.3462430353901620e+00,
       3.6166804205273597e+00, -1.3368560293999812e+00,
       3.6588817644906264e+00, -1.3114481560932327e+00,
       3.6938885454057138e+00, -1.2823063001262935e+00,
       3.7063312119175498e+00, -1.2505566615996755e+00,
       3.7005845597367499e+00, -1.2145481374919240e+00,
       3.6559640963365934e+00, -1.1992126877293132e+00,
       3.6223445350513219e+00, -1.2050087420127293e+00,
       3.5809164580010311e+00, -1.2157388748409388e+00,
       3.5610341275860242e+00, -1.2207140841495012e+00,
       3.5369275939744140e+00, -1.2250560508150461e+00,
       3.5457970805659240e+00, -1.2248708684598633e+00,
       3.5354358409604134e+00, -1.2243509419888370e+00,
       3.5325309630578010e+00, -1.2239508378321216e+00,
       3.5584566098702783e+00, -1.2208856555494469e+00,
       3.5891258539995397e+00, -1.2141647355775544e+00,
       3.6142595688518715e+00, -1.1987294005056317e+00,
       3.6566477896709775e+00, -1.1979877329864879e+00,
       3.6814002432083992e+00, -1.2140664595372435e+00,
       3.6914489274670168e+00, -1.2438253922099940e+00,
       3.6809273006967174e+00, -1.2776071565313016e+00,
       3.6536147897866398e+00, -1.3110118752658904e+00,
       3.6182185774762843e+00, -1.3341183577058424e+00,
       3.5705890683144843e+00, -1.3417479922937345e+00,
       3.5412214170367711e+00, -1.3471421417391822e+00,
       3.5349761400861657e+00, -1.3450643407811329e+00,
       3.5400616985534872e+00, -1.3400117969056922e+00,
       3.5542186166861134e+00, -1.3235627935075132e+00,
       3.5680737595192484e+00, -1.2926123528370104e+00,
       3.5806000245072793e+00, -1.2568644579081918e+00,
       3.5838294291011477e+00, -1.2031945217678972e+00,
       3.5676692278753745e+00, -1.1492349311173020e+00,
       3.5262869198268518e+00, -1.0955123679237173e+00,
       3.4843104143408015e+00, -1.0513182220064987e+00,
       3.4255803783511625e+00, -1.0196063442669314e+00,
       3.3598090774686877e+00, -9.9792668857303590e-01,
       3.2811914109823035e+00, -9.7628314716721831e-01,
       3.2765698345229497e+00, -9.6822463532456537e-01,
       3.3697589639449070e+00, -9.8315784635559711e-01,
       3.4484929701289113e+00, -1.0101591944874271e+00,
       3.5214262097951452e+00, -1.0498609778573806e+00,
       3.5513935784513584e+00, -1.0963126083439214e+00,
       3.5759100229297731e+00, -1.1544432593645215e+00,
       3.5782831903508310e+00, -1.2124870481027159e+00,
       3.5752775627371420e+00, -1.2691658322809307e+00,
       3.5642813324693656e+00, -1.3063281642570927e+00,
       3.5464834181536053e+00, -1.3287032101319778e+00,
       3.5217010688945729e+00, -1.3423473402651029e+00,
       3.5231930472268904e+00, -1.3472688746004644e+00,
       3.5401474185538282e+00, -1.3407577728809097e+00,
       3.5687193463609916e+00, -1.3329949078484136e+00,
       3.6178331021227486e+00, -1.3198692732545432e+00,
       3.6655012241582399e+00, -1.2871282754461215e+00,
       3.7013708880336722e+00, -1.2560849908905756e+00,
       3.7170563139795600e+00, -1.2218236003781291e+00,
       3.7077390655160301e+00, -1.1925908313565490e+00,
       3.6378492940677405e+00, -1.1772491772032294e+00,
       3.5950759073278462e+00, -1.1773348656591434e+00,
       3.5374638167555137e+00, -1.1825550740124684e+00,
       3.5051022621913361e+00, -1.1911645688269503e+00,
       3.4609061690449443e+00, -1.1962769886264379e+00,
       3.4830032980020267e+00, -1.1980187391326671e+00,
       3.4671123451454058e+00, -1.1957277373629782e+00,
       3.4732602299107604e+00, -1.1977268397699254e+00,
       3.5061427516004535e+00, -1.1938352433207275e+00,
       3.5512351037641841e+00, -1.1836865997921708e+00,
       3.6002825639731326e+00, -1.1735766700863945e+00,
       3.6622056163532020e+00, -1.1768413935592057e+00,
       3.7137861730664863e+00, -1.1849058037610269e+00,
       3.6952017985222501e+00, -1.2062145351373907e+00,
       3.6814724864885546e+00, -1.2417516738129986e+00,
       3.6601052601045687e+00, -1.2819492891986537e+00,
       3.6173256763085235e+00, -1.3078014857707156e+00,
       3.5758878075959770e+00, -1.3307313130936396e+00,
       3.5299980100800497e+00, -1.3419524241342524e+00,
       3.5052876335385292e+00, -1.3436384682876823e+00,
       3.5206726974122171e+00, -1.3465950745998194e+00,
       3.5408380080433832e+00, -1.3394684654027829e+00,
       3.5536298205017829e+00, -1.3172829891621607e+00,
       3.5679981101753575e+00, -1.2828696165766043e+00,
       3.5760016703362507e+00, -1.2355751141110931e+00,
       3.5711404898009587e+00, -1.1783724385382910e+00,
       3.5269622631575221e+00, -1.1201959615527004e+00,
       3.4863268107729675e+00, -1.0704294283626281e+00,
       3.4332362543771509e+00, -1.0331064668616941e+00,
       3.3714531884518539e+00, -1.0074519536705464e+00,
       3.2953753534773154e+00, -9.8549445939480262e-01,
       3.2782355883514795e+00, -9.7628042345303445e-01,
       3.3799248303359146e+00, -9.9484233039627290e-01,
       3.4732805306215777e+00, -1.0268237308177266e+00,
       3.5191015194945057e+00, -1.0699861506789741e+00,
       3.5538195362699154e+00, -1.1197759725647871e+00,
       3.5670585440712621e+00, -1.1801674753551006e+00,
       3.5682532065951786e+00, -1.2426242731437196e+00,
       3.5622701662777558e+00, -1.2894294411510328e+00,
       3.5488971296742169e+00, -1.3244457206916453e+00,
       3.5304018372513815e+00, -1.3418562102384555e+00,
       3.5100235163269762e+00, -1.3486611811722982e+00,
       3.5073564569104612e+00, -1.3458521217220085e+00,
       3.5378828705377594e+00, -1.3370718315628327e+00,
       3.5820461611928764e+00, -1.3251022031404203e+00,
       3.6169221091433701e+00, -1.3000115668659684e+00,
       3.6673620288250226e+00, -1.2631616771096337e+00,
       3.6875520370423835e+00, -1.2316674949369009e+00,
       3.7070888977951415e+00, -1.2063409661633944e+00,
       3.6856964820929390e+00, -1.1865008648738844e+00,
       3.6509338769012434e+00, -1.1825271411251705e+00,
       3.5796681548303084e+00, -1.1761289261683481e+00,
       3.5276427385310249e+00, -1.1854078034815605e+00,
       3.4622466557631792e+00, -1.1926842127910915e+00,
       3.4158668052122283e+00, -1.1995262737266108e+00,
       3.4377832761028375e+00, -1.2045442160132707e+00,
       3.4257817579755572e+00, -1.2025300145212392e+00,
       3.4151671747132801e+00, -1.1988933988503565e+00,
       3.4375693296900174e+00, -1.1938266220931295e+00,
       3.5013166848119393e+00, -1.1851349565351630e+00,
       3.5602752540229825e+00, -1.1805003122508388e+00,
       3.6176106593649386e+00, -1.1778929875124915e+00,
       3.6967675290114199e+00, -1.1902045656010647e+00,
       3.6961889548468263e+00, -1.2030984035122210e+00,
       3.6778263172014523e+00, -1.2188822104677108e+00,
       3.6652625966387040e+00, -1.2538080225247872e+00,
       3.6335698350612025e+00, -1.2889713694348159e+00,
       3.5886429630132382e+00, -1.3121514991400078e+00,
       3.5384561759966138e+00, -1.3347306265385011e+00,
       3.5098504171699316e+00, -1.3440270371312522e+00,
       3.5115304283749129e+00, -1.3488454703309598e+00,
       3.5249621560120068e+00, -1.3502680643315021e+00,
       3.5505357153354713e+00, -1.3337410406392001e+00,
       3.5632433235942393e+00, -1.3055264872454748e+00,
       3.5773504065218322e+00, -1.2655512317147843e+00,
       3.5667175674621969e+00, -1.2072409121868204e+00,
       3.5565598479988001e+00, -1.1500469467053402e+00,
       3.4932992704804779e+00, -1.0928025480466761e+00,
       3.4436008355325618e+00, -1.0509442463261556e+00,
       3.3812182638530488e+00, -1.0201533330642185e+00,
       3.3037373847440739e+00, -9.9781047264832923e-01,
       3.3058421620808276e+00, -9.8930371583451249e-01,
       3.3912208257697123e+00, -1.0097770203764722e+00,
       3.4799496638974285e+00, -1.0450353621006077e+00,
       3.5208706599653872e+00, -1.0903497162457907e+00,
       3.5578946344367415e+00, -1.1479307689168341e+00,
       3.5735877992690375e+00, -1.2121495785199412e+00,
       3.5576214963556270e+00, -1.2627499777901940e+00,
       3.5605925151183162e+00, -1.3056282881281744e+00,
       3.5378795798601952e+00, -1.3354730332579781e+00,
       3.5134892132534330e+00, -1.3483313687576344e+00,
       3.5101697468104787e+00, -1.3541561686362105e+00,
       3.5130303950544808e+00, -1.3454387831302945e+00,
       3.5473896167639647e+00, -1.3314798675651314e+00,
       3.5792136861323152e+00, -1.3059430252602742e+00,
       3.5989917577358268e+00, -1.2723528206221251e+00,
       3.6233089951996487e+00, -1.2406924669444310e+00,
       3.6382317204295811e+00, -1.2177994960885299e+00,
       3.6440808270454159e+00, -1.2051737283591111e+00,
       3.6358325982849800e+00, -1.1986267767716818e+00,
       3.5979181907529187e+00, -1.1885470808315004e+00,
       3.5609745977558775e+00, -1.1901937615793681e+00,
       3.5215366034005235e+00, -1.1957872766950599e+00,
       3.4435132862624487e+00, -1.2005123360270271e+00,
       3.4061662338336807e+00, -1.2063153350725819e+00,
       3.4239653959806073e+00, -1.2146495420147878e+00,
       3.4189875615530232e+00, -1.2130990032831734e+00,
       3.4079203859624085e+00, -1.2082442891444110e+00,
       3.4414966750207152e+00, -1.2052684061677050e+00,
       3.4895318059607288e+00, -1.2000783185261710e+00,
       3.5291209883416768e+00, -1.1959038680186833e+00,
       3.5754795417621628e+00, -1.1956446378615382e+00,
       3.6257177948889843e+00, -1.2055898353685370e+00,
       3.6477266478502286e+00, -1.2171496177219550e+00,
       3.6509066573935867e+00, -1.2234465750589985e+00,
       3.6458288825430576e+00, -1.2411402197672379e+00,
       3.6165497232465733e+00, -1.2650468987155106e+00,
       3.5918340891820568e+00, -1.2959818817523787e+00,
       3.5515439566019094e+00, -1.3218096484478044e+00,
       3.5143503109537715e+00, -1.3383229432770725e+00,
       3.5097301156302958e+00, -1.3479090679748120e+00,
       3.5172121924430475e+00, -1.3547599247641418e+00,
       3.5320113228330099e+00, -1.3426596153670032e+00,
       3.5633974414347729e+00, -1.3253925557212978e+00,
       3.5726491382951293e+00, -1.2875676056144396e+00,
       3.5747015465110867e+00, -1.2349596296305043e+00,
       3.5557578370505722e+00, -1.1737583148605908e+00,
       3.5072263241800190e+00, -1.1182879520080347e+00,
       3.4556511353598212e+00, -1.0685216710131737e+00,
       3.3889281564318736e+00, -1.0332638032318078e+00,
       3.3219044761397098e+00, -1.0085893330010456e+00,
       3.3166928114612420e+00, -9.9995247687041300e-01,
       3.4019832694531735e+00, -1.0244931989249735e+00,
       3.4825516001310550e+00, -1.0628585330899718e+00,
       3.5282876565548413e+00, -1.1120422341566538e+00,
       3.5610306155232401e+00, -1.1739633187168497e+00,
       3.5717301888258710e+00, -1.2353417473833286e+00,
       3.5593386810638590e+00, -1.2797285375769116e+00,
       3.5539563449326885e+00, -1.3163812159201487e+00,
       3.5327306119497583e+00, -1.3454354332016230e+00,
       3.5146724616330500e+00, -1.3508357058420977e+00,
       3.5103552755737040e+00, -1.3507241378222397e+00,
       3.5010249850968376e+00, -1.3362236738825617e+00,
       3.5322405608604437e+00, -1.3205501357479348e+00,
       3.5582207045321943e+00, -1.2893290479967476e+00,
       3.5779165503789878e+00, -1.2584950345589405e+00,
       3.5901684729595504e+00, -1.2359474426710708e+00,
       3.5918430407709314e+00, -1.2322046047167694e+00,
       3.6019702625818817e+00, -1.2302862496790914e+00,
       3.5833968846023772e+00, -1.2283244271435756e+00,
       3.5724383794445984e+00, -1.2242495691860229e+00,
       3.5353439996883846e+00, -1.2167447585610300e+00,
       3.5260741022149440e+00, -1.2233878939184490e+00,
       3.4730162190039615e+00, -1.2255652119888751e+00,
       3.4446577330073969e+00, -1.2292567325018464e+00,
       3.4443413097878541e+00, -1.2379984367215611e+00,
       3.4299786979296543e+00, -1.2330222135334450e+00,
       3.4291357417179378e+00, -1.2299246640720038e+00,
       3.4476821717236290e+00, -1.2267513241591068e+00,
       3.4885575550322345e+00, -1.2218175030981946e+00,
       3.5142419129388562e+00, -1.2212236935312590e+00,
       3.5410819923653611e+00, -1.2262582135135063e+00,
       3.5547529735106100e+00, -1.2275616031922036e+00,
       3.5631518524646375e+00, -1.2327027984835808e+00,
       3.5837520680303134e+00, -1.2349713412346728e+00,
       3.5966272262094114e+00, -1.2451307814463581e+00,
       3.5882416022741830e+00, -1.2572589241784426e+00,
       3.5747271916338068e+00, -1.2832418660445799e+00,
       3.5590870200155433e+00, -1.3163054626913671e+00,
       3.5214121132321350e+00, -1.3332015068401151e+00,
       3.5099705184819601e+00, -1.3465626931695371e+00,
       3.5035137502338753e+00, -1.3512523140837138e+00,
       3.5260827380410893e+00, -1.3540901929397759e+00,
       3.5503716117747635e+00, -1.3351656205032076e+00,
       3.5613956184434050e+00, -1.3011638275209856e+00,
       3.5670878683302005e+00, -1.2593351920337192e+00,
       3.5505781839223132e+00, -1.1942949938174101e+00,
       3.5239415115919228e+00, -1.1398682917215985e+00,
       3.4601510076969930e+00, -1.0832174169680400e+00,
       3.4034231833986790e+00, -1.0461622500295991e+00,
       3.3347345813853417e+00, -1.0184919153452279e+00,
       3.3375091775724557e+00, -1.0090808680878651e+00,
       3.4116160761440524e+00, -1.0367530189425880e+00,
       3.4905949417547051e+00, -1.0801519511972166e+00,
       3.5307478981459757e+00, -1.1336192595980301e+00,
       3.5603048693756452e+00, -1.1975632727277135e+00,
       3.5679568750533024e+00, -1.2531801588372906e+00,
       3.5692016367268171e+00, -1.2965590771974334e+00,
       3.5463441556789959e+00, -1.3256853958224448e+00,
       3.5230773977479228e+00, -1.3478323211757237e+00,
       3.5146796773784703e+00, -1.3550820399867163e+00,
       3.4960565260453982e+00, -1.3467975071924017e+00,
       3.4926477468441930e+00, -1.3350163902281957e+00,
       3.5307676262665644e+00, -1.3146211301742494e+00,
       3.5413691864859045e+00, -1.2876805243683622e+00,
       3.5533170590277212e+00, -1.2649235775941210e+00,
       3.5581741536634128e+00, -1.2522955967064455e+00,
       3.5626675021131620e+00, -1.2593212214431657e+00,
       3.5490797672321968e+00, -1.2599279429766235e+00,
       3.5382807781469952e+00, -1.2656875570647035e+00,
       3.5388078219022692e+00, -1.2643089748229892e+00,
       3.5261063671920856e+00, -1.2627710977750666e+00,
       3.5099507304037818e+00, -1.2663454379857757e+00,
       3.4767002844827726e+00, -1.2672184716007984e+00,
       3.4446541373602453e+00, -1.2675811222779148e+00,
       3.4341715564082040e+00, -1.2718999324536204e+00,
       3.4358240948225869e+00, -1.2699517179891517e+00,
       3.4286071488335250e+00, -1.2659552491202382e+00,
       3.4343809139678507e+00, -1.2625627383446598e+00,
       3.4676890442599828e+00, -1.2615986277921305e+00,
       3.4915893184421942e+00, -1.2601404132141287e+00,
       3.5117064905923319e+00, -1.2648589077136141e+00,
       3.5032582627884730e+00, -1.2607195141658896e+00,
       3.5258788759286492e+00, -1.2627203793253794e+00,
       3.5460734779828114e+00, -1.2643242140847142e+00,
       3.5587298536260370e+00, -1.2619778116302587e+00,
       3.5646523650182207e+00, -1.2713905007015480e+00,
       3.5470402454859591e+00, -1.2914920701735686e+00,
       3.5413304898456808e+00, -1.3130189066178133e+00,
       3.5203102051391468e+00, -1.3339577803509095e+00,
       3.5080954767325947e+00, -1.3490727524604542e+00,
       3.5064173405343486e+00, -1.3529531989678676e+00,
       3.5244291441211226e+00, -1.3564298119790397e+00,
       3.5409494290290939e+00, -1.3421457789443956e+00,
       3.5511374013433366e+00, -1.3144251980514681e+00,
       3.5731686609648015e+00, -1.2779492581237095e+00,
       3.5622542750087987e+00, -1.2196722161851257e+00,
       3.5458246123928685e+00, -1.1655522309459423e+00,
       3.4895945695037791e+00, -1.1031303625335849e+00,
       3.4209161301079853e+00, -1.0624453120435071e+00,
       3.3421514742737974e+00, -1.0250677088337437e+00,
       3.3575860134411974e+00, -1.0196050811240993e+00,
       3.4159680937975048e+00, -1.0494159342109961e+00,
       3.4947377789481968e+00, -1.0964662693489058e+00,
       3.5380054140207342e+00, -1.1570680689997572e+00,
       3.5630537401017612e+00, -1.2188065773523864e+00,
       3.5640041266019384e+00, -1.2673431308559844e+00,
       3.5647758962795955e+00, -1.3064576120073017e+00,
       3.5362174934902084e+00, -1.3330637920602251e+00,
       3.5163250500926573e+00, -1.3484042580376681e+00,
       3.5138814986398192e+00, -1.3584959381658614e+00,
       3.4922046948428278e+00, -1.3470800861176642e+00,
       3.4938073669340195e+00, -1.3397050833318644e+00,
       3.5032879909985608e+00, -1.3196827189080915e+00,
       3.5041912417437504e+00, -1.3009262087591327e+00,
       3.5234366284130640e+00, -1.2906652741866407e+00,
       3.5215571985766205e+00, -1.2854451407114578e+00,
       3.5294628867422730e+00, -1.2955985429515506e+00,
       3.5154516992532057e+00, -1.3001297496435482e+00,
       3.4985746666143744e+00, -1.3016616607985643e+00,
       3.5022657303041282e+00, -1.3049388140389486e+00,
       3.5036095985409901e+00, -1.3079450614152632e+00,
       3.4881589288281831e+00, -1.3081902226260222e+00,
       3.4506921770075967e+00, -1.3067948548756561e+00,
       3.4369145123458393e+00, -1.3099031629081874e+00,
       3.4402222053185860e+00, -1.3105804363538134e+00,
       3.4424209653817517e+00, -1.3084192524184890e+00,
       3.4359195279519850e+00, -1.3089479566600424e+00,
       3.4430305553157003e+00, -1.3093816034315808e+00,
       3.4756745118120342e+00, -1.3078527554327959e+00,
       3.4925177410013442e+00, -1.3069381570859173e+00,
       3.4963494710226839e+00, -1.3054956319378703e+00,
       3.4893268827501145e+00, -1.3046824127666277e+00,
       3.4894906910078638e+00, -1.2999083477939226e+00,
       3.5016689108892400e+00, -1.2920091338456798e+00,
       3.5073415687669578e+00, -1.2905302043365785e+00,
       3.5132172245018971e+00, -1.2948232682834162e+00,
       3.5059740023771879e+00, -1.3020738721931118e+00,
       3.4943405789628277e+00, -1.3166677779149503e+00,
       3.4962327459903930e+00, -1.3382195458088590e+00,
       3.5002087177890537e+00, -1.3467860019868600e+00,
       3.5043552933563640e+00, -1.3538758034058054e+00,
       3.5244417061501627e+00, -1.3587433264211437e+00,
       3.5455898994984847e+00, -1.3491509954278784e+00,
       3.5562081608258835e+00, -1.3251617356512815e+00,
       3.5677819345475021e+00, -1.2912170961040084e+00,
       3.5672907417871218e+00, -1.2437340135887351e+00,
       3.5557341789383048e+00, -1.1879288577401723e+00,
       3.4968239710751114e+00, -1.1222698450533000e+00,
       3.4270235187329918e+00, -1.0753771482475469e+00,
       3.3786828040229508e+00, -1.0379255464472328e+00,
       3.3816733043386091e+00, -1.0273817566550836e+00,
       3.4310368382912197e+00, -1.0618615493472481e+00,
       3.5081765871895243e+00, -1.1165206825466945e+00,
       3.5426666698052687e+00, -1.1767248864287740e+00,
       3.5640312954417723e+00, -1.2341639928852235e+00,
       3.5678071550577499e+00, -1.2817637921827201e+00,
       3.5514938249187646e+00, -1.3145812158572214e+00,
       3.5322509736465317e+00, -1.3407928905439077e+00,
       3.5275564846770102e+00, -1.3549364366095946e+00,
       3.5100492834047055e+00, -1.3623917646798933e+00,
       3.4791709555096837e+00, -1.3516944924253864e+00,
       3.4699106611128769e+00, -1.3441964274778349e+00,
       3.4696560724755021e+00, -1.3338668754370102e+00,
       3.4743242377011905e+00, -1.3242317441870817e+00,
       3.4712088993481589e+00, -1.3161724559622781e+00,
       3.4757916263010671e+00, -1.3172600438944948e+00,
       3.4786383636417968e+00, -1.3256198814416416e+00,
       3.4739428040395279e+00, -1.3331382674304275e+00,
       3.4952297991030874e+00, -1.3379474247253100e+00,
       3.4923340450597147e+00, -1.3341689013455762e+00,
       3.4929041800880540e+00, -1.3334457777778934e+00,
       3.4773745803682612e+00, -1.3294513703053059e+00,
       3.4434015096103678e+00, -1.3275273920258777e+00,
       3.4375787474554946e+00, -1.3184972333739235e+00,
       3.4461762489381473e+00, -1.3119470474002888e+00,
       3.4496550706580362e+00, -1.3109749623653462e+00,
       3.4281557451213849e+00, -1.3166270034457921e+00,
       3.4274917264095639e+00, -1.3224233179736078e+00,
       3.4606624369685544e+00, -1.3294804884538107e+00,
       3.4785186146845031e+00, -1.3315808463910346e+00,
       3.4722506222876568e+00, -1.3323509362002695e+00,
       3.4724652921612531e+00, -1.3334831384557138e+00,
       3.4649028411535987e+00, -1.3330602378536553e+00,
       3.4631296860795793e+00, -1.3298108653611769e+00,
       3.4634893061158714e+00, -1.3264149366721407e+00,
       3.4666109570149657e+00, -1.3260551419169404e+00,
       3.4582378845482133e+00, -1.3220781643494237e+00,
       3.4532766232809684e+00, -1.3293000072069667e+00,
       3.4639031492469043e+00, -1.3421578612997520e+00,
       3.4700957552399290e+00, -1.3472910580099327e+00,
       3.5011542230430717e+00, -1.3574362942107079e+00,
       3.5190247943455613e+00, -1.3586293624637056e+00,
       3.5391329637170537e+00, -1.3562999005427734e+00,
       3.5615005295066107e+00, -1.3351887548339045e+00,
       3.5653833706155074e+00, -1.3051290048524868e+00,
       3.5712315709531688e+00, -1.2602374883168226e+00,
       3.5570459521265874e+00, -1.2057424258902674e+00,
       3.5165871685329142e+00, -1.1446862695921649e+00,
       3.4457238124883736e+00, -1.0883938211727149e+00,
       3.3884822668621029e+00, -1.0496403789362430e+00,
       3.4029590774126253e+00, -1.0347454769098239e+00,
       3.4371812834544921e+00, -1.0750407587500339e+00,
       3.5180059758207078e+00, -1.1370790724695747e+00,
       3.5475418586316607e+00, -1.1953156054850052e+00,
       3.5559046882709304e+00, -1.2488367851520470e+00,
       3.5653290872831334e+00, -1.2950624993610622e+00,
       3.5440179204891149e+00, -1.3244346158657192e+00,
       3.5252216202407962e+00, -1.3504016158432994e+00,
       3.5101708109160970e+00, -1.3655545969598990e+00,
       3.4839974351040821e+00, -1.3646159533308573e+00,
       3.4574001235236214e+00, -1.3579539123103088e+00,
       3.4359002191751711e+00, -1.3470223843881342e+00,
       3.4291747823872272e+00, -1.3422025806465583e+00,
       3.4192589554701280e+00, -1.3369099981530521e+00,
       3.4211208128642756e+00, -1.3409265409759132e+00,
       3.4212465512684815e+00, -1.3424046793192383e+00,
       3.4333563115041668e+00, -1.3476718979578217e+00,
       3.4400041346278782e+00, -1.3482246234187814e+00,
       3.4667604935984540e+00, -1.3440342768368991e+00,
       3.4829896690805455e+00, -1.3339707540696837e+00,
       3.4932986394099430e+00, -1.3225002424461181e+00,
       3.4863627168801536e+00, -1.3150974989812612e+00,
       3.4454496298101986e+00, -1.3094335226797804e+00,
       3.4438773401809235e+00, -1.3009336329060954e+00,
       3.4762501708693430e+00, -1.2964278025025682e+00,
       3.4754086861856890e+00, -1.2953394118042045e+00,
       3.4485842024756668e+00, -1.3030658830864232e+00,
       3.4338100584982603e+00, -1.3058417825210458e+00,
       3.4648380853982212e+00, -1.3106579175057362e+00,
       3.4739207040791613e+00, -1.3183553097477299e+00,
       3.4648923911133935e+00, -1.3341406898888872e+00,
       3.4416102403130013e+00, -1.3419140815745039e+00,
       3.4325628242216424e+00, -1.3491399395956758e+00,
       3.4226735130371138e+00, -1.3530039064195754e+00,
       3.4193223884972364e+00, -1.3536903863471739e+00,
       3.4203079896228865e+00, -1.3504679935212092e+00,
       3.4145987712990409e+00, -1.3408947825625419e+00,
       3.4230648257685474e+00, -1.3454267348606299e+00,
       3.4281182424191803e+00, -1.3470973895295075e+00,
       3.4499690884694969e+00, -1.3586390437580855e+00,
       3.4763703602048248e+00, -1.3650847820881997e+00,
       3.5051582711407812e+00, -1.3662980200745884e+00,
       3.5252364198770687e+00, -1.3593229838703402e+00,
       3.5393576031800533e+00, -1.3415527094211499e+00,
       3.5549170130704817e+00, -1.3165165843706939e+00,
       3.5714466143046510e+00, -1.2767346554221144e+00,
       3.5470806391077243e+00, -1.2221520908850563e+00,
       3.5237070219941402e+00, -1.1652338432295370e+00,
       3.4539431414595771e+00, -1.0996417624020478e+00,
       3.4038077960421647e+00, -1.0565184338963340e+00,
       3.4171007475683619e+00, -1.0432309138159299e+00,
       3.4510000075523730e+00, -1.0893548094927972e+00,
       3.5163874941986721e+00, -1.1539541461286873e+00,
       3.5396014543354695e+00, -1.2143170950797755e+00,
       3.5488875505274340e+00, -1.2649251988784966e+00,
       3.5488973562933945e+00, -1.3052292113021331e+00,
       3.5288614999540884e+00, -1.3361928088599238e+00,
       3.5045601889006055e+00, -1.3566751132933750e+00,
       3.4806167555977479e+00, -1.3730052962592061e+00,
       3.4414798600354048e+00, -1.3702858816830348e+00,
       3.4170386583823249e+00, -1.3657559762575955e+00,
       3.3968238763322391e+00, -1.3553459188782024e+00,
       3.3806653909536202e+00, -1.3479780972508371e+00,
       3.3759239718824281e+00, -1.3472259524735695e+00,
       3.3871286958191047e+00, -1.3538767541255199e+00,
       3.3966322153990065e+00, -1.3535447723069944e+00,
       3.4175508973456532e+00, -1.3565821793960324e+00,
       3.4337079617103567e+00, -1.3499294098214620e+00,
       3.4749449547898075e+00, -1.3319301401537325e+00,
       3.5067318515623707e+00, -1.3165149821080002e+00,
       3.5350806270682575e+00, -1.2943105531076320e+00,
       3.5306432980387750e+00, -1.2821725030170725e+00,
       3.5058367677620148e+00, -1.2773356120945605e+00,
       3.5066926877441267e+00, -1.2743887716126345e+00,
       3.5376103306061957e+00, -1.2748369305572085e+00,
       3.5417988879151081e+00, -1.2710335719680610e+00,
       3.5143414748361814e+00, -1.2744952113507368e+00,
       3.4970417215301741e+00, -1.2729790340354912e+00,
       3.5257204024410633e+00, -1.2755162923638714e+00,
       3.5157490707436825e+00, -1.2862651009332580e+00,
       3.4865231560865340e+00, -1.3100565389193286e+00,
       3.4569722854065645e+00, -1.3332483794543755e+00,
       3.4301464070903624e+00, -1.3478145942945257e+00,
       3.4100265889188894e+00, -1.3594044644070122e+00,
       3.3957869423830287e+00, -1.3644549980599612e+00,
       3.3867238932265735e+00, -1.3618799622564499e+00,
       3.3816091550929293e+00, -1.3565201935017566e+00,
       3.3801426473714371e+00, -1.3571863802470379e+00,
       3.3849149802325287e+00, -1.3557700698119641e+00,
       3.4125086553270632e+00, -1.3659856399192938e+00,
       3.4445001585520059e+00, -1.3756906855297337e+00,
       3.4742578913491844e+00, -1.3726212150828090e+00,
       3.5021069142708736e+00, -1.3680270774167957e+00,
       3.5227007366213030e+00, -1.3522452696333649e+00,
       3.5387754777056895e+00, -1.3255445044656435e+00,
       3.5505973871913796e+00, -1.2901758618407770e+00,
       3.5511090933719580e+00, -1.2374729028540374e+00,
       3.5282791577110029e+00, -1.1806095162511232e+00,
       3.4681712250516141e+00, -1.1141192113106537e+00,
       3.4139515321001737e+00, -1.0672029241560330e+00,
       3.4183986425261437e+00, -1.0546808030809895e+00,
       3.4752120359017646e+00, -1.1047328174146565e+00,
       3.5129217953794756e+00, -1.1694115398249767e+00,
       3.5329013739027464e+00, -1.2324665180572796e+00,
       3.5320039141051680e+00, -1.2811949296441016e+00,
       3.5221533710847845e+00, -1.3200247320619081e+00,
       3.5044388855717497e+00, -1.3480944491302489e+00,
       3.4730221940098738e+00, -1.3724661832888625e+00,
       3.4335318888698900e+00, -1.3857298079908416e+00,
       3.3938168596703377e+00, -1.3841055286275610e+00,
       3.3685179373657190e+00, -1.3770911158802430e+00,
       3.3528398394240080e+00, -1.3635243411470341e+00,
       3.3380033827116589e+00, -1.3567790898707033e+00,
       3.3505811065942650e+00, -1.3586707232941726e+00,
       3.3726643460274346e+00, -1.3602559012036688e+00,
       3.3887037427291986e+00, -1.3617008527987109e+00,
       3.4223507906238089e+00, -1.3578607001813860e+00,
       3.4665181301505847e+00, -1.3468929459572523e+00,
       3.5221126916728145e+00, -1.3258797583513826e+00,
       3.5850682193300822e+00, -1.2965699524470842e+00,
       3.6118014112359735e+00, -1.2572857135035109e+00,
       3.6096895454672651e+00, -1.2339372068574648e+00,
       3.5733616752458608e+00, -1.2425403855036365e+00,
       3.5693664961075839e+00, -1.2602226555543270e+00,
       3.5995800049719411e+00, -1.2723759180726510e+00,
       3.6029717073241430e+00, -1.2732117181236837e+00,
       3.5719313565840531e+00, -1.2643194702781095e+00,
       3.5798379550224002e+00, -1.2542623959718475e+00,
       3.5901502495983153e+00, -1.2401471339288164e+00,
       3.5940739083510636e+00, -1.2499549513144332e+00,
       3.5572727694508726e+00, -1.2844837546158563e+00,
       3.5092349028261762e+00, -1.3201886703402563e+00,
       3.4609649676575094e+00, -1.3460432437839258e+00,
       3.4200215827145102e+00, -1.3589282864956658e+00,
       3.3943696185957917e+00, -1.3666023579555022e+00,
       3.3797343552879182e+00, -1.3679084888426152e+00,
       3.3574807296586693e+00, -1.3666512391804686e+00,
       3.3342980315868678e+00, -1.3640321176806525e+00,
       3.3462057660438993e+00, -1.3682322713114481e+00,
       3.3625103241181247e+00, -1.3741170618642984e+00,
       3.3918741740469063e+00, -1.3856238238734666e+00,
       3.4346027329992235e+00, -1.3891107293277929e+00,
       3.4631996538406433e+00, -1.3805884408072682e+00,
       3.5001924466425747e+00, -1.3648575496872328e+00,
       3.5221891138796830e+00, -1.3383626508299935e+00,
       3.5270397511874521e+00, -1.3024946316443986e+00,
       3.5356621367563075e+00, -1.2545890848063446e+00,
       3.5195413671255609e+00, -1.1978926995176213e+00,
       3.4811719070348945e+00, -1.1324903176602830e+00,
       3.4197793250556461e+00, -1.0764873455792889e+00,
       3.4319081719668540e+00, -1.0682169562921797e+00,
       3.4860232124542345e+00, -1.1220091543433943e+00,
       3.5115839072474535e+00, -1.1881474581610048e+00,
       3.5135682379645634e+00, -1.2487955268145154e+00,
       3.5096655659519058e+00, -1.2983571438225057e+00,
       3.4890422182596259e+00, -1.3332189960688916e+00,
       3.4668406520533139e+00, -1.3624546591799043e+00,
       3.4303347733626728e+00, -1.3866300188680454e+00,
       3.3859651565990827e+00, -1.3991720860508887e+00,
       3.3430825317276569e+00, -1.3997483467473473e+00,
       3.3111356118265403e+00, -1.3921154112189762e+00,
       3.2965007415385621e+00, -1.3781969926919684e+00,
       3.3023297160431944e+00, -1.3736996094388223e+00,
       3.3274327319750650e+00, -1.3725537873203415e+00,
       3.3672512830018571e+00, -1.3701649784762535e+00,
       3.4090903589901251e+00, -1.3713100865593086e+00,
       3.4617314895128990e+00, -1.3615000745082262e+00,
       3.5272181423064102e+00, -1.3452705484901626e+00,
       3.5998610579674080e+00, -1.3182276564088964e+00,
       3.6337316845021355e+00, -1.2703774687048137e+00,
       3.6679824893221236e+00, -1.2254865629964686e+00,
       3.6495990076926206e+00, -1.2079747748815897e+00,
       3.6106846879018200e+00, -1.2400923531399259e+00,
       3.5840183816950488e+00, -1.2727444757932862e+00,
       3.5712530316983133e+00, -1.2818701454475423e+00,
       3.5650891721584945e+00, -1.2847255711947245e+00,
       3.5561952313559937e+00, -1.2777644120158771e+00,
       3.5874345955802727e+00, -1.2525091857481072e+00,
       3.6202283670248097e+00, -1.2232586331096362e+00,
       3.6432272573689937e+00, -1.2281420595987664e+00,
       3.6116321462949648e+00, -1.2651221035365516e+00,
       3.5773546898224167e+00, -1.3081003189265858e+00,
       3.5223923243436901e+00, -1.3410236764515955e+00,
       3.4691699923823145e+00, -1.3604387255703585e+00,
       3.4218757126922235e+00, -1.3702424789214021e+00,
       3.3791484198379624e+00, -1.3763419932930887e+00,
       3.3265184556210512e+00, -1.3744233730646043e+00,
       3.3050965623106490e+00, -1.3776048452669176e+00,
       3.2951385967719720e+00, -1.3811046972575387e+00,
       3.3071821185344037e+00, -1.3882836587120493e+00,
       3.3348643399978419e+00, -1.3982592204135633e+00,
       3.3731341815641129e+00, -1.4024761739663165e+00,
       3.4116681902546206e+00, -1.3917528208312471e+00,
       3.4609028904386592e+00, -1.3773253004061674e+00,
       3.4899448300379308e+00, -1.3539729327833012e+00,
       3.5060658121615988e+00, -1.3182931839707659e+00,
       3.5206094646784889e+00, -1.2703956617570968e+00,
       3.5143344778515120e+00, -1.2126435713133275e+00,
       3.4933195544895335e+00, -1.1509877297166493e+00,
       3.4403430809084106e+00, -1.0940617292671055e+00,
       3.4388091530456961e+00, -1.0784756015256369e+00,
       3.4888302874359347e+00, -1.1392143675575721e+00,
       3.5062732828583441e+00, -1.2082685288012136e+00,
       3.4931935196908688e+00, -1.2650283934798312e+00,
       3.4731858458830858e+00, -1.3123482835830007e+00,
       3.4579635732999234e+00, -1.3505890312919226e+00,
       3.4220446605009798e+00, -1.3779766839809708e+00,
       3.3762057575627185e+00, -1.4033345086296194e+00,
       3.3250559530517321e+00, -1.4152830305854747e+00,
       3.2821398266743276e+00, -1.4164102999174970e+00,
       3.2559995933757460e+00, -1.4103195751387494e+00,
       3.2431231169790036e+00, -1.3988623776191729e+00,
       3.2431691883912488e+00, -1.3847308895927319e+00,
       3.2793098737363295e+00, -1.3845499164395172e+00,
       3.3407252870281803e+00, -1.3785451535949169e+00,
       3.4157833069171866e+00, -1.3769613968204291e+00,
       3.4806911759669874e+00, -1.3620494052274876e+00,
       3.5643557478645684e+00, -1.3448973260900219e+00,
       3.6272673171917740e+00, -1.3223620865729859e+00,
       3.6321426766147047e+00, -1.2896230367396273e+00,
       3.6243425924400499e+00, -1.2452994360112137e+00,
       3.6032069603316619e+00, -1.2326778770758853e+00,
       3.5486947304194119e+00, -1.2685393261423512e+00,
       3.4780272524375890e+00, -1.3063148677081053e+00,
       3.4313892657423866e+00, -1.3166020391598288e+00,
       3.4157884503972893e+00, -1.3154154928835362e+00,
       3.4449392422331773e+00, -1.3036080631226761e+00,
       3.5145854191528820e+00, -1.2717161159150621e+00,
       3.5858575290683161e+00, -1.2361868233072439e+00,
       3.6233150858498142e+00, -1.2436718933906197e+00,
       3.6308391550242671e+00, -1.2867044343165364e+00,
       3.6118571896491654e+00, -1.3193935823681120e+00,
       3.5684605912061769e+00, -1.3386486829179856e+00,
       3.5041979124562932e+00, -1.3588133112011103e+00,
       3.4312533154506957e+00, -1.3725944989466345e+00,
       3.3558901194593531e+00, -1.3823509814834549e+00,
       3.2937527665088706e+00, -1.3858730822328571e+00,
       3.2540188783259070e+00, -1.3877962415753946e+00,
       3.2408529588964967e+00, -1.3954713541365422e+00,
       3.2508238113667605e+00, -1.4074791984204948e+00,
       3.2784727320346216e+00, -1.4168005933203567e+00,
       3.3120944642549128e+00, -1.4167434035456437e+00,
       3.3594472202768997e+00, -1.4071145814033952e+00,
       3.4167760062661974e+00, -1.3935749398839055e+00,
       3.4447211480769337e+00, -1.3657617372265918e+00,
       3.4696879858240450e+00, -1.3329680009513751e+00,
       3.4963818384535132e+00, -1.2886625012160609e+00,
       3.5138317851742813e+00, -1.2285788156016937e+00,
       3.4982263974884185e+00, -1.1691941485076827e+00,
       3.4617329835482940e+00, -1.1065564081909611e+00,
       3.4549073782190085e+00, -1.0941704005944091e+00,
       3.4883284069889045e+00, -1.1581791101076573e+00,
       3.4831549102858852e+00, -1.2230844892025006e+00,
       3.4730002159535558e+00, -1.2821783690325208e+00,
       3.4423994894189169e+00, -1.3289123465824779e+00,
       3.4190055099546153e+00, -1.3671086346957348e+00,
       3.3794661738833831e+00, -1.3946133873061222e+00,
       3.3186243783744414e+00, -1.4217297165823133e+00,
       3.2635139583326715e+00, -1.4321596059303812e+00,
       3.2211597589047805e+00, -1.4350725842816106e+00,
       3.1901236260497119e+00, -1.4243429796505653e+00,
       3.1791685064349564e+00, -1.4132965727698474e+00,
       3.1841039414213457e+00, -1.4020474542623202e+00,
       3.2182589165493791e+00, -1.3903455637616029e+00,
       3.2877021242962035e+00, -1.3873572679578801e+00,
       3.3759109474497571e+00, -1.3773917624172323e+00,
       3.4643590399103474e+00, -1.3593477105605085e+00,
       3.5582959818436000e+00, -1.3495310225322563e+00,
       3.6106014461713491e+00, -1.3395071953018105e+00,
       3.5760867526843620e+00, -1.3213521450407142e+00,
       3.5570046744908770e+00, -1.2984221560942437e+00,
       3.5279209671630585e+00, -1.2905165921980843e+00,
       3.4438971845922062e+00, -1.3172564960283646e+00,
       3.3385745554953830e+00, -1.3460895499131451e+00,
       3.2762808111595900e+00, -1.3572159539237107e+00,
       3.2622725756928639e+00, -1.3576815580574497e+00,
       3.2953797710390544e+00, -1.3421108912945625e+00,
       3.3879235333225295e+00, -1.3147862945915310e+00,
       3.4760030381472959e+00, -1.2877869712487369e+00,
       3.5421763195228806e+00, -1.2952987314368340e+00,
       3.5803302312362879e+00, -1.3211541910297109e+00,
       3.6035759273081496e+00, -1.3414961040735238e+00,
       3.5833038846068339e+00, -1.3527482021726758e+00,
       3.5042006077563896e+00, -1.3629230236648249e+00,
       3.4003387733924284e+00, -1.3763928675196235e+00,
       3.3004782651145237e+00, -1.3871517695336135e+00,
       3.2309686766216195e+00, -1.3944212719251625e+00,
       3.1968502228593385e+00, -1.4001200194672472e+00,
       3.1809933816819824e+00, -1.4111548774453488e+00,
       3.1929141835719204e+00, -1.4236954223354084e+00,
       3.2219464885440030e+00, -1.4349235505380753e+00,
       3.2512416339060066e+00, -1.4329489528154695e+00,
       3.3047880874041238e+00, -1.4230746827358003e+00,
       3.3585404745127749e+00, -1.4074800566444428e+00,
       3.4027643072594276e+00, -1.3798542469573007e+00,
       3.4327516402885361e+00, -1.3465896551910508e+00,
       3.4706727977724574e+00, -1.3029102493014046e+00,
       3.4942216693355932e+00, -1.2439915360072125e+00,
       3.4974449628327005e+00, -1.1865526265890771e+00,
       3.4803915914235843e+00, -1.1219941181606807e+00,
       3.4569461614764201e+00, -1.1071768561410991e+00,
       3.4766349249940536e+00, -1.1760832484032049e+00,
       3.4656861715192493e+00, -1.2379766103063132e+00,
       3.4477124210822954e+00, -1.2977519212684432e+00,
       3.4111460120536035e+00, -1.3439384181732161e+00,
       3.3761419471117171e+00, -1.3834532315632142e+00,
       3.3237067651887604e+00, -1.4115009486170926e+00,
       3.2685782245094432e+00, -1.4380687114740138e+00,
       3.2114474571200646e+00, -1.4488787325289354e+00,
       3.1703123325759379e+00, -1.4503561139204033e+00,
       3.1372904771993619e+00, -1.4427521135257144e+00,
       3.1221519391429564e+00, -1.4310041652286531e+00,
       3.1333405530953722e+00, -1.4191810889466161e+00,
       3.1625356992264084e+00, -1.4053661833837088e+00,
       3.2214317400066474e+00, -1.3959210584395569e+00,
       3.3035305607300431e+00, -1.3822724145511569e+00,
       3.4133761262857303e+00, -1.3695445418760606e+00,
       3.5221229436191415e+00, -1.3652555208892629e+00,
       3.5702471166363128e+00, -1.3645081596427711e+00,
       3.5321390470968743e+00, -1.3588665726422111e+00,
       3.5096918230748035e+00, -1.3517441973453759e+00,
       3.4571654249182346e+00, -1.3511315490882065e+00,
       3.3496956947097858e+00, -1.3669586989202400e+00,
       3.2305093551117952e+00, -1.3866537664280711e+00,
       3.1691870923445271e+00, -1.3949693764405782e+00,
       3.1628681999280408e+00, -1.3935396074900954e+00,
       3.1947642071927680e+00, -1.3822881499464619e+00,
       3.3061712236729077e+00, -1.3660036559703994e+00,
       3.4089965781984883e+00, -1.3477393713836394e+00,
       3.4880630410815594e+00, -1.3490720014020849e+00,
       3.5415905361820199e+00, -1.3603131983382024e+00,
       3.5768205152371357e+00, -1.3703754895223623e+00,
       3.5536069881705776e+00, -1.3702798270733867e+00,
       3.4488086453514168e+00, -1.3722715724262096e+00,
       3.3242650098570126e+00, -1.3815969374228063e+00,
       3.2330676928659008e+00, -1.3959662694404977e+00,
       3.1710125747674800e+00, -1.4035131065065718e+00,
       3.1378298909137756e+00, -1.4152822740098785e+00,
       3.1240990500290358e+00, -1.4284455128187468e+00,
       3.1326033169573577e+00, -1.4394583028585992e+00,
       3.1617682699905281e+00, -1.4505130000787743e+00,
       3.1959787107194852e+00, -1.4500416566216250e+00,
       3.2472129969352559e+00, -1.4415948141636756e+00,
       3.3091700797491108e+00, -1.4246024716562988e+00,
       3.3637738492431692e+00, -1.3961136344531200e+00,
       3.3959120081122118e+00, -1.3613922844221371e+00,
       3.4329570801912732e+00, -1.3132815887190248e+00,
       3.4703202153246924e+00, -1.2601212469002552e+00,
       3.4761490546947380e+00, -1.1985411336374228e+00,
       3.4787176251344643e+00, -1.1315064944650111e+00,
       3.4515989135828398e+00, -1.1154579897602281e+00,
       3.4590251526244620e+00, -1.1861311073318526e+00,
       3.4454384998649896e+00, -1.2546587096986601e+00,
       3.4113667792093496e+00, -1.3110153142553853e+00,
       3.3696749653553799e+00, -1.3555466308093200e+00,
       3.3337781273890923e+00, -1.3946508633283228e+00,
       3.2780801627929859e+00, -1.4251724961568188e+00,
       3.2163879985369670e+00, -1.4490849700333004e+00,
       3.1599114353356637e+00, -1.4575365437515115e+00,
       3.1133959356838838e+00, -1.4593381541312622e+00,
       3.0855594028373488e+00, -1.4570511180838623e+00,
       3.0732986233146549e+00, -1.4460110852013901e+00,
       3.0846321879421259e+00, -1.4373699083166589e+00,
       3.1098949548412294e+00, -1.4229242750255482e+00,
       3.1538428819376030e+00, -1.4083214188874102e+00,
       3.2266494588620871e+00, -1.3971783642303048e+00,
       3.3285191398626388e+00, -1.3841552068199869e+00,
       3.4527119311587389e+00, -1.3833666151755413e+00,
       3.5179712985867932e+00, -1.3915927104017547e+00,
       3.5011196941668628e+00, -1.3911827438806903e+00,
       3.4789611602080224e+00, -1.3905158895120346e+00,
       3.4288201452384972e+00, -1.3994873781990504e+00,
       3.3078778173570167e+00, -1.4113849994268652e+00,
       3.1870134195144133e+00, -1.4258356392553249e+00,
       3.1281047104912370e+00, -1.4317835166332704e+00,
       3.1220765888419058e+00, -1.4336288746277737e+00,
       3.1609621643136672e+00, -1.4252747463930489e+00,
       3.2737223926494803e+00, -1.4108807369425194e+00,
       3.3784562408159577e+00, -1.3905823990363291e+00,
       3.4624796446835546e+00, -1.3864984014114594e+00,
       3.5078100188314001e+00, -1.3895481173409232e+00,
       3.5249808373399465e+00, -1.3904817677966526e+00,
       3.4781304060976788e+00, -1.3851687908542187e+00,
       3.3567633816565570e+00, -1.3864740965068256e+00,
       3.2437994624891666e+00, -1.3958819703074636e+00,
       3.1654728178143086e+00, -1.4069781153805778e+00,
       3.1181561521578729e+00, -1.4199571258207708e+00,
       3.0863965971695801e+00, -1.4335474684525829e+00,
       3.0755539348827381e+00, -1.4462228606420133e+00,
       3.0828316276033512e+00, -1.4542156057052755e+00,
       3.1082691593974308e+00, -1.4618595974765800e+00,
       3.1454741102931969e+00, -1.4610635671529209e+00,
       3.1975999685112280e+00, -1.4524101400942304e+00,
       3.2627460799711794e+00, -1.4374408313434857e+00,
       3.3224476849279010e+00, -1.4100519168573811e+00,
       3.3621164761841640e+00, -1.3742297759421667e+00,
       3.3922152076511174e+00, -1.3238871792844105e+00,
       3.4460908648813908e+00, -1.2744611335621889e+00,
       3.4572331108959489e+00, -1.2107360098509952e+00,
       3.4725203611123900e+00, -1.1453326622600692e+00,
       3.4531826258407516e+00, -1.1279724614594582e+00,
       3.4416893280789425e+00, -1.1993194996607082e+00,
       3.4226694274287808e+00, -1.2707508959549214e+00,
       3.3828424947197733e+00, -1.3245004994015455e+00,
       3.3360966574196431e+00, -1.3665652985082668e+00,
       3.2898570302209258e+00, -1.3996154976823043e+00,
       3.2358515166365640e+00, -1.4362718372212966e+00,
       3.1749904319814601e+00, -1.4579694975404289e+00,
       3.1137253056364305e+00, -1.4666554181011178e+00,
       3.0693613035133733e+00, -1.4693354077068570e+00,
       3.0403631566955718e+00, -1.4644570698204642e+00,
       3.0351101056853498e+00, -1.4575976108481474e+00,
       3.0431822605977992e+00, -1.4501476426016371e+00,
       3.0623527923409632e+00, -1.4393861696694428e+00,
       3.0983539921206029e+00, -1.4254828085757727e+00,
       3.1573032595336001e+00, -1.4111638262899966e+00,
       3.2442420268796321e+00, -1.4027307531001780e+00,
       3.3640741674489445e+00, -1.4045931724112668e+00,
       3.4554440766295094e+00, -1.4065938544508212e+00,
       3.4657036738788261e+00, -1.4027942517422249e+00,
       3.4411708635960316e+00, -1.4083330606400193e+00,
       3.3908836781393328e+00, -1.4235347663698288e+00,
       3.2814113525256805e+00, -1.4402203738961459e+00,
       3.1727763304373338e+00, -1.4530943493047590e+00,
       3.1132937182887810e+00, -1.4632482815572696e+00,
       3.1036796218604703e+00, -1.4636047887313901e+00,
       3.1539813109979367e+00, -1.4546850844402301e+00,
       3.2570180357178193e+00, -1.4372275192758699e+00,
       3.3598507957851984e+00, -1.4206320595279149e+00,
       3.4355037755281530e+00, -1.4103814305784761e+00,
       3.4732879693175782e+00, -1.4067997540369725e+00,
       3.4588404723145216e+00, -1.4023590660787002e+00,
       3.3799419042732555e+00, -1.3999222733608208e+00,
       3.2625339713209902e+00, -1.3999604776726209e+00,
       3.1679863151820573e+00, -1.4102349552789357e+00,
       3.1128264336089848e+00, -1.4243560562667237e+00,
       3.0651028898303219e+00, -1.4345544323231858e+00,
       3.0459853686969498e+00, -1.4481894272854932e+00,
       3.0356836429544245e+00, -1.4578201007211506e+00,
       3.0411859280880180e+00, -1.4636304001239095e+00,
       3.0598313852042645e+00, -1.4669407484985575e+00,
       3.1031950395597452e+00, -1.4684491144882561e+00,
       3.1513114020714634e+00, -1.4594296403354245e+00,
       3.2192994435560744e+00, -1.4463007375895836e+00,
       3.2790089700338787e+00, -1.4183159894887565e+00,
       3.3286745197509413e+00, -1.3846068818070416e+00,
       3.3662991628610599e+00, -1.3392488173864252e+00,
       3.4126351688082677e+00, -1.2886424062443369e+00,
       3.4424593563292154e+00, -1.2206431788140497e+00,
       3.4683482417733411e+00, -1.1575881964760975e+00,
       3.4464130705862019e+00, -1.1369956073799867e+00,
       3.4218477229093933e+00, -1.2055159730203320e+00,
       3.3996044050848688e+00, -1.2802332724858763e+00,
       3.3549121488084435e+00, -1.3320983568442542e+00,
       3.3057464695009404e+00, -1.3731572866832404e+00,
       3.2546059129354812e+00, -1.4082084203048779e+00,
       3.2003459365830076e+00, -1.4437523181553629e+00,
       3.1414708925261241e+00, -1.4637093590605557e+00,
       3.0813476969173239e+00, -1.4721801350212100e+00,
       3.0436817932258928e+00, -1.4756350423725084e+00,
       3.0235687495231809e+00, -1.4752008007243229e+00,
       3.0194455615948548e+00, -1.4700291659079519e+00,
       3.0223037402565982e+00, -1.4603094528270855e+00,
       3.0361556366339619e+00, -1.4508446161558763e+00,
       3.0590664439404116e+00, -1.4411496070419321e+00,
       3.0981760364556967e+00, -1.4276945795112905e+00,
       3.1750945643421296e+00, -1.4176542625219817e+00,
       3.2870225005080731e+00, -1.4218395286093182e+00,
       3.3835452350179924e+00, -1.4184244965388921e+00,
       3.4270083348054787e+00, -1.4172978309710904e+00,
       3.4195318140253916e+00, -1.4222345150536206e+00,
       3.3710114218509490e+00, -1.4359607556146721e+00,
       3.2786695540631801e+00, -1.4577870128959176e+00,
       3.1745383079006677e+00, -1.4731703044260291e+00,
       3.0986468436102186e+00, -1.4771423009433722e+00,
       3.0905869415602107e+00, -1.4778701627662085e+00,
       3.1540045474222560e+00, -1.4753163234941917e+00,
       3.2564724463278707e+00, -1.4570654839722739e+00,
       3.3421584745971873e+00, -1.4360739065545376e+00,
       3.4119541150047037e+00, -1.4216782074985164e+00,
       3.4295386131713470e+00, -1.4156557658271012e+00,
       3.3890106929614858e+00, -1.4133300285859054e+00,
       3.3108592891777020e+00, -1.4184576213089084e+00,
       3.2015766386545703e+00, -1.4187100457637905e+00,
       3.1157614230919815e+00, -1.4252491781754233e+00,
       3.0678063866673022e+00, -1.4382395427567078e+00,
       3.0399439310924463e+00, -1.4481538072676776e+00,
       3.0240865405926720e+00, -1.4581701746165954e+00,
       3.0204717936315961e+00, -1.4677980338854160e+00,
       3.0254156126093417e+00, -1.4743047883415830e+00,
       3.0391576393808313e+00, -1.4755855802037088e+00,
       3.0766573393483108e+00, -1.4739758969758081e+00,
       3.1244399833215604e+00, -1.4661830242130294e+00,
       3.1909243839272130e+00, -1.4552744575762349e+00,
       3.2444614526709783e+00, -1.4265338050512826e+00,
       3.2966575559757749e+00, -1.3926025811992520e+00,
       3.3440122692262477e+00, -1.3476533667287742e+00,
       3.3896224995114759e+00, -1.2969042562853073e+00,
       3.4205855962578968e+00, -1.2301162109424422e+00,
       3.4534023908534213e+00, -1.1623646078691428e+00,
       3.4479980087646367e+00, -1.1419388072920920e+00,
       3.3987410269866194e+00, -1.2108257430182472e+00,
       3.3768438595273653e+00, -1.2864032231990343e+00,
       3.3367240806818979e+00, -1.3378195470360719e+00,
       3.2792073045357717e+00, -1.3778527706105244e+00,
       3.2283521424774571e+00, -1.4133475163579932e+00,
       3.1720242439900539e+00, -1.4484098218967287e+00,
       3.1138582122176404e+00, -1.4679068557308768e+00,
       3.0615967973323941e+00, -1.4755005576361968e+00,
       3.0349082675975567e+00, -1.4789129755246959e+00,
       3.0237305157978502e+00, -1.4798652007169433e+00,
       3.0250718671797228e+00, -1.4775581229672894e+00,
       3.0250471934479388e+00, -1.4683213014576431e+00,
       3.0370037561818548e+00, -1.4645163817159765e+00,
       3.0454511274478984e+00, -1.4531617563464059e+00,
       3.0814162084093857e+00, -1.4470386456231941e+00,
       3.1270203595448485e+00, -1.4354960085603821e+00,
       3.2283067146734044e+00, -1.4321722085724344e+00,
       3.3291759159523782e+00, -1.4315923399492403e+00,
       3.3806868584432461e+00, -1.4294650180382176e+00,
       3.3932896972193891e+00, -1.4314466043871281e+00,
       3.3513151058352961e+00, -1.4459479474281167e+00,
       3.2757155333819901e+00, -1.4669357013409916e+00,
       3.1774457723812235e+00, -1.4840889606026153e+00,
       3.0990745564447022e+00, -1.4874874023770610e+00,
       3.0913336506218552e+00, -1.4867225270058499e+00,
       3.1585618301574994e+00, -1.4818186675063645e+00,
       3.2570470659715038e+00, -1.4651907455875006e+00,
       3.3333674810861411e+00, -1.4457917192328651e+00,
       3.3863498397768272e+00, -1.4309965043951447e+00,
       3.3833926761555726e+00, -1.4236947089778516e+00,
       3.3337684797041187e+00, -1.4205743658851304e+00,
       3.2387094598165853e+00, -1.4242024705288960e+00,
       3.1489436458395033e+00, -1.4323752846894138e+00,
       3.0905830465333852e+00, -1.4425926183871030e+00,
       3.0453123287299602e+00, -1.4480819026911913e+00,
       3.0401726371591060e+00, -1.4618612485063909e+00,
       3.0315856095089626e+00, -1.4678846271838426e+00,
       3.0258901662641842e+00, -1.4718502321819398e+00,
       3.0265312295889015e+00, -1.4775142858347616e+00,
       3.0342148762663759e+00, -1.4766198699141155e+00,
       3.0645654415677090e+00, -1.4765214586879540e+00,
       3.1042190682020405e+00, -1.4706843505446905e+00,
       3.1684107266631458e+00, -1.4572138839800628e+00,
       3.2267388780566848e+00, -1.4303416653688632e+00,
       3.2782427316000109e+00, -1.3956464379132627e+00,
       3.3298671391579240e+00, -1.3538172481762920e+00,
       3.3673007229895466e+00, -1.3032688072349450e+00,
       3.4043551121330577e+00, -1.2388833525256693e+00,
       3.4379757108978479e+00, -1.1656973175870688e+00,
       3.4366821555248728e+00, -1.1435427003085921e+00,
       3.3879366146263830e+00, -1.2195732050113417e+00,
       3.3617300721435437e+00, -1.2907635623005476e+00,
       3.3101691990863285e+00, -1.3400222313089349e+00,
       3.2606635829261239e+00, -1.3796125781715465e+00,
       3.2071792637568604e+00, -1.4124909479994840e+00,
       3.1570524715832353e+00, -1.4463488286164359e+00,
       3.1019491913028703e+00, -1.4653587385875997e+00,
       3.0626294605859572e+00, -1.4750604427897966e+00,
       3.0422083648730989e+00, -1.4762678960573008e+00,
       3.0355066838694671e+00, -1.4803517399592445e+00,
       3.0408617333627435e+00, -1.4758531023340362e+00,
       3.0384323918291321e+00, -1.4693302122646963e+00,
       3.0476972410565413e+00, -1.4669176662145962e+00,
       3.0527188845975735e+00, -1.4598036718262744e+00,
       3.0707213245858163e+00, -1.4515945991903372e+00,
       3.1092526693345222e+00, -1.4441062473019970e+00,
       3.1832581701076808e+00, -1.4380177644723127e+00,
       3.2723756285624876e+00, -1.4338065960002615e+00,
       3.3411202343243045e+00, -1.4368321660474663e+00,
       3.3597772593510067e+00, -1.4402813442944213e+00,
       3.3395250205604077e+00, -1.4507567865459701e+00,
       3.2820429066236532e+00, -1.4722530649770813e+00,
       3.1855741645617623e+00, -1.4906358625341558e+00,
       3.0969165330640633e+00, -1.4945211063987283e+00,
       3.0889943089437142e+00, -1.4942539570483104e+00,
       3.1637373110399194e+00, -1.4876710771640833e+00,
       3.2637099583648372e+00, -1.4705852806744504e+00,
       3.3249877265268992e+00, -1.4502280875409819e+00,
       3.3594148007609506e+00, -1.4381369796071648e+00,
       3.3396859522990678e+00, -1.4262964792478516e+00,
       3.2881167392594697e+00, -1.4269455982666401e+00,
       3.2063575765397698e+00, -1.4379915769851708e+00,
       3.1279540176877547e+00, -1.4440416532514710e+00,
       3.0802245388511613e+00, -1.4504159297313830e+00,
       3.0563072733309058e+00, -1.4556112775717298e+00,
       3.0511902284583496e+00, -1.4619642495586371e+00,
       3.0436849913011348e+00, -1.4651929445003982e+00,
       3.0432768143356967e+00, -1.4701187872107921e+00,
       3.0404135388569706e+00, -1.4735113794863388e+00,
       3.0470953487989427e+00, -1.4750282655197482e+00,
       3.0649379901889988e+00, -1.4745625949568717e+00,
       3.0927400088660368e+00, -1.4654676916276395e+00,
       3.1510506984979014e+00, -1.4553547664757891e+00,
       3.2055091500054935e+00, -1.4290225420704648e+00,
       3.2595636052042241e+00, -1.3943207866041765e+00,
       3.3078075411791881e+00, -1.3532752214793624e+00,
       3.3479902534512531e+00, -1.3052778145163724e+00,
       3.3850647578716448e+00, -1.2439015229187400e+00,
       3.4133929783298345e+00, -1.1672155121229466e+00,
       3.4165783809429717e+00, -1.1447161269807613e+00,
       3.3829054111707704e+00, -1.2260096884375589e+00,
       3.3541811076005912e+00, -1.2902182380776017e+00,
       3.2974260194404317e+00, -1.3372280071879514e+00,
       3.2498903513655533e+00, -1.3731648401039336e+00,
       3.1999620702653586e+00, -1.4066023019924558e+00,
       3.1560323191970618e+00, -1.4394530947593256e+00,
       3.1092704426643016e+00, -1.4558798874743395e+00,
       3.0770371624835189e+00, -1.4640261548342897e+00,
       3.0679891700855335e+00, -1.4680364067839617e+00,
       3.0652972863666248e+00, -1.4662404175764774e+00,
       3.0725259674912442e+00, -1.4648927930539501e+00,
       3.0762309623775437e+00, -1.4611684353270171e+00,
       3.0781026511726757e+00, -1.4588391271072851e+00,
       3.0779703414230206e+00, -1.4555313811210620e+00,
       3.0865003339804375e+00, -1.4511608445534818e+00,
       3.1073714486900181e+00, -1.4437955738048891e+00,
       3.1693949930440586e+00, -1.4393071497770151e+00,
       3.2530975635620698e+00, -1.4389429640946483e+00,
       3.3129602302468029e+00, -1.4365359259988251e+00,
       3.3331567519305758e+00, -1.4356425666352526e+00,
       3.3275620657216329e+00, -1.4487068812640371e+00,
       3.2857778844577066e+00, -1.4722569266875802e+00,
       3.1858735369897477e+00, -1.4890687644420331e+00,
       3.0996503871715779e+00, -1.4949573645231526e+00,
       3.0917387825195286e+00, -1.4942214089509742e+00,
       3.1681778608326052e+00, -1.4889609424543675e+00,
       3.2615911645302389e+00, -1.4669473130135904e+00,
       3.3210575167700891e+00, -1.4492991089490423e+00,
       3.3324201088237055e+00, -1.4339302961189755e+00,
       3.3174998358040200e+00, -1.4284359765031232e+00,
       3.2603400998425260e+00, -1.4309089598720772e+00,
       3.1924064340282419e+00, -1.4393508543065934e+00,
       3.1317840522206462e+00, -1.4441376853289081e+00,
       3.0988451990816217e+00, -1.4495900752161575e+00,
       3.0844208522788699e+00, -1.4529866648169691e+00,
       3.0766201446512715e+00, -1.4521113709804874e+00,
       3.0793361587731702e+00, -1.4569292006769496e+00,
       3.0724326081351911e+00, -1.4579054363022368e+00,
       3.0707912291939179e+00, -1.4605574689568142e+00,
       3.0713554419927416e+00, -1.4626889022763152e+00,
       3.0814759912988050e+00, -1.4644092317003490e+00,
       3.1014063568924866e+00, -1.4551067348402278e+00,
       3.1475568593560053e+00, -1.4468785834794142e+00,
       3.2057653798709675e+00, -1.4237782196397244e+00,
       3.2448717453336329e+00, -1.3886492910109314e+00,
       3.3057602882933463e+00, -1.3534242761576012e+00,
       3.3390167191006759e+00, -1.3058398996876022e+00,
       3.3719006675844834e+00, -1.2437887976596651e+00,
       3.4060698837152223e+00, -1.1723421323503107e+00,
       3.4185814921550666e+00, -1.1453011354680127e+00,
       3.3845352963373627e+00, -1.2257115989626119e+00,
       3.3459155006819485e+00, -1.2877682902879801e+00,
       3.3006398083683983e+00, -1.3309960250898871e+00,
       3.2515284445160959e+00, -1.3639573158054072e+00,
       3.2108073448972099e+00, -1.3967464651393462e+00,
       3.1646510859920691e+00, -1.4234820569497941e+00,
       3.1410838762344069e+00, -1.4447370464243159e+00,
       3.1233974682085472e+00, -1.4534815125725287e+00,
       3.1171038091137948e+00, -1.4533738821907123e+00,
       3.1148306330040856e+00, -1.4498329607688969e+00,
       3.1282417784352790e+00, -1.4497399401345976e+00,
       3.1355666728542628e+00, -1.4487228259552318e+00,
       3.1438762497042014e+00, -1.4468896275969043e+00,
       3.1420877485220711e+00, -1.4458503408892003e+00,
       3.1345639137965886e+00, -1.4458538917300874e+00,
       3.1364779547815997e+00, -1.4418648203563627e+00,
       3.1729777009747009e+00, -1.4356396297515444e+00,
       3.2385957417524978e+00, -1.4322741751244437e+00,
       3.2998482879055593e+00, -1.4294115346571130e+00,
       3.3355857343195834e+00, -1.4323155950366240e+00,
       3.3259513627528872e+00, -1.4413600822746304e+00,
       3.2809607207005040e+00, -1.4640928565590994e+00,
       3.1848274824224356e+00, -1.4864596783545565e+00,
       3.1032687491392763e+00, -1.4917859083399292e+00,
       3.0966980259322359e+00, -1.4920630922348079e+00,
       3.1699844929281102e+00, -1.4848522321685911e+00,
       3.2649842872851034e+00, -1.4639523624662729e+00,
       3.3149434518590857e+00, -1.4416616758558036e+00,
       3.3340840885778302e+00, -1.4281363427556073e+00,
       3.3133665398110099e+00, -1.4251825791417647e+00,
       3.2578976955004482e+00, -1.4283248611413559e+00,
       3.1955440938713204e+00, -1.4328508604477774e+00,
       3.1451966880285149e+00, -1.4360318198711748e+00,
       3.1393865107477303e+00, -1.4396061623142247e+00,
       3.1399402615815841e+00, -1.4422485504031806e+00,
       3.1408982675990345e+00, -1.4418576959701586e+00,
       3.1386057040077384e+00, -1.4420795915054172e+00,
       3.1279256302055511e+00, -1.4440133924862038e+00,
       3.1193131371848968e+00, -1.4436434206910789e+00,
       3.1206216795290187e+00, -1.4503179968142275e+00,
       3.1240141334657316e+00, -1.4477897798743409e+00,
       3.1317020942190243e+00, -1.4444549437898451e+00,
       3.1640901674472306e+00, -1.4325290018033281e+00,
       3.2127966353034187e+00, -1.4141679414729282e+00,
       3.2546895514366554e+00, -1.3825630953161281e+00,
       3.2995931027280472e+00, -1.3459690664683415e+00,
       3.3414595475461266e+00, -1.3023560983276863e+00,
       3.3656139755988415e+00, -1.2436157696093810e+00,
       3.3998339050854458e+00, -1.1686737174524258e+00,
       3.4255523536262746e+00, -1.1419404702048468e+00,
       3.3892695003611530e+00, -1.2187097631684627e+00,
       3.3515580080934844e+00, -1.2813173716679800e+00,
       3.3126391284098249e+00, -1.3256688282947577e+00,
       3.2751620054942174e+00, -1.3592691896721241e+00,
       3.2359793444981864e+00, -1.3848406336724903e+00,
       3.1994079933165822e+00, -1.4096078062759188e+00,
       3.1805445113893343e+00, -1.4279343088941505e+00,
       3.1731453291197846e+00, -1.4300055743022444e+00,
       3.1752915788063194e+00, -1.4279513063675455e+00,
       3.1889402530463307e+00, -1.4300380869078073e+00,
       3.2004862135840195e+00, -1.4286657915638326e+00,
       3.2182203405984851e+00, -1.4300925827374495e+00,
       3.2283457688401938e+00, -1.4253667373414836e+00,
       3.2368066799979753e+00, -1.4271859715039057e+00,
       3.2253766318160135e+00, -1.4292971281363513e+00,
       3.2055905725118277e+00, -1.4289439102828323e+00,
       3.2085925727802165e+00, -1.4302852102004331e+00,
       3.2487734183217181e+00, -1.4260717895167478e+00,
       3.3037489477693693e+00, -1.4234627722866171e+00,
       3.3383988621946443e+00, -1.4203250502714955e+00,
       3.3375607350688012e+00, -1.4324780353950759e+00,
       3.2823592972199531e+00, -1.4534479942092999e+00,
       3.1865225407366178e+00, -1.4784352585190843e+00,
       3.1040083984102957e+00, -1.4879245269745296e+00,
       3.0952457120683055e+00, -1.4871552971229918e+00,
       3.1711606166165285e+00, -1.4806616936691670e+00,
       3.2630946324348984e+00, -1.4571068434450980e+00,
       3.3186128962749262e+00, -1.4272848427216138e+00,
       3.3328659173496620e+00, -1.4132171304204246e+00,
       3.3162103569282739e+00, -1.4172025315569952e+00,
       3.2696490503876392e+00, -1.4218586847355925e+00,
       3.2234856708040960e+00, -1.4242173473945019e+00,
       3.2082338645693769e+00, -1.4246724751913658e+00,
       3.2227730416003046e+00, -1.4222692191541839e+00,
       3.2297818027750278e+00, -1.4181922193826793e+00,
       3.2221981649890696e+00, -1.4148997240325158e+00,
       3.2090144086495527e+00, -1.4212223225127236e+00,
       3.1973616084032819e+00, -1.4240642958724634e+00,
       3.1875508498707599e+00, -1.4265270395958209e+00,
       3.1789513259446962e+00, -1.4264612496405482e+00,
       3.1768470473705084e+00, -1.4272747747597854e+00,
       3.1839850247924963e+00, -1.4255976492896107e+00,
       3.2019461384827390e+00, -1.4153273853861583e+00,
       3.2389097384907823e+00, -1.3991321300028030e+00,
       3.2661406633870231e+00, -1.3684442880257099e+00,
       3.3105718968409334e+00, -1.3352995208256981e+00,
       3.3372245244392458e+00, -1.2925854186016548e+00,
       3.3706010003283247e+00, -1.2364537755716896e+00,
       3.4119167393234857e+00, -1.1655568574065940e+00,
       3.4367381197064848e+00, -1.1347428962054409e+00,
       3.3958751637999161e+00, -1.2122266592526163e+00,
       3.3639075907531852e+00, -1.2723318590545578e+00,
       3.3217577544927934e+00, -1.3096607278533683e+00,
       3.2942271008346284e+00, -1.3425990808039774e+00,
       3.2725081875336501e+00, -1.3662699049639719e+00,
       3.2615315270085383e+00, -1.3865219335155241e+00,
       3.2615932599877429e+00, -1.4000814593815836e+00,
       3.2661550426497064e+00, -1.4036664349573369e+00,
       3.2806533721029099e+00, -1.4075384537929012e+00,
       3.2952732688942468e+00, -1.4068818893001989e+00,
       3.3117387251065802e+00, -1.4034178956276755e+00,
       3.3259046627079996e+00, -1.4001715038539484e+00,
       3.3400782810069498e+00, -1.4003870871611959e+00,
       3.3586952410200461e+00, -1.4015694732845507e+00,
       3.3583013292934121e+00, -1.4021861076761017e+00,
       3.3317456507574170e+00, -1.4043577373416027e+00,
       3.2953802791774400e+00, -1.4115418138737272e+00,
       3.2965645854196630e+00, -1.4141350367507726e+00,
       3.3273752838134922e+00, -1.4103279465399119e+00,
       3.3591925793371993e+00, -1.4106926746113837e+00,
       3.3556738619524960e+00, -1.4200885707198698e+00,
       3.2984140979393084e+00, -1.4433552915341157e+00,
       3.1889686877717378e+00, -1.4675959277333903e+00,
       3.1015555809601918e+00, -1.4781622492098623e+00,
       3.0941255396363507e+00, -1.4815860684081081e+00,
       3.1739939954139205e+00, -1.4734159617887290e+00,
       3.2707578942139177e+00, -1.4442476746716817e+00,
       3.3393249869744941e+00, -1.4143412562277777e+00,
       3.3543377535561034e+00, -1.4023156599220348e+00,
       3.3383054049758289e+00, -1.4065469262574415e+00,
       3.3110338367259118e+00, -1.4062890971845516e+00,
       3.3019596156706639e+00, -1.4028125755178305e+00,
       3.3219815297559303e+00, -1.3959994109343086e+00,
       3.3550869882851275e+00, -1.3952781446023703e+00,
       3.3492002161099710e+00, -1.3886856449604068e+00,
       3.3359572925193959e+00, -1.3903128113037526e+00,
       3.3142357749183939e+00, -1.3971409710044143e+00,
       3.3031663701256346e+00, -1.4014399914819395e+00,
       3.2939144199783561e+00, -1.4069145744357665e+00,
       3.2838022439725689e+00, -1.4079634844708449e+00,
       3.2742167444431636e+00, -1.4084445545396767e+00,
       3.2633740698487621e+00, -1.4030689424140657e+00,
       3.2662400308645623e+00, -1.3919386265315774e+00,
       3.2778439599990605e+00, -1.3778516484811409e+00,
       3.2934900279086134e+00, -1.3510080447536570e+00,
       3.3127935676675087e+00, -1.3203504751688191e+00,
       3.3482776594641366e+00, -1.2837652563052333e+00,
       3.3840463838855457e+00, -1.2294859292545188e+00,
       3.4294686586784797e+00, -1.1537605403056816e+00,
       3.4464310479110836e+00, -1.1177954197630922e+00,
       3.4196022835988766e+00, -1.2043604077720707e+00,
       3.3812307652166171e+00, -1.2615352898040135e+00,
       3.3528502581726389e+00, -1.2979521057812260e+00,
       3.3387635663370747e+00, -1.3237258329402550e+00,
       3.3315464282344296e+00, -1.3433979036419594e+00,
       3.3412640577448616e+00, -1.3576284911860310e+00,
       3.3621714611593916e+00, -1.3662995564993787e+00,
       3.3917820985029610e+00, -1.3668916943286371e+00,
       3.4138948321349307e+00, -1.3705432913647000e+00,
       3.4249756145000880e+00, -1.3746200781495754e+00,
       3.4325476669080643e+00, -1.3721044463009899e+00,
       3.4490506027784660e+00, -1.3636749069635252e+00,
       3.4714434774293554e+00, -1.3604287605171113e+00,
       3.5018140893267642e+00, -1.3616113688971103e+00,
       3.5176460275096302e+00, -1.3688410213346438e+00,
       3.5125034596251408e+00, -1.3752842914319718e+00,
       3.4494419289396503e+00, -1.3809300172271290e+00,
       3.3866125226136283e+00, -1.3855811880346431e+00,
       3.3737525861177313e+00, -1.3885580949318290e+00,
       3.3890087359692838e+00, -1.3929160480684468e+00,
       3.3773018591216806e+00, -1.4048569843858751e+00,
       3.3133979461016057e+00, -1.4310748834575664e+00,
       3.1858648914802434e+00, -1.4580144370446715e+00,
       3.0966367412042666e+00, -1.4701347414539236e+00,
       3.0874863388386271e+00, -1.4714600184371107e+00,
       3.1650645856360420e+00, -1.4597110566485441e+00,
       3.2892618389904342e+00, -1.4327047948879861e+00,
       3.3616763389780711e+00, -1.4027906721800869e+00,
       3.3827484774606353e+00, -1.3845017940419628e+00,
       3.3887759209631567e+00, -1.3839870824642293e+00,
       3.3891952631262172e+00, -1.3802797597796617e+00,
       3.4302430587203894e+00, -1.3713826517023358e+00,
       3.4890247116306643e+00, -1.3699794525272648e+00,
       3.5137836188498182e+00, -1.3640795524765505e+00,
       3.4924550857084364e+00, -1.3596271840662641e+00,
       3.4654411580738578e+00, -1.3601349780967364e+00,
       3.4342592171395521e+00, -1.3654141628650680e+00,
       3.4067202922345659e+00, -1.3696106675552171e+00,
       3.4059576250335293e+00, -1.3734130430853972e+00,
       3.4103367843919212e+00, -1.3729713903899010e+00,
       3.3970021682359941e+00, -1.3713358001290732e+00,
       3.3722334954160362e+00, -1.3675782723416712e+00,
       3.3486302264110472e+00, -1.3609135631691427e+00,
       3.3388734837389933e+00, -1.3535576469865205e+00,
       3.3290248015180408e+00, -1.3316228980528260e+00,
       3.3431652656359137e+00, -1.3076761447114051e+00,
       3.3662666431940327e+00, -1.2693554720447826e+00,
       3.3961749758766921e+00, -1.2145221409992819e+00,
       3.4469800827372308e+00, -1.1389729869833058e+00,
       3.4628031980273870e+00, -1.0997882485064228e+00,
       3.4456199220683335e+00, -1.1902687057914474e+00,
       3.4030714012778813e+00, -1.2460105637861805e+00,
       3.3891895841596242e+00, -1.2857564320717330e+00,
       3.3808973867932544e+00, -1.3076204543405050e+00,
       3.4031176968557801e+00, -1.3162475185519256e+00,
       3.4438402695676698e+00, -1.3132769227350967e+00,
       3.4979489270655542e+00, -1.3069266764703822e+00,
       3.5378520497658341e+00, -1.3095762956937369e+00,
       3.5471979294737315e+00, -1.3202918297201107e+00,
       3.5357722174364450e+00, -1.3235732818992028e+00,
       3.5401856914965908e+00, -1.3207658110551443e+00,
       3.5719642664239579e+00, -1.3079914024869939e+00,
       3.6215365802269210e+00, -1.3081166908940471e+00,
       3.6530220700339404e+00, -1.3164522542237682e+00,
       3.6799363874240911e+00, -1.3314467948923907e+00,
       3.6989955173176337e+00, -1.3413714006853854e+00,
       3.6243104767517873e+00, -1.3451936943794753e+00,
       3.4958260272071997e+00, -1.3443611895999932e+00,
       3.4294485649308526e+00, -1.3520632067029830e+00,
       3.4232721589952742e+00, -1.3641142456796898e+00,
       3.4051364632269085e+00, -1.3856170951352380e+00,
       3.3216636109753925e+00, -1.4202733155417735e+00,
       3.1767107517288617e+00, -1.4471421476520026e+00,
