%YAML:1.0
my_nn: !!opencv-ml-ann-mlp
   layer_sizes: !!opencv-matrix
      rows: 1
      cols: 3
      dt: i
      data: [ 2500, 12, 2 ]
   activation_function: SIGMOID_SYM
   f_param1: 1.
   f_param2: 1.
   min_val: -9.4999999999999996e-01
   max_val: 9.4999999999999996e-01
   min_val1: -9.7999999999999998e-01
   max_val1: 9.7999999999999998e-01
   training_params:
      train_method: RPROP
      dw0: 1.0000000000000001e-01
      dw_plus: 1.2000000000000000e+00
      dw_minus: 5.0000000000000000e-01
      dw_min: 1.1920928955078125e-07
      dw_max: 50.
      term_criteria: { epsilon:9.9999997764825821e-03, iterations:1000 }
   input_scale: [ 3.2552214869516987e+00, -9.2649597236151549e-01,
       3.2966426340945971e+00, -9.2917030029888537e-01,
       3.3722873085172691e+00, -9.3247774347265666e-01,
       3.4377068011271987e+00, -9.3947980990963464e-01,
       3.4925023916697819e+00, -9.4225212934097946e-01,
       3.5727663835571826e+00, -9.6067619819580685e-01,
       3.6288927030798166e+00, -9.7076498115221799e-01,
       3.7260742546917993e+00, -9.9392393514979849e-01,
       3.7726881880498193e+00, -1.0138540727252516e+00,
       3.8147367686951723e+00, -1.0402009268863210e+00,
       3.8385779273124863e+00, -1.0716458745827437e+00,
       3.8506688643008293e+00, -1.1032785746903462e+00,
       3.8575322488337278e+00, -1.1424301759510938e+00,
       3.8396351256056978e+00, -1.1780822745397750e+00,
       3.8242580700196420e+00, -1.2098999087406010e+00,
       3.7908623681892482e+00, -1.2378196267748400e+00,
       3.7407608031133570e+00, -1.2575765890473436e+00,
       3.6862945427768992e+00, -1.2721451180151431e+00,
       3.6440791526996548e+00, -1.2801859856149225e+00,
       3.6091787634040595e+00, -1.2894856284076694e+00,
       3.5763199290787058e+00, -1.3013163513731099e+00,
       3.5437277682859554e+00, -1.3103757565256189e+00,
       3.5292632295909887e+00, -1.3127729329166578e+00,
       3.5153890623583819e+00, -1.3134378894244276e+00,
       3.5171593644060595e+00, -1.3124881204512395e+00,
       3.5214981936604097e+00, -1.3097428117156231e+00,
       3.5181729067258241e+00, -1.3078935373315008e+00,
       3.5150933245272764e+00, -1.3086152074934247e+00,
       3.5373529653498519e+00, -1.3082456182931173e+00,
       3.5709874430688164e+00, -1.3041903349350930e+00,
       3.5959782922804870e+00, -1.2979047752180251e+00,
       3.6311372885005651e+00, -1.2858056080737614e+00,
       3.6750192831061650e+00, -1.2744802151350501e+00,
       3.7357562546726979e+00, -1.2600037997199089e+00,
       3.7772775705336619e+00, -1.2370253833178564e+00,
       3.8049683245835069e+00, -1.2154767465205982e+00,
       3.8252997238018791e+00, -1.1830491959533793e+00,
       3.8136011477155503e+00, -1.1496035751516283e+00,
       3.8248499843256041e+00, -1.1181803978820406e+00,
       3.8299660913428144e+00, -1.0853863265354566e+00,
       3.7965843790481482e+00, -1.0531058540175144e+00,
       3.7793680001479530e+00, -1.0278629721036472e+00,
       3.7186533233048498e+00, -1.0008544219759570e+00,
       3.6385339115471269e+00, -9.7988460822433276e-01,
       3.5676697919111096e+00, -9.7030359433410374e-01,
       3.5052452777024290e+00, -9.5734980980670092e-01,
       3.4383167341481311e+00, -9.4980034829783044e-01,
       3.3701110057867201e+00, -9.4331723040173088e-01,
       3.3149510477294073e+00, -9.3653449809034872e-01,
       3.2687714121610911e+00, -9.3177169345283983e-01,
       3.2560670942796763e+00, -9.2375700366577951e-01,
       3.3024003896366327e+00, -9.2858680021596574e-01,
       3.3761834370049422e+00, -9.3156761023428092e-01,
       3.4488333703342602e+00, -9.3899298914521356e-01,
       3.4923274539304128e+00, -9.4445456563321672e-01,
       3.5706189861102757e+00, -9.5953931248392632e-01,
       3.6414363802125460e+00, -9.7471092277047777e-01,
       3.7184500152437465e+00, -9.9636112670789900e-01,
       3.7885095964800977e+00, -1.0262021114349689e+00,
       3.8143219401436848e+00, -1.0530744866387542e+00,
       3.8189877875081639e+00, -1.0926763684133769e+00,
       3.8264455117728957e+00, -1.1288310480324066e+00,
       3.8173867783663491e+00, -1.1690129761944599e+00,
       3.8162703430449532e+00, -1.2048729600192263e+00,
       3.7767019277837330e+00, -1.2395080321017204e+00,
       3.7432839614115045e+00, -1.2615529900470526e+00,
       3.6962987875694409e+00, -1.2813530803024955e+00,
       3.6527887684871740e+00, -1.2949073669133848e+00,
       3.6207896387548346e+00, -1.3082625740649436e+00,
       3.5736399237280350e+00, -1.3143398973060012e+00,
       3.5442839287784635e+00, -1.3238905037901167e+00,
       3.5061134415514417e+00, -1.3270179590478843e+00,
       3.4946944226006837e+00, -1.3308868795277926e+00,
       3.4858647086436796e+00, -1.3331151712306724e+00,
       3.4946977178819716e+00, -1.3332913994291458e+00,
       3.4911149560731864e+00, -1.3331287107047496e+00,
       3.4902041185850661e+00, -1.3303047648414439e+00,
       3.4892363245964315e+00, -1.3299700569401405e+00,
       3.4986574369711807e+00, -1.3253646913059263e+00,
       3.5251678797814470e+00, -1.3225920272877809e+00,
       3.5653610126687321e+00, -1.3210365055893849e+00,
       3.5943217100332041e+00, -1.3097478725065119e+00,
       3.6323484742297802e+00, -1.2987597010034835e+00,
       3.6737117307752576e+00, -1.2838124547348488e+00,
       3.7398185382132567e+00, -1.2678889721775271e+00,
       3.7677325785504774e+00, -1.2441898015886972e+00,
       3.7932233297142788e+00, -1.2111841731605515e+00,
       3.8015968266991913e+00, -1.1741301630008438e+00,
       3.8007572229975071e+00, -1.1438376624032556e+00,
       3.7952370018665875e+00, -1.1085939830078300e+00,
       3.7779401237427535e+00, -1.0706918521497730e+00,
       3.7465998289535607e+00, -1.0350093676577263e+00,
       3.6979672078512329e+00, -1.0096478702742535e+00,
       3.6434494596726470e+00, -9.8154934955419770e-01,
       3.5600216035318630e+00, -9.6808405371727058e-01,
       3.5109986272017886e+00, -9.5950185678689059e-01,
       3.4525468981313190e+00, -9.5078222248002464e-01,
       3.3881469632468950e+00, -9.4338857949002108e-01,
       3.3422127981284260e+00, -9.3814131076007212e-01,
       3.2829549179025044e+00, -9.2981338392117518e-01,
       3.2370474836963989e+00, -9.2258429266337927e-01,
       3.2980014280396102e+00, -9.2636659829265078e-01,
       3.3749353276522132e+00, -9.3412435987686482e-01,
       3.4538383989231991e+00, -9.4125388146220568e-01,
       3.5089641175794308e+00, -9.4689956552892707e-01,
       3.5691508556790077e+00, -9.6652371110181867e-01,
       3.6317937508987947e+00, -9.8536842911123279e-01,
       3.7238157356975337e+00, -1.0061580325292361e+00,
       3.7867151528101615e+00, -1.0387323395221617e+00,
       3.8017051133550388e+00, -1.0767651268908391e+00,
       3.7921720261950189e+00, -1.1194380846821368e+00,
       3.7885469772502938e+00, -1.1560712431364080e+00,
       3.7861876690562877e+00, -1.1961786191451989e+00,
       3.7728813184804748e+00, -1.2319811672634411e+00,
       3.7547666148303325e+00, -1.2642993015034552e+00,
       3.6965613475211940e+00, -1.2824335810883198e+00,
       3.6619730104924750e+00, -1.3031360089640007e+00,
       3.6391021422661711e+00, -1.3184192716721344e+00,
       3.6034730489734672e+00, -1.3276020073853099e+00,
       3.5582918257459801e+00, -1.3343691843554377e+00,
       3.5280449869107686e+00, -1.3360558345589082e+00,
       3.5027595838560859e+00, -1.3348883237856879e+00,
       3.4856516248123608e+00, -1.3393069579924488e+00,
       3.4836567665381928e+00, -1.3392568923093602e+00,
       3.4799951159042766e+00, -1.3407687053361923e+00,
       3.4843754310496777e+00, -1.3409928658311197e+00,
       3.4773442132899830e+00, -1.3399743930921024e+00,
       3.4845402097441838e+00, -1.3381595136329940e+00,
       3.4960530894360691e+00, -1.3347252897028214e+00,
       3.5101517130476143e+00, -1.3352533492759757e+00,
       3.5383755497591647e+00, -1.3328143756792772e+00,
       3.5800429845656638e+00, -1.3265777498593645e+00,
       3.6166591843524620e+00, -1.3207996606905368e+00,
       3.6388014058947777e+00, -1.3075723250813855e+00,
       3.6819612123552696e+00, -1.2876288032337520e+00,
       3.7245915131355973e+00, -1.2672981860351469e+00,
       3.7633930001484686e+00, -1.2367125443624314e+00,
       3.7761785580349123e+00, -1.2010781185956050e+00,
       3.7835898005559261e+00, -1.1657155909811454e+00,
       3.7667334922542142e+00, -1.1322415720743981e+00,
       3.7590912288471556e+00, -1.0970867973820762e+00,
       3.7371209103015093e+00, -1.0525155000450288e+00,
       3.6988817937730638e+00, -1.0211952230570767e+00,
       3.6497334074244003e+00, -9.9592668592673772e-01,
       3.5610508259736999e+00, -9.7350583843186811e-01,
       3.5074453127794274e+00, -9.5966047658695541e-01,
       3.4599322722396129e+00, -9.5293275818174494e-01,
       3.3908913397018918e+00, -9.4227466945461813e-01,
       3.3377458432057936e+00, -9.3563083928521495e-01,
       3.2776690565246187e+00, -9.2923288551360572e-01,
       3.2465217690800880e+00, -9.2390329667169668e-01,
       3.3157488226477709e+00, -9.3025841605630233e-01,
       3.3856790035825020e+00, -9.3023103018095521e-01,
       3.4583262358253615e+00, -9.3880794205316587e-01,
       3.5301566987287605e+00, -9.5006400627060572e-01,
       3.5926721374240058e+00, -9.7799873034289153e-01,
       3.6421167449608793e+00, -9.9404643061343734e-01,
       3.7135484865227006e+00, -1.0193933999083202e+00,
       3.7692717128473192e+00, -1.0531461068164087e+00,
       3.7782984450174282e+00, -1.1041148860729824e+00,
       3.7775861175416878e+00, -1.1463553496329060e+00,
       3.7710076301779116e+00, -1.1830653830096820e+00,
       3.7591956828870576e+00, -1.2217979718129826e+00,
       3.7365953311621030e+00, -1.2540253976741578e+00,
       3.7045001349148348e+00, -1.2840470016725221e+00,
       3.6679368521888263e+00, -1.3045119366069007e+00,
       3.6507959079833512e+00, -1.3215475106904613e+00,
       3.6333817976682390e+00, -1.3305400410638593e+00,
       3.6002503516162867e+00, -1.3385863298896212e+00,
       3.5599313917279347e+00, -1.3391946484747130e+00,
       3.5330206115732277e+00, -1.3360871131600103e+00,
       3.5080748215852462e+00, -1.3317301949712639e+00,
       3.4985750174923158e+00, -1.3298217499732399e+00,
       3.4904969499893568e+00, -1.3337890585906045e+00,
       3.5017121582482096e+00, -1.3357884553512214e+00,
       3.4991834288569228e+00, -1.3345877613657093e+00,
       3.4961778601899320e+00, -1.3344533672826175e+00,
       3.5019555329517371e+00, -1.3368110643234656e+00,
       3.5082063643945252e+00, -1.3372847270087274e+00,
       3.5263002190982831e+00, -1.3395429203044453e+00,
       3.5464429767783585e+00, -1.3397275420422978e+00,
       3.5708531797042551e+00, -1.3414498829957080e+00,
       3.6010000671878890e+00, -1.3339201768802327e+00,
       3.6201491806583568e+00, -1.3271832683656271e+00,
       3.6463692203285851e+00, -1.3081730180034505e+00,
       3.6759013398363298e+00, -1.2876894827820013e+00,
       3.7156543126983204e+00, -1.2620295615868344e+00,
       3.7462570074910273e+00, -1.2288679129195341e+00,
       3.7549925388149603e+00, -1.1915938415519705e+00,
       3.7551740290185083e+00, -1.1548482595484804e+00,
       3.7441670185926541e+00, -1.1187116329398461e+00,
       3.7398956683747788e+00, -1.0799518038134071e+00,
       3.6889760924009285e+00, -1.0395581911140932e+00,
       3.6484971783913989e+00, -1.0102266904335400e+00,
       3.5810827184395779e+00, -9.8218510937880577e-01,
       3.5095894123620219e+00, -9.5981558854266702e-01,
       3.4529214054875506e+00, -9.5120847368263706e-01,
       3.3863617452403161e+00, -9.4206980722381839e-01,
       3.3304692882530103e+00, -9.3421802872244031e-01,
       3.2697463843105141e+00, -9.2921399529163062e-01,
       3.2405635039383851e+00, -9.2271896506939022e-01,
       3.3120162430142006e+00, -9.2729035665279491e-01,
       3.3884635101722242e+00, -9.3306082854648720e-01,
       3.4622543385738993e+00, -9.3904923141630281e-01,
       3.5323995844334504e+00, -9.6145293797175779e-01,
       3.6200206759257272e+00, -9.8352132860365715e-01,
       3.6426814643664009e+00, -1.0010021987398809e+00,
       3.6970743018266732e+00, -1.0339756160138402e+00,
       3.7501223263654362e+00, -1.0780408698306201e+00,
       3.7480772175512742e+00, -1.1274615896950313e+00,
       3.7581359216891141e+00, -1.1703170046747446e+00,
       3.7258377893566186e+00, -1.2020208010480151e+00,
       3.7152151922632468e+00, -1.2423466483569447e+00,
       3.6989209529004405e+00, -1.2773598034140830e+00,
       3.6733936501583182e+00, -1.3034588500955728e+00,
       3.6517422978222389e+00, -1.3206145941635443e+00,
       3.6432086006789794e+00, -1.3314944616511206e+00,
       3.6282808472682735e+00, -1.3364219813666691e+00,
       3.6026381876913054e+00, -1.3396662202457397e+00,
       3.5800857788986242e+00, -1.3355611560282818e+00,
       3.5553016257330525e+00, -1.3289537279867256e+00,
       3.5442178179558241e+00, -1.3238349574893973e+00,
       3.5283043893740080e+00, -1.3189160463544398e+00,
       3.5248401612839455e+00, -1.3169460462336100e+00,
       3.5243608228573717e+00, -1.3179135950917811e+00,
       3.5246247907220467e+00, -1.3177630166567982e+00,
       3.5356088005880317e+00, -1.3215772605161851e+00,
       3.5347093081770331e+00, -1.3201718029151155e+00,
       3.5397169397628061e+00, -1.3252312368439330e+00,
       3.5541916383947889e+00, -1.3323017732369016e+00,
       3.5649524960401786e+00, -1.3390043273388392e+00,
       3.5761922968618065e+00, -1.3413387370569567e+00,
       3.5899658938569470e+00, -1.3393016496529460e+00,
       3.6068887231842282e+00, -1.3330009923054187e+00,
       3.6274542524693034e+00, -1.3243591382136555e+00,
       3.6422396559414159e+00, -1.3070917743545367e+00,
       3.6798535229091915e+00, -1.2859667689467287e+00,
       3.7174836438510344e+00, -1.2560979132155465e+00,
       3.7275296153631143e+00, -1.2202669248394886e+00,
       3.7546356795641538e+00, -1.1801066266504867e+00,
       3.7266568710042152e+00, -1.1419542604547337e+00,
       3.7339758799106479e+00, -1.1048956385498483e+00,
       3.6821663121971073e+00, -1.0585016716557558e+00,
       3.6405720130809769e+00, -1.0211721463499379e+00,
       3.5849926235654017e+00, -9.9241286099990067e-01,
       3.5289604592697330e+00, -9.7281612753980584e-01,
       3.4545961124290621e+00, -9.5232012903617291e-01,
       3.3930317778595600e+00, -9.4429088748209755e-01,
       3.3325613989971519e+00, -9.3657809723622454e-01,
       3.2637405452259896e+00, -9.3247553182900156e-01,
       3.2293342447756705e+00, -9.2356602871730364e-01,
       3.3181151429413247e+00, -9.3238816538987523e-01,
       3.3986530358163938e+00, -9.3795240193290730e-01,
       3.4662659842803687e+00, -9.5098092129505662e-01,
       3.5476949289378754e+00, -9.7225576434168659e-01,
       3.6169221368742210e+00, -9.9225881137892979e-01,
       3.6613941986404459e+00, -1.0185944874655022e+00,
       3.6799520949447402e+00, -1.0563795928218405e+00,
       3.7300024680649253e+00, -1.1048522617791781e+00,
       3.7252270318006651e+00, -1.1536806036975678e+00,
       3.7195227896552314e+00, -1.1910754269234893e+00,
       3.6921778677390704e+00, -1.2281588270820154e+00,
       3.6786551037276043e+00, -1.2646733534064571e+00,
       3.6683363913183875e+00, -1.2981397831063275e+00,
       3.6526981761998512e+00, -1.3165524911729158e+00,
       3.6471438257290822e+00, -1.3303690192613078e+00,
       3.6481219408583097e+00, -1.3366603270934379e+00,
       3.6380647301393481e+00, -1.3387827142146227e+00,
       3.6112399639179955e+00, -1.3324950404423208e+00,
       3.5963163749309874e+00, -1.3242844265237030e+00,
       3.5862838112846327e+00, -1.3171794964987789e+00,
       3.5761557899344902e+00, -1.3128175922287713e+00,
       3.5700523843398217e+00, -1.3083821972647443e+00,
       3.5703732701215509e+00, -1.3053879296582347e+00,
       3.5678302602933543e+00, -1.3059644609177952e+00,
       3.5597085125897121e+00, -1.3053620911596961e+00,
       3.5616677605421012e+00, -1.3048093903169169e+00,
       3.5721426159942453e+00, -1.3102288010074279e+00,
       3.5773609039098657e+00, -1.3153386320009424e+00,
       3.6013014860919736e+00, -1.3191684576172302e+00,
       3.6102541321522343e+00, -1.3287332401665124e+00,
       3.6087600950659806e+00, -1.3379452649482473e+00,
       3.6099681649439308e+00, -1.3390137898399685e+00,
       3.6139187996171342e+00, -1.3380450325152251e+00,
       3.6229836751352491e+00, -1.3283761690922005e+00,
       3.6358653835670163e+00, -1.3213927600445989e+00,
       3.6437601994353344e+00, -1.2998386258088457e+00,
       3.6770826302599557e+00, -1.2787767514721951e+00,
       3.6927290961345669e+00, -1.2436471921897470e+00,
       3.7193679951925356e+00, -1.2102253131082561e+00,
       3.7087152003638502e+00, -1.1677840909731145e+00,
       3.7013546470201679e+00, -1.1261741236858538e+00,
       3.6692713248105764e+00, -1.0836811869340262e+00,
       3.6453721268815062e+00, -1.0383571463046977e+00,
       3.5886192227054936e+00, -1.0047525215024600e+00,
       3.5478318740055994e+00, -9.8534934120369044e-01,
       3.4655683668660595e+00, -9.6578278305052512e-01,
       3.3858949379013081e+00, -9.5167372008373752e-01,
       3.3192169720582201e+00, -9.3860650687409242e-01,
       3.2592584903126602e+00, -9.3290436377762676e-01,
       3.2346659220096221e+00, -9.2642129153796404e-01,
       3.3098389988245613e+00, -9.3256920977108027e-01,
       3.3960726686395448e+00, -9.4501523140487242e-01,
       3.4705552505323736e+00, -9.5851709580265654e-01,
       3.5579453393875822e+00, -9.8321433408144110e-01,
       3.6325844537192888e+00, -1.0064965485088639e+00,
       3.6495439347230425e+00, -1.0371190976436082e+00,
       3.6895075836891418e+00, -1.0862373065013806e+00,
       3.7070067898072949e+00, -1.1339927256245477e+00,
       3.6999587494758321e+00, -1.1778416022983782e+00,
       3.6872153894142210e+00, -1.2186202963164452e+00,
       3.6631713311838006e+00, -1.2529448075721883e+00,
       3.6489329186628892e+00, -1.2901099952872850e+00,
       3.6318607724801306e+00, -1.3102078124695336e+00,
       3.6438987393183093e+00, -1.3255494192108106e+00,
       3.6479492261803572e+00, -1.3301229689679270e+00,
       3.6526734644639691e+00, -1.3363208527281702e+00,
       3.6429374745210574e+00, -1.3310584362679749e+00,
       3.6452569487688633e+00, -1.3206649767541900e+00,
       3.6382634407175876e+00, -1.3103323129754059e+00,
       3.6321471550213635e+00, -1.2987311907256416e+00,
       3.6213442068918953e+00, -1.2925081030583072e+00,
       3.6160568309300407e+00, -1.2950317500666102e+00,
       3.6095058875760535e+00, -1.2914366725271926e+00,
       3.6053178582504835e+00, -1.2885141966921201e+00,
       3.5990534069863123e+00, -1.2881472661248270e+00,
       3.5909710737705569e+00, -1.2875950237708409e+00,
       3.6044690885821762e+00, -1.2921250886812623e+00,
       3.6148740601848486e+00, -1.2959612497475907e+00,
       3.6443168379146784e+00, -1.3002037438240559e+00,
       3.6544033305052919e+00, -1.3079736174684069e+00,
       3.6491751225702918e+00, -1.3207463855596200e+00,
       3.6481034599873170e+00, -1.3307944871553057e+00,
       3.6391684935133273e+00, -1.3347934742250762e+00,
       3.6346660374180861e+00, -1.3302707554121216e+00,
       3.6302150979607961e+00, -1.3242334271577156e+00,
       3.6238587316883177e+00, -1.3124550632438552e+00,
       3.6435446929885451e+00, -1.2959676277622258e+00,
       3.6615219888299686e+00, -1.2700942419635610e+00,
       3.6737833878784341e+00, -1.2345722906306873e+00,
       3.6850353573478380e+00, -1.1979954274994828e+00,
       3.6977748420157850e+00, -1.1586860714783678e+00,
       3.6740109728225074e+00, -1.1130132642163242e+00,
       3.6348175223681602e+00, -1.0639817281159123e+00,
       3.5959993211682719e+00, -1.0234954462577097e+00,
       3.5502032665384089e+00, -9.9971012898520162e-01,
       3.4766712592410949e+00, -9.7981364333811616e-01,
       3.4101841495575980e+00, -9.6335054264486630e-01,
       3.3328787378261224e+00, -9.4881625035322581e-01,
       3.2621813430562923e+00, -9.3452899475858520e-01,
       3.2440919928291017e+00, -9.2995049409897490e-01,
       3.3302371240865503e+00, -9.3864264974292322e-01,
       3.4048048546820158e+00, -9.5183532432408713e-01,
       3.4932557937924171e+00, -9.6816200354986359e-01,
       3.5727869411915165e+00, -9.9755955104311211e-01,
       3.6396689380446277e+00, -1.0264118830126794e+00,
       3.6453048435183524e+00, -1.0630295267042631e+00,
       3.6856480134198097e+00, -1.1162137718387852e+00,
       3.6760908790585773e+00, -1.1663195127543318e+00,
       3.6626398232369652e+00, -1.2117255979695207e+00,
       3.6632898247343064e+00, -1.2510680310100726e+00,
       3.6354461375526466e+00, -1.2816192401336908e+00,
       3.6066993924002033e+00, -1.3058950977888415e+00,
       3.5995221858649371e+00, -1.3171811006649310e+00,
       3.6312631252632905e+00, -1.3256311944060926e+00,
       3.6454731874046766e+00, -1.3274589373026184e+00,
       3.6605490997829744e+00, -1.3276033430892227e+00,
       3.6622978261988379e+00, -1.3155772124402179e+00,
       3.6762143903088802e+00, -1.3011476338710970e+00,
       3.6863424442006099e+00, -1.2889925056693112e+00,
       3.6786198087880271e+00, -1.2765094005394992e+00,
       3.6753914035105915e+00, -1.2809440786475206e+00,
       3.6397996754843720e+00, -1.2731536902018352e+00,
       3.6271138246937809e+00, -1.2684953326821711e+00,
       3.6153785903774920e+00, -1.2635493531164597e+00,
       3.6154984616410943e+00, -1.2621513732709968e+00,
       3.6110972933980805e+00, -1.2660884515339621e+00,
       3.6300822877190582e+00, -1.2745696661168555e+00,
       3.6664998116446834e+00, -1.2768757217024083e+00,
       3.6676109140486832e+00, -1.2749919120307012e+00,
       3.6747054851974585e+00, -1.2837118984729186e+00,
       3.6747454288921650e+00, -1.3027349503338788e+00,
       3.6674826476675122e+00, -1.3162505014183152e+00,
       3.6536511640470755e+00, -1.3303652967365938e+00,
       3.6384807988699968e+00, -1.3336623192770094e+00,
       3.6248694978744700e+00, -1.3277383895988342e+00,
       3.6156652318247673e+00, -1.3241584805007058e+00,
       3.6104819515447732e+00, -1.3085886119943684e+00,
       3.6199684787315012e+00, -1.2904257523627882e+00,
       3.6411378836010959e+00, -1.2655314166031466e+00,
       3.6646685179614233e+00, -1.2286780612797630e+00,
       3.6763818745921966e+00, -1.1910858657499674e+00,
       3.6541564110239815e+00, -1.1419050525956862e+00,
       3.6310843473684375e+00, -1.0962910456067612e+00,
       3.5894398934964182e+00, -1.0456643341801313e+00,
       3.5539276228203911e+00, -1.0179287334764928e+00,
       3.4885865344935918e+00, -9.9177716849187014e-01,
       3.3997609748882769e+00, -9.6986527066276063e-01,
       3.3483614013754210e+00, -9.5840847633629289e-01,
       3.2835840667870406e+00, -9.4262184410400107e-01,
       3.2597050149244193e+00, -9.3317405104670526e-01,
       3.3481335820977702e+00, -9.4499109888823674e-01,
       3.4292113892799190e+00, -9.6345688310342370e-01,
       3.5098904971439748e+00, -9.8315283703029888e-01,
       3.5886721305489688e+00, -1.0167709676719165e+00,
       3.6201861478834152e+00, -1.0473219339446658e+00,
       3.6403974510418924e+00, -1.0950782906994607e+00,
       3.6637884678261226e+00, -1.1490850309545286e+00,
       3.6416774080389955e+00, -1.1989734720107539e+00,
       3.6343921157522572e+00, -1.2411199401116504e+00,
       3.6207948827158534e+00, -1.2773051773472586e+00,
       3.5979399491011033e+00, -1.3022889610471156e+00,
       3.5817546379235181e+00, -1.3144559271287659e+00,
       3.5928488002582077e+00, -1.3218972694453623e+00,
       3.6267308920336250e+00, -1.3273744208176437e+00,
       3.6434747996662531e+00, -1.3194484189558122e+00,
       3.6615975472748632e+00, -1.3133175999149513e+00,
       3.6965956594871812e+00, -1.2947819513225760e+00,
       3.7018327174574703e+00, -1.2706395861371096e+00,
       3.7129169314322041e+00, -1.2568859983449392e+00,
       3.6897516302549680e+00, -1.2513045228014990e+00,
       3.6639435362524599e+00, -1.2523318368841205e+00,
       3.6514900581742809e+00, -1.2550204816280901e+00,
       3.6350865176129221e+00, -1.2495526513086062e+00,
       3.6332099993272942e+00, -1.2478639172096162e+00,
       3.6209428849025840e+00, -1.2443913700244420e+00,
       3.6123251794495332e+00, -1.2464098708642479e+00,
       3.6209954761135128e+00, -1.2478215364366849e+00,
       3.6463105951524031e+00, -1.2486180319401496e+00,
       3.6857522444034601e+00, -1.2489295378782670e+00,
       3.7006198460916959e+00, -1.2530534130558566e+00,
       3.6923571436312250e+00, -1.2675076642215681e+00,
       3.6795826971293195e+00, -1.2910410457966712e+00,
       3.6659358275941489e+00, -1.3127475089999896e+00,
       3.6426186709429569e+00, -1.3265146227557629e+00,
       3.6135135288724585e+00, -1.3276877152569788e+00,
       3.6009399285669232e+00, -1.3283496725525163e+00,
       3.5953058523125372e+00, -1.3207669826833395e+00,
       3.5887264460973900e+00, -1.3066117017966390e+00,
       3.6044301379758248e+00, -1.2892088185211723e+00,
       3.6286289848696827e+00, -1.2602282592646581e+00,
       3.6438852740550254e+00, -1.2267256093848529e+00,
       3.6394063125823233e+00, -1.1777797743504319e+00,
       3.6150198988555733e+00, -1.1262056945068817e+00,
       3.5831246842846323e+00, -1.0745514765269035e+00,
       3.5548352590482666e+00, -1.0365078904327609e+00,
       3.4964070862948353e+00, -1.0085488790462658e+00,
       3.4111825150677921e+00, -9.8189443754829109e-01,
       3.3613990556054851e+00, -9.6551988559654123e-01,
       3.2856711457476639e+00, -9.4937746267067014e-01,
       3.2814489881730613e+00, -9.3878467769987417e-01,
       3.3716529377521685e+00, -9.5774510263201407e-01,
       3.4549713789091054e+00, -9.7444995053798289e-01,
       3.5297467494264132e+00, -1.0002754824313072e+00,
       3.5961788928778802e+00, -1.0357357336100665e+00,
       3.6147177063945559e+00, -1.0736933832394588e+00,
       3.6386048197669516e+00, -1.1313796125398645e+00,
       3.6445928078686292e+00, -1.1839474381602473e+00,
       3.6208455410255636e+00, -1.2309662001548018e+00,
       3.6021287843349268e+00, -1.2693994691950750e+00,
       3.5820951991127576e+00, -1.2961680139214133e+00,
       3.5566980050524233e+00, -1.3076676809675205e+00,
       3.5603381876940547e+00, -1.3204965037073724e+00,
       3.5803057770781099e+00, -1.3232234581353077e+00,
       3.6224146341953483e+00, -1.3217545352070159e+00,
       3.6472088261645816e+00, -1.3081726225861439e+00,
       3.6807295395623862e+00, -1.2912952482593378e+00,
       3.6895842571049853e+00, -1.2601403095743053e+00,
       3.7235919788498588e+00, -1.2344391590830999e+00,
       3.7133941569907578e+00, -1.2193285251961561e+00,
       3.6821935677866251e+00, -1.2195769370742808e+00,
       3.6575580121239826e+00, -1.2243797687353748e+00,
       3.6337234657141955e+00, -1.2321692739003332e+00,
       3.6031025440315130e+00, -1.2303994821763018e+00,
       3.5856068113930255e+00, -1.2236251623369865e+00,
       3.5736264125861155e+00, -1.2251556386874927e+00,
       3.5795386118899879e+00, -1.2257413998898705e+00,
       3.5959365801091030e+00, -1.2270524821715572e+00,
       3.6435198552510086e+00, -1.2248661078053029e+00,
       3.6604063058101399e+00, -1.2171721896482701e+00,
       3.6874945220004105e+00, -1.2229135551033001e+00,
       3.6996921065979067e+00, -1.2343539350950739e+00,
       3.6997106949747054e+00, -1.2604668888811537e+00,
       3.6813264013282003e+00, -1.2862010848166046e+00,
       3.6544009939335789e+00, -1.3075552591416726e+00,
       3.6170285500024630e+00, -1.3208873231676395e+00,
       3.5875986889116969e+00, -1.3229402610830283e+00,
       3.5669750211399927e+00, -1.3239244831984704e+00,
       3.5624319900984989e+00, -1.3188154778653203e+00,
       3.5652745219716437e+00, -1.3057117414695782e+00,
       3.5948315502250461e+00, -1.2860103543539640e+00,
       3.6179823868216214e+00, -1.2524679194655137e+00,
       3.6164407963947132e+00, -1.2088133661030813e+00,
       3.5986907240088457e+00, -1.1555070668831624e+00,
       3.5791479243193534e+00, -1.1036582971909503e+00,
       3.5499903300552047e+00, -1.0611382187103617e+00,
       3.5146351148634802e+00, -1.0266565534701009e+00,
       3.4387216657108137e+00, -9.9727498634598832e-01,
       3.3794499813000387e+00, -9.8006702293076098e-01,
       3.3040972324303990e+00, -9.6064092033381931e-01,
       3.3066993929422028e+00, -9.4896973950973251e-01,
       3.3939376050901635e+00, -9.6864717062642436e-01,
       3.4717341116702616e+00, -9.8785124066584384e-01,
       3.5377570337199522e+00, -1.0197642368232653e+00,
       3.5908989003633720e+00, -1.0623398834616171e+00,
       3.6221996867103758e+00, -1.1059648056894453e+00,
       3.6309159319323920e+00, -1.1616663817096045e+00,
       3.6161554223870267e+00, -1.2187910530240760e+00,
       3.5995143506975840e+00, -1.2601551741625774e+00,
       3.5733310746408198e+00, -1.2891202145448006e+00,
       3.5474341730122156e+00, -1.3038911469438226e+00,
       3.5354864061848024e+00, -1.3135181728602112e+00,
       3.5490833424116577e+00, -1.3209524998721565e+00,
       3.5795050608933052e+00, -1.3176732855605564e+00,
       3.6207556106470777e+00, -1.3114296989798853e+00,
       3.6591081255432085e+00, -1.2870384579750076e+00,
       3.7049908477196518e+00, -1.2589398483996594e+00,
       3.7302939576742218e+00, -1.2278813905675705e+00,
       3.7209194718675005e+00, -1.1956605426661775e+00,
       3.6725205966065495e+00, -1.1806397891062559e+00,
       3.6447980696108564e+00, -1.1862628176281049e+00,
       3.6110969154704335e+00, -1.1931803251310555e+00,
       3.5819867764627857e+00, -1.1975658735308590e+00,
       3.5548653272188058e+00, -1.2010580934136617e+00,
       3.5525914512480221e+00, -1.1979356665717513e+00,
       3.5532836322200296e+00, -1.1988920826039930e+00,
       3.5588816538133705e+00, -1.2026629006140876e+00,
       3.5847669430863132e+00, -1.2013116292883470e+00,
       3.6186672377844720e+00, -1.1932522592970745e+00,
       3.6404726821046332e+00, -1.1807868347108172e+00,
       3.6706779206850944e+00, -1.1792126347515384e+00,
       3.6982516741511113e+00, -1.1964731326771572e+00,
       3.7035225920702159e+00, -1.2223495070879853e+00,
       3.6930489715617814e+00, -1.2553200635177542e+00,
       3.6701425250274924e+00, -1.2872975080985505e+00,
       3.6292366374265086e+00, -1.3108210128764253e+00,
       3.5798261496993122e+00, -1.3189951206400685e+00,
       3.5455723100328935e+00, -1.3228131218820296e+00,
       3.5338202488414785e+00, -1.3187784741023594e+00,
       3.5437143811427307e+00, -1.3153372963229157e+00,
       3.5615759771871653e+00, -1.3011910151501798e+00,
       3.5856881360505777e+00, -1.2758998210239116e+00,
       3.6006979019729850e+00, -1.2419513043241726e+00,
       3.5991697486143557e+00, -1.1888751279578171e+00,
       3.5909762271819798e+00, -1.1385413816362187e+00,
       3.5572693534381159e+00, -1.0863022222741401e+00,
       3.5213374818293937e+00, -1.0428680104503307e+00,
       3.4625319143212927e+00, -1.0139233782553496e+00,
       3.3944457991767689e+00, -9.9243093035505114e-01,
       3.3174481261810183e+00, -9.6928748336649939e-01,
       3.3189674729256367e+00, -9.6063784643787853e-01,
       3.4107271175040292e+00, -9.7581419388983515e-01,
       3.4814208706693446e+00, -1.0012068748223222e+00,
       3.5615189906986853e+00, -1.0391581489199893e+00,
       3.5869827384873227e+00, -1.0833584585285778e+00,
       3.6088502996196459e+00, -1.1369595086990327e+00,
       3.6152584114395281e+00, -1.1927890822468026e+00,
       3.6006681324357435e+00, -1.2480216839972527e+00,
       3.5821864550034204e+00, -1.2843321322805978e+00,
       3.5553672297974734e+00, -1.3024973360951848e+00,
       3.5280616874228574e+00, -1.3137809574259678e+00,
       3.5260111559096976e+00, -1.3177595503168256e+00,
       3.5390605134750994e+00, -1.3097974999860507e+00,
       3.5697023637915253e+00, -1.3014603669725171e+00,
       3.6263250676519583e+00, -1.2914527137643446e+00,
       3.6702540053177644e+00, -1.2596924889779892e+00,
       3.7106520428780150e+00, -1.2296284802268529e+00,
       3.7370800046317010e+00, -1.1960998900444535e+00,
       3.7213872934241552e+00, -1.1688749277388866e+00,
       3.6610782954436050e+00, -1.1555331284514718e+00,
       3.6212445076323911e+00, -1.1562000511010926e+00,
       3.5729488556904876e+00, -1.1618557584190226e+00,
       3.5394950296058938e+00, -1.1693829481655860e+00,
       3.4956770649155691e+00, -1.1769335444913012e+00,
       3.5074456727642036e+00, -1.1758923900490170e+00,
       3.4922833229594312e+00, -1.1721049226794686e+00,
       3.4921877759245255e+00, -1.1747441870855131e+00,
       3.5293535102317817e+00, -1.1729104375349817e+00,
       3.5769714265146235e+00, -1.1636659101570206e+00,
       3.6214502314354706e+00, -1.1534915831634651e+00,
       3.6773638101251556e+00, -1.1569839791552590e+00,
       3.7267072522626985e+00, -1.1648890598462049e+00,
       3.7141863660689665e+00, -1.1872650239519309e+00,
       3.6973272914961188e+00, -1.2202242826923166e+00,
       3.6755330075338746e+00, -1.2570090001956107e+00,
       3.6309577117585157e+00, -1.2833912333028628e+00,
       3.5916606940867144e+00, -1.3048739810633285e+00,
       3.5400901485244440e+00, -1.3155637002168177e+00,
       3.5100339248181189e+00, -1.3167344780142478e+00,
       3.5250851068292315e+00, -1.3208042212984137e+00,
       3.5472828093234310e+00, -1.3157470215178220e+00,
       3.5689384259038435e+00, -1.2975586188471091e+00,
       3.5914218833880271e+00, -1.2665993925501249e+00,
       3.5974889623007775e+00, -1.2186062941215472e+00,
       3.5918606561133690e+00, -1.1661803138550051e+00,
       3.5570549722244413e+00, -1.1112749375967204e+00,
       3.5257712276882271e+00, -1.0625001286533831e+00,
       3.4774631301228514e+00, -1.0283948253591209e+00,
       3.4159670365477619e+00, -1.0023768535380999e+00,
       3.3345873439432281e+00, -9.7836990822764180e-01,
       3.3194514630541629e+00, -9.6908902187751844e-01,
       3.4253596835097522e+00, -9.8770469029278651e-01,
       3.5112023884518262e+00, -1.0193460223560633e+00,
       3.5620332033548339e+00, -1.0609202242882534e+00,
       3.5871359064824504e+00, -1.1055242603120021e+00,
       3.5986285522759855e+00, -1.1617287671709546e+00,
       3.6012384630892220e+00, -1.2212282967970298e+00,
       3.5880431794044934e+00, -1.2679689721024427e+00,
       3.5614936998520257e+00, -1.2977351750915276e+00,
       3.5409651175520986e+00, -1.3138275106689532e+00,
       3.5206641513650347e+00, -1.3203008440106909e+00,
       3.5123157580520306e+00, -1.3150298628143098e+00,
       3.5420827915197388e+00, -1.3041827576104368e+00,
       3.5932803998645912e+00, -1.2949565172744355e+00,
       3.6296183591560265e+00, -1.2699320547128994e+00,
       3.6916332723561598e+00, -1.2346297021525550e+00,
       3.7098821606604568e+00, -1.2071750998519899e+00,
       3.7431280524283821e+00, -1.1854502086679350e+00,
       3.7176082084527122e+00, -1.1636063357729614e+00,
       3.6901680991746746e+00, -1.1602054253194050e+00,
       3.6050133971128950e+00, -1.1503273514973180e+00,
       3.5574339848000118e+00, -1.1602402310180271e+00,
       3.4838646944091054e+00, -1.1655454182475564e+00,
       3.4409290639748198e+00, -1.1729681619035861e+00,
       3.4589122278407114e+00, -1.1771073937589285e+00,
       3.4445852595706152e+00, -1.1749491397106280e+00,
       3.4309979429417901e+00, -1.1738350257142602e+00,
       3.4524246108664265e+00, -1.1705944767680996e+00,
       3.5261890045304165e+00, -1.1629072863319252e+00,
       3.5733797190435452e+00, -1.1536672344658350e+00,
       3.6361375228297108e+00, -1.1527492699893418e+00,
       3.7197991159585624e+00, -1.1679753771543060e+00,
       3.7168916497065538e+00, -1.1807689628217815e+00,
       3.7001028223980219e+00, -1.1954816982785410e+00,
       3.6861913204289412e+00, -1.2288548479549743e+00,
       3.6559090262298009e+00, -1.2642209040971308e+00,
       3.6106826601843549e+00, -1.2868287933645042e+00,
       3.5533568070917361e+00, -1.3077306438327658e+00,
       3.5187799673949676e+00, -1.3164277972039524e+00,
       3.5171215081083056e+00, -1.3223477445277396e+00,
       3.5309713075545037e+00, -1.3242660726594553e+00,
       3.5676498362958817e+00, -1.3127889961692685e+00,
       3.5889422909724265e+00, -1.2885819498713567e+00,
       3.6050990399757250e+00, -1.2492240382421447e+00,
       3.5941788522504527e+00, -1.1958852308126418e+00,
       3.5878168495974472e+00, -1.1417286292748421e+00,
       3.5340250238964610e+00, -1.0854143446429150e+00,
       3.4883129083166957e+00, -1.0449984279619253e+00,
       3.4275816293089765e+00, -1.0149971492457335e+00,
       3.3435726827277725e+00, -9.9175343623690215e-01,
       3.3466422746196822e+00, -9.8059587979308038e-01,
       3.4376549504338634e+00, -1.0024380713869734e+00,
       3.5260017386635680e+00, -1.0383715408090604e+00,
       3.5647056240689543e+00, -1.0802025992649833e+00,
       3.5944096380998869e+00, -1.1327659257028408e+00,
       3.6074751977589785e+00, -1.1923722447690006e+00,
       3.5964303589769697e+00, -1.2418959711582154e+00,
       3.5917936198370830e+00, -1.2816249754307034e+00,
       3.5567254263315209e+00, -1.3070198398858279e+00,
       3.5270903406124328e+00, -1.3188037944925834e+00,
       3.5230384532826085e+00, -1.3240778467470005e+00,
       3.5232162608396158e+00, -1.3128698600270885e+00,
       3.5633914336188353e+00, -1.2986089074496068e+00,
       3.5964352565692774e+00, -1.2749105761929664e+00,
       3.6257427342301032e+00, -1.2473231099082960e+00,
       3.6581391602879321e+00, -1.2196265759963147e+00,
       3.6666110649720021e+00, -1.1959475589999051e+00,
       3.6692947845409245e+00, -1.1831242459117737e+00,
       3.6623752918733423e+00, -1.1727476102311207e+00,
       3.6328584572466767e+00, -1.1627424611016883e+00,
       3.5901983249755824e+00, -1.1634646528275128e+00,
       3.5448092220444369e+00, -1.1655226296117436e+00,
       3.4574910031245558e+00, -1.1692311095844148e+00,
       3.4256337273114035e+00, -1.1766703263986806e+00,
       3.4418136722413406e+00, -1.1851341639100892e+00,
       3.4337629098178986e+00, -1.1823470645930452e+00,
       3.4240744534995224e+00, -1.1777629019568696e+00,
       3.4580247468493650e+00, -1.1738591565827097e+00,
       3.5147317153413860e+00, -1.1706976845900174e+00,
       3.5572957710403315e+00, -1.1691907748936210e+00,
       3.5914973327048103e+00, -1.1684540284194176e+00,
       3.6495040411473574e+00, -1.1791811796820824e+00,
       3.6690560697037546e+00, -1.1918264683498956e+00,
       3.6769961478568529e+00, -1.1967542437800069e+00,
       3.6705247240612406e+00, -1.2156482040532623e+00,
       3.6481236219405440e+00, -1.2401048708154481e+00,
       3.6215708582414301e+00, -1.2700600864232119e+00,
       3.5761649019445745e+00, -1.2951467387790705e+00,
       3.5301451048513441e+00, -1.3084915161161506e+00,
       3.5203692393912509e+00, -1.3193283695425508e+00,
       3.5329921322318483e+00, -1.3294487638754517e+00,
       3.5489592641790302e+00, -1.3195045290627128e+00,
       3.5870511467459685e+00, -1.3064857343344056e+00,
       3.6029679160325370e+00, -1.2714162568105740e+00,
       3.6073171740657703e+00, -1.2228657504251861e+00,
       3.5870479560801831e+00, -1.1659370157483260e+00,
       3.5469810758451246e+00, -1.1090887306862423e+00,
       3.5003575475448154e+00, -1.0623068874221415e+00,
       3.4317671294784691e+00, -1.0279095685464150e+00,
       3.3624600982634303e+00, -1.0034438778577894e+00,
       3.3609350672294505e+00, -9.9153111964992180e-01,
       3.4513050004738122e+00, -1.0159497519426066e+00,
       3.5335031691580721e+00, -1.0551142072067548e+00,
       3.5763828369283894e+00, -1.0997469267274136e+00,
       3.5985093255337670e+00, -1.1564238040334669e+00,
       3.6086888316750394e+00, -1.2140912803244639e+00,
       3.5980412819597269e+00, -1.2582339535865006e+00,
       3.5855721463732562e+00, -1.2920459432188172e+00,
       3.5605111565153962e+00, -1.3165818035918242e+00,
       3.5345674778913070e+00, -1.3206726583295803e+00,
       3.5313991652914063e+00, -1.3205186432672118e+00,
       3.5199493526204941e+00, -1.3043637953385463e+00,
       3.5556790127619564e+00, -1.2885516468427216e+00,
       3.5817370129969617e+00, -1.2608648757259022e+00,
       3.6102680375605400e+00, -1.2357494580297297e+00,
       3.6240720074085124e+00, -1.2157886403050777e+00,
       3.6120840211484904e+00, -1.2114092988804122e+00,
       3.6238268588314728e+00, -1.2103397834036667e+00,
       3.6064874056671270e+00, -1.2047054654263569e+00,
       3.5986568975222184e+00, -1.1997011631222343e+00,
       3.5708774453392715e+00, -1.1939993419444452e+00,
       3.5485184993855206e+00, -1.1946046388775204e+00,
       3.4916252830272301e+00, -1.1953257011732372e+00,
       3.4702094913116190e+00, -1.2003756710820794e+00,
       3.4604353537296060e+00, -1.2096086473865912e+00,
       3.4494384301594181e+00, -1.2068568656165870e+00,
       3.4489388053001453e+00, -1.1993039699919832e+00,
       3.4650618235289157e+00, -1.1960500361310704e+00,
       3.5021367366530853e+00, -1.1913560895138862e+00,
       3.5318628436574939e+00, -1.1953424475443932e+00,
       3.5489066303950221e+00, -1.2010760827974627e+00,
       3.5714009726430085e+00, -1.2053857852494574e+00,
       3.5874189736637181e+00, -1.2108310658305479e+00,
       3.6027229920092769e+00, -1.2086148032102919e+00,
       3.6192493029940351e+00, -1.2182034188482931e+00,
       3.6201519578963310e+00, -1.2327078566113654e+00,
       3.6094915088957884e+00, -1.2584244478673370e+00,
       3.5814812792223494e+00, -1.2865890152784456e+00,
       3.5407965199943265e+00, -1.3047648230692104e+00,
       3.5196356916363594e+00, -1.3163458089616393e+00,
       3.5246476730600182e+00, -1.3261668774162712e+00,
       3.5449526797596436e+00, -1.3292859646412463e+00,
       3.5736223501461906e+00, -1.3142751061964255e+00,
       3.5951060573647662e+00, -1.2861281159119784e+00,
       3.6040628266244079e+00, -1.2464610111114549e+00,
       3.5825344179026959e+00, -1.1863661874996037e+00,
       3.5643413866525102e+00, -1.1312136224382174e+00,
       3.5053908431821346e+00, -1.0752772302597122e+00,
       3.4489133714616647e+00, -1.0402432465788209e+00,
       3.3765140468879058e+00, -1.0124068357362150e+00,
       3.3848102543624434e+00, -9.9993374377026900e-01,
       3.4631843336121975e+00, -1.0288599594775780e+00,
       3.5440341266440645e+00, -1.0715630827046709e+00,
       3.5802271677370494e+00, -1.1200141088124551e+00,
       3.6006931532005617e+00, -1.1792582191405925e+00,
       3.6073456148039775e+00, -1.2306080543011677e+00,
       3.6068079692586106e+00, -1.2744981716719621e+00,
       3.5774534396248479e+00, -1.2993542653629797e+00,
       3.5610291609187561e+00, -1.3201018109118920e+00,
       3.5442908690024280e+00, -1.3261723461953967e+00,
       3.5236334959336255e+00, -1.3180173595108979e+00,
       3.5188392938322961e+00, -1.3047948080578615e+00,
       3.5588718130913835e+00, -1.2835050073489431e+00,
       3.5655478634944506e+00, -1.2564617022097446e+00,
       3.5828375658512122e+00, -1.2388863661848455e+00,
       3.5874309592776306e+00, -1.2298765760050760e+00,
       3.5910006655075848e+00, -1.2357892864898345e+00,
       3.5724413918687130e+00, -1.2349766761089256e+00,
       3.5605342063263130e+00, -1.2402439058043984e+00,
       3.5600804743221803e+00, -1.2404732334187683e+00,
       3.5465300852465700e+00, -1.2395876217084232e+00,
       3.5230558523468800e+00, -1.2388198537476725e+00,
       3.4826146422422819e+00, -1.2375026288364714e+00,
       3.4522249936843838e+00, -1.2381235723346629e+00,
       3.4420362301522216e+00, -1.2439750788529926e+00,
       3.4449518729878266e+00, -1.2437543201396555e+00,
       3.4369009600868674e+00, -1.2389815127176966e+00,
       3.4328260240339636e+00, -1.2337697405916235e+00,
       3.4642603658756772e+00, -1.2325600989926910e+00,
       3.4986448244764325e+00, -1.2326040615672245e+00,
       3.5188515329579073e+00, -1.2374640048439283e+00,
       3.5185789413447353e+00, -1.2333289489027368e+00,
       3.5369654529987886e+00, -1.2370450959323986e+00,
       3.5613708332775049e+00, -1.2372220473593434e+00,
       3.5790927317468877e+00, -1.2356013927937415e+00,
       3.5915922510498222e+00, -1.2467869533734961e+00,
       3.5719265513564515e+00, -1.2629032019772735e+00,
       3.5603156876087931e+00, -1.2829487580925010e+00,
       3.5370227719327030e+00, -1.3055756679869606e+00,
       3.5204304712440919e+00, -1.3196003075952487e+00,
       3.5204956794515074e+00, -1.3237848970486625e+00,
       3.5422062397114296e+00, -1.3294663638645750e+00,
       3.5649581801431918e+00, -1.3196498197986526e+00,
       3.5817978030225563e+00, -1.2960019416605628e+00,
       3.6165258128104183e+00, -1.2651072480595247e+00,
       3.5992668381524751e+00, -1.2093234885002755e+00,
       3.5818622433480329e+00, -1.1565032559866606e+00,
       3.5340682099847549e+00, -1.0945529197892985e+00,
       3.4693816604457628e+00, -1.0566359497997189e+00,
       3.3861436925047532e+00, -1.0187355068417814e+00,
       3.4056935457227717e+00, -1.0103721111498813e+00,
       3.4665356836780878e+00, -1.0391875022214727e+00,
       3.5489816695228904e+00, -1.0853121875426603e+00,
       3.5943329566041107e+00, -1.1438726083605093e+00,
       3.6077809014902704e+00, -1.2012668177490720e+00,
       3.6076783418981955e+00, -1.2449556824449379e+00,
       3.6043573069836397e+00, -1.2847705681905044e+00,
       3.5776081767888050e+00, -1.3063397424341807e+00,
       3.5565413886034651e+00, -1.3193514620411513e+00,
       3.5497349650598919e+00, -1.3291402383133653e+00,
       3.5184196108574746e+00, -1.3172615794290143e+00,
       3.5239137687806386e+00, -1.3111588800966099e+00,
       3.5299930280160692e+00, -1.2903169588286052e+00,
       3.5295093386064531e+00, -1.2727003803537595e+00,
       3.5451021470236648e+00, -1.2646327667217057e+00,
       3.5489232732116709e+00, -1.2614738853216401e+00,
       3.5617211550956447e+00, -1.2685963010689145e+00,
       3.5451204819189237e+00, -1.2739436010784564e+00,
       3.5253006404449145e+00, -1.2762270273369420e+00,
       3.5161075716225190e+00, -1.2772452166029920e+00,
       3.5149048886209164e+00, -1.2801319319034896e+00,
       3.4913496568921292e+00, -1.2783760831783124e+00,
       3.4526873145382955e+00, -1.2741830236855565e+00,
       3.4400729224874143e+00, -1.2760671622092363e+00,
       3.4456976447015690e+00, -1.2778574108854894e+00,
       3.4423207793111241e+00, -1.2752491572107982e+00,
       3.4323260816292600e+00, -1.2756435426348196e+00,
       3.4374353385573526e+00, -1.2775050234955809e+00,
       3.4780648705629220e+00, -1.2793891743025467e+00,
       3.4997204863956415e+00, -1.2798036235583736e+00,
       3.5074211636049299e+00, -1.2784558836463011e+00,
       3.5039580158714410e+00, -1.2766483483520086e+00,
       3.5014855391983324e+00, -1.2715564922071001e+00,
       3.5226014126352427e+00, -1.2644331353106586e+00,
       3.5279664788804230e+00, -1.2622552030084375e+00,
       3.5371422112862532e+00, -1.2657652271368602e+00,
       3.5319313688380456e+00, -1.2742693475936899e+00,
       3.5131975917265201e+00, -1.2870486272817907e+00,
       3.5176365746314331e+00, -1.3106260935223153e+00,
       3.5200716985269045e+00, -1.3180754478507826e+00,
       3.5176986996614548e+00, -1.3235063591278786e+00,
       3.5436291258982862e+00, -1.3316044495433030e+00,
       3.5699962596283594e+00, -1.3249953523254756e+00,
       3.5872676557980840e+00, -1.3052140287366412e+00,
       3.6119145286867220e+00, -1.2774384427075109e+00,
       3.6099873641833296e+00, -1.2321298966198493e+00,
       3.5960144445219711e+00, -1.1787275983547041e+00,
       3.5384406419409733e+00, -1.1132793766208142e+00,
       3.4784286059929759e+00, -1.0713970964392754e+00,
       3.4284931879653913e+00, -1.0329724993532767e+00,
       3.4328992309104751e+00, -1.0176887131940513e+00,
       3.4891716652807823e+00, -1.0517555043289231e+00,
       3.5607437235332542e+00, -1.1021095599802777e+00,
       3.5904379353477331e+00, -1.1606707945156549e+00,
       3.6113635612911277e+00, -1.2157613524374529e+00,
       3.6113604103540839e+00, -1.2598698036620235e+00,
       3.5946299413405329e+00, -1.2902837678223562e+00,
       3.5723093021160519e+00, -1.3127193700917166e+00,
       3.5610690983910831e+00, -1.3230925045221047e+00,
       3.5406062226276211e+00, -1.3315703607090286e+00,
       3.5083772525885824e+00, -1.3217247587373504e+00,
       3.4946190731640754e+00, -1.3125869349716253e+00,
       3.4956463549036960e+00, -1.3040341656074346e+00,
       3.5008215982817172e+00, -1.2971195736215018e+00,
       3.4966098141856130e+00, -1.2917162661818280e+00,
       3.5060748515134343e+00, -1.2927712264594517e+00,
       3.5093895523521601e+00, -1.2987972604356901e+00,
       3.5005595537688383e+00, -1.3065945318542866e+00,
       3.5146572433706313e+00, -1.3097493185183324e+00,
       3.5041686432123220e+00, -1.3057110642417824e+00,
       3.5042172295973293e+00, -1.3045967097938660e+00,
       3.4843509988782828e+00, -1.2988802242153690e+00,
       3.4503985995011122e+00, -1.2977046627386615e+00,
       3.4422670241530589e+00, -1.2887133470819478e+00,
       3.4516454809202850e+00, -1.2810509725584251e+00,
       3.4552758027377375e+00, -1.2805034298999312e+00,
       3.4329992833370402e+00, -1.2883254853211437e+00,
       3.4339855189845929e+00, -1.2932953198567585e+00,
       3.4611724749233712e+00, -1.3005666417773318e+00,
       3.4854030341697881e+00, -1.3052797517603949e+00,
       3.4856476301917514e+00, -1.3066836572496969e+00,
       3.4868604373283243e+00, -1.3073204259573072e+00,
       3.4809909554932137e+00, -1.3075022721245682e+00,
       3.4838372402168858e+00, -1.3054325739298578e+00,
       3.4855133741179345e+00, -1.3011643393201111e+00,
       3.4934745783478527e+00, -1.2990197512426542e+00,
       3.4825986413221730e+00, -1.2939903620597613e+00,
       3.4780372746588806e+00, -1.3016470633247896e+00,
       3.4865785024617049e+00, -1.3134327607588758e+00,
       3.4916902097602414e+00, -1.3178659770537988e+00,
       3.5210601994899871e+00, -1.3263304454793534e+00,
       3.5386986473098627e+00, -1.3317231652084904e+00,
       3.5585833202680828e+00, -1.3285076399166900e+00,
       3.5906870551591918e+00, -1.3120101287586248e+00,
       3.6083557216447271e+00, -1.2878723335315465e+00,
       3.6167321873296450e+00, -1.2487136302730102e+00,
       3.5923542012878151e+00, -1.1941132668848793e+00,
       3.5546391947096474e+00, -1.1342185845070787e+00,
       3.4965853333444188e+00, -1.0825520388952403e+00,
       3.4372090506627173e+00, -1.0440997098756459e+00,
       3.4536002303293407e+00, -1.0245358057017178e+00,
       3.4896360180886332e+00, -1.0634463382776671e+00,
       3.5708243849218291e+00, -1.1213543930842156e+00,
       3.5941007726207248e+00, -1.1779047822573510e+00,
       3.6014418626879263e+00, -1.2305730378508601e+00,
       3.6101640960640822e+00, -1.2737749484272687e+00,
       3.5905380000598912e+00, -1.2990081313651447e+00,
       3.5617997840926106e+00, -1.3202324624903619e+00,
       3.5421218129183938e+00, -1.3335702749323886e+00,
       3.5150781122568100e+00, -1.3332987035350521e+00,
       3.4870582018844734e+00, -1.3281267528392695e+00,
       3.4619168687856807e+00, -1.3167203504762461e+00,
       3.4491967869761533e+00, -1.3109703307340490e+00,
       3.4422216469124343e+00, -1.3067947866800909e+00,
       3.4403374948855490e+00, -1.3113465768827794e+00,
       3.4467417761846399e+00, -1.3168705563392820e+00,
       3.4607518355532436e+00, -1.3210370779338809e+00,
       3.4634334305403831e+00, -1.3203610496434082e+00,
       3.4849415695240853e+00, -1.3161303336119214e+00,
       3.4992876540547497e+00, -1.3077266108245011e+00,
       3.5098253064122678e+00, -1.2961018451963391e+00,
       3.4969458394840509e+00, -1.2874303102759250e+00,
       3.4567424823640547e+00, -1.2817240125492031e+00,
       3.4471568917061028e+00, -1.2687475015860834e+00,
       3.4777820632033647e+00, -1.2627632002200577e+00,
       3.4750661305483264e+00, -1.2597616420588598e+00,
       3.4522256771772395e+00, -1.2708948312766373e+00,
       3.4421995674268073e+00, -1.2763803434221210e+00,
       3.4694622803972930e+00, -1.2814382723015918e+00,
       3.4824535095237388e+00, -1.2924889194440139e+00,
       3.4761342968817810e+00, -1.3079777730502025e+00,
       3.4555195509189800e+00, -1.3164980485262512e+00,
       3.4526106545496820e+00, -1.3229335395630042e+00,
       3.4438837565149609e+00, -1.3271592973133128e+00,
       3.4389862826189890e+00, -1.3266415493205059e+00,
       3.4403343134437110e+00, -1.3218196251158716e+00,
       3.4355520256607424e+00, -1.3111038010938585e+00,
       3.4436220582376120e+00, -1.3152964305055428e+00,
       3.4524894192339715e+00, -1.3173872674133640e+00,
       3.4731059432595459e+00, -1.3294753380685365e+00,
       3.4963756399851804e+00, -1.3354723664259911e+00,
       3.5238929205641409e+00, -1.3388930287975638e+00,
       3.5448111972983098e+00, -1.3304324904082552e+00,
       3.5669864213389855e+00, -1.3173964972849255e+00,
       3.5928783281864440e+00, -1.2967898081822209e+00,
       3.6116460574431515e+00, -1.2645870734836577e+00,
       3.5858585384389841e+00, -1.2096527774947485e+00,
       3.5587775249312505e+00, -1.1549008552782967e+00,
       3.5018996797149304e+00, -1.0921383981966992e+00,
       3.4515649716967736e+00, -1.0501130287802483e+00,
       3.4712555882030198e+00, -1.0331161544754650e+00,
       3.5017388870086004e+00, -1.0765117577548711e+00,
       3.5667821863396503e+00, -1.1378952494932195e+00,
       3.5881715264704517e+00, -1.1965218572056977e+00,
       3.5930108373308882e+00, -1.2445661337337357e+00,
       3.5937941349376414e+00, -1.2840594065915227e+00,
       3.5719783289296259e+00, -1.3113112407267942e+00,
       3.5383190713401143e+00, -1.3257089175363426e+00,
       3.5142958388727017e+00, -1.3417894416831802e+00,
       3.4716692063101542e+00, -1.3386904051144177e+00,
       3.4444385379800435e+00, -1.3349964177155065e+00,
       3.4197696048773456e+00, -1.3264027138042649e+00,
       3.3987615464768068e+00, -1.3187907078784340e+00,
       3.3913218561118685e+00, -1.3170109962587506e+00,
       3.3978424069254984e+00, -1.3237248187939790e+00,
       3.4127430566279475e+00, -1.3258163261586646e+00,
       3.4363040215053742e+00, -1.3284597559911091e+00,
       3.4552593172820587e+00, -1.3225686072947826e+00,
       3.4939445612899958e+00, -1.3061252207641647e+00,
       3.5178720428545796e+00, -1.2895955674657289e+00,
       3.5454835827393474e+00, -1.2693635890651518e+00,
       3.5445883351162113e+00, -1.2562496597631438e+00,
       3.5139503342653549e+00, -1.2458537966842018e+00,
       3.5081028035273190e+00, -1.2412383120571595e+00,
       3.5423328824182261e+00, -1.2442145237089584e+00,
       3.5499034671281349e+00, -1.2405928685952303e+00,
       3.5212663641628801e+00, -1.2441448335684131e+00,
       3.5042933232828704e+00, -1.2437835925263265e+00,
       3.5304356259247314e+00, -1.2481528495777885e+00,
       3.5271782064691792e+00, -1.2602422411771035e+00,
       3.4984639572915026e+00, -1.2844489559370655e+00,
       3.4750096974786269e+00, -1.3083411079392362e+00,
       3.4500781074011670e+00, -1.3226050946954917e+00,
       3.4293328875682598e+00, -1.3334628550108545e+00,
       3.4102640555958605e+00, -1.3362193227057451e+00,
       3.4035441791085748e+00, -1.3340307362426467e+00,
       3.3957495426530815e+00, -1.3262127885833526e+00,
       3.3969784895248214e+00, -1.3272878605947038e+00,
       3.4073649702351556e+00, -1.3277868246661291e+00,
       3.4375390891109494e+00, -1.3365677274286878e+00,
       3.4673121555914341e+00, -1.3477402564027421e+00,
       3.4925508059333144e+00, -1.3427483248995591e+00,
       3.5236892725288298e+00, -1.3386162757722617e+00,
       3.5462747413127413e+00, -1.3250624509297313e+00,
       3.5680316107693546e+00, -1.3032350498819505e+00,
       3.5885757869970454e+00, -1.2760136184262125e+00,
       3.5878788495157554e+00, -1.2252047492120646e+00,
       3.5559012633887654e+00, -1.1682990798067010e+00,
       3.5106451302552322e+00, -1.1042897545636643e+00,
       3.4640132696698376e+00, -1.0599650492005281e+00,
       3.4685986337267907e+00, -1.0445312718598549e+00,
       3.5191769922910643e+00, -1.0908560870640651e+00,
       3.5584824552905361e+00, -1.1512737983112511e+00,
       3.5802817009215282e+00, -1.2146669855527634e+00,
       3.5731628634117585e+00, -1.2601793620710671e+00,
       3.5628411220911653e+00, -1.2974701783614289e+00,
       3.5392653181033475e+00, -1.3229170757470814e+00,
       3.5034095517528687e+00, -1.3429851692673509e+00,
       3.4638623171952014e+00, -1.3540203932298049e+00,
       3.4213330020441712e+00, -1.3522199397020986e+00,
       3.3923340246181954e+00, -1.3472884439142094e+00,
       3.3719057800187877e+00, -1.3330552979087398e+00,
       3.3534962538698991e+00, -1.3276783687182987e+00,
       3.3618335343635528e+00, -1.3284880275498481e+00,
       3.3814415507528390e+00, -1.3314642999357473e+00,
       3.4011198439304224e+00, -1.3331508238824523e+00,
       3.4343850530615283e+00, -1.3288539424530219e+00,
       3.4740676632434648e+00, -1.3170551021631767e+00,
       3.5302130913158116e+00, -1.2989519289547802e+00,
       3.5951171725391262e+00, -1.2691270492789639e+00,
       3.6322945546615570e+00, -1.2335265379231661e+00,
       3.6295167359412215e+00, -1.2114384575102399e+00,
       3.5969126981064510e+00, -1.2158162047990360e+00,
       3.5859655352574653e+00, -1.2294210090421143e+00,
       3.6191844243386835e+00, -1.2396835574674268e+00,
       3.6253391390351215e+00, -1.2397088908494800e+00,
       3.5922894981338227e+00, -1.2320151936625792e+00,
       3.5934327305166875e+00, -1.2244268240222576e+00,
       3.6070237344532350e+00, -1.2145279967547444e+00,
       3.6095404203800827e+00, -1.2265179893194182e+00,
       3.5764913006854502e+00, -1.2608784512663163e+00,
       3.5263770689659122e+00, -1.2957101549668577e+00,
       3.4819003408211091e+00, -1.3211081233952102e+00,
       3.4364092094847551e+00, -1.3324228551043598e+00,
       3.4017905923020941e+00, -1.3379185175969253e+00,
       3.3858821175765339e+00, -1.3385807268606700e+00,
       3.3696560990840467e+00, -1.3346518424376355e+00,
       3.3450319941450464e+00, -1.3328735008824431e+00,
       3.3618598073955117e+00, -1.3405627991022702e+00,
       3.3844945615172142e+00, -1.3460678678043925e+00,
       3.4109322843965715e+00, -1.3567198995239145e+00,
       3.4486941404684206e+00, -1.3584670461392720e+00,
       3.4804574109604673e+00, -1.3505661553442412e+00,
       3.5199419216555508e+00, -1.3367139303550630e+00,
       3.5466579371163993e+00, -1.3154882325556663e+00,
       3.5644859026060542e+00, -1.2863248340019540e+00,
       3.5752414585430916e+00, -1.2410292358512134e+00,
       3.5522987838116422e+00, -1.1838909322397468e+00,
       3.5174199961213479e+00, -1.1198242337149438e+00,
       3.4679846873074145e+00, -1.0673877968905725e+00,
       3.4867271809925837e+00, -1.0581550970890430e+00,
       3.5348952371175062e+00, -1.1079598190019810e+00,
       3.5567711753516895e+00, -1.1708025046308730e+00,
       3.5553393833745188e+00, -1.2296951752077436e+00,
       3.5402573072834258e+00, -1.2753240076442114e+00,
       3.5257748021602588e+00, -1.3103742911073892e+00,
       3.4934552338539091e+00, -1.3364361916822693e+00,
       3.4546143819673549e+00, -1.3569836685843852e+00,
       3.4081199004694200e+00, -1.3676239805984323e+00,
       3.3625047453653090e+00, -1.3678548003065827e+00,
       3.3294668892225125e+00, -1.3611318752682566e+00,
       3.3105553379007007e+00, -1.3486816046108698e+00,
       3.3141773625471806e+00, -1.3439076162000296e+00,
       3.3361875333259094e+00, -1.3434996614938128e+00,
       3.3735474382342314e+00, -1.3426243802723110e+00,
       3.4138601708622209e+00, -1.3427806158832269e+00,
       3.4653933948586655e+00, -1.3314664930618987e+00,
       3.5358253148792498e+00, -1.3167412327048726e+00,
       3.6166602645389738e+00, -1.2931149057305054e+00,
       3.6615524698804673e+00, -1.2478212276436449e+00,
       3.6981607245203096e+00, -1.1976267713861231e+00,
       3.6813634719573094e+00, -1.1789560940905484e+00,
       3.6394251774359412e+00, -1.2125913350814008e+00,
       3.6086735520780882e+00, -1.2392442142633848e+00,
       3.6017621660044203e+00, -1.2488946964927174e+00,
       3.5943515624031006e+00, -1.2492740508285320e+00,
       3.5788118219893552e+00, -1.2411275829790458e+00,
       3.6175345055221064e+00, -1.2224324512265210e+00,
       3.6430136838789093e+00, -1.1943474056721217e+00,
       3.6661527266287983e+00, -1.2014507556078389e+00,
       3.6403165668118751e+00, -1.2415745110513414e+00,
       3.5955621543321103e+00, -1.2843194410509717e+00,
       3.5355966264900927e+00, -1.3138899793835133e+00,
       3.4834197791553461e+00, -1.3352503428402258e+00,
       3.4282056080752485e+00, -1.3435700370330317e+00,
       3.3849216351116569e+00, -1.3476888958037698e+00,
       3.3348605522172821e+00, -1.3429289913169056e+00,
       3.3129650490956641e+00, -1.3468803172251014e+00,
       3.3057856737765619e+00, -1.3515801656893673e+00,
       3.3208229464079304e+00, -1.3603985294704219e+00,
       3.3490723070508337e+00, -1.3683013901471921e+00,
       3.3823073180208034e+00, -1.3711995766706002e+00,
       3.4269460815628809e+00, -1.3626569326513336e+00,
       3.4757947377903622e+00, -1.3485904276807157e+00,
       3.5112166784580308e+00, -1.3295493049931886e+00,
       3.5423513035638985e+00, -1.3000455426006037e+00,
       3.5576321772525548e+00, -1.2568311273384067e+00,
       3.5553237373030844e+00, -1.1993289632428754e+00,
       3.5303634829902983e+00, -1.1379893085134392e+00,
       3.4885168251068319e+00, -1.0839182436619184e+00,
       3.4952067782764118e+00, -1.0689814141701965e+00,
       3.5394472786858930e+00, -1.1256700030905060e+00,
       3.5545477895265569e+00, -1.1907515273801237e+00,
       3.5351700718656955e+00, -1.2463838966022540e+00,
       3.5022962599603504e+00, -1.2896097134589741e+00,
       3.4853257182207020e+00, -1.3254606967694673e+00,
       3.4415863516055292e+00, -1.3496455237690186e+00,
       3.3919744076492924e+00, -1.3728782972308498e+00,
       3.3407342240336093e+00, -1.3840372352069454e+00,
       3.2954544613980086e+00, -1.3833544213007569e+00,
       3.2671770596249710e+00, -1.3775811725322946e+00,
       3.2531590507498231e+00, -1.3685201488389109e+00,
       3.2538995293418052e+00, -1.3545700361603890e+00,
       3.2864213796542705e+00, -1.3560431512338007e+00,
       3.3443529055135151e+00, -1.3511365532391979e+00,
       3.4161831586234892e+00, -1.3489839011875713e+00,
       3.4871231848723867e+00, -1.3341504391225734e+00,
       3.5804535194105629e+00, -1.3192691333313253e+00,
       3.6432504483395154e+00, -1.2955775420592222e+00,
       3.6589124177296473e+00, -1.2648374625375758e+00,
       3.6574163495039538e+00, -1.2182951542053659e+00,
       3.6321244615265376e+00, -1.2017051718399063e+00,
       3.5834433009951092e+00, -1.2352434092945048e+00,
       3.5073580982845036e+00, -1.2700215270751845e+00,
       3.4586239478477134e+00, -1.2771190334467841e+00,
       3.4441516909403793e+00, -1.2759611701630114e+00,
       3.4786929191076528e+00, -1.2690215832697291e+00,
       3.5490078225149175e+00, -1.2410329024829774e+00,
       3.6123529651514201e+00, -1.2051200382402798e+00,
       3.6469569702188713e+00, -1.2144222127819990e+00,
       3.6564606004311226e+00, -1.2609223619203516e+00,
       3.6325798086964753e+00, -1.2947553588523244e+00,
       3.5848708094556208e+00, -1.3131654526523253e+00,
       3.5130253659533408e+00, -1.3328602900943132e+00,
       3.4343491092190148e+00, -1.3466167977341252e+00,
       3.3590502608393948e+00, -1.3528747278269193e+00,
       3.2978499653980036e+00, -1.3554371539477954e+00,
       3.2612079131057632e+00, -1.3572150125984654e+00,
       3.2488066672537070e+00, -1.3660953215020979e+00,
       3.2573070964801643e+00, -1.3763365562745966e+00,
       3.2843587381579704e+00, -1.3852045186273005e+00,
       3.3172524881958592e+00, -1.3845528718384001e+00,
       3.3720525943644972e+00, -1.3778076590748436e+00,
       3.4303957721367060e+00, -1.3659546905500193e+00,
       3.4610205754635990e+00, -1.3401051904274219e+00,
       3.5002135108156121e+00, -1.3132675958423472e+00,
       3.5358033225382970e+00, -1.2748314126602827e+00,
       3.5557770798881472e+00, -1.2156663215319541e+00,
       3.5373002318196409e+00, -1.1549785095510647e+00,
       3.5084712037277939e+00, -1.0958523442583128e+00,
       3.5083543182876817e+00, -1.0849397932695513e+00,
       3.5379222378493775e+00, -1.1432591800141458e+00,
       3.5297420557207779e+00, -1.2051714232477737e+00,
       3.5101623060182043e+00, -1.2616410590564653e+00,
       3.4693289003403507e+00, -1.3063834904813190e+00,
       3.4423499122216557e+00, -1.3421277357859547e+00,
       3.3945336873608034e+00, -1.3665010014539141e+00,
       3.3315358960241466e+00, -1.3916817513679318e+00,
       3.2741208787474725e+00, -1.4011223129296748e+00,
       3.2269541853841268e+00, -1.4014052355788393e+00,
       3.1962858987477127e+00, -1.3914532154054002e+00,
       3.1861262200763427e+00, -1.3811228049496407e+00,
       3.1872278103472289e+00, -1.3693614951399229e+00,
       3.2183546416165387e+00, -1.3597130679496339e+00,
       3.2829591385457135e+00, -1.3577867096193010e+00,
       3.3723775914054044e+00, -1.3497180445573278e+00,
       3.4682400016893618e+00, -1.3348773517769406e+00,
       3.5670106385878970e+00, -1.3243025485688127e+00,
       3.6236954481208912e+00, -1.3130346926320016e+00,
       3.5946810025281404e+00, -1.2945577307328262e+00,
       3.5709444730076139e+00, -1.2696122250166999e+00,
       3.5402327386307411e+00, -1.2568516439408495e+00,
       3.4691798530484266e+00, -1.2839952403600883e+00,
       3.3593148917622244e+00, -1.3089565954979971e+00,
       3.2895085373541439e+00, -1.3176468599892122e+00,
       3.2741355255489766e+00, -1.3168223108173354e+00,
       3.3109998049937013e+00, -1.3040120277730016e+00,
       3.4096867258008827e+00, -1.2810423239127902e+00,
       3.4926280620840058e+00, -1.2545863317910935e+00,
       3.5503227639262542e+00, -1.2642506040415233e+00,
       3.5877493019341928e+00, -1.2939040421491861e+00,
       3.6143350172715261e+00, -1.3147831596844293e+00,
       3.5930512299978523e+00, -1.3248688054713815e+00,
       3.5040811853686349e+00, -1.3388387964221589e+00,
       3.4006584481392004e+00, -1.3511310901496372e+00,
       3.2990264304786052e+00, -1.3575252933517246e+00,
       3.2329444796081912e+00, -1.3645438311349136e+00,
       3.1982420312258317e+00, -1.3688144008030001e+00,
       3.1803580995808325e+00, -1.3785809114162328e+00,
       3.1932753840632273e+00, -1.3902017044292769e+00,
       3.2242167985317556e+00, -1.4018057102267278e+00,
       3.2549224755579034e+00, -1.4003477583468888e+00,
       3.3123382684427729e+00, -1.3928062052988814e+00,
       3.3666831355988145e+00, -1.3790316160937250e+00,
       3.4140017273380368e+00, -1.3530483582807600e+00,
       3.4571894860555936e+00, -1.3252673260232295e+00,
       3.5057368596947556e+00, -1.2873099094959153e+00,
       3.5338494525183437e+00, -1.2307834363894892e+00,
       3.5345347956756226e+00, -1.1710901829102704e+00,
       3.5271626759099024e+00, -1.1116078174645865e+00,
       3.5066553240521960e+00, -1.0962924961489371e+00,
       3.5251617992140769e+00, -1.1623805669511509e+00,
       3.5055128720500264e+00, -1.2203687981110967e+00,
       3.4766639347110329e+00, -1.2758360893813063e+00,
       3.4330354321307999e+00, -1.3203040636713255e+00,
       3.3963248458760460e+00, -1.3570443814925757e+00,
       3.3344298195793374e+00, -1.3811314860377280e+00,
       3.2769071177626081e+00, -1.4065934350769680e+00,
       3.2158537156688403e+00, -1.4164880791288244e+00,
       3.1694667265587713e+00, -1.4163829004948152e+00,
       3.1366684582420814e+00, -1.4086817031504340e+00,
       3.1221511769294854e+00, -1.3979697542055827e+00,
       3.1319205320526904e+00, -1.3864837383138184e+00,
       3.1589849592177748e+00, -1.3740427009809699e+00,
       3.2167273774382652e+00, -1.3660574134942221e+00,
       3.2982860765106405e+00, -1.3537250393188527e+00,
       3.4142242426900573e+00, -1.3453943411812723e+00,
       3.5262468027784757e+00, -1.3397029684306943e+00,
       3.5811147151034159e+00, -1.3391090996942014e+00,
       3.5448055197781496e+00, -1.3335199442305452e+00,
       3.5178462139193760e+00, -1.3237341135089016e+00,
       3.4641706638900200e+00, -1.3206911066910372e+00,
       3.3570054921787240e+00, -1.3333597553943271e+00,
       3.2275672753430835e+00, -1.3477276815191470e+00,
       3.1635327938930584e+00, -1.3518456383344899e+00,
       3.1596811794726856e+00, -1.3490858165529296e+00,
       3.1942642259060112e+00, -1.3410787281354362e+00,
       3.3099829164859282e+00, -1.3299143421625770e+00,
       3.4176766624176635e+00, -1.3154422554404064e+00,
       3.4951560736338347e+00, -1.3208246551158620e+00,
       3.5492192853223647e+00, -1.3325503632592675e+00,
       3.5808765604458541e+00, -1.3412020336511552e+00,
       3.5577301350176311e+00, -1.3421719802660614e+00,
       3.4484747884242837e+00, -1.3483731528882921e+00,
       3.3213908556564289e+00, -1.3561642012435433e+00,
       3.2274102698164309e+00, -1.3667241506598071e+00,
       3.1709757840704436e+00, -1.3722815842565168e+00,
       3.1347313999611908e+00, -1.3821750662373042e+00,
       3.1185555586721105e+00, -1.3932039719030653e+00,
       3.1292091573657403e+00, -1.4037007554462775e+00,
       3.1585460724403989e+00, -1.4158090291094787e+00,
       3.1945396113586813e+00, -1.4170412921805577e+00,
       3.2499584927562037e+00, -1.4102285808519133e+00,
       3.3128702422242364e+00, -1.3953838194793302e+00,
       3.3675828760281665e+00, -1.3686197294315607e+00,
       3.4132272980814209e+00, -1.3385205806680900e+00,
       3.4637687011747551e+00, -1.2965030694238087e+00,
       3.5060540428129574e+00, -1.2449044758089385e+00,
       3.5190922126740563e+00, -1.1830249594583548e+00,
       3.5188650335624199e+00, -1.1200966658595939e+00,
       3.5045858572911177e+00, -1.1045192843218645e+00,
       3.5030395729712298e+00, -1.1715183151526052e+00,
       3.4852633157602471e+00, -1.2357815566788950e+00,
       3.4393475316861366e+00, -1.2884661348547677e+00,
       3.3867843268406768e+00, -1.3293963898334991e+00,
       3.3472488655044406e+00, -1.3658591371571389e+00,
       3.2857131796634329e+00, -1.3934267664551230e+00,
       3.2216059367438721e+00, -1.4166941209779287e+00,
       3.1625176732482769e+00, -1.4249947172242152e+00,
       3.1125817493895673e+00, -1.4246339874607927e+00,
       3.0816081654553509e+00, -1.4221463929851550e+00,
       3.0687047911431198e+00, -1.4105250900877930e+00,
       3.0813512285878795e+00, -1.4027890693499598e+00,
       3.1018374922289524e+00, -1.3895120343877900e+00,
       3.1517270578960854e+00, -1.3795519837727386e+00,
       3.2192893534138478e+00, -1.3684765405262378e+00,
       3.3198568303530398e+00, -1.3566793547285012e+00,
       3.4515964826739967e+00, -1.3570714242672532e+00,
       3.5247407617945852e+00, -1.3647277510059383e+00,
       3.5152138031200142e+00, -1.3633416789324975e+00,
       3.4957234692965460e+00, -1.3614463266782859e+00,
       3.4361106460301221e+00, -1.3641848287803340e+00,
       3.3111516414638813e+00, -1.3731181093300098e+00,
       3.1841660825306626e+00, -1.3833948523235062e+00,
       3.1225844249223149e+00, -1.3868764717946671e+00,
       3.1179899375348379e+00, -1.3874414784567024e+00,
       3.1538438089138765e+00, -1.3796480265813706e+00,
       3.2716849229201226e+00, -1.3697382342342026e+00,
       3.3858605769000261e+00, -1.3533311458168908e+00,
       3.4714141520947273e+00, -1.3538938977120054e+00,
       3.5152641594806155e+00, -1.3589318421830985e+00,
       3.5276550824274739e+00, -1.3596185759744850e+00,
       3.4766939631241249e+00, -1.3571787956180237e+00,
       3.3548315061727885e+00, -1.3615428656816646e+00,
       3.2382651111565077e+00, -1.3690481666651562e+00,
       3.1612333412210285e+00, -1.3784019760385162e+00,
       3.1165151593134066e+00, -1.3877313628139427e+00,
       3.0807558239873565e+00, -1.3971242920813987e+00,
       3.0692450830927966e+00, -1.4090735301111257e+00,
       3.0759295696094986e+00, -1.4174071202853920e+00,
       3.1017243736944788e+00, -1.4252738565097292e+00,
       3.1436206742977895e+00, -1.4284350200920009e+00,
       3.1976625104652125e+00, -1.4210361235333770e+00,
       3.2648030879148275e+00, -1.4068722274021359e+00,
       3.3240418156512659e+00, -1.3810497133014319e+00,
       3.3753886886781537e+00, -1.3493695665935383e+00,
       3.4204535009747081e+00, -1.3060079866596856e+00,
       3.4839275416656230e+00, -1.2589480791037271e+00,
       3.5058862588011825e+00, -1.1961526691767166e+00,
       3.5151018356676103e+00, -1.1341560718046799e+00,
       3.5021874976257918e+00, -1.1157711912097539e+00,
       3.4871313763062144e+00, -1.1828973159042684e+00,
       3.4590395217369729e+00, -1.2485995922652968e+00,
       3.4048796414264824e+00, -1.3001726755477063e+00,
       3.3489064360659535e+00, -1.3383455519746146e+00,
       3.3027213600313039e+00, -1.3696652373769371e+00,
       3.2398555161077089e+00, -1.4028869165992945e+00,
       3.1774543920107496e+00, -1.4236726588590625e+00,
       3.1127502162293039e+00, -1.4317899914275793e+00,
       3.0681646045142403e+00, -1.4341705665253563e+00,
       3.0373380577659703e+00, -1.4284730451058487e+00,
       3.0288586913173581e+00, -1.4203984346017369e+00,
       3.0372323379519806e+00, -1.4141430231728598e+00,
       3.0568812852230520e+00, -1.4054796059967913e+00,
       3.0926500100264174e+00, -1.3946673906073417e+00,
       3.1484817188963121e+00, -1.3827701414452986e+00,
       3.2342681616329738e+00, -1.3759172029642883e+00,
       3.3544441813300425e+00, -1.3764383672224678e+00,
       3.4518946967734605e+00, -1.3779221278659448e+00,
       3.4783688827031427e+00, -1.3727563579770374e+00,
       3.4593246014253194e+00, -1.3746771458284226e+00,
       3.4046280382939087e+00, -1.3865018911879596e+00,
       3.2903546008403222e+00, -1.4008693899478954e+00,
       3.1699401301121712e+00, -1.4099097854024569e+00,
       3.1080817318034746e+00, -1.4185700853853125e+00,
       3.0992189855002494e+00, -1.4185346839453874e+00,
       3.1505686819787107e+00, -1.4114824123159819e+00,
       3.2635861887811575e+00, -1.3962412411916529e+00,
       3.3703740652179848e+00, -1.3810752299062705e+00,
       3.4432306698582344e+00, -1.3719046841419462e+00,
       3.4800613691684239e+00, -1.3708644911987127e+00,
       3.4625640195691534e+00, -1.3714507676292873e+00,
       3.3791037452158075e+00, -1.3730997015963631e+00,
       3.2582662516103333e+00, -1.3755151373802557e+00,
       3.1624751014421868e+00, -1.3822950931764955e+00,
       3.1051793034850665e+00, -1.3929788838546602e+00,
       3.0589903749891225e+00, -1.3997722723761699e+00,
       3.0383515820668676e+00, -1.4090669571398458e+00,
       3.0265988396278942e+00, -1.4191805877764072e+00,
       3.0341024390062299e+00, -1.4257495902244581e+00,
       3.0530846238128531e+00, -1.4307228074068772e+00,
       3.0980618775551449e+00, -1.4347861572569021e+00,
       3.1483606024073318e+00, -1.4267690579536185e+00,
       3.2178479716425596e+00, -1.4141417077926528e+00,
       3.2812653230335163e+00, -1.3889091093455439e+00,
       3.3372398533289305e+00, -1.3578349548931108e+00,
       3.3908986508113923e+00, -1.3188759734383886e+00,
       3.4491213597030215e+00, -1.2734074780969933e+00,
       3.4925433329275539e+00, -1.2086977836574908e+00,
       3.5118400833788224e+00, -1.1430351877413709e+00,
       3.4904340938028153e+00, -1.1223799801741121e+00,
       3.4642365138272315e+00, -1.1868276971040799e+00,
       3.4284927433494454e+00, -1.2549503287830257e+00,
       3.3739676467460442e+00, -1.3055833256433054e+00,
       3.3142590864405719e+00, -1.3426028153448555e+00,
       3.2645262787763509e+00, -1.3772449657530943e+00,
       3.2057989402595166e+00, -1.4106325408678320e+00,
       3.1420671024778906e+00, -1.4286898095295939e+00,
       3.0791607658865923e+00, -1.4362381749145157e+00,
       3.0395611006921039e+00, -1.4394605778948089e+00,
       3.0170965837758867e+00, -1.4377253009013695e+00,
       3.0134278556523708e+00, -1.4325964516705185e+00,
       3.0155914158074699e+00, -1.4230395035173109e+00,
       3.0296830138759128e+00, -1.4151180699379571e+00,
       3.0513344424292694e+00, -1.4077070765856576e+00,
       3.0908975495868622e+00, -1.3989253422634540e+00,
       3.1659427507098918e+00, -1.3925815227652745e+00,
       3.2712878189032404e+00, -1.3927267875600491e+00,
       3.3749767346092141e+00, -1.3888700965965748e+00,
       3.4300057784024616e+00, -1.3852854389667271e+00,
       3.4304349184757923e+00, -1.3872728534702472e+00,
       3.3831376742242778e+00, -1.3995836127050540e+00,
       3.2870138059945511e+00, -1.4189111819789453e+00,
       3.1702665112401451e+00, -1.4301006736417872e+00,
       3.0905300038074963e+00, -1.4320949595513377e+00,
       3.0843106416034716e+00, -1.4336430554129111e+00,
       3.1510318454591353e+00, -1.4328449122618161e+00,
       3.2634956680396230e+00, -1.4194726147473526e+00,
       3.3529067781001314e+00, -1.3990985886964875e+00,
       3.4212543737240604e+00, -1.3859390453997562e+00,
       3.4346475485688237e+00, -1.3812439861251495e+00,
       3.3874097256325597e+00, -1.3834890943363347e+00,
       3.3055453580545873e+00, -1.3917914224188093e+00,
       3.1955373266032630e+00, -1.3918053733400477e+00,
       3.1066639025315435e+00, -1.3938544575778768e+00,
       3.0576643933932339e+00, -1.4012948524320896e+00,
       3.0325220295918838e+00, -1.4098446618073319e+00,
       3.0168576712547814e+00, -1.4191758664780423e+00,
       3.0117477294920989e+00, -1.4298609290737305e+00,
       3.0168461968906231e+00, -1.4362371098086524e+00,
       3.0300087238352034e+00, -1.4386459354009791e+00,
       3.0696926009626080e+00, -1.4384621402413345e+00,
       3.1196101052163878e+00, -1.4324707860700163e+00,
       3.1878851392541159e+00, -1.4224111063872587e+00,
       3.2433584425219313e+00, -1.3953867409382039e+00,
       3.3020269213128324e+00, -1.3638835712405555e+00,
       3.3631596532606007e+00, -1.3246206575939885e+00,
       3.4224505612380329e+00, -1.2791568876106618e+00,
       3.4613358246112451e+00, -1.2163600714320517e+00,
       3.4941919333195730e+00, -1.1466327840110819e+00,
       3.4853427601252944e+00, -1.1261925762270335e+00,
       3.4379676177186407e+00, -1.1893763008907619e+00,
       3.4069400849613882e+00, -1.2609816177456141e+00,
       3.3527247325491687e+00, -1.3092890230982843e+00,
       3.2880688458962997e+00, -1.3454027686977197e+00,
       3.2383213615850184e+00, -1.3809220394868318e+00,
       3.1770672042831745e+00, -1.4129621918342232e+00,
       3.1155834137771250e+00, -1.4312557513584434e+00,
       3.0586749963881461e+00, -1.4383381588685185e+00,
       3.0283252283322382e+00, -1.4412010934983883e+00,
       3.0159456597734660e+00, -1.4405340338856949e+00,
       3.0198584709170788e+00, -1.4389132619302516e+00,
       3.0206656730463877e+00, -1.4303149641124504e+00,
       3.0317662601209547e+00, -1.4257668335303360e+00,
       3.0406323148239705e+00, -1.4163943904850236e+00,
       3.0748270588118274e+00, -1.4129979126912682e+00,
       3.1196854170395421e+00, -1.4077283403223169e+00,
       3.2124835501671116e+00, -1.4046183316941019e+00,
       3.3191523986817821e+00, -1.4031800445643030e+00,
       3.3798660888967982e+00, -1.3977594342086834e+00,
       3.4044941169100085e+00, -1.3994389765268700e+00,
       3.3638680442790485e+00, -1.4107185325122864e+00,
       3.2818842289464802e+00, -1.4293206192943035e+00,
       3.1742182799963174e+00, -1.4423314054378533e+00,
       3.0898414714646845e+00, -1.4423665366493474e+00,
       3.0846917676806926e+00, -1.4433828812802099e+00,
       3.1569731436720709e+00, -1.4412901271170080e+00,
       3.2612859054736854e+00, -1.4275995775613928e+00,
       3.3436903801706390e+00, -1.4103372593360555e+00,
       3.3956200356728909e+00, -1.3970844178238055e+00,
       3.3887199206040868e+00, -1.3927078427928856e+00,
       3.3331758722795732e+00, -1.3941766344730222e+00,
       3.2357579228170037e+00, -1.3973804940472931e+00,
       3.1459177148575801e+00, -1.4040347073761494e+00,
       3.0832690868489196e+00, -1.4062421366880677e+00,
       3.0413148520111264e+00, -1.4108681044132574e+00,
       3.0328461447824813e+00, -1.4228359867686742e+00,
       3.0264124304827646e+00, -1.4309219487172382e+00,
       3.0197757568762298e+00, -1.4353152580382209e+00,
       3.0153587830094835e+00, -1.4394170485414939e+00,
       3.0237256751159212e+00, -1.4392391553464998e+00,
       3.0555012824920680e+00, -1.4399842775333624e+00,
       3.0985837307613093e+00, -1.4358606294108456e+00,
       3.1639657129172076e+00, -1.4242838529865089e+00,
       3.2248077762496195e+00, -1.3973501113024540e+00,
       3.2823915036773954e+00, -1.3652845013842376e+00,
       3.3447329743725001e+00, -1.3279284319550575e+00,
       3.3975857286853182e+00, -1.2836901939363277e+00,
       3.4393500310557266e+00, -1.2203215158966900e+00,
       3.4715269555326440e+00, -1.1483440999859360e+00,
       3.4719940224738872e+00, -1.1269719502553008e+00,
       3.4296759871924842e+00, -1.1959382551203261e+00,
       3.3872175800197510e+00, -1.2636037573055861e+00,
       3.3245047544105737e+00, -1.3097070639156869e+00,
       3.2696561364528578e+00, -1.3457918490012490e+00,
       3.2166999333916713e+00, -1.3787337679280796e+00,
       3.1616274862603584e+00, -1.4101722206877505e+00,
       3.1047916372223643e+00, -1.4283116698020908e+00,
       3.0595889403809529e+00, -1.4370367633823040e+00,
       3.0375721925897250e+00, -1.4377055940297370e+00,
       3.0302624016602637e+00, -1.4409887447475491e+00,
       3.0368435620320731e+00, -1.4383619720977701e+00,
       3.0354837304569049e+00, -1.4314786191803890e+00,
       3.0433244639683243e+00, -1.4282485310307940e+00,
       3.0502069863030545e+00, -1.4228027267192771e+00,
       3.0697976568914740e+00, -1.4152194943599126e+00,
       3.1077423168043712e+00, -1.4122099712458043e+00,
       3.1771641441964942e+00, -1.4094755840779776e+00,
       3.2643016512716625e+00, -1.4039318137465528e+00,
       3.3377589406246120e+00, -1.4055400948479917e+00,
       3.3727502750603802e+00, -1.4079330310298159e+00,
       3.3551436448640088e+00, -1.4165298817524812e+00,
       3.2925709013282232e+00, -1.4339820263653824e+00,
       3.1827630707579284e+00, -1.4492132117352940e+00,
       3.0905577588830959e+00, -1.4505835085861942e+00,
       3.0837522229462464e+00, -1.4504461038250291e+00,
       3.1623250320783134e+00, -1.4470299429192468e+00,
       3.2691815600228558e+00, -1.4325712182765711e+00,
       3.3336312263642287e+00, -1.4144373674841748e+00,
       3.3704186539592227e+00, -1.4040807971548208e+00,
       3.3392400249444223e+00, -1.3938390224373496e+00,
       3.2833966861905712e+00, -1.3985287102616006e+00,
       3.2008485194572986e+00, -1.4081721183223179e+00,
       3.1243280334067323e+00, -1.4110539429293030e+00,
       3.0742472664128986e+00, -1.4132165210175205e+00,
       3.0507277901045660e+00, -1.4168613497943421e+00,
       3.0455779210043725e+00, -1.4254022677004723e+00,
       3.0359843133115989e+00, -1.4285268053334894e+00,
       3.0335200073161506e+00, -1.4330875935005614e+00,
       3.0302342838547567e+00, -1.4360888558727551e+00,
       3.0353851518276369e+00, -1.4368388959763898e+00,
       3.0558227167030951e+00, -1.4377317232779749e+00,
       3.0861791968283798e+00, -1.4299042571471308e+00,
       3.1475011616996196e+00, -1.4222423654029779e+00,
       3.2071729014427635e+00, -1.3961438414318930e+00,
       3.2632214265865938e+00, -1.3634572320034455e+00,
       3.3213331383531615e+00, -1.3264625094979781e+00,
       3.3726367119417140e+00, -1.2848732974851145e+00,
       3.4191330890559022e+00, -1.2231301750888735e+00,
       3.4486061779173403e+00, -1.1495954946534486e+00,
       3.4549865110125015e+00, -1.1263086721166835e+00,
       3.4232198715594326e+00, -1.2017364092148366e+00,
       3.3791921925076163e+00, -1.2624851272687989e+00,
       3.3134359350549931e+00, -1.3059521483065177e+00,
       3.2619264116472477e+00, -1.3388550754896826e+00,
       3.2112836546594736e+00, -1.3716391149035669e+00,
       3.1638069317602548e+00, -1.4032194753988250e+00,
       3.1157982684393684e+00, -1.4188169424538142e+00,
       3.0765929741871156e+00, -1.4253221181908873e+00,
       3.0665902805861043e+00, -1.4291835816479221e+00,
       3.0635749318179983e+00, -1.4284183159986952e+00,
       3.0683812971432181e+00, -1.4286627493369395e+00,
       3.0701465816293947e+00, -1.4251284412290823e+00,
       3.0690448792634504e+00, -1.4204226610821840e+00,
       3.0725984382343237e+00, -1.4188242857357780e+00,
       3.0827431854895218e+00, -1.4147236692128031e+00,
       3.1091456522697003e+00, -1.4098502337559027e+00,
       3.1689032644291273e+00, -1.4075728315358353e+00,
       3.2524018002649044e+00, -1.4081213920053748e+00,
       3.3145037914997348e+00, -1.4035591004973986e+00,
       3.3477348503265092e+00, -1.4032532900778212e+00,
       3.3468990426756955e+00, -1.4141525089585261e+00,
       3.2977887538036188e+00, -1.4352210551432034e+00,
       3.1880265087355260e+00, -1.4490289296518664e+00,
       3.0918451075606770e+00, -1.4514366932169795e+00,
       3.0834589877420955e+00, -1.4499223372546688e+00,
       3.1684252599298373e+00, -1.4484629504350215e+00,
       3.2699276795475316e+00, -1.4289665155535354e+00,
       3.3310675594143064e+00, -1.4134438606647135e+00,
       3.3427753798764117e+00, -1.4004724492894223e+00,
       3.3227417056506878e+00, -1.3986486560220166e+00,
       3.2606253103733991e+00, -1.4011195353355093e+00,
       3.1892040728937561e+00, -1.4078451423141696e+00,
       3.1283610071394721e+00, -1.4095326260974661e+00,
       3.0935457650730216e+00, -1.4126425689539315e+00,
       3.0770936216715632e+00, -1.4155964107447114e+00,
       3.0682604299647629e+00, -1.4155257515211721e+00,
       3.0692377833892399e+00, -1.4204585076617053e+00,
       3.0640801813399992e+00, -1.4212489150189331e+00,
       3.0653047196411372e+00, -1.4244018469932502e+00,
       3.0631019336760232e+00, -1.4256780205119370e+00,
       3.0725975057225376e+00, -1.4273961823393999e+00,
       3.0948351006278871e+00, -1.4189931918798910e+00,
       3.1465566652221213e+00, -1.4127184972254399e+00,
       3.2086335424738910e+00, -1.3908583342395375e+00,
       3.2535596024315900e+00, -1.3575758055643132e+00,
       3.3192206991267197e+00, -1.3249217941583831e+00,
       3.3608022529838077e+00, -1.2829209266379222e+00,
       3.4025733301220824e+00, -1.2229042188564112e+00,
       3.4427494947685195e+00, -1.1527603511404563e+00,
       3.4615278073693934e+00, -1.1264034021799820e+00,
       3.4244977411411566e+00, -1.2004224948035966e+00,
       3.3685759235773980e+00, -1.2591016284692038e+00,
       3.3148174227074105e+00, -1.2976741562101004e+00,
       3.2665603845934634e+00, -1.3296389367503139e+00,
       3.2269164192112085e+00, -1.3622944824533667e+00,
       3.1763118400533998e+00, -1.3884259769434166e+00,
       3.1462917625479223e+00, -1.4074882353123535e+00,
       3.1244539041822579e+00, -1.4150443209110535e+00,
       3.1170640098573821e+00, -1.4169580544180898e+00,
       3.1133462160472960e+00, -1.4139705338848831e+00,
       3.1241557742791048e+00, -1.4140458405998495e+00,
       3.1271118114038172e+00, -1.4126480548664682e+00,
       3.1360681872150087e+00, -1.4101865707126051e+00,
       3.1358956911994289e+00, -1.4092491252220976e+00,
       3.1259776210763417e+00, -1.4089791706506636e+00,
       3.1334163330728488e+00, -1.4068052078378737e+00,
       3.1742910864026932e+00, -1.4036521044578605e+00,
       3.2468834513033196e+00, -1.4014325894066983e+00,
       3.3076085216507853e+00, -1.3976592071058640e+00,
       3.3540083032103336e+00, -1.3996750185184115e+00,
       3.3475238179174958e+00, -1.4076487404754610e+00,
       3.2977755403208389e+00, -1.4267970076165692e+00,
       3.1872029398265322e+00, -1.4459703314512140e+00,
       3.0972570003345261e+00, -1.4492758607700527e+00,
       3.0912702513126815e+00, -1.4493639111198608e+00,
       3.1729930926295555e+00, -1.4453239490890655e+00,
       3.2756276239682331e+00, -1.4256690447711964e+00,
       3.3309663264142499e+00, -1.4064745313396936e+00,
       3.3446757079105049e+00, -1.3941317496620087e+00,
       3.3248917879868536e+00, -1.3952918477431437e+00,
       3.2631849409872462e+00, -1.3983953010908905e+00,
       3.1957670160243015e+00, -1.4011030397195519e+00,
       3.1429729100506565e+00, -1.4003983051208044e+00,
       3.1342299641269471e+00, -1.4030882480534572e+00,
       3.1365402673783436e+00, -1.4076446245268484e+00,
       3.1323439415747103e+00, -1.4069133832115259e+00,
       3.1307590753449448e+00, -1.4078571515523579e+00,
       3.1219286698437498e+00, -1.4106157412478681e+00,
       3.1129826688011351e+00, -1.4081215597531134e+00,
       3.1160892982943427e+00, -1.4151722659553481e+00,
       3.1192111894050765e+00, -1.4132027983956084e+00,
       3.1286020892361011e+00, -1.4085416650808820e+00,
       3.1626223909837909e+00, -1.3973256787545476e+00,
       3.2153811943818740e+00, -1.3807750714562561e+00,
       3.2629014828597316e+00, -1.3508828998727243e+00,
       3.3137878025343679e+00, -1.3169081869592882e+00,
       3.3609057710102168e+00, -1.2770250431870682e+00,
       3.3990235030394671e+00, -1.2239177808214847e+00,
       3.4350341261671056e+00, -1.1476128874843645e+00,
       3.4717231958482753e+00, -1.1231630706123368e+00,
       3.4276444139185291e+00, -1.1937678071122240e+00,
       3.3720275318715105e+00, -1.2517398954079058e+00,
       3.3260496199470690e+00, -1.2915722148039406e+00,
       3.2926075434190700e+00, -1.3259139486189224e+00,
       3.2573972861133202e+00, -1.3529460118766037e+00,
       3.2138991242883743e+00, -1.3744943191668870e+00,
       3.1890288632869503e+00, -1.3910179510897929e+00,
       3.1789119953509437e+00, -1.3933017591266659e+00,
       3.1787382775809050e+00, -1.3921049572952184e+00,
       3.1893902641472041e+00, -1.3928275128029519e+00,
       3.1972713819632537e+00, -1.3914682264525193e+00,
       3.2163046000575664e+00, -1.3942395301391128e+00,
       3.2232091388523267e+00, -1.3883207296443907e+00,
       3.2344106241666575e+00, -1.3917799691590798e+00,
       3.2202609610821367e+00, -1.3935297967331963e+00,
       3.2038315354190630e+00, -1.3948461571440027e+00,
       3.2070458878326313e+00, -1.3962630325716798e+00,
       3.2573959343097849e+00, -1.3945569846998576e+00,
       3.3135213811146134e+00, -1.3915261843329083e+00,
       3.3575180250568253e+00, -1.3892479617590974e+00,
       3.3596105277456885e+00, -1.3994685761806764e+00,
       3.3000387714514097e+00, -1.4179660739920470e+00,
       3.1885279685123007e+00, -1.4381579645113118e+00,
       3.0962956653824278e+00, -1.4443113997058357e+00,
       3.0879522291804493e+00, -1.4438736157464858e+00,
       3.1750514394428966e+00, -1.4418600972895643e+00,
       3.2773315094361251e+00, -1.4210436326995128e+00,
       3.3343661108477325e+00, -1.3933465650246633e+00,
       3.3529201514948004e+00, -1.3832702667737862e+00,
       3.3282100358595579e+00, -1.3870693269257557e+00,
       3.2826671764154529e+00, -1.3939923986167493e+00,
       3.2277010357952460e+00, -1.3917095212994426e+00,
       3.2074166823144372e+00, -1.3901214525851397e+00,
       3.2194908978518000e+00, -1.3893185429088413e+00,
       3.2268073857043320e+00, -1.3860855793831339e+00,
       3.2188043813186846e+00, -1.3831241941506056e+00,
       3.2027499572061937e+00, -1.3859242393970350e+00,
       3.1938205869929059e+00, -1.3889759781562221e+00,
       3.1847951381776243e+00, -1.3913232775750235e+00,
       3.1746332552172705e+00, -1.3917511194792860e+00,
       3.1723575704490599e+00, -1.3945229318993158e+00,
       3.1836272454134242e+00, -1.3930543756727924e+00,
       3.2008624379796444e+00, -1.3826206570798536e+00,
       3.2460458504163072e+00, -1.3689150652536426e+00,
       3.2801084935787181e+00, -1.3382159542992258e+00,
       3.3258117417738196e+00, -1.3063714838270422e+00,
       3.3580641665865549e+00, -1.2665327279431433e+00,
       3.4055378708662936e+00, -1.2166325650943732e+00,
       3.4475869716394714e+00, -1.1439400458192721e+00,
       3.4821732442744322e+00, -1.1146539390348755e+00,
       3.4302163209292682e+00, -1.1869746494827231e+00,
       3.3849790596957208e+00, -1.2424187268453135e+00,
       3.3377711453277428e+00, -1.2732612286280516e+00,
       3.3126827553005809e+00, -1.3100564861770503e+00,
       3.2918459003617500e+00, -1.3348485645114465e+00,
       3.2763345375469757e+00, -1.3526975080640800e+00,
       3.2734959101301877e+00, -1.3640635640521743e+00,
       3.2777337400671676e+00, -1.3714788853032978e+00,
       3.2891881662297378e+00, -1.3752480800624576e+00,
       3.3023750057885790e+00, -1.3723459890374459e+00,
       3.3144702654788589e+00, -1.3694632205372634e+00,
       3.3245697022060501e+00, -1.3658186238218952e+00,
       3.3373717583722713e+00, -1.3651297266034097e+00,
       3.3604635635752018e+00, -1.3672986959191082e+00,
       3.3553437853203434e+00, -1.3678041316509117e+00,
       3.3254534187301772e+00, -1.3704768095209685e+00,
       3.2917398639999114e+00, -1.3784389776021897e+00,
       3.3019799769689389e+00, -1.3834277180286676e+00,
       3.3345326931544159e+00, -1.3784274313495415e+00,
       3.3727256080470367e+00, -1.3786147890648670e+00,
       3.3717094439555182e+00, -1.3869825575164016e+00,
       3.3121843822634442e+00, -1.4076586183182063e+00,
       3.1920334875132861e+00, -1.4275408630377202e+00,
       3.0932831728633627e+00, -1.4352589685828683e+00,
       3.0871471110043047e+00, -1.4385826864572042e+00,
       3.1741351390680044e+00, -1.4331582571585249e+00,
       3.2819256407607873e+00, -1.4065870835850629e+00,
       3.3543040134995024e+00, -1.3821366979399834e+00,
       3.3693845626551551e+00, -1.3739348059051639e+00,
       3.3540206639737007e+00, -1.3793776602458296e+00,
       3.3231237019931261e+00, -1.3786614130415011e+00,
       3.3041073571386850e+00, -1.3714839787259234e+00,
       3.3191998934830722e+00, -1.3640206861984383e+00,
       3.3525243521554469e+00, -1.3628937710898890e+00,
       3.3473354735977079e+00, -1.3564172452809911e+00,
       3.3348407971547132e+00, -1.3579873657527801e+00,
       3.3139682695309314e+00, -1.3653325006070089e+00,
       3.3016298159658799e+00, -1.3689431249629143e+00,
       3.2962117674372338e+00, -1.3737874860680785e+00,
       3.2889453022936070e+00, -1.3761736393426289e+00,
       3.2761559000912785e+00, -1.3771034885009337e+00,
       3.2662310030190547e+00, -1.3716308662054904e+00,
       3.2684141640729498e+00, -1.3607652738959242e+00,
       3.2847139343292273e+00, -1.3474218832803488e+00,
       3.3033962706285283e+00, -1.3230192296039900e+00,
       3.3284194115961956e+00, -1.2902723480672904e+00,
       3.3690284080864119e+00, -1.2554765591258108e+00,
       3.4124782227266146e+00, -1.2078276878551613e+00,
       3.4552772914795145e+00, -1.1304527057931639e+00,
       3.4833260560463049e+00, -1.0976294471397230e+00,
       3.4524608194648425e+00, -1.1801036307003898e+00,
       3.4045962858559662e+00, -1.2299439086065005e+00,
       3.3719432504469431e+00, -1.2610757305298046e+00,
       3.3569021137238115e+00, -1.2925180602724213e+00,
       3.3551076516453615e+00, -1.3141842966945732e+00,
       3.3609717505219017e+00, -1.3248816630625160e+00,
       3.3845089610398946e+00, -1.3344582398758087e+00,
       3.4156625326852259e+00, -1.3374277086031350e+00,
       3.4328311754867014e+00, -1.3385173577060512e+00,
       3.4389229760416851e+00, -1.3397326483726544e+00,
       3.4445164369247769e+00, -1.3375977588563597e+00,
       3.4591874984891353e+00, -1.3290557255554625e+00,
       3.4753694625894394e+00, -1.3253311677283310e+00,
       3.5026659920958640e+00, -1.3280609103019538e+00,
       3.5176313342197232e+00, -1.3365407496549742e+00,
       3.5084045076708139e+00, -1.3432965464542654e+00,
       3.4411771456486537e+00, -1.3499905424908916e+00,
       3.3798245164396423e+00, -1.3556773939589322e+00,
       3.3744295155070310e+00, -1.3587273256364718e+00,
       3.4016213326444946e+00, -1.3625325978972727e+00,
       3.3913141102697644e+00, -1.3737992729318333e+00,
       3.3211218181631805e+00, -1.3947866778226632e+00,
       3.1864269952774418e+00, -1.4184666508757151e+00,
       3.0912619675091224e+00, -1.4278965739642711e+00,
       3.0844371759648048e+00, -1.4299361876123335e+00,
       3.1648109238406588e+00, -1.4195745695821385e+00,
       3.2959613259851412e+00, -1.3965857746229404e+00,
       3.3677561196488992e+00, -1.3709657987259545e+00,
       3.3975340838313319e+00, -1.3586809857184448e+00,
       3.3980294318643769e+00, -1.3570969045057661e+00,
       3.3974360287315388e+00, -1.3533368584980425e+00,
       3.4251931535331122e+00, -1.3417110882073311e+00,
       3.4817519211317123e+00, -1.3377934041058974e+00,
       3.5114975327796856e+00, -1.3331556102875117e+00,
       3.4910068224724089e+00, -1.3279288936836375e+00,
       3.4694391962624227e+00, -1.3302009221491709e+00,
       3.4415314963148305e+00, -1.3333679031974972e+00,
       3.4169081395541490e+00, -1.3369227314373184e+00,
       3.4171025110610849e+00, -1.3405459484144042e+00,
       3.4219465011173722e+00, -1.3396499407148170e+00,
       3.4068938354530336e+00, -1.3401702821398334e+00,
       3.3831782609982395e+00, -1.3382701257325949e+00,
       3.3569142009511923e+00, -1.3309894140744576e+00,
       3.3483442273370478e+00, -1.3236529883456387e+00,
       3.3437107778848341e+00, -1.3044591355300073e+00,
       3.3617409812234489e+00, -1.2779423002065418e+00,
       3.3865233399587247e+00, -1.2411172796817780e+00,
       3.4249685295668972e+00, -1.1926979690575468e+00,
       3.4768912647449692e+00, -1.1171512306696258e+00,
       3.5026008557765667e+00, -1.0801801796435229e+00,
       3.4817265545446627e+00, -1.1651975768903235e+00,
       3.4314938065905309e+00, -1.2150771547017383e+00,
       3.4112964563979271e+00, -1.2523380657781173e+00,
       3.4097716241188643e+00, -1.2796420725481330e+00,
       3.4377556495928525e+00, -1.2892313806641797e+00,
       3.4776357169134227e+00, -1.2860275019414169e+00,
       3.5307022669665358e+00, -1.2789585658872911e+00,
       3.5754828717580494e+00, -1.2823683094445495e+00,
       3.5803843748473985e+00, -1.2918245057528379e+00,
       3.5644915814491567e+00, -1.2943710549533627e+00,
       3.5628076923382914e+00, -1.2893788614943631e+00,
       3.5886930308320180e+00, -1.2779296647579568e+00,
       3.6347655542664743e+00, -1.2769180202721950e+00,
       3.6613996472053287e+00, -1.2841313540769426e+00,
       3.6886417811995225e+00, -1.2997504080882938e+00,
       3.7024112309970341e+00, -1.3111045313529721e+00,
       3.6176217593959934e+00, -1.3173210817099847e+00,
       3.4829670485574815e+00, -1.3179958531861224e+00,
       3.4205380243387142e+00, -1.3241437801521958e+00,
       3.4259186886972777e+00, -1.3362805854548856e+00,
       3.4126649165141281e+00, -1.3547614266800940e+00,
       3.3271367542588837e+00, -1.3861731056921802e+00,
       3.1772947197953063e+00, -1.4095058498842812e+00,
