%YAML:1.0
my_nn: !!opencv-ml-ann-mlp
   layer_sizes: !!opencv-matrix
      rows: 1
      cols: 3
      dt: i
      data: [ 2500, 12, 2 ]
   activation_function: SIGMOID_SYM
   f_param1: 1.
   f_param2: 1.
   min_val: -9.4999999999999996e-01
   max_val: 9.4999999999999996e-01
   min_val1: -9.7999999999999998e-01
   max_val1: 9.7999999999999998e-01
   training_params:
      train_method: RPROP
      dw0: 1.0000000000000001e-01
      dw_plus: 1.2000000000000000e+00
      dw_minus: 5.0000000000000000e-01
      dw_min: 1.1920928955078125e-07
      dw_max: 50.
      term_criteria: { epsilon:9.9999997764825821e-03, iterations:1000 }
   input_scale: [ 3.2437084893581081e+00, -9.2859463517542140e-01,
       3.2838149274307429e+00, -9.3041070485549870e-01,
       3.3628232812336623e+00, -9.3293450493758079e-01,
       3.4339284075470768e+00, -9.4000535032769861e-01,
       3.4933587616258253e+00, -9.4581680576612270e-01,
       3.5805844681104664e+00, -9.6242774430946343e-01,
       3.6372068681902254e+00, -9.7333342353486485e-01,
       3.7376020484811963e+00, -9.9795468638985729e-01,
       3.7784191419732225e+00, -1.0174046355132706e+00,
       3.8140284878479025e+00, -1.0445438570207826e+00,
       3.8400527566573674e+00, -1.0787598025055967e+00,
       3.8539743820607697e+00, -1.1097108478743327e+00,
       3.8637647750345581e+00, -1.1468783881460467e+00,
       3.8429498095301802e+00, -1.1814702424488610e+00,
       3.8235261184143496e+00, -1.2132213521385322e+00,
       3.7894491020693879e+00, -1.2408465186456137e+00,
       3.7377732126821517e+00, -1.2590206270208462e+00,
       3.6847604309769095e+00, -1.2750477793503501e+00,
       3.6419850766858959e+00, -1.2857156710471163e+00,
       3.6097594759811917e+00, -1.2956516318407987e+00,
       3.5762310348173583e+00, -1.3062649368631076e+00,
       3.5425203072014750e+00, -1.3138533253686129e+00,
       3.5271168527353258e+00, -1.3151369881321189e+00,
       3.5135567000628045e+00, -1.3156474019258566e+00,
       3.5134008847244291e+00, -1.3142968880775687e+00,
       3.5178652879996881e+00, -1.3111783042284630e+00,
       3.5140235174290915e+00, -1.3093984470706834e+00,
       3.5106935845428890e+00, -1.3102777669969048e+00,
       3.5318594518496962e+00, -1.3092537809344875e+00,
       3.5706318231665426e+00, -1.3063683006943598e+00,
       3.5953974258962007e+00, -1.3010635331832927e+00,
       3.6333348525459130e+00, -1.2883509869343401e+00,
       3.6746126103329981e+00, -1.2743071954598066e+00,
       3.7382715549580432e+00, -1.2593715326046642e+00,
       3.7791939022208769e+00, -1.2371882861808947e+00,
       3.8050359996073810e+00, -1.2160945704462915e+00,
       3.8247123203894291e+00, -1.1835375678907478e+00,
       3.8144389146060051e+00, -1.1493331491691336e+00,
       3.8258434603034415e+00, -1.1209353091679310e+00,
       3.8313863588991830e+00, -1.0887571427594653e+00,
       3.8003549087460526e+00, -1.0553344073095028e+00,
       3.7810803719131099e+00, -1.0283945084301123e+00,
       3.7175077192037929e+00, -1.0019011903424513e+00,
       3.6347870685767281e+00, -9.8210684608048604e-01,
       3.5622146348134009e+00, -9.7356817269064666e-01,
       3.4988457406632794e+00, -9.5915023575877845e-01,
       3.4286545363139767e+00, -9.5000768903852184e-01,
       3.3576892471581021e+00, -9.4403092146382450e-01,
       3.3012474648957415e+00, -9.3689811651466604e-01,
       3.2585771996505937e+00, -9.3201085083441781e-01,
       3.2460123425805087e+00, -9.2484619056828599e-01,
       3.2919205368619422e+00, -9.2937961646474820e-01,
       3.3672326527021115e+00, -9.3157103905229011e-01,
       3.4497925831571035e+00, -9.4018508419053037e-01,
       3.4961168967240157e+00, -9.4794067563569062e-01,
       3.5805697488651052e+00, -9.6185496163251505e-01,
       3.6501989284995058e+00, -9.7760055473971308e-01,
       3.7246418807990973e+00, -9.9955626837025868e-01,
       3.7876816329885239e+00, -1.0303218323416050e+00,
       3.8153451079178686e+00, -1.0579734758846160e+00,
       3.8222158051598769e+00, -1.0992645337065066e+00,
       3.8333439709301844e+00, -1.1341696751854267e+00,
       3.8201157097621201e+00, -1.1731407952451207e+00,
       3.8137398932515012e+00, -1.2071739391959451e+00,
       3.7759821053875258e+00, -1.2415767708780436e+00,
       3.7401132063973033e+00, -1.2644686018114493e+00,
       3.6945625724597693e+00, -1.2840436780032849e+00,
       3.6500245744816588e+00, -1.2986338686991521e+00,
       3.6176965074969138e+00, -1.3126324068551165e+00,
       3.5719451936250803e+00, -1.3194222570073781e+00,
       3.5420886157178049e+00, -1.3288132532640955e+00,
       3.5063538026975962e+00, -1.3321489683616499e+00,
       3.4947276771447600e+00, -1.3356490759170707e+00,
       3.4859435080788148e+00, -1.3364718640201620e+00,
       3.4936469192050876e+00, -1.3354413014823445e+00,
       3.4914567612076324e+00, -1.3345889216320446e+00,
       3.4884094105751231e+00, -1.3312187339892116e+00,
       3.4878406684566028e+00, -1.3305842264234207e+00,
       3.4948284836970598e+00, -1.3261996730116337e+00,
       3.5230107195390072e+00, -1.3235039078417474e+00,
       3.5648494948017153e+00, -1.3232519385894959e+00,
       3.5932070585593827e+00, -1.3123092575286328e+00,
       3.6330380446057102e+00, -1.3001329113662972e+00,
       3.6771093883922177e+00, -1.2839515038267790e+00,
       3.7410600818304371e+00, -1.2679842287156853e+00,
       3.7680659818476658e+00, -1.2438529885174849e+00,
       3.7933536031494079e+00, -1.2117499757743984e+00,
       3.8049511780721015e+00, -1.1745534069764669e+00,
       3.8051171061289595e+00, -1.1447191665973238e+00,
       3.7988748497436933e+00, -1.1103923867773222e+00,
       3.7859352574547720e+00, -1.0735056214509233e+00,
       3.7528842478625104e+00, -1.0361696734641155e+00,
       3.7035213857133247e+00, -1.0095523712358727e+00,
       3.6391884994167669e+00, -9.8283675458768482e-01,
       3.5534600264134681e+00, -9.6935434495102746e-01,
       3.5106429943766386e+00, -9.6144835991653532e-01,
       3.4497231220816076e+00, -9.5141598510600334e-01,
       3.3762836470453128e+00, -9.4306849760629674e-01,
       3.3257339838909377e+00, -9.3911767187012041e-01,
       3.2727073891778242e+00, -9.3100627925703561e-01,
       3.2272286834505164e+00, -9.2393305371375500e-01,
       3.2863420180336171e+00, -9.2734338757914125e-01,
       3.3681429687768154e+00, -9.3571870411459845e-01,
       3.4501397510106844e+00, -9.4344444779392111e-01,
       3.5082323199277710e+00, -9.5047746059816629e-01,
       3.5751094148491518e+00, -9.6865078283986117e-01,
       3.6413804826571345e+00, -9.8829834177366982e-01,
       3.7275740358637033e+00, -1.0100938510172401e+00,
       3.7821577519993088e+00, -1.0425482888708621e+00,
       3.8000780223999175e+00, -1.0813364853328868e+00,
       3.7957934252807131e+00, -1.1250256181104235e+00,
       3.7910576184160174e+00, -1.1607190904498799e+00,
       3.7829277127822580e+00, -1.1985857735323646e+00,
       3.7669509150311362e+00, -1.2335533175041797e+00,
       3.7496828329927618e+00, -1.2660759741620899e+00,
       3.6939830280679011e+00, -1.2860007185440534e+00,
       3.6562079965298695e+00, -1.3065109990395434e+00,
       3.6327812329255149e+00, -1.3221455462928993e+00,
       3.5977808285699462e+00, -1.3317137384616324e+00,
       3.5571577475881107e+00, -1.3392582344440960e+00,
       3.5261943467848638e+00, -1.3411487349509286e+00,
       3.5001273606450418e+00, -1.3397084560949435e+00,
       3.4826892097764230e+00, -1.3430269231056642e+00,
       3.4808127099753121e+00, -1.3418222741952806e+00,
       3.4797901099044073e+00, -1.3438210853836490e+00,
       3.4830217554637568e+00, -1.3438790391542734e+00,
       3.4776759743449963e+00, -1.3418240070448919e+00,
       3.4839875957335877e+00, -1.3392589742068131e+00,
       3.4942647259044790e+00, -1.3356204254001851e+00,
       3.5081229977473547e+00, -1.3364513284021979e+00,
       3.5370960131108520e+00, -1.3341952117632825e+00,
       3.5790404314927682e+00, -1.3275692993936130e+00,
       3.6158027654809071e+00, -1.3220095146350885e+00,
       3.6368959942032020e+00, -1.3066937204898235e+00,
       3.6815707541244929e+00, -1.2874241531016308e+00,
       3.7261439854627803e+00, -1.2675872028805126e+00,
       3.7629786662197033e+00, -1.2365763873824838e+00,
       3.7734948977605383e+00, -1.2003969860087449e+00,
       3.7869129929907581e+00, -1.1657587562296401e+00,
       3.7735412829605246e+00, -1.1331218061353963e+00,
       3.7700354432289966e+00, -1.0992717047524159e+00,
       3.7526042987799451e+00, -1.0562106389255903e+00,
       3.7071300487742875e+00, -1.0215200665488458e+00,
       3.6503183432057353e+00, -9.9692835847226891e-01,
       3.5540661814220291e+00, -9.7479074028764012e-01,
       3.5045941924567687e+00, -9.6068031736804316e-01,
       3.4521255055646582e+00, -9.5306270346312760e-01,
       3.3784599059282092e+00, -9.4222429170654831e-01,
       3.3220213298407750e+00, -9.3640651442027900e-01,
       3.2656929871078786e+00, -9.3116424381164242e-01,
       3.2397560824879714e+00, -9.2664882952899574e-01,
       3.3077223403022784e+00, -9.3208080225137835e-01,
       3.3744008184449052e+00, -9.3259584308172205e-01,
       3.4520065897139856e+00, -9.4151341790745491e-01,
       3.5311399529243417e+00, -9.5372905305221323e-01,
       3.5967369261634934e+00, -9.8013454314403170e-01,
       3.6489647047830616e+00, -9.9755526563625296e-01,
       3.7141175466947378e+00, -1.0234737998549910e+00,
       3.7687491005973039e+00, -1.0573428713240802e+00,
       3.7800634055118358e+00, -1.1094882781714543e+00,
       3.7783393623145183e+00, -1.1508678748237067e+00,
       3.7638186249062731e+00, -1.1851716763085269e+00,
       3.7483695150540690e+00, -1.2229085747236232e+00,
       3.7276934963118169e+00, -1.2557714253666665e+00,
       3.6964079329456538e+00, -1.2860605965778200e+00,
       3.6613561355656254e+00, -1.3079801275876504e+00,
       3.6420359400641038e+00, -1.3246934523313445e+00,
       3.6259805697364702e+00, -1.3344975921110476e+00,
       3.5990328688951276e+00, -1.3442624620243933e+00,
       3.5571281545661839e+00, -1.3438879030466993e+00,
       3.5294273892550843e+00, -1.3403275997319775e+00,
       3.5032012749551034e+00, -1.3343819461210567e+00,
       3.4964177202126621e+00, -1.3330459437775930e+00,
       3.4868082849752988e+00, -1.3359080128600580e+00,
       3.4987613626577496e+00, -1.3383632829949648e+00,
       3.4985765385747229e+00, -1.3382583210218431e+00,
       3.4969829415266629e+00, -1.3370170957053291e+00,
       3.5017039609495382e+00, -1.3387573296785431e+00,
       3.5038728410440068e+00, -1.3376497173124500e+00,
       3.5235883075580716e+00, -1.3407633410571702e+00,
       3.5452177222274939e+00, -1.3416718285041553e+00,
       3.5713538902736728e+00, -1.3423374715325997e+00,
       3.5987245054739581e+00, -1.3346200758207105e+00,
       3.6172585832666271e+00, -1.3270012730200120e+00,
       3.6441205681640185e+00, -1.3068428809108354e+00,
       3.6793149554627180e+00, -1.2867954540017592e+00,
       3.7229098183259897e+00, -1.2629991055342047e+00,
       3.7496019787936485e+00, -1.2279945081514683e+00,
       3.7583345725426907e+00, -1.1910063187334734e+00,
       3.7623306280550417e+00, -1.1540770299994452e+00,
       3.7553871722666536e+00, -1.1204949406756917e+00,
       3.7578781962577690e+00, -1.0828301547449171e+00,
       3.7069064578750148e+00, -1.0416463369269833e+00,
       3.6571511849496239e+00, -1.0106928742333823e+00,
       3.5769063291036032e+00, -9.8211386547969115e-01,
       3.5034557864804032e+00, -9.6110019382208378e-01,
       3.4465135554702337e+00, -9.5211338955495861e-01,
       3.3763292790783903e+00, -9.4288653044822690e-01,
       3.3150458352082874e+00, -9.3490920129972688e-01,
       3.2558805678845801e+00, -9.3021570427170108e-01,
       3.2349066275579408e+00, -9.2629311468031206e-01,
       3.3044485013306608e+00, -9.3045352720638275e-01,
       3.3794431338967716e+00, -9.3662229954802179e-01,
       3.4523646302476969e+00, -9.4208439950524314e-01,
       3.5339535320751327e+00, -9.6482527707662846e-01,
       3.6248919900692504e+00, -9.8697473615179465e-01,
       3.6532973350473341e+00, -1.0055651573364279e+00,
       3.6977593539396509e+00, -1.0376958957382607e+00,
       3.7516281556485862e+00, -1.0829070229123003e+00,
       3.7430182333400901e+00, -1.1322078890466156e+00,
       3.7479441122536583e+00, -1.1725223256743680e+00,
       3.7138373295110267e+00, -1.2039522390537245e+00,
       3.7037328452230351e+00, -1.2435728400313861e+00,
       3.6915522895201440e+00, -1.2795791272461656e+00,
       3.6658011850551211e+00, -1.3055553241167934e+00,
       3.6453621903417628e+00, -1.3241103950969961e+00,
       3.6373271030643757e+00, -1.3348067419353273e+00,
       3.6253122889459966e+00, -1.3403344576268539e+00,
       3.5993022099692724e+00, -1.3434544447566457e+00,
       3.5775755972277783e+00, -1.3387316467587231e+00,
       3.5551061830851114e+00, -1.3328766955027436e+00,
       3.5422624184501235e+00, -1.3277182837901091e+00,
       3.5247577402552297e+00, -1.3218398340630120e+00,
       3.5199570553053960e+00, -1.3189440867737234e+00,
       3.5208007395401082e+00, -1.3210148346812949e+00,
       3.5204369594058651e+00, -1.3213226983296351e+00,
       3.5328353273905426e+00, -1.3252765349781896e+00,
       3.5331182705072415e+00, -1.3236334551238074e+00,
       3.5345590842736145e+00, -1.3272154296153915e+00,
       3.5477086935547053e+00, -1.3330641001337151e+00,
       3.5593150532675919e+00, -1.3398535681713304e+00,
       3.5756878724867116e+00, -1.3421611384998458e+00,
       3.5895084725443764e+00, -1.3393965948549096e+00,
       3.6066985264608835e+00, -1.3335586219793252e+00,
       3.6234452422882124e+00, -1.3234198583777921e+00,
       3.6429585549914050e+00, -1.3062874242691578e+00,
       3.6839679564158656e+00, -1.2855205700529964e+00,
       3.7233832796331017e+00, -1.2568191745190365e+00,
       3.7322530962058971e+00, -1.2199166877553882e+00,
       3.7590551704209441e+00, -1.1793155784802909e+00,
       3.7361828339159207e+00, -1.1415762492721482e+00,
       3.7532717388746395e+00, -1.1070604395623183e+00,
       3.6990830781878725e+00, -1.0594604058517245e+00,
       3.6532856667990470e+00, -1.0220669643670588e+00,
       3.5785270400241305e+00, -9.9230906849758949e-01,
       3.5210141461292213e+00, -9.7379788743181928e-01,
       3.4453764030195067e+00, -9.5284146088847832e-01,
       3.3779841526828442e+00, -9.4497698364443083e-01,
       3.3183460524664130e+00, -9.3810386539694923e-01,
       3.2499079687173302e+00, -9.3361216023403693e-01,
       3.2229815041879935e+00, -9.2732177718647124e-01,
       3.3098414259088931e+00, -9.3617138368975128e-01,
       3.3902510127226231e+00, -9.4228856050008236e-01,
       3.4604831793557222e+00, -9.5397688951742232e-01,
       3.5478543911937268e+00, -9.7632594204760159e-01,
       3.6225327655117052e+00, -9.9701447504519103e-01,
       3.6679457378820208e+00, -1.0240809909759530e+00,
       3.6841911303442960e+00, -1.0619901382373245e+00,
       3.7256931849622696e+00, -1.1093608594591835e+00,
       3.7173531168222871e+00, -1.1577139554960159e+00,
       3.7111034793319102e+00, -1.1935481537901518e+00,
       3.6822735423374247e+00, -1.2300249521372917e+00,
       3.6706100058892090e+00, -1.2671197871729734e+00,
       3.6604784790504339e+00, -1.3005090988074128e+00,
       3.6445228894504185e+00, -1.3183606784356992e+00,
       3.6405810068923161e+00, -1.3339924249635380e+00,
       3.6423245326923257e+00, -1.3405088237074447e+00,
       3.6379495002322408e+00, -1.3432728043799318e+00,
       3.6108247688565744e+00, -1.3367305272171337e+00,
       3.5952549572264081e+00, -1.3277273892769184e+00,
       3.5839945522820091e+00, -1.3204919792774148e+00,
       3.5732423931198163e+00, -1.3158927910008706e+00,
       3.5670960745275422e+00, -1.3102796700115569e+00,
       3.5660817283383639e+00, -1.3064186778892879e+00,
       3.5645475170903440e+00, -1.3077881885506617e+00,
       3.5573092930566612e+00, -1.3074395495562285e+00,
       3.5577453287975143e+00, -1.3072591392405957e+00,
       3.5692926211909031e+00, -1.3122361186025595e+00,
       3.5789154635293596e+00, -1.3175769680224807e+00,
       3.5959703218354147e+00, -1.3195672466335331e+00,
       3.6024733100387545e+00, -1.3281313403030588e+00,
       3.6029407602443335e+00, -1.3378890938882737e+00,
       3.6114999293809844e+00, -1.3399277701856600e+00,
       3.6165460205157620e+00, -1.3390059493914250e+00,
       3.6206786450356323e+00, -1.3288823468693551e+00,
       3.6308137656334805e+00, -1.3199558613612015e+00,
       3.6446583892709570e+00, -1.2989970542132456e+00,
       3.6804407580589520e+00, -1.2792958364794382e+00,
       3.7001126001354536e+00, -1.2442817989592441e+00,
       3.7247597384479869e+00, -1.2089724001102475e+00,
       3.7139216880248220e+00, -1.1667805576710786e+00,
       3.7173834592064252e+00, -1.1269373425445934e+00,
       3.6844777788700482e+00, -1.0840508613206488e+00,
       3.6593995127148990e+00, -1.0406445292528295e+00,
       3.5944034574550785e+00, -1.0066457879092561e+00,
       3.5401508637467369e+00, -9.8446029891642839e-01,
       3.4529723754160471e+00, -9.6587948245934452e-01,
       3.3703819917210867e+00, -9.5290256001122142e-01,
       3.3052137194751490e+00, -9.4019960032004457e-01,
       3.2457663696069665e+00, -9.3542439292961033e-01,
       3.2276150384681572e+00, -9.2945217274832592e-01,
       3.2982660590784296e+00, -9.3662980241788085e-01,
       3.3899322130918850e+00, -9.4948870253773643e-01,
       3.4685946693311553e+00, -9.6194987817539457e-01,
       3.5582947119537098e+00, -9.8778285178446745e-01,
       3.6383764661379074e+00, -1.0125433368550469e+00,
       3.6544305405842215e+00, -1.0430409074378735e+00,
       3.6857098776679362e+00, -1.0900761656230267e+00,
       3.6986730964855528e+00, -1.1382489770139554e+00,
       3.6939777315486055e+00, -1.1809297983432638e+00,
       3.6818656305259432e+00, -1.2207903961088620e+00,
       3.6561648294169116e+00, -1.2563129162284929e+00,
       3.6431259648957393e+00, -1.2935749855742205e+00,
       3.6240011412343072e+00, -1.3109687391329254e+00,
       3.6362208430072602e+00, -1.3275478908509044e+00,
       3.6418910684897092e+00, -1.3336680145189499e+00,
       3.6467203341011118e+00, -1.3394005869422239e+00,
       3.6384384018960896e+00, -1.3334646627035680e+00,
       3.6395952810774546e+00, -1.3242453202631157e+00,
       3.6328628480279068e+00, -1.3135498575940425e+00,
       3.6274275649310597e+00, -1.2996802641587295e+00,
       3.6158134012385714e+00, -1.2918285070156530e+00,
       3.6089197061248619e+00, -1.2935163399161116e+00,
       3.6066529744558373e+00, -1.2897723249476316e+00,
       3.6019648448132160e+00, -1.2872727415779590e+00,
       3.5964744571161567e+00, -1.2876781788435208e+00,
       3.5934155581823783e+00, -1.2882251959743798e+00,
       3.6047336464263871e+00, -1.2926003965683315e+00,
       3.6145401934549306e+00, -1.2962309265713474e+00,
       3.6379511854573146e+00, -1.2993656150320845e+00,
       3.6476272670446215e+00, -1.3078226084910027e+00,
       3.6407805266096003e+00, -1.3203465477497816e+00,
       3.6438868588110549e+00, -1.3313180947330940e+00,
       3.6401244707719362e+00, -1.3359362880290362e+00,
       3.6348353856248514e+00, -1.3305898189562635e+00,
       3.6291405718959706e+00, -1.3238493584797246e+00,
       3.6235848814931653e+00, -1.3122178815604768e+00,
       3.6432306907246930e+00, -1.2956180851188581e+00,
       3.6634902629191455e+00, -1.2701431670734173e+00,
       3.6789667856117241e+00, -1.2361140104579875e+00,
       3.6916917240410529e+00, -1.1972992996069358e+00,
       3.7045605775457928e+00, -1.1563782706783270e+00,
       3.6886701773138135e+00, -1.1131594983364050e+00,
       3.6501180656223187e+00, -1.0651242240529122e+00,
       3.6069879858740790e+00, -1.0255240969429431e+00,
       3.5489027203942212e+00, -9.9881872550257467e-01,
       3.4629990848753085e+00, -9.7902398022919424e-01,
       3.3942535965007208e+00, -9.6357776079207047e-01,
       3.3215338206383178e+00, -9.5050909525159410e-01,
       3.2469679921441261e+00, -9.3630065871058754e-01,
       3.2366613163607907e+00, -9.3370897149735788e-01,
       3.3167769767352033e+00, -9.4273098215081674e-01,
       3.3952591491561308e+00, -9.5588324272499026e-01,
       3.4899074212969881e+00, -9.7247823749607132e-01,
       3.5731624932471866e+00, -1.0032126052288681e+00,
       3.6413776913605198e+00, -1.0331382538615763e+00,
       3.6452139424184273e+00, -1.0683497449041344e+00,
       3.6785034924909796e+00, -1.1199779297834622e+00,
       3.6687108462305269e+00, -1.1698262905138102e+00,
       3.6575005548717390e+00, -1.2144787312259968e+00,
       3.6604407212842953e+00, -1.2545718922977591e+00,
       3.6317396547222667e+00, -1.2850704884796222e+00,
       3.6035096777416764e+00, -1.3087121910072792e+00,
       3.5961895270840394e+00, -1.3195146409999583e+00,
       3.6259316173296483e+00, -1.3283680997024554e+00,
       3.6425829275437183e+00, -1.3305444286393244e+00,
       3.6551311028120916e+00, -1.3301644103787214e+00,
       3.6534907410310971e+00, -1.3174106191325559e+00,
       3.6707294554297829e+00, -1.3036398516348500e+00,
       3.6835594913288987e+00, -1.2900475171930037e+00,
       3.6725204134179794e+00, -1.2752160655410243e+00,
       3.6690517369101006e+00, -1.2794891388275678e+00,
       3.6337423118436103e+00, -1.2724504124158897e+00,
       3.6237596742485123e+00, -1.2680241658688001e+00,
       3.6105538470428917e+00, -1.2627235246518214e+00,
       3.6121075835863174e+00, -1.2618480430372869e+00,
       3.6113811018956872e+00, -1.2663530009302966e+00,
       3.6281824452926639e+00, -1.2741118441631649e+00,
       3.6681165863345777e+00, -1.2770116980553798e+00,
       3.6693994605508800e+00, -1.2758891727400725e+00,
       3.6695662353668337e+00, -1.2840248243894905e+00,
       3.6694244333268458e+00, -1.3033161274830232e+00,
       3.6619442766288643e+00, -1.3161993182644134e+00,
       3.6525882652745389e+00, -1.3310036795928957e+00,
       3.6393292041514163e+00, -1.3356800617840756e+00,
       3.6254052361643057e+00, -1.3282896602926657e+00,
       3.6170083413773431e+00, -1.3245047428973991e+00,
       3.6089892721674999e+00, -1.3083499815580433e+00,
       3.6211230706002513e+00, -1.2909082578633961e+00,
       3.6448542649170688e+00, -1.2671602116442220e+00,
       3.6694697424160707e+00, -1.2295131951911393e+00,
       3.6839866587235730e+00, -1.1896533249586401e+00,
       3.6671862150842056e+00, -1.1401908309982063e+00,
       3.6428593056346652e+00, -1.0958664141935022e+00,
       3.5999887807120707e+00, -1.0462930673727897e+00,
       3.5594433330374402e+00, -1.0181878404898090e+00,
       3.4810226304115641e+00, -9.9028588069081358e-01,
       3.3919778053181942e+00, -9.7015840918239793e-01,
       3.3364490489395502e+00, -9.5975828873094182e-01,
       3.2682480075770561e+00, -9.4344696679381213e-01,
       3.2502233544984986e+00, -9.3758597003295607e-01,
       3.3343905312052775e+00, -9.4856815960768270e-01,
       3.4227778678596157e+00, -9.6814466369309493e-01,
       3.5032160176670835e+00, -9.8835052417561020e-01,
       3.5893367476781650e+00, -1.0230871797084593e+00,
       3.6189646031634282e+00, -1.0526941771077414e+00,
       3.6351782493505733e+00, -1.0992081549482735e+00,
       3.6557603429731635e+00, -1.1529079025052860e+00,
       3.6390379966084905e+00, -1.2031451716133228e+00,
       3.6315132750747208e+00, -1.2444834927885493e+00,
       3.6189228399852458e+00, -1.2815119071609351e+00,
       3.5926777006031649e+00, -1.3049111794715360e+00,
       3.5799762803478896e+00, -1.3173052837125940e+00,
       3.5920825593537931e+00, -1.3253754250250880e+00,
       3.6282264127546151e+00, -1.3306774327367943e+00,
       3.6428289688161790e+00, -1.3233170905291765e+00,
       3.6586891985953320e+00, -1.3157618762049710e+00,
       3.6885704547987492e+00, -1.2959244038147375e+00,
       3.6957020101480729e+00, -1.2709440342794374e+00,
       3.7051661062799131e+00, -1.2561732130696417e+00,
       3.6807546197259167e+00, -1.2501157347057883e+00,
       3.6545529317448784e+00, -1.2522715871811345e+00,
       3.6449719276629944e+00, -1.2554811428664010e+00,
       3.6292097153389991e+00, -1.2503876410312409e+00,
       3.6267577518505498e+00, -1.2484181505838896e+00,
       3.6159659735974543e+00, -1.2455256880155094e+00,
       3.6092284022665080e+00, -1.2475602485922692e+00,
       3.6225381305163156e+00, -1.2501190461705962e+00,
       3.6428952219909956e+00, -1.2488953149123649e+00,
       3.6811192120012648e+00, -1.2489978621005631e+00,
       3.6976975892889588e+00, -1.2534641044026973e+00,
       3.6926902763243770e+00, -1.2686627029581101e+00,
       3.6783450252958394e+00, -1.2916674417350682e+00,
       3.6654431352690655e+00, -1.3131773196166159e+00,
       3.6424193226159254e+00, -1.3278688412678301e+00,
       3.6159876405987665e+00, -1.3290453063474719e+00,
       3.6033641484744852e+00, -1.3286989401384866e+00,
       3.5973539008334665e+00, -1.3211279172135484e+00,
       3.5913142390893165e+00, -1.3078313365496061e+00,
       3.6055707246768862e+00, -1.2903621986899181e+00,
       3.6333629184323506e+00, -1.2619632922827406e+00,
       3.6487350830982517e+00, -1.2257419211178922e+00,
       3.6501470325043543e+00, -1.1749445095610913e+00,
       3.6304674581153011e+00, -1.1257799633032717e+00,
       3.5917913515542703e+00, -1.0748876465891788e+00,
       3.5567034599800809e+00, -1.0366385135533314e+00,
       3.4963131099958349e+00, -1.0073956708652836e+00,
       3.4044447068948078e+00, -9.8143305545942583e-01,
       3.3481812077127575e+00, -9.6442648462644764e-01,
       3.2726418664275809e+00, -9.4977554462119473e-01,
       3.2651897339093292e+00, -9.4361224105355235e-01,
       3.3574555850941374e+00, -9.6280894780719328e-01,
       3.4508532317810170e+00, -9.7951788142335372e-01,
       3.5256101921102880e+00, -1.0068716966038413e+00,
       3.5939389270530988e+00, -1.0415274833107351e+00,
       3.6103278774474923e+00, -1.0792721073803773e+00,
       3.6315423268735283e+00, -1.1351227785457307e+00,
       3.6351260128659111e+00, -1.1872601772274922e+00,
       3.6154648743494415e+00, -1.2350812940683613e+00,
       3.5998979093294627e+00, -1.2741403386460708e+00,
       3.5816240920102702e+00, -1.3000389639821484e+00,
       3.5558343825881007e+00, -1.3103797101424357e+00,
       3.5609317166153440e+00, -1.3235451732806522e+00,
       3.5848256826132494e+00, -1.3267584796225205e+00,
       3.6234921379944298e+00, -1.3248839853090801e+00,
       3.6451163452585886e+00, -1.3112575163450833e+00,
       3.6735518952083193e+00, -1.2917830762071518e+00,
       3.6826813606566140e+00, -1.2627435879306819e+00,
       3.7116594164546575e+00, -1.2347522172481880e+00,
       3.6998229143424033e+00, -1.2190390174637891e+00,
       3.6696340861002703e+00, -1.2191345897994184e+00,
       3.6460849643360378e+00, -1.2236931808660152e+00,
       3.6245699308063153e+00, -1.2323309683831294e+00,
       3.5944382620784650e+00, -1.2301551224631522e+00,
       3.5765445932094679e+00, -1.2241946714118144e+00,
       3.5640416060887015e+00, -1.2259998199046964e+00,
       3.5731965674560886e+00, -1.2273838717324939e+00,
       3.5940370418060792e+00, -1.2289619131816816e+00,
       3.6390398793433545e+00, -1.2265119631416934e+00,
       3.6556219481287613e+00, -1.2178167663225210e+00,
       3.6820893830469386e+00, -1.2228438172280858e+00,
       3.6939018329761324e+00, -1.2343513945421294e+00,
       3.6962385251491603e+00, -1.2612104506273196e+00,
       3.6780875110666371e+00, -1.2863541655067960e+00,
       3.6482710632244260e+00, -1.3076842503878940e+00,
       3.6129106750499345e+00, -1.3198395606642941e+00,
       3.5847226911876957e+00, -1.3213882512850130e+00,
       3.5720564856091164e+00, -1.3248543724345385e+00,
       3.5665339062880390e+00, -1.3202680368996333e+00,
       3.5701340089569196e+00, -1.3076079740263302e+00,
       3.5993067089654045e+00, -1.2877052868004164e+00,
       3.6235201896108085e+00, -1.2516210787177762e+00,
       3.6263468036540343e+00, -1.2090822210476662e+00,
       3.6130938129824743e+00, -1.1548242921577654e+00,
       3.5864602673394197e+00, -1.1024125875943638e+00,
       3.5529520198961606e+00, -1.0607477186371661e+00,
       3.5144792959606583e+00, -1.0266683996639743e+00,
       3.4272518117333206e+00, -9.9582438725928635e-01,
       3.3646904144315992e+00, -9.7801994783319757e-01,
       3.2846424031116217e+00, -9.5994538832760135e-01,
       3.2884975979689770e+00, -9.5276692409988051e-01,
       3.3821415634953160e+00, -9.7314870469460435e-01,
       3.4648687091441746e+00, -9.9364546664232301e-01,
       3.5352007517819399e+00, -1.0266746385194163e+00,
       3.5846565639326489e+00, -1.0675179742309493e+00,
       3.6149054162381136e+00, -1.1107588305334748e+00,
       3.6253318958711351e+00, -1.1655208745365235e+00,
       3.6118014522091864e+00, -1.2228099490255890e+00,
       3.5954806994111608e+00, -1.2641146180190166e+00,
       3.5733647349849345e+00, -1.2939109978691117e+00,
       3.5470600399937013e+00, -1.3071500890907308e+00,
       3.5338677248812358e+00, -1.3150816736243383e+00,
       3.5500940224937412e+00, -1.3236271033069329e+00,
       3.5811672828822063e+00, -1.3207946662626071e+00,
       3.6173147743771881e+00, -1.3125411336140111e+00,
       3.6497007888329756e+00, -1.2879272235956616e+00,
       3.6911936880790561e+00, -1.2604530254291619e+00,
       3.7216067253472618e+00, -1.2299258508283386e+00,
       3.7091210948805347e+00, -1.1951949398325699e+00,
       3.6585084751135470e+00, -1.1812506119567869e+00,
       3.6342097178974200e+00, -1.1871309494143294e+00,
       3.6029697028340637e+00, -1.1948662272396890e+00,
       3.5749594163396363e+00, -1.1986707084359189e+00,
       3.5536639231653151e+00, -1.2032854724655306e+00,
       3.5487101966816845e+00, -1.1998125667366550e+00,
       3.5474364552236919e+00, -1.2022421911873116e+00,
       3.5513700044536209e+00, -1.2044795354895523e+00,
       3.5792479695037036e+00, -1.2025622649590606e+00,
       3.6145608550874715e+00, -1.1940377683353371e+00,
       3.6344345431222482e+00, -1.1810469434934099e+00,
       3.6699471566685622e+00, -1.1819209571487637e+00,
       3.6957782174260809e+00, -1.1983511851991231e+00,
       3.6974035871520305e+00, -1.2245945211880616e+00,
       3.6861204847485305e+00, -1.2562258544631908e+00,
       3.6627347731584248e+00, -1.2869789431828185e+00,
       3.6220371290888287e+00, -1.3096749688081553e+00,
       3.5722217052290470e+00, -1.3162087934831834e+00,
       3.5429831721100626e+00, -1.3211801985522755e+00,
       3.5361059899898795e+00, -1.3198469554421717e+00,
       3.5493282473086141e+00, -1.3180505404856215e+00,
       3.5666461660658668e+00, -1.3026746769725215e+00,
       3.5902683762519052e+00, -1.2754981670852343e+00,
       3.6080165512773004e+00, -1.2417000107208613e+00,
       3.6107618413825557e+00, -1.1876673357731709e+00,
       3.5973646424958341e+00, -1.1364489734411143e+00,
       3.5598940541905062e+00, -1.0859300472273807e+00,
       3.5191556197545912e+00, -1.0427081518505081e+00,
       3.4531545416120517e+00, -1.0117184990022907e+00,
       3.3745149379931685e+00, -9.8903820811256205e-01,
       3.2952651715593357e+00, -9.6776860899555561e-01,
       3.3014803507185104e+00, -9.6365568637263999e-01,
       3.4008711951256085e+00, -9.8021785605589740e-01,
       3.4760253918371169e+00, -1.0067924456560753e+00,
       3.5576897240102134e+00, -1.0447612340276899e+00,
       3.5787330549902592e+00, -1.0882383326536251e+00,
       3.6043312347736771e+00, -1.1420501126090108e+00,
       3.6106308944105581e+00, -1.1973715758518684e+00,
       3.5993702998226937e+00, -1.2526320024671462e+00,
       3.5812301817868786e+00, -1.2885251435445322e+00,
       3.5550124972380237e+00, -1.3056321965101414e+00,
       3.5256979870939498e+00, -1.3163304743777569e+00,
       3.5240591481313124e+00, -1.3199941690881083e+00,
       3.5372473664145305e+00, -1.3136335607680103e+00,
       3.5669298689379700e+00, -1.3043812446023249e+00,
       3.6185693658242051e+00, -1.2908956113622609e+00,
       3.6638172409766701e+00, -1.2607443690425002e+00,
       3.6999811801595386e+00, -1.2316724374592243e+00,
       3.7239340833557484e+00, -1.1964023259929524e+00,
       3.7096409377983499e+00, -1.1692905769782431e+00,
       3.6480522696529563e+00, -1.1558398267131527e+00,
       3.6069413067491602e+00, -1.1548869227788878e+00,
       3.5619305473160789e+00, -1.1632377018225115e+00,
       3.5318010654381888e+00, -1.1712604652885530e+00,
       3.4859509277855940e+00, -1.1776492835927856e+00,
       3.4950190704805975e+00, -1.1775714843016492e+00,
       3.4874552327859090e+00, -1.1764232757460364e+00,
       3.4905056083863473e+00, -1.1777637010716218e+00,
       3.5227379853171032e+00, -1.1732149442252036e+00,
       3.5695241526890777e+00, -1.1647310329811511e+00,
       3.6119240925114977e+00, -1.1549259781221737e+00,
       3.6717068693807522e+00, -1.1592593442260954e+00,
       3.7169554402131784e+00, -1.1655900819548757e+00,
       3.6996393618402674e+00, -1.1868338407333201e+00,
       3.6853123574729976e+00, -1.2198840907523911e+00,
       3.6643550179655056e+00, -1.2568863592089734e+00,
       3.6231293076609146e+00, -1.2818581865328038e+00,
       3.5849781727085546e+00, -1.3035072138155273e+00,
       3.5339362478181826e+00, -1.3142612005949097e+00,
       3.5073059447256463e+00, -1.3162721228770626e+00,
       3.5288041422791649e+00, -1.3217138879657055e+00,
       3.5539180129601884e+00, -1.3177324802816923e+00,
       3.5707517287650430e+00, -1.2971843672028380e+00,
       3.5960244138727355e+00, -1.2653113924777677e+00,
       3.6100927402845180e+00, -1.2196702628373857e+00,
       3.5966250616607955e+00, -1.1628900473061521e+00,
       3.5563797368795402e+00, -1.1094464277398173e+00,
       3.5229872445596548e+00, -1.0613468279425886e+00,
       3.4634825636657878e+00, -1.0251233591751372e+00,
       3.3967456902212736e+00, -9.9831847751925218e-01,
       3.3141245886079269e+00, -9.7772486371467437e-01,
       3.2999173330250913e+00, -9.7133597049086640e-01,
       3.4151808237901502e+00, -9.9113159273790230e-01,
       3.5048982476842721e+00, -1.0230953452420053e+00,
       3.5562703546842038e+00, -1.0646406455960846e+00,
       3.5806802060548271e+00, -1.1105828848495074e+00,
       3.5958982811394207e+00, -1.1678081544273773e+00,
       3.5996922599052796e+00, -1.2255922265984243e+00,
       3.5852272614791394e+00, -1.2727241452466704e+00,
       3.5609038423707533e+00, -1.3026270653372480e+00,
       3.5419285315849849e+00, -1.3175996415801619e+00,
       3.5208882200177793e+00, -1.3225111524660247e+00,
       3.5128422982261265e+00, -1.3182199246553936e+00,
       3.5403480914179513e+00, -1.3081860783915240e+00,
       3.5859178815669974e+00, -1.2975122196208124e+00,
       3.6225730257144466e+00, -1.2714994701231432e+00,
       3.6813975134901251e+00, -1.2347235356380788e+00,
       3.6976465184655858e+00, -1.2082069296563238e+00,
       3.7253579369902243e+00, -1.1872324236781622e+00,
       3.7055482225287437e+00, -1.1648514974553981e+00,
       3.6783457481470041e+00, -1.1601827003813767e+00,
       3.5937504877681303e+00, -1.1492556768574633e+00,
       3.5431968216939347e+00, -1.1589433417068931e+00,
       3.4721749185610973e+00, -1.1655411261074775e+00,
       3.4297071099452285e+00, -1.1716095409743017e+00,
       3.4479293479776447e+00, -1.1771102847971733e+00,
       3.4363854512084844e+00, -1.1757118864973071e+00,
       3.4233179626569070e+00, -1.1731593839796746e+00,
       3.4457313413935422e+00, -1.1690673990981031e+00,
       3.5179013832817607e+00, -1.1618928188966828e+00,
       3.5602187168942900e+00, -1.1516185912311012e+00,
       3.6274801687370082e+00, -1.1524676673586360e+00,
       3.7072996460056613e+00, -1.1676207470050577e+00,
       3.7009710874422361e+00, -1.1781276258364817e+00,
       3.6886400987922285e+00, -1.1946118078796635e+00,
       3.6722182361992259e+00, -1.2277689252232511e+00,
       3.6493800933493543e+00, -1.2640439619054109e+00,
       3.6037173921390209e+00, -1.2871148177178531e+00,
       3.5465106477402086e+00, -1.3071598752256925e+00,
       3.5105790441596185e+00, -1.3146355619056478e+00,
       3.5175096832426718e+00, -1.3230065676355631e+00,
       3.5375614371815609e+00, -1.3261872083246036e+00,
       3.5680523625206768e+00, -1.3123780406500263e+00,
       3.5906509346208533e+00, -1.2857689478137171e+00,
       3.6148106167211278e+00, -1.2483412550497301e+00,
       3.6007765492612638e+00, -1.1932220754546787e+00,
       3.5877296840641124e+00, -1.1389564742350933e+00,
       3.5320355930083340e+00, -1.0841615004719529e+00,
       3.4779681500120336e+00, -1.0428417585825325e+00,
       3.4127099339860969e+00, -1.0117926843355098e+00,
       3.3261990576577518e+00, -9.9239826180962432e-01,
       3.3335366070546977e+00, -9.8375644077141955e-01,
       3.4228867908071035e+00, -1.0054912048405025e+00,
       3.5159766127332825e+00, -1.0423592251323364e+00,
       3.5563690852661858e+00, -1.0840072975435655e+00,
       3.5900147082256959e+00, -1.1380294884859994e+00,
       3.6030299529649454e+00, -1.1978383542084838e+00,
       3.5951396581037849e+00, -1.2477015353059024e+00,
       3.5878147970842802e+00, -1.2877320802054963e+00,
       3.5547492891132708e+00, -1.3117475017194331e+00,
       3.5272555628895419e+00, -1.3214485883407341e+00,
       3.5248561132277803e+00, -1.3263181786940921e+00,
       3.5224705012265929e+00, -1.3157119089060159e+00,
       3.5597357670981249e+00, -1.3022811091894557e+00,
       3.5869841099611057e+00, -1.2777543581371291e+00,
       3.6196841659572794e+00, -1.2494807592753481e+00,
       3.6483131193710578e+00, -1.2190579605448437e+00,
       3.6574675201226663e+00, -1.1958584628338900e+00,
       3.6574897311402919e+00, -1.1844875581617722e+00,
       3.6512098187148228e+00, -1.1746112106440034e+00,
       3.6226524717619957e+00, -1.1633547007985956e+00,
       3.5806336046350498e+00, -1.1624105180193087e+00,
       3.5360761856654817e+00, -1.1648405516959872e+00,
       3.4553713976903295e+00, -1.1699016977829020e+00,
       3.4199579942675404e+00, -1.1764214082575359e+00,
       3.4336415651404093e+00, -1.1845881005687315e+00,
       3.4287895212600601e+00, -1.1817725087050075e+00,
       3.4216607813339053e+00, -1.1767502469468711e+00,
       3.4547715154283614e+00, -1.1740930880640126e+00,
       3.5069373573972467e+00, -1.1701621306304757e+00,
       3.5529434701976821e+00, -1.1686919958083193e+00,
       3.5833405472912330e+00, -1.1669154476437740e+00,
       3.6351681048596096e+00, -1.1767325616890116e+00,
       3.6561678829562143e+00, -1.1897206425897453e+00,
       3.6649260764794755e+00, -1.1948675758872298e+00,
       3.6590049846489276e+00, -1.2140227402057155e+00,
       3.6429320002856720e+00, -1.2415429418425032e+00,
       3.6182275511041135e+00, -1.2716592942708846e+00,
       3.5687990361945947e+00, -1.2946576228191251e+00,
       3.5184961802508514e+00, -1.3073781795540835e+00,
       3.5137457099813947e+00, -1.3190215631151301e+00,
       3.5322559685218189e+00, -1.3300749721601088e+00,
       3.5490599888176160e+00, -1.3188198241929283e+00,
       3.5896254057375212e+00, -1.3042595366508511e+00,
       3.6074879753512623e+00, -1.2686580675544414e+00,
       3.6148520682918392e+00, -1.2204443268084275e+00,
       3.5853331863117042e+00, -1.1609322123778969e+00,
       3.5446842926467350e+00, -1.1068971761133828e+00,
       3.4930617981275738e+00, -1.0609897369645782e+00,
       3.4154512783529754e+00, -1.0252300631828299e+00,
       3.3418248427615507e+00, -1.0024784161358800e+00,
       3.3503382893185556e+00, -9.9545540048523806e-01,
       3.4353740059737077e+00, -1.0195886473199880e+00,
       3.5242405368671186e+00, -1.0594695473859588e+00,
       3.5631516486525534e+00, -1.1027230311009764e+00,
       3.5947500520541169e+00, -1.1613880698752064e+00,
       3.6061748605756652e+00, -1.2188763382854724e+00,
       3.5957702020598661e+00, -1.2640716375012098e+00,
       3.5821933730255209e+00, -1.2973261164640633e+00,
       3.5543268790385070e+00, -1.3202316645126901e+00,
       3.5294635665429044e+00, -1.3222796336876657e+00,
       3.5322528066484069e+00, -1.3221023622814232e+00,
       3.5171101404280711e+00, -1.3068861268532013e+00,
       3.5478835243670610e+00, -1.2911969591700454e+00,
       3.5732407595606150e+00, -1.2642698960754584e+00,
       3.6031169485262584e+00, -1.2375947957303366e+00,
       3.6157628402872919e+00, -1.2156253392810890e+00,
       3.6041681353883872e+00, -1.2096917929391182e+00,
       3.6133801582520082e+00, -1.2092175673908374e+00,
       3.5918198741026690e+00, -1.2059107346610369e+00,
       3.5897588123927857e+00, -1.2017306338863405e+00,
       3.5576508913010603e+00, -1.1945279428723579e+00,
       3.5404828530318015e+00, -1.1956671488375170e+00,
       3.4904917358130603e+00, -1.1965214324006503e+00,
       3.4587809440116564e+00, -1.1993805904488060e+00,
       3.4524430182719441e+00, -1.2107556290170667e+00,
       3.4444631551089446e+00, -1.2089241054661930e+00,
       3.4415684076209900e+00, -1.2004671525417687e+00,
       3.4609432423656772e+00, -1.1965377227011222e+00,
       3.4967835481986258e+00, -1.1922707695981212e+00,
       3.5302257093679206e+00, -1.1954951651068517e+00,
       3.5442044482987112e+00, -1.2005606620707809e+00,
       3.5643323107044060e+00, -1.2035856759071386e+00,
       3.5797922752512248e+00, -1.2108589030267263e+00,
       3.5975890443906779e+00, -1.2081177718769083e+00,
       3.6143778435087568e+00, -1.2171104015110605e+00,
       3.6162626308641994e+00, -1.2325246154999037e+00,
       3.6084133576381809e+00, -1.2605771405443871e+00,
       3.5784441667801934e+00, -1.2877096381430895e+00,
       3.5318490970376848e+00, -1.3046036817770625e+00,
       3.5133460292933401e+00, -1.3163560403092096e+00,
       3.5224978123687332e+00, -1.3256799437423270e+00,
       3.5456451339321258e+00, -1.3287161355700148e+00,
       3.5755043589541939e+00, -1.3124344985012542e+00,
       3.5958450980905727e+00, -1.2823311256678493e+00,
       3.6109810700209994e+00, -1.2436553921938509e+00,
       3.5806102682879080e+00, -1.1802588501131224e+00,
       3.5600272092489753e+00, -1.1269313950965918e+00,
       3.5003161576379478e+00, -1.0737891298641431e+00,
       3.4310809741892596e+00, -1.0375490556466478e+00,
       3.3579633859800744e+00, -1.0112146526097228e+00,
       3.3721388090081628e+00, -1.0042517727920275e+00,
       3.4489178286928666e+00, -1.0318795522831297e+00,
       3.5305676606478058e+00, -1.0745523859984538e+00,
       3.5684245492103548e+00, -1.1226586824154450e+00,
       3.5965248729634376e+00, -1.1841545670403713e+00,
       3.6030685375319664e+00, -1.2352885637591144e+00,
       3.6039732638963806e+00, -1.2791944996433675e+00,
       3.5734276524103255e+00, -1.3046732725783319e+00,
       3.5536361148290663e+00, -1.3232889040150209e+00,
       3.5359504737661513e+00, -1.3279302679118445e+00,
       3.5206072716758805e+00, -1.3194443917147889e+00,
       3.5116179106614602e+00, -1.3059381466122078e+00,
       3.5472582297135138e+00, -1.2832883377000748e+00,
       3.5551966438581868e+00, -1.2563652918474209e+00,
       3.5745119742416622e+00, -1.2391463257429167e+00,
       3.5768867896693592e+00, -1.2287215114593106e+00,
       3.5810276894887649e+00, -1.2348159727113761e+00,
       3.5599561913832698e+00, -1.2352005103174490e+00,
       3.5464115204836535e+00, -1.2402099135001268e+00,
       3.5481112955967782e+00, -1.2400128827245489e+00,
       3.5316946097711774e+00, -1.2377225667382563e+00,
       3.5106238428771759e+00, -1.2382950639018566e+00,
       3.4763465159055920e+00, -1.2377416296023158e+00,
       3.4473346600558341e+00, -1.2389541856139830e+00,
       3.4364876301772411e+00, -1.2449051249683767e+00,
       3.4424527929086328e+00, -1.2448598022463702e+00,
       3.4341025627345947e+00, -1.2404202468040937e+00,
       3.4338112440955304e+00, -1.2356706950740075e+00,
       3.4619900019572518e+00, -1.2337827563890424e+00,
       3.4957587158144454e+00, -1.2333674329199245e+00,
       3.5181959399034639e+00, -1.2394729538251346e+00,
       3.5090403851604286e+00, -1.2326468176948593e+00,
       3.5289248378524634e+00, -1.2358379795185115e+00,
       3.5558865469257186e+00, -1.2363885763869584e+00,
       3.5804861464146223e+00, -1.2347616998141140e+00,
       3.5898674623143894e+00, -1.2450827574825831e+00,
       3.5704376046665378e+00, -1.2625554770282661e+00,
       3.5598798826364524e+00, -1.2833921191034934e+00,
       3.5327061514351703e+00, -1.3062848810273737e+00,
       3.5160587546992264e+00, -1.3200352368631703e+00,
       3.5148920271581745e+00, -1.3241676192685579e+00,
       3.5429613208154924e+00, -1.3290288489840545e+00,
       3.5664621990030700e+00, -1.3184796445517217e+00,
       3.5843953422998598e+00, -1.2941258384072625e+00,
       3.6192943080650548e+00, -1.2610584226416826e+00,
       3.6009235363290122e+00, -1.2040615662973788e+00,
       3.5820701623236224e+00, -1.1516475850719801e+00,
       3.5331381576319627e+00, -1.0919889467792021e+00,
       3.4538771048250374e+00, -1.0536576906551163e+00,
       3.3709899712366949e+00, -1.0179398423042749e+00,
       3.3946723524932523e+00, -1.0155169054116571e+00,
       3.4522361369367918e+00, -1.0425338979676071e+00,
       3.5378747675147859e+00, -1.0881789184065112e+00,
       3.5860180547988834e+00, -1.1460688309143436e+00,
       3.6035549107603706e+00, -1.2056001759462578e+00,
       3.6028630833864574e+00, -1.2490059317509830e+00,
       3.5963018949575689e+00, -1.2878277085237473e+00,
       3.5703621016142657e+00, -1.3105586227841146e+00,
       3.5492144693549244e+00, -1.3232142060867578e+00,
       3.5427174483479411e+00, -1.3311385076493667e+00,
       3.5123165387370294e+00, -1.3185844349822775e+00,
       3.5111729667653369e+00, -1.3100669880131925e+00,
       3.5236082433984977e+00, -1.2902222419720133e+00,
       3.5240482229224481e+00, -1.2722764975425032e+00,
       3.5393961925306856e+00, -1.2639567992620659e+00,
       3.5403127312605638e+00, -1.2607669829094126e+00,
       3.5483195291657688e+00, -1.2688924453590291e+00,
       3.5339664938716977e+00, -1.2744383226799150e+00,
       3.5112186970487760e+00, -1.2757787765792257e+00,
       3.5067166013581583e+00, -1.2768292305016085e+00,
       3.5018091081842369e+00, -1.2782545089678068e+00,
       3.4789244159282524e+00, -1.2760107332088457e+00,
       3.4440570445095524e+00, -1.2730105258069280e+00,
       3.4336149517579115e+00, -1.2750166519347725e+00,
       3.4418603988128984e+00, -1.2766740347549692e+00,
       3.4411859377914187e+00, -1.2743831569591739e+00,
       3.4312052178628818e+00, -1.2761603542811333e+00,
       3.4364981462563655e+00, -1.2780952870086402e+00,
       3.4762408464625318e+00, -1.2797697654447886e+00,
       3.4997672295990734e+00, -1.2803576662157012e+00,
       3.5076896088524570e+00, -1.2794506735362732e+00,
       3.5025383744588505e+00, -1.2783263421708937e+00,
       3.4981842464316766e+00, -1.2719449162089052e+00,
       3.5203005367263160e+00, -1.2646184894848094e+00,
       3.5261441795622845e+00, -1.2613921840315148e+00,
       3.5353945502980491e+00, -1.2629778591493561e+00,
       3.5305632518194896e+00, -1.2734837846466756e+00,
       3.5119222900190632e+00, -1.2871584526128799e+00,
       3.5134637203445824e+00, -1.3103750036368649e+00,
       3.5149837705309688e+00, -1.3190350023104735e+00,
       3.5131567282212117e+00, -1.3243357648644882e+00,
       3.5422778462213258e+00, -1.3314358616813566e+00,
       3.5711454100611277e+00, -1.3244504021472137e+00,
       3.5909474810920772e+00, -1.3029933090372268e+00,
       3.6118886749015382e+00, -1.2729489249241654e+00,
       3.6117626050951377e+00, -1.2261805407514959e+00,
       3.5957926879988675e+00, -1.1735215278264002e+00,
       3.5414210532960042e+00, -1.1096584246643508e+00,
       3.4682657964655803e+00, -1.0682970222223784e+00,
       3.4141501753241079e+00, -1.0308169249716119e+00,
       3.4266059745865163e+00, -1.0227917151466850e+00,
       3.4775708695154104e+00, -1.0565115308062847e+00,
       3.5536319680674149e+00, -1.1070386629944919e+00,
       3.5871037129301353e+00, -1.1645617023704258e+00,
       3.6050071373469059e+00, -1.2190072883490766e+00,
       3.6052838086136960e+00, -1.2635401997363074e+00,
       3.5877177074825077e+00, -1.2934905498636677e+00,
       3.5643222408759301e+00, -1.3170563485443902e+00,
       3.5515167336192164e+00, -1.3268472156301669e+00,
       3.5324541303039805e+00, -1.3335628113339135e+00,
       3.5004834568937824e+00, -1.3233863668586601e+00,
       3.4876489118571929e+00, -1.3134678845204661e+00,
       3.4876771099166088e+00, -1.3050346376752229e+00,
       3.4931599197995600e+00, -1.2977890671723233e+00,
       3.4910082831942670e+00, -1.2905244323653418e+00,
       3.4977267251295743e+00, -1.2913829119444096e+00,
       3.4993795279390709e+00, -1.2981235827154363e+00,
       3.4898669554898079e+00, -1.3052008940950690e+00,
       3.5046170134002610e+00, -1.3092987805916532e+00,
       3.4963526897952040e+00, -1.3049976750460393e+00,
       3.4954393057740862e+00, -1.3036032058241058e+00,
       3.4769381356834184e+00, -1.2976529158440069e+00,
       3.4445142390336025e+00, -1.2957838845374690e+00,
       3.4393417628162335e+00, -1.2878876426971175e+00,
       3.4526239711842424e+00, -1.2807303840389206e+00,
       3.4557466210790113e+00, -1.2797491299077162e+00,
       3.4379519616623391e+00, -1.2880892129511956e+00,
       3.4373431173975852e+00, -1.2937145551048781e+00,
       3.4662707115401590e+00, -1.3021014079547069e+00,
       3.4872551203554290e+00, -1.3066449889600835e+00,
       3.4879649533134702e+00, -1.3084442625316790e+00,
       3.4908388468072928e+00, -1.3095451399290472e+00,
       3.4812240791992619e+00, -1.3083398553219803e+00,
       3.4805748238822072e+00, -1.3055167178728544e+00,
       3.4802531870678637e+00, -1.3005298863855328e+00,
       3.4899970143234196e+00, -1.2984785569545303e+00,
       3.4806078570449954e+00, -1.2929325352908390e+00,
       3.4758452997473746e+00, -1.3011822414748839e+00,
       3.4804239742565524e+00, -1.3119322963538904e+00,
       3.4863641603368776e+00, -1.3179270581327085e+00,
       3.5153521792449389e+00, -1.3257065389005949e+00,
       3.5361465353234274e+00, -1.3310897832230149e+00,
       3.5566636274658063e+00, -1.3289171588046698e+00,
       3.5933312787749232e+00, -1.3112402862505681e+00,
       3.6089007428191349e+00, -1.2851570250759676e+00,
       3.6207795172275246e+00, -1.2429090083503769e+00,
       3.5932595397573523e+00, -1.1894877536034019e+00,
       3.5554527986884366e+00, -1.1305939713327871e+00,
       3.4904856563450180e+00, -1.0799381349414794e+00,
       3.4282984332708204e+00, -1.0426090924033182e+00,
       3.4452313136305448e+00, -1.0290296410499959e+00,
       3.4798124042821668e+00, -1.0691273793155096e+00,
       3.5662827855180486e+00, -1.1265600064619381e+00,
       3.5928107942081424e+00, -1.1817940750749445e+00,
       3.5971845052641198e+00, -1.2339836373743136e+00,
       3.6046961186714861e+00, -1.2760857153467864e+00,
       3.5821943437396628e+00, -1.3025300874003343e+00,
       3.5531614004549388e+00, -1.3236766056169940e+00,
       3.5346596423522283e+00, -1.3367146405261183e+00,
       3.5051799556118524e+00, -1.3349678159798173e+00,
       3.4793914962152122e+00, -1.3290797684523794e+00,
       3.4547821053179164e+00, -1.3172132834912713e+00,
       3.4443359777848395e+00, -1.3126757832717073e+00,
       3.4339966076555446e+00, -1.3085896037054641e+00,
       3.4337828819310623e+00, -1.3134849821754215e+00,
       3.4409003635556696e+00, -1.3170649470197135e+00,
       3.4547694595327441e+00, -1.3222532921768047e+00,
       3.4551374834573263e+00, -1.3214279322487170e+00,
       3.4783721832392973e+00, -1.3177332011818859e+00,
       3.4928607986708124e+00, -1.3091064497642058e+00,
       3.5006210708014844e+00, -1.2974185635850526e+00,
       3.4888767129807357e+00, -1.2890075617654080e+00,
       3.4509066104849597e+00, -1.2838032657448375e+00,
       3.4458300782264986e+00, -1.2718811395264427e+00,
       3.4754862974321390e+00, -1.2653369600550100e+00,
       3.4748450107058946e+00, -1.2612884219826024e+00,
       3.4571848476706188e+00, -1.2724157822670104e+00,
       3.4458008486922465e+00, -1.2775732331162650e+00,
       3.4738614587866761e+00, -1.2830026197278666e+00,
       3.4831744811089669e+00, -1.2925404677734957e+00,
       3.4768192975277925e+00, -1.3085684405211651e+00,
       3.4566245722708810e+00, -1.3183671088012632e+00,
       3.4502432639193583e+00, -1.3250974167549545e+00,
       3.4385009633471668e+00, -1.3284036453916426e+00,
       3.4327784704478179e+00, -1.3271752349193295e+00,
       3.4350296920198908e+00, -1.3220091981350679e+00,
       3.4300973879656271e+00, -1.3108510051661801e+00,
       3.4381283930728026e+00, -1.3149564253710126e+00,
       3.4465271887415865e+00, -1.3166123112140411e+00,
       3.4688196683243269e+00, -1.3286083563979505e+00,
       3.4903511454593308e+00, -1.3341055408985660e+00,
       3.5192554156981193e+00, -1.3372573910310439e+00,
       3.5434209321565939e+00, -1.3307897872394741e+00,
       3.5697489364000821e+00, -1.3175933064687446e+00,
       3.5930979766669222e+00, -1.2946952898606678e+00,
       3.6155791078627710e+00, -1.2592564406838449e+00,
       3.5881003623340777e+00, -1.2054349959067800e+00,
       3.5616813044849867e+00, -1.1515607439088513e+00,
       3.4988694116672550e+00, -1.0892859532320769e+00,
       3.4453616315417306e+00, -1.0485856079751792e+00,
       3.4642565789305566e+00, -1.0376900654417507e+00,
       3.4928332180624682e+00, -1.0819186582835889e+00,
       3.5639205815119186e+00, -1.1430745954028310e+00,
       3.5855221264160302e+00, -1.2018339035849062e+00,
       3.5893871000102586e+00, -1.2479821034210830e+00,
       3.5858893767841007e+00, -1.2862216234655268e+00,
       3.5624081059618664e+00, -1.3138410804019689e+00,
       3.5268656529538704e+00, -1.3282716639404111e+00,
       3.5066849719006337e+00, -1.3438858999651075e+00,
       3.4655728553947998e+00, -1.3412644794187194e+00,
       3.4384341719826486e+00, -1.3367286780882430e+00,
       3.4139435213793328e+00, -1.3275234272919116e+00,
       3.3946401904049281e+00, -1.3198805937485272e+00,
       3.3870601097076047e+00, -1.3182490860784251e+00,
       3.3913414779763928e+00, -1.3240779140575893e+00,
       3.4074480632514343e+00, -1.3276264032595646e+00,
       3.4330243408432071e+00, -1.3303222182368810e+00,
       3.4530231344243134e+00, -1.3257367204287549e+00,
       3.4924452340865542e+00, -1.3097145354724784e+00,
       3.5165660573048818e+00, -1.2933297141722360e+00,
       3.5442522513728489e+00, -1.2716261905065795e+00,
       3.5409161840123011e+00, -1.2583233637959266e+00,
       3.5106653277466715e+00, -1.2485473238420866e+00,
       3.5055117761688921e+00, -1.2440024522118851e+00,
       3.5406791742783370e+00, -1.2453481101099930e+00,
       3.5530310406764585e+00, -1.2419487642497009e+00,
       3.5249360520852391e+00, -1.2462852377088036e+00,
       3.5060027655110870e+00, -1.2446993370169892e+00,
       3.5284167279577323e+00, -1.2468785453193514e+00,
       3.5242360982539416e+00, -1.2596972320137032e+00,
       3.4926895005752780e+00, -1.2834918216486997e+00,
       3.4688794810699428e+00, -1.3076146145853322e+00,
       3.4440602523864801e+00, -1.3228839189227692e+00,
       3.4232145179539932e+00, -1.3349911578063289e+00,
       3.4064297849182577e+00, -1.3381084977189994e+00,
       3.3991881108827280e+00, -1.3357446671892494e+00,
       3.3900716762092520e+00, -1.3266254004556479e+00,
       3.3905351024116812e+00, -1.3271609242100351e+00,
       3.4034375645748858e+00, -1.3270081643958864e+00,
       3.4307793830279008e+00, -1.3350855074905867e+00,
       3.4611853205707628e+00, -1.3460592705080299e+00,
       3.4877018927144632e+00, -1.3421744167634637e+00,
       3.5198081701242274e+00, -1.3381185211746800e+00,
       3.5484669530437101e+00, -1.3253217032965854e+00,
       3.5693692872872811e+00, -1.3024303062472931e+00,
       3.5894371819713276e+00, -1.2714182280595747e+00,
       3.5888488922517952e+00, -1.2202289960147306e+00,
       3.5575453489990685e+00, -1.1642366037720997e+00,
       3.5110465408083913e+00, -1.1013138350364553e+00,
       3.4612219354623637e+00, -1.0577513176277058e+00,
       3.4668365371439935e+00, -1.0493120608567039e+00,
       3.5114119315821402e+00, -1.0953762646092970e+00,
       3.5551274454466357e+00, -1.1571050344748466e+00,
       3.5783843703319955e+00, -1.2209579589029034e+00,
       3.5688317516208401e+00, -1.2635681296923953e+00,
       3.5531475530572445e+00, -1.2991556489920619e+00,
       3.5288958495584208e+00, -1.3246511613609735e+00,
       3.4949178263282317e+00, -1.3449018900049330e+00,
       3.4581120636373144e+00, -1.3566944010562074e+00,
       3.4147125829139076e+00, -1.3544336219782775e+00,
       3.3872146228756255e+00, -1.3495232575937104e+00,
       3.3666714458579623e+00, -1.3351145174284491e+00,
       3.3499225854308303e+00, -1.3298648843007241e+00,
       3.3581617792791350e+00, -1.3303293843468083e+00,
       3.3742230430741191e+00, -1.3311222885979905e+00,
       3.3935594487223066e+00, -1.3343193478617481e+00,
       3.4297663123783408e+00, -1.3310115357927192e+00,
       3.4739696600817762e+00, -1.3209908131955008e+00,
       3.5303232605450869e+00, -1.3028914869520065e+00,
       3.5954511587886713e+00, -1.2727307808700268e+00,
       3.6305043174084757e+00, -1.2347634144061475e+00,
       3.6262044102991586e+00, -1.2118598866387853e+00,
       3.5978892227384867e+00, -1.2180606817654061e+00,
       3.5887894408051642e+00, -1.2317324897692015e+00,
       3.6225526734771654e+00, -1.2413694249912115e+00,
       3.6329922353108470e+00, -1.2425038085265661e+00,
       3.5984387143937648e+00, -1.2349777178806185e+00,
       3.5987691576975060e+00, -1.2271379790862473e+00,
       3.6071667812813386e+00, -1.2161500933923053e+00,
       3.6061526440597054e+00, -1.2264772934754147e+00,
       3.5700515708942850e+00, -1.2613196199311982e+00,
       3.5190477119876515e+00, -1.2959885068635293e+00,
       3.4725734531042014e+00, -1.3207999708059457e+00,
       3.4321239872487008e+00, -1.3337265470320279e+00,
       3.3954661589209190e+00, -1.3405075916512694e+00,
       3.3807537490364159e+00, -1.3412656204583504e+00,
       3.3635546661716904e+00, -1.3362684399128770e+00,
       3.3408270165038245e+00, -1.3335063261706981e+00,
       3.3575709953496737e+00, -1.3394079287873075e+00,
       3.3786894032782575e+00, -1.3452443306772934e+00,
       3.4062468615522641e+00, -1.3568243362454435e+00,
       3.4432054811634543e+00, -1.3583694012628689e+00,
       3.4756755639670169e+00, -1.3496409509837499e+00,
       3.5184300286498127e+00, -1.3357684214445000e+00,
       3.5486775457912270e+00, -1.3151445559999224e+00,
       3.5651216651257327e+00, -1.2833344734154311e+00,
       3.5771655398498012e+00, -1.2376451610502961e+00,
       3.5535455248904060e+00, -1.1799023038897689e+00,
       3.5195784430807042e+00, -1.1181140106824614e+00,
       3.4679170297237714e+00, -1.0655670159483290e+00,
       3.4839661306667589e+00, -1.0628595516992672e+00,
       3.5323010421077670e+00, -1.1122932236894747e+00,
       3.5547568117960600e+00, -1.1767575495912534e+00,
       3.5532593680280438e+00, -1.2354364371573696e+00,
       3.5381381047245672e+00, -1.2784566991299164e+00,
       3.5142027564976916e+00, -1.3105932758405097e+00,
       3.4839698752898123e+00, -1.3379063717501509e+00,
       3.4448954954549258e+00, -1.3588299589917299e+00,
       3.4028214126721998e+00, -1.3697743583723432e+00,
       3.3572032045398359e+00, -1.3700452529608986e+00,
       3.3220722407747152e+00, -1.3622405565997844e+00,
       3.3053591958614956e+00, -1.3513482525563780e+00,
       3.3113303184217808e+00, -1.3462697682048677e+00,
       3.3327580395645997e+00, -1.3450342335250296e+00,
       3.3682770989644784e+00, -1.3436971495567795e+00,
       3.4059079615775567e+00, -1.3430511791328847e+00,
       3.4603909704272855e+00, -1.3333022466155393e+00,
       3.5325048013028701e+00, -1.3196405743279673e+00,
       3.6140501414187254e+00, -1.2962557465428721e+00,
       3.6592841066185695e+00, -1.2507312867639018e+00,
       3.6945360380786783e+00, -1.2006217644164441e+00,
       3.6724616605998031e+00, -1.1804609993650850e+00,
       3.6349657945410971e+00, -1.2143449084660660e+00,
       3.6079480375093014e+00, -1.2414762136576079e+00,
       3.6009768372769244e+00, -1.2519411698426923e+00,
       3.5947641252453213e+00, -1.2517135052840993e+00,
       3.5793219202490070e+00, -1.2434426835891361e+00,
       3.6156009319377893e+00, -1.2238012353360062e+00,
       3.6405068912886041e+00, -1.1953834100853828e+00,
       3.6596091511902160e+00, -1.2005328123615120e+00,
       3.6305299368302637e+00, -1.2416932931924143e+00,
       3.5870107884305855e+00, -1.2841961446400112e+00,
       3.5271126095802496e+00, -1.3146403200380437e+00,
       3.4740990487568246e+00, -1.3355333843292361e+00,
       3.4208508927502708e+00, -1.3454856242561479e+00,
       3.3781571931013636e+00, -1.3507630388906651e+00,
       3.3277610614689537e+00, -1.3445745778187426e+00,
       3.3076224217527592e+00, -1.3477530988561515e+00,
       3.3022849976131541e+00, -1.3521036412492704e+00,
       3.3169982925029631e+00, -1.3603945499389722e+00,
       3.3449250470207863e+00, -1.3684013350616753e+00,
       3.3789174137398574e+00, -1.3710238861329305e+00,
       3.4227850741675150e+00, -1.3623245479208224e+00,
       3.4734106701608125e+00, -1.3486972176642336e+00,
       3.5118975842574081e+00, -1.3294861418785024e+00,
       3.5442364579851660e+00, -1.2985700206656039e+00,
       3.5586737381873044e+00, -1.2520683578895879e+00,
       3.5565109636154082e+00, -1.1952481153194643e+00,
       3.5352766218336598e+00, -1.1368841200399202e+00,
       3.4845130123048320e+00, -1.0813206332082272e+00,
       3.4918745023904334e+00, -1.0726661232804264e+00,
       3.5402513309828967e+00, -1.1300013506618252e+00,
       3.5576845763804248e+00, -1.1976671573488757e+00,
       3.5336510831253425e+00, -1.2509276240330731e+00,
       3.4979978640324294e+00, -1.2911214272468918e+00,
       3.4776524058505154e+00, -1.3264477341049530e+00,
       3.4339099646598203e+00, -1.3515785458310818e+00,
       3.3857481722376828e+00, -1.3752912621397895e+00,
       3.3338380322919390e+00, -1.3852177230836331e+00,
       3.2897888211408937e+00, -1.3843302702531513e+00,
       3.2613184439778489e+00, -1.3785176743349619e+00,
       3.2470072373791479e+00, -1.3696243493538736e+00,
       3.2473963305436913e+00, -1.3565694901981198e+00,
       3.2800789261513246e+00, -1.3563171034476385e+00,
       3.3388498896612826e+00, -1.3516562616763605e+00,
       3.4107590543199038e+00, -1.3507537390568274e+00,
       3.4840107694656450e+00, -1.3369970716532256e+00,
       3.5793364190518204e+00, -1.3215955183735737e+00,
       3.6425092748080385e+00, -1.2981161471410805e+00,
       3.6504483343131984e+00, -1.2647396833188465e+00,
       3.6471925535728085e+00, -1.2186081279925511e+00,
       3.6216007599914670e+00, -1.2002488869156098e+00,
       3.5776376958748624e+00, -1.2345929982139339e+00,
       3.5034779836488470e+00, -1.2713651178247309e+00,
       3.4569314434036733e+00, -1.2795747674214790e+00,
       3.4409654470798516e+00, -1.2797605002827273e+00,
       3.4712204611629591e+00, -1.2720066018354199e+00,
       3.5412719914057638e+00, -1.2424354345901716e+00,
       3.6020469359110323e+00, -1.2037708986272440e+00,
       3.6359754915572493e+00, -1.2145120986983942e+00,
       3.6451248780062397e+00, -1.2628239184353960e+00,
       3.6248861701215187e+00, -1.2953460557763168e+00,
       3.5731614141641774e+00, -1.3136001475957719e+00,
       3.5020231806401316e+00, -1.3335254734109476e+00,
       3.4271354701593157e+00, -1.3488934772923231e+00,
       3.3499243590199290e+00, -1.3542039535326484e+00,
       3.2919560538177968e+00, -1.3567722675181901e+00,
       3.2559523775609716e+00, -1.3590347854565885e+00,
       3.2469562857237233e+00, -1.3683804179463515e+00,
       3.2557637545948124e+00, -1.3780934354913814e+00,
       3.2819977498798876e+00, -1.3852479702262868e+00,
       3.3162655115945889e+00, -1.3853714198767815e+00,
       3.3692289424663779e+00, -1.3780617124894636e+00,
       3.4290199761554758e+00, -1.3668844035718122e+00,
       3.4610787310558115e+00, -1.3400749837180201e+00,
       3.5019750258567122e+00, -1.3121261179419461e+00,
       3.5363990194559021e+00, -1.2693126541902446e+00,
       3.5564005772276093e+00, -1.2115298584145111e+00,
       3.5381762172977682e+00, -1.1528775654411139e+00,
       3.5095637092764167e+00, -1.0941123304971323e+00,
       3.5053519620660736e+00, -1.0883976932064996e+00,
       3.5363568942129500e+00, -1.1485599277090535e+00,
       3.5320159943611165e+00, -1.2120547327091207e+00,
       3.5093508231165100e+00, -1.2656796607650873e+00,
       3.4661516016835185e+00, -1.3080383815937571e+00,
       3.4355590204167572e+00, -1.3433603957410649e+00,
       3.3882525624545634e+00, -1.3681090783028793e+00,
       3.3271553166253609e+00, -1.3937364669604648e+00,
       3.2698069128735812e+00, -1.4027772022699354e+00,
       3.2226184052630349e+00, -1.4030253633087928e+00,
       3.1927199591118409e+00, -1.3923674136113782e+00,
       3.1821153647971840e+00, -1.3822476740525160e+00,
       3.1823641871021517e+00, -1.3705095862349577e+00,
       3.2151988523987689e+00, -1.3612135795848366e+00,
       3.2803045030555094e+00, -1.3591944729029768e+00,
       3.3699731702246516e+00, -1.3516965993454797e+00,
       3.4656555354346796e+00, -1.3382909657776636e+00,
       3.5656514550062011e+00, -1.3273014292612848e+00,
       3.6194361761580303e+00, -1.3139607138969889e+00,
       3.5853354055115423e+00, -1.2954327561542671e+00,
       3.5623242558086967e+00, -1.2697840403418541e+00,
       3.5343303192076587e+00, -1.2579020016312241e+00,
       3.4652413642813773e+00, -1.2852071196694839e+00,
       3.3561149457327475e+00, -1.3123731381974706e+00,
       3.2839716886986032e+00, -1.3203923886643580e+00,
       3.2699909827130482e+00, -1.3203645200102225e+00,
       3.3067419353979610e+00, -1.3073940519353040e+00,
       3.4010564459321193e+00, -1.2835286194257391e+00,
       3.4822271975591463e+00, -1.2565982520716001e+00,
       3.5405557419536682e+00, -1.2669212652531183e+00,
       3.5770386951218085e+00, -1.2964206828459044e+00,
       3.6081443443578589e+00, -1.3163708893408996e+00,
       3.5837181827115692e+00, -1.3267151450850867e+00,
       3.4949622077446287e+00, -1.3412035146148975e+00,
       3.3930368566194895e+00, -1.3534526530814268e+00,
       3.2925202208153359e+00, -1.3595520458195098e+00,
       3.2276739808686741e+00, -1.3659823893393936e+00,
       3.1939867160913318e+00, -1.3717788328984903e+00,
       3.1794937298234855e+00, -1.3816382149246580e+00,
       3.1921415780196885e+00, -1.3924243122487241e+00,
       3.2228108397569946e+00, -1.4028496414208076e+00,
       3.2541844953792607e+00, -1.4017157434603864e+00,
       3.3112501939990469e+00, -1.3945753488974726e+00,
       3.3665110836001246e+00, -1.3802798769069411e+00,
       3.4145250486645082e+00, -1.3536570258070009e+00,
       3.4584095417675957e+00, -1.3242561003393303e+00,
       3.5087487014811432e+00, -1.2828302371943132e+00,
       3.5335502588958594e+00, -1.2271419136163695e+00,
       3.5376992395890494e+00, -1.1694633004781478e+00,
       3.5260744599698000e+00, -1.1095574936610360e+00,
       3.5042118492412344e+00, -1.1005655442803188e+00,
       3.5253958415761448e+00, -1.1679087500136518e+00,
       3.5075881582011608e+00, -1.2267971734436451e+00,
       3.4758356456121948e+00, -1.2795411690433247e+00,
       3.4295396880724902e+00, -1.3220383250090504e+00,
       3.3898795327629534e+00, -1.3585781549085552e+00,
       3.3297444029028322e+00, -1.3827994260603762e+00,
       3.2734784820752543e+00, -1.4092962872567805e+00,
       3.2142480870183729e+00, -1.4191139397810619e+00,
       3.1676619047919599e+00, -1.4189438618071100e+00,
       3.1365684970372665e+00, -1.4113023237123188e+00,
       3.1204118760848609e+00, -1.3992994916162365e+00,
       3.1287803986594094e+00, -1.3871090681982627e+00,
       3.1571642005214917e+00, -1.3766483087613175e+00,
       3.2155366673467105e+00, -1.3681269235043958e+00,
       3.2964245619135020e+00, -1.3561174764780550e+00,
       3.4097635907119632e+00, -1.3484376169514294e+00,
       3.5225115901453625e+00, -1.3428143622245197e+00,
       3.5783473427349373e+00, -1.3413955670008455e+00,
       3.5391633002835845e+00, -1.3351097803566128e+00,
       3.5095877756271863e+00, -1.3234562954540698e+00,
       3.4562316533412991e+00, -1.3206655160189489e+00,
       3.3476218064737986e+00, -1.3352131382340284e+00,
       3.2203839529608502e+00, -1.3508183717931741e+00,
       3.1616394559820833e+00, -1.3563414082872056e+00,
       3.1581426958768666e+00, -1.3539340842658460e+00,
       3.1931356453661159e+00, -1.3460529228818705e+00,
       3.3075726854346952e+00, -1.3355393456391127e+00,
       3.4120604056792709e+00, -1.3206094956742311e+00,
       3.4862528538848570e+00, -1.3245197187429685e+00,
       3.5397703019846767e+00, -1.3359819963406201e+00,
       3.5713523688351061e+00, -1.3446024660338296e+00,
       3.5494625298939089e+00, -1.3462367237887998e+00,
       3.4402896742455753e+00, -1.3512483188678506e+00,
       3.3140403426032483e+00, -1.3589578348410867e+00,
       3.2220056139958295e+00, -1.3686845885849905e+00,
       3.1664429663312195e+00, -1.3752124950684927e+00,
       3.1307864659891633e+00, -1.3853923415561720e+00,
       3.1182721681065697e+00, -1.3969013248268198e+00,
       3.1291999369509180e+00, -1.4071390049146624e+00,
       3.1570323507543612e+00, -1.4174595845950395e+00,
       3.1937626025463115e+00, -1.4188720894877351e+00,
       3.2474307035939809e+00, -1.4111564590917851e+00,
       3.3115861126043313e+00, -1.3968860647636965e+00,
       3.3683169944646290e+00, -1.3692955896142498e+00,
       3.4147071597266860e+00, -1.3379713773652886e+00,
       3.4657981152203963e+00, -1.2927221758962157e+00,
       3.5077844560773372e+00, -1.2424348632432174e+00,
       3.5201550733348457e+00, -1.1804980218932817e+00,
       3.5181435515867712e+00, -1.1183970012415647e+00,
       3.5008052800557747e+00, -1.1086303012775771e+00,
       3.5010697058138827e+00, -1.1774538978631524e+00,
       3.4857590189617755e+00, -1.2418249500759364e+00,
       3.4365727403716644e+00, -1.2921382581574339e+00,
       3.3837690406652312e+00, -1.3319757503239975e+00,
       3.3403216441573278e+00, -1.3675067174107280e+00,
       3.2816114873359301e+00, -1.3954401765125735e+00,
       3.2191993562632568e+00, -1.4194014086238200e+00,
       3.1608856299498664e+00, -1.4275955638535107e+00,
       3.1113087146633971e+00, -1.4272471947906646e+00,
       3.0823971373748997e+00, -1.4252272430605601e+00,
       3.0699824272048999e+00, -1.4132435896792648e+00,
       3.0811449307995358e+00, -1.4040864986050687e+00,
       3.1020628953478377e+00, -1.3917293847808829e+00,
       3.1488175932563007e+00, -1.3815505685769776e+00,
       3.2165821037651492e+00, -1.3697092340005987e+00,
       3.3164951108795178e+00, -1.3593184756649077e+00,
       3.4429041694718481e+00, -1.3577972327688046e+00,
       3.5154388250709738e+00, -1.3649666829180105e+00,
       3.5060910602033446e+00, -1.3647325334798237e+00,
       3.4846577872789068e+00, -1.3631200001104371e+00,
       3.4255792300243590e+00, -1.3653525637611421e+00,
       3.3030923164768780e+00, -1.3761447751604157e+00,
       3.1797435604190820e+00, -1.3878881486103043e+00,
       3.1219275022432247e+00, -1.3921558138726164e+00,
       3.1170420916689885e+00, -1.3929687525539893e+00,
       3.1556668160689916e+00, -1.3857643489917169e+00,
       3.2731749761755204e+00, -1.3757685646260427e+00,
       3.3850105747618131e+00, -1.3587741535959492e+00,
       3.4667098049719036e+00, -1.3582379780016420e+00,
       3.5052909095118610e+00, -1.3618198189591759e+00,
       3.5177839508226145e+00, -1.3627384834950795e+00,
       3.4651445780305945e+00, -1.3600001320001776e+00,
       3.3457464139614030e+00, -1.3638590048775876e+00,
       3.2314743005151660e+00, -1.3713812035716426e+00,
       3.1563828088566974e+00, -1.3807278048685325e+00,
       3.1127831944040856e+00, -1.3910316367729454e+00,
       3.0773962209374730e+00, -1.4005465379244793e+00,
       3.0684867343663345e+00, -1.4124749254348459e+00,
       3.0762114866128942e+00, -1.4205294919575917e+00,
       3.0998303836636092e+00, -1.4274291065371867e+00,
       3.1425315041723838e+00, -1.4300909364592096e+00,
       3.1936832624828662e+00, -1.4217663465407444e+00,
       3.2614424495562937e+00, -1.4079082364656188e+00,
       3.3200867820131013e+00, -1.3815198970795093e+00,
       3.3737967376105717e+00, -1.3489938038592186e+00,
       3.4205455275157801e+00, -1.3029725164881945e+00,
       3.4837034103956102e+00, -1.2555805741964789e+00,
       3.5047961200492339e+00, -1.1929853449835943e+00,
       3.5086576126907838e+00, -1.1313476233951898e+00,
       3.4982750908016604e+00, -1.1195988285887881e+00,
       3.4865292210565220e+00, -1.1889413551728347e+00,
       3.4577949049362120e+00, -1.2537338478663871e+00,
       3.4033359334850117e+00, -1.3041381663558205e+00,
       3.3456261407255998e+00, -1.3414650271465380e+00,
       3.2954432559541971e+00, -1.3713587212299383e+00,
       3.2376868931802871e+00, -1.4061507962256670e+00,
       3.1742977631302431e+00, -1.4272044496535421e+00,
       3.1124435467697569e+00, -1.4356689418823823e+00,
       3.0664708482974365e+00, -1.4370425128129347e+00,
       3.0371976710558908e+00, -1.4314474570945368e+00,
       3.0298748135923712e+00, -1.4238124471825724e+00,
       3.0378652577292891e+00, -1.4166590408862656e+00,
       3.0558618478151138e+00, -1.4074315887971021e+00,
       3.0908202916342011e+00, -1.3962603764884176e+00,
       3.1457578090412386e+00, -1.3845381109771560e+00,
       3.2313953694297317e+00, -1.3773813886909523e+00,
       3.3476017380463734e+00, -1.3773534032605224e+00,
       3.4424283533270335e+00, -1.3774096698394720e+00,
       3.4690258854355234e+00, -1.3740479268832775e+00,
       3.4491800628781646e+00, -1.3765682806990562e+00,
       3.3950619691529162e+00, -1.3885686734396951e+00,
       3.2815159279109452e+00, -1.4032728677227486e+00,
       3.1660073642769491e+00, -1.4139378251457246e+00,
       3.1068235672603755e+00, -1.4232999780207598e+00,
       3.0988691302511970e+00, -1.4237730096547945e+00,
       3.1529264541811326e+00, -1.4173589167116309e+00,
       3.2668863105311465e+00, -1.4015384549617906e+00,
       3.3708037504924007e+00, -1.3852052160478543e+00,
       3.4391190926473674e+00, -1.3744127993552313e+00,
       3.4747403472079252e+00, -1.3727724297323545e+00,
       3.4566692927520646e+00, -1.3738326019980229e+00,
       3.3706915961801336e+00, -1.3744897805796972e+00,
       3.2505292676230009e+00, -1.3776356567530847e+00,
       3.1560753673126176e+00, -1.3849787587635574e+00,
       3.1016398271969190e+00, -1.3963691203502702e+00,
       3.0569856407570124e+00, -1.4035018362832301e+00,
       3.0385529430791487e+00, -1.4133791752540030e+00,
       3.0280485288888745e+00, -1.4239361013020069e+00,
       3.0354472813212747e+00, -1.4294268325360548e+00,
       3.0532261574412667e+00, -1.4339718602581903e+00,
       3.0962256089895415e+00, -1.4366309787630718e+00,
       3.1450177724487358e+00, -1.4281082270282097e+00,
       3.2143735569710401e+00, -1.4161998638251352e+00,
       3.2762099999330632e+00, -1.3894251162229314e+00,
       3.3345059552345147e+00, -1.3580070322233830e+00,
       3.3898080551468177e+00, -1.3162202463925405e+00,
       3.4487908327079917e+00, -1.2698742592532279e+00,
       3.4927176775044098e+00, -1.2057709425927166e+00,
       3.5094738531705794e+00, -1.1417036750977383e+00,
       3.4886665864802140e+00, -1.1264314428375719e+00,
       3.4638348012135043e+00, -1.1928487048389245e+00,
       3.4280539760834383e+00, -1.2597806236839246e+00,
       3.3719083924376516e+00, -1.3090865799059674e+00,
       3.3094302384884338e+00, -1.3457601354160036e+00,
       3.2561949575570668e+00, -1.3786338049838480e+00,
       3.2005415641539763e+00, -1.4136788217222718e+00,
       3.1391010378864221e+00, -1.4321538759552386e+00,
       3.0774704134227520e+00, -1.4394379644072164e+00,
       3.0383506638123272e+00, -1.4424479897437543e+00,
       3.0171915451281928e+00, -1.4410010767702284e+00,
       3.0134532107509533e+00, -1.4351759512918987e+00,
       3.0149408920509209e+00, -1.4252848353713183e+00,
       3.0290480776269901e+00, -1.4170133109746028e+00,
       3.0500818697399446e+00, -1.4089114309619848e+00,
       3.0890664469890039e+00, -1.4001604086576194e+00,
       3.1633131080264572e+00, -1.3940683346893796e+00,
       3.2673270632327345e+00, -1.3936109561049581e+00,
       3.3688591269586547e+00, -1.3901832450337810e+00,
       3.4221057212492560e+00, -1.3850923581449357e+00,
       3.4244738670907746e+00, -1.3894379983398037e+00,
       3.3796311828704275e+00, -1.4026488820658380e+00,
       3.2836438076768211e+00, -1.4225372322543619e+00,
       3.1697990031720740e+00, -1.4347668203639690e+00,
       3.0908208121387477e+00, -1.4370155066902450e+00,
       3.0874013413904291e+00, -1.4388691274664178e+00,
       3.1531324012048825e+00, -1.4380579192496887e+00,
       3.2663370080306691e+00, -1.4229475847284689e+00,
       3.3535571764790832e+00, -1.4010813945318279e+00,
       3.4218482842555642e+00, -1.3876429196661000e+00,
       3.4320590135693365e+00, -1.3832167297599445e+00,
       3.3845058960135228e+00, -1.3853376821648022e+00,
       3.2996663726837165e+00, -1.3935456038628082e+00,
       3.1883336615522442e+00, -1.3939793031359415e+00,
       3.1023935991254770e+00, -1.3982039337646828e+00,
       3.0561786996191276e+00, -1.4053993345022839e+00,
       3.0308566042931595e+00, -1.4132092843243935e+00,
       3.0146332383191572e+00, -1.4224397334372043e+00,
       3.0106864984062485e+00, -1.4327477318380559e+00,
       3.0152447739433486e+00, -1.4378730801246020e+00,
       3.0286377935476572e+00, -1.4408654061945745e+00,
       3.0676724915595854e+00, -1.4406665696253609e+00,
       3.1151549260538864e+00, -1.4334621706862849e+00,
       3.1827189772050892e+00, -1.4240089912531371e+00,
       3.2389318999344283e+00, -1.3963194017966252e+00,
       3.3007516102980219e+00, -1.3644091500100985e+00,
       3.3610515748867389e+00, -1.3226273721243611e+00,
       3.4210653879235506e+00, -1.2753670820234426e+00,
       3.4604347999251082e+00, -1.2130386872942269e+00,
       3.4915401053693742e+00, -1.1449305513679993e+00,
       3.4840438732083427e+00, -1.1298027549339920e+00,
       3.4397853320194063e+00, -1.1951890396687748e+00,
       3.4069871555801563e+00, -1.2642391288776815e+00,
       3.3505769012697497e+00, -1.3131497185834844e+00,
       3.2821390032900872e+00, -1.3487869940522907e+00,
       3.2306733497038129e+00, -1.3823747662959105e+00,
       3.1726767297795693e+00, -1.4164088835382629e+00,
       3.1124427908980867e+00, -1.4352960563897978e+00,
       3.0563498061877055e+00, -1.4419505527914023e+00,
       3.0273843314450244e+00, -1.4446601691836742e+00,
       3.0139168013814222e+00, -1.4441201830817034e+00,
       3.0179796336923772e+00, -1.4412428271219473e+00,
       3.0180825597672425e+00, -1.4321361233235668e+00,
       3.0296626438422058e+00, -1.4280873631951347e+00,
       3.0391538784788841e+00, -1.4184405503882340e+00,
       3.0724096329425881e+00, -1.4141202309555576e+00,
       3.1165490308770583e+00, -1.4094939899255643e+00,
       3.2079087035593039e+00, -1.4058712539445144e+00,
       3.3138205596958312e+00, -1.4042181101009967e+00,
       3.3725544074889884e+00, -1.3982402458003846e+00,
       3.3986466663288715e+00, -1.4013806364894008e+00,
       3.3616229398360060e+00, -1.4136396676545364e+00,
       3.2814393192415374e+00, -1.4327438559518271e+00,
       3.1738577900701714e+00, -1.4460528172686669e+00,
       3.0910551298109339e+00, -1.4474333467215901e+00,
       3.0872926569509209e+00, -1.4484698340850222e+00,
       3.1608738732507602e+00, -1.4463246419058242e+00,
       3.2644323454462589e+00, -1.4319002655991067e+00,
       3.3446488174575442e+00, -1.4133764192981122e+00,
       3.3960651350802542e+00, -1.3994773447751574e+00,
       3.3859257565869343e+00, -1.3948348115263551e+00,
       3.3275520616166587e+00, -1.3953364865836766e+00,
       3.2295432675518616e+00, -1.4000662298735655e+00,
       3.1392597467018426e+00, -1.4067165091391201e+00,
       3.0795230025695179e+00, -1.4106489433872678e+00,
       3.0397765454063022e+00, -1.4150993873837299e+00,
       3.0325214091976425e+00, -1.4269831926688070e+00,
       3.0259067696742217e+00, -1.4337317552915361e+00,
       3.0185057167211240e+00, -1.4379533860790461e+00,
       3.0145405109039407e+00, -1.4410732619749647e+00,
       3.0221336319550893e+00, -1.4411318466226986e+00,
       3.0532432168222532e+00, -1.4421227851770146e+00,
       3.0944546204643419e+00, -1.4366139932452680e+00,
       3.1603691196469068e+00, -1.4250892060012172e+00,
       3.2225287217214742e+00, -1.3980071091639474e+00,
       3.2800002260899692e+00, -1.3643933701529922e+00,
       3.3443469725303738e+00, -1.3258246578289250e+00,
       3.3961354184731465e+00, -1.2798089916076496e+00,
       3.4391139883029171e+00, -1.2180635737772627e+00,
       3.4715188199435647e+00, -1.1465811338687280e+00,
       3.4750811886988058e+00, -1.1309196362608374e+00,
       3.4305935000787238e+00, -1.2008160438619184e+00,
       3.3874814995591138e+00, -1.2667210234505666e+00,
       3.3223494380008192e+00, -1.3137383508876717e+00,
       3.2636324945851940e+00, -1.3497721660394737e+00,
       3.2102300272187532e+00, -1.3811898264037170e+00,
       3.1572422588431266e+00, -1.4133247957288895e+00,
       3.1010412738107527e+00, -1.4325554944579970e+00,
       3.0558195765580409e+00, -1.4407161719744550e+00,
       3.0338016141076767e+00, -1.4409650730575863e+00,
       3.0279305503103617e+00, -1.4453754972303356e+00,
       3.0351478202777926e+00, -1.4424532468168683e+00,
       3.0340700939784413e+00, -1.4354471663376684e+00,
       3.0411245523826769e+00, -1.4315146154858289e+00,
       3.0483788980148061e+00, -1.4254062972180783e+00,
       3.0667638088589499e+00, -1.4173914317160079e+00,
       3.1024370277978917e+00, -1.4142349747704546e+00,
       3.1723384842731188e+00, -1.4121950264068339e+00,
       3.2591706043409485e+00, -1.4055373516589038e+00,
       3.3306275427623930e+00, -1.4073099926834209e+00,
       3.3658992521258071e+00, -1.4094717627893321e+00,
       3.3504541696625241e+00, -1.4189430481793921e+00,
       3.2919533808526507e+00, -1.4378395772956425e+00,
       3.1819049161748003e+00, -1.4524994082304667e+00,
       3.0901259271896211e+00, -1.4549268084741671e+00,
       3.0839390971337175e+00, -1.4550809496361956e+00,
       3.1654015582475226e+00, -1.4519750317291971e+00,
       3.2720233168247979e+00, -1.4367039253273626e+00,
       3.3350808267939906e+00, -1.4169612528942424e+00,
       3.3694580644975685e+00, -1.4066283793695109e+00,
       3.3365321687509364e+00, -1.3965389431121096e+00,
       3.2808139871114439e+00, -1.4018588886551775e+00,
       3.1953609302873063e+00, -1.4105526000433055e+00,
       3.1200413424231193e+00, -1.4145974008102005e+00,
       3.0706516692036918e+00, -1.4164251233575311e+00,
       3.0493724151612596e+00, -1.4202633225898167e+00,
       3.0440625410013018e+00, -1.4282901833523973e+00,
       3.0346247783783098e+00, -1.4317042391652626e+00,
       3.0342032847771101e+00, -1.4362893491358715e+00,
       3.0286806695405972e+00, -1.4387338058645718e+00,
       3.0339444993361306e+00, -1.4401151820990052e+00,
       3.0538636378303528e+00, -1.4402160282341809e+00,
       3.0823725205424579e+00, -1.4312597278939867e+00,
       3.1429117739683088e+00, -1.4222854749738081e+00,
       3.2024339890830968e+00, -1.3956733727666739e+00,
       3.2622151071452867e+00, -1.3631184085239574e+00,
       3.3211571752197413e+00, -1.3240974689933496e+00,
       3.3720237238045385e+00, -1.2804349195145484e+00,
       3.4213283463649105e+00, -1.2218753917723519e+00,
       3.4511947675079711e+00, -1.1475217592345637e+00,
       3.4572216779933771e+00, -1.1306073277397064e+00,
       3.4236699164342834e+00, -1.2070204795632136e+00,
       3.3754289015423380e+00, -1.2648878934960694e+00,
       3.3095242699190393e+00, -1.3095924593073140e+00,
       3.2551497797064677e+00, -1.3425943966306573e+00,
       3.2038734447335724e+00, -1.3745678352322295e+00,
       3.1567580702579976e+00, -1.4058947233217249e+00,
       3.1103621617857349e+00, -1.4216855655554042e+00,
       3.0731901442253635e+00, -1.4299487518351557e+00,
       3.0627171312466830e+00, -1.4328372844502988e+00,
       3.0604519220760822e+00, -1.4327233032637829e+00,
       3.0658893304334143e+00, -1.4335006736214011e+00,
       3.0688854967261152e+00, -1.4296187989054399e+00,
       3.0680368073436526e+00, -1.4258950788761158e+00,
       3.0716275104607789e+00, -1.4234261377151436e+00,
       3.0813096266259197e+00, -1.4197722862449211e+00,
       3.1038084547238110e+00, -1.4132187644833347e+00,
       3.1650565515439899e+00, -1.4114984859257460e+00,
       3.2476074723189852e+00, -1.4111590656271042e+00,
       3.3068930799354135e+00, -1.4058272487134282e+00,
       3.3390481675471682e+00, -1.4047641143710849e+00,
       3.3401644001829913e+00, -1.4169767430639473e+00,
       3.2952159213712404e+00, -1.4388271294359487e+00,
       3.1875618087093982e+00, -1.4531324470369145e+00,
       3.0903688527187345e+00, -1.4556599161096275e+00,
       3.0847022026923576e+00, -1.4547764131434398e+00,
       3.1688333632466961e+00, -1.4523251458158892e+00,
       3.2711261258989834e+00, -1.4326153608245711e+00,
       3.3307226979240641e+00, -1.4158091071832808e+00,
       3.3417163371427354e+00, -1.4035158493125550e+00,
       3.3216600700789418e+00, -1.4022595052838622e+00,
       3.2597733787693097e+00, -1.4039883264255719e+00,
       3.1853400034368446e+00, -1.4100941110407539e+00,
       3.1263075789982748e+00, -1.4143802494686926e+00,
       3.0916946806738417e+00, -1.4162446547030825e+00,
       3.0767267656551529e+00, -1.4188089538522923e+00,
       3.0691831468043644e+00, -1.4191140678991523e+00,
       3.0698019725556343e+00, -1.4237459284593328e+00,
       3.0648477772044491e+00, -1.4249598761194511e+00,
       3.0645980729256386e+00, -1.4275381665679550e+00,
       3.0610686817567219e+00, -1.4290217379844847e+00,
       3.0712357230829004e+00, -1.4320336693080009e+00,
       3.0914281997109554e+00, -1.4215518086706367e+00,
       3.1430761497477548e+00, -1.4130881576179326e+00,
       3.2039264163796055e+00, -1.3904459936747020e+00,
       3.2516219945136053e+00, -1.3568416227627376e+00,
       3.3184771049923802e+00, -1.3229170267680987e+00,
       3.3591563143740686e+00, -1.2776944420612950e+00,
       3.4056137376033226e+00, -1.2206136527669043e+00,
       3.4477094849285805e+00, -1.1502644707161294e+00,
       3.4608573368534681e+00, -1.1311297393535023e+00,
       3.4226783364923579e+00, -1.2054307143580945e+00,
       3.3635904479070460e+00, -1.2602430041699808e+00,
       3.3103935563774147e+00, -1.3014535148824864e+00,
       3.2560141436622843e+00, -1.3328110687539352e+00,
       3.2173844691521287e+00, -1.3642359276124414e+00,
       3.1681257753917498e+00, -1.3910528105589479e+00,
       3.1392634247945383e+00, -1.4103594881565615e+00,
       3.1196713682391066e+00, -1.4191311279854855e+00,
       3.1106288637879280e+00, -1.4200034126272651e+00,
       3.1102818399373136e+00, -1.4184844883565677e+00,
       3.1203753429996146e+00, -1.4187111817307776e+00,
       3.1253992744679246e+00, -1.4178666323292219e+00,
       3.1357277018972787e+00, -1.4158441604251635e+00,
       3.1361031993663242e+00, -1.4145463534627454e+00,
       3.1258968557689437e+00, -1.4144019134575532e+00,
       3.1321469532486237e+00, -1.4119984577726101e+00,
       3.1705243941213230e+00, -1.4071716919366672e+00,
       3.2430585215866206e+00, -1.4057383114059543e+00,
       3.3012847598394028e+00, -1.4000699796924589e+00,
       3.3442309468798981e+00, -1.4019847158535406e+00,
       3.3389267270024368e+00, -1.4104352153851163e+00,
       3.2944943645241374e+00, -1.4306828830466531e+00,
       3.1866729157534923e+00, -1.4503762777826474e+00,
       3.0955929260228721e+00, -1.4532769105956500e+00,
       3.0913138045994391e+00, -1.4535519641030015e+00,
       3.1738248424701103e+00, -1.4496639689163462e+00,
       3.2745796375219247e+00, -1.4290076483390552e+00,
       3.3293023651985272e+00, -1.4089635056298730e+00,
       3.3450014796854819e+00, -1.3982676221107122e+00,
       3.3245296051486606e+00, -1.3982147096812452e+00,
       3.2605220056975992e+00, -1.3998192126054394e+00,
       3.1930319093866215e+00, -1.4052718313041654e+00,
       3.1425461286893333e+00, -1.4050979651748885e+00,
       3.1344760516987233e+00, -1.4061929835878155e+00,
       3.1363813557589602e+00, -1.4105458081472122e+00,
       3.1332309909145470e+00, -1.4092039786020789e+00,
       3.1316842365570849e+00, -1.4099395163378925e+00,
       3.1227804800287573e+00, -1.4130631774139077e+00,
       3.1121857762367795e+00, -1.4106564819529248e+00,
       3.1127876442454796e+00, -1.4167957005739313e+00,
       3.1165533863966735e+00, -1.4158849243557337e+00,
       3.1260862771847595e+00, -1.4110384572391454e+00,
       3.1604834080531816e+00, -1.3987569519507117e+00,
       3.2118751343770491e+00, -1.3809225543044874e+00,
       3.2609836560543375e+00, -1.3503337294360065e+00,
       3.3132322992523728e+00, -1.3148163398264241e+00,
       3.3576296269162729e+00, -1.2715202559303964e+00,
       3.3978752888119206e+00, -1.2193633777814898e+00,
       3.4420954033325830e+00, -1.1456123512155152e+00,
       3.4697654593598681e+00, -1.1276530702882011e+00,
       3.4244939508667751e+00, -1.1979208550123135e+00,
       3.3652355232188325e+00, -1.2529938948201516e+00,
       3.3167025940272676e+00, -1.2947923746166334e+00,
       3.2827257269309991e+00, -1.3294429118131910e+00,
       3.2466893416164360e+00, -1.3558113545337325e+00,
       3.2021965004571924e+00, -1.3763396881708927e+00,
       3.1812840295891291e+00, -1.3940090964752054e+00,
       3.1715201215870397e+00, -1.3960735452120110e+00,
       3.1726190953073146e+00, -1.3963052945289229e+00,
       3.1861057742455010e+00, -1.3965518297623400e+00,
       3.1926768001948616e+00, -1.3948498704727574e+00,
       3.2119499076357041e+00, -1.3979612410703359e+00,
       3.2198581182590762e+00, -1.3918804666764137e+00,
       3.2329475110675761e+00, -1.3953330745787145e+00,
       3.2179706191741495e+00, -1.3967475106731722e+00,
       3.2025333538362442e+00, -1.3984417340471298e+00,
       3.2072180049061365e+00, -1.3996323618754558e+00,
       3.2529395524640923e+00, -1.3970488088894857e+00,
       3.3089509869824325e+00, -1.3944459303345771e+00,
       3.3496946783872819e+00, -1.3918353562528081e+00,
       3.3516718196189395e+00, -1.4024527397488942e+00,
       3.2959069725726184e+00, -1.4209712911699404e+00,
       3.1878050377965468e+00, -1.4426082932453341e+00,
       3.0933467694547159e+00, -1.4486276142928942e+00,
       3.0867264095414750e+00, -1.4480026447772609e+00,
       3.1758558339456959e+00, -1.4463134814237195e+00,
       3.2767683034512363e+00, -1.4243791925240299e+00,
       3.3344755603339897e+00, -1.3965416615379334e+00,
       3.3537479683596016e+00, -1.3870092548908366e+00,
       3.3267937450424978e+00, -1.3892809026354178e+00,
       3.2783629075966574e+00, -1.3951004177930546e+00,
       3.2254454311554417e+00, -1.3957241807630769e+00,
       3.2064434755362790e+00, -1.3937259410378910e+00,
       3.2205998597953425e+00, -1.3925971012543543e+00,
       3.2259983541356716e+00, -1.3871948149645927e+00,
       3.2176895689111107e+00, -1.3828937444641167e+00,
       3.2026666905178218e+00, -1.3862088158045160e+00,
       3.1950342503013838e+00, -1.3905571937962753e+00,
       3.1849301419221279e+00, -1.3924843079942830e+00,
       3.1729432587243274e+00, -1.3935996262463481e+00,
       3.1708599896198009e+00, -1.3977772141809068e+00,
       3.1794980684219643e+00, -1.3946380470927484e+00,
       3.1970636280862328e+00, -1.3837592927361486e+00,
       3.2416875449799480e+00, -1.3691934891649813e+00,
       3.2776939309003441e+00, -1.3370097393462028e+00,
       3.3261949121518186e+00, -1.3038002901026216e+00,
       3.3549691186318196e+00, -1.2610467414667828e+00,
       3.4032206344784579e+00, -1.2110832801701268e+00,
       3.4520852114790492e+00, -1.1418002907588995e+00,
       3.4796011700708025e+00, -1.1186655986151510e+00,
       3.4241439249182317e+00, -1.1907416253811944e+00,
       3.3760192055972138e+00, -1.2444383188183936e+00,
       3.3288871095422072e+00, -1.2783156123998145e+00,
       3.3010037134462187e+00, -1.3128693983644959e+00,
       3.2828210045165211e+00, -1.3380580826098021e+00,
       3.2659773303225030e+00, -1.3559055576375492e+00,
       3.2627917717668184e+00, -1.3666433915283593e+00,
       3.2700207272190158e+00, -1.3750263221862491e+00,
       3.2832113744219451e+00, -1.3793546915496875e+00,
       3.2966920694445307e+00, -1.3750064242914166e+00,
       3.3112457088827263e+00, -1.3719609162345303e+00,
       3.3231839366740346e+00, -1.3697223182629639e+00,
       3.3367559020482824e+00, -1.3686501914281213e+00,
       3.3617879088604359e+00, -1.3714260547343609e+00,
       3.3545049312846023e+00, -1.3710502110881662e+00,
       3.3234052692468059e+00, -1.3731079473787664e+00,
       3.2895432764618926e+00, -1.3808014544042984e+00,
       3.2997351648030970e+00, -1.3848964322531152e+00,
       3.3312760790539553e+00, -1.3795750858425975e+00,
       3.3654058313971804e+00, -1.3794055965952909e+00,
       3.3651149757353616e+00, -1.3889567565003673e+00,
       3.3080245438979512e+00, -1.4102245258938415e+00,
       3.1902032337707715e+00, -1.4317835070454497e+00,
       3.0914759264732359e+00, -1.4392240458377994e+00,
       3.0873861729470651e+00, -1.4431654925561130e+00,
       3.1749143613290305e+00, -1.4367505687613142e+00,
       3.2823865558755405e+00, -1.4102919523817372e+00,
       3.3541666769144118e+00, -1.3857298299717944e+00,
       3.3681906577386518e+00, -1.3757752299571349e+00,
       3.3489128579334961e+00, -1.3795071501280902e+00,
       3.3192318420120581e+00, -1.3800336833616773e+00,
       3.3030019861839266e+00, -1.3740872856211794e+00,
       3.3181940525387672e+00, -1.3660878050165508e+00,
       3.3540589070908173e+00, -1.3648351170386377e+00,
       3.3478746585547885e+00, -1.3581402428102232e+00,
       3.3343494521708266e+00, -1.3582988544778345e+00,
       3.3117077694485335e+00, -1.3631327504707953e+00,
       3.2991465527814818e+00, -1.3670555235176653e+00,
       3.2909608320030714e+00, -1.3734503627827772e+00,
       3.2851285399426722e+00, -1.3762995714359851e+00,
       3.2687535762179460e+00, -1.3770686027910755e+00,
       3.2571248012562162e+00, -1.3713509092753251e+00,
       3.2633851401955729e+00, -1.3604434191993320e+00,
       3.2803793988543011e+00, -1.3474749330019113e+00,
       3.3007274071156294e+00, -1.3221622450425574e+00,
       3.3281881687555224e+00, -1.2876078524241628e+00,
       3.3661912562856839e+00, -1.2504195040050952e+00,
       3.4098075372049284e+00, -1.2022408720692945e+00,
       3.4617672922254648e+00, -1.1283157655354377e+00,
       3.4811931497207063e+00, -1.1011846895796484e+00,
       3.4432308312382922e+00, -1.1828608677402714e+00,
       3.3931114073261179e+00, -1.2325292693939625e+00,
       3.3602358084703838e+00, -1.2650227074914699e+00,
       3.3460749373441736e+00, -1.2960971106500734e+00,
       3.3443652202215861e+00, -1.3168397831982674e+00,
       3.3464358773297649e+00, -1.3274101694464446e+00,
       3.3742636203954297e+00, -1.3385035042028324e+00,
       3.4070103761038704e+00, -1.3410947360103920e+00,
       3.4251561027077146e+00, -1.3406381179823874e+00,
       3.4324811200410141e+00, -1.3419552005342787e+00,
       3.4394489630204572e+00, -1.3406448979132048e+00,
       3.4576229932756610e+00, -1.3328151247880986e+00,
       3.4757484510809320e+00, -1.3299498200985429e+00,
       3.5046701277840331e+00, -1.3316923480203109e+00,
       3.5197023312146851e+00, -1.3403417215805502e+00,
       3.5140026573817265e+00, -1.3454093743877806e+00,
       3.4413848312833104e+00, -1.3515698683254933e+00,
       3.3790140352375260e+00, -1.3576282160077002e+00,
       3.3709770891612436e+00, -1.3602239187589387e+00,
       3.3933688538707587e+00, -1.3626535621907521e+00,
       3.3834994471709940e+00, -1.3743041974937007e+00,
       3.3171737645952333e+00, -1.3965287152190855e+00,
       3.1836407442875334e+00, -1.4225853956789787e+00,
       3.0898131083008882e+00, -1.4325494890976638e+00,
       3.0833265943735615e+00, -1.4340814421437380e+00,
       3.1638620651066134e+00, -1.4224332454034783e+00,
       3.2960444616596467e+00, -1.3994722510794853e+00,
       3.3675963400284914e+00, -1.3740594109097164e+00,
       3.3932894855532321e+00, -1.3583054026797785e+00,
       3.3913567759559973e+00, -1.3569560844422843e+00,
       3.3923295293163296e+00, -1.3548241820789315e+00,
       3.4236660328344914e+00, -1.3443911904436812e+00,
       3.4830964087613836e+00, -1.3401102521054207e+00,
       3.5144347293999196e+00, -1.3341751272047333e+00,
       3.4916237452654562e+00, -1.3272593309480540e+00,
       3.4669889587951648e+00, -1.3289936420173563e+00,
       3.4412359252052025e+00, -1.3333095554635079e+00,
       3.4155961221880600e+00, -1.3366621086203490e+00,
       3.4125220219077961e+00, -1.3408766746046330e+00,
       3.4152180393505707e+00, -1.3400147657422288e+00,
       3.4000638194161907e+00, -1.3396848568805799e+00,
       3.3772432999608637e+00, -1.3378407191729680e+00,
       3.3526348318693002e+00, -1.3308832305171105e+00,
       3.3429166629019438e+00, -1.3223440075913138e+00,
       3.3407621827149745e+00, -1.3038940770757359e+00,
       3.3587962148304129e+00, -1.2755692855180238e+00,
       3.3846396429902104e+00, -1.2370534110295772e+00,
       3.4225665677382633e+00, -1.1872063335479206e+00,
       3.4837614719164649e+00, -1.1144951661777336e+00,
       3.4989219697244782e+00, -1.0838237100162624e+00,
       3.4710802685861455e+00, -1.1687617615635031e+00,
       3.4207438011266542e+00, -1.2190127272009419e+00,
       3.3986128833196232e+00, -1.2547672645356809e+00,
       3.3979169625028609e+00, -1.2836785402184308e+00,
       3.4245507659855665e+00, -1.2914039687584604e+00,
       3.4642837107333131e+00, -1.2878148003843417e+00,
       3.5204247494576100e+00, -1.2818856194522850e+00,
       3.5620790581190427e+00, -1.2839136403718687e+00,
       3.5679907912941826e+00, -1.2931531109882228e+00,
       3.5563521756602268e+00, -1.2953044697920439e+00,
       3.5530143067281750e+00, -1.2914752648789478e+00,
       3.5866213461331720e+00, -1.2809345900214717e+00,
       3.6334596412755724e+00, -1.2820694367667109e+00,
       3.6592137354126555e+00, -1.2883258407686571e+00,
       3.6850670950006887e+00, -1.3046859203988153e+00,
       3.6997045109686924e+00, -1.3137329269455029e+00,
       3.6160474760425205e+00, -1.3191086283782607e+00,
       3.4791482580541540e+00, -1.3175464207404115e+00,
       3.4145349833452392e+00, -1.3244467030795308e+00,
       3.4183974986640013e+00, -1.3365941642329773e+00,
       3.4080451385743267e+00, -1.3564652283372747e+00,
       3.3230254260862142e+00, -1.3883508572449483e+00,
       3.1765209003988133e+00, -1.4134658148262054e+00,
