%YAML:1.0
my_nn: !!opencv-ml-ann-mlp
   layer_sizes: !!opencv-matrix
      rows: 1
      cols: 3
      dt: i
      data: [ 2500, 12, 2 ]
   activation_function: SIGMOID_SYM
   f_param1: 1.
   f_param2: 1.
   min_val: -9.4999999999999996e-01
   max_val: 9.4999999999999996e-01
   min_val1: -9.7999999999999998e-01
   max_val1: 9.7999999999999998e-01
   training_params:
      train_method: RPROP
      dw0: 1.0000000000000001e-01
      dw_plus: 1.2000000000000000e+00
      dw_minus: 5.0000000000000000e-01
      dw_min: 1.1920928955078125e-07
      dw_max: 50.
      term_criteria: { epsilon:9.9999997764825821e-03, iterations:1000 }
   input_scale: [ 3.2459610215121311e+00, -9.2826112145544315e-01,
       3.2868721237563445e+00, -9.3140208441978878e-01,
       3.3636580160439551e+00, -9.3481676409516279e-01,
       3.4324591877927562e+00, -9.4207941209108492e-01,
       3.4909572604658359e+00, -9.4583895185723399e-01,
       3.5739825760625474e+00, -9.6222044625969838e-01,
       3.6302355533385864e+00, -9.7168117363206541e-01,
       3.7277123898836741e+00, -9.9566699589924046e-01,
       3.7745103822568327e+00, -1.0156867837311288e+00,
       3.8059489774195878e+00, -1.0410348997373360e+00,
       3.8300261684268859e+00, -1.0751804470126469e+00,
       3.8478004973172952e+00, -1.1080629363308274e+00,
       3.8567083273907565e+00, -1.1435164718469200e+00,
       3.8426741685210182e+00, -1.1777979670752379e+00,
       3.8202742153936176e+00, -1.2076917434213486e+00,
       3.7844977528262276e+00, -1.2348354531389485e+00,
       3.7331293600551341e+00, -1.2544707790517839e+00,
       3.6749414550364135e+00, -1.2672474562157259e+00,
       3.6323936283837428e+00, -1.2751796317718205e+00,
       3.6000825134931365e+00, -1.2845904562453023e+00,
       3.5669903746898481e+00, -1.2963263908130029e+00,
       3.5356035353201003e+00, -1.3051749124557670e+00,
       3.5208864893093099e+00, -1.3075346067318563e+00,
       3.5097039294027521e+00, -1.3089918506581351e+00,
       3.5121494385698959e+00, -1.3083332493156139e+00,
       3.5169746316552715e+00, -1.3058484399805470e+00,
       3.5155421027167026e+00, -1.3046624150799080e+00,
       3.5117837879806939e+00, -1.3058431634494476e+00,
       3.5333109766317934e+00, -1.3040325711656875e+00,
       3.5686876441924955e+00, -1.2998982902103258e+00,
       3.5910438524658033e+00, -1.2933143046399993e+00,
       3.6317131028409499e+00, -1.2825438450601743e+00,
       3.6725648895556793e+00, -1.2699205913760447e+00,
       3.7349647945528441e+00, -1.2550794258334461e+00,
       3.7776371403391371e+00, -1.2331600585673386e+00,
       3.8050918775985085e+00, -1.2117650304868364e+00,
       3.8197745408956769e+00, -1.1784143495122499e+00,
       3.8100058690653995e+00, -1.1446559673379622e+00,
       3.8217866884229101e+00, -1.1159250108762622e+00,
       3.8234870276026003e+00, -1.0819526121059022e+00,
       3.7942798896039274e+00, -1.0493041097600599e+00,
       3.7844903238228240e+00, -1.0230503037062748e+00,
       3.7226361175351408e+00, -9.9448935885358380e-01,
       3.6377851127502865e+00, -9.7388003748829211e-01,
       3.5641943905311790e+00, -9.6426235677016525e-01,
       3.5044355200101571e+00, -9.5142024198462938e-01,
       3.4360163824379875e+00, -9.4316789098897491e-01,
       3.3636869178187645e+00, -9.3678294003932838e-01,
       3.3040201061041743e+00, -9.2995900525756270e-01,
       3.2577235894373673e+00, -9.2691744386558517e-01,
       3.2494911400258095e+00, -9.2554742374148524e-01,
       3.2938160320797736e+00, -9.3075700759421043e-01,
       3.3686426627955663e+00, -9.3424471865181657e-01,
       3.4484539358805550e+00, -9.4222549243255838e-01,
       3.4942636354305106e+00, -9.4815298718323571e-01,
       3.5765710555610015e+00, -9.6180041667862148e-01,
       3.6463731594241819e+00, -9.7681002557118157e-01,
       3.7223725113086510e+00, -9.9972087441390467e-01,
       3.7832673241211130e+00, -1.0279189995756848e+00,
       3.8047573304632483e+00, -1.0550168455477615e+00,
       3.8154516433138466e+00, -1.0984276604885976e+00,
       3.8269906472565247e+00, -1.1325772509251808e+00,
       3.8171721802416712e+00, -1.1694664495320772e+00,
       3.8140633023627588e+00, -1.2041886034884610e+00,
       3.7749721492658765e+00, -1.2382995348388788e+00,
       3.7347133199242428e+00, -1.2584003849376362e+00,
       3.6867225811394300e+00, -1.2778689332993800e+00,
       3.6396576721057512e+00, -1.2901890501613029e+00,
       3.6090818128548077e+00, -1.3036474503385904e+00,
       3.5627794810554705e+00, -1.3106634536999957e+00,
       3.5341382080343902e+00, -1.3196777790158214e+00,
       3.4979207180944201e+00, -1.3237839056084697e+00,
       3.4869326011795261e+00, -1.3273314581111828e+00,
       3.4819845961411229e+00, -1.3293239014878968e+00,
       3.4910155932970874e+00, -1.3287945172863356e+00,
       3.4873555370829665e+00, -1.3282286145151863e+00,
       3.4864802259973300e+00, -1.3253003482664591e+00,
       3.4858693203579976e+00, -1.3245826200104478e+00,
       3.4922062065259110e+00, -1.3205116782968327e+00,
       3.5199777255750626e+00, -1.3174350967113377e+00,
       3.5607246412779658e+00, -1.3160485773137287e+00,
       3.5881401860152011e+00, -1.3049927007592708e+00,
       3.6301321502488326e+00, -1.2948467426643624e+00,
       3.6718981290023556e+00, -1.2794708970028181e+00,
       3.7351189999104051e+00, -1.2630483858081094e+00,
       3.7640944855680671e+00, -1.2399288813587874e+00,
       3.7931373192208659e+00, -1.2080157797847475e+00,
       3.8007051131889908e+00, -1.1694875552984125e+00,
       3.8002881115556075e+00, -1.1401733333235113e+00,
       3.7890598523557357e+00, -1.1045137690194464e+00,
       3.7763587380673278e+00, -1.0669481675801620e+00,
       3.7505228743635595e+00, -1.0304409316985403e+00,
       3.7030257666137549e+00, -1.0028172424417765e+00,
       3.6460903243753497e+00, -9.7595268623721954e-01,
       3.5613317952738242e+00, -9.6200760278257536e-01,
       3.5163494538702231e+00, -9.5393160888710438e-01,
       3.4540840261572954e+00, -9.4345185802312681e-01,
       3.3824322963470750e+00, -9.3581662391532827e-01,
       3.3299738033234179e+00, -9.3205356392914718e-01,
       3.2712275522645453e+00, -9.2506455734495663e-01,
       3.2307291844838173e+00, -9.2533949428911333e-01,
       3.2913629899187518e+00, -9.2936188302863154e-01,
       3.3675982448728328e+00, -9.3712105040698890e-01,
       3.4511165606394978e+00, -9.4481559050247998e-01,
       3.5100870803759441e+00, -9.5089975962728623e-01,
       3.5760776504421172e+00, -9.6909989652419837e-01,
       3.6376931861995736e+00, -9.8922919808365195e-01,
       3.7225546639391731e+00, -1.0100298896827598e+00,
       3.7737205661812911e+00, -1.0414421411212595e+00,
       3.7916637003381339e+00, -1.0805016769853089e+00,
       3.7867222980716435e+00, -1.1234619165986988e+00,
       3.7874542865910668e+00, -1.1578313735253090e+00,
       3.7843931118003185e+00, -1.1965011179704612e+00,
       3.7643916895719420e+00, -1.2310112801422082e+00,
       3.7440038871959089e+00, -1.2608952834597924e+00,
       3.6852537699704513e+00, -1.2786871268356506e+00,
       3.6480182601446161e+00, -1.2988449329892113e+00,
       3.6251160462971947e+00, -1.3139360075443098e+00,
       3.5898845048444779e+00, -1.3231542644231775e+00,
       3.5481976943012064e+00, -1.3297113055195480e+00,
       3.5204956779731789e+00, -1.3325993529512050e+00,
       3.4954453654236621e+00, -1.3310473475809779e+00,
       3.4791415429845185e+00, -1.3355600628524340e+00,
       3.4784710210707286e+00, -1.3352004712141645e+00,
       3.4780723140131804e+00, -1.3371440671636268e+00,
       3.4818852436389687e+00, -1.3375794212721335e+00,
       3.4754522585098795e+00, -1.3359212303001216e+00,
       3.4819629362896918e+00, -1.3335514863810398e+00,
       3.4928097381486745e+00, -1.3297168650339646e+00,
       3.5070605646614745e+00, -1.3306582693028033e+00,
       3.5347441357510818e+00, -1.3275503047752144e+00,
       3.5740560539500406e+00, -1.3209836645122051e+00,
       3.6102485047714707e+00, -1.3154847135388408e+00,
       3.6337957528239904e+00, -1.3018551817426320e+00,
       3.6778035335632433e+00, -1.2831173767043993e+00,
       3.7185816768952349e+00, -1.2630036162616305e+00,
       3.7600447189714505e+00, -1.2333742685395606e+00,
       3.7764016820241704e+00, -1.1973111297318695e+00,
       3.7835285866240200e+00, -1.1613492672736323e+00,
       3.7650557692036508e+00, -1.1277428700982528e+00,
       3.7614758821304974e+00, -1.0928057643241933e+00,
       3.7457640085497919e+00, -1.0490927658275091e+00,
       3.7013374029774706e+00, -1.0145149612597677e+00,
       3.6522768389270084e+00, -9.8971771776864814e-01,
       3.5637918376958644e+00, -9.6797697828901297e-01,
       3.5154754246369659e+00, -9.5343820706358240e-01,
       3.4597026786789704e+00, -9.4578462794836604e-01,
       3.3832083254609944e+00, -9.3574786548385913e-01,
       3.3263367345287547e+00, -9.2898333331971938e-01,
       3.2647699971994122e+00, -9.2400931900656336e-01,
       3.2434244561125007e+00, -9.2698517033769345e-01,
       3.3100205681657378e+00, -9.3287608740363703e-01,
       3.3719799025179293e+00, -9.3304584230885546e-01,
       3.4519611795248837e+00, -9.4177147423194607e-01,
       3.5332247696901358e+00, -9.5433058904943757e-01,
       3.5942207184060777e+00, -9.8134957073027151e-01,
       3.6414163436665725e+00, -9.9820981748220328e-01,
       3.7070779322802205e+00, -1.0234297948188538e+00,
       3.7583836497730889e+00, -1.0573710897791906e+00,
       3.7734310662534414e+00, -1.1084161798642416e+00,
       3.7745055287431648e+00, -1.1491867163221268e+00,
       3.7680897759706697e+00, -1.1850651582009735e+00,
       3.7510138637187032e+00, -1.2214203305517846e+00,
       3.7221621133965477e+00, -1.2517898092266033e+00,
       3.6900973572568043e+00, -1.2804359846882767e+00,
       3.6535068873108050e+00, -1.3007434548228960e+00,
       3.6341587963095696e+00, -1.3170316825735924e+00,
       3.6177145247220692e+00, -1.3256647963567729e+00,
       3.5875661179300242e+00, -1.3345261043688368e+00,
       3.5501861435214699e+00, -1.3349298602860815e+00,
       3.5233371829759523e+00, -1.3315510122690799e+00,
       3.4997637983392429e+00, -1.3265187766378110e+00,
       3.4907700608935568e+00, -1.3256699672522765e+00,
       3.4829498156165264e+00, -1.3296961839355277e+00,
       3.4973121172496087e+00, -1.3324736272835476e+00,
       3.4961848932650890e+00, -1.3319946999412982e+00,
       3.4956591454364361e+00, -1.3320150112934499e+00,
       3.5009766330162155e+00, -1.3334926678083174e+00,
       3.5034100787057931e+00, -1.3329442584354734e+00,
       3.5233239196199722e+00, -1.3354756288142833e+00,
       3.5453988266271561e+00, -1.3357183344881562e+00,
       3.5678776964964372e+00, -1.3368613497630115e+00,
       3.5958523182709685e+00, -1.3283901305050572e+00,
       3.6132951351199503e+00, -1.3211398545379009e+00,
       3.6392603155343553e+00, -1.3020468017401468e+00,
       3.6733225754718370e+00, -1.2839802328118854e+00,
       3.7168506626874680e+00, -1.2601265728317770e+00,
       3.7506195006438094e+00, -1.2270095490837036e+00,
       3.7565298454397320e+00, -1.1881126839518179e+00,
       3.7570972780454479e+00, -1.1504153823579164e+00,
       3.7459109469743357e+00, -1.1141336410697100e+00,
       3.7485669083333559e+00, -1.0761008699843075e+00,
       3.7011231864962308e+00, -1.0347535858686465e+00,
       3.6545978126219323e+00, -1.0046187784187228e+00,
       3.5813394336373143e+00, -9.7667124450437326e-01,
       3.5208796686148180e+00, -9.5499968035574745e-01,
       3.4582703478101520e+00, -9.4573550230804537e-01,
       3.3827531488406075e+00, -9.3624034921573662e-01,
       3.3199723443681344e+00, -9.2836549486796249e-01,
       3.2596401396554531e+00, -9.2411806433275101e-01,
       3.2376795360708264e+00, -9.2529392597662685e-01,
       3.3046694606216622e+00, -9.3041865571904048e-01,
       3.3743579224977096e+00, -9.3630341094784830e-01,
       3.4546060466545492e+00, -9.4245170396642308e-01,
       3.5388830309451826e+00, -9.6650226984892040e-01,
       3.6211509833464346e+00, -9.8850153525076756e-01,
       3.6437053400860795e+00, -1.0066360012145077e+00,
       3.6898607624683422e+00, -1.0381171794247264e+00,
       3.7440892777895431e+00, -1.0825153397472973e+00,
       3.7421905037593897e+00, -1.1314607368915501e+00,
       3.7539877664820169e+00, -1.1729711228239557e+00,
       3.7200481586837397e+00, -1.2033305211054548e+00,
       3.7020054545240932e+00, -1.2410713917770120e+00,
       3.6852175533112206e+00, -1.2747047165095642e+00,
       3.6608194303104726e+00, -1.3003513963058477e+00,
       3.6371448804741262e+00, -1.3166970167247192e+00,
       3.6264609740614588e+00, -1.3254210081036224e+00,
       3.6134543446288512e+00, -1.3312321632991924e+00,
       3.5905047755466972e+00, -1.3345995487799316e+00,
       3.5708102964542974e+00, -1.3310790365704890e+00,
       3.5471628438964826e+00, -1.3248462088662365e+00,
       3.5360783106920488e+00, -1.3200790262111626e+00,
       3.5215546155642774e+00, -1.3155230800417264e+00,
       3.5187960468315702e+00, -1.3141211810321758e+00,
       3.5208258351029382e+00, -1.3156377720776182e+00,
       3.5216344052810618e+00, -1.3163844189335976e+00,
       3.5354680716808340e+00, -1.3213669304582771e+00,
       3.5335967123743273e+00, -1.3195793935195073e+00,
       3.5354307498566757e+00, -1.3235419013130627e+00,
       3.5474975607603505e+00, -1.3284954843294241e+00,
       3.5599048116684542e+00, -1.3352180945926475e+00,
       3.5737186482995429e+00, -1.3371833802576945e+00,
       3.5872601055817674e+00, -1.3342756552400263e+00,
       3.6029543283331034e+00, -1.3277558977398800e+00,
       3.6174615964657679e+00, -1.3173414857080235e+00,
       3.6352409634442218e+00, -1.3020565024026673e+00,
       3.6798158058436949e+00, -1.2826982833687790e+00,
       3.7213796057062405e+00, -1.2536322784876095e+00,
       3.7340381018258459e+00, -1.2169977689304943e+00,
       3.7610834952484469e+00, -1.1776273818405834e+00,
       3.7335144036374310e+00, -1.1387459230652832e+00,
       3.7442297505927056e+00, -1.1016311488167110e+00,
       3.6928002021348560e+00, -1.0532489403002110e+00,
       3.6531941827963506e+00, -1.0174342317183824e+00,
       3.5880254008291064e+00, -9.8840340760430334e-01,
       3.5348539527640708e+00, -9.6842510621380773e-01,
       3.4595041654841165e+00, -9.4695000761031356e-01,
       3.3909767229357590e+00, -9.3846103027900918e-01,
       3.3240149164438844e+00, -9.3110544766520276e-01,
       3.2527462655616266e+00, -9.2722492144534374e-01,
       3.2223121729648243e+00, -9.2584941528539932e-01,
       3.3064290200992161e+00, -9.3475648029559089e-01,
       3.3884601481527419e+00, -9.4166175999230117e-01,
       3.4616497056289921e+00, -9.5519494332750376e-01,
       3.5518866604207107e+00, -9.7801530233121203e-01,
       3.6179651071263663e+00, -9.9864692257063015e-01,
       3.6601552086602251e+00, -1.0250442412855851e+00,
       3.6771187225320223e+00, -1.0612038281985341e+00,
       3.7222330653352271e+00, -1.1086667441189153e+00,
       3.7225090120477069e+00, -1.1579384543929503e+00,
       3.7181410330846765e+00, -1.1931817909321800e+00,
       3.6834340590084373e+00, -1.2278234411759539e+00,
       3.6651636884276080e+00, -1.2620611480102013e+00,
       3.6519039093835617e+00, -1.2934572089657950e+00,
       3.6367939905061752e+00, -1.3108952881212488e+00,
       3.6300560522961431e+00, -1.3245309025605640e+00,
       3.6294418235699339e+00, -1.3313285552475853e+00,
       3.6256471794565255e+00, -1.3340711172220854e+00,
       3.6024180586272649e+00, -1.3297808250805103e+00,
       3.5869598435470893e+00, -1.3200350142056430e+00,
       3.5763180198038009e+00, -1.3138655739178577e+00,
       3.5674768827733967e+00, -1.3092394745591771e+00,
       3.5639704260251857e+00, -1.3062230353070536e+00,
       3.5676077953000718e+00, -1.3037363007045522e+00,
       3.5666813930361658e+00, -1.3045193566288746e+00,
       3.5576122265367918e+00, -1.3038501228885002e+00,
       3.5586593907114414e+00, -1.3037963419048924e+00,
       3.5685287346683769e+00, -1.3089576244750725e+00,
       3.5745968872015284e+00, -1.3141667638359098e+00,
       3.5924939513343452e+00, -1.3152815999081802e+00,
       3.5994580960754416e+00, -1.3237101654590802e+00,
       3.6017001306209071e+00, -1.3341403110184260e+00,
       3.6056995459265937e+00, -1.3344565175766607e+00,
       3.6079114581661060e+00, -1.3327312041036279e+00,
       3.6131793993408206e+00, -1.3221158106822515e+00,
       3.6254342317682533e+00, -1.3147771947465741e+00,
       3.6408251430309000e+00, -1.2953013991024140e+00,
       3.6767028929274210e+00, -1.2757041918200378e+00,
       3.6983057841215219e+00, -1.2402938842483926e+00,
       3.7273412457029278e+00, -1.2066305686970644e+00,
       3.7183269719123579e+00, -1.1649682232738603e+00,
       3.7100156696886462e+00, -1.1230163370844739e+00,
       3.6837306214953762e+00, -1.0797064655713584e+00,
       3.6586206401541066e+00, -1.0353631827016270e+00,
       3.5966196705160174e+00, -1.0015292118088364e+00,
       3.5494692215250496e+00, -9.8027723113735354e-01,
       3.4692022625325460e+00, -9.6085756791580046e-01,
       3.3858648364340387e+00, -9.4651841445516749e-01,
       3.3129699713862739e+00, -9.3324229844742612e-01,
       3.2476837752816863e+00, -9.2849228000486683e-01,
       3.2240615261484491e+00, -9.2855165763906056e-01,
       3.2941150928791614e+00, -9.3545102565420135e-01,
       3.3888524040706915e+00, -9.4785139626903281e-01,
       3.4697300005660301e+00, -9.6225719005709320e-01,
       3.5596449096043239e+00, -9.8842105140587000e-01,
       3.6327401292251440e+00, -1.0138603444800351e+00,
       3.6508271972657464e+00, -1.0436610445678172e+00,
       3.6814698490101905e+00, -1.0891105680644406e+00,
       3.7012415269040408e+00, -1.1377063369809519e+00,
       3.7024111003116102e+00, -1.1815188818875120e+00,
       3.6831346011734625e+00, -1.2188025332807688e+00,
       3.6525731160173120e+00, -1.2514222816422018e+00,
       3.6373940731523984e+00, -1.2870989769001846e+00,
       3.6185241128234757e+00, -1.3041129776850060e+00,
       3.6283733956644988e+00, -1.3194437512162549e+00,
       3.6314024716822493e+00, -1.3245559199829215e+00,
       3.6367062612867072e+00, -1.3308156527773940e+00,
       3.6287416980215252e+00, -1.3251568994802294e+00,
       3.6335433259014285e+00, -1.3165200117382678e+00,
       3.6258772759736551e+00, -1.3062225343924068e+00,
       3.6226690814942071e+00, -1.2949519105351157e+00,
       3.6110325011424504e+00, -1.2885565958739758e+00,
       3.6069740900674541e+00, -1.2904444810873716e+00,
       3.6045599174251084e+00, -1.2869058521461043e+00,
       3.5973261934681759e+00, -1.2842645410648377e+00,
       3.5906867179197888e+00, -1.2832460645510104e+00,
       3.5853903648951864e+00, -1.2840139446599437e+00,
       3.6003798404643392e+00, -1.2892331634583702e+00,
       3.6084311548270982e+00, -1.2931723970644196e+00,
       3.6321038394543126e+00, -1.2962416574673885e+00,
       3.6444842970535087e+00, -1.3042092816826341e+00,
       3.6387559733251393e+00, -1.3162824888703737e+00,
       3.6376207802306997e+00, -1.3252922456779470e+00,
       3.6321023634763194e+00, -1.3288779655562244e+00,
       3.6275689325993308e+00, -1.3248944092710562e+00,
       3.6214018477748544e+00, -1.3179528089726971e+00,
       3.6194934528107718e+00, -1.3070616897694112e+00,
       3.6389304684563410e+00, -1.2907033871246829e+00,
       3.6603092746418104e+00, -1.2650654347243924e+00,
       3.6786452095797522e+00, -1.2323073834308922e+00,
       3.6948587753853444e+00, -1.1948527916017944e+00,
       3.7061150617728802e+00, -1.1540123966989027e+00,
       3.6850959006280264e+00, -1.1088048449559564e+00,
       3.6487829492650059e+00, -1.0592317971489551e+00,
       3.6055786735761868e+00, -1.0196621920019129e+00,
       3.5563487036460635e+00, -9.9595337636062453e-01,
       3.4759942365370584e+00, -9.7467183194012241e-01,
       3.4126007148190696e+00, -9.5829986178610904e-01,
       3.3334179555183874e+00, -9.4332229327804484e-01,
       3.2532776557816598e+00, -9.2934460590519663e-01,
       3.2299164592260281e+00, -9.3248721322465378e-01,
       3.3126919654695786e+00, -9.4146536187329100e-01,
       3.3937658260389179e+00, -9.5479442178739315e-01,
       3.4956270547526795e+00, -9.7279401351534156e-01,
       3.5714303650857753e+00, -1.0032314843254808e+00,
       3.6376145069991459e+00, -1.0325930315543770e+00,
       3.6424415737841844e+00, -1.0678582465196684e+00,
       3.6782570610593752e+00, -1.1191424499882270e+00,
       3.6729139555266723e+00, -1.1696798000315327e+00,
       3.6593987776026933e+00, -1.2139742122187263e+00,
       3.6547873933186477e+00, -1.2499419677044794e+00,
       3.6252462736616851e+00, -1.2790845599570286e+00,
       3.5964435565342114e+00, -1.3018843032551373e+00,
       3.5888589097480876e+00, -1.3123457473707814e+00,
       3.6203284280158674e+00, -1.3214739151190897e+00,
       3.6320482841852209e+00, -1.3227363944950310e+00,
       3.6469986863020316e+00, -1.3223158709710399e+00,
       3.6476159983659628e+00, -1.3104301892165100e+00,
       3.6663288653893509e+00, -1.2971979821118991e+00,
       3.6757944247489909e+00, -1.2837803293066963e+00,
       3.6664572324737885e+00, -1.2713473637168855e+00,
       3.6647701860953918e+00, -1.2754439319056328e+00,
       3.6302274463303625e+00, -1.2688771760442368e+00,
       3.6188038604020942e+00, -1.2645810781851528e+00,
       3.6086378966889878e+00, -1.2601254887024886e+00,
       3.6102032942877278e+00, -1.2588454517827643e+00,
       3.6057035051688366e+00, -1.2626828916308599e+00,
       3.6222892617450788e+00, -1.2705327469595578e+00,
       3.6571687579871628e+00, -1.2722094639329193e+00,
       3.6588081855170160e+00, -1.2715416124215937e+00,
       3.6612608785618450e+00, -1.2789873080137417e+00,
       3.6668162965163553e+00, -1.2988227734837472e+00,
       3.6601746750889794e+00, -1.3106446503946481e+00,
       3.6448692999184864e+00, -1.3234514703469855e+00,
       3.6315577750751391e+00, -1.3288012140582079e+00,
       3.6203253793201795e+00, -1.3233479248320468e+00,
       3.6109079812364215e+00, -1.3186128862648496e+00,
       3.6037736739525936e+00, -1.3019575169951572e+00,
       3.6158056512571766e+00, -1.2849483799549408e+00,
       3.6405090926005426e+00, -1.2610069432220374e+00,
       3.6690265695674760e+00, -1.2255959480902676e+00,
       3.6839670587725073e+00, -1.1862397009984444e+00,
       3.6661867058892055e+00, -1.1372032897569109e+00,
       3.6416546851454226e+00, -1.0909788106805087e+00,
       3.6002072430662615e+00, -1.0409073993218652e+00,
       3.5617685678810491e+00, -1.0142293702666638e+00,
       3.4947777034602319e+00, -9.8734643641733177e-01,
       3.4080995310676800e+00, -9.6571354507379537e-01,
       3.3479630941310399e+00, -9.5315787903008908e-01,
       3.2776452957626940e+00, -9.3714725014616029e-01,
       3.2443839523030213e+00, -9.3539313027012072e-01,
       3.3298695194592387e+00, -9.4713346662539410e-01,
       3.4249566865788328e+00, -9.6790007108491738e-01,
       3.5089732408232002e+00, -9.8829861394629304e-01,
       3.5889402153069128e+00, -1.0230600682806439e+00,
       3.6158792953195347e+00, -1.0523160677134911e+00,
       3.6341011584955254e+00, -1.0985305290657443e+00,
       3.6580039197714873e+00, -1.1519238132348875e+00,
       3.6430593514974388e+00, -1.2030119775891457e+00,
       3.6280742726227961e+00, -1.2410271210179422e+00,
       3.6117223359060207e+00, -1.2749378158671310e+00,
       3.5859375605879498e+00, -1.2981319400859361e+00,
       3.5739153950979414e+00, -1.3108440406796755e+00,
       3.5870472602421151e+00, -1.3187440256871061e+00,
       3.6187925807486030e+00, -1.3238153666541930e+00,
       3.6341818844735179e+00, -1.3147385821342228e+00,
       3.6503291315309907e+00, -1.3077864268527826e+00,
       3.6870088010025301e+00, -1.2898874721161975e+00,
       3.6925827705635532e+00, -1.2667935795898568e+00,
       3.7022831795539646e+00, -1.2526095011039688e+00,
       3.6766027356603694e+00, -1.2464252821018489e+00,
       3.6525824478445461e+00, -1.2477213083227598e+00,
       3.6403351082056381e+00, -1.2501764330676068e+00,
       3.6258254128024920e+00, -1.2463139332462623e+00,
       3.6257540640793597e+00, -1.2446836959776808e+00,
       3.6145704576752760e+00, -1.2415563662171307e+00,
       3.6069315256811936e+00, -1.2430770404643166e+00,
       3.6186805939650992e+00, -1.2465119303862162e+00,
       3.6368289230830602e+00, -1.2450308650965936e+00,
       3.6757547242998800e+00, -1.2435900171677268e+00,
       3.6910625277763067e+00, -1.2488814458908737e+00,
       3.6879069494341250e+00, -1.2637368130610416e+00,
       3.6767690625717901e+00, -1.2861651074079619e+00,
       3.6569595721634616e+00, -1.3058802696050755e+00,
       3.6353377415398174e+00, -1.3202832826995405e+00,
       3.6094695751425960e+00, -1.3229184667427678e+00,
       3.5957525325685458e+00, -1.3225665390421106e+00,
       3.5922649263332027e+00, -1.3144003534952189e+00,
       3.5878538391459847e+00, -1.3016052919513503e+00,
       3.5998650030464363e+00, -1.2835257411098417e+00,
       3.6296128550107114e+00, -1.2557674414359909e+00,
       3.6470561954000842e+00, -1.2223405024444562e+00,
       3.6470235823922565e+00, -1.1721731730162708e+00,
       3.6274399583374484e+00, -1.1217190231251666e+00,
       3.5912849789966188e+00, -1.0694489451064138e+00,
       3.5605916676624991e+00, -1.0327157646865068e+00,
       3.5055080344371548e+00, -1.0041174377932434e+00,
       3.4187621051212735e+00, -9.7682589406088860e-01,
       3.3618369166012534e+00, -9.6030487763522432e-01,
       3.2808128155100968e+00, -9.4357912208436834e-01,
       3.2634187950815390e+00, -9.4145635227847391e-01,
       3.3580346516770363e+00, -9.6195190472141634e-01,
       3.4565219001500194e+00, -9.7922380727217428e-01,
       3.5316396584565406e+00, -1.0070142352213860e+00,
       3.5971944230445545e+00, -1.0419973159614808e+00,
       3.6088956411157698e+00, -1.0780742831727621e+00,
       3.6297975886418836e+00, -1.1340165716002375e+00,
       3.6384890162533043e+00, -1.1869451627972765e+00,
       3.6168327308294463e+00, -1.2328645354826531e+00,
       3.5966448346066877e+00, -1.2690166833198002e+00,
       3.5777569638794846e+00, -1.2938429947986492e+00,
       3.5485962391477175e+00, -1.3041676848882560e+00,
       3.5530503059919187e+00, -1.3174223475379774e+00,
       3.5755561591970784e+00, -1.3206899522238553e+00,
       3.6143115104326582e+00, -1.3167999929161962e+00,
       3.6395349000323667e+00, -1.3029806517117948e+00,
       3.6706327389154767e+00, -1.2846735992270379e+00,
       3.6830551023583618e+00, -1.2552012121163181e+00,
       3.7121983235471716e+00, -1.2297571497349471e+00,
       3.6975220337630552e+00, -1.2155450443854987e+00,
       3.6657059061077528e+00, -1.2155240846528801e+00,
       3.6409401163663238e+00, -1.2203223429580932e+00,
       3.6174136266697974e+00, -1.2275243629333190e+00,
       3.5887721431013371e+00, -1.2262517440271297e+00,
       3.5756365924747029e+00, -1.2203083183416092e+00,
       3.5633797648408203e+00, -1.2213907248105076e+00,
       3.5713973141186282e+00, -1.2231284497928572e+00,
       3.5878680523849540e+00, -1.2250253804423867e+00,
       3.6319471096373177e+00, -1.2219478084463129e+00,
       3.6483980867502885e+00, -1.2127821833796764e+00,
       3.6760553822930375e+00, -1.2177879101165898e+00,
       3.6909859361940884e+00, -1.2301399480208659e+00,
       3.6966527248185379e+00, -1.2572207912893107e+00,
       3.6750309390431930e+00, -1.2795987995072624e+00,
       3.6476708342858912e+00, -1.3003803140177073e+00,
       3.6075308103773494e+00, -1.3133992632224047e+00,
       3.5797221433307249e+00, -1.3164950624389919e+00,
       3.5647166598428330e+00, -1.3181368860649767e+00,
       3.5613487429174504e+00, -1.3130357371333614e+00,
       3.5635846303348164e+00, -1.3003117798553483e+00,
       3.5941357351752110e+00, -1.2811192724029128e+00,
       3.6209662086973631e+00, -1.2478272110910469e+00,
       3.6239662829290760e+00, -1.2059856333492847e+00,
       3.6082561713430215e+00, -1.1506082595176108e+00,
       3.5861095048468679e+00, -1.0982231710198898e+00,
       3.5559686200339007e+00, -1.0575159186560728e+00,
       3.5236361727772336e+00, -1.0238068808776473e+00,
       3.4413349110116092e+00, -9.9208274001409735e-01,
       3.3799942768410842e+00, -9.7480008174731125e-01,
       3.2973421795658457e+00, -9.5451498868114559e-01,
       3.2890409023771001e+00, -9.5151068558996643e-01,
       3.3854594806491591e+00, -9.7262986546840069e-01,
       3.4686922639516204e+00, -9.9281706256728897e-01,
       3.5399685214778556e+00, -1.0267765884063582e+00,
       3.5905227887794342e+00, -1.0676201412765023e+00,
       3.6144001033136584e+00, -1.1084601399166345e+00,
       3.6252692416077368e+00, -1.1650234219710096e+00,
       3.6113558821957801e+00, -1.2205174799311003e+00,
       3.5937045088004460e+00, -1.2603970379141409e+00,
       3.5685503982113023e+00, -1.2874887227830372e+00,
       3.5426675786067530e+00, -1.3011561603440052e+00,
       3.5285566464745211e+00, -1.3100835577658869e+00,
       3.5446560958961082e+00, -1.3181745992834168e+00,
       3.5744951398046161e+00, -1.3143705039162281e+00,
       3.6145190567490344e+00, -1.3051276935627281e+00,
       3.6506173619241111e+00, -1.2809495929729684e+00,
       3.6973018423322244e+00, -1.2535351318034180e+00,
       3.7195209877010669e+00, -1.2228580549619792e+00,
       3.7020207509061533e+00, -1.1899663812065946e+00,
       3.6542520526291651e+00, -1.1754070045196794e+00,
       3.6307917796451594e+00, -1.1814592826848016e+00,
       3.5954084006413303e+00, -1.1901638888939110e+00,
       3.5684386928752141e+00, -1.1964377396356722e+00,
       3.5446905791553762e+00, -1.1993599429489905e+00,
       3.5461052617257383e+00, -1.1973228180135480e+00,
       3.5422418881289377e+00, -1.1986894473141567e+00,
       3.5468082991424050e+00, -1.2014967178526441e+00,
       3.5736766770372705e+00, -1.2002937771592725e+00,
       3.6048269333409304e+00, -1.1911203619861630e+00,
       3.6247580852200558e+00, -1.1768691103408164e+00,
       3.6603190439745132e+00, -1.1755582311822690e+00,
       3.6842304875290690e+00, -1.1910870623380327e+00,
       3.6920891603028969e+00, -1.2174550368995116e+00,
       3.6853702853578678e+00, -1.2488883345593949e+00,
       3.6615795707016989e+00, -1.2792659750023179e+00,
       3.6181180385662621e+00, -1.3025335861430267e+00,
       3.5700048213345266e+00, -1.3107071664859897e+00,
       3.5365900681266771e+00, -1.3146401299462855e+00,
       3.5308031889533700e+00, -1.3123237977240976e+00,
       3.5416602585584216e+00, -1.3102625268694565e+00,
       3.5591389976744119e+00, -1.2954907240271991e+00,
       3.5860867332500490e+00, -1.2713825740138758e+00,
       3.6057305345026736e+00, -1.2379471477493975e+00,
       3.6064088627371396e+00, -1.1843244549428513e+00,
       3.5966770886272843e+00, -1.1330069603370405e+00,
       3.5605763813477065e+00, -1.0816207322000089e+00,
       3.5292319336662166e+00, -1.0397413838454235e+00,
       3.4643730708450624e+00, -1.0094979052128463e+00,
       3.3918458915572280e+00, -9.8672154165051595e-01,
       3.3124165592728612e+00, -9.6445095801069813e-01,
       3.3039696927733391e+00, -9.6460878163972064e-01,
       3.4013523642873387e+00, -9.8026031351478304e-01,
       3.4831793748806890e+00, -1.0068633441332244e+00,
       3.5611143052097378e+00, -1.0451546712967712e+00,
       3.5844961183308204e+00, -1.0876934888373504e+00,
       3.6030664640039842e+00, -1.1401164278351248e+00,
       3.6086557548102620e+00, -1.1953736633271479e+00,
       3.5937400921090727e+00, -1.2480800118752364e+00,
       3.5761676886687885e+00, -1.2833805041648279e+00,
       3.5494655457402544e+00, -1.2991534314478332e+00,
       3.5215645521605747e+00, -1.3103997528261204e+00,
       3.5212526320714841e+00, -1.3155673645508568e+00,
       3.5340003678501084e+00, -1.3071672088810877e+00,
       3.5632924570281026e+00, -1.2978051368346357e+00,
       3.6197939506046777e+00, -1.2844514680707795e+00,
       3.6644873304958892e+00, -1.2534706911024334e+00,
       3.6988874576951560e+00, -1.2234197103730069e+00,
       3.7167340001694003e+00, -1.1897658395882984e+00,
       3.6997989909468472e+00, -1.1654073574371275e+00,
       3.6422360168771890e+00, -1.1507353275095242e+00,
       3.6039183711212259e+00, -1.1513190841484695e+00,
       3.5545994059851265e+00, -1.1564187534354815e+00,
       3.5288895562169595e+00, -1.1647348259374288e+00,
       3.4812741758036010e+00, -1.1712130960871290e+00,
       3.4938261628151923e+00, -1.1710754556266301e+00,
       3.4826865619301874e+00, -1.1692402086582394e+00,
       3.4840576609061111e+00, -1.1702274839713631e+00,
       3.5169445487299469e+00, -1.1678107211598856e+00,
       3.5614202225387461e+00, -1.1594166928341398e+00,
       3.6010421130695351e+00, -1.1488172122869951e+00,
       3.6615050154748978e+00, -1.1529785169244604e+00,
       3.7091795218335486e+00, -1.1593739414700517e+00,
       3.6924488295331304e+00, -1.1792879118888642e+00,
       3.6797592491225575e+00, -1.2121920894433562e+00,
       3.6583915662958373e+00, -1.2484438045273460e+00,
       3.6188234425195893e+00, -1.2755189721101625e+00,
       3.5772993605928662e+00, -1.2968226625188748e+00,
       3.5281889032704870e+00, -1.3081695286744894e+00,
       3.5016734228823179e+00, -1.3095669471886024e+00,
       3.5205080730353777e+00, -1.3142165892579194e+00,
       3.5449674764965855e+00, -1.3099932678685366e+00,
       3.5659012369772913e+00, -1.2922250650148484e+00,
       3.5922673935249465e+00, -1.2619568552888711e+00,
       3.6063375312308312e+00, -1.2155997488492298e+00,
       3.5963252732593332e+00, -1.1602534390432253e+00,
       3.5604321032374546e+00, -1.1065613745492748e+00,
       3.5294661850949605e+00, -1.0591548307086676e+00,
       3.4753452411377124e+00, -1.0236541427927146e+00,
       3.4124634578400874e+00, -9.9681129262997881e-01,
       3.3330803428614160e+00, -9.7422481383575010e-01,
       3.3042148534202012e+00, -9.7286700972959195e-01,
       3.4170533940973722e+00, -9.9211006149899206e-01,
       3.5088059920580865e+00, -1.0240069539164787e+00,
       3.5570305592148088e+00, -1.0652707560864993e+00,
       3.5811546625750164e+00, -1.1092726724739699e+00,
       3.5924437916777983e+00, -1.1651265818313798e+00,
       3.5916958885942298e+00, -1.2226977311108997e+00,
       3.5808998946330881e+00, -1.2674123244457229e+00,
       3.5548477621989290e+00, -1.2961258301740239e+00,
       3.5368037392047253e+00, -1.3104747152859180e+00,
       3.5173977188466039e+00, -1.3172923452488225e+00,
       3.5082812270666333e+00, -1.3121259560334027e+00,
       3.5350634995389552e+00, -1.3010289880809214e+00,
       3.5852053853623338e+00, -1.2902284994007751e+00,
       3.6208805108241608e+00, -1.2646566689303338e+00,
       3.6778722123515584e+00, -1.2291230129604602e+00,
       3.6927941725477167e+00, -1.2028403103733816e+00,
       3.7225087696839805e+00, -1.1818526501587694e+00,
       3.6976256728907475e+00, -1.1598141774257171e+00,
       3.6681122920355329e+00, -1.1557456050438317e+00,
       3.5861312930204132e+00, -1.1450280370792123e+00,
       3.5281301650809755e+00, -1.1522876368056170e+00,
       3.4651189818905928e+00, -1.1586631279854556e+00,
       3.4224864609573213e+00, -1.1662307061092452e+00,
       3.4427131625414384e+00, -1.1712612662418846e+00,
       3.4346872503325612e+00, -1.1696855703030564e+00,
       3.4214077890454262e+00, -1.1676426827369319e+00,
       3.4416223017986911e+00, -1.1635614029007273e+00,
       3.5070269618299741e+00, -1.1557864362414239e+00,
       3.5516805113815222e+00, -1.1470558286667367e+00,
       3.6156236190030340e+00, -1.1479847576449873e+00,
       3.7004497805212790e+00, -1.1621616253063116e+00,
       3.6964362279754641e+00, -1.1745161082421656e+00,
       3.6830606520393778e+00, -1.1900275708057448e+00,
       3.6662275764204706e+00, -1.2224309711257897e+00,
       3.6437758048817783e+00, -1.2585344272778831e+00,
       3.5966194291069438e+00, -1.2809714056050243e+00,
       3.5363812570736100e+00, -1.3004288362046561e+00,
       3.5054997737780762e+00, -1.3082897222753154e+00,
       3.5102482723013422e+00, -1.3156040869769812e+00,
       3.5270087140592836e+00, -1.3182206311185665e+00,
       3.5589781313751185e+00, -1.3053382290918059e+00,
       3.5836717399357987e+00, -1.2821233439531989e+00,
       3.6090814835818530e+00, -1.2449725594599301e+00,
       3.5986661442088899e+00, -1.1892569836251183e+00,
       3.5898203461886959e+00, -1.1357882501738241e+00,
       3.5362365537251259e+00, -1.0807296963091988e+00,
       3.4876820285451275e+00, -1.0402212777668498e+00,
       3.4265735859238671e+00, -1.0089418241015025e+00,
       3.3412254076883845e+00, -9.8726522721553678e-01,
       3.3352732404220289e+00, -9.8505646545593317e-01,
       3.4301204032198820e+00, -1.0066457014886869e+00,
       3.5186549338277673e+00, -1.0426363749724232e+00,
       3.5561570137284164e+00, -1.0835595752391427e+00,
       3.5835780053209163e+00, -1.1363205077167671e+00,
       3.5967262947412300e+00, -1.1949677806700238e+00,
       3.5866497617982080e+00, -1.2431393836550784e+00,
       3.5838802119198139e+00, -1.2817026695909850e+00,
       3.5485177687663492e+00, -1.3043859616652758e+00,
       3.5240411076831912e+00, -1.3158039014561234e+00,
       3.5219282827904457e+00, -1.3212002926954198e+00,
       3.5192174123088371e+00, -1.3088102826942658e+00,
       3.5571087798792593e+00, -1.2941789046623642e+00,
       3.5848579402089054e+00, -1.2695309583444472e+00,
       3.6100019270587262e+00, -1.2419629720770300e+00,
       3.6453361529205006e+00, -1.2144140045345304e+00,
       3.6508932053394574e+00, -1.1919410977575433e+00,
       3.6548760413860331e+00, -1.1804396811036331e+00,
       3.6472559452820801e+00, -1.1692594732531569e+00,
       3.6126721417481891e+00, -1.1570363275035869e+00,
       3.5773021738093247e+00, -1.1583940494385623e+00,
       3.5258538642601884e+00, -1.1601226931794155e+00,
       3.4471717382943043e+00, -1.1646086314042063e+00,
       3.4097602487847061e+00, -1.1717002758560400e+00,
       3.4257499716507942e+00, -1.1800688337915071e+00,
       3.4227460737584869e+00, -1.1777305590103178e+00,
       3.4130676532455380e+00, -1.1728108070299301e+00,
       3.4488593299992183e+00, -1.1703575823639207e+00,
       3.5007245415106971e+00, -1.1673005932238376e+00,
       3.5448128142864057e+00, -1.1649992360737249e+00,
       3.5760915378364468e+00, -1.1645197856788931e+00,
       3.6332008308317869e+00, -1.1750401972937690e+00,
       3.6489723494948576e+00, -1.1867002528903485e+00,
       3.6574183198673533e+00, -1.1927620929841429e+00,
       3.6524936948945887e+00, -1.2113019757741637e+00,
       3.6325102255581245e+00, -1.2357697541784916e+00,
       3.6081595046693118e+00, -1.2649602807878670e+00,
       3.5581129333019250e+00, -1.2877688779787275e+00,
       3.5124794446079188e+00, -1.3005828963602819e+00,
       3.5096766350693409e+00, -1.3123270590478682e+00,
       3.5244915365129108e+00, -1.3228368300944613e+00,
       3.5401246073021335e+00, -1.3125333733945452e+00,
       3.5798908817106376e+00, -1.2997915959290487e+00,
       3.6001010219151550e+00, -1.2655353497808293e+00,
       3.6105035243395482e+00, -1.2170589949084178e+00,
       3.5834239297129042e+00, -1.1584930776185201e+00,
       3.5448477714875573e+00, -1.1032491665064552e+00,
       3.5008382055264837e+00, -1.0569749624626836e+00,
       3.4291016414578772e+00, -1.0223836754943076e+00,
       3.3581765766527538e+00, -9.9849686494632339e-01,
       3.3468785553525939e+00, -9.9588779946248918e-01,
       3.4396269964120134e+00, -1.0209032953920321e+00,
       3.5223142570172739e+00, -1.0592775635208020e+00,
       3.5645788579226223e+00, -1.1018808826217068e+00,
       3.5896279485110130e+00, -1.1601745965454491e+00,
       3.5979633571982945e+00, -1.2162535599148552e+00,
       3.5884030894281258e+00, -1.2589320712092029e+00,
       3.5777387982191278e+00, -1.2911775116947437e+00,
       3.5495723201436449e+00, -1.3130544691765063e+00,
       3.5289627676704920e+00, -1.3165586898632218e+00,
       3.5302340142626658e+00, -1.3164375543282536e+00,
       3.5160795497821002e+00, -1.2993946561773702e+00,
       3.5453867815276614e+00, -1.2824377044320432e+00,
       3.5690727604138694e+00, -1.2560882760641721e+00,
       3.5942425897736623e+00, -1.2311128246061893e+00,
       3.6115862423252167e+00, -1.2112698624266258e+00,
       3.6024924435774990e+00, -1.2065147767315501e+00,
       3.6131058728814351e+00, -1.2043804851194169e+00,
       3.5903303746171558e+00, -1.2006093251665977e+00,
       3.5777538580560657e+00, -1.1950139229888601e+00,
       3.5457567692859246e+00, -1.1882541432176059e+00,
       3.5296100051329211e+00, -1.1904858813959651e+00,
       3.4772494136039369e+00, -1.1913804366692544e+00,
       3.4490507301869822e+00, -1.1958188543708783e+00,
       3.4451342730867398e+00, -1.2071503461396256e+00,
       3.4357052483224888e+00, -1.2049119401637995e+00,
       3.4327418589330243e+00, -1.1977282343776732e+00,
       3.4491034043539393e+00, -1.1928009215808033e+00,
       3.4915269136668217e+00, -1.1893121068247459e+00,
       3.5256901922410071e+00, -1.1928428523355765e+00,
       3.5439454441599985e+00, -1.1973493867790082e+00,
       3.5657559069393088e+00, -1.2010516637156452e+00,
       3.5746199932283771e+00, -1.2058499024489828e+00,
       3.5935117365894560e+00, -1.2059000546818559e+00,
       3.6027546988870744e+00, -1.2134473019598038e+00,
       3.6040464009971731e+00, -1.2275139090715093e+00,
       3.5972882291936101e+00, -1.2535357472185116e+00,
       3.5685623041266412e+00, -1.2810938213867586e+00,
       3.5268737991944077e+00, -1.2976656611847532e+00,
       3.5095489716108741e+00, -1.3097398237075939e+00,
       3.5151553940750633e+00, -1.3189349333136544e+00,
       3.5352331100856915e+00, -1.3213214297922329e+00,
       3.5661784098627858e+00, -1.3065239444778096e+00,
       3.5885735932885532e+00, -1.2794021889271916e+00,
       3.6038547488065138e+00, -1.2407461373369675e+00,
       3.5779096564955490e+00, -1.1765110675527801e+00,
       3.5569512321528025e+00, -1.1237631882380965e+00,
       3.5031519151905135e+00, -1.0703821746220892e+00,
       3.4449782167244956e+00, -1.0342619695672035e+00,
       3.3729786649021967e+00, -1.0072031489137865e+00,
       3.3703316675742809e+00, -1.0047074317994149e+00,
       3.4553585586617372e+00, -1.0336636769418281e+00,
       3.5320825831910114e+00, -1.0749058503605609e+00,
       3.5655399054491883e+00, -1.1223563838868462e+00,
       3.5872306164185281e+00, -1.1814262190687517e+00,
       3.5955106152870950e+00, -1.2330416646579361e+00,
       3.5986120370157675e+00, -1.2749734877017440e+00,
       3.5690341873911300e+00, -1.2985138294145766e+00,
       3.5495650006944297e+00, -1.3165201402953846e+00,
       3.5350661220196660e+00, -1.3216667519569312e+00,
       3.5187436658215776e+00, -1.3133588324613981e+00,
       3.5099172582998577e+00, -1.2991300501829472e+00,
       3.5498244312861278e+00, -1.2779013273227082e+00,
       3.5531619323441155e+00, -1.2521627561914066e+00,
       3.5715473202295605e+00, -1.2348774557669757e+00,
       3.5771969960038823e+00, -1.2247799724935171e+00,
       3.5770847378508748e+00, -1.2302063021963905e+00,
       3.5518905299454251e+00, -1.2289274464267343e+00,
       3.5360883356488060e+00, -1.2347644690383102e+00,
       3.5389177852328402e+00, -1.2356292572650351e+00,
       3.5244840532250836e+00, -1.2339146398571004e+00,
       3.5054866068930157e+00, -1.2346559317848507e+00,
       3.4696764425420392e+00, -1.2337508970157367e+00,
       3.4454470590679391e+00, -1.2353102971059291e+00,
       3.4372618466062166e+00, -1.2409031347929602e+00,
       3.4435500729573452e+00, -1.2411986203537042e+00,
       3.4323378482119460e+00, -1.2355737227447690e+00,
       3.4278129752890023e+00, -1.2310616779549404e+00,
       3.4561210784286955e+00, -1.2285322376227135e+00,
       3.4877341028449917e+00, -1.2282553732657431e+00,
       3.5085865073244493e+00, -1.2336937885405397e+00,
       3.5006999918012780e+00, -1.2271496473587780e+00,
       3.5217774090981893e+00, -1.2308134100611954e+00,
       3.5506660222606987e+00, -1.2326145776782580e+00,
       3.5723319267617724e+00, -1.2329175369539502e+00,
       3.5786760893803242e+00, -1.2414465484199162e+00,
       3.5608497324183279e+00, -1.2579561942573165e+00,
       3.5504689997251360e+00, -1.2773104779540492e+00,
       3.5287206478545032e+00, -1.2991899092836536e+00,
       3.5121838206285196e+00, -1.3124161275349204e+00,
       3.5118324024940502e+00, -1.3167174955752017e+00,
       3.5337389302829876e+00, -1.3211359439486652e+00,
       3.5572658356260458e+00, -1.3119484460467505e+00,
       3.5762120719323960e+00, -1.2899727840390471e+00,
       3.6123774364694703e+00, -1.2579762535000549e+00,
       3.5945407287657978e+00, -1.1995766336223561e+00,
       3.5762284371013107e+00, -1.1475630552306881e+00,
       3.5300994130853587e+00, -1.0879883585917001e+00,
       3.4601254034950117e+00, -1.0496075727619740e+00,
       3.3806731525370908e+00, -1.0135656084547877e+00,
       3.3989042352928593e+00, -1.0160247016567043e+00,
       3.4539394473563996e+00, -1.0436909442330489e+00,
       3.5389940634134995e+00, -1.0883768596637378e+00,
       3.5813435587200741e+00, -1.1459933689524933e+00,
       3.5943141437670412e+00, -1.2026845945627522e+00,
       3.5936367260928392e+00, -1.2458152477024820e+00,
       3.5943008618553329e+00, -1.2842013480699401e+00,
       3.5667654689838519e+00, -1.3042900784505957e+00,
       3.5474719951382978e+00, -1.3163498826280944e+00,
       3.5402617122641198e+00, -1.3244143563921944e+00,
       3.5109532020284715e+00, -1.3122619034912124e+00,
       3.5123220446317496e+00, -1.3051986925369914e+00,
       3.5248583320086664e+00, -1.2858358026815677e+00,
       3.5247092535444318e+00, -1.2695734788355426e+00,
       3.5377771227225594e+00, -1.2604491344805304e+00,
       3.5377912111201164e+00, -1.2573283385693514e+00,
       3.5438674980152820e+00, -1.2642540335482193e+00,
       3.5277238558487358e+00, -1.2687323542349052e+00,
       3.5091106936573526e+00, -1.2697588409765785e+00,
       3.5030696544214632e+00, -1.2711445176444021e+00,
       3.5011725366047557e+00, -1.2733171876543847e+00,
       3.4792489483232929e+00, -1.2719540010360157e+00,
       3.4424743855917450e+00, -1.2680729034987921e+00,
       3.4361087214393788e+00, -1.2715569617763662e+00,
       3.4423740062386972e+00, -1.2733735515885667e+00,
       3.4427111873773053e+00, -1.2707149501403034e+00,
       3.4321904763696369e+00, -1.2721647630447084e+00,
       3.4348141477619398e+00, -1.2737240278294750e+00,
       3.4736754668075136e+00, -1.2740817275966545e+00,
       3.4942572565503975e+00, -1.2736044070527559e+00,
       3.5004451510530723e+00, -1.2728545877304347e+00,
       3.4956052579863179e+00, -1.2722471728667144e+00,
       3.4931393145692402e+00, -1.2663932529441733e+00,
       3.5150873932387401e+00, -1.2586531818840077e+00,
       3.5221072381608129e+00, -1.2572040252351824e+00,
       3.5285531681497098e+00, -1.2594588035878231e+00,
       3.5222649641857733e+00, -1.2688463707539117e+00,
       3.5039520402674360e+00, -1.2816903806020190e+00,
       3.5100750418076445e+00, -1.3037029435405325e+00,
       3.5109797193946086e+00, -1.3117675282417411e+00,
       3.5088370113573140e+00, -1.3168849029866680e+00,
       3.5359195943333637e+00, -1.3244328457742192e+00,
       3.5620352264055679e+00, -1.3177073713790957e+00,
       3.5812522107656397e+00, -1.2985050242989611e+00,
       3.6033832273849833e+00, -1.2695239463664483e+00,
       3.6045110670803564e+00, -1.2227577490166472e+00,
       3.5901113465597678e+00, -1.1687140865592183e+00,
       3.5352889095975044e+00, -1.1053981402367765e+00,
       3.4718529890373038e+00, -1.0641848401738971e+00,
       3.4217034398209560e+00, -1.0274418890557215e+00,
       3.4294750018802382e+00, -1.0231219127948616e+00,
       3.4753018472607273e+00, -1.0555461334412468e+00,
       3.5510503095836645e+00, -1.1060875866402127e+00,
       3.5765242633040586e+00, -1.1632752621735489e+00,
       3.5962149197486655e+00, -1.2168207957644401e+00,
       3.5977669022185408e+00, -1.2600953962195134e+00,
       3.5845239577744352e+00, -1.2900222744783660e+00,
       3.5578838195247573e+00, -1.3103800390715459e+00,
       3.5493468390766267e+00, -1.3202627035531875e+00,
       3.5284684373429998e+00, -1.3270784650796641e+00,
       3.4967371516144503e+00, -1.3163921290216918e+00,
       3.4852002075409891e+00, -1.3081807508782020e+00,
       3.4859153750262095e+00, -1.3002068299630700e+00,
       3.4910069255476954e+00, -1.2933842908177984e+00,
       3.4874768542871135e+00, -1.2873026026511072e+00,
       3.4958253583047827e+00, -1.2875465328858366e+00,
       3.4950716838788276e+00, -1.2931218297749942e+00,
       3.4870646413567381e+00, -1.3000246053255180e+00,
       3.5013464245887747e+00, -1.3023392489398384e+00,
       3.4932399525048572e+00, -1.2978340037444354e+00,
       3.4925565171128037e+00, -1.2971848575999052e+00,
       3.4755223788107013e+00, -1.2930704733620402e+00,
       3.4412851478381445e+00, -1.2918805775049147e+00,
       3.4360530981696060e+00, -1.2839492693709211e+00,
       3.4446093701771834e+00, -1.2761644588640031e+00,
       3.4458475760419010e+00, -1.2748984311413434e+00,
       3.4273283244530854e+00, -1.2827290285258253e+00,
       3.4281986631971719e+00, -1.2882174700204241e+00,
       3.4587823691796959e+00, -1.2954797012463213e+00,
       3.4806926941066827e+00, -1.2993117244352217e+00,
       3.4807773301607994e+00, -1.3003962403037597e+00,
       3.4875687190884301e+00, -1.3018595092270056e+00,
       3.4782647411211438e+00, -1.3015353840095860e+00,
       3.4765951511901880e+00, -1.2987392326353249e+00,
       3.4778664980997398e+00, -1.2942491354921073e+00,
       3.4868146560993165e+00, -1.2928479019908794e+00,
       3.4791351115211673e+00, -1.2889745409164117e+00,
       3.4727990501921586e+00, -1.2967127494095139e+00,
       3.4770346998889550e+00, -1.3068069881906379e+00,
       3.4801064138035764e+00, -1.3119489161757434e+00,
       3.5096090157238162e+00, -1.3196874517693242e+00,
       3.5310326619929979e+00, -1.3245926149681928e+00,
       3.5483484999423740e+00, -1.3212581471822475e+00,
       3.5839877289877164e+00, -1.3055376590848855e+00,
       3.5992163309165801e+00, -1.2804903433864772e+00,
       3.6108997974759292e+00, -1.2391011040236932e+00,
       3.5849050817527717e+00, -1.1845884189898541e+00,
       3.5502290487457486e+00, -1.1255990570433116e+00,
       3.4910464906250485e+00, -1.0752493662755671e+00,
       3.4319354214769029e+00, -1.0382742305604205e+00,
       3.4495899265385197e+00, -1.0289051318290796e+00,
       3.4816474700556910e+00, -1.0669786600486890e+00,
       3.5630731211153117e+00, -1.1248017087421911e+00,
       3.5801882485528957e+00, -1.1799794985566503e+00,
       3.5869484446043751e+00, -1.2315846031918971e+00,
       3.5983259282082969e+00, -1.2739324271753498e+00,
       3.5786028654140289e+00, -1.2991370332450423e+00,
       3.5450742705809017e+00, -1.3176589138136683e+00,
       3.5291110314811416e+00, -1.3306072584427238e+00,
       3.5013993309879896e+00, -1.3292112957349058e+00,
       3.4740476913237912e+00, -1.3234095495249338e+00,
       3.4513781860843187e+00, -1.3117468597032822e+00,
       3.4399807077629356e+00, -1.3070744593110384e+00,
       3.4265400350708650e+00, -1.3025714774273791e+00,
       3.4266950090771600e+00, -1.3075298236493020e+00,
       3.4337878604797996e+00, -1.3116112336625703e+00,
       3.4485811684675833e+00, -1.3175845756560067e+00,
       3.4499252618839109e+00, -1.3156956000750950e+00,
       3.4728347192311855e+00, -1.3108476119539347e+00,
       3.4854323267060918e+00, -1.3023059821257250e+00,
       3.4951199529221397e+00, -1.2915880249538654e+00,
       3.4832954348922298e+00, -1.2837730705684460e+00,
       3.4447160014311202e+00, -1.2779843828986119e+00,
       3.4396472497037762e+00, -1.2657177969290176e+00,
       3.4735975754686361e+00, -1.2604879008365470e+00,
       3.4736048621831324e+00, -1.2572211196050829e+00,
       3.4536542390598051e+00, -1.2677153753019574e+00,
       3.4395992083397982e+00, -1.2724706303293507e+00,
       3.4675382386003517e+00, -1.2781468434155427e+00,
       3.4774487326964589e+00, -1.2876875828939087e+00,
       3.4705016922816032e+00, -1.3024445907535365e+00,
       3.4540281642263628e+00, -1.3116528150740940e+00,
       3.4485444755858246e+00, -1.3185686993759693e+00,
       3.4355995612554651e+00, -1.3220341254739087e+00,
       3.4298420838672707e+00, -1.3222369998500620e+00,
       3.4334840867570313e+00, -1.3172486835966384e+00,
       3.4286951960050880e+00, -1.3066999797789749e+00,
       3.4354448963657038e+00, -1.3101881879809667e+00,
       3.4415705321663679e+00, -1.3111350129556949e+00,
       3.4618463821915122e+00, -1.3232441603411851e+00,
       3.4826625641730340e+00, -1.3276008026710540e+00,
       3.5131885279514075e+00, -1.3313357499466172e+00,
       3.5346146719857376e+00, -1.3226094817651675e+00,
       3.5601491124719042e+00, -1.3114777753704063e+00,
       3.5856792378789724e+00, -1.2905589951002463e+00,
       3.6064112511417563e+00, -1.2557063008242939e+00,
       3.5815194682092022e+00, -1.2004571751129389e+00,
       3.5538168045795175e+00, -1.1453714518607023e+00,
       3.4941544303025194e+00, -1.0837460715963045e+00,
       3.4457583614971079e+00, -1.0437084230677369e+00,
       3.4678986606555169e+00, -1.0364452407208158e+00,
       3.4956769622207631e+00, -1.0796310365516408e+00,
       3.5592710202907143e+00, -1.1402781512051725e+00,
       3.5736678789230325e+00, -1.1992059125535057e+00,
       3.5783044336907577e+00, -1.2455071458765403e+00,
       3.5804542114129072e+00, -1.2842681899436672e+00,
       3.5574187681078531e+00, -1.3104952042143243e+00,
       3.5187805093421827e+00, -1.3234500932927549e+00,
       3.4990985819148763e+00, -1.3382714482754758e+00,
       3.4591873515646183e+00, -1.3354506991620334e+00,
       3.4348742439641846e+00, -1.3309568450477476e+00,
       3.4081749220144246e+00, -1.3206965964308957e+00,
       3.3903022367109492e+00, -1.3143831612008960e+00,
       3.3811347535422573e+00, -1.3126832762210130e+00,
       3.3843652630656322e+00, -1.3187542958393021e+00,
       3.3989506536777929e+00, -1.3216527165266205e+00,
       3.4214611772628851e+00, -1.3240804538393316e+00,
       3.4422568962119713e+00, -1.3181385280500850e+00,
       3.4812710015158914e+00, -1.3018382973367482e+00,
       3.5042817075353980e+00, -1.2853380503602756e+00,
       3.5328088494210368e+00, -1.2635456601403967e+00,
       3.5321864914608292e+00, -1.2506282268465219e+00,
       3.5056152251145121e+00, -1.2425667618056471e+00,
       3.5039591850783176e+00, -1.2389029168535450e+00,
       3.5376781910603294e+00, -1.2400620929040371e+00,
       3.5439386356246492e+00, -1.2358591053931243e+00,
       3.5161504339858074e+00, -1.2393032563177806e+00,
       3.4970187219315831e+00, -1.2377541327916197e+00,
       3.5216830359158107e+00, -1.2420771573441383e+00,
       3.5209085999771208e+00, -1.2551019592864368e+00,
       3.4902840655374909e+00, -1.2796417663560138e+00,
       3.4684520666162499e+00, -1.3036567767142702e+00,
       3.4409733388895618e+00, -1.3174897622231165e+00,
       3.4196350174108083e+00, -1.3290891373576954e+00,
       3.4033636173249646e+00, -1.3325082884371706e+00,
       3.3973247793749350e+00, -1.3310754857630374e+00,
       3.3881027174152658e+00, -1.3221092604062861e+00,
       3.3863454895277787e+00, -1.3218436132920650e+00,
       3.3968043397947612e+00, -1.3215425802971050e+00,
       3.4228491388414404e+00, -1.3288560176781874e+00,
       3.4530742305942419e+00, -1.3394706447498397e+00,
       3.4789245012243128e+00, -1.3341404771001260e+00,
       3.5118895169570497e+00, -1.3307708795416011e+00,
       3.5378786934114896e+00, -1.3190881043644536e+00,
       3.5604364306388270e+00, -1.2979078100224906e+00,
       3.5812609663599284e+00, -1.2679337016863159e+00,
       3.5821051495408534e+00, -1.2158001213478529e+00,
       3.5486697063448869e+00, -1.1589070391428278e+00,
       3.5033727186034911e+00, -1.0955064081905754e+00,
       3.4584178976753446e+00, -1.0538274276394033e+00,
       3.4662959244345561e+00, -1.0477906099645493e+00,
       3.5145457273105234e+00, -1.0938527969067091e+00,
       3.5476396756166788e+00, -1.1546718133613889e+00,
       3.5625173778399541e+00, -1.2165248198305836e+00,
       3.5574448090434876e+00, -1.2612280970645962e+00,
       3.5467263971825145e+00, -1.2973288473970366e+00,
       3.5219920375741793e+00, -1.3207375032332551e+00,
       3.4858596664848154e+00, -1.3409875498195825e+00,
       3.4484796965783779e+00, -1.3505476793129660e+00,
       3.4107277211526483e+00, -1.3489673448075146e+00,
       3.3830293336098172e+00, -1.3430923895454590e+00,
       3.3620389077090165e+00, -1.3285362605683921e+00,
       3.3436882373254022e+00, -1.3236461185552229e+00,
       3.3507912881238386e+00, -1.3236833168552640e+00,
       3.3660539349266574e+00, -1.3242699043728530e+00,
       3.3840478540826617e+00, -1.3263191216046930e+00,
       3.4187176485922777e+00, -1.3240193983270090e+00,
       3.4614939430687701e+00, -1.3122769749779752e+00,
       3.5194477142304961e+00, -1.2942555009850831e+00,
       3.5856065129211161e+00, -1.2636120925809515e+00,
       3.6226871147454154e+00, -1.2273231936218356e+00,
       3.6225978343842073e+00, -1.2072252156376093e+00,
       3.5938478265298759e+00, -1.2111395311662601e+00,
       3.5833859339415892e+00, -1.2248753211518013e+00,
       3.6129647045525273e+00, -1.2353083235598199e+00,
       3.6218570947667410e+00, -1.2365910337701305e+00,
       3.5879125830111858e+00, -1.2287494456812724e+00,
       3.5882046540261321e+00, -1.2201778392081981e+00,
       3.6012656048266800e+00, -1.2105946016962599e+00,
       3.6069259041298602e+00, -1.2235455360463563e+00,
       3.5704912722035020e+00, -1.2578812446331566e+00,
       3.5188068059057440e+00, -1.2918105547976446e+00,
       3.4735125413370946e+00, -1.3162021211371508e+00,
       3.4283765455058099e+00, -1.3279466727594669e+00,
       3.3942157497317167e+00, -1.3343594966231016e+00,
       3.3767924612562896e+00, -1.3345573080200890e+00,
       3.3594774583023512e+00, -1.3308067215867754e+00,
       3.3354926771094706e+00, -1.3281070091339626e+00,
       3.3498427147647698e+00, -1.3340322347609921e+00,
       3.3724747353485118e+00, -1.3387626756588631e+00,
       3.3983924873935587e+00, -1.3488219124459129e+00,
       3.4345524841148718e+00, -1.3500375889861034e+00,
       3.4670341691571109e+00, -1.3425958690297068e+00,
       3.5091937843191010e+00, -1.3297417408247283e+00,
       3.5390430732699003e+00, -1.3102608549421122e+00,
       3.5570966530096766e+00, -1.2803876570151214e+00,
       3.5699616897465285e+00, -1.2335717338559258e+00,
       3.5445526975833537e+00, -1.1750766349111059e+00,
       3.5064942284420852e+00, -1.1114696767389747e+00,
       3.4632305816603721e+00, -1.0611688474431467e+00,
       3.4799596971912945e+00, -1.0605316157753037e+00,
       3.5260920490140575e+00, -1.1095476818984742e+00,
       3.5432575754749904e+00, -1.1739648624055417e+00,
       3.5393122794268357e+00, -1.2312957771212600e+00,
       3.5242747522743079e+00, -1.2760703869647751e+00,
       3.5080780276748533e+00, -1.3091069017516770e+00,
       3.4760641558631602e+00, -1.3340496626526297e+00,
       3.4374956408053592e+00, -1.3545121988696267e+00,
       3.3930994337702871e+00, -1.3635163917500084e+00,
       3.3518580290286550e+00, -1.3636696428915454e+00,
       3.3187865300079760e+00, -1.3560541866098412e+00,
       3.3010719755747560e+00, -1.3442650336121895e+00,
       3.3046416714581710e+00, -1.3387967107512655e+00,
       3.3235818010703322e+00, -1.3372913231391561e+00,
       3.3613013292129157e+00, -1.3360718160860401e+00,
       3.3968728234433332e+00, -1.3367309964983345e+00,
       3.4514616055079577e+00, -1.3261174046363813e+00,
       3.5253008333520750e+00, -1.3123309166119448e+00,
       3.6058032736995398e+00, -1.2884561952325266e+00,
       3.6495544334633969e+00, -1.2434623769007622e+00,
       3.6894516847368304e+00, -1.1940476519664942e+00,
       3.6716745286592838e+00, -1.1748983570046456e+00,
       3.6325713125121153e+00, -1.2064301925708547e+00,
       3.6028614949414686e+00, -1.2343707900199308e+00,
       3.5977329706137215e+00, -1.2452544395856411e+00,
       3.5893508062121802e+00, -1.2460908756919298e+00,
       3.5754025200656239e+00, -1.2386030353245945e+00,
       3.6111856880153836e+00, -1.2196858712360914e+00,
       3.6381813548377662e+00, -1.1922010019256846e+00,
       3.6613953130191113e+00, -1.1977960877644827e+00,
       3.6338463984361957e+00, -1.2378494278706365e+00,
       3.5874002216867389e+00, -1.2803149551327093e+00,
       3.5247338665497630e+00, -1.3084648011561573e+00,
       3.4720815860716239e+00, -1.3289925513443803e+00,
       3.4149718726796894e+00, -1.3379933509759332e+00,
       3.3708701798380072e+00, -1.3431397325930086e+00,
       3.3208111815865657e+00, -1.3381855880800138e+00,
       3.3010981071151244e+00, -1.3415852831569199e+00,
       3.2952337737638002e+00, -1.3450823625373400e+00,
       3.3112203886449278e+00, -1.3536148083749531e+00,
       3.3355466102703475e+00, -1.3596430891940015e+00,
       3.3697244550515797e+00, -1.3626957875850674e+00,
       3.4141363712433925e+00, -1.3548849089056971e+00,
       3.4642116341133011e+00, -1.3410919812185247e+00,
       3.5022718143948817e+00, -1.3249427826140470e+00,
       3.5345785155667473e+00, -1.2949660720675580e+00,
       3.5493591425786226e+00, -1.2484049396559369e+00,
       3.5444163294652369e+00, -1.1899492775364695e+00,
       3.5199208466677012e+00, -1.1299351744897612e+00,
       3.4788183389251683e+00, -1.0770626865648509e+00,
       3.4855457805629193e+00, -1.0712074711666089e+00,
       3.5253035388870284e+00, -1.1268566515996428e+00,
       3.5396080645203791e+00, -1.1933612333872161e+00,
       3.5192667704895739e+00, -1.2480642090555469e+00,
       3.4873692334084359e+00, -1.2898736040231398e+00,
       3.4694752685275345e+00, -1.3243632087910784e+00,
       3.4258875719035684e+00, -1.3477089488197145e+00,
       3.3782056133795182e+00, -1.3698160977565983e+00,
       3.3283921374799457e+00, -1.3802567924698226e+00,
       3.2840885142624221e+00, -1.3780150824097972e+00,
       3.2561114167081135e+00, -1.3714769573964636e+00,
       3.2422841186897609e+00, -1.3624600656270116e+00,
       3.2407648100648143e+00, -1.3489082189982522e+00,
       3.2729883855331110e+00, -1.3495352928476152e+00,
       3.3337915943355134e+00, -1.3450885995101480e+00,
       3.4024135101298332e+00, -1.3437612652544626e+00,
       3.4742094528165999e+00, -1.3291908284014713e+00,
       3.5678952590770452e+00, -1.3142846932808916e+00,
       3.6286366546792470e+00, -1.2896937083735214e+00,
       3.6433535534047863e+00, -1.2602082391569227e+00,
       3.6403131070075019e+00, -1.2138101092810547e+00,
       3.6172758359910069e+00, -1.1967609474131229e+00,
       3.5714706630805475e+00, -1.2301603405909345e+00,
       3.4972711561300001e+00, -1.2660265353958513e+00,
       3.4534231715374459e+00, -1.2748566603246507e+00,
       3.4394594415018589e+00, -1.2751883961001842e+00,
       3.4737381452794289e+00, -1.2668587858039733e+00,
       3.5414583979035301e+00, -1.2380885583384225e+00,
       3.6044682006745630e+00, -1.2015679070948351e+00,
       3.6409043942970043e+00, -1.2119550922134468e+00,
       3.6478583816478785e+00, -1.2578407963587335e+00,
       3.6226728939606705e+00, -1.2894109830522615e+00,
       3.5703263680777755e+00, -1.3075463434908907e+00,
       3.4984940603951822e+00, -1.3268978381578891e+00,
       3.4189269311601382e+00, -1.3406552879688252e+00,
       3.3439827211979494e+00, -1.3475084563723700e+00,
       3.2842474217265458e+00, -1.3504467943202823e+00,
       3.2489908163491226e+00, -1.3523073941019161e+00,
       3.2407079569867920e+00, -1.3606658067854482e+00,
       3.2479836000533031e+00, -1.3700255870858857e+00,
       3.2739915654527914e+00, -1.3772197244640867e+00,
       3.3074037386452182e+00, -1.3771996535849167e+00,
       3.3591240389488726e+00, -1.3692318424628656e+00,
       3.4197728095760360e+00, -1.3590269127802197e+00,
       3.4508250195059373e+00, -1.3349972140847779e+00,
       3.4925142403757428e+00, -1.3087257440931432e+00,
       3.5263679905347525e+00, -1.2666216285600254e+00,
       3.5458691899185881e+00, -1.2063487323670268e+00,
       3.5257146801835071e+00, -1.1473554411559139e+00,
       3.4994189562778515e+00, -1.0898949337320654e+00,
       3.4983752709995182e+00, -1.0879939317257530e+00,
       3.5268723763009757e+00, -1.1459707059852764e+00,
       3.5146631498454584e+00, -1.2080044224474631e+00,
       3.4935977241459901e+00, -1.2628606442764718e+00,
       3.4550860418330167e+00, -1.3062009474558054e+00,
       3.4272318576567304e+00, -1.3407233883718845e+00,
       3.3777776277291505e+00, -1.3631775037199796e+00,
       3.3192508924914907e+00, -1.3881499355360440e+00,
       3.2632958445717613e+00, -1.3974414906076809e+00,
       3.2183451808192598e+00, -1.3969626195897993e+00,
       3.1865733638288534e+00, -1.3856196269877215e+00,
       3.1760615147380258e+00, -1.3746760328306253e+00,
       3.1781731363970658e+00, -1.3637732563639184e+00,
       3.2097485032158382e+00, -1.3544879630678179e+00,
       3.2745061373936823e+00, -1.3526231613673909e+00,
       3.3626286810735380e+00, -1.3453332845397961e+00,
       3.4570984461893306e+00, -1.3311872362319495e+00,
       3.5548134195055616e+00, -1.3199056739667538e+00,
       3.6076545878866200e+00, -1.3070613902393662e+00,
       3.5761415772827707e+00, -1.2901925064048088e+00,
       3.5559033904784796e+00, -1.2667369650569476e+00,
       3.5287183646372298e+00, -1.2544801418669760e+00,
       3.4620573107166801e+00, -1.2808542869331607e+00,
       3.3534266777735184e+00, -1.3060857246562123e+00,
       3.2842610237455254e+00, -1.3146014689792891e+00,
       3.2704300953158172e+00, -1.3139619629468684e+00,
       3.3071711483897581e+00, -1.3008811789293884e+00,
       3.4026098583927689e+00, -1.2794572026601925e+00,
       3.4826107337117729e+00, -1.2524924338037817e+00,
       3.5394738568003956e+00, -1.2606993271827680e+00,
       3.5771891706924253e+00, -1.2890913449299439e+00,
       3.6017513509856833e+00, -1.3087320215438021e+00,
       3.5773725884463050e+00, -1.3193055926906547e+00,
       3.4859215483384940e+00, -1.3323631218040779e+00,
       3.3841547043137732e+00, -1.3447175245280540e+00,
       3.2851337203946849e+00, -1.3530310598048958e+00,
       3.2213401481337742e+00, -1.3599929512473208e+00,
       3.1884221232798828e+00, -1.3645942352001723e+00,
       3.1728944243110644e+00, -1.3739370425492754e+00,
       3.1857558192145845e+00, -1.3850561455348858e+00,
       3.2157070296854990e+00, -1.3950092144008779e+00,
       3.2454216673321530e+00, -1.3931349929064918e+00,
       3.3010476896322953e+00, -1.3850521876987154e+00,
       3.3556622235672258e+00, -1.3718810516648448e+00,
       3.4032790885685209e+00, -1.3475877934135121e+00,
       3.4483280173885893e+00, -1.3208610641829994e+00,
       3.4954212913425384e+00, -1.2805173188533630e+00,
       3.5247120704325505e+00, -1.2222738076865003e+00,
       3.5251549137787266e+00, -1.1642846773080144e+00,
       3.5177818627990947e+00, -1.1060676608482580e+00,
       3.4981033733386480e+00, -1.0998003808657901e+00,
       3.5125136297519535e+00, -1.1648908749612039e+00,
       3.4910422244518200e+00, -1.2225599998657199e+00,
       3.4627048216260152e+00, -1.2771112589810742e+00,
       3.4184236349065649e+00, -1.3198139266104081e+00,
       3.3792676630980547e+00, -1.3553694629233413e+00,
       3.3195106812579556e+00, -1.3778415405184774e+00,
       3.2653588252263552e+00, -1.4031109290996864e+00,
       3.2075108937234429e+00, -1.4130297027772660e+00,
       3.1623332221111164e+00, -1.4123107210845272e+00,
       3.1305640432930715e+00, -1.4050136575626984e+00,
       3.1139314762774628e+00, -1.3923986322643365e+00,
       3.1240089796999939e+00, -1.3801123436652531e+00,
       3.1519244345952671e+00, -1.3693871293873134e+00,
       3.2092178603854951e+00, -1.3617823116998167e+00,
       3.2901023163999654e+00, -1.3499079134055370e+00,
       3.4049903407122377e+00, -1.3405181919842231e+00,
       3.5175736918453153e+00, -1.3352787320087525e+00,
       3.5719507528939349e+00, -1.3332259692026744e+00,
       3.5310892808786769e+00, -1.3284983546013627e+00,
       3.5043359966530714e+00, -1.3203014218198810e+00,
       3.4535642074880601e+00, -1.3170833824254271e+00,
       3.3476110467418558e+00, -1.3293479222227620e+00,
       3.2228979486287539e+00, -1.3440525339738283e+00,
       3.1600305962823305e+00, -1.3484200873639973e+00,
       3.1548938588423798e+00, -1.3464341580230232e+00,
       3.1912523608248420e+00, -1.3385953974464426e+00,
       3.3048545293906804e+00, -1.3278070645587545e+00,
       3.4074924044051347e+00, -1.3118449725112713e+00,
       3.4816911724646773e+00, -1.3166416964839029e+00,
       3.5354573389921247e+00, -1.3282144050720990e+00,
       3.5658055423911779e+00, -1.3366048503968122e+00,
       3.5406231486677191e+00, -1.3375174494284783e+00,
       3.4312746561548311e+00, -1.3419278260839786e+00,
       3.3059365436033095e+00, -1.3505698691753718e+00,
       3.2143747744072884e+00, -1.3620993468034102e+00,
       3.1602103669928114e+00, -1.3685649043103556e+00,
       3.1270750181674827e+00, -1.3787991916362741e+00,
       3.1131999163738504e+00, -1.3899170510957179e+00,
       3.1227435163266231e+00, -1.3995261826872576e+00,
       3.1505757847459348e+00, -1.4095623820300747e+00,
       3.1843681590918922e+00, -1.4098752556101508e+00,
       3.2372834331491385e+00, -1.4023262220039800e+00,
       3.3023623717261561e+00, -1.3886078431855391e+00,
       3.3569519368023033e+00, -1.3623742078506866e+00,
       3.4045855700567027e+00, -1.3343388868431751e+00,
       3.4549081520412863e+00, -1.2909534811557888e+00,
       3.4987730852820511e+00, -1.2381276220030657e+00,
       3.5097636049997001e+00, -1.1763868809071460e+00,
       3.5102702914796002e+00, -1.1147062490139394e+00,
       3.4922381096019999e+00, -1.1070838490187513e+00,
       3.4883731756387291e+00, -1.1744896341276454e+00,
       3.4683491733885066e+00, -1.2368415669834387e+00,
       3.4235196572177395e+00, -1.2891264677778891e+00,
       3.3741288632865944e+00, -1.3299763578731689e+00,
       3.3307304738755330e+00, -1.3647507754655870e+00,
       3.2728529790385212e+00, -1.3910071071589796e+00,
       3.2117181521055351e+00, -1.4137438779427023e+00,
       3.1534320688852735e+00, -1.4206503619293824e+00,
       3.1048431295604688e+00, -1.4193960368894389e+00,
       3.0763181513551459e+00, -1.4182991747840701e+00,
       3.0630035622197926e+00, -1.4066380267921070e+00,
       3.0750440569998481e+00, -1.3972174967029203e+00,
       3.0957423900515439e+00, -1.3843630456959160e+00,
       3.1440234093383808e+00, -1.3747020981651641e+00,
       3.2103925738065779e+00, -1.3636361756573960e+00,
       3.3120239314470150e+00, -1.3522530793909258e+00,
       3.4457396951380161e+00, -1.3524740884782063e+00,
       3.5146227034429067e+00, -1.3584276387850001e+00,
       3.5025803097001851e+00, -1.3584342784160213e+00,
       3.4810962945152002e+00, -1.3574238426454570e+00,
       3.4238114425928661e+00, -1.3596855966858186e+00,
       3.3032880996576006e+00, -1.3698966758510547e+00,
       3.1773317151892364e+00, -1.3808888675464013e+00,
       3.1177857514852030e+00, -1.3846060782615870e+00,
       3.1106085316401053e+00, -1.3844886054174415e+00,
       3.1488829887115410e+00, -1.3764088964911079e+00,
       3.2637121539774863e+00, -1.3663896654685492e+00,
       3.3757269917871060e+00, -1.3501916928324540e+00,
       3.4589436544599543e+00, -1.3499034371302867e+00,
       3.5000107228220338e+00, -1.3534807490570604e+00,
       3.5109494599097997e+00, -1.3550557202652673e+00,
       3.4581762643993046e+00, -1.3512709151263445e+00,
       3.3372729726255703e+00, -1.3545221249898924e+00,
       3.2236042838882324e+00, -1.3635585237943399e+00,
       3.1496930374052030e+00, -1.3736407739330114e+00,
       3.1070842703932473e+00, -1.3841607887488605e+00,
       3.0728503628012285e+00, -1.3940942016200524e+00,
       3.0636326599386123e+00, -1.4061568710766048e+00,
       3.0707797172310065e+00, -1.4137643181923667e+00,
       3.0943138374250538e+00, -1.4199225300147091e+00,
       3.1334606859921359e+00, -1.4215374053952801e+00,
       3.1855998753983807e+00, -1.4130792482782504e+00,
       3.2527367407486860e+00, -1.3994923431777850e+00,
       3.3110619255701237e+00, -1.3743130679251903e+00,
       3.3634042720873136e+00, -1.3444834364330644e+00,
       3.4101859837101496e+00, -1.3006404478498121e+00,
       3.4755045361597618e+00, -1.2524364859714470e+00,
       3.4944811498041961e+00, -1.1888658841720612e+00,
       3.5031432645596965e+00, -1.1279647732315288e+00,
       3.4901676293800903e+00, -1.1179269340097784e+00,
       3.4751030519745738e+00, -1.1867540714144729e+00,
       3.4440317446524000e+00, -1.2499015542245542e+00,
       3.3897200362177733e+00, -1.3001673168205206e+00,
       3.3356292883993994e+00, -1.3396924839567219e+00,
       3.2881713086721120e+00, -1.3692485335795164e+00,
       3.2291408332577354e+00, -1.4017821226038354e+00,
       3.1683268425660160e+00, -1.4222341516008874e+00,
       3.1050682052680574e+00, -1.4287362230809610e+00,
       3.0622923906262538e+00, -1.4302261160922909e+00,
       3.0323044060468867e+00, -1.4249112789026939e+00,
       3.0247234928241888e+00, -1.4168958692476905e+00,
       3.0320022309621422e+00, -1.4102298445477923e+00,
       3.0502140300428682e+00, -1.4007579904413072e+00,
       3.0867909257681578e+00, -1.3892944742720887e+00,
       3.1396178924386269e+00, -1.3775585910696180e+00,
       3.2246608077609822e+00, -1.3704300445764517e+00,
       3.3476341496751241e+00, -1.3715713413204988e+00,
       3.4412750643272161e+00, -1.3714512735857942e+00,
       3.4649658004390438e+00, -1.3669313817045210e+00,
       3.4457689074992461e+00, -1.3703776668645862e+00,
       3.3944604260415479e+00, -1.3823501485952090e+00,
       3.2813569948354488e+00, -1.3971493421050445e+00,
       3.1592310226275599e+00, -1.4063119926498004e+00,
       3.0984767584994160e+00, -1.4154134740977795e+00,
       3.0894867040933871e+00, -1.4148667918468032e+00,
       3.1436285543741258e+00, -1.4084108012541321e+00,
       3.2540122201157282e+00, -1.3926657545185628e+00,
       3.3594722126142518e+00, -1.3765202555212508e+00,
       3.4299860537959845e+00, -1.3669373358377233e+00,
       3.4677237477226051e+00, -1.3660346461740489e+00,
       3.4494651574602755e+00, -1.3666341647263480e+00,
       3.3637728248423220e+00, -1.3654168894529637e+00,
       3.2438019928285495e+00, -1.3689323813642658e+00,
       3.1528713913761335e+00, -1.3782208850771867e+00,
       3.0955130878117165e+00, -1.3888076788582671e+00,
       3.0532624123900538e+00, -1.3972973780772051e+00,
       3.0321255091722343e+00, -1.4065721682007148e+00,
       3.0217810812527706e+00, -1.4167669889505747e+00,
       3.0292941784969445e+00, -1.4220760694620531e+00,
       3.0472790589287864e+00, -1.4260857015940271e+00,
       3.0911239053926609e+00, -1.4290873904748618e+00,
       3.1396883792565013e+00, -1.4203450626895622e+00,
       3.2070563925186764e+00, -1.4076124526191296e+00,
       3.2673591918234317e+00, -1.3818247337936393e+00,
       3.3242723323292589e+00, -1.3519149520264402e+00,
       3.3800441819750571e+00, -1.3137089578550267e+00,
       3.4381873578138995e+00, -1.2667481274879986e+00,
       3.4801312169127754e+00, -1.2015356077479591e+00,
       3.5002337499160645e+00, -1.1369190366456321e+00,
       3.4804950459566411e+00, -1.1255313066243784e+00,
       3.4526177596335592e+00, -1.1903871708412559e+00,
       3.4160540945582838e+00, -1.2570099940710300e+00,
       3.3593132537954125e+00, -1.3057502412201285e+00,
       3.2999866182985782e+00, -1.3441139021929396e+00,
       3.2508714459378840e+00, -1.3769741645783136e+00,
       3.1934650887626561e+00, -1.4088504622360682e+00,
       3.1338532381842858e+00, -1.4272396831037366e+00,
       3.0716922770470894e+00, -1.4326442884902679e+00,
       3.0331452546147166e+00, -1.4341680104997623e+00,
       3.0125028763084813e+00, -1.4330417580861354e+00,
       3.0099466278619005e+00, -1.4284130296056112e+00,
       3.0106845578215520e+00, -1.4192203150196683e+00,
       3.0247480293947993e+00, -1.4110291436994229e+00,
       3.0457693610255778e+00, -1.4027137165396433e+00,
       3.0842385072211886e+00, -1.3936629662584010e+00,
       3.1582057422538852e+00, -1.3873294645377157e+00,
       3.2623537448280060e+00, -1.3875209928062906e+00,
       3.3666500295964741e+00, -1.3833993683367112e+00,
       3.4207548035784709e+00, -1.3786012595174144e+00,
       3.4204142320345423e+00, -1.3822081422090169e+00,
       3.3749142477814744e+00, -1.3952048001589363e+00,
       3.2784242870885003e+00, -1.4153995306113136e+00,
       3.1624698846166099e+00, -1.4277811460151260e+00,
       3.0817435155779029e+00, -1.4291065760414643e+00,
       3.0766214121211037e+00, -1.4305845120855918e+00,
       3.1434177444442275e+00, -1.4299674985593114e+00,
       3.2545392786666625e+00, -1.4150422531460685e+00,
       3.3419574814434481e+00, -1.3932496482776617e+00,
       3.4115636165369665e+00, -1.3799605176955152e+00,
       3.4223218987232782e+00, -1.3749577986167276e+00,
       3.3742724881030615e+00, -1.3761519226800514e+00,
       3.2920615495967884e+00, -1.3842621309569021e+00,
       3.1844232941432731e+00, -1.3865592870108836e+00,
       3.0992244614084381e+00, -1.3905132606095760e+00,
       3.0501934662916756e+00, -1.3977116958957088e+00,
       3.0242092343541578e+00, -1.4054337195399644e+00,
       3.0082050270073228e+00, -1.4142577520577504e+00,
       3.0045020255728376e+00, -1.4249922892993703e+00,
       3.0090503171371004e+00, -1.4303811090268530e+00,
       3.0224458168199018e+00, -1.4324404994019144e+00,
       3.0613920026124029e+00, -1.4319441921194402e+00,
       3.1094843919791693e+00, -1.4251990385096283e+00,
       3.1757016187346010e+00, -1.4150605444523319e+00,
       3.2314057554222435e+00, -1.3883139860762976e+00,
       3.2900203134417114e+00, -1.3578861320998277e+00,
       3.3524791594786048e+00, -1.3188782577994889e+00,
       3.4094340327127997e+00, -1.2720919530985957e+00,
       3.4492866985704507e+00, -1.2087516988769480e+00,
       3.4828328132638124e+00, -1.1402372777383385e+00,
       3.4750050203539646e+00, -1.1289513074944630e+00,
       3.4271248213577388e+00, -1.1921063894598840e+00,
       3.3931574186062412e+00, -1.2615182669503393e+00,
       3.3386377735596602e+00, -1.3109118233804042e+00,
       3.2728990344373421e+00, -1.3465746269409620e+00,
       3.2249949291423894e+00, -1.3801239909275640e+00,
       3.1652435701032093e+00, -1.4106898527111988e+00,
       3.1077910689612973e+00, -1.4295562458681370e+00,
       3.0502230353243815e+00, -1.4340782009047814e+00,
       3.0221255299699123e+00, -1.4365472109780750e+00,
       3.0101947638725073e+00, -1.4355140246292606e+00,
       3.0132154349105806e+00, -1.4334495760502541e+00,
       3.0134409694673421e+00, -1.4253495995141328e+00,
       3.0253716019838799e+00, -1.4210905584856404e+00,
       3.0343873571897504e+00, -1.4121646438620807e+00,
       3.0684516414542076e+00, -1.4078612031798907e+00,
       3.1111475972276761e+00, -1.4018377868081831e+00,
       3.2036781960246055e+00, -1.3999177232117734e+00,
       3.3106475338713648e+00, -1.3969692728089358e+00,
       3.3707318354911258e+00, -1.3907983176677374e+00,
       3.3954572961645160e+00, -1.3938068103247097e+00,
       3.3559001787120257e+00, -1.4059967100858977e+00,
       3.2722610969693116e+00, -1.4248732063962004e+00,
       3.1650451494626775e+00, -1.4388451306611798e+00,
       3.0816089011635452e+00, -1.4394321994248487e+00,
       3.0781450622522373e+00, -1.4407482802230884e+00,
       3.1508843131246169e+00, -1.4385308927465854e+00,
       3.2531893273983923e+00, -1.4235456327442291e+00,
       3.3326754742661118e+00, -1.4044728261008577e+00,
       3.3855685820656243e+00, -1.3905838182991925e+00,
       3.3764504317023611e+00, -1.3858429972635360e+00,
       3.3203824805675302e+00, -1.3862819832892266e+00,
       3.2244303740142892e+00, -1.3911027489031265e+00,
       3.1353232150754713e+00, -1.3983442729409323e+00,
       3.0767084650427132e+00, -1.4027946124900441e+00,
       3.0343037233279011e+00, -1.4060275315873141e+00,
       3.0254161981636001e+00, -1.4179643519262117e+00,
       3.0181662629198618e+00, -1.4255485002076940e+00,
       3.0111814811060138e+00, -1.4297362631134942e+00,
       3.0087518671908926e+00, -1.4336768018334156e+00,
       3.0153106355893202e+00, -1.4333012341970075e+00,
       3.0465292055253057e+00, -1.4337735976949237e+00,
       3.0874433762671281e+00, -1.4279972375543633e+00,
       3.1531108133490302e+00, -1.4165085759057885e+00,
       3.2145157035881735e+00, -1.3897564283910688e+00,
       3.2734616479346235e+00, -1.3594401799191502e+00,
       3.3362819545732716e+00, -1.3223660031003042e+00,
       3.3874004082349409e+00, -1.2765246382477879e+00,
       3.4282916632767400e+00, -1.2139059855015097e+00,
       3.4626383727678438e+00, -1.1419789657594077e+00,
       3.4650049295301266e+00, -1.1307434283938702e+00,
       3.4185342220641717e+00, -1.1989011675985599e+00,
       3.3739182780879853e+00, -1.2643585231749437e+00,
       3.3111562168621127e+00, -1.3106885928693379e+00,
       3.2543959765668271e+00, -1.3471915354764696e+00,
       3.2038090206487881e+00, -1.3779217250874316e+00,
       3.1512921015571105e+00, -1.4088164496452824e+00,
       3.0954497289352694e+00, -1.4257453270790215e+00,
       3.0519798304615042e+00, -1.4333865131955548e+00,
       3.0308718784631354e+00, -1.4333437291483286e+00,
       3.0256940213408106e+00, -1.4376212237740076e+00,
       3.0309034246203521e+00, -1.4338137679274345e+00,
       3.0295435018361161e+00, -1.4271543355425098e+00,
       3.0371134098305705e+00, -1.4238630447184768e+00,
       3.0437768785764225e+00, -1.4176604799972046e+00,
       3.0635819297108271e+00, -1.4110472130897629e+00,
       3.0997805460716159e+00, -1.4078094924824716e+00,
       3.1675153108675156e+00, -1.4043265526727968e+00,
       3.2569682309367693e+00, -1.3994275610424931e+00,
       3.3293516785471002e+00, -1.3996196452184542e+00,
       3.3620740790327375e+00, -1.4021556655134011e+00,
       3.3439105178465702e+00, -1.4113979689004059e+00,
       3.2818067666479798e+00, -1.4296154138515289e+00,
       3.1741983110212599e+00, -1.4460110912895958e+00,
       3.0825216338628385e+00, -1.4474724402764403e+00,
       3.0759281405935215e+00, -1.4468664472427533e+00,
       3.1563155455827645e+00, -1.4435897748955355e+00,
       3.2618791216361562e+00, -1.4276356457113877e+00,
       3.3242536682164183e+00, -1.4077058643230511e+00,
       3.3604737036869836e+00, -1.3977694816625679e+00,
       3.3280338287093159e+00, -1.3877744688279803e+00,
       3.2736301407410289e+00, -1.3920997010905949e+00,
       3.1941276974421906e+00, -1.4028415577531268e+00,
       3.1184562138574652e+00, -1.4071363482560981e+00,
       3.0692329088566144e+00, -1.4092148870686678e+00,
       3.0452257781814862e+00, -1.4125266482625569e+00,
       3.0395810148536722e+00, -1.4209517885863501e+00,
       3.0294074173542072e+00, -1.4248025652431793e+00,
       3.0264759508362280e+00, -1.4276884635116487e+00,
       3.0224146518067805e+00, -1.4304426203710883e+00,
       3.0267673441809064e+00, -1.4312676017388266e+00,
       3.0480428047945245e+00, -1.4317165557782392e+00,
       3.0765036772421839e+00, -1.4228972616944926e+00,
       3.1372443050278189e+00, -1.4137160610704569e+00,
       3.1972999919181277e+00, -1.3878694407234298e+00,
       3.2536797949833161e+00, -1.3567975078976098e+00,
       3.3117151010745123e+00, -1.3195114455581196e+00,
       3.3630999569021207e+00, -1.2769951280425311e+00,
       3.4102125117279876e+00, -1.2176420804230317e+00,
       3.4414902016995828e+00, -1.1430217808520304e+00,
       3.4455467752488271e+00, -1.1297773862479861e+00,
       3.4137154871972375e+00, -1.2050711261670886e+00,
       3.3639468056223731e+00, -1.2633231137114023e+00,
       3.2998906026986030e+00, -1.3068539856319652e+00,
       3.2464108742947611e+00, -1.3398625344736930e+00,
       3.1977786685587737e+00, -1.3707664467876624e+00,
       3.1511528320863849e+00, -1.4018588331825810e+00,
       3.1044488365835576e+00, -1.4149966613961118e+00,
       3.0672378962666995e+00, -1.4209580659923651e+00,
       3.0592943693486170e+00, -1.4248179528600826e+00,
       3.0563298638569418e+00, -1.4241356658605251e+00,
       3.0596556495327989e+00, -1.4227023404055048e+00,
       3.0624176861360688e+00, -1.4188882898487558e+00,
       3.0612912383304822e+00, -1.4154983556821601e+00,
       3.0644086156163244e+00, -1.4132185629184602e+00,
       3.0757115161665962e+00, -1.4101881438554578e+00,
       3.1019907305576804e+00, -1.4061906506386266e+00,
       3.1606992336750803e+00, -1.4035985767101093e+00,
       3.2452664766132067e+00, -1.4035737704535161e+00,
       3.3062232313786168e+00, -1.3984301194255184e+00,
       3.3362528275049748e+00, -1.3971879987561155e+00,
       3.3370664349069976e+00, -1.4096384942805034e+00,
       3.2868902573396404e+00, -1.4300738058671121e+00,
       3.1794466374439039e+00, -1.4453402232742223e+00,
       3.0849440348831298e+00, -1.4485092319180768e+00,
       3.0787465901162934e+00, -1.4469761383818376e+00,
       3.1616768512747733e+00, -1.4437884734945776e+00,
       3.2623724390302979e+00, -1.4236804969897541e+00,
       3.3230150503608571e+00, -1.4071054210403628e+00,
       3.3332650130028538e+00, -1.3943045934368938e+00,
       3.3128106966429809e+00, -1.3922586814978719e+00,
       3.2544549566091976e+00, -1.3960742126254346e+00,
       3.1845214267521951e+00, -1.4031722543920773e+00,
       3.1239684382088750e+00, -1.4067988532478821e+00,
       3.0894715719232662e+00, -1.4091752276716862e+00,
       3.0721239778045399e+00, -1.4112810635352606e+00,
       3.0633379798114522e+00, -1.4108448535391216e+00,
       3.0634822081902504e+00, -1.4160047506011706e+00,
       3.0578130978101314e+00, -1.4165053342110965e+00,
       3.0574164978757401e+00, -1.4188433447105770e+00,
       3.0545921990900053e+00, -1.4196266448645591e+00,
       3.0649151881435879e+00, -1.4221097932386420e+00,
       3.0853756414582545e+00, -1.4121179174843330e+00,
       3.1371755680942011e+00, -1.4049564851566534e+00,
       3.1984191252858452e+00, -1.3832984276420974e+00,
       3.2430973511128784e+00, -1.3507083756999869e+00,
       3.3073435631541965e+00, -1.3174529694439341e+00,
       3.3503316763095530e+00, -1.2749029475894040e+00,
       3.3944404786883804e+00, -1.2159367950846338e+00,
       3.4373461504262708e+00, -1.1472931659078749e+00,
       3.4487260842013137e+00, -1.1303282724852346e+00,
       3.4123569789766321e+00, -1.2036298837680326e+00,
       3.3551099850807371e+00, -1.2599351003695261e+00,
       3.3014868879254968e+00, -1.2986344886378165e+00,
       3.2504882729813160e+00, -1.3302732399771453e+00,
       3.2124231339321803e+00, -1.3603670000402510e+00,
       3.1650657495247776e+00, -1.3870160471011324e+00,
       3.1337541444015113e+00, -1.4037140723195234e+00,
       3.1158537444511620e+00, -1.4115223108242789e+00,
       3.1084937290953807e+00, -1.4121049479915952e+00,
       3.1067487932789613e+00, -1.4089222552349350e+00,
       3.1160843207928037e+00, -1.4084022462989461e+00,
       3.1205005443569069e+00, -1.4072608732131684e+00,
       3.1294766338418962e+00, -1.4054961134269253e+00,
       3.1286100086151789e+00, -1.4041094409128485e+00,
       3.1200284895781718e+00, -1.4042335737870035e+00,
       3.1275303177910452e+00, -1.4026107519521473e+00,
       3.1681147096724938e+00, -1.4011691520145997e+00,
       3.2387706216216268e+00, -1.3971097693619714e+00,
       3.3000111500828169e+00, -1.3933680416475962e+00,
       3.3424815690714955e+00, -1.3947883726246455e+00,
       3.3348266577923584e+00, -1.4013116416402360e+00,
       3.2871575552931440e+00, -1.4223103941373900e+00,
       3.1792269467548437e+00, -1.4426458289147672e+00,
       3.0903783226464179e+00, -1.4464270692735524e+00,
       3.0830655105665667e+00, -1.4455841550949262e+00,
       3.1643571530830754e+00, -1.4408875035021058e+00,
       3.2654902950865430e+00, -1.4205285083582766e+00,
       3.3196559156341103e+00, -1.3999432843105464e+00,
       3.3328687281767788e+00, -1.3868676011043715e+00,
       3.3160635946790249e+00, -1.3888520320757720e+00,
       3.2578480250127853e+00, -1.3932864826926952e+00,
       3.1915921523382194e+00, -1.3969806142435848e+00,
       3.1390279568210544e+00, -1.3959080722889148e+00,
       3.1307682649131792e+00, -1.3978287342002043e+00,
       3.1308910530581486e+00, -1.4022919193160148e+00,
       3.1263458526919297e+00, -1.4017631828193238e+00,
       3.1244243410244503e+00, -1.4018059626015051e+00,
       3.1152844130000248e+00, -1.4044983761938710e+00,
       3.1039153694152999e+00, -1.4015174047091621e+00,
       3.1054088384640051e+00, -1.4076083616574102e+00,
       3.1095891491728040e+00, -1.4064918001412463e+00,
       3.1189628699679899e+00, -1.4014733410566720e+00,
       3.1529989581575886e+00, -1.3892209861850393e+00,
       3.2073210268732661e+00, -1.3745253496016727e+00,
       3.2563650587668467e+00, -1.3452145362370709e+00,
       3.3045229659333737e+00, -1.3092314894733590e+00,
       3.3500520771984208e+00, -1.2688657390573879e+00,
       3.3884431717714532e+00, -1.2159601279287864e+00,
       3.4323861626339354e+00, -1.1423584726516554e+00,
       3.4575788535848275e+00, -1.1260326130059284e+00,
       3.4151532454229945e+00, -1.1969127642115303e+00,
       3.3614333077849130e+00, -1.2545189314309653e+00,
       3.3110329006825880e+00, -1.2924385001598988e+00,
       3.2767776109909792e+00, -1.3259394229369994e+00,
       3.2410197573669128e+00, -1.3500864195759872e+00,
       3.2031867500465374e+00, -1.3735935601200311e+00,
       3.1782950423143412e+00, -1.3867924836574372e+00,
       3.1708574803754401e+00, -1.3883361961441625e+00,
       3.1703780052201833e+00, -1.3878709810874568e+00,
       3.1823620317702939e+00, -1.3883488869321474e+00,
       3.1890170798881035e+00, -1.3863664548893377e+00,
       3.2074249094284251e+00, -1.3888965216702107e+00,
       3.2151941084140945e+00, -1.3834130684101662e+00,
       3.2261545467743660e+00, -1.3858964205888060e+00,
       3.2116487959394457e+00, -1.3873742059306806e+00,
       3.1949225321500720e+00, -1.3887668713290680e+00,
       3.2004775208250575e+00, -1.3911815106204493e+00,
       3.2506699430639983e+00, -1.3916067098619185e+00,
       3.3058083723798983e+00, -1.3864165832912627e+00,
       3.3465818237010931e+00, -1.3837323851799066e+00,
       3.3478710152176605e+00, -1.3933835407773791e+00,
       3.2891915075317781e+00, -1.4127576137451141e+00,
       3.1802496988442943e+00, -1.4344794900859028e+00,
       3.0876881835774377e+00, -1.4414957516021922e+00,
       3.0785171214073195e+00, -1.4400380833445832e+00,
       3.1650761970449866e+00, -1.4369375097179553e+00,
       3.2655856739896461e+00, -1.4149557310431480e+00,
       3.3211033030860371e+00, -1.3866949562836941e+00,
       3.3387337864258471e+00, -1.3761169958592898e+00,
       3.3202951118500752e+00, -1.3822460633426905e+00,
       3.2773206190237683e+00, -1.3877885576759923e+00,
       3.2241961152849012e+00, -1.3870092379516175e+00,
       3.2012778174264378e+00, -1.3845243437397421e+00,
       3.2137286515472900e+00, -1.3837231887920136e+00,
       3.2201514240735243e+00, -1.3793301558994953e+00,
       3.2121114980481216e+00, -1.3763721340346742e+00,
       3.1951953840275933e+00, -1.3781736326693743e+00,
       3.1871401599577696e+00, -1.3823287478782826e+00,
       3.1763201360839513e+00, -1.3847763962963762e+00,
       3.1653818565689611e+00, -1.3850363292528438e+00,
       3.1636588986071019e+00, -1.3881310698306049e+00,
       3.1731005625341755e+00, -1.3854996268514770e+00,
       3.1902864567749742e+00, -1.3737443268681899e+00,
       3.2357413430551247e+00, -1.3609359435419675e+00,
       3.2718590654553652e+00, -1.3318313426619639e+00,
       3.3166482082690569e+00, -1.2973984207029965e+00,
       3.3468954028940101e+00, -1.2581103682303774e+00,
       3.3956520535877379e+00, -1.2080019350843236e+00,
       3.4444675310477333e+00, -1.1387972026616022e+00,
       3.4687458773923607e+00, -1.1178366532808695e+00,
       3.4148057077559546e+00, -1.1898425969060908e+00,
       3.3721168199083928e+00, -1.2456967570753223e+00,
       3.3232936422830739e+00, -1.2753106601289133e+00,
       3.2973343589462680e+00, -1.3089738579735215e+00,
       3.2770885072796347e+00, -1.3316029928310411e+00,
       3.2639831657575509e+00, -1.3512561465441000e+00,
       3.2612370601053380e+00, -1.3604883061495090e+00,
       3.2680183962044933e+00, -1.3672537436498160e+00,
       3.2800422634314099e+00, -1.3710885788381431e+00,
       3.2928960332700803e+00, -1.3674251191675395e+00,
       3.3050921508662663e+00, -1.3640060168729304e+00,
       3.3154704805065909e+00, -1.3609187780122516e+00,
       3.3294331277380409e+00, -1.3601036838342841e+00,
       3.3514961413911752e+00, -1.3624575406602402e+00,
       3.3464634628873071e+00, -1.3626984063089707e+00,
       3.3168418841514344e+00, -1.3646829824318341e+00,
       3.2804430367151851e+00, -1.3719200324473808e+00,
       3.2921972577671763e+00, -1.3775916495556750e+00,
       3.3263372864781044e+00, -1.3727919463545768e+00,
       3.3628637825392764e+00, -1.3731566470062608e+00,
       3.3625489481156450e+00, -1.3815458741188686e+00,
       3.3040191369308962e+00, -1.4023980504491997e+00,
       3.1844370520301868e+00, -1.4233258373764781e+00,
       3.0847190038499068e+00, -1.4321076118978600e+00,
       3.0780862167142513e+00, -1.4347757062896034e+00,
       3.1642772115533080e+00, -1.4278086412656219e+00,
       3.2693801199881056e+00, -1.4006374987767634e+00,
       3.3377184223953735e+00, -1.3752808352998258e+00,
       3.3560940824964525e+00, -1.3667149965747312e+00,
       3.3436839713286530e+00, -1.3715865018768520e+00,
       3.3154424511232281e+00, -1.3711924962229132e+00,
       3.3023248568026897e+00, -1.3658931200279523e+00,
       3.3142947762787673e+00, -1.3573635805906270e+00,
       3.3475456907441066e+00, -1.3564514345948375e+00,
       3.3400628820057672e+00, -1.3511115147907080e+00,
       3.3261208955858308e+00, -1.3509005541322223e+00,
       3.3040767258674975e+00, -1.3570364660232535e+00,
       3.2919719165989805e+00, -1.3616933703692065e+00,
       3.2844185594427850e+00, -1.3669317519949169e+00,
       3.2789001938295357e+00, -1.3705184207911565e+00,
       3.2626167462253286e+00, -1.3693995143915005e+00,
       3.2535051557938388e+00, -1.3635041464551079e+00,
       3.2602054098807924e+00, -1.3538888634541204e+00,
       3.2741707975478147e+00, -1.3395948742970119e+00,
       3.2960474650779847e+00, -1.3164859453776949e+00,
       3.3193812918942251e+00, -1.2816651188994215e+00,
       3.3596926203681781e+00, -1.2481444114695781e+00,
       3.4049695761808265e+00, -1.1994235880643773e+00,
       3.4535352456068336e+00, -1.1251779427949893e+00,
       3.4715146807479682e+00, -1.1004689295465369e+00,
       3.4341658430301396e+00, -1.1812003552670376e+00,
       3.3879343560710913e+00, -1.2319168775159330e+00,
       3.3540601993864971e+00, -1.2624350141264116e+00,
       3.3387988333950771e+00, -1.2916438731892190e+00,
       3.3405700742372120e+00, -1.3127028572929722e+00,
       3.3463768925038773e+00, -1.3232685240901318e+00,
       3.3688320185396723e+00, -1.3315101992524745e+00,
       3.4022223789328172e+00, -1.3334608224043545e+00,
       3.4191524150165233e+00, -1.3342738712966156e+00,
       3.4264812161843707e+00, -1.3359407381249488e+00,
       3.4330954401239624e+00, -1.3342460063400994e+00,
       3.4480356992720487e+00, -1.3248873963809422e+00,
       3.4661856175194465e+00, -1.3218100531084926e+00,
       3.4907917671088153e+00, -1.3231598825402617e+00,
       3.5062654566359606e+00, -1.3317491430489354e+00,
       3.5009464926581457e+00, -1.3380715561898104e+00,
       3.4332576656052876e+00, -1.3443732466525253e+00,
       3.3722688636403761e+00, -1.3507276490191473e+00,
       3.3676989710471732e+00, -1.3536170332558795e+00,
       3.3908991441874963e+00, -1.3562379713053536e+00,
       3.3825947565064625e+00, -1.3680992135774330e+00,
       3.3134817854420926e+00, -1.3892417255009650e+00,
       3.1784663251465375e+00, -1.4133250413493894e+00,
       3.0822097312102157e+00, -1.4238024196822281e+00,
       3.0752724523774657e+00, -1.4254732880111558e+00,
       3.1526692528460374e+00, -1.4133908775476551e+00,
       3.2836164929172793e+00, -1.3902580463725145e+00,
       3.3550654920618266e+00, -1.3642845839749662e+00,
       3.3858583846190995e+00, -1.3513960631313486e+00,
       3.3866644531023993e+00, -1.3481579977246625e+00,
       3.3906264580483456e+00, -1.3463483226387396e+00,
       3.4201386436959162e+00, -1.3353472094726793e+00,
       3.4746090484695373e+00, -1.3314722837471631e+00,
       3.5034683486375253e+00, -1.3271490441665061e+00,
       3.4808357340178677e+00, -1.3217003127166838e+00,
       3.4556841121592798e+00, -1.3228590504399422e+00,
       3.4299805050049108e+00, -1.3261196147332162e+00,
       3.4074341008456255e+00, -1.3305871075414721e+00,
       3.4062408421294257e+00, -1.3355695305226787e+00,
       3.4099807760127079e+00, -1.3327206822550031e+00,
       3.3929438956097520e+00, -1.3314966692768462e+00,
       3.3695693498627821e+00, -1.3297850606180908e+00,
       3.3467915857742510e+00, -1.3242373231249287e+00,
       3.3384772661010209e+00, -1.3165702231347376e+00,
       3.3334494607517602e+00, -1.2973402113799195e+00,
       3.3514604294435610e+00, -1.2703436825093095e+00,
       3.3786552490839274e+00, -1.2334250365318467e+00,
       3.4173910651214072e+00, -1.1836187508246738e+00,
       3.4748568386521406e+00, -1.1107881745596064e+00,
       3.4906177981285169e+00, -1.0835417274603476e+00,
       3.4615050498201705e+00, -1.1669877594427525e+00,
       3.4155249731436061e+00, -1.2173908061761844e+00,
       3.3951665462632437e+00, -1.2530589460407804e+00,
       3.3926324392793910e+00, -1.2787251792732448e+00,
       3.4233728304502677e+00, -1.2889221781180300e+00,
       3.4612231224531196e+00, -1.2836527883351903e+00,
       3.5151292562409457e+00, -1.2751992470320657e+00,
       3.5570571830985460e+00, -1.2763326586020372e+00,
       3.5623171919080976e+00, -1.2856352344776396e+00,
       3.5510322401187926e+00, -1.2889773995359972e+00,
       3.5446122827580582e+00, -1.2831719301493179e+00,
       3.5751680929772203e+00, -1.2713317393396293e+00,
       3.6202093945782798e+00, -1.2715561717147847e+00,
       3.6457858126837333e+00, -1.2784449945938896e+00,
       3.6722116168769832e+00, -1.2948120872357693e+00,
       3.6822319247848121e+00, -1.3047038442207322e+00,
       3.6030503235999229e+00, -1.3113524671302879e+00,
       3.4692392653403576e+00, -1.3104983883166299e+00,
       3.4101607823090041e+00, -1.3179484361080249e+00,
       3.4162881029692733e+00, -1.3302528918354872e+00,
       3.4045702083993330e+00, -1.3495734514961957e+00,
       3.3190409388172673e+00, -1.3806874468948691e+00,
       3.1690900205672450e+00, -1.4044971058062443e+00,
