%YAML:1.0
my_nn: !!opencv-ml-ann-mlp
   layer_sizes: !!opencv-matrix
      rows: 1
      cols: 3
      dt: i
      data: [ 2500, 12, 2 ]
   activation_function: SIGMOID_SYM
   f_param1: 1.
   f_param2: 1.
   min_val: -9.4999999999999996e-01
   max_val: 9.4999999999999996e-01
   min_val1: -9.7999999999999998e-01
   max_val1: 9.7999999999999998e-01
   training_params:
      train_method: RPROP
      dw0: 1.0000000000000001e-01
      dw_plus: 1.2000000000000000e+00
      dw_minus: 5.0000000000000000e-01
      dw_min: 1.1920928955078125e-07
      dw_max: 50.
      term_criteria: { epsilon:9.9999997764825821e-03, iterations:1000 }
   input_scale: [ 3.2463472333540664e+00, -9.2628038642111854e-01,
       3.2851745229428575e+00, -9.2635978130491781e-01,
       3.3668830348976786e+00, -9.2854346733019000e-01,
       3.4348754853298389e+00, -9.3310721097373839e-01,
       3.4970457793208296e+00, -9.3683023562394618e-01,
       3.5829403731898415e+00, -9.5356776825054912e-01,
       3.6495984044785916e+00, -9.6399725994445395e-01,
       3.7579720348493821e+00, -9.8929839782367868e-01,
       3.7962299492088309e+00, -1.0090399743316731e+00,
       3.8244853590460499e+00, -1.0338370752006696e+00,
       3.8425406216713505e+00, -1.0653473925216836e+00,
       3.8575293486309463e+00, -1.0982554794515342e+00,
       3.8626057022300500e+00, -1.1362454911784101e+00,
       3.8456237441114283e+00, -1.1711783249356991e+00,
       3.8241241663361065e+00, -1.2011816737790886e+00,
       3.7892471317210750e+00, -1.2282048094514646e+00,
       3.7345126855659547e+00, -1.2469344356563012e+00,
       3.6819121359221234e+00, -1.2616064456705516e+00,
       3.6397480424078803e+00, -1.2697613118999813e+00,
       3.6079907633665456e+00, -1.2788302556524076e+00,
       3.5776158295806484e+00, -1.2902689185403062e+00,
       3.5469858824704028e+00, -1.2983500481026353e+00,
       3.5297087095948734e+00, -1.3003832867409166e+00,
       3.5168980655072315e+00, -1.3012240331014033e+00,
       3.5160647489845660e+00, -1.3009424946920745e+00,
       3.5183372954110017e+00, -1.2979166946045653e+00,
       3.5150746838689706e+00, -1.2964109559620676e+00,
       3.5117838993095010e+00, -1.2969894219543769e+00,
       3.5345277553335936e+00, -1.2956897467761095e+00,
       3.5728529739923660e+00, -1.2919529097844498e+00,
       3.5981893536505249e+00, -1.2868826906083402e+00,
       3.6375906863313898e+00, -1.2764697530401989e+00,
       3.6781262076867258e+00, -1.2641993629350725e+00,
       3.7357738225921659e+00, -1.2483555020850359e+00,
       3.7784355748894405e+00, -1.2256214191717849e+00,
       3.8066154707290636e+00, -1.2034815381042143e+00,
       3.8249986567697229e+00, -1.1708154115983145e+00,
       3.8209779302739908e+00, -1.1386017586827151e+00,
       3.8298747664651707e+00, -1.1087475950243302e+00,
       3.8304387719720405e+00, -1.0754254809441599e+00,
       3.7958424125309831e+00, -1.0422686130935965e+00,
       3.7773994117902432e+00, -1.0170807339693007e+00,
       3.7169486639137150e+00, -9.9149374372060661e-01,
       3.6347329254810092e+00, -9.7048426296282275e-01,
       3.5611950433120674e+00, -9.6281153547817244e-01,
       3.4983334859110671e+00, -9.4982831119583055e-01,
       3.4343505915282142e+00, -9.4240047173107255e-01,
       3.3684801528041914e+00, -9.3621922685348968e-01,
       3.3128426769989772e+00, -9.2727661594934552e-01,
       3.2674812590616096e+00, -9.2371716243532820e-01,
       3.2463239047808394e+00, -9.2264244774697479e-01,
       3.2882931993283697e+00, -9.2514961431517517e-01,
       3.3671960108658028e+00, -9.2612001198551042e-01,
       3.4482071359238002e+00, -9.3265412088474042e-01,
       3.4962597936393012e+00, -9.3807673663161251e-01,
       3.5861717348545921e+00, -9.5240644315551071e-01,
       3.6701839727184162e+00, -9.6910322091984213e-01,
       3.7474421819525796e+00, -9.9229625543368183e-01,
       3.8053585915918182e+00, -1.0212839017866457e+00,
       3.8257110779935841e+00, -1.0459783212615585e+00,
       3.8294256315222110e+00, -1.0868415717938040e+00,
       3.8422391477325459e+00, -1.1253293703192457e+00,
       3.8242907176819485e+00, -1.1625050431649686e+00,
       3.8189456360323000e+00, -1.1966878006048203e+00,
       3.7755903527673662e+00, -1.2302939817721703e+00,
       3.7390029229787274e+00, -1.2519447893680284e+00,
       3.6929469364018073e+00, -1.2706395067905540e+00,
       3.6468772557251898e+00, -1.2837284805382529e+00,
       3.6149020116620814e+00, -1.2973086381789483e+00,
       3.5733248358244216e+00, -1.3042313618707697e+00,
       3.5460744105868685e+00, -1.3140640732646578e+00,
       3.5072403039036604e+00, -1.3164039549273339e+00,
       3.4941430417253598e+00, -1.3200274058246710e+00,
       3.4864340174283170e+00, -1.3218457421920740e+00,
       3.4940053061924403e+00, -1.3219941704717078e+00,
       3.4906757801711525e+00, -1.3216080096167582e+00,
       3.4894076114031587e+00, -1.3187775985892947e+00,
       3.4898862152351682e+00, -1.3184268452961141e+00,
       3.4978412507673977e+00, -1.3138923412156798e+00,
       3.5261261632833039e+00, -1.3110612158382651e+00,
       3.5658703038768769e+00, -1.3094181264512035e+00,
       3.5967598305897099e+00, -1.2995214261535324e+00,
       3.6353742945774452e+00, -1.2888368153926357e+00,
       3.6760414131868333e+00, -1.2732347027147846e+00,
       3.7407008941247368e+00, -1.2562254557880392e+00,
       3.7716013978534577e+00, -1.2337957712995018e+00,
       3.7984302755489510e+00, -1.2002489772819942e+00,
       3.8098025506452307e+00, -1.1635398447621892e+00,
       3.8099087766988200e+00, -1.1342254334446324e+00,
       3.7962492883980286e+00, -1.0983810241129917e+00,
       3.7775267729393400e+00, -1.0610920454461947e+00,
       3.7439004266942741e+00, -1.0254886914092609e+00,
       3.6966241849057315e+00, -9.9957122303726809e-01,
       3.6398106664225236e+00, -9.7193508808052120e-01,
       3.5540409637444621e+00, -9.5887026442930767e-01,
       3.5044333685923155e+00, -9.5153024182465651e-01,
       3.4495119771729685e+00, -9.4273228304746481e-01,
       3.3825160085551178e+00, -9.3477609979383869e-01,
       3.3329800851373710e+00, -9.2986674887632970e-01,
       3.2810888390720683e+00, -9.2276924197892496e-01,
       3.2270581097746742e+00, -9.2105753227482701e-01,
       3.2843663728395183e+00, -9.2326930757648995e-01,
       3.3664579604831966e+00, -9.2943725152576173e-01,
       3.4499162947127009e+00, -9.3524111707905022e-01,
       3.5092733001191161e+00, -9.4065193409309522e-01,
       3.5850229818297707e+00, -9.5973936001242577e-01,
       3.6581237893260314e+00, -9.8077782255410584e-01,
       3.7489446391142716e+00, -1.0030391635730014e+00,
       3.7982039788985391e+00, -1.0333824900674922e+00,
       3.8095194129339558e+00, -1.0690506393846797e+00,
       3.7987857127832183e+00, -1.1130613865571530e+00,
       3.7969280027353141e+00, -1.1505185762288817e+00,
       3.7937049549210724e+00, -1.1892862349591276e+00,
       3.7690307551016109e+00, -1.2227142911327984e+00,
       3.7437847390500054e+00, -1.2540184491182131e+00,
       3.6881312495634999e+00, -1.2719041102808304e+00,
       3.6559390059471242e+00, -1.2922369848470792e+00,
       3.6359587169151122e+00, -1.3080344571663782e+00,
       3.5997317742630521e+00, -1.3166898418105992e+00,
       3.5599232932456424e+00, -1.3242743357501068e+00,
       3.5310544905712558e+00, -1.3270521245263682e+00,
       3.5039507181607683e+00, -1.3260125748394060e+00,
       3.4859883388592547e+00, -1.3301127513716116e+00,
       3.4827527187848308e+00, -1.3293405049392024e+00,
       3.4822308898829486e+00, -1.3316989495553011e+00,
       3.4855071918050164e+00, -1.3319430538662020e+00,
       3.4802839449200853e+00, -1.3306400677054879e+00,
       3.4871410778684018e+00, -1.3279610066094287e+00,
       3.4986347543431418e+00, -1.3247622194975521e+00,
       3.5120689585731584e+00, -1.3252479666650605e+00,
       3.5423049811172764e+00, -1.3227581587420201e+00,
       3.5792818203509622e+00, -1.3148414696806208e+00,
       3.6150932959215387e+00, -1.3095204328889434e+00,
       3.6387776578556856e+00, -1.2971822157641648e+00,
       3.6797519858108636e+00, -1.2764257994267161e+00,
       3.7262062654476007e+00, -1.2574314861035265e+00,
       3.7632849782148865e+00, -1.2261982250286625e+00,
       3.7824625674862680e+00, -1.1912275916377593e+00,
       3.7902450360437938e+00, -1.1566966344474447e+00,
       3.7679384015940802e+00, -1.1216117820919147e+00,
       3.7575901573246173e+00, -1.0866559464073318e+00,
       3.7385698236883784e+00, -1.0436729456375642e+00,
       3.6929318521865033e+00, -1.0105876403282545e+00,
       3.6442686037341776e+00, -9.8564024359030400e-01,
       3.5557232717179943e+00, -9.6501550135133252e-01,
       3.5019853611421232e+00, -9.4968808955708994e-01,
       3.4514889830585931e+00, -9.4346036818590218e-01,
       3.3847867813099617e+00, -9.3564303683280958e-01,
       3.3259475229067461e+00, -9.2832454340460124e-01,
       3.2709452740237248e+00, -9.2381376733966791e-01,
       3.2398519975700166e+00, -9.2220614002933610e-01,
       3.3012108659419237e+00, -9.2694120697068272e-01,
       3.3672809166361337e+00, -9.2599314041737857e-01,
       3.4491646648778977e+00, -9.3293562627655113e-01,
       3.5302965260593013e+00, -9.4534217973124979e-01,
       3.6066020942613015e+00, -9.7189733634168785e-01,
       3.6606215927886305e+00, -9.8911114505024311e-01,
       3.7321812662863061e+00, -1.0147779566171997e+00,
       3.7791497857760254e+00, -1.0470937287124173e+00,
       3.7851269528937217e+00, -1.0965056441744652e+00,
       3.7834070195929388e+00, -1.1397976364447866e+00,
       3.7720552940103258e+00, -1.1747131885520381e+00,
       3.7548993977381970e+00, -1.2132106652256724e+00,
       3.7260396189530947e+00, -1.2444904855806873e+00,
       3.6910627847246067e+00, -1.2724612489545466e+00,
       3.6567149369307486e+00, -1.2934502747679757e+00,
       3.6426216360332400e+00, -1.3105662019778259e+00,
       3.6305311948556831e+00, -1.3202758319587271e+00,
       3.5991531576531650e+00, -1.3277767098797566e+00,
       3.5623302351863462e+00, -1.3294258048191558e+00,
       3.5344475209928348e+00, -1.3260851514690821e+00,
       3.5117553482017336e+00, -1.3229897579939118e+00,
       3.5000895964096177e+00, -1.3221025292029425e+00,
       3.4925296524452771e+00, -1.3259277672752561e+00,
       3.5055591538647426e+00, -1.3291388002901450e+00,
       3.5036738534635057e+00, -1.3288776609428306e+00,
       3.5002636591179694e+00, -1.3282431417671738e+00,
       3.5058576698938646e+00, -1.3289582448230461e+00,
       3.5087794955969405e+00, -1.3277215894673278e+00,
       3.5295498936743144e+00, -1.3304539597235894e+00,
       3.5506831911994237e+00, -1.3312609311615236e+00,
       3.5717422874947764e+00, -1.3300117769312316e+00,
       3.5972556737983874e+00, -1.3225322809893709e+00,
       3.6158885455238852e+00, -1.3157181273749798e+00,
       3.6442731620976856e+00, -1.2962346681098502e+00,
       3.6769946384507164e+00, -1.2768456783351014e+00,
       3.7181741723279123e+00, -1.2520386375681347e+00,
       3.7489742518798730e+00, -1.2182922767575146e+00,
       3.7605642856153412e+00, -1.1827352174107908e+00,
       3.7619179824734594e+00, -1.1458373305569964e+00,
       3.7450898145199147e+00, -1.1085469703225763e+00,
       3.7448838526336661e+00, -1.0704878743712978e+00,
       3.6901688699195847e+00, -1.0296030251806192e+00,
       3.6427720883392936e+00, -9.9971509767108890e-01,
       3.5763643877534026e+00, -9.7329091484346952e-01,
       3.5029961420460016e+00, -9.5037385960202092e-01,
       3.4489948267657637e+00, -9.4231323341364692e-01,
       3.3846065821154907e+00, -9.3496714233627098e-01,
       3.3180721970079263e+00, -9.2745866921073150e-01,
       3.2606326675372883e+00, -9.2443847625523334e-01,
       3.2366763109173635e+00, -9.2145011804936894e-01,
       3.3044150232949834e+00, -9.2567994964596734e-01,
       3.3748216702635836e+00, -9.2881595471679068e-01,
       3.4532577739693568e+00, -9.3453121812182027e-01,
       3.5363070657481463e+00, -9.5816834168803566e-01,
       3.6337100826171205e+00, -9.7839968219054030e-01,
       3.6606640606414929e+00, -9.9616894680293855e-01,
       3.7085480732915084e+00, -1.0281332882708707e+00,
       3.7593071113220207e+00, -1.0714774412527743e+00,
       3.7509737588259462e+00, -1.1202107286285921e+00,
       3.7596337005683997e+00, -1.1623725023268801e+00,
       3.7234586419602640e+00, -1.1934377993007210e+00,
       3.7076698309764549e+00, -1.2327230253034884e+00,
       3.6884079852866427e+00, -1.2668102010188971e+00,
       3.6636378091766302e+00, -1.2919763482360958e+00,
       3.6424793612385540e+00, -1.3095201902355378e+00,
       3.6365852157959617e+00, -1.3192603703139900e+00,
       3.6272176514367667e+00, -1.3250976438862594e+00,
       3.6037722172717350e+00, -1.3287043222090813e+00,
       3.5831488232833841e+00, -1.3250968664908793e+00,
       3.5593902833138138e+00, -1.3181619443958046e+00,
       3.5472086151515323e+00, -1.3148973694172315e+00,
       3.5297571590740295e+00, -1.3101144786186829e+00,
       3.5231248666890109e+00, -1.3085498731431828e+00,
       3.5232499453426627e+00, -1.3094819148703436e+00,
       3.5252887901998644e+00, -1.3107421959180863e+00,
       3.5369954018326055e+00, -1.3155220474778979e+00,
       3.5350742901457575e+00, -1.3144113278563900e+00,
       3.5375119752941702e+00, -1.3185395076936710e+00,
       3.5527649619321555e+00, -1.3239928157730740e+00,
       3.5647200003978958e+00, -1.3307908574859537e+00,
       3.5774702203894986e+00, -1.3319850896822083e+00,
       3.5869538497134483e+00, -1.3282447641941009e+00,
       3.6042722856170006e+00, -1.3215979500561079e+00,
       3.6225407380053030e+00, -1.3123245983509351e+00,
       3.6401587113681950e+00, -1.2958010327469143e+00,
       3.6783763437136816e+00, -1.2753402395108302e+00,
       3.7189461050682580e+00, -1.2471552904462777e+00,
       3.7321589245839362e+00, -1.2101272748861784e+00,
       3.7609456943416730e+00, -1.1705167571960158e+00,
       3.7325485680724846e+00, -1.1320139474727582e+00,
       3.7418814751169722e+00, -1.0968482789384484e+00,
       3.6826763001775058e+00, -1.0488226763562007e+00,
       3.6399612796278871e+00, -1.0108574869615510e+00,
       3.5774020012098044e+00, -9.8318419248675248e-01,
       3.5189683048560747e+00, -9.6306213203461377e-01,
       3.4505453666854460e+00, -9.4311983198425642e-01,
       3.3888967257445550e+00, -9.3654313134517708e-01,
       3.3231035095877073e+00, -9.3050302044914479e-01,
       3.2540930909519359e+00, -9.2765487696480775e-01,
       3.2239848587749269e+00, -9.2257989377088057e-01,
       3.3077719832539207e+00, -9.3027717580942415e-01,
       3.3905173663932962e+00, -9.3601703761917532e-01,
       3.4586171099440106e+00, -9.4843835038084323e-01,
       3.5503352783850168e+00, -9.6887280436070800e-01,
       3.6260862073250437e+00, -9.8787200678081832e-01,
       3.6688628018922076e+00, -1.0126480264190747e+00,
       3.6908996250126465e+00, -1.0503975906063008e+00,
       3.7360931360888014e+00, -1.0982899690695300e+00,
       3.7260142062527648e+00, -1.1459008592885109e+00,
       3.7201500743562232e+00, -1.1829941850548882e+00,
       3.6870231964587252e+00, -1.2190341937978784e+00,
       3.6693305444107165e+00, -1.2537259322646490e+00,
       3.6576851546773348e+00, -1.2861200479453714e+00,
       3.6429042511576073e+00, -1.3037984406984864e+00,
       3.6391485463198725e+00, -1.3181628553473215e+00,
       3.6432853421739657e+00, -1.3253143897386195e+00,
       3.6400799207124797e+00, -1.3280062027729165e+00,
       3.6147859856606543e+00, -1.3220704217031554e+00,
       3.6006076408190641e+00, -1.3135115468162275e+00,
       3.5907144406371740e+00, -1.3074996053928849e+00,
       3.5777790368159268e+00, -1.3026375633413043e+00,
       3.5694942792391866e+00, -1.2985413983275784e+00,
       3.5709934560794592e+00, -1.2957917469279716e+00,
       3.5689364801156809e+00, -1.2967423928596715e+00,
       3.5623726455817102e+00, -1.2965863371206494e+00,
       3.5598219066109404e+00, -1.2964055371901442e+00,
       3.5689345528624430e+00, -1.3023998254610598e+00,
       3.5756133431887553e+00, -1.3079574221927297e+00,
       3.5951275791479849e+00, -1.3112698663758293e+00,
       3.6042499433146831e+00, -1.3201778946619662e+00,
       3.6081068221611181e+00, -1.3299216580660262e+00,
       3.6092376654327945e+00, -1.3296512066320683e+00,
       3.6104852711984217e+00, -1.3275493633919813e+00,
       3.6175492403871732e+00, -1.3174796819281598e+00,
       3.6264663840320042e+00, -1.3093429747173746e+00,
       3.6417901909183996e+00, -1.2898116572616825e+00,
       3.6766595981065544e+00, -1.2694241818518619e+00,
       3.6965531014622544e+00, -1.2342559045775967e+00,
       3.7279655968938563e+00, -1.2000502890082227e+00,
       3.7187866858485559e+00, -1.1585448329528105e+00,
       3.7129469280932117e+00, -1.1178474915924479e+00,
       3.6762990357813674e+00, -1.0745840817857946e+00,
       3.6469593621051661e+00, -1.0291146683871102e+00,
       3.5887200495643388e+00, -9.9568223538498268e-01,
       3.5380435925451157e+00, -9.7448848609997440e-01,
       3.4598275020000888e+00, -9.5680035958329002e-01,
       3.3806929509307433e+00, -9.4395432397328638e-01,
       3.3093952126582482e+00, -9.3305634094375889e-01,
       3.2480304953788894e+00, -9.2921696410568266e-01,
       3.2285079337931522e+00, -9.2511079445323585e-01,
       3.3005379238823895e+00, -9.3046931792405252e-01,
       3.3901115393962824e+00, -9.4290640743766341e-01,
       3.4680564539709198e+00, -9.5660430296356480e-01,
       3.5643195521208533e+00, -9.8027519394621199e-01,
       3.6392850404018677e+00, -1.0023616861665234e+00,
       3.6579213259097658e+00, -1.0317263541861328e+00,
       3.6921043836761243e+00, -1.0790915043344436e+00,
       3.7097377726562439e+00, -1.1277721290748661e+00,
       3.7004859975382205e+00, -1.1699200935510647e+00,
       3.6850022987171775e+00, -1.2084339795268035e+00,
       3.6583547921464215e+00, -1.2436145907341944e+00,
       3.6429892007035440e+00, -1.2788636122038133e+00,
       3.6228624026797749e+00, -1.2957700130909187e+00,
       3.6357342980356524e+00, -1.3123647729864669e+00,
       3.6422683288241799e+00, -1.3183536151720667e+00,
       3.6524860459871253e+00, -1.3247227629432816e+00,
       3.6434130649067171e+00, -1.3191168340483452e+00,
       3.6464506433359425e+00, -1.3091862331302804e+00,
       3.6386723012257747e+00, -1.2996904829975149e+00,
       3.6337021437766031e+00, -1.2890703541397504e+00,
       3.6225235059701126e+00, -1.2823297142881245e+00,
       3.6142478560698530e+00, -1.2835335218552364e+00,
       3.6091214731196195e+00, -1.2803306275714406e+00,
       3.6043553125809922e+00, -1.2776475836554702e+00,
       3.5959390049035029e+00, -1.2768749591489073e+00,
       3.5894665430843249e+00, -1.2779121804975095e+00,
       3.6014754797915396e+00, -1.2831437614044261e+00,
       3.6128629143772879e+00, -1.2883724091876390e+00,
       3.6386033882957456e+00, -1.2914940359930940e+00,
       3.6491178071604353e+00, -1.2988989099666515e+00,
       3.6417959060851701e+00, -1.3106653849730594e+00,
       3.6397139347010015e+00, -1.3201181592775491e+00,
       3.6345838686062439e+00, -1.3244784689502000e+00,
       3.6297249754624823e+00, -1.3196508801524953e+00,
       3.6246187281613294e+00, -1.3131720398719389e+00,
       3.6199181880476954e+00, -1.3015076175588538e+00,
       3.6365361575009816e+00, -1.2847852606809211e+00,
       3.6591620058538226e+00, -1.2588637587597713e+00,
       3.6813810864986971e+00, -1.2264060556155092e+00,
       3.6961849215756879e+00, -1.1879980252570697e+00,
       3.7132766242534130e+00, -1.1491149717730913e+00,
       3.6867945384591962e+00, -1.1038119506364150e+00,
       3.6405734121890334e+00, -1.0548995993591923e+00,
       3.5974920907992409e+00, -1.0143141671529015e+00,
       3.5483532187492908e+00, -9.9084936959203529e-01,
       3.4680012362755495e+00, -9.7114379432032250e-01,
       3.4020149979542262e+00, -9.5573816140995504e-01,
       3.3231583914967802e+00, -9.4416148395942867e-01,
       3.2512949490885990e+00, -9.3022517169428343e-01,
       3.2388823699837852e+00, -9.2899279537791490e-01,
       3.3195680764483528e+00, -9.3644824618406441e-01,
       3.3981662182567027e+00, -9.4973171135029810e-01,
       3.4994804837484246e+00, -9.6693991964890524e-01,
       3.5810547623051221e+00, -9.9483360381049168e-01,
       3.6381134391580381e+00, -1.0210011094664635e+00,
       3.6496867106993114e+00, -1.0573258374272718e+00,
       3.6841025115710386e+00, -1.1097165809374454e+00,
       3.6767266581173317e+00, -1.1603561428589408e+00,
       3.6613315913333460e+00, -1.2025480152070602e+00,
       3.6597912361840454e+00, -1.2403635355169174e+00,
       3.6277232655852925e+00, -1.2693558402269993e+00,
       3.5976282035133527e+00, -1.2914461080017892e+00,
       3.5963033167149683e+00, -1.3034457731827238e+00,
       3.6282955559921994e+00, -1.3132012849223276e+00,
       3.6463346178693414e+00, -1.3159768422025244e+00,
       3.6650093141364772e+00, -1.3172212140484139e+00,
       3.6606683317743691e+00, -1.3036157560533963e+00,
       3.6751640055925163e+00, -1.2896946257090112e+00,
       3.6847538020483488e+00, -1.2777318097654793e+00,
       3.6779817528435985e+00, -1.2653423300330300e+00,
       3.6719904789835360e+00, -1.2689508281474653e+00,
       3.6379662470661667e+00, -1.2617768532102134e+00,
       3.6247343729714969e+00, -1.2578738460035914e+00,
       3.6107459253180441e+00, -1.2527876976714425e+00,
       3.6101572353760587e+00, -1.2516131619879158e+00,
       3.6088964747108152e+00, -1.2559001227676390e+00,
       3.6251232921672525e+00, -1.2639374740024634e+00,
       3.6647456295930487e+00, -1.2678309036349076e+00,
       3.6663953338356241e+00, -1.2684933822145910e+00,
       3.6684529957435994e+00, -1.2759153382823651e+00,
       3.6687241172412519e+00, -1.2947800028379610e+00,
       3.6587455280173091e+00, -1.3055705132251081e+00,
       3.6465544082468706e+00, -1.3189804877436853e+00,
       3.6343994623695766e+00, -1.3233474684758979e+00,
       3.6222895892419253e+00, -1.3178502099347531e+00,
       3.6130487618217022e+00, -1.3138198990899659e+00,
       3.6058511011106287e+00, -1.2973562744881673e+00,
       3.6176745484559953e+00, -1.2795976369144741e+00,
       3.6448307117256111e+00, -1.2564993544577963e+00,
       3.6730346003471617e+00, -1.2202842983913722e+00,
       3.6919655390735184e+00, -1.1818171051982824e+00,
       3.6707604559312972e+00, -1.1324110075954608e+00,
       3.6391014128333694e+00, -1.0867728591042032e+00,
       3.5903505160576050e+00, -1.0365378671545442e+00,
       3.5594345239556158e+00, -1.0101215757780415e+00,
       3.4828230116458361e+00, -9.8344979934291565e-01,
       3.3953823309828048e+00, -9.6370976804154884e-01,
       3.3371568387215209e+00, -9.5240170603607421e-01,
       3.2727064031498969e+00, -9.3686398072430277e-01,
       3.2528921224164034e+00, -9.3166966581929678e-01,
       3.3403230524706560e+00, -9.4249948471702116e-01,
       3.4269053774035889e+00, -9.6154863798312040e-01,
       3.5126260677111056e+00, -9.8182838335094380e-01,
       3.5920780939663275e+00, -1.0140618912297976e+00,
       3.6148873325908517e+00, -1.0415251610514260e+00,
       3.6373571487666991e+00, -1.0879419646793516e+00,
       3.6617392154977257e+00, -1.1434498699869307e+00,
       3.6407929419671579e+00, -1.1909135683479968e+00,
       3.6316319956876040e+00, -1.2303931284486449e+00,
       3.6158975940925564e+00, -1.2656625875196339e+00,
       3.5889869742107736e+00, -1.2876919787138339e+00,
       3.5736743680224148e+00, -1.3003226005546085e+00,
       3.5924780273521950e+00, -1.3095685834450488e+00,
       3.6301451417116324e+00, -1.3164895731071424e+00,
       3.6479130287796182e+00, -1.3097152428885270e+00,
       3.6638752179875675e+00, -1.3037411605721942e+00,
       3.6954272039384883e+00, -1.2841954011653822e+00,
       3.6968026214868330e+00, -1.2597215012323471e+00,
       3.7063643019665169e+00, -1.2463397729671941e+00,
       3.6847933019693508e+00, -1.2404853987129374e+00,
       3.6623849020795465e+00, -1.2423743396713207e+00,
       3.6491052454319566e+00, -1.2458028973526458e+00,
       3.6310411920531900e+00, -1.2406314874995796e+00,
       3.6276145555737154e+00, -1.2382449384537706e+00,
       3.6137626395965965e+00, -1.2355103662314189e+00,
       3.6040733001282783e+00, -1.2367154138984933e+00,
       3.6169219358627029e+00, -1.2400459806763606e+00,
       3.6414336435764811e+00, -1.2396771794507913e+00,
       3.6860644304528254e+00, -1.2412823222529312e+00,
       3.6959329305954043e+00, -1.2440505587440671e+00,
       3.6910929123574876e+00, -1.2604627910746324e+00,
       3.6735048405261672e+00, -1.2819933785448479e+00,
       3.6592611044315602e+00, -1.3027005262822122e+00,
       3.6386291830908339e+00, -1.3157417172537804e+00,
       3.6139170805699634e+00, -1.3175410714600080e+00,
       3.6002432374418594e+00, -1.3174214517661342e+00,
       3.5956964720597120e+00, -1.3107926678424775e+00,
       3.5887137464520049e+00, -1.2965479634558652e+00,
       3.6040398960296711e+00, -1.2786416723667888e+00,
       3.6346157138541471e+00, -1.2512456535879346e+00,
       3.6534448025094934e+00, -1.2174492657708669e+00,
       3.6534827212409127e+00, -1.1684291724097815e+00,
       3.6263563296028747e+00, -1.1178128959652174e+00,
       3.5898209190156667e+00, -1.0659114869925677e+00,
       3.5549256871995905e+00, -1.0290261389295319e+00,
       3.4968090708026769e+00, -1.0003891040707580e+00,
       3.4062826351915358e+00, -9.7487249382038677e-01,
       3.3482461209686067e+00, -9.5846656164320032e-01,
       3.2752767924141164e+00, -9.4283869958125999e-01,
       3.2705867667759594e+00, -9.3788712192649581e-01,
       3.3625788132949750e+00, -9.5686524257859173e-01,
       3.4553379615020896e+00, -9.7351939561568812e-01,
       3.5350111727643685e+00, -9.9942481970477715e-01,
       3.5921038104536738e+00, -1.0316345090926986e+00,
       3.6075418100887964e+00, -1.0689357916915687e+00,
       3.6347881585559532e+00, -1.1245410737131927e+00,
       3.6384886562997152e+00, -1.1762673622254651e+00,
       3.6143364680634744e+00, -1.2207500525310810e+00,
       3.5982688362547539e+00, -1.2594685503511280e+00,
       3.5769296099560961e+00, -1.2833659187409820e+00,
       3.5486166123418608e+00, -1.2931665910236458e+00,
       3.5542396467203168e+00, -1.3068837225614114e+00,
       3.5829427797571194e+00, -1.3113909668150265e+00,
       3.6275734852176966e+00, -1.3113334248994464e+00,
       3.6524305275000972e+00, -1.2991639878882464e+00,
       3.6837456573844811e+00, -1.2809777077745415e+00,
       3.6891066904562781e+00, -1.2504836780879771e+00,
       3.7194504195285685e+00, -1.2241866163895365e+00,
       3.7073399152375464e+00, -1.2099139362045350e+00,
       3.6746513452272320e+00, -1.2090460051170844e+00,
       3.6497731975813781e+00, -1.2137317410320592e+00,
       3.6281898128616774e+00, -1.2208218636929860e+00,
       3.5963811332953401e+00, -1.2185010464401165e+00,
       3.5757525959915029e+00, -1.2115896446627434e+00,
       3.5621227452651540e+00, -1.2134520513276967e+00,
       3.5695086421182993e+00, -1.2132026517119738e+00,
       3.5904524948664704e+00, -1.2162852845934640e+00,
       3.6311126737046426e+00, -1.2139901371144945e+00,
       3.6568590862835726e+00, -1.2088223423614854e+00,
       3.6875044674866162e+00, -1.2144145113000477e+00,
       3.6971585788575503e+00, -1.2249639403769286e+00,
       3.6924758046252584e+00, -1.2513283759810210e+00,
       3.6766748190909557e+00, -1.2762865489298119e+00,
       3.6502021249068530e+00, -1.2961828638027082e+00,
       3.6114167161916928e+00, -1.3094932793377587e+00,
       3.5817853889596609e+00, -1.3099501296703933e+00,
       3.5669245189728223e+00, -1.3136903505064583e+00,
       3.5624938640361927e+00, -1.3089070325263019e+00,
       3.5649071682483253e+00, -1.2951387317216094e+00,
       3.5954611613139233e+00, -1.2752773010483354e+00,
       3.6238169097621329e+00, -1.2431827468745593e+00,
       3.6284746197460294e+00, -1.2012793498426309e+00,
       3.6130757373512257e+00, -1.1478362699419637e+00,
       3.5890944612418232e+00, -1.0958646118603999e+00,
       3.5519550705870007e+00, -1.0536168655769027e+00,
       3.5146218699542984e+00, -1.0194400263001557e+00,
       3.4272668087584557e+00, -9.8933982766363315e-01,
       3.3668010860764523e+00, -9.7272794827497000e-01,
       3.2913255762380000e+00, -9.5394798205588338e-01,
       3.2916815490508502e+00, -9.4614627708314580e-01,
       3.3818680293863062e+00, -9.6654560254497301e-01,
       3.4720393825905322e+00, -9.8675559497695309e-01,
       3.5417228059604455e+00, -1.0190691124754894e+00,
       3.5862162113784390e+00, -1.0583751796268135e+00,
       3.6179426632404867e+00, -1.0999409221674676e+00,
       3.6313487879915347e+00, -1.1548702889933535e+00,
       3.6121540656305164e+00, -1.2092160197197104e+00,
       3.5933263128597734e+00, -1.2483273040852787e+00,
       3.5684817402961109e+00, -1.2775081427200012e+00,
       3.5396021413716068e+00, -1.2893770427464062e+00,
       3.5281971494998214e+00, -1.2983637203110081e+00,
       3.5451885340493026e+00, -1.3076215387439458e+00,
       3.5822546656733665e+00, -1.3052025975656352e+00,
       3.6243117460497221e+00, -1.2999007945792882e+00,
       3.6593097008074724e+00, -1.2756419127162120e+00,
       3.7026267542261166e+00, -1.2496315613164963e+00,
       3.7224518855164481e+00, -1.2196901719158182e+00,
       3.7067502369853647e+00, -1.1864448969368866e+00,
       3.6563052390159259e+00, -1.1707999100306032e+00,
       3.6321711801010190e+00, -1.1757821949514717e+00,
       3.6051957423548511e+00, -1.1841928281186049e+00,
       3.5780855335024855e+00, -1.1893235835071492e+00,
       3.5574975334341934e+00, -1.1919061256513952e+00,
       3.5549728547160035e+00, -1.1889288669984803e+00,
       3.5487597317522779e+00, -1.1899478336791254e+00,
       3.5518321743810271e+00, -1.1933201374599178e+00,
       3.5848857581083795e+00, -1.1925708117360192e+00,
       3.6127243273683547e+00, -1.1829862561061113e+00,
       3.6405014959450592e+00, -1.1723467557778462e+00,
       3.6778588392134752e+00, -1.1730274112568533e+00,
       3.6985382204626958e+00, -1.1898691732993416e+00,
       3.6988525889516901e+00, -1.2151694535700104e+00,
       3.6947658863670325e+00, -1.2472840740092419e+00,
       3.6719337475335303e+00, -1.2785483648903497e+00,
       3.6252646661725212e+00, -1.3008145526582040e+00,
       3.5745390254373275e+00, -1.3061097598993665e+00,
       3.5404033713083254e+00, -1.3099708894927471e+00,
       3.5325625921368795e+00, -1.3087264469601627e+00,
       3.5435370335404706e+00, -1.3056975720381778e+00,
       3.5609809530856511e+00, -1.2906628941554403e+00,
       3.5869108300903352e+00, -1.2656641630429069e+00,
       3.6063684884188763e+00, -1.2326566739268194e+00,
       3.6087596422623180e+00, -1.1813974409571844e+00,
       3.6005723968550445e+00, -1.1304807505925856e+00,
       3.5639352756987286e+00, -1.0799652850565946e+00,
       3.5227325773596703e+00, -1.0363125282296486e+00,
       3.4586847076330343e+00, -1.0066586265794946e+00,
       3.3847945619871944e+00, -9.8532213928119405e-01,
       3.3072154995286689e+00, -9.6344401229352272e-01,
       3.3065612873908599e+00, -9.5914100582401118e-01,
       3.4026630050587889e+00, -9.7415867771483677e-01,
       3.4844715062138736e+00, -1.0001012353339829e+00,
       3.5574883536128517e+00, -1.0360311512682234e+00,
       3.5808819020064986e+00, -1.0787922603530273e+00,
       3.6062322000437046e+00, -1.1311198134615987e+00,
       3.6118496585773925e+00, -1.1838199259854916e+00,
       3.5944119662200569e+00, -1.2365251851774677e+00,
       3.5779332259449617e+00, -1.2715714194272485e+00,
       3.5491055203706989e+00, -1.2883436769577998e+00,
       3.5221228999701033e+00, -1.2996236386266187e+00,
       3.5223394967062807e+00, -1.3041916663654440e+00,
       3.5353451783291208e+00, -1.2981013268692623e+00,
       3.5680719391432301e+00, -1.2900648931720249e+00,
       3.6244982622680246e+00, -1.2797790029143798e+00,
       3.6686982651606264e+00, -1.2500887814158188e+00,
       3.7008052906245221e+00, -1.2218352160226966e+00,
       3.7231298782059836e+00, -1.1877782361343214e+00,
       3.7059736925133215e+00, -1.1611664412563858e+00,
       3.6463786444315871e+00, -1.1456482545686009e+00,
       3.6102726430140217e+00, -1.1462032909127509e+00,
       3.5607055850023039e+00, -1.1518070734904200e+00,
       3.5366303844486984e+00, -1.1614403808462368e+00,
       3.4900557083371724e+00, -1.1689268208203256e+00,
       3.5023236599544916e+00, -1.1686150524481729e+00,
       3.4902610443344995e+00, -1.1666257621083129e+00,
       3.4917013585130623e+00, -1.1687561183329969e+00,
       3.5287757698023228e+00, -1.1656955958156943e+00,
       3.5697807120717253e+00, -1.1551427555579954e+00,
       3.6196981503554051e+00, -1.1454697739647863e+00,
       3.6805853722119521e+00, -1.1502440657389121e+00,
       3.7261417355137003e+00, -1.1582291883419027e+00,
       3.7074328027806307e+00, -1.1794705413905326e+00,
       3.6946648309340646e+00, -1.2124750333912442e+00,
       3.6682866839609969e+00, -1.2487870054296164e+00,
       3.6251890956897665e+00, -1.2748830839444731e+00,
       3.5857514357729343e+00, -1.2947793205490716e+00,
       3.5326014535816697e+00, -1.3035631392825882e+00,
       3.5032399935627616e+00, -1.3054832034575909e+00,
       3.5221096865835078e+00, -1.3107252389036630e+00,
       3.5466748799590291e+00, -1.3068769392140374e+00,
       3.5654990980596368e+00, -1.2866128737149698e+00,
       3.5931223007484978e+00, -1.2569008490487150e+00,
       3.6065748657056966e+00, -1.2117475285763721e+00,
       3.6026722813361136e+00, -1.1588357333193544e+00,
       3.5664082432491107e+00, -1.1052404594267178e+00,
       3.5278771320482774e+00, -1.0561444057473903e+00,
       3.4704473510529592e+00, -1.0198664317200807e+00,
       3.4072964319073384e+00, -9.9517219428112502e-01,
       3.3276169305324519e+00, -9.7276188584503753e-01,
       3.3060595887719164e+00, -9.6751406112898042e-01,
       3.4201003665096454e+00, -9.8665706766601347e-01,
       3.5108084051805619e+00, -1.0167638170690543e+00,
       3.5524833822732860e+00, -1.0566688474492629e+00,
       3.5812152796739292e+00, -1.1006834693177352e+00,
       3.5991192552236644e+00, -1.1560480380363940e+00,
       3.5940409942568570e+00, -1.2112593790239063e+00,
       3.5823120627263521e+00, -1.2553294960785808e+00,
       3.5568739991645510e+00, -1.2854317746959809e+00,
       3.5350749223110802e+00, -1.2997138183987980e+00,
       3.5160956330055453e+00, -1.3064938534580461e+00,
       3.5102868862989012e+00, -1.3013752790853790e+00,
       3.5375648919994549e+00, -1.2926381815481627e+00,
       3.5872418680369655e+00, -1.2837558257580766e+00,
       3.6260885365228668e+00, -1.2606361707271192e+00,
       3.6858842149148736e+00, -1.2265546223676447e+00,
       3.7012974797930291e+00, -1.2000199751274585e+00,
       3.7283769183955298e+00, -1.1787013827526529e+00,
       3.7025176995381024e+00, -1.1560910911672757e+00,
       3.6729473780935384e+00, -1.1514819751420768e+00,
       3.5911634273472828e+00, -1.1424731692770673e+00,
       3.5322247120851853e+00, -1.1511689393593851e+00,
       3.4664069414766527e+00, -1.1572569026703940e+00,
       3.4219427999049663e+00, -1.1634762568109693e+00,
       3.4422084143594263e+00, -1.1687223741211585e+00,
       3.4306241111626092e+00, -1.1679882999177347e+00,
       3.4183830259301682e+00, -1.1648621949824738e+00,
       3.4440633695402747e+00, -1.1615085813750585e+00,
       3.5072508914049108e+00, -1.1531277680351206e+00,
       3.5563799268681544e+00, -1.1427186226607320e+00,
       3.6290147778815163e+00, -1.1433320239977589e+00,
       3.7159566865348586e+00, -1.1589287624583673e+00,
       3.7039137070722146e+00, -1.1729101003130555e+00,
       3.6934505484306945e+00, -1.1880877210024159e+00,
       3.6707455231553681e+00, -1.2203545975554222e+00,
       3.6464908368118678e+00, -1.2562582591147313e+00,
       3.6022036310661085e+00, -1.2776648752961819e+00,
       3.5427189278785458e+00, -1.2970348708858837e+00,
       3.5092029292981786e+00, -1.3046314663353011e+00,
       3.5117404609147180e+00, -1.3122810248044778e+00,
       3.5309953741375883e+00, -1.3150808782140486e+00,
       3.5627078825129126e+00, -1.3017479820705857e+00,
       3.5864861585997310e+00, -1.2767067188530759e+00,
       3.6097598247263218e+00, -1.2397507923867588e+00,
       3.6037039166638847e+00, -1.1882828251487694e+00,
       3.5988768776321916e+00, -1.1346789246244475e+00,
       3.5391321025347087e+00, -1.0786801711223479e+00,
       3.4851462889454736e+00, -1.0380087575712367e+00,
       3.4211346332218784e+00, -1.0070499826663561e+00,
       3.3372557630402575e+00, -9.8590344818776854e-01,
       3.3362222584507468e+00, -9.8046503043622013e-01,
       3.4282978443034424e+00, -9.9972441229485998e-01,
       3.5173206233756642e+00, -1.0339664783351226e+00,
       3.5557451901941572e+00, -1.0759242433903766e+00,
       3.5899237968696367e+00, -1.1276100385692478e+00,
       3.6043941350081830e+00, -1.1839530572171775e+00,
       3.5866992895327710e+00, -1.2310658501342018e+00,
       3.5825271091361741e+00, -1.2694773697258375e+00,
       3.5478848149110025e+00, -1.2930080070681775e+00,
       3.5200428463112345e+00, -1.3042720434476065e+00,
       3.5181218349310250e+00, -1.3094440821294471e+00,
       3.5188032411947265e+00, -1.2994708041775671e+00,
       3.5593571198236198e+00, -1.2863601428300682e+00,
       3.5924564045106857e+00, -1.2641888444218727e+00,
       3.6193818343235709e+00, -1.2371125125400804e+00,
       3.6534192119599180e+00, -1.2088023189230195e+00,
       3.6515055736429214e+00, -1.1856884481274903e+00,
       3.6511714023703559e+00, -1.1732282031457306e+00,
       3.6474813391680052e+00, -1.1638070478061007e+00,
       3.6129380046780164e+00, -1.1532727386434336e+00,
       3.5759011788982074e+00, -1.1545357625674810e+00,
       3.5275677643723391e+00, -1.1556736699154879e+00,
       3.4468765070731515e+00, -1.1606607728881477e+00,
       3.4119833527822059e+00, -1.1663940493533587e+00,
       3.4278046051970934e+00, -1.1747566192111900e+00,
       3.4210158533363968e+00, -1.1725975283731989e+00,
       3.4124025620595484e+00, -1.1683939017064564e+00,
       3.4508068745102554e+00, -1.1663962205527030e+00,
       3.4999006688017058e+00, -1.1628634080826536e+00,
       3.5449204991482599e+00, -1.1594492803918839e+00,
       3.5772022364368135e+00, -1.1566607044037571e+00,
       3.6345639629848843e+00, -1.1660725266501806e+00,
       3.6508085089185638e+00, -1.1799403259002064e+00,
       3.6565380471541071e+00, -1.1860016129398170e+00,
       3.6507871328143842e+00, -1.2050394822933208e+00,
       3.6386944140914244e+00, -1.2323701422903526e+00,
       3.6142894878873428e+00, -1.2616467396771840e+00,
       3.5663055726506734e+00, -1.2841642199644392e+00,
       3.5187979575990069e+00, -1.2971753653160385e+00,
       3.5107011053409005e+00, -1.3085348122302876e+00,
       3.5248382678887258e+00, -1.3181074758426723e+00,
       3.5447604021869119e+00, -1.3085281866445462e+00,
       3.5840008390632985e+00, -1.2941003994584965e+00,
       3.6036566498305080e+00, -1.2595506461170309e+00,
       3.6133951246376061e+00, -1.2140232920441436e+00,
       3.5962948182762839e+00, -1.1575356901092808e+00,
       3.5527965434416169e+00, -1.1023481417457690e+00,
       3.4999918751985506e+00, -1.0550780193582583e+00,
       3.4270651208811560e+00, -1.0203669102052797e+00,
       3.3532206911950411e+00, -9.9689196364379218e-01,
       3.3493797557387932e+00, -9.9118350338107386e-01,
       3.4407229210978385e+00, -1.0138381051497316e+00,
       3.5272399259308731e+00, -1.0515705969059777e+00,
       3.5684513458623432e+00, -1.0950947266708411e+00,
       3.5949852044151598e+00, -1.1489855292763831e+00,
       3.6041671222366181e+00, -1.2049069159707819e+00,
       3.5905131912080730e+00, -1.2462209308653689e+00,
       3.5777187363802025e+00, -1.2799195832288546e+00,
       3.5471598648067797e+00, -1.3025397731520332e+00,
       3.5200096856641370e+00, -1.3055160548108742e+00,
       3.5251295544570422e+00, -1.3057655609379277e+00,
       3.5149422111671305e+00, -1.2906709988987530e+00,
       3.5527463800826560e+00, -1.2761002390050715e+00,
       3.5763154377903885e+00, -1.2492121622816108e+00,
       3.6016626866043717e+00, -1.2245152154594456e+00,
       3.6098563115112157e+00, -1.2043813971176038e+00,
       3.6014628619886975e+00, -1.2002133698095219e+00,
       3.6109287589909913e+00, -1.1991952353577646e+00,
       3.5960760533601315e+00, -1.1948065275090933e+00,
       3.5869020702317624e+00, -1.1899240515802552e+00,
       3.5571317091038570e+00, -1.1833844227002417e+00,
       3.5407892852694482e+00, -1.1838462546977384e+00,
       3.4903639446901544e+00, -1.1851712190670338e+00,
       3.4636800692047398e+00, -1.1889963862654811e+00,
       3.4568070748030704e+00, -1.1987412603633183e+00,
       3.4482245961960785e+00, -1.1962940947977434e+00,
       3.4478083983625449e+00, -1.1895806272659439e+00,
       3.4612360333433552e+00, -1.1848167672555705e+00,
       3.4957336146042453e+00, -1.1809731610094283e+00,
       3.5279085603658826e+00, -1.1827450188787141e+00,
       3.5394280103319491e+00, -1.1864336503583099e+00,
       3.5606873675241788e+00, -1.1896428333065199e+00,
       3.5758368295812346e+00, -1.1969260591504580e+00,
       3.5886561317353256e+00, -1.1979525406945595e+00,
       3.6043631273542300e+00, -1.2070432402493392e+00,
       3.6094046941551663e+00, -1.2217314372200638e+00,
       3.6085349571611127e+00, -1.2512038657845623e+00,
       3.5769891040989581e+00, -1.2774166646468887e+00,
       3.5318207376809214e+00, -1.2940517764339710e+00,
       3.5131694536996934e+00, -1.3067406908165806e+00,
       3.5141176647825660e+00, -1.3140564610866441e+00,
       3.5392905112517505e+00, -1.3174963600956744e+00,
       3.5707494696105617e+00, -1.3017100232826171e+00,
       3.5909309821315558e+00, -1.2729867021396486e+00,
       3.6085282551134688e+00, -1.2366617271285538e+00,
       3.5841775157607896e+00, -1.1741534053289104e+00,
       3.5703726171715990e+00, -1.1233453761950312e+00,
       3.5094656075183188e+00, -1.0688286545633072e+00,
       3.4425253870892325e+00, -1.0322856920558516e+00,
       3.3685901146661936e+00, -1.0057607316777732e+00,
       3.3754714416043190e+00, -9.9939699688982020e-01,
       3.4516175477745619e+00, -1.0249015908346191e+00,
       3.5375050915515112e+00, -1.0669907638260232e+00,
       3.5733343215958766e+00, -1.1150155222698686e+00,
       3.5977067828092273e+00, -1.1705446679967999e+00,
       3.6018224644897168e+00, -1.2214772898419615e+00,
       3.6000330014446678e+00, -1.2621504372749237e+00,
       3.5674166978521602e+00, -1.2873669491601833e+00,
       3.5443780711406152e+00, -1.3059997583535259e+00,
       3.5283016567460441e+00, -1.3112174290259198e+00,
       3.5147302326744869e+00, -1.3032941024476679e+00,
       3.5111193372766305e+00, -1.2904363318356236e+00,
       3.5548694283578306e+00, -1.2688751663929738e+00,
       3.5569811706351206e+00, -1.2433488686449490e+00,
       3.5739980146159200e+00, -1.2259402629115674e+00,
       3.5749680064020364e+00, -1.2177267035952373e+00,
       3.5800429114977192e+00, -1.2238650559194559e+00,
       3.5654405488454715e+00, -1.2244170915144779e+00,
       3.5535272702215273e+00, -1.2298688106611566e+00,
       3.5545217323751457e+00, -1.2284609084613081e+00,
       3.5413610824443595e+00, -1.2269836893474579e+00,
       3.5187046087328899e+00, -1.2264888914686050e+00,
       3.4798236982308266e+00, -1.2250568893805767e+00,
       3.4525908229570206e+00, -1.2264433391107772e+00,
       3.4423041129202798e+00, -1.2317525325871344e+00,
       3.4490043944102249e+00, -1.2323524341626655e+00,
       3.4395791395062765e+00, -1.2277945626480233e+00,
       3.4325827462198224e+00, -1.2224958396486243e+00,
       3.4639773697177740e+00, -1.2204657907049776e+00,
       3.4973833986691538e+00, -1.2203738375924409e+00,
       3.5142850175768534e+00, -1.2251854715831922e+00,
       3.5092755686746666e+00, -1.2188301008637152e+00,
       3.5278162019771040e+00, -1.2224251182971759e+00,
       3.5526828073483840e+00, -1.2233411221598782e+00,
       3.5735241134411759e+00, -1.2239812641477341e+00,
       3.5852119072832802e+00, -1.2332900239248779e+00,
       3.5669379451513890e+00, -1.2502408876117819e+00,
       3.5578097291069426e+00, -1.2710550987141194e+00,
       3.5320713862192870e+00, -1.2941320846603284e+00,
       3.5160224184186344e+00, -1.3091026502964889e+00,
       3.5099150195584548e+00, -1.3122443296143989e+00,
       3.5353056461772905e+00, -1.3175324931302326e+00,
       3.5622093982518992e+00, -1.3083180050220018e+00,
       3.5795728030167426e+00, -1.2842675302400406e+00,
       3.6160173600095491e+00, -1.2537156460030645e+00,
       3.6018556075496821e+00, -1.1970325007632086e+00,
       3.5891170723370425e+00, -1.1478950081340247e+00,
       3.5387394707371911e+00, -1.0875669563253805e+00,
       3.4631949006242082e+00, -1.0484886998137506e+00,
       3.3792666382677092e+00, -1.0122246606572771e+00,
       3.3956086728092187e+00, -1.0090170200327873e+00,
       3.4555292241425204e+00, -1.0355796980703613e+00,
       3.5433859469114770e+00, -1.0810061342691641e+00,
       3.5893726266086841e+00, -1.1374744407551054e+00,
       3.6051944149764004e+00, -1.1914065463370369e+00,
       3.5984584676436251e+00, -1.2336258052813345e+00,
       3.5969004304797272e+00, -1.2716900040147279e+00,
       3.5674739118425203e+00, -1.2937304965151164e+00,
       3.5437749434980743e+00, -1.3064908909489774e+00,
       3.5356275837954794e+00, -1.3144477781601440e+00,
       3.5096412985485261e+00, -1.3017393242815756e+00,
       3.5099249277918307e+00, -1.2940915389137104e+00,
       3.5265361301668245e+00, -1.2755921852886192e+00,
       3.5260895808058286e+00, -1.2588326949733288e+00,
       3.5399279494928093e+00, -1.2511813651215349e+00,
       3.5408859807724178e+00, -1.2481949325151109e+00,
       3.5482050271531063e+00, -1.2568635366331864e+00,
       3.5373756393324931e+00, -1.2631351629338554e+00,
       3.5156596348481006e+00, -1.2639574022905842e+00,
       3.5076420571972058e+00, -1.2634374553362244e+00,
       3.5057531058790112e+00, -1.2656028022100334e+00,
       3.4836277044963544e+00, -1.2641579271858328e+00,
       3.4466714237318130e+00, -1.2624969619090343e+00,
       3.4387955789928486e+00, -1.2656513600430890e+00,
       3.4447017835255869e+00, -1.2670979852481705e+00,
       3.4385012079455399e+00, -1.2621607116482223e+00,
       3.4273429613198396e+00, -1.2632524071352829e+00,
       3.4326638411225425e+00, -1.2655310667793525e+00,
       3.4740740819119358e+00, -1.2663840288232511e+00,
       3.4915689628239361e+00, -1.2658163422157183e+00,
       3.4978203517947191e+00, -1.2652852552814871e+00,
       3.4975510900956639e+00, -1.2637683137760685e+00,
       3.4996989142655659e+00, -1.2586380589428481e+00,
       3.5148836744654486e+00, -1.2505524006996172e+00,
       3.5208560554687489e+00, -1.2497618340245622e+00,
       3.5325065829738409e+00, -1.2527826058751914e+00,
       3.5251077469987631e+00, -1.2605611386771323e+00,
       3.5096577727346876e+00, -1.2744478413530460e+00,
       3.5125520578517118e+00, -1.2964360915948345e+00,
       3.5128752346796945e+00, -1.3065165835806469e+00,
       3.5097815467983571e+00, -1.3130766292565244e+00,
       3.5355406339541009e+00, -1.3196744073765660e+00,
       3.5650691151931215e+00, -1.3139418993533971e+00,
       3.5854519781108669e+00, -1.2942030230683264e+00,
       3.6076833290490322e+00, -1.2649189599658592e+00,
       3.6118316626638203e+00, -1.2206429074392799e+00,
       3.5997623989265595e+00, -1.1691296585559667e+00,
       3.5465046709171757e+00, -1.1064005382554964e+00,
       3.4765648282402490e+00, -1.0628562339941863e+00,
       3.4239660561185321e+00, -1.0256958774104450e+00,
       3.4275905928446018e+00, -1.0159060999640004e+00,
       3.4788626594744585e+00, -1.0485306702029529e+00,
       3.5574808627260279e+00, -1.0988738532837403e+00,
       3.5878521294607815e+00, -1.1537641709892874e+00,
       3.6050668990459425e+00, -1.2050821920478312e+00,
       3.6017621863082057e+00, -1.2472878595046353e+00,
       3.5875247598785065e+00, -1.2775175491081239e+00,
       3.5614810861618915e+00, -1.3001061408700414e+00,
       3.5484621024743244e+00, -1.3101108718629233e+00,
       3.5295722655799273e+00, -1.3170856421391439e+00,
       3.4964873236495952e+00, -1.3065887833714982e+00,
       3.4819132259020629e+00, -1.2975660906826416e+00,
       3.4887908839140116e+00, -1.2907676620278643e+00,
       3.4959244866963539e+00, -1.2833225965692747e+00,
       3.4926093278735326e+00, -1.2777656173258516e+00,
       3.5002925732765209e+00, -1.2806717378076100e+00,
       3.5030390016133857e+00, -1.2867499777903628e+00,
       3.4921606474394067e+00, -1.2930403579422400e+00,
       3.5059542138101016e+00, -1.2947944110747061e+00,
       3.4966112999512964e+00, -1.2902443879988243e+00,
       3.4994933137523674e+00, -1.2903711153852397e+00,
       3.4821498850111796e+00, -1.2868897851456755e+00,
       3.4479328108019840e+00, -1.2851093310713939e+00,
       3.4416402717370307e+00, -1.2771428833553478e+00,
       3.4498051475696112e+00, -1.2694106431084287e+00,
       3.4516978209314795e+00, -1.2693033321409408e+00,
       3.4276917170766277e+00, -1.2764834739049618e+00,
       3.4270972462640317e+00, -1.2815611124006532e+00,
       3.4558629915539352e+00, -1.2886253537868122e+00,
       3.4763962671745863e+00, -1.2929984182500778e+00,
       3.4738386272515314e+00, -1.2932264798922881e+00,
       3.4791787871004458e+00, -1.2936093352964637e+00,
       3.4767504278392685e+00, -1.2930771812777953e+00,
       3.4759421987109205e+00, -1.2908627769535048e+00,
       3.4753228484487235e+00, -1.2874940790364497e+00,
       3.4840255953421670e+00, -1.2851643150309968e+00,
       3.4744744056969652e+00, -1.2807678101265845e+00,
       3.4703914482558744e+00, -1.2885748207391474e+00,
       3.4798599299649240e+00, -1.2990576586653919e+00,
       3.4819906269486904e+00, -1.3041192621156457e+00,
       3.5143530086060117e+00, -1.3145574607621251e+00,
       3.5310284474888158e+00, -1.3192850006018377e+00,
       3.5509952306413699e+00, -1.3175683685524870e+00,
       3.5884763338319545e+00, -1.3024402519968548e+00,
       3.6027820034490543e+00, -1.2766273010737370e+00,
       3.6184185209181456e+00, -1.2363973972189288e+00,
       3.5971540696770354e+00, -1.1844948098962618e+00,
       3.5617385964123982e+00, -1.1271708430031206e+00,
       3.4965387352131336e+00, -1.0745783082429439e+00,
       3.4362278314465931e+00, -1.0367124816964097e+00,
       3.4447968393886219e+00, -1.0211258193321597e+00,
       3.4792415792726366e+00, -1.0604414834684115e+00,
       3.5682612321144118e+00, -1.1176762964766922e+00,
       3.5914511924568622e+00, -1.1691268093861948e+00,
       3.5957351191197371e+00, -1.2195224552811215e+00,
       3.6033780578075389e+00, -1.2597591046184808e+00,
       3.5829117309326266e+00, -1.2867013237878466e+00,
       3.5519469723508688e+00, -1.3075828207512414e+00,
       3.5293401665324220e+00, -1.3200712973119066e+00,
       3.5010712119215595e+00, -1.3184161274312300e+00,
       3.4752552503842931e+00, -1.3128692347988165e+00,
       3.4497059829945891e+00, -1.3015506932563383e+00,
       3.4395202073255491e+00, -1.2968543577449787e+00,
       3.4328845349996522e+00, -1.2919542980991712e+00,
       3.4351131973837612e+00, -1.2972634573983268e+00,
       3.4433223734069554e+00, -1.3034884103350872e+00,
       3.4579962286253418e+00, -1.3091900231483773e+00,
       3.4588770258369519e+00, -1.3073744418385407e+00,
       3.4820199177964710e+00, -1.3033573082156509e+00,
       3.4930627519201005e+00, -1.2945678484622998e+00,
       3.5070550664059774e+00, -1.2846952981945576e+00,
       3.4929763638948401e+00, -1.2759387025965307e+00,
       3.4526778174005543e+00, -1.2694533223037772e+00,
       3.4455407953754169e+00, -1.2569764803627508e+00,
       3.4782829380756577e+00, -1.2532333347639129e+00,
       3.4771587082369066e+00, -1.2506905666790724e+00,
       3.4549614557979544e+00, -1.2617929543915067e+00,
       3.4460406471562099e+00, -1.2675492252432350e+00,
       3.4698873578484495e+00, -1.2726394582702107e+00,
       3.4779165271811676e+00, -1.2816733514806666e+00,
       3.4691036325090439e+00, -1.2956386687600709e+00,
       3.4513169048856698e+00, -1.3051740937053129e+00,
       3.4459353803024193e+00, -1.3116242703673662e+00,
       3.4355736026058787e+00, -1.3149923912568742e+00,
       3.4278097076011278e+00, -1.3135797786626608e+00,
       3.4323823122025678e+00, -1.3080640817568772e+00,
       3.4249412992199746e+00, -1.2968581084419331e+00,
       3.4349688647464838e+00, -1.3022622447623151e+00,
       3.4458527573418678e+00, -1.3037151519514878e+00,
       3.4649293728690425e+00, -1.3150384547456693e+00,
       3.4866742199151664e+00, -1.3219406071610229e+00,
       3.5151629220710410e+00, -1.3246827645598505e+00,
       3.5380814027454259e+00, -1.3190404896979044e+00,
       3.5636344388254400e+00, -1.3073523731688164e+00,
       3.5886511217654005e+00, -1.2854355166431972e+00,
       3.6124375781126727e+00, -1.2519752888226894e+00,
       3.5917198405837816e+00, -1.1999679393886766e+00,
       3.5665343489443546e+00, -1.1460706492215513e+00,
       3.5035772055764007e+00, -1.0835349290695480e+00,
       3.4505890886637047e+00, -1.0410452845602052e+00,
       3.4595910745228982e+00, -1.0279919713699057e+00,
       3.4883361156224333e+00, -1.0719093946743696e+00,
       3.5637177747073681e+00, -1.1326094573954379e+00,
       3.5838399800568870e+00, -1.1867010367252304e+00,
       3.5871538996977237e+00, -1.2326895063598051e+00,
       3.5881353392781032e+00, -1.2705198204928827e+00,
       3.5613492490990155e+00, -1.2971322682686703e+00,
       3.5242225018751365e+00, -1.3119946874946598e+00,
       3.5009273893564252e+00, -1.3273521848176131e+00,
       3.4598793868104476e+00, -1.3244386778511719e+00,
       3.4314098633672092e+00, -1.3196527542495635e+00,
       3.4079797434289785e+00, -1.3110276522712634e+00,
       3.3888554706598035e+00, -1.3038624180819616e+00,
       3.3842710339369138e+00, -1.3019991277858645e+00,
       3.3908665667354829e+00, -1.3083922542654718e+00,
       3.4085500695876978e+00, -1.3121408965754040e+00,
       3.4359415300482681e+00, -1.3155145649068727e+00,
       3.4534805450240991e+00, -1.3103024922600732e+00,
       3.4929022743441775e+00, -1.2946832052045123e+00,
       3.5158502443602009e+00, -1.2789459709151929e+00,
       3.5434425561766174e+00, -1.2584230270445902e+00,
       3.5426798145538982e+00, -1.2450418168891018e+00,
       3.5108502334526772e+00, -1.2358650400043987e+00,
       3.5047770727140026e+00, -1.2307525963433634e+00,
       3.5378265016008950e+00, -1.2332118112388135e+00,
       3.5463022968760454e+00, -1.2288191645788580e+00,
       3.5161479775034552e+00, -1.2320100806234910e+00,
       3.4988054283442400e+00, -1.2316060753318867e+00,
       3.5273259421303247e+00, -1.2375809235298683e+00,
       3.5240648143907576e+00, -1.2509736694528519e+00,
       3.4914740949309522e+00, -1.2740716456948145e+00,
       3.4676298807962649e+00, -1.2971710495045123e+00,
       3.4419591533983867e+00, -1.3113280081137466e+00,
       3.4192774259453809e+00, -1.3216206326800100e+00,
       3.4004924542211539e+00, -1.3229441568365525e+00,
       3.3922537458917317e+00, -1.3201781785061035e+00,
       3.3845325786990270e+00, -1.3115423544013141e+00,
       3.3874787611281980e+00, -1.3132258692876519e+00,
       3.3986117037598658e+00, -1.3135589475062841e+00,
       3.4252036427627779e+00, -1.3218949202225025e+00,
       3.4554896327084670e+00, -1.3323650142656678e+00,
       3.4808937035897243e+00, -1.3279302264570778e+00,
       3.5133426258953615e+00, -1.3257362193368618e+00,
       3.5416256501671248e+00, -1.3143384976450923e+00,
       3.5650981625809397e+00, -1.2930473863166108e+00,
       3.5883549446554857e+00, -1.2637685292167924e+00,
       3.5938460166584418e+00, -1.2152566995660328e+00,
       3.5623265960381967e+00, -1.1592156036382406e+00,
       3.5139661695251445e+00, -1.0949342065874983e+00,
       3.4627773692363060e+00, -1.0497714861356724e+00,
       3.4560825635978873e+00, -1.0391376049333774e+00,
       3.5091561846999828e+00, -1.0858216137472645e+00,
       3.5572378495451242e+00, -1.1449683350726525e+00,
       3.5734057967540940e+00, -1.2041377349049358e+00,
       3.5654279592985456e+00, -1.2481559072453614e+00,
       3.5546670015016413e+00, -1.2834312688982026e+00,
       3.5287861400773139e+00, -1.3069856304856444e+00,
       3.4895726235682898e+00, -1.3272542456163012e+00,
       3.4512170968370510e+00, -1.3387690265557575e+00,
       3.4100133297388093e+00, -1.3376349617819183e+00,
       3.3824046013040920e+00, -1.3326164020128208e+00,
       3.3612315060144402e+00, -1.3188871597313983e+00,
       3.3440836996109806e+00, -1.3137488019374737e+00,
       3.3545223067169085e+00, -1.3143054320164962e+00,
       3.3731326075248420e+00, -1.3153133125594507e+00,
       3.3952465740499571e+00, -1.3183245671978765e+00,
       3.4307651807321355e+00, -1.3150408632702812e+00,
       3.4753933024339050e+00, -1.3046660896768059e+00,
       3.5285178461397120e+00, -1.2871400438662890e+00,
       3.5941347521873266e+00, -1.2581701477352112e+00,
       3.6328260951950835e+00, -1.2247101691748410e+00,
       3.6325009030392592e+00, -1.2035332822362512e+00,
       3.5970199956999140e+00, -1.2069873224188958e+00,
       3.5845615566225479e+00, -1.2208150956349784e+00,
       3.6142331367500744e+00, -1.2293120426667514e+00,
       3.6245998838214062e+00, -1.2302153433170722e+00,
       3.5869678453122451e+00, -1.2210881947254046e+00,
       3.5888511819071001e+00, -1.2128882137757868e+00,
       3.6053803755336680e+00, -1.2056067479125547e+00,
       3.6094163575773575e+00, -1.2193514158152121e+00,
       3.5713645665973313e+00, -1.2536616482852749e+00,
       3.5198448390404065e+00, -1.2863393958328044e+00,
       3.4707953267563139e+00, -1.3100891596922160e+00,
       3.4228857136349369e+00, -1.3202964282142915e+00,
       3.3915919720622285e+00, -1.3257773688780612e+00,
       3.3735500192966490e+00, -1.3248586743331603e+00,
       3.3569105576789475e+00, -1.3202270954130053e+00,
       3.3365187001662906e+00, -1.3189600208066827e+00,
       3.3505714863260381e+00, -1.3262396994123211e+00,
       3.3728598101059570e+00, -1.3313442007959322e+00,
       3.3990685552982827e+00, -1.3415340451314082e+00,
       3.4351135849906793e+00, -1.3433805898420665e+00,
       3.4667393722048661e+00, -1.3361142134620467e+00,
       3.5091520311909532e+00, -1.3248842348146235e+00,
       3.5420227912027431e+00, -1.3045846212124534e+00,
       3.5646085752303196e+00, -1.2758616876055160e+00,
       3.5801114198564279e+00, -1.2315666530197158e+00,
       3.5575175610343162e+00, -1.1754843519546754e+00,
       3.5190969554545815e+00, -1.1109995924141656e+00,
       3.4657930026263921e+00, -1.0582205273732173e+00,
       3.4730717408812120e+00, -1.0530737142698638e+00,
       3.5263213253509709e+00, -1.1027208201163172e+00,
       3.5506049968516749e+00, -1.1622589399723269e+00,
       3.5490099790238832e+00, -1.2182726016679148e+00,
       3.5321789975291287e+00, -1.2621981107021643e+00,
       3.5146269349742609e+00, -1.2951673632433363e+00,
       3.4854414168618315e+00, -1.3205250598548695e+00,
       3.4428668101211333e+00, -1.3408644903123326e+00,
       3.3976021389212168e+00, -1.3515323554197558e+00,
       3.3550964983908762e+00, -1.3526184979329363e+00,
       3.3209516534340029e+00, -1.3464414064448589e+00,
       3.3030486189518204e+00, -1.3359840817132269e+00,
       3.3051739535074680e+00, -1.3303989462694830e+00,
       3.3253253051921421e+00, -1.3286358233972402e+00,
       3.3649105917661064e+00, -1.3267162680404634e+00,
       3.4075133515856426e+00, -1.3273960044897652e+00,
       3.4629112826599444e+00, -1.3173434931672232e+00,
       3.5347277122677792e+00, -1.3040323620593379e+00,
       3.6167891589814460e+00, -1.2809885363187050e+00,
       3.6628004596040644e+00, -1.2366366216293347e+00,
       3.6997444011571532e+00, -1.1881436986729326e+00,
       3.6794517762951835e+00, -1.1702164256261671e+00,
       3.6379596759714405e+00, -1.2021275832056855e+00,
       3.6072426889177578e+00, -1.2289322519300823e+00,
       3.5999619042091471e+00, -1.2387595630187105e+00,
       3.5881542367414081e+00, -1.2378863388421542e+00,
       3.5754039605526713e+00, -1.2301690324359495e+00,
       3.6136458036057708e+00, -1.2116303145272287e+00,
       3.6387173535341275e+00, -1.1842560267657198e+00,
       3.6602872970095119e+00, -1.1901410730453545e+00,
       3.6319093529140933e+00, -1.2306886468350251e+00,
       3.5858893292918945e+00, -1.2740790103189346e+00,
       3.5237507478420369e+00, -1.3038323255161575e+00,
       3.4652868438395679e+00, -1.3223911178560843e+00,
       3.4152474405437059e+00, -1.3306057756303438e+00,
       3.3737904898950344e+00, -1.3344758786244899e+00,
       3.3240926356067022e+00, -1.3293911725673828e+00,
       3.3010073982444053e+00, -1.3334595093925783e+00,
       3.2948898060521437e+00, -1.3380153107767434e+00,
       3.3095977552427907e+00, -1.3460767427579168e+00,
       3.3353751016759112e+00, -1.3519843669901985e+00,
       3.3696647377342979e+00, -1.3548984779079958e+00,
       3.4130964359295115e+00, -1.3481066871438387e+00,
       3.4664898510111302e+00, -1.3361877830821263e+00,
       3.5057799949522366e+00, -1.3190945211922531e+00,
       3.5398926322698578e+00, -1.2893519008748140e+00,
       3.5579516040475969e+00, -1.2448340378402283e+00,
       3.5590540590158799e+00, -1.1904060952815567e+00,
       3.5351229475607790e+00, -1.1294030262515102e+00,
       3.4869660499413038e+00, -1.0759997260839014e+00,
       3.4819323417051042e+00, -1.0628566664033776e+00,
       3.5276688215327576e+00, -1.1189261573998506e+00,
       3.5469856700626128e+00, -1.1812209350506049e+00,
       3.5272925207648611e+00, -1.2340151151129306e+00,
       3.4947762410301957e+00, -1.2752348006705465e+00,
       3.4761287620238481e+00, -1.3097799097559699e+00,
       3.4342903804707152e+00, -1.3341536115724195e+00,
       3.3838842753073117e+00, -1.3571401077280487e+00,
       3.3326453262787101e+00, -1.3678090710414375e+00,
       3.2880951233830253e+00, -1.3679037491597026e+00,
       3.2598880759618423e+00, -1.3620680228458562e+00,
       3.2449138368266723e+00, -1.3538447087177092e+00,
       3.2426000492265912e+00, -1.3398986459387414e+00,
       3.2740229323069214e+00, -1.3401257565956171e+00,
       3.3361271998890447e+00, -1.3361970284183269e+00,
       3.4088118085746157e+00, -1.3341072795733351e+00,
       3.4857708207604929e+00, -1.3205777962901786e+00,
       3.5805955216589096e+00, -1.3062812025423711e+00,
       3.6438585789113054e+00, -1.2836135052202808e+00,
       3.6488995872872181e+00, -1.2503582309544725e+00,
       3.6507461070103346e+00, -1.2056655013856379e+00,
       3.6272448922921789e+00, -1.1891303082197568e+00,
       3.5802022641910027e+00, -1.2213561763588343e+00,
       3.5019276656622327e+00, -1.2564864710170509e+00,
       3.4525010536247200e+00, -1.2648164015453014e+00,
       3.4367162306067636e+00, -1.2651328642147925e+00,
       3.4726203982033761e+00, -1.2588334648116384e+00,
       3.5445305717618294e+00, -1.2304885092283284e+00,
       3.6074343920705378e+00, -1.1918170652831284e+00,
       3.6388955640716936e+00, -1.2008055083578355e+00,
       3.6452754189700909e+00, -1.2490489182300533e+00,
       3.6211301487503729e+00, -1.2827112113418198e+00,
       3.5665170271096494e+00, -1.3005862207951404e+00,
       3.4953416462705151e+00, -1.3198336531807655e+00,
       3.4238552409632237e+00, -1.3337061013629465e+00,
       3.3479596783089218e+00, -1.3388524352489213e+00,
       3.2876190580212654e+00, -1.3412944195634473e+00,
       3.2512162451359572e+00, -1.3444141859900471e+00,
       3.2416290981288176e+00, -1.3536876290317008e+00,
       3.2469439238011404e+00, -1.3615458205972484e+00,
       3.2727841350056419e+00, -1.3683644366302625e+00,
       3.3074422859797683e+00, -1.3689202869906738e+00,
       3.3604164581074696e+00, -1.3632939222552229e+00,
       3.4209282915054962e+00, -1.3526816198768616e+00,
       3.4536732848135054e+00, -1.3291656007567203e+00,
       3.4976150858497315e+00, -1.3028542681481983e+00,
       3.5333159778102363e+00, -1.2618508471354426e+00,
       3.5584144322361602e+00, -1.2074301514514456e+00,
       3.5402931484428568e+00, -1.1469106598865402e+00,
       3.5101718421533579e+00, -1.0882289550451094e+00,
       3.4976922925933920e+00, -1.0770907700182082e+00,
       3.5284312285139205e+00, -1.1367598437940609e+00,
       3.5212573864301979e+00, -1.1959869252544246e+00,
       3.5016053990084859e+00, -1.2480837631266184e+00,
       3.4631244201355660e+00, -1.2918982452955665e+00,
       3.4327889432613632e+00, -1.3254087638083139e+00,
       3.3859653146236344e+00, -1.3498176397144348e+00,
       3.3247308645177389e+00, -1.3756019533232824e+00,
       3.2681439375250467e+00, -1.3851473143771078e+00,
       3.2233229877535621e+00, -1.3853674783252745e+00,
       3.1907955005178028e+00, -1.3750814949646888e+00,
       3.1806102362883597e+00, -1.3655423524490533e+00,
       3.1814759101399437e+00, -1.3542892448262873e+00,
       3.2119120982667373e+00, -1.3451223882872299e+00,
       3.2756630295803055e+00, -1.3435522861325770e+00,
       3.3674681446995520e+00, -1.3362732267845023e+00,
       3.4642680949212936e+00, -1.3217724108088851e+00,
       3.5636495774079813e+00, -1.3103786275442728e+00,
       3.6116783310364422e+00, -1.2976254528836517e+00,
       3.5780785282753000e+00, -1.2795304812580213e+00,
       3.5548182465720752e+00, -1.2557403285250692e+00,
       3.5322544885270326e+00, -1.2458517689779172e+00,
       3.4661218532139610e+00, -1.2722842549166269e+00,
       3.3596939627343700e+00, -1.2974717494144878e+00,
       3.2856680341218536e+00, -1.3056868369444332e+00,
       3.2686476482748676e+00, -1.3051544118182581e+00,
       3.3078961160932829e+00, -1.2928481933329987e+00,
       3.4029491727270216e+00, -1.2712127562445221e+00,
       3.4875181528328243e+00, -1.2458024811679063e+00,
       3.5424085675628265e+00, -1.2541203199923401e+00,
       3.5772783275845592e+00, -1.2815058658503709e+00,
       3.6054262278819085e+00, -1.3024917784485726e+00,
       3.5765894181543354e+00, -1.3125564722046927e+00,
       3.4880218282206124e+00, -1.3249830547779551e+00,
       3.3912421805773674e+00, -1.3371536330721032e+00,
       3.2896152628683000e+00, -1.3434439842024175e+00,
       3.2235476724584351e+00, -1.3508441071780686e+00,
       3.1901931420730305e+00, -1.3558200157280618e+00,
       3.1743780539653521e+00, -1.3655953992559666e+00,
       3.1855519648641337e+00, -1.3765514639790153e+00,
       3.2138722587665338e+00, -1.3860651099448689e+00,
       3.2453766004225364e+00, -1.3845803861456740e+00,
       3.3033005974181524e+00, -1.3788590368116806e+00,
       3.3576306404997798e+00, -1.3656199403894420e+00,
       3.4059252852656883e+00, -1.3417905441486815e+00,
       3.4540408906856261e+00, -1.3145516124755947e+00,
       3.5022634096638612e+00, -1.2747923957544822e+00,
       3.5342757018210449e+00, -1.2213368688429100e+00,
       3.5369559094861236e+00, -1.1627595970282680e+00,
       3.5304932706402017e+00, -1.1042866621398617e+00,
       3.4976706023108650e+00, -1.0894607799119653e+00,
       3.5157681525999163e+00, -1.1547000986957225e+00,
       3.4966336328199659e+00, -1.2103796855297146e+00,
       3.4681460575700682e+00, -1.2616796187055570e+00,
       3.4257262062703271e+00, -1.3054454644268172e+00,
       3.3879705215535050e+00, -1.3406745151217758e+00,
       3.3286371332966422e+00, -1.3647260864312389e+00,
       3.2715946354081042e+00, -1.3912875063403249e+00,
       3.2110409773264355e+00, -1.4006228777246101e+00,
       3.1664049385932187e+00, -1.4000891004516782e+00,
       3.1355115822985073e+00, -1.3936927075276555e+00,
       3.1200113862757570e+00, -1.3820909130118340e+00,
       3.1284385388714844e+00, -1.3699403977947446e+00,
       3.1548522461458459e+00, -1.3593513596207045e+00,
       3.2112636138691077e+00, -1.3522935089273547e+00,
       3.2915175536167682e+00, -1.3401557992768725e+00,
       3.4080183246874634e+00, -1.3314419529313926e+00,
       3.5179235228546655e+00, -1.3250417267540469e+00,
       3.5687566484969011e+00, -1.3229548055443219e+00,
       3.5286427916715457e+00, -1.3176180656049856e+00,
       3.5053597725125458e+00, -1.3100416065681506e+00,
       3.4544857967062006e+00, -1.3075151635157862e+00,
       3.3512723947564700e+00, -1.3204893505075543e+00,
       3.2276550320616004e+00, -1.3366416253226663e+00,
       3.1613015195166723e+00, -1.3410920005655260e+00,
       3.1556412310165984e+00, -1.3385465692524225e+00,
       3.1897565664987679e+00, -1.3296796469495358e+00,
       3.3033860028842410e+00, -1.3198951201834594e+00,
       3.4098122357316289e+00, -1.3058592398515767e+00,
       3.4865850898922477e+00, -1.3105936796406608e+00,
       3.5401424476212235e+00, -1.3222395393083186e+00,
       3.5690634215147692e+00, -1.3297560071669554e+00,
       3.5413793876587856e+00, -1.3295837617270623e+00,
       3.4340320470510637e+00, -1.3334890247389579e+00,
       3.3108065319617177e+00, -1.3414095364412988e+00,
       3.2193290891024895e+00, -1.3528875547063752e+00,
       3.1636160494183549e+00, -1.3590964472116216e+00,
       3.1285804436150513e+00, -1.3689301957489470e+00,
       3.1134735320782800e+00, -1.3802314723053986e+00,
       3.1229275670587882e+00, -1.3904643648517760e+00,
       3.1505893168330319e+00, -1.4015292939095916e+00,
       3.1857969603119676e+00, -1.4020738231142331e+00,
       3.2383721341634542e+00, -1.3952605809134386e+00,
       3.3042823719557113e+00, -1.3817604878477907e+00,
       3.3594847220957051e+00, -1.3559302469074452e+00,
       3.4081594794756715e+00, -1.3269319677270639e+00,
       3.4593185825630619e+00, -1.2850204977489263e+00,
       3.5062536683394430e+00, -1.2363644296495040e+00,
       3.5211109989202685e+00, -1.1750868568902357e+00,
       3.5229296009713145e+00, -1.1112167424318111e+00,
       3.4957128458681539e+00, -1.0980293988250531e+00,
       3.4956345810833294e+00, -1.1639944207165382e+00,
       3.4736557116303248e+00, -1.2242499608250714e+00,
       3.4286814498360187e+00, -1.2735129867490622e+00,
       3.3792334848384815e+00, -1.3153867994038138e+00,
       3.3377336589542628e+00, -1.3499804488034632e+00,
       3.2782967192506236e+00, -1.3769225087372841e+00,
       3.2175815020019467e+00, -1.4013226079889338e+00,
       3.1584523009944090e+00, -1.4088178641443372e+00,
       3.1092848652149523e+00, -1.4084044265044258e+00,
       3.0812047947142003e+00, -1.4075435981672375e+00,
       3.0692005174467343e+00, -1.3957045085073905e+00,
       3.0804688762016519e+00, -1.3867507338020595e+00,
       3.1012185552276330e+00, -1.3740900861928516e+00,
       3.1463359873353176e+00, -1.3649529524947182e+00,
       3.2128619157853082e+00, -1.3545537377103891e+00,
       3.3150555632823728e+00, -1.3440761544075659e+00,
       3.4417373285776982e+00, -1.3419488202890837e+00,
       3.5127904124148861e+00, -1.3493256249729706e+00,
       3.5011328465680385e+00, -1.3492897835006354e+00,
       3.4816802436354655e+00, -1.3474946581561025e+00,
       3.4286764411543320e+00, -1.3518280053400604e+00,
       3.3062139533388986e+00, -1.3614758267792915e+00,
       3.1776374544046542e+00, -1.3716169707909127e+00,
       3.1174259291608122e+00, -1.3752638123536776e+00,
       3.1113853643631191e+00, -1.3757306266368672e+00,
       3.1499359077774711e+00, -1.3682832641567682e+00,
       3.2657484401427324e+00, -1.3598331065985996e+00,
       3.3800106879913678e+00, -1.3438799929145804e+00,
       3.4649107398087042e+00, -1.3435380435974158e+00,
       3.5073285064232880e+00, -1.3475558179707314e+00,
       3.5157965356277754e+00, -1.3489194887176401e+00,
       3.4598117035525777e+00, -1.3441170798455273e+00,
       3.3415766998149787e+00, -1.3466189059362554e+00,
       3.2282147851157061e+00, -1.3544789412547031e+00,
       3.1540597048569130e+00, -1.3650810479637943e+00,
       3.1113180185536939e+00, -1.3747224517821932e+00,
       3.0750153187284748e+00, -1.3842521806863510e+00,
       3.0635196425194078e+00, -1.3954212467486078e+00,
       3.0704118013832820e+00, -1.4043571691489680e+00,
       3.0956099394164722e+00, -1.4119279137358181e+00,
       3.1348992302196961e+00, -1.4133006078373802e+00,
       3.1860414247146802e+00, -1.4055476559471434e+00,
       3.2538801222484732e+00, -1.3926340022086985e+00,
       3.3132211237860099e+00, -1.3673824608405361e+00,
       3.3673631376994546e+00, -1.3377558141089201e+00,
       3.4166930714212560e+00, -1.2959246645656086e+00,
       3.4836173047512857e+00, -1.2504170973004565e+00,
       3.5076476275081796e+00, -1.1876316442706867e+00,
       3.5173077237735844e+00, -1.1248366173639610e+00,
       3.4944627942536610e+00, -1.1090324798821607e+00,
       3.4827925734391258e+00, -1.1754226610797844e+00,
       3.4482428165648225e+00, -1.2373182289832434e+00,
       3.3958596160822405e+00, -1.2856800141638627e+00,
       3.3424060941883491e+00, -1.3240950714412705e+00,
       3.2937707881672891e+00, -1.3539146946743692e+00,
       3.2349237727787470e+00, -1.3877627332432194e+00,
       3.1733281470004697e+00, -1.4088442445250362e+00,
       3.1102289196817066e+00, -1.4166497583679387e+00,
       3.0669354711698253e+00, -1.4193596125715975e+00,
       3.0376693258793308e+00, -1.4140291739490569e+00,
       3.0291394490090839e+00, -1.4056780771165576e+00,
       3.0365744536843589e+00, -1.3989812778054500e+00,
       3.0557982882215065e+00, -1.3900754170004339e+00,
       3.0900776087876367e+00, -1.3786826821285709e+00,
       3.1434988400265516e+00, -1.3678096182148107e+00,
       3.2292576486554183e+00, -1.3622779237980329e+00,
       3.3465429562568452e+00, -1.3619114568418391e+00,
       3.4398957160825239e+00, -1.3611023763976255e+00,
       3.4669528257073416e+00, -1.3581143898936421e+00,
       3.4512706388473613e+00, -1.3611868912577987e+00,
       3.3974152311481345e+00, -1.3742079930598383e+00,
       3.2828852933963977e+00, -1.3882409698079150e+00,
       3.1635861222556119e+00, -1.3970285849266650e+00,
       3.1011659085338823e+00, -1.4055569095110623e+00,
       3.0919471325119079e+00, -1.4057859958747738e+00,
       3.1463969004358963e+00, -1.3991781511570662e+00,
       3.2577500176338816e+00, -1.3836983971920074e+00,
       3.3662674884955761e+00, -1.3691803482605942e+00,
       3.4368706627608319e+00, -1.3602457332808577e+00,
       3.4757384485359490e+00, -1.3603646628898376e+00,
       3.4533988376723253e+00, -1.3602338352158887e+00,
       3.3672259325687519e+00, -1.3585087724087945e+00,
       3.2460106087815035e+00, -1.3607058828515139e+00,
       3.1546938340732948e+00, -1.3686817582404891e+00,
       3.0992733555047733e+00, -1.3802730828962413e+00,
       3.0540781552905973e+00, -1.3868470644565121e+00,
       3.0335175113721959e+00, -1.3959159029653800e+00,
       3.0227979506315625e+00, -1.4064355900277403e+00,
       3.0302043326434527e+00, -1.4124633202535484e+00,
       3.0473746467548914e+00, -1.4171377251792563e+00,
       3.0911699809860194e+00, -1.4196032981860978e+00,
       3.1391777621150152e+00, -1.4114994489655903e+00,
       3.2089680247283781e+00, -1.4005392323408532e+00,
       3.2696775156640259e+00, -1.3747752686154875e+00,
       3.3287485369743490e+00, -1.3456038025667689e+00,
       3.3855741541923097e+00, -1.3086452024033204e+00,
       3.4481997296194655e+00, -1.2648652549441977e+00,
       3.4956410907361453e+00, -1.1996939541249179e+00,
       3.5173731401310850e+00, -1.1353213996090687e+00,
       3.4843069106430828e+00, -1.1161103625992101e+00,
       3.4597416265901071e+00, -1.1797613425406839e+00,
       3.4212613893505792e+00, -1.2443963211538882e+00,
       3.3658549073082318e+00, -1.2915885664811440e+00,
       3.3047558146612097e+00, -1.3279400087214022e+00,
       3.2557618102676176e+00, -1.3614634304938811e+00,
       3.2003257486572774e+00, -1.3953779030862561e+00,
       3.1384979744145114e+00, -1.4140692604099367e+00,
       3.0759141850239606e+00, -1.4213025741480767e+00,
       3.0384166487833464e+00, -1.4243186407372845e+00,
       3.0170289664124610e+00, -1.4229299834379066e+00,
       3.0138999910793012e+00, -1.4178927505680543e+00,
       3.0155638290367852e+00, -1.4088021264861417e+00,
       3.0295741011941510e+00, -1.4004240252162523e+00,
       3.0495960008924898e+00, -1.3924073510181194e+00,
       3.0880141306062643e+00, -1.3831718193987135e+00,
       3.1623581601616300e+00, -1.3771788091460671e+00,
       3.2655394254335222e+00, -1.3783013286757151e+00,
       3.3668462912517172e+00, -1.3744567693446073e+00,
       3.4207369279152142e+00, -1.3695603794150086e+00,
       3.4232380438591243e+00, -1.3723906659838920e+00,
       3.3768931632010912e+00, -1.3857050359782519e+00,
       3.2801457816132347e+00, -1.4057100471246975e+00,
       3.1660236758554734e+00, -1.4171937445076754e+00,
       3.0862801234174646e+00, -1.4193759495183504e+00,
       3.0793055692515447e+00, -1.4202829479157029e+00,
       3.1472905445574395e+00, -1.4198561240654732e+00,
       3.2591104052945150e+00, -1.4059156646868096e+00,
       3.3483999036641854e+00, -1.3847209419895981e+00,
       3.4157242292164383e+00, -1.3720989715486791e+00,
       3.4289551174801889e+00, -1.3692352596262352e+00,
       3.3792706342482748e+00, -1.3708730454552673e+00,
       3.2943411601412658e+00, -1.3774097763214177e+00,
       3.1835016529753348e+00, -1.3772519961598348e+00,
       3.0999688598382180e+00, -1.3810651846057815e+00,
       3.0529853611939313e+00, -1.3888888396522541e+00,
       3.0273598404835687e+00, -1.3963303635515032e+00,
       3.0106990980127395e+00, -1.4053893921648180e+00,
       3.0079826246594896e+00, -1.4163035762156688e+00,
       3.0124652607725788e+00, -1.4219510833772988e+00,
       3.0251939823501690e+00, -1.4244173902986565e+00,
       3.0633482932532941e+00, -1.4234660577759382e+00,
       3.1113240238791544e+00, -1.4168032381205029e+00,
       3.1782014877776623e+00, -1.4082066505483894e+00,
       3.2322631822022516e+00, -1.3802062099634167e+00,
       3.2934229649114619e+00, -1.3504855375824829e+00,
       3.3575102260854548e+00, -1.3135544334850673e+00,
       3.4198738843136915e+00, -1.2698471500563386e+00,
       3.4610980480409417e+00, -1.2065562741015496e+00,
       3.5025260798687832e+00, -1.1389555953512078e+00,
       3.4809830281992258e+00, -1.1197424033668402e+00,
       3.4378672479115626e+00, -1.1831730026359522e+00,
       3.4020615140799979e+00, -1.2492069082453079e+00,
       3.3473278044245056e+00, -1.2965132042834109e+00,
       3.2802852194192811e+00, -1.3316455316312392e+00,
       3.2310756604919728e+00, -1.3649468962870677e+00,
       3.1739005775524651e+00, -1.3984544781235917e+00,
       3.1123553980770144e+00, -1.4168800491559626e+00,
       3.0552501739219227e+00, -1.4234264533206162e+00,
       3.0271621404247124e+00, -1.4262136906528975e+00,
       3.0143319508044391e+00, -1.4258267899387211e+00,
       3.0177406385530428e+00, -1.4237778827317327e+00,
       3.0177235689259567e+00, -1.4146478984920283e+00,
       3.0289793436345587e+00, -1.4108607089422784e+00,
       3.0388761448709944e+00, -1.4020058407504878e+00,
       3.0725457858555751e+00, -1.3981351279925054e+00,
       3.1172329016738525e+00, -1.3931015125652781e+00,
       3.2076399567175153e+00, -1.3895271476289441e+00,
       3.3127470342137428e+00, -1.3884722739724642e+00,
       3.3704466992094466e+00, -1.3823335834212038e+00,
       3.3958461999073424e+00, -1.3839971439428780e+00,
       3.3572998649083905e+00, -1.3957625534474394e+00,
       3.2748245505577560e+00, -1.4142765801031076e+00,
       3.1686188208782897e+00, -1.4278507040266695e+00,
       3.0847194929088828e+00, -1.4288452906217726e+00,
       3.0798220011187238e+00, -1.4298274330956939e+00,
       3.1540066778113967e+00, -1.4282878613242287e+00,
       3.2586560939159401e+00, -1.4147401859298667e+00,
       3.3384752363524228e+00, -1.3968145992769543e+00,
       3.3884517911215508e+00, -1.3831514807473446e+00,
       3.3830666023873226e+00, -1.3802538487246874e+00,
       3.3240351399177177e+00, -1.3805948251226348e+00,
       3.2234921650550166e+00, -1.3839144138690682e+00,
       3.1346661301492258e+00, -1.3899981290985224e+00,
       3.0771769002111440e+00, -1.3942858058321428e+00,
       3.0370248153686976e+00, -1.3978206465157776e+00,
       3.0286521637826627e+00, -1.4093208970340847e+00,
       3.0211783912842285e+00, -1.4160110332376428e+00,
       3.0145372421101313e+00, -1.4206789121754151e+00,
       3.0110133130468997e+00, -1.4240932052866617e+00,
       3.0182323379913027e+00, -1.4241543708453088e+00,
       3.0490900325628596e+00, -1.4253240982330841e+00,
       3.0902615017437713e+00, -1.4196938308844429e+00,
       3.1551703220313221e+00, -1.4088645499737784e+00,
       3.2161788759851899e+00, -1.3824684537320377e+00,
       3.2756294296009396e+00, -1.3519394713021355e+00,
       3.3405448165146163e+00, -1.3169893837282862e+00,
       3.3948498936104810e+00, -1.2733181245305993e+00,
       3.4393814452752824e+00, -1.2118672519287648e+00,
       3.4827696901775003e+00, -1.1411033908493138e+00,
       3.4719640720831073e+00, -1.1214427186422058e+00,
       3.4271468872636812e+00, -1.1891419463293935e+00,
       3.3861789976394299e+00, -1.2523431928134232e+00,
       3.3210127706244226e+00, -1.2971507567223028e+00,
       3.2636223751245779e+00, -1.3329708109352842e+00,
       3.2124001232687212e+00, -1.3636045398844290e+00,
       3.1578263742433550e+00, -1.3959660523567226e+00,
       3.1002817309232951e+00, -1.4142847696116929e+00,
       3.0571591104250717e+00, -1.4229951808475345e+00,
       3.0344106626847820e+00, -1.4233487469810633e+00,
       3.0280229939666476e+00, -1.4271629205616103e+00,
       3.0340456778485017e+00, -1.4242141806322910e+00,
       3.0324967845065172e+00, -1.4177654211038717e+00,
       3.0400829133292695e+00, -1.4139949082345509e+00,
       3.0467326012922262e+00, -1.4074936105850639e+00,
       3.0650850299975381e+00, -1.4004866680852670e+00,
       3.1012354785622125e+00, -1.3969800881449410e+00,
       3.1710712207984080e+00, -1.3949063558502488e+00,
       3.2562583659508872e+00, -1.3900909714484717e+00,
       3.3288021470183606e+00, -1.3910070388473643e+00,
       3.3647010520653784e+00, -1.3933477441059912e+00,
       3.3489845596510843e+00, -1.4018858448907070e+00,
       3.2862596432242608e+00, -1.4192721904902497e+00,
       3.1770908566445297e+00, -1.4343579717590285e+00,
       3.0846587489780308e+00, -1.4365202440555145e+00,
       3.0784776252214314e+00, -1.4368038581533411e+00,
       3.1579987389983208e+00, -1.4338789921625967e+00,
       3.2652165723735411e+00, -1.4192973668627185e+00,
       3.3294853969231819e+00, -1.4005562129186877e+00,
       3.3622175257350286e+00, -1.3897108002896386e+00,
       3.3320341829314821e+00, -1.3815024490253507e+00,
       3.2750599295091112e+00, -1.3858298809002754e+00,
       3.1918618493973057e+00, -1.3950842564415917e+00,
       3.1161246770312547e+00, -1.3974210433693752e+00,
       3.0688066593840375e+00, -1.3998597064884883e+00,
       3.0452996824311054e+00, -1.4028088908264251e+00,
       3.0399308541105357e+00, -1.4113441015675936e+00,
       3.0296264979674974e+00, -1.4150191481149821e+00,
       3.0295058670340147e+00, -1.4196899193769594e+00,
       3.0244331141680139e+00, -1.4218180080504264e+00,
       3.0298081606321201e+00, -1.4232964972133197e+00,
       3.0503993121716180e+00, -1.4239213859895890e+00,
       3.0797697344408195e+00, -1.4157015516056393e+00,
       3.1390225587499878e+00, -1.4077134694992357e+00,
       3.1974408941480341e+00, -1.3817898403286604e+00,
       3.2570698487477139e+00, -1.3507048363764476e+00,
       3.3176843136009548e+00, -1.3150849076957793e+00,
       3.3694415287538337e+00, -1.2735589225124209e+00,
       3.4208840162658660e+00, -1.2149495332816054e+00,
       3.4604047874347916e+00, -1.1419690357682504e+00,
       3.4531101313170223e+00, -1.1203802840447186e+00,
       3.4217196162967154e+00, -1.1950142883293242e+00,
       3.3784117190554994e+00, -1.2511689056549928e+00,
       3.3103669996593634e+00, -1.2927549002960179e+00,
       3.2559256226377573e+00, -1.3253561606862860e+00,
       3.2053016531399199e+00, -1.3564025973313814e+00,
       3.1582190654606075e+00, -1.3888164496983764e+00,
       3.1094230354538217e+00, -1.4042309805994728e+00,
       3.0714375094228679e+00, -1.4118079157386729e+00,
       3.0609846107882741e+00, -1.4152066941732480e+00,
       3.0589929807813365e+00, -1.4144856022315881e+00,
       3.0641496494316272e+00, -1.4146761865077964e+00,
       3.0669681013513470e+00, -1.4109382320179136e+00,
       3.0657245498751768e+00, -1.4067900991188274e+00,
       3.0681794790713464e+00, -1.4042241907707187e+00,
       3.0782341321622768e+00, -1.4004689980333587e+00,
       3.1027581080600410e+00, -1.3958327147309049e+00,
       3.1618535360456019e+00, -1.3936212079878809e+00,
       3.2437653760499319e+00, -1.3939876196811518e+00,
       3.3036555950712869e+00, -1.3891084948887531e+00,
       3.3371715287994856e+00, -1.3884438324576485e+00,
       3.3400598761971825e+00, -1.4008175983904176e+00,
       3.2922307638405868e+00, -1.4207046572019619e+00,
       3.1835587205203364e+00, -1.4342746537619051e+00,
       3.0864298286216747e+00, -1.4371368100764501e+00,
       3.0808538675654642e+00, -1.4369642030334036e+00,
       3.1633427838148260e+00, -1.4350594036774327e+00,
       3.2651309412166492e+00, -1.4154479479232167e+00,
       3.3268441091621095e+00, -1.3994234295940469e+00,
       3.3358249701601834e+00, -1.3870705246033870e+00,
       3.3176361007489934e+00, -1.3861100439868219e+00,
       3.2534958270440772e+00, -1.3882000724322372e+00,
       3.1826446846621144e+00, -1.3946988266765104e+00,
       3.1238100519094067e+00, -1.3978763583360705e+00,
       3.0912480368895392e+00, -1.4006514235825027e+00,
       3.0733127265860358e+00, -1.4026709541879703e+00,
       3.0643294540945578e+00, -1.4029856286175890e+00,
       3.0639574237663139e+00, -1.4074994837277015e+00,
       3.0582362622829624e+00, -1.4073538103610876e+00,
       3.0586178909169477e+00, -1.4098757617649473e+00,
       3.0562725375864823e+00, -1.4116879188419491e+00,
       3.0667225040507811e+00, -1.4139486302133990e+00,
       3.0897467452086431e+00, -1.4037063687697295e+00,
       3.1390095269763907e+00, -1.3973685865930845e+00,
       3.1995772119188390e+00, -1.3768119028613675e+00,
       3.2469285148920992e+00, -1.3445701950508155e+00,
       3.3138924376337737e+00, -1.3135205600038948e+00,
       3.3582587082010020e+00, -1.2712870985260205e+00,
       3.4044087322284802e+00, -1.2140361805992250e+00,
       3.4563317815135872e+00, -1.1452094261307071e+00,
       3.4571917302818616e+00, -1.1213622543842536e+00,
       3.4211479681764487e+00, -1.1930687423381185e+00,
       3.3694619083703290e+00, -1.2468571609302732e+00,
       3.3138390009151384e+00, -1.2860048472480663e+00,
       3.2590591634049000e+00, -1.3155745434397947e+00,
       3.2182421596452637e+00, -1.3468453797183686e+00,
       3.1705319549776760e+00, -1.3744975423779140e+00,
       3.1409801868040366e+00, -1.3945888594863567e+00,
       3.1192108378194598e+00, -1.4024332795361356e+00,
       3.1095129058833053e+00, -1.4026474821324821e+00,
       3.1069376787564260e+00, -1.4004006341210427e+00,
       3.1190158561917136e+00, -1.4006385058147537e+00,
       3.1243441419298441e+00, -1.3991522504219229e+00,
       3.1342784960166910e+00, -1.3973428901804636e+00,
       3.1337606052006364e+00, -1.3958469294141256e+00,
       3.1235941683363628e+00, -1.3956418861786051e+00,
       3.1309462478696504e+00, -1.3938983590999359e+00,
       3.1697894155763744e+00, -1.3895241187374070e+00,
       3.2407812620825296e+00, -1.3876237515585788e+00,
       3.2985049396208246e+00, -1.3833895018178997e+00,
       3.3414112794565991e+00, -1.3846922252848162e+00,
       3.3388132819660501e+00, -1.3929342893028638e+00,
       3.2925130679697112e+00, -1.4129446819970979e+00,
       3.1825248585947596e+00, -1.4315614140884629e+00,
       3.0909052653841598e+00, -1.4348215636735138e+00,
       3.0859430430088270e+00, -1.4353084472275801e+00,
       3.1672886306188053e+00, -1.4321451448775862e+00,
       3.2697924611128455e+00, -1.4122492791763814e+00,
       3.3240577330705880e+00, -1.3926305979331766e+00,
       3.3394008400039512e+00, -1.3806941799552939e+00,
       3.3188278591197853e+00, -1.3811079992660125e+00,
       3.2578176699870429e+00, -1.3850670976144219e+00,
       3.1913288016909127e+00, -1.3890035250564217e+00,
       3.1389335307290844e+00, -1.3884987987628314e+00,
       3.1297061388061667e+00, -1.3901825693120398e+00,
       3.1304851915189680e+00, -1.3934274030538107e+00,
       3.1271238528563265e+00, -1.3929860478308642e+00,
       3.1254282944846414e+00, -1.3946011338340185e+00,
       3.1164267383703219e+00, -1.3964815448462446e+00,
       3.1071708394076221e+00, -1.3940379490574175e+00,
       3.1079489433110208e+00, -1.4000718662680700e+00,
       3.1140976021195508e+00, -1.3992973504316026e+00,
       3.1239678551453149e+00, -1.3948196733587890e+00,
       3.1573273894110310e+00, -1.3828381540390895e+00,
       3.2083170011360611e+00, -1.3665388249253212e+00,
       3.2575796276238380e+00, -1.3378684820121904e+00,
       3.3097847926681254e+00, -1.3048768380281521e+00,
       3.3584169648748601e+00, -1.2653721510734428e+00,
       3.4014419940608005e+00, -1.2135259923285264e+00,
       3.4501651346245983e+00, -1.1400352051619274e+00,
       3.4652294011029259e+00, -1.1180005115095988e+00,
       3.4240549609211048e+00, -1.1863627167399036e+00,
       3.3709814580713648e+00, -1.2402851699691280e+00,
       3.3243186705615737e+00, -1.2789414458729471e+00,
       3.2866166835577735e+00, -1.3120003433000935e+00,
       3.2476312243307706e+00, -1.3365779664450086e+00,
       3.2061154034962827e+00, -1.3601972057485159e+00,
       3.1855415370335622e+00, -1.3781622219550267e+00,
       3.1754799564634135e+00, -1.3803846916361830e+00,
       3.1737033656622575e+00, -1.3795088051682320e+00,
       3.1855291381398545e+00, -1.3803648425149246e+00,
       3.1932985686905138e+00, -1.3787766287594299e+00,
       3.2125991037720083e+00, -1.3817441886093089e+00,
       3.2200703569058007e+00, -1.3762541257915166e+00,
       3.2323255564557090e+00, -1.3792867317877402e+00,
       3.2181256756101715e+00, -1.3804478991174369e+00,
       3.2015764883381119e+00, -1.3815216835579351e+00,
       3.2057281160443170e+00, -1.3828841163129453e+00,
       3.2523716419108326e+00, -1.3813219717640417e+00,
       3.3059759960248281e+00, -1.3771771110306883e+00,
       3.3459015859795991e+00, -1.3737995531860761e+00,
       3.3510842659527365e+00, -1.3840406854577467e+00,
       3.2951299283045703e+00, -1.4038167838908171e+00,
       3.1842492950141996e+00, -1.4241254488858570e+00,
       3.0903205106506570e+00, -1.4302526802801483e+00,
       3.0819163733055612e+00, -1.4296092738659272e+00,
       3.1685616785341071e+00, -1.4283697002341242e+00,
       3.2712108728485574e+00, -1.4076152653066525e+00,
       3.3289827111843096e+00, -1.3800851320629692e+00,
       3.3487288617623161e+00, -1.3692760759823785e+00,
       3.3219217656279070e+00, -1.3727227424852035e+00,
       3.2764191995129535e+00, -1.3797204442158701e+00,
       3.2197395405524771e+00, -1.3775246248756290e+00,
       3.1990823471200485e+00, -1.3761464289776428e+00,
       3.2134493871324525e+00, -1.3757565657694912e+00,
       3.2212127083589155e+00, -1.3718773523416150e+00,
       3.2137507705873403e+00, -1.3680384792152094e+00,
       3.1987306186962607e+00, -1.3712058370289193e+00,
       3.1891274134442527e+00, -1.3745881846726691e+00,
       3.1790459984415436e+00, -1.3777388810088782e+00,
       3.1680138869741348e+00, -1.3785456271668561e+00,
       3.1668078111144840e+00, -1.3819732036010242e+00,
       3.1775691455715172e+00, -1.3792840212321515e+00,
       3.1945406705118957e+00, -1.3681861610543706e+00,
       3.2384508913011771e+00, -1.3534105185230381e+00,
       3.2743485763849218e+00, -1.3253519984489102e+00,
       3.3230792315018349e+00, -1.2932861579215789e+00,
       3.3552623309848402e+00, -1.2544867337587180e+00,
       3.4083494266820984e+00, -1.2053093496942688e+00,
       3.4637116796278558e+00, -1.1353679810343653e+00,
       3.4770496983035484e+00, -1.1097260741080126e+00,
       3.4266059861725116e+00, -1.1795546079094461e+00,
       3.3834289727109268e+00, -1.2310443998846232e+00,
       3.3370401937300009e+00, -1.2619112116617002e+00,
       3.3046120832563353e+00, -1.2956566927351250e+00,
       3.2846466314541165e+00, -1.3196058376199102e+00,
       3.2705537665615703e+00, -1.3396274660748746e+00,
       3.2689148038111568e+00, -1.3522591642805197e+00,
       3.2732193648183356e+00, -1.3585168244310390e+00,
       3.2837334938843572e+00, -1.3620909566432038e+00,
       3.2969757667594237e+00, -1.3591209531781017e+00,
       3.3111359705747829e+00, -1.3559510029960007e+00,
       3.3218957305616095e+00, -1.3531135854199499e+00,
       3.3349727951011641e+00, -1.3518321770681199e+00,
       3.3581666418047051e+00, -1.3545980116071470e+00,
       3.3534679472068190e+00, -1.3553518250076830e+00,
       3.3232251683039156e+00, -1.3575929881593694e+00,
       3.2867179281797503e+00, -1.3637902436925053e+00,
       3.2969177912938088e+00, -1.3679902862478652e+00,
       3.3284741490605905e+00, -1.3637827974084604e+00,
       3.3631656750855714e+00, -1.3631650240769588e+00,
       3.3633268779620451e+00, -1.3723539656062425e+00,
       3.3067965882637020e+00, -1.3929551265474625e+00,
       3.1894171202919632e+00, -1.4135856158782172e+00,
       3.0888061109944154e+00, -1.4211963984791212e+00,
       3.0816006984932223e+00, -1.4244566069887417e+00,
       3.1675625679475550e+00, -1.4184340594414626e+00,
       3.2764564262368698e+00, -1.3935689555050947e+00,
       3.3469311667458634e+00, -1.3680165816144076e+00,
       3.3647418996612930e+00, -1.3588978562223069e+00,
       3.3462209760745627e+00, -1.3638776825977281e+00,
       3.3163154294896966e+00, -1.3640730478092760e+00,
       3.2975208941995704e+00, -1.3571641161440957e+00,
       3.3130817985070533e+00, -1.3498911012918624e+00,
       3.3469100606538142e+00, -1.3484841281162103e+00,
       3.3420395800918850e+00, -1.3426452548317560e+00,
       3.3268900547860758e+00, -1.3435493201795368e+00,
       3.3032515583992761e+00, -1.3486966008020684e+00,
       3.2936972764158621e+00, -1.3534436560820065e+00,
       3.2857535950993357e+00, -1.3587994459251671e+00,
       3.2796099621187405e+00, -1.3624610097564722e+00,
       3.2685567191514413e+00, -1.3640326502367937e+00,
       3.2597186125249937e+00, -1.3576841214788442e+00,
       3.2655211044833745e+00, -1.3470426311640986e+00,
       3.2780317275959701e+00, -1.3325783604369741e+00,
       3.3000417772568045e+00, -1.3097003371224454e+00,
       3.3268006356354167e+00, -1.2775614516847260e+00,
       3.3668247602579648e+00, -1.2436026006432708e+00,
       3.4167878227722484e+00, -1.1961248994332407e+00,
       3.4711018244919747e+00, -1.1222142078500505e+00,
       3.4784116134096990e+00, -1.0935676758279596e+00,
       3.4464227530380982e+00, -1.1714582902844757e+00,
       3.4002348444747708e+00, -1.2186894901728109e+00,
       3.3707241073028782e+00, -1.2489527081803848e+00,
       3.3496019584212378e+00, -1.2794035386848330e+00,
       3.3467376175129435e+00, -1.3000974022451728e+00,
       3.3527414546775689e+00, -1.3127138879611513e+00,
       3.3779074931288435e+00, -1.3240080779917620e+00,
       3.4073953529462142e+00, -1.3249586095103127e+00,
       3.4273672746670827e+00, -1.3243223743267536e+00,
       3.4324500792117179e+00, -1.3257709359676824e+00,
       3.4391544816165078e+00, -1.3243338810381280e+00,
       3.4568407511621762e+00, -1.3170916782019073e+00,
       3.4738048969385908e+00, -1.3147253414964781e+00,
       3.5007450696088016e+00, -1.3171695913086670e+00,
       3.5144280651242328e+00, -1.3243599453465911e+00,
       3.5077974877756115e+00, -1.3302202978756816e+00,
       3.4364600279523931e+00, -1.3358938980554615e+00,
       3.3731960305132600e+00, -1.3405502076408036e+00,
       3.3684031353895763e+00, -1.3444548139353638e+00,
       3.3917079020941916e+00, -1.3473091851557375e+00,
       3.3811334848715209e+00, -1.3584760955619928e+00,
       3.3140905988291438e+00, -1.3794647735716277e+00,
       3.1828020684569398e+00, -1.4040839538034586e+00,
       3.0883222642316692e+00, -1.4140176405110980e+00,
       3.0802146187407535e+00, -1.4164590703744260e+00,
       3.1593035021070182e+00, -1.4054917092307269e+00,
       3.2911117016912934e+00, -1.3826523181305785e+00,
       3.3621747150793286e+00, -1.3560611120402852e+00,
       3.3900884479233859e+00, -1.3420327368187743e+00,
       3.3888830284407181e+00, -1.3420054212761647e+00,
       3.3860166103596900e+00, -1.3383391453799200e+00,
       3.4160144763664344e+00, -1.3283807595198960e+00,
       3.4733104651109463e+00, -1.3250297270490659e+00,
       3.5036268033555222e+00, -1.3197559220034298e+00,
       3.4806329534794180e+00, -1.3138857977280243e+00,
       3.4574803648200336e+00, -1.3162029737737406e+00,
       3.4317768833481734e+00, -1.3194951680353115e+00,
       3.4089842319978430e+00, -1.3232617951776560e+00,
       3.4102127583375190e+00, -1.3279429014401416e+00,
       3.4140215518272803e+00, -1.3273568810636345e+00,
       3.3983594255609990e+00, -1.3268364137435567e+00,
       3.3743067867607590e+00, -1.3249576042010067e+00,
       3.3520299973651873e+00, -1.3176948742668158e+00,
       3.3407179984152013e+00, -1.3082207613285244e+00,
       3.3393136046930216e+00, -1.2908910251385690e+00,
       3.3594673028945183e+00, -1.2660420559340466e+00,
       3.3874778885060239e+00, -1.2296793845972440e+00,
       3.4287345084989593e+00, -1.1803059712687376e+00,
       3.4884670424465316e+00, -1.1077749129101622e+00,
       3.4952075041761343e+00, -1.0758349839101327e+00,
       3.4740247548223735e+00, -1.1574375128142824e+00,
       3.4271763454860515e+00, -1.2050943447106326e+00,
       3.4092648427213681e+00, -1.2397843357988059e+00,
       3.4015134815090953e+00, -1.2670751287593838e+00,
       3.4265388008540900e+00, -1.2764493417881400e+00,
       3.4677509631340770e+00, -1.2748858707926702e+00,
       3.5245124301176465e+00, -1.2682906998888597e+00,
       3.5717779495874145e+00, -1.2710550787432602e+00,
       3.5764044353292004e+00, -1.2795272264166784e+00,
       3.5590284305355970e+00, -1.2803317133988561e+00,
       3.5577922554235535e+00, -1.2771229089874849e+00,
       3.5862036013149372e+00, -1.2662340758915791e+00,
       3.6318231564438066e+00, -1.2665382252181956e+00,
       3.6578281749596355e+00, -1.2725423379889711e+00,
       3.6844494344671372e+00, -1.2879136363924117e+00,
       3.6991715251684298e+00, -1.2978335994794794e+00,
       3.6130443139130985e+00, -1.3036202036986408e+00,
       3.4767780945197919e+00, -1.3030749501428918e+00,
       3.4121678230784407e+00, -1.3095831157404498e+00,
       3.4166884436137166e+00, -1.3212482375724974e+00,
       3.4032346619498166e+00, -1.3402898813967214e+00,
       3.3194373531908048e+00, -1.3717972382885115e+00,
       3.1731997069618085e+00, -1.3940886151083285e+00,
