%YAML:1.0
my_nn: !!opencv-ml-ann-mlp
   layer_sizes: !!opencv-matrix
      rows: 1
      cols: 3
      dt: i
      data: [ 2500, 12, 2 ]
   activation_function: SIGMOID_SYM
   f_param1: 1.
   f_param2: 1.
   min_val: -9.4999999999999996e-01
   max_val: 9.4999999999999996e-01
   min_val1: -9.7999999999999998e-01
   max_val1: 9.7999999999999998e-01
   training_params:
      train_method: RPROP
      dw0: 1.0000000000000001e-01
      dw_plus: 1.2000000000000000e+00
      dw_minus: 5.0000000000000000e-01
      dw_min: 1.1920928955078125e-07
      dw_max: 50.
      term_criteria: { epsilon:9.9999997473787516e-06, iterations:1000 }
   input_scale: [ 3.2465431369874294e+00, -9.4651518988127337e-01,
       3.2811487352998476e+00, -9.4607830703694129e-01,
       3.3450325302728685e+00, -9.4883597617201676e-01,
       3.4052363743492724e+00, -9.5486186514181437e-01,
       3.4567428577962058e+00, -9.5967979551056326e-01,
       3.5425470704908157e+00, -9.7839344261273442e-01,
       3.5949156507787405e+00, -9.8885006962745403e-01,
       3.6949078667055040e+00, -1.0136820222370047e+00,
       3.7319615681801634e+00, -1.0307763135389207e+00,
       3.7672947335217231e+00, -1.0582675638462768e+00,
       3.7986776805776028e+00, -1.0943306069853194e+00,
       3.8027970637668576e+00, -1.1294956354461874e+00,
       3.8098028938379493e+00, -1.1685305835036708e+00,
       3.7997866382875682e+00, -1.2082123331482260e+00,
       3.7833834609351387e+00, -1.2405237011544419e+00,
       3.7555607674538161e+00, -1.2702208190519146e+00,
       3.7191294720997496e+00, -1.2928841774885387e+00,
       3.6722589274312440e+00, -1.3080453801851837e+00,
       3.6394857003184948e+00, -1.3161099258082893e+00,
       3.6128324837567871e+00, -1.3254083861511778e+00,
       3.5886866383067524e+00, -1.3363903633423480e+00,
       3.5575670219373126e+00, -1.3462600766752442e+00,
       3.5472410665626848e+00, -1.3485373917502097e+00,
       3.5350507856713205e+00, -1.3475546887780003e+00,
       3.5384760956806449e+00, -1.3465650702878746e+00,
       3.5458007609893820e+00, -1.3449195632248914e+00,
       3.5496760133824625e+00, -1.3478477613218747e+00,
       3.5462741636433570e+00, -1.3490342011871581e+00,
       3.5677779714208162e+00, -1.3485952472827576e+00,
       3.5887116496039893e+00, -1.3416198776802644e+00,
       3.6132756091469549e+00, -1.3358732889948710e+00,
       3.6450370868455506e+00, -1.3235735981885310e+00,
       3.6749341554634229e+00, -1.3089585559074421e+00,
       3.7253054051735357e+00, -1.2930319906697247e+00,
       3.7641924960656974e+00, -1.2673836467851307e+00,
       3.7879681747758407e+00, -1.2432443916965037e+00,
       3.8002501966582001e+00, -1.2072914997124453e+00,
       3.7873446798302188e+00, -1.1705462275114742e+00,
       3.7968307211147043e+00, -1.1400829611963124e+00,
       3.8049318623760309e+00, -1.1101635829525927e+00,
       3.7768342199369558e+00, -1.0727739129811114e+00,
       3.7647094749366801e+00, -1.0444650403002291e+00,
       3.6990892618113582e+00, -1.0173777589476170e+00,
       3.6208065103935261e+00, -9.9868713646832841e-01,
       3.5520093635617855e+00, -9.8753511107946057e-01,
       3.4931205000495553e+00, -9.7460281600926568e-01,
       3.4200672196373896e+00, -9.6268788073182932e-01,
       3.3561147710869133e+00, -9.5547927930243637e-01,
       3.2989912140503828e+00, -9.4811997561940720e-01,
       3.2552063313846014e+00, -9.4671815775288448e-01,
       3.2430364591141991e+00, -9.4172849571907968e-01,
       3.2890774976128418e+00, -9.4360598001545914e-01,
       3.3520686494852630e+00, -9.4589982491314972e-01,
       3.4207310687958286e+00, -9.5609346073195156e-01,
       3.4649536214686130e+00, -9.6254506298209808e-01,
       3.5469682489844176e+00, -9.7656064558748268e-01,
       3.6108459203239764e+00, -9.9174854588428618e-01,
       3.6931864704051107e+00, -1.0189848488886095e+00,
       3.7435780650906461e+00, -1.0451406761987878e+00,
       3.7683867900344397e+00, -1.0734041731349762e+00,
       3.7801857970949473e+00, -1.1165193337997834e+00,
       3.7913036838469325e+00, -1.1542414053012966e+00,
       3.7899372747882185e+00, -1.1988450019546097e+00,
       3.7881542185770836e+00, -1.2370840117013855e+00,
       3.7479243774598894e+00, -1.2709827580452695e+00,
       3.7197062960081437e+00, -1.2955634058496421e+00,
       3.6839269358048017e+00, -1.3152067019961537e+00,
       3.6452153625875590e+00, -1.3284893058190117e+00,
       3.6225135119198568e+00, -1.3400968645971927e+00,
       3.5879148650797967e+00, -1.3470453188587150e+00,
       3.5675752319744802e+00, -1.3584557199478366e+00,
       3.5304351090257255e+00, -1.3620030388719151e+00,
       3.5178852316772602e+00, -1.3652832228311276e+00,
       3.5099888907683510e+00, -1.3670759760489124e+00,
       3.5197788956536491e+00, -1.3661807412332097e+00,
       3.5213750877824403e+00, -1.3651355628787787e+00,
       3.5224111068177208e+00, -1.3657379932129976e+00,
       3.5215632585647700e+00, -1.3657692202118301e+00,
       3.5308118443514740e+00, -1.3632033376271055e+00,
       3.5541072517388272e+00, -1.3600796659855654e+00,
       3.5787335176923984e+00, -1.3537423315782899e+00,
       3.6077206027217463e+00, -1.3428898070808479e+00,
       3.6387554117980510e+00, -1.3333770995449996e+00,
       3.6646962058428865e+00, -1.3145146582718357e+00,
       3.7272772200618030e+00, -1.2978852899385183e+00,
       3.7624334649258375e+00, -1.2751486561978809e+00,
       3.7835376485544288e+00, -1.2394326323791647e+00,
       3.7887616183551773e+00, -1.1990130626800029e+00,
       3.7856494541919830e+00, -1.1654197534085058e+00,
       3.7794778661683002e+00, -1.1313025953568170e+00,
       3.7570337392503785e+00, -1.0915504629689889e+00,
       3.7322284925719003e+00, -1.0528886943175584e+00,
       3.6871532404829432e+00, -1.0275432912782070e+00,
       3.6252182943700983e+00, -1.0004348842617017e+00,
       3.5451841190274438e+00, -9.8693025150502434e-01,
       3.5016901043773934e+00, -9.7767523346887142e-01,
       3.4417609414207115e+00, -9.6492104660374811e-01,
       3.3734368269074424e+00, -9.5528494806476594e-01,
       3.3197819056919009e+00, -9.4989261202953690e-01,
       3.2675252985362895e+00, -9.4488313198665164e-01,
       3.2229335621726016e+00, -9.4100668690186262e-01,
       3.2793568397082669e+00, -9.4239653904732434e-01,
       3.3540959789901525e+00, -9.5051679669617994e-01,
       3.4257296101989185e+00, -9.5981039754286757e-01,
       3.4806186010535711e+00, -9.6414628523061663e-01,
       3.5471469064586105e+00, -9.8419953209442212e-01,
       3.6112111084770233e+00, -1.0060317561686032e+00,
       3.6987839341925408e+00, -1.0304610112985668e+00,
       3.7367451301699139e+00, -1.0615889833026766e+00,
       3.7599097271837292e+00, -1.0982876313070897e+00,
       3.7615796788068194e+00, -1.1415024250172130e+00,
       3.7667420827137259e+00, -1.1854659328723254e+00,
       3.7563038979557848e+00, -1.2258151733518450e+00,
       3.7432013953004448e+00, -1.2624866648682487e+00,
       3.7308452996108090e+00, -1.2951125294152352e+00,
       3.6869903255591492e+00, -1.3154487867192444e+00,
       3.6591765800770868e+00, -1.3356094127561549e+00,
       3.6383868448055061e+00, -1.3499633530416406e+00,
       3.6121316773397694e+00, -1.3579123592665063e+00,
       3.5830983090763331e+00, -1.3666556421869664e+00,
       3.5524050012153463e+00, -1.3674411953564696e+00,
       3.5312839847903970e+00, -1.3679530928566126e+00,
       3.5177125825622166e+00, -1.3727429367815100e+00,
       3.5173797373766202e+00, -1.3750157009512010e+00,
       3.5212688375523604e+00, -1.3764910390371359e+00,
       3.5234818108054435e+00, -1.3772937715662965e+00,
       3.5148025193837200e+00, -1.3756560209919280e+00,
       3.5239810713592439e+00, -1.3756636411316725e+00,
       3.5299372390643415e+00, -1.3713865010205839e+00,
       3.5399715022894913e+00, -1.3713149955618180e+00,
       3.5586220766293506e+00, -1.3670817559090183e+00,
       3.5960703171019910e+00, -1.3594910186463030e+00,
       3.6269316226538977e+00, -1.3515913183164761e+00,
       3.6432053368288697e+00, -1.3384846004166415e+00,
       3.6802315836149657e+00, -1.3197652248667007e+00,
       3.7202989206990931e+00, -1.2997224856934575e+00,
       3.7527231709648987e+00, -1.2657645087102654e+00,
       3.7688658515173423e+00, -1.2276624148085244e+00,
       3.7739856651668453e+00, -1.1893517369576152e+00,
       3.7565882414518978e+00, -1.1536560829441849e+00,
       3.7347912135783576e+00, -1.1143660260375405e+00,
       3.7164188347016034e+00, -1.0718971434122244e+00,
       3.6796841276929992e+00, -1.0384055066663052e+00,
       3.6332507049523022e+00, -1.0142356744307772e+00,
       3.5523501497999668e+00, -9.9286001155584624e-01,
       3.5019736009842064e+00, -9.7720367964991905e-01,
       3.4502701361553223e+00, -9.6731343916519086e-01,
       3.3717848163959352e+00, -9.5596044852880102e-01,
       3.3180595745524744e+00, -9.4808881661325795e-01,
       3.2626419234304884e+00, -9.4554250696624487e-01,
       3.2389007157182470e+00, -9.4418520877515544e-01,
       3.2991786828951777e+00, -9.4875752088767440e-01,
       3.3611419626338437e+00, -9.4751206358245388e-01,
       3.4302002550348298e+00, -9.5839621498866001e-01,
       3.5062141799560727e+00, -9.6860356471445153e-01,
       3.5710379639296126e+00, -9.9677398802748551e-01,
       3.6216803493183876e+00, -1.0171246603957065e+00,
       3.6784383592163774e+00, -1.0435637455491145e+00,
       3.7234362931237777e+00, -1.0770537302348482e+00,
       3.7483228255046868e+00, -1.1271825704243366e+00,
       3.7539119722442993e+00, -1.1738608253857932e+00,
       3.7376606785600806e+00, -1.2119506359073511e+00,
       3.7263668948684132e+00, -1.2514945905417691e+00,
       3.7124956108011222e+00, -1.2855207710404593e+00,
       3.6899545500304787e+00, -1.3160348983589409e+00,
       3.6591859575771948e+00, -1.3361199323199322e+00,
       3.6477930522523163e+00, -1.3523634610413011e+00,
       3.6402988965276570e+00, -1.3618858183142601e+00,
       3.6185614733127647e+00, -1.3704868853690793e+00,
       3.5916486553047169e+00, -1.3736269744522995e+00,
       3.5645793336434854e+00, -1.3691530851727638e+00,
       3.5457409969489722e+00, -1.3671411983185286e+00,
       3.5381571986704397e+00, -1.3675346031165792e+00,
       3.5307411427225186e+00, -1.3724136760983425e+00,
       3.5459683710156309e+00, -1.3733627361741809e+00,
       3.5426708835222311e+00, -1.3735375673962016e+00,
       3.5381327832036567e+00, -1.3722405901736434e+00,
       3.5444947272235536e+00, -1.3728512124945380e+00,
       3.5457242087192529e+00, -1.3717382943900134e+00,
       3.5639924485406556e+00, -1.3766619948291010e+00,
       3.5801711096982443e+00, -1.3765177168155633e+00,
       3.5927414128860975e+00, -1.3748605892866006e+00,
       3.6148643511188472e+00, -1.3667275410127362e+00,
       3.6318223783092516e+00, -1.3580221469273794e+00,
       3.6533822418438122e+00, -1.3376094333758217e+00,
       3.6807345684994415e+00, -1.3209621479157727e+00,
       3.7174048310986709e+00, -1.2947764268628239e+00,
       3.7399170204216157e+00, -1.2561078684490579e+00,
       3.7470857780652755e+00, -1.2187411410381408e+00,
       3.7453814900562685e+00, -1.1793176037348956e+00,
       3.7298788043051863e+00, -1.1375645228834865e+00,
       3.7217170931909194e+00, -1.0974941758215098e+00,
       3.6773278170516930e+00, -1.0580888357703839e+00,
       3.6282215803385882e+00, -1.0281120649664821e+00,
       3.5695750173764642e+00, -1.0018527070703276e+00,
       3.5023434362705910e+00, -9.7873542515918555e-01,
       3.4468674896170772e+00, -9.6791445554550437e-01,
       3.3691890238649886e+00, -9.5615500091117933e-01,
       3.3153625799546771e+00, -9.4926677216628841e-01,
       3.2543628814307932e+00, -9.4647925211321737e-01,
       3.2288258122990543e+00, -9.4319355769657320e-01,
       3.2921841159414384e+00, -9.4679783776020887e-01,
       3.3694231625538431e+00, -9.5268793157942522e-01,
       3.4361456144206226e+00, -9.5785540264628299e-01,
       3.4981555995520264e+00, -9.7855187851468006e-01,
       3.5918585153100029e+00, -1.0039553100314738e+00,
       3.6146850271323290e+00, -1.0244290416401711e+00,
       3.6589071476192925e+00, -1.0585640237617984e+00,
       3.7190676553068820e+00, -1.1018412457070115e+00,
       3.7228577829905469e+00, -1.1562722321226713e+00,
       3.7251616200151139e+00, -1.1969542243645277e+00,
       3.6913892124914662e+00, -1.2315406757209848e+00,
       3.6953974173999349e+00, -1.2746388661235768e+00,
       3.6903483916999109e+00, -1.3120804165048849e+00,
       3.6676482362829104e+00, -1.3366829320068712e+00,
       3.6453420360576096e+00, -1.3538266126506615e+00,
       3.6499031877100045e+00, -1.3635023104294148e+00,
       3.6447198062708215e+00, -1.3686587198515425e+00,
       3.6239704930006038e+00, -1.3735933468993935e+00,
       3.6101949543523850e+00, -1.3676871879776824e+00,
       3.5821445075001490e+00, -1.3620106647028707e+00,
       3.5770600774694605e+00, -1.3594868118833037e+00,
       3.5590447991800316e+00, -1.3540007026093439e+00,
       3.5586045887055819e+00, -1.3541934788437668e+00,
       3.5576942505107718e+00, -1.3552771990032577e+00,
       3.5546225878133768e+00, -1.3562556723122947e+00,
       3.5682218631550620e+00, -1.3599749917480630e+00,
       3.5665158117336961e+00, -1.3580102502666824e+00,
       3.5707792592626491e+00, -1.3612164310621508e+00,
       3.5863162426158803e+00, -1.3683835409948413e+00,
       3.5970060094810248e+00, -1.3747531785481595e+00,
       3.6118625337926491e+00, -1.3780279555422177e+00,
       3.6168217997935037e+00, -1.3741755143260324e+00,
       3.6298098708750839e+00, -1.3676476450838086e+00,
       3.6401775809809207e+00, -1.3544201876781978e+00,
       3.6540491717453820e+00, -1.3398827452755040e+00,
       3.6857426625508882e+00, -1.3197237997550038e+00,
       3.7176755278086762e+00, -1.2857505393070758e+00,
       3.7224315499929443e+00, -1.2489875294971406e+00,
       3.7462751093641424e+00, -1.2108372710128350e+00,
       3.7181759575500557e+00, -1.1662929541378941e+00,
       3.7167183459799489e+00, -1.1208639759035810e+00,
       3.6679798880648913e+00, -1.0754901914007489e+00,
       3.6259645057196099e+00, -1.0410112760827170e+00,
       3.5645980134512714e+00, -1.0129491869606182e+00,
       3.5175465460805024e+00, -9.9267799810029311e-01,
       3.4408924843703823e+00, -9.7076156997150087e-01,
       3.3731487149216974e+00, -9.6024592732686420e-01,
       3.3177927203278936e+00, -9.5422782311560639e-01,
       3.2495903309524512e+00, -9.5067090291475820e-01,
       3.2075336533301901e+00, -9.4506313687784893e-01,
       3.2912363689741566e+00, -9.5134511212998774e-01,
       3.3707043430785131e+00, -9.5762197534298643e-01,
       3.4375084898781902e+00, -9.6989808078156792e-01,
       3.5109981468686984e+00, -9.9250016923026707e-01,
       3.5778433911664105e+00, -1.0130665259323819e+00,
       3.6155847898391933e+00, -1.0419259876286149e+00,
       3.6468356105165349e+00, -1.0798211102648609e+00,
       3.6936383857044701e+00, -1.1304868336369913e+00,
       3.6964449878060104e+00, -1.1825681826159364e+00,
       3.6869366964701564e+00, -1.2202494625246709e+00,
       3.6753789970671149e+00, -1.2601011089021734e+00,
       3.6680364565963393e+00, -1.2998249995438094e+00,
       3.6580910981675987e+00, -1.3299927562787353e+00,
       3.6497558731052377e+00, -1.3488762323876973e+00,
       3.6448128889267335e+00, -1.3633345496146221e+00,
       3.6589740809408275e+00, -1.3714689325298086e+00,
       3.6556823141489652e+00, -1.3741730126114340e+00,
       3.6402116210514208e+00, -1.3696384150561058e+00,
       3.6230363926406355e+00, -1.3611001902738153e+00,
       3.6166835176160057e+00, -1.3550273684283818e+00,
       3.6039377006261986e+00, -1.3501245024300896e+00,
       3.5932591276599468e+00, -1.3459298038054721e+00,
       3.5913243815631768e+00, -1.3454451256922459e+00,
       3.5844748731273715e+00, -1.3445524657412278e+00,
       3.5769684638025923e+00, -1.3449992755010634e+00,
       3.5770040886569237e+00, -1.3453923616670624e+00,
       3.5936454593557352e+00, -1.3516868781914728e+00,
       3.6046557274704365e+00, -1.3561753971826127e+00,
       3.6233780977444927e+00, -1.3567912637502304e+00,
       3.6340682919051419e+00, -1.3683556350108756e+00,
       3.6349604162669946e+00, -1.3770907776833923e+00,
       3.6383793954443839e+00, -1.3766302388988416e+00,
       3.6408844916269523e+00, -1.3759319929686626e+00,
       3.6410031830996332e+00, -1.3630296268410234e+00,
       3.6501631512200468e+00, -1.3557821314797076e+00,
       3.6577821288906582e+00, -1.3343239026055080e+00,
       3.6809424642523334e+00, -1.3112650482953920e+00,
       3.6894856441223278e+00, -1.2746195401595257e+00,
       3.7124714224424475e+00, -1.2400082119763371e+00,
       3.6994567138874377e+00, -1.1964613410281051e+00,
       3.6918444852049399e+00, -1.1458597633463377e+00,
       3.6614382345640832e+00, -1.0992556184696414e+00,
       3.6279068876605978e+00, -1.0574718904608147e+00,
       3.5669296309142311e+00, -1.0233998273640523e+00,
       3.5207984234293210e+00, -1.0035928397237994e+00,
       3.4427138091001437e+00, -9.8621769310452867e-01,
       3.3648651719113194e+00, -9.6996224800851538e-01,
       3.2920868815457047e+00, -9.5595257975146086e-01,
       3.2452276622517915e+00, -9.5217909466832396e-01,
       3.2138602601652901e+00, -9.4866766475796505e-01,
       3.2755841295747299e+00, -9.5322738683537922e-01,
       3.3666998823644234e+00, -9.6446551068712372e-01,
       3.4410339070346598e+00, -9.7886419972454863e-01,
       3.5127977705889273e+00, -1.0041640854685225e+00,
       3.5860985159454679e+00, -1.0293296379722263e+00,
       3.6046476903981683e+00, -1.0605164945144643e+00,
       3.6505086799176723e+00, -1.1091347084373970e+00,
       3.6736617294319465e+00, -1.1623351503892740e+00,
       3.6737078821575082e+00, -1.2080901183316699e+00,
       3.6696276529623146e+00, -1.2500214229461379e+00,
       3.6553653567100510e+00, -1.2870393183175446e+00,
       3.6480282225381040e+00, -1.3254198458795898e+00,
       3.6331539829680826e+00, -1.3431404435045382e+00,
       3.6451001496171802e+00, -1.3579713935119060e+00,
       3.6550347980852727e+00, -1.3658144960848198e+00,
       3.6658088557291069e+00, -1.3724490758340495e+00,
       3.6661959478187280e+00, -1.3678340156550493e+00,
       3.6710393803784664e+00, -1.3592425871010223e+00,
       3.6579757107954101e+00, -1.3483152850301805e+00,
       3.6534083643658035e+00, -1.3357410343706531e+00,
       3.6363639314821499e+00, -1.3315643826934860e+00,
       3.6245757048307508e+00, -1.3345400241148659e+00,
       3.6155875781009565e+00, -1.3318276682289045e+00,
       3.6132657042486427e+00, -1.3282805063095084e+00,
       3.6069890700685217e+00, -1.3266928007533423e+00,
       3.5987674376048044e+00, -1.3273437798150798e+00,
       3.6138419906589765e+00, -1.3341042998678996e+00,
       3.6235842742106308e+00, -1.3375939675211348e+00,
       3.6465400708000590e+00, -1.3382152270530090e+00,
       3.6586122118478035e+00, -1.3480105178099397e+00,
       3.6635044282957918e+00, -1.3609715344785955e+00,
       3.6654487794816326e+00, -1.3700518433154636e+00,
       3.6555492720873963e+00, -1.3708067981973715e+00,
       3.6528630650833556e+00, -1.3685429134830487e+00,
       3.6437114500775722e+00, -1.3601363711249888e+00,
       3.6403705879597648e+00, -1.3480731835394628e+00,
       3.6522763909994209e+00, -1.3288622312620308e+00,
       3.6602205102812495e+00, -1.3015269240169234e+00,
       3.6723504436530288e+00, -1.2676530665399586e+00,
       3.6739379413215745e+00, -1.2260543079852162e+00,
       3.6823859439145266e+00, -1.1813494299642249e+00,
       3.6624778846652069e+00, -1.1279726959985377e+00,
       3.6104837599614319e+00, -1.0779855773782516e+00,
       3.5700927985044260e+00, -1.0420095974837964e+00,
       3.5195635522858741e+00, -1.0197965788004084e+00,
       3.4433929050940768e+00, -9.9989542705607393e-01,
       3.3806079910409688e+00, -9.8182337482602267e-01,
       3.3066028214445975e+00, -9.6665773800926869e-01,
       3.2449091830585353e+00, -9.5502614398447405e-01,
       3.2115062094585967e+00, -9.5236969866209942e-01,
       3.2942872506254415e+00, -9.6053838452059570e-01,
       3.3700973994546271e+00, -9.7279541830631933e-01,
       3.4542308449695724e+00, -9.8998203653932226e-01,
       3.5193155638622269e+00, -1.0184552858681160e+00,
       3.5819942082947147e+00, -1.0484828010570892e+00,
       3.6019316090335507e+00, -1.0863004328938719e+00,
       3.6434098580092469e+00, -1.1409393458598143e+00,
       3.6492645583825238e+00, -1.1947365330837283e+00,
       3.6412510456360669e+00, -1.2410924538925878e+00,
       3.6503675578485684e+00, -1.2810030021121928e+00,
       3.6372970333533141e+00, -1.3174812846488944e+00,
       3.6181948832217929e+00, -1.3410916764241669e+00,
       3.6107846230939629e+00, -1.3538677493041706e+00,
       3.6366132722624473e+00, -1.3614005363899297e+00,
       3.6639224390702982e+00, -1.3677312093791985e+00,
       3.6792358610153650e+00, -1.3631561447242915e+00,
       3.6760999331440405e+00, -1.3503421901048891e+00,
       3.6801640903925259e+00, -1.3364987990117378e+00,
       3.6834175626446997e+00, -1.3214218208988187e+00,
       3.6760887556366231e+00, -1.3096588518999288e+00,
       3.6736925876493420e+00, -1.3161168228834739e+00,
       3.6351742016521080e+00, -1.3085484506655851e+00,
       3.6231373669348819e+00, -1.3058571890082691e+00,
       3.6090365112906415e+00, -1.3004592400140149e+00,
       3.6075425301917896e+00, -1.2989423022342050e+00,
       3.6078084474080798e+00, -1.3026088026653677e+00,
       3.6216165296764715e+00, -1.3101143762772001e+00,
       3.6568118170982435e+00, -1.3130882503239019e+00,
       3.6550198949057733e+00, -1.3098367727099249e+00,
       3.6671472076230165e+00, -1.3195963842559482e+00,
       3.6686269553135293e+00, -1.3403640917785926e+00,
       3.6729756596332956e+00, -1.3540138760944875e+00,
       3.6703863287582053e+00, -1.3694984285513905e+00,
       3.6512831630815081e+00, -1.3708685846327702e+00,
       3.6338173089154058e+00, -1.3646253488234557e+00,
       3.6245939939706715e+00, -1.3602105025959279e+00,
       3.6239823740844219e+00, -1.3440702892012792e+00,
       3.6266287305692222e+00, -1.3229843916935331e+00,
       3.6402543642395342e+00, -1.2982519121410245e+00,
       3.6594022410359606e+00, -1.2602666205411572e+00,
       3.6600214040873245e+00, -1.2153883314713989e+00,
       3.6497441269099484e+00, -1.1622325523711587e+00,
       3.6066595836251456e+00, -1.1111362136858038e+00,
       3.5646276421923093e+00, -1.0615615492042088e+00,
       3.5203996631165317e+00, -1.0368476313355908e+00,
       3.4581721466460875e+00, -1.0135746941155055e+00,
       3.3769058240745045e+00, -9.9030685159329468e-01,
       3.3239678617132662e+00, -9.7894117563598781e-01,
       3.2606171169267655e+00, -9.6333462795434754e-01,
       3.2261874010031542e+00, -9.5620337513820486e-01,
       3.3060663936220092e+00, -9.6562033996862451e-01,
       3.3860317195865286e+00, -9.8514908402658996e-01,
       3.4594917488001209e+00, -1.0063009045086591e+00,
       3.5275832535035456e+00, -1.0383705107081147e+00,
       3.5658639175487696e+00, -1.0701097038697474e+00,
       3.5982891770271253e+00, -1.1182052467548571e+00,
       3.6237109359832136e+00, -1.1742968119110628e+00,
       3.6252713781218793e+00, -1.2309461838058846e+00,
       3.6161033769732982e+00, -1.2686803226782757e+00,
       3.6178451982084239e+00, -1.3116551881487402e+00,
       3.6047887300091119e+00, -1.3406611942573416e+00,
       3.5955541891258447e+00, -1.3525497031016271e+00,
       3.6041048043330508e+00, -1.3611504966231802e+00,
       3.6354272451119316e+00, -1.3642044630517371e+00,
       3.6578884918709123e+00, -1.3565627750211380e+00,
       3.6799971504785147e+00, -1.3488115292100178e+00,
       3.6977470368028289e+00, -1.3300296525965498e+00,
       3.7041015074669530e+00, -1.3045558955957655e+00,
       3.7042988554997809e+00, -1.2883293245381515e+00,
       3.6728185686416972e+00, -1.2824416790291502e+00,
       3.6540241691160635e+00, -1.2852526563485465e+00,
       3.6330071650700528e+00, -1.2891650463594919e+00,
       3.6095580211449687e+00, -1.2824831809937622e+00,
       3.5994876253490249e+00, -1.2811445478531200e+00,
       3.5909901158838289e+00, -1.2792989002220492e+00,
       3.5871424197858643e+00, -1.2814149871878679e+00,
       3.6005722251364713e+00, -1.2829744213114269e+00,
       3.6244338908817322e+00, -1.2812959588813324e+00,
       3.6649172722757402e+00, -1.2806913516477421e+00,
       3.6766009589548156e+00, -1.2832311875009301e+00,
       3.6823663097589421e+00, -1.3023442214355905e+00,
       3.6819189545330566e+00, -1.3304377541604335e+00,
       3.6761113802964456e+00, -1.3534500172485029e+00,
       3.6505165909035191e+00, -1.3631860991926239e+00,
       3.6257583421929334e+00, -1.3644319665005733e+00,
       3.6056224731028172e+00, -1.3654977989373873e+00,
       3.6093800305088055e+00, -1.3586161927373817e+00,
       3.5999653940848368e+00, -1.3422428059625071e+00,
       3.6030685827730529e+00, -1.3221592681660186e+00,
       3.6246489340666690e+00, -1.2913540596934723e+00,
       3.6369075620580475e+00, -1.2528985481209396e+00,
       3.6324938250730141e+00, -1.2011525439711965e+00,
       3.6037401746194129e+00, -1.1441649868891737e+00,
       3.5535597894143165e+00, -1.0899539804996670e+00,
       3.5184080789360492e+00, -1.0525692933423509e+00,
       3.4666575457798401e+00, -1.0274383743423123e+00,
       3.3934398726760668e+00, -1.0030334422075560e+00,
       3.3362859889829144e+00, -9.8717935262849799e-01,
       3.2619328805325929e+00, -9.6881447526922848e-01,
       3.2459244329034909e+00, -9.6074838166743037e-01,
       3.3337268477604209e+00, -9.8014097504333564e-01,
       3.4140497343902365e+00, -9.9859575903979947e-01,
       3.4779073106404321e+00, -1.0244009125226969e+00,
       3.5353484048354447e+00, -1.0587490806641029e+00,
       3.5700802735632626e+00, -1.1005967369833767e+00,
       3.6000355172766376e+00, -1.1560273891165935e+00,
       3.6108200536346802e+00, -1.2117159684621897e+00,
       3.6004476804041459e+00, -1.2629505567382762e+00,
       3.5919756335734592e+00, -1.2997095600748025e+00,
       3.5836606388267223e+00, -1.3335606937310365e+00,
       3.5644366879313156e+00, -1.3481590455344401e+00,
       3.5751275799043229e+00, -1.3611522860008074e+00,
       3.5909506401437445e+00, -1.3626766348477128e+00,
       3.6317616216544635e+00, -1.3583099724317182e+00,
       3.6614715443852690e+00, -1.3476389591825566e+00,
       3.6921707782498143e+00, -1.3278679087353404e+00,
       3.6905968873263864e+00, -1.2961941363968619e+00,
       3.7134127972511624e+00, -1.2654801990156452e+00,
       3.7014732487875150e+00, -1.2489003154511420e+00,
       3.6569020220362529e+00, -1.2465635498318623e+00,
       3.6380300971455464e+00, -1.2555414826635438e+00,
       3.6203900601586025e+00, -1.2650033902898601e+00,
       3.5818332792383254e+00, -1.2610574432170327e+00,
       3.5681387355402570e+00, -1.2559554440876783e+00,
       3.5603761760759416e+00, -1.2575552377999439e+00,
       3.5606364454043882e+00, -1.2587040365018936e+00,
       3.5841228039303625e+00, -1.2624764585963972e+00,
       3.6214621129044988e+00, -1.2600781016858960e+00,
       3.6363729586723643e+00, -1.2498801926743646e+00,
       3.6657684687631593e+00, -1.2529474443511059e+00,
       3.6802638877912544e+00, -1.2655413387462571e+00,
       3.6933526852072562e+00, -1.2998155527214035e+00,
       3.6764471685733002e+00, -1.3235427325232152e+00,
       3.6504815086773599e+00, -1.3430450303722290e+00,
       3.6194686950675199e+00, -1.3558574209278591e+00,
       3.5889531916234296e+00, -1.3601443700951319e+00,
       3.5813572279457118e+00, -1.3639077621027784e+00,
       3.5708860249458150e+00, -1.3555750193266647e+00,
       3.5706447873096772e+00, -1.3405614468568412e+00,
       3.5941906883426107e+00, -1.3188661670580391e+00,
       3.6158247769984442e+00, -1.2805020603830664e+00,
       3.6121110601240729e+00, -1.2330632018936525e+00,
       3.5903109800630313e+00, -1.1767130633880243e+00,
       3.5562794669041429e+00, -1.1204666465811273e+00,
       3.5164977929669470e+00, -1.0759595581699521e+00,
       3.4826835583961095e+00, -1.0435728609578097e+00,
       3.4090050309771782e+00, -1.0160172414991546e+00,
       3.3516844878473449e+00, -9.9900594242182483e-01,
       3.2743789630954603e+00, -9.7819763690572203e-01,
       3.2672270990868935e+00, -9.7096490523873891e-01,
       3.3544644792018938e+00, -9.8956460091615950e-01,
       3.4298613616349325e+00, -1.0106335068069803e+00,
       3.4923674324010023e+00, -1.0437286200605775e+00,
       3.5379821850268272e+00, -1.0848734651078109e+00,
       3.5787010499285108e+00, -1.1325994129695003e+00,
       3.5932909831475888e+00, -1.1883235888351842e+00,
       3.5879458723109412e+00, -1.2469915455984866e+00,
       3.5861028927696621e+00, -1.2917866198071219e+00,
       3.5716789316129822e+00, -1.3234256786688443e+00,
       3.5506942409168198e+00, -1.3437779211056455e+00,
       3.5447852723013820e+00, -1.3538923867967225e+00,
       3.5579103165809709e+00, -1.3617693073944446e+00,
       3.5892148798593593e+00, -1.3593510483562266e+00,
       3.6278716810692324e+00, -1.3495597790100959e+00,
       3.6681130790251806e+00, -1.3239961948799497e+00,
       3.7118032410979116e+00, -1.2934528695033045e+00,
       3.7215201287319646e+00, -1.2623102876951608e+00,
       3.7006895148709731e+00, -1.2224915405014263e+00,
       3.6499380545426323e+00, -1.2064293427394426e+00,
       3.6141477979368184e+00, -1.2123247312374390e+00,
       3.5812171034268272e+00, -1.2249174605678288e+00,
       3.5617189930728914e+00, -1.2326429412664333e+00,
       3.5353514379447786e+00, -1.2350849695630013e+00,
       3.5406076077915078e+00, -1.2348750566103179e+00,
       3.5331974380063902e+00, -1.2356451063392886e+00,
       3.5359577906172208e+00, -1.2367842346370201e+00,
       3.5644550731979892e+00, -1.2347144120508469e+00,
       3.5950002665299201e+00, -1.2273104382003266e+00,
       3.6209970165035981e+00, -1.2125011210066821e+00,
       3.6567797459716980e+00, -1.2108256284295056e+00,
       3.6822108332585017e+00, -1.2261261500986673e+00,
       3.6935359933561087e+00, -1.2564702605372451e+00,
       3.6876917896141128e+00, -1.2908317375655916e+00,
       3.6643860352090836e+00, -1.3247938436550268e+00,
       3.6315183922770982e+00, -1.3489068678191345e+00,
       3.5837685870637648e+00, -1.3564993654718493e+00,
       3.5538123952527343e+00, -1.3605047313774992e+00,
       3.5445080338907702e+00, -1.3571238991757004e+00,
       3.5526568985550240e+00, -1.3522024966176240e+00,
       3.5663044575381284e+00, -1.3366360496065570e+00,
       3.5859771730686458e+00, -1.3062375002759827e+00,
       3.5993013858935767e+00, -1.2679644864438659e+00,
       3.5930715223981911e+00, -1.2111100751474531e+00,
       3.5777124477753821e+00, -1.1581106281907674e+00,
       3.5269478745076683e+00, -1.1021465714281802e+00,
       3.4857631735403163e+00, -1.0590560709310146e+00,
       3.4234261707744205e+00, -1.0295211581836452e+00,
       3.3663590104785870e+00, -1.0100996576480012e+00,
       3.2856435297880058e+00, -9.8836373689117629e-01,
       3.2733870031700678e+00, -9.8139522419222514e-01,
       3.3668501525654375e+00, -9.9619656159173176e-01,
       3.4400834193497833e+00, -1.0220711716329045e+00,
       3.5089475547901317e+00, -1.0623857033075597e+00,
       3.5395658145589324e+00, -1.1082395247294741e+00,
       3.5696201719985816e+00, -1.1643323113078277e+00,
       3.5793028362658790e+00, -1.2213709778619970e+00,
       3.5781160925255575e+00, -1.2771285048478427e+00,
       3.5713436023506224e+00, -1.3166954330962668e+00,
       3.5518784586074399e+00, -1.3390071076872669e+00,
       3.5307014137411414e+00, -1.3547525356610506e+00,
       3.5342656758595217e+00, -1.3611569583645411e+00,
       3.5486449470395582e+00, -1.3541458228070391e+00,
       3.5768167062153116e+00, -1.3443375512191857e+00,
       3.6286201837464338e+00, -1.3325733411014109e+00,
       3.6750368900870409e+00, -1.2993547014181481e+00,
       3.7130477654208178e+00, -1.2651441381370185e+00,
       3.7215913506628482e+00, -1.2289280916445466e+00,
       3.7058174457073401e+00, -1.1983291038214827e+00,
       3.6341271905154535e+00, -1.1823692125504293e+00,
       3.5898982412490632e+00, -1.1839978671730189e+00,
       3.5349322424111538e+00, -1.1910059265726602e+00,
       3.5024086284260290e+00, -1.2002819925772712e+00,
       3.4595308869091559e+00, -1.2063799187611974e+00,
       3.4827358702544036e+00, -1.2101382510262195e+00,
       3.4669894974532647e+00, -1.2084833263164712e+00,
       3.4682991579765874e+00, -1.2095431929531242e+00,
       3.5057667123558032e+00, -1.2071835882497541e+00,
       3.5512513439335045e+00, -1.1971359862225464e+00,
       3.6012705233401867e+00, -1.1873132424002883e+00,
       3.6572972434098605e+00, -1.1865431071804811e+00,
       3.7110015981630355e+00, -1.1944614935735500e+00,
       3.6953803091038995e+00, -1.2176177993866535e+00,
       3.6909860997670503e+00, -1.2559256993525574e+00,
       3.6707860691389786e+00, -1.2968848732602001e+00,
       3.6260961996380265e+00, -1.3214572266258315e+00,
       3.5867681298330556e+00, -1.3445595670485808e+00,
       3.5421925778651753e+00, -1.3546080411571777e+00,
       3.5167031435072720e+00, -1.3560210330601750e+00,
       3.5289639250092306e+00, -1.3576860897311316e+00,
       3.5497272673016176e+00, -1.3509967191015022e+00,
       3.5691658540846078e+00, -1.3303873935040726e+00,
       3.5877058348165636e+00, -1.2947865138367651e+00,
       3.5867270161029516e+00, -1.2446220144729430e+00,
       3.5804754716949607e+00, -1.1872138713707538e+00,
       3.5314062603679779e+00, -1.1294426673737283e+00,
       3.4828147764300530e+00, -1.0780038862339769e+00,
       3.4276383953590703e+00, -1.0429393431622340e+00,
       3.3724101229440575e+00, -1.0195753105240841e+00,
       3.2983677639007780e+00, -9.9778669342085435e-01,
       3.2733167290091165e+00, -9.8965195191326805e-01,
       3.3746446013812053e+00, -1.0085161338810520e+00,
       3.4588283572655150e+00, -1.0395896819619199e+00,
       3.5060133409234684e+00, -1.0835578691093728e+00,
       3.5384643479452076e+00, -1.1308027744776508e+00,
       3.5611739892560688e+00, -1.1894696269085923e+00,
       3.5672918685602362e+00, -1.2509977328003035e+00,
       3.5653007419802494e+00, -1.2997781194657667e+00,
       3.5545267929650497e+00, -1.3346219085555973e+00,
       3.5364362142374075e+00, -1.3533694807483088e+00,
       3.5201363389447295e+00, -1.3622646388985322e+00,
       3.5148013480694917e+00, -1.3589391402132887e+00,
       3.5445374263353018e+00, -1.3494639439281755e+00,
       3.5884689143349338e+00, -1.3356426965244101e+00,
       3.6237093520678880e+00, -1.3102766713748106e+00,
       3.6710331889777073e+00, -1.2725707863690634e+00,
       3.6859576051760357e+00, -1.2419516831654782e+00,
       3.7105333403850937e+00, -1.2179025401175878e+00,
       3.6821175398292407e+00, -1.1944580777180815e+00,
       3.6520011048185581e+00, -1.1919533555263202e+00,
       3.5788721136154908e+00, -1.1843430997153941e+00,
       3.5265765855910916e+00, -1.1930986876015179e+00,
       3.4658978982014945e+00, -1.2014636482811460e+00,
       3.4220359764813515e+00, -1.2086317621250575e+00,
       3.4411378330413873e+00, -1.2154629152286700e+00,
       3.4319332436862307e+00, -1.2143873442390485e+00,
       3.4185311131359888e+00, -1.2107134591087350e+00,
       3.4440910553137050e+00, -1.2063611258351807e+00,
       3.5006840440731573e+00, -1.1970072712874833e+00,
       3.5526024115312231e+00, -1.1900564056059775e+00,
       3.6146817304298273e+00, -1.1859084144514087e+00,
       3.6954619244192402e+00, -1.1986307403258152e+00,
       3.6963165285245974e+00, -1.2112671337200946e+00,
       3.6861446941714444e+00, -1.2301242823501990e+00,
       3.6714408581700591e+00, -1.2662637646486199e+00,
       3.6416863971496092e+00, -1.3024635539463607e+00,
       3.5973840379465085e+00, -1.3252495498772396e+00,
       3.5442156574515775e+00, -1.3477808649149803e+00,
       3.5116327964015084e+00, -1.3548114401117115e+00,
       3.5131588696139269e+00, -1.3603033345834334e+00,
       3.5266333681997826e+00, -1.3589038135728237e+00,
       3.5580409713549450e+00, -1.3445370510190584e+00,
       3.5812588354913615e+00, -1.3188832441921885e+00,
       3.5892350671971855e+00, -1.2764441673303157e+00,
       3.5769555127441386e+00, -1.2175500890542774e+00,
       3.5616681859201589e+00, -1.1607023743855576e+00,
       3.4916732475137775e+00, -1.0997819002330240e+00,
       3.4373279564783719e+00, -1.0602558503737003e+00,
       3.3801576669749669e+00, -1.0312961430084304e+00,
       3.3054255427181962e+00, -1.0098401250949280e+00,
       3.2981960501562173e+00, -1.0041337256880800e+00,
       3.3854395748422252e+00, -1.0239071132276791e+00,
       3.4653761338722338e+00, -1.0595410660845133e+00,
       3.5057253239349717e+00, -1.1041527907944089e+00,
       3.5438135124175281e+00, -1.1583493822056217e+00,
       3.5690449707404404e+00, -1.2204173586489278e+00,
       3.5589186691169199e+00, -1.2717385280751636e+00,
       3.5683670372619440e+00, -1.3174673433664186e+00,
       3.5479877365151649e+00, -1.3462861009154266e+00,
       3.5201269267787789e+00, -1.3603373728393719e+00,
       3.5166785021308740e+00, -1.3675315969983919e+00,
       3.5191742645012400e+00, -1.3584957643743638e+00,
       3.5539406294267404e+00, -1.3429806000316351e+00,
       3.5840304552186915e+00, -1.3149653263261498e+00,
       3.6019961615621039e+00, -1.2812656297749896e+00,
       3.6271321159900647e+00, -1.2515807820808340e+00,
       3.6360581550724205e+00, -1.2268681630853695e+00,
       3.6450170477757529e+00, -1.2132861479813608e+00,
       3.6301132246577490e+00, -1.2063878923238724e+00,
       3.5983363553302472e+00, -1.1971042732691093e+00,
       3.5651509103567038e+00, -1.1983140561725076e+00,
       3.5272908343261058e+00, -1.2038135189856676e+00,
       3.4504359045764881e+00, -1.2080612810592286e+00,
       3.4161280897746891e+00, -1.2154426301725467e+00,
       3.4257569913489374e+00, -1.2221951484036271e+00,
       3.4252500156414869e+00, -1.2219469440856281e+00,
       3.4122710934940375e+00, -1.2162234352914179e+00,
       3.4454246608160735e+00, -1.2136923462857108e+00,
       3.4935953093777723e+00, -1.2086408605848784e+00,
       3.5240422920465724e+00, -1.2037820188921469e+00,
       3.5747700675131342e+00, -1.2055139319284174e+00,
       3.6299909397042844e+00, -1.2170005079211041e+00,
       3.6543641013839276e+00, -1.2268779716212526e+00,
       3.6614978546977173e+00, -1.2325406032255433e+00,
       3.6539585517076416e+00, -1.2518269827487989e+00,
       3.6290420827969494e+00, -1.2786413023198733e+00,
       3.6015747056892518e+00, -1.3087438933818851e+00,
       3.5548431609121747e+00, -1.3334933822559345e+00,
       3.5105654719456059e+00, -1.3487824779141542e+00,
       3.5068796006663496e+00, -1.3582132145098458e+00,
       3.5180711512909908e+00, -1.3647537325323613e+00,
       3.5369760868930014e+00, -1.3537707595212733e+00,
       3.5765975434037349e+00, -1.3377976533312186e+00,
       3.5890308210806667e+00, -1.3007746129301494e+00,
       3.5854849259526089e+00, -1.2464287342356908e+00,
       3.5619190144726462e+00, -1.1846037621781822e+00,
       3.5071778839155145e+00, -1.1269987296052637e+00,
       3.4450859558468028e+00, -1.0770664221851041e+00,
       3.3811758558037015e+00, -1.0435137724800581e+00,
       3.3224551616651943e+00, -1.0212407101075833e+00,
       3.3066099399707545e+00, -1.0144755890236647e+00,
       3.3871458372146366e+00, -1.0382720284735794e+00,
       3.4669397261086203e+00, -1.0782218907789329e+00,
       3.5121853291609941e+00, -1.1256667636758406e+00,
       3.5522636308148616e+00, -1.1833128636564358e+00,
       3.5685251835151433e+00, -1.2432125822632634e+00,
       3.5637743818021779e+00, -1.2901217727742973e+00,
       3.5641375908214914e+00, -1.3281313066622029e+00,
       3.5408781528732987e+00, -1.3567850931171164e+00,
       3.5209139125642612e+00, -1.3619772637046950e+00,
       3.5188120930029454e+00, -1.3628519560808832e+00,
       3.5087996098703171e+00, -1.3476694957933453e+00,
       3.5367483775086956e+00, -1.3297055303101686e+00,
       3.5617754162557049e+00, -1.2991475443104084e+00,
       3.5800543929657511e+00, -1.2706704329209362e+00,
       3.5918991398253168e+00, -1.2487573672924595e+00,
       3.5957962518080437e+00, -1.2414536274285011e+00,
       3.6083639252241837e+00, -1.2406963452035897e+00,
       3.5894469418291122e+00, -1.2396072525065109e+00,
       3.5821419464029871e+00, -1.2359965906624439e+00,
       3.5451550412180852e+00, -1.2288582283200455e+00,
       3.5345472233262969e+00, -1.2334526590634700e+00,
       3.4850153498120902e+00, -1.2371368477289446e+00,
       3.4531814507944181e+00, -1.2395274343868556e+00,
       3.4510217546612005e+00, -1.2484732037415662e+00,
       3.4362640433602145e+00, -1.2441779135001338e+00,
       3.4379518624715417e+00, -1.2413323218469132e+00,
       3.4562457442371342e+00, -1.2371488732369518e+00,
       3.4988987900787061e+00, -1.2345134904829882e+00,
       3.5213600236385671e+00, -1.2339106472411774e+00,
       3.5447069395474813e+00, -1.2387052159269700e+00,
       3.5564725089646565e+00, -1.2405446589527152e+00,
       3.5700311879898714e+00, -1.2436951445767495e+00,
       3.5914636616501912e+00, -1.2452984852975386e+00,
       3.6005481019504604e+00, -1.2551473506527535e+00,
       3.5955000125299246e+00, -1.2691308246919151e+00,
       3.5844369094435677e+00, -1.2973516824553710e+00,
       3.5639527184512176e+00, -1.3292498751684692e+00,
       3.5192536111545993e+00, -1.3447081037574509e+00,
       3.5067808455810621e+00, -1.3573546664366973e+00,
       3.5070541753632583e+00, -1.3619621218619637e+00,
       3.5311697685221506e+00, -1.3653128335405389e+00,
       3.5621199276530837e+00, -1.3472652838666295e+00,
       3.5775278915810249e+00, -1.3151885628811026e+00,
       3.5810416100717020e+00, -1.2722843716303125e+00,
       3.5604224967349740e+00, -1.2071073443737930e+00,
       3.5267984687952567e+00, -1.1492867820212442e+00,
       3.4510124749375510e+00, -1.0908211953850233e+00,
       3.3950896617442639e+00, -1.0562802054694851e+00,
       3.3309505690758545e+00, -1.0294698680637033e+00,
       3.3207287690437681e+00, -1.0219600861254166e+00,
       3.3959477136365046e+00, -1.0503590583587892e+00,
       3.4724253377410936e+00, -1.0939036284850723e+00,
       3.5137963239885583e+00, -1.1458578671802608e+00,
       3.5533673517739586e+00, -1.2060844343048482e+00,
       3.5663701531264076e+00, -1.2618210518541759e+00,
       3.5767044199114140e+00, -1.3068919026793109e+00,
       3.5553258946580888e+00, -1.3373924540378315e+00,
       3.5334778260968274e+00, -1.3585440695493474e+00,
       3.5247773201055037e+00, -1.3667385844485544e+00,
       3.5050236233412915e+00, -1.3585209780267886e+00,
       3.5013839419229575e+00, -1.3464799885656886e+00,
       3.5349004652343248e+00, -1.3239834994970929e+00,
       3.5428316171910268e+00, -1.2961516935945145e+00,
       3.5554669604554152e+00, -1.2762465444834230e+00,
       3.5623431789001598e+00, -1.2636384180309257e+00,
       3.5709839610985834e+00, -1.2685215324710146e+00,
       3.5596182067273276e+00, -1.2702007328008087e+00,
       3.5511822373746731e+00, -1.2771377631088339e+00,
       3.5523640278896220e+00, -1.2747451867834985e+00,
       3.5386171492107579e+00, -1.2739648454303629e+00,
       3.5217750156931409e+00, -1.2765305854775810e+00,
       3.4838586008544894e+00, -1.2758295292155855e+00,
       3.4505023668604875e+00, -1.2764265104328472e+00,
       3.4430606710846501e+00, -1.2808951195062588e+00,
       3.4447167799278526e+00, -1.2805293940963316e+00,
       3.4396340756919228e+00, -1.2764493086724440e+00,
       3.4468746686714442e+00, -1.2742511468438162e+00,
       3.4785586148038501e+00, -1.2728834565545295e+00,
       3.5040533306845223e+00, -1.2725419198588821e+00,
       3.5224571547360055e+00, -1.2772659863762430e+00,
       3.5153283578624070e+00, -1.2727185770226483e+00,
       3.5352861987649176e+00, -1.2738983827915404e+00,
       3.5571528117189235e+00, -1.2768167266997001e+00,
       3.5701672020356452e+00, -1.2754106778848486e+00,
       3.5716835661193245e+00, -1.2840298774555630e+00,
       3.5551415314638812e+00, -1.3045582857975440e+00,
       3.5435985272335979e+00, -1.3256148461377721e+00,
       3.5180102895870617e+00, -1.3453325711742932e+00,
       3.5046226672166143e+00, -1.3598467123703626e+00,
       3.5036538234899650e+00, -1.3625286703066766e+00,
       3.5280235069587547e+00, -1.3663016834591359e+00,
       3.5505888774986651e+00, -1.3540047261784169e+00,
       3.5656185240416010e+00, -1.3279647423306926e+00,
       3.5911124886612269e+00, -1.2922817256788637e+00,
       3.5724146689410716e+00, -1.2331212785453003e+00,
       3.5473878085550834e+00, -1.1763228561233310e+00,
       3.4831537544676512e+00, -1.1116069263967983e+00,
       3.4133027989180813e+00, -1.0726785614960390e+00,
       3.3307641064266438e+00, -1.0351116459667871e+00,
       3.3394717799490743e+00, -1.0330815449811765e+00,
       3.3995054406940044e+00, -1.0633340855051541e+00,
       3.4778504683508396e+00, -1.1090598949162409e+00,
       3.5266038389207877e+00, -1.1679993311027626e+00,
       3.5596168480405082e+00, -1.2271783684786091e+00,
       3.5622556000853351e+00, -1.2761099965399898e+00,
       3.5733619492557356e+00, -1.3182262714275712e+00,
       3.5491404430473712e+00, -1.3457991056865859e+00,
       3.5303142353402697e+00, -1.3600306880502058e+00,
       3.5272989204315985e+00, -1.3699801612751938e+00,
       3.5003312102014403e+00, -1.3595611226633599e+00,
       3.4986105428536893e+00, -1.3506607745434405e+00,
       3.5116960963538473e+00, -1.3314349089074253e+00,
       3.5110190309264824e+00, -1.3127060569234830e+00,
       3.5299336917083233e+00, -1.3024829800331743e+00,
       3.5283407430240161e+00, -1.2973766312719384e+00,
       3.5389322867899184e+00, -1.3048154834478578e+00,
       3.5286706377538875e+00, -1.3094977395837355e+00,
       3.5108642592207748e+00, -1.3099083748130769e+00,
       3.5144746205242541e+00, -1.3138115120395373e+00,
       3.5130392790649787e+00, -1.3163651854751530e+00,
       3.4972714524254314e+00, -1.3168020880774287e+00,
       3.4589161145591065e+00, -1.3151429049729937e+00,
       3.4471770993237927e+00, -1.3187159855573012e+00,
       3.4503692942730995e+00, -1.3203339275743056e+00,
       3.4507429484246237e+00, -1.3183843187207394e+00,
       3.4486712470134648e+00, -1.3194367104991420e+00,
       3.4571821982569362e+00, -1.3217279377305904e+00,
       3.4897448001863269e+00, -1.3206941533418632e+00,
       3.5054595265066988e+00, -1.3185896364260825e+00,
       3.5026836302404241e+00, -1.3143989282571242e+00,
       3.4992757697159242e+00, -1.3155551097191105e+00,
       3.4983569573249826e+00, -1.3099180494519873e+00,
       3.5137097021385921e+00, -1.3032481054232110e+00,
       3.5172250050879765e+00, -1.3025400268033855e+00,
       3.5221226643575338e+00, -1.3066246704824884e+00,
       3.5162731193400361e+00, -1.3167129414438892e+00,
       3.4970084984122787e+00, -1.3297259965594559e+00,
       3.4937906562059271e+00, -1.3500327860618326e+00,
       3.4964569878729033e+00, -1.3586955261179665e+00,
       3.5004694484076846e+00, -1.3637536569216306e+00,
       3.5274696993916113e+00, -1.3689266594772627e+00,
       3.5504009205881761e+00, -1.3600362013047520e+00,
       3.5691210954670787e+00, -1.3396070321845901e+00,
       3.5841033073136295e+00, -1.3056148060887043e+00,
       3.5768419646190415e+00, -1.2571029640314857e+00,
       3.5597003187156915e+00, -1.1995713159052031e+00,
       3.4943017094805109e+00, -1.1315122746367223e+00,
       3.4219838988217766e+00, -1.0851871806550784e+00,
       3.3701387002060899e+00, -1.0477191895567282e+00,
       3.3641234958458655e+00, -1.0396463086037246e+00,
       3.4144643603208666e+00, -1.0747014152765735e+00,
       3.4904441118585754e+00, -1.1280401046932822e+00,
       3.5331067023659042e+00, -1.1882587332449570e+00,
       3.5589449949207732e+00, -1.2429916449824607e+00,
       3.5711160294022819e+00, -1.2911825327248585e+00,
       3.5626236713543160e+00, -1.3258864337078251e+00,
       3.5420454682808828e+00, -1.3529991259761336e+00,
       3.5356473241797519e+00, -1.3664706857942979e+00,
       3.5178223904865926e+00, -1.3739405903820905e+00,
       3.4882803870557844e+00, -1.3640584433002374e+00,
       3.4721053394896799e+00, -1.3540238988142919e+00,
       3.4756621915201795e+00, -1.3454258504339736e+00,
       3.4791933998570213e+00, -1.3359494714644888e+00,
       3.4783780919414409e+00, -1.3289562255285736e+00,
       3.4845993778372475e+00, -1.3293707112005075e+00,
       3.4851518141654982e+00, -1.3330239712376548e+00,
       3.4802942513148407e+00, -1.3401587881487922e+00,
       3.5015618230825756e+00, -1.3451924402491398e+00,
       3.5000915448188046e+00, -1.3429626136410393e+00,
       3.4979126696936618e+00, -1.3421334696190743e+00,
       3.4820938649805684e+00, -1.3385553523818621e+00,
       3.4490434611691967e+00, -1.3385828405285007e+00,
       3.4453785696539976e+00, -1.3302897066123658e+00,
       3.4533336930298488e+00, -1.3235319136705994e+00,
       3.4571983867782738e+00, -1.3235825868823576e+00,
       3.4408626281454189e+00, -1.3308896852481369e+00,
       3.4373365112355043e+00, -1.3366677247663872e+00,
       3.4705510868661706e+00, -1.3431574075674342e+00,
       3.4879564342768496e+00, -1.3446039348822538e+00,
       3.4851991714811223e+00, -1.3446097451937031e+00,
       3.4846869491192582e+00, -1.3446587216035684e+00,
       3.4775908194708296e+00, -1.3452085592177589e+00,
       3.4750179960011578e+00, -1.3428744906600203e+00,
       3.4719138189534182e+00, -1.3391531822658522e+00,
       3.4766258472725737e+00, -1.3388316181562945e+00,
       3.4703730160588209e+00, -1.3356323663566123e+00,
       3.4638558780430690e+00, -1.3429766089929016e+00,
       3.4695904064899148e+00, -1.3545128912933528e+00,
       3.4699300426155819e+00, -1.3597304174396641e+00,
       3.4998548118970207e+00, -1.3678999842916972e+00,
       3.5208380437511857e+00, -1.3699034972985311e+00,
       3.5419502811757222e+00, -1.3651817897701188e+00,
       3.5725624400381708e+00, -1.3481354503576355e+00,
       3.5789265706277700e+00, -1.3188263336247865e+00,
       3.5804053584745592e+00, -1.2738248590095906e+00,
       3.5614958761753241e+00, -1.2187040853349254e+00,
       3.5130819919575140e+00, -1.1528620551053446e+00,
       3.4386666221128488e+00, -1.0978081930598889e+00,
       3.3824831853848831e+00, -1.0595688570516815e+00,
       3.3831330141660634e+00, -1.0467313368424151e+00,
       3.4222747048485300e+00, -1.0868939202224541e+00,
       3.5052239777857355e+00, -1.1485056726009497e+00,
       3.5398582841897666e+00, -1.2063038886273481e+00,
       3.5540704482760574e+00, -1.2587722135049113e+00,
       3.5704508069256367e+00, -1.3043437059383070e+00,
       3.5548253206005218e+00, -1.3363621363613545e+00,
       3.5324927204494658e+00, -1.3627031034264248e+00,
       3.5182682126035449e+00, -1.3778734804463308e+00,
       3.4909161837967480e+00, -1.3766723520071327e+00,
       3.4630747937361077e+00, -1.3691918490835662e+00,
       3.4421849123866513e+00, -1.3570386377077126e+00,
       3.4388623474046063e+00, -1.3533560797239519e+00,
       3.4305991267291627e+00, -1.3486306481704808e+00,
       3.4302659077257944e+00, -1.3516216028139878e+00,
       3.4315487556123561e+00, -1.3529904900170766e+00,
       3.4416892653245550e+00, -1.3565523250297651e+00,
       3.4522420671397458e+00, -1.3578989189868995e+00,
       3.4764864300981917e+00, -1.3525718020758812e+00,
       3.4979176936672687e+00, -1.3455080025400130e+00,
       3.5077342359654384e+00, -1.3343560345501746e+00,
       3.4993967712180769e+00, -1.3273839153315630e+00,
       3.4568622147189307e+00, -1.3213405925488126e+00,
       3.4544932251103422e+00, -1.3113188403456670e+00,
       3.4908332586463611e+00, -1.3081473319419981e+00,
       3.4912655919196069e+00, -1.3068201221863280e+00,
       3.4679534063706385e+00, -1.3159749717999012e+00,
       3.4488686904262322e+00, -1.3190275202936113e+00,
       3.4817414466572725e+00, -1.3251287257922171e+00,
       3.4888648299751077e+00, -1.3327159185356261e+00,
       3.4844677593465914e+00, -1.3485296782759841e+00,
       3.4597638691931718e+00, -1.3554134476618680e+00,
       3.4515831339329717e+00, -1.3632744883324928e+00,
       3.4371974030652241e+00, -1.3670786639518036e+00,
       3.4311516842631717e+00, -1.3675776507219879e+00,
       3.4314104234852798e+00, -1.3629591954061229e+00,
       3.4263146368694772e+00, -1.3529001687308859e+00,
       3.4349494170508699e+00, -1.3585682310216842e+00,
       3.4377299121726073e+00, -1.3592320923414392e+00,
       3.4575082743719414e+00, -1.3717179306652543e+00,
       3.4795472802892724e+00, -1.3766176620796979e+00,
       3.5094791879402019e+00, -1.3783497925608403e+00,
       3.5283131828198475e+00, -1.3686610024515369e+00,
       3.5503539018131587e+00, -1.3537441355240714e+00,
       3.5686362590523708e+00, -1.3296568606907591e+00,
       3.5806642304978773e+00, -1.2903835475479613e+00,
       3.5514165927800860e+00, -1.2345331396102248e+00,
       3.5218119628589575e+00, -1.1741796840347514e+00,
       3.4438807658569059e+00, -1.1074508409878938e+00,
       3.3961979547523500e+00, -1.0653003525784321e+00,
       3.4006231943105405e+00, -1.0551575016006494e+00,
       3.4334599627794895e+00, -1.1001785617319912e+00,
       3.5050683688815596e+00, -1.1648113287870934e+00,
       3.5349110770188434e+00, -1.2256825813415049e+00,
       3.5478095137494039e+00, -1.2741359954373461e+00,
       3.5538469307824032e+00, -1.3155119896071259e+00,
       3.5372674819271457e+00, -1.3483336364563669e+00,
       3.5108052461429033e+00, -1.3688121263704112e+00,
       3.4878423002236976e+00, -1.3851580186062120e+00,
       3.4504586534814035e+00, -1.3828287352345725e+00,
       3.4254092437245149e+00, -1.3766950952896779e+00,
       3.4045948441832747e+00, -1.3659471515520887e+00,
       3.3938484145463663e+00, -1.3610351944984960e+00,
       3.3912197962128894e+00, -1.3583478400375857e+00,
       3.3994195107273888e+00, -1.3637438081652775e+00,
       3.4091518447404257e+00, -1.3640863493286406e+00,
       3.4290273925376638e+00, -1.3655345296775543e+00,
       3.4470182260310231e+00, -1.3593133918984595e+00,
       3.4860017167894086e+00, -1.3411436847498193e+00,
       3.5208164957658523e+00, -1.3267193022754473e+00,
       3.5489511165272329e+00, -1.3032250089324702e+00,
       3.5475595232773749e+00, -1.2922712803783158e+00,
       3.5185934894748749e+00, -1.2862328231948452e+00,
       3.5198513756858341e+00, -1.2839008425632932e+00,
       3.5546719911760665e+00, -1.2860684822780826e+00,
       3.5623609647559542e+00, -1.2823169691420531e+00,
       3.5326241093976147e+00, -1.2851294524485632e+00,
       3.5165215609176497e+00, -1.2845906327306043e+00,
       3.5448708866983618e+00, -1.2882328727534549e+00,
       3.5382481712248559e+00, -1.3012143511143339e+00,
       3.5059816495022025e+00, -1.3253159235738605e+00,
       3.4742478817681604e+00, -1.3463637496884000e+00,
       3.4474535193983629e+00, -1.3604032837662199e+00,
       3.4254212965678144e+00, -1.3717441974111326e+00,
       3.4102813370590930e+00, -1.3784951523874578e+00,
       3.4005565815190519e+00, -1.3753362935271642e+00,
       3.3926223378131390e+00, -1.3667155430125926e+00,
       3.3900712653982406e+00, -1.3692663377523924e+00,
       3.3937860021507267e+00, -1.3684051463376765e+00,
       3.4244021741219193e+00, -1.3791410713018173e+00,
       3.4526012993604724e+00, -1.3888928925890869e+00,
       3.4818590317569003e+00, -1.3852834173354018e+00,
       3.5092674636475336e+00, -1.3786046479240257e+00,
       3.5301936220918066e+00, -1.3612714616366068e+00,
       3.5501903001227584e+00, -1.3377496015596346e+00,
       3.5598058313923637e+00, -1.3034813434603172e+00,
       3.5536789334484591e+00, -1.2495000565699006e+00,
       3.5257107425035423e+00, -1.1900058411862402e+00,
       3.4567895224193799e+00, -1.1202961287043633e+00,
       3.4007831067787180e+00, -1.0749978091693664e+00,
       3.4031544913491847e+00, -1.0657933220768512e+00,
       3.4598096971472758e+00, -1.1152492880422440e+00,
       3.5025298249575152e+00, -1.1805844656436479e+00,
       3.5270194650321609e+00, -1.2426742877470200e+00,
       3.5318355507030561e+00, -1.2902334542760787e+00,
       3.5290274608872525e+00, -1.3310481592999621e+00,
       3.5087141239331006e+00, -1.3589685567735188e+00,
       3.4780456875502326e+00, -1.3845969189326455e+00,
       3.4409551495727246e+00, -1.3984019497111377e+00,
       3.4027860128556022e+00, -1.3969968264698698e+00,
       3.3770508086179643e+00, -1.3891862470924636e+00,
       3.3634910368236048e+00, -1.3754098929609229e+00,
       3.3522804552130232e+00, -1.3691749382084175e+00,
       3.3665531285621828e+00, -1.3700047192074039e+00,
       3.3890027102976519e+00, -1.3701304534708376e+00,
       3.4022324946918996e+00, -1.3704365116111918e+00,
       3.4324446338931556e+00, -1.3645338679772467e+00,
       3.4739759532309704e+00, -1.3543982884472352e+00,
       3.5312719504454555e+00, -1.3347025178221192e+00,
       3.5954243117380629e+00, -1.3052615393198990e+00,
       3.6232796915948766e+00, -1.2658456847420443e+00,
       3.6168936415262074e+00, -1.2432274942392321e+00,
       3.5885268428468011e+00, -1.2551714940033492e+00,
       3.5814422444433096e+00, -1.2727540725770921e+00,
       3.6123824558882975e+00, -1.2827837240808269e+00,
       3.6150361116041969e+00, -1.2840316180778579e+00,
       3.5857664182035376e+00, -1.2760141417999455e+00,
       3.5907608517700678e+00, -1.2658098818503236e+00,
       3.5955540752212052e+00, -1.2498195408764858e+00,
       3.5985493580308443e+00, -1.2601130576039667e+00,
       3.5711863104555044e+00, -1.2977715269411918e+00,
       3.5237671535467765e+00, -1.3330989030151157e+00,
       3.4712247787983244e+00, -1.3569796101399108e+00,
       3.4353335483062546e+00, -1.3709832999528140e+00,
       3.4072904222262479e+00, -1.3796337198538851e+00,
       3.3931877156030712e+00, -1.3811303604989089e+00,
       3.3705189941672713e+00, -1.3788800765901759e+00,
       3.3433326246262176e+00, -1.3765415845063385e+00,
       3.3528965922153109e+00, -1.3801399069167952e+00,
       3.3717891159789795e+00, -1.3869555147160340e+00,
       3.4024349922326085e+00, -1.4001733896529374e+00,
       3.4410847491717345e+00, -1.4029764432545051e+00,
       3.4715111927303917e+00, -1.3923508982222954e+00,
       3.5090825858856900e+00, -1.3753107473257149e+00,
       3.5348320418876567e+00, -1.3512095539852838e+00,
       3.5361377302835204e+00, -1.3147398677786009e+00,
       3.5395208636692623e+00, -1.2669951219772753e+00,
       3.5128825465581088e+00, -1.2063331514762441e+00,
       3.4641736454354444e+00, -1.1379868069451160e+00,
       3.4046014103704687e+00, -1.0834894862942763e+00,
       3.4169136394837269e+00, -1.0786862296399942e+00,
       3.4739004392717208e+00, -1.1328921048582221e+00,
       3.5038371527067871e+00, -1.1994801454996320e+00,
       3.5081833785292962e+00, -1.2583602256265765e+00,
       3.5085876022215254e+00, -1.3067381701788761e+00,
       3.4975682491547415e+00, -1.3449679521568394e+00,
       3.4728571637004135e+00, -1.3745237965050274e+00,
       3.4360816700215224e+00, -1.3991332220653616e+00,
       3.3923472575240434e+00, -1.4118426938094877e+00,
       3.3515571294176065e+00, -1.4140643440569540e+00,
       3.3193066348921549e+00, -1.4046789711461938e+00,
       3.3085503627509367e+00, -1.3912268907959093e+00,
       3.3178527368420569e+00, -1.3866795844329105e+00,
       3.3423344864079727e+00, -1.3835448950531324e+00,
       3.3827863712528266e+00, -1.3797360509740999e+00,
       3.4210551993283476e+00, -1.3787480290537839e+00,
       3.4711118465235384e+00, -1.3684461335643829e+00,
       3.5355112413650036e+00, -1.3537973480602341e+00,
       3.6050022553425398e+00, -1.3265785425335783e+00,
       3.6361813436457142e+00, -1.2789087870375997e+00,
       3.6698673680647844e+00, -1.2350261282009585e+00,
       3.6532697991289651e+00, -1.2165358565736906e+00,
       3.6164256119914953e+00, -1.2504739923732706e+00,
       3.5900479156362683e+00, -1.2837196258444172e+00,
       3.5797823207228698e+00, -1.2948225874836212e+00,
       3.5704843154007118e+00, -1.2975339676625497e+00,
       3.5568144361471306e+00, -1.2918111613758227e+00,
       3.5831600833529267e+00, -1.2661943547372678e+00,
       3.6176642534730616e+00, -1.2360362423183882e+00,
       3.6438019426181030e+00, -1.2411489520018553e+00,
       3.6139782142154959e+00, -1.2781928931875448e+00,
       3.5825242121523542e+00, -1.3189020737822945e+00,
       3.5270116123171587e+00, -1.3516728071254418e+00,
       3.4782281533704489e+00, -1.3719148594314030e+00,
       3.4310488212121175e+00, -1.3814571107015321e+00,
       3.3926271606601781e+00, -1.3896184274418080e+00,
       3.3370838368481444e+00, -1.3870488320778831e+00,
       3.3111951771361308e+00, -1.3894295806106256e+00,
       3.3031849184124251e+00, -1.3935386243509083e+00,
       3.3176632466659712e+00, -1.4044726302538026e+00,
       3.3431290033303980e+00, -1.4129793274921769e+00,
       3.3803186589160510e+00, -1.4165810098672198e+00,
       3.4211083659222967e+00, -1.4053091481364042e+00,
       3.4700435407025356e+00, -1.3884062916128717e+00,
       3.5011509179245750e+00, -1.3671230289410838e+00,
       3.5158323879772779e+00, -1.3300002965992916e+00,
       3.5233522970064208e+00, -1.2830308248403948e+00,
       3.5114710338476751e+00, -1.2223108821341335e+00,
       3.4810612557751379e+00, -1.1563474035576156e+00,
       3.4294726909941242e+00, -1.1007648984463054e+00,
       3.4257048500515364e+00, -1.0879429112387116e+00,
       3.4770349715972575e+00, -1.1492823785026880e+00,
       3.4997431146785534e+00, -1.2189680401596696e+00,
       3.4885571630431991e+00, -1.2748380746632102e+00,
       3.4722132414832121e+00, -1.3214511627272774e+00,
       3.4648520559962570e+00, -1.3618338766131037e+00,
       3.4277945959030354e+00, -1.3902639722988794e+00,
       3.3837931240300674e+00, -1.4160648700773681e+00,
       3.3349467592607422e+00, -1.4290302555427497e+00,
       3.2926409171385576e+00, -1.4304809618240835e+00,
       3.2655325086965106e+00, -1.4233030232198161e+00,
       3.2531996687281093e+00, -1.4101771672594599e+00,
       3.2557062453773065e+00, -1.3958531355457888e+00,
       3.2924530280487554e+00, -1.3954183337494415e+00,
       3.3550927713258254e+00, -1.3886546578650460e+00,
       3.4291873195702909e+00, -1.3863799470505629e+00,
       3.4906940537113567e+00, -1.3698431806934945e+00,
       3.5720271237537675e+00, -1.3537718473293112e+00,
       3.6261915581065880e+00, -1.3296891785499330e+00,
       3.6278512806440237e+00, -1.2985280077294588e+00,
       3.6188598887559813e+00, -1.2560533564401481e+00,
       3.6041719187079067e+00, -1.2437218813708522e+00,
       3.5568815289630340e+00, -1.2804109979751035e+00,
       3.4873293919377923e+00, -1.3192659153564681e+00,
       3.4385607194852552e+00, -1.3294552182049548e+00,
       3.4226056544538741e+00, -1.3291901461678799e+00,
       3.4491799094932034e+00, -1.3181058103512198e+00,
       3.5154871975917810e+00, -1.2856086754335763e+00,
       3.5806425927776546e+00, -1.2482927716124661e+00,
       3.6211680347940147e+00, -1.2563348575705298e+00,
       3.6372895621364254e+00, -1.3033576955181048e+00,
       3.6174206808968972e+00, -1.3324104685520448e+00,
       3.5747626914303803e+00, -1.3514919076401244e+00,
       3.5121185894731024e+00, -1.3702182178835802e+00,
       3.4434735447029277e+00, -1.3843952339145280e+00,
       3.3669651781088934e+00, -1.3944786170541639e+00,
       3.3007470197195969e+00, -1.3976196448139480e+00,
       3.2614985106488490e+00, -1.3999328841616276e+00,
       3.2479672075250074e+00, -1.4099584654341084e+00,
       3.2578691351625606e+00, -1.4220185741690394e+00,
       3.2859266088618670e+00, -1.4313877573323119e+00,
       3.3221564059953113e+00, -1.4315133411513863e+00,
       3.3717918176601627e+00, -1.4222669038208431e+00,
       3.4282229336560643e+00, -1.4066850754526048e+00,
       3.4567656616034257e+00, -1.3787312883494607e+00,
       3.4794614777106498e+00, -1.3445300576622792e+00,
       3.5039829373543845e+00, -1.3012004917549937e+00,
       3.5165419274038139e+00, -1.2408249078613836e+00,
       3.4916416982920229e+00, -1.1753941765634432e+00,
       3.4501764520710005e+00, -1.1116455907303984e+00,
       3.4444892784260666e+00, -1.1047350656528809e+00,
       3.4753706516128142e+00, -1.1680245068492212e+00,
       3.4761071989295029e+00, -1.2323653961497993e+00,
       3.4677681488862309e+00, -1.2911400127430965e+00,
       3.4435822574811934e+00, -1.3394349444787568e+00,
       3.4268465727621802e+00, -1.3799908016980709e+00,
       3.3877152211397896e+00, -1.4075575436944483e+00,
       3.3291921433813592e+00, -1.4351601843104984e+00,
       3.2743390111513295e+00, -1.4465727739187049e+00,
       3.2328569188640288e+00, -1.4496780086701846e+00,
       3.2012662592363190e+00, -1.4379631403093227e+00,
       3.1917812473931222e+00, -1.4258286376157387e+00,
       3.1947310425381410e+00, -1.4126492672978068e+00,
       3.2284932602917680e+00, -1.4008288542596212e+00,
       3.3005733637505430e+00, -1.3987561138500861e+00,
       3.3886777501876248e+00, -1.3879807676304665e+00,
       3.4731041031564143e+00, -1.3675725777697221e+00,
       3.5654129702345347e+00, -1.3583822909162093e+00,
       3.6132165261208700e+00, -1.3493710450933012e+00,
       3.5762509723864149e+00, -1.3343288520001229e+00,
       3.5536118119696920e+00, -1.3100986407568382e+00,
       3.5281095562431513e+00, -1.3016538644071298e+00,
       3.4503418908833350e+00, -1.3297881851902178e+00,
       3.3453004809603595e+00, -1.3603696631840814e+00,
       3.2796138901627399e+00, -1.3705689165758304e+00,
       3.2677921119104840e+00, -1.3715285102211201e+00,
       3.2987705317928371e+00, -1.3567092244729837e+00,
       3.3918745377368840e+00, -1.3305003228944807e+00,
       3.4701800375235958e+00, -1.3006226618912033e+00,
       3.5359397598938616e+00, -1.3099224835757071e+00,
       3.5762377352384127e+00, -1.3360919103792872e+00,
       3.6051905570284100e+00, -1.3557104654365078e+00,
       3.5875474398481946e+00, -1.3662088012967031e+00,
       3.5095856609739706e+00, -1.3753423473288759e+00,
       3.4131626380398714e+00, -1.3881537341818579e+00,
       3.3116074094147185e+00, -1.3995980841140512e+00,
       3.2397955579179896e+00, -1.4057997389769272e+00,
       3.2046151866066093e+00, -1.4128812025008446e+00,
       3.1878916851964845e+00, -1.4246519435001437e+00,
       3.1977012230917383e+00, -1.4372826350914372e+00,
       3.2289822012331326e+00, -1.4480864941816842e+00,
       3.2625749742154859e+00, -1.4474296300785352e+00,
       3.3191763111552244e+00, -1.4383652730000329e+00,
       3.3717252202374222e+00, -1.4214467905191635e+00,
       3.4145835422303539e+00, -1.3933998488075034e+00,
       3.4454931398087068e+00, -1.3595958315971333e+00,
       3.4792099326493107e+00, -1.3160917155878846e+00,
       3.5030321372910382e+00, -1.2583372756120641e+00,
       3.4942936006098582e+00, -1.1943859877715843e+00,
       3.4694311655517751e+00, -1.1272199347106191e+00,
       3.4439362744162683e+00, -1.1186827671987456e+00,
       3.4633570132385381e+00, -1.1853535319738813e+00,
       3.4573148852551210e+00, -1.2471275733105822e+00,
       3.4426759066714863e+00, -1.3071713749248215e+00,
       3.4140834680764645e+00, -1.3554695628698972e+00,
       3.3852774622400950e+00, -1.3962569243695353e+00,
       3.3351286942059915e+00, -1.4251222526864387e+00,
       3.2812190409201007e+00, -1.4520406887918207e+00,
       3.2245418542836659e+00, -1.4637763344908676e+00,
       3.1848648823297525e+00, -1.4661522981495054e+00,
       3.1502563711289771e+00, -1.4577472016814823e+00,
       3.1329329785934212e+00, -1.4438435570265780e+00,
       3.1429950944657334e+00, -1.4307926516444032e+00,
       3.1715568721600937e+00, -1.4161924181654006e+00,
       3.2338575487108971e+00, -1.4074853678095129e+00,
       3.3150489493099937e+00, -1.3938845702438751e+00,
       3.4231436333019767e+00, -1.3789706518317268e+00,
       3.5302994853456107e+00, -1.3748616689303628e+00,
       3.5733468767096945e+00, -1.3753373698380105e+00,
       3.5334309892265074e+00, -1.3715665406778024e+00,
       3.5076789765396112e+00, -1.3648662498465329e+00,
       3.4568005781766202e+00, -1.3636602516944814e+00,
       3.3539562164362446e+00, -1.3809353848508237e+00,
       3.2340910985913167e+00, -1.3997548838314016e+00,
       3.1727472361522571e+00, -1.4086599378893381e+00,
       3.1710754306802511e+00, -1.4084506312248510e+00,
       3.2058765017657320e+00, -1.3984611017754216e+00,
       3.3112123735289072e+00, -1.3813365354907510e+00,
       3.4077110931653807e+00, -1.3606663400990209e+00,
       3.4836148568457190e+00, -1.3630523370982575e+00,
       3.5352439254798265e+00, -1.3756580129011440e+00,
       3.5691842277326882e+00, -1.3830734346726203e+00,
       3.5540242591134557e+00, -1.3840976982054827e+00,
       3.4531720232953718e+00, -1.3849377424753129e+00,
       3.3330767776025172e+00, -1.3931832567141489e+00,
       3.2434803791001103e+00, -1.4090627013400159e+00,
       3.1808316236334089e+00, -1.4161759139142565e+00,
       3.1467238977042360e+00, -1.4284200564410292e+00,
       3.1312809459952944e+00, -1.4422204806531860e+00,
       3.1390368131707143e+00, -1.4531138943655959e+00,
       3.1706110644584919e+00, -1.4649847543433723e+00,
       3.2068286500070649e+00, -1.4648473896918970e+00,
       3.2603674985596980e+00, -1.4572204463805354e+00,
       3.3226186147049033e+00, -1.4400561980560069e+00,
       3.3754713878843989e+00, -1.4110794873120831e+00,
       3.4085815062341713e+00, -1.3749570960468505e+00,
       3.4408068529486560e+00, -1.3269993395399495e+00,
       3.4765892265590095e+00, -1.2742847456986632e+00,
       3.4757197603087624e+00, -1.2081820494379978e+00,
       3.4711614470258891e+00, -1.1385014416421966e+00,
       3.4361433713616143e+00, -1.1286200872252530e+00,
       3.4471170859250608e+00, -1.1956206582855655e+00,
       3.4400072845680953e+00, -1.2656705268757762e+00,
       3.4068526952955134e+00, -1.3209494870100071e+00,
       3.3735989896378000e+00, -1.3679547590099923e+00,
       3.3419041200919724e+00, -1.4073705142639727e+00,
       3.2898340916825268e+00, -1.4387419013908620e+00,
       3.2314364688678476e+00, -1.4632473639545605e+00,
       3.1740921567303619e+00, -1.4728668210736215e+00,
       3.1276899493040613e+00, -1.4747868231438701e+00,
       3.0990277745153203e+00, -1.4725873000503140e+00,
       3.0861598270811128e+00, -1.4595145160185916e+00,
       3.0956945823557747e+00, -1.4494526981557021e+00,
       3.1201643247011464e+00, -1.4342851472598235e+00,
       3.1667150387015810e+00, -1.4195735902512880e+00,
       3.2399561304448818e+00, -1.4092958161354869e+00,
       3.3407681366380433e+00, -1.3966542562658655e+00,
       3.4630032639400681e+00, -1.3942720035677330e+00,
       3.5241032035243269e+00, -1.4028352611633308e+00,
       3.5064575113885148e+00, -1.4029587302250894e+00,
       3.4825361819072600e+00, -1.4044809559556430e+00,
       3.4282932717848569e+00, -1.4125195764075573e+00,
       3.3094900040376110e+00, -1.4243054332617706e+00,
       3.1909936871980005e+00, -1.4386710878636395e+00,
       3.1339975232051636e+00, -1.4467490730790238e+00,
       3.1325327158853944e+00, -1.4498598066574169e+00,
       3.1721310088222268e+00, -1.4417522539491725e+00,
       3.2778019914625709e+00, -1.4254646036498755e+00,
       3.3781881469755342e+00, -1.4039012929183103e+00,
       3.4553877003083668e+00, -1.3983784464608211e+00,
       3.4983722743202423e+00, -1.3990807932736400e+00,
       3.5187626075967939e+00, -1.4005744591549365e+00,
       3.4792146122699998e+00, -1.3977521905120913e+00,
       3.3615293901907917e+00, -1.3986566491607177e+00,
       3.2507537537232389e+00, -1.4085482162505090e+00,
       3.1754219251615323e+00, -1.4198688783204700e+00,
       3.1286723854996201e+00, -1.4328886821325431e+00,
       3.0953112245024381e+00, -1.4460758271645577e+00,
       3.0841092730137194e+00, -1.4592965037829255e+00,
       3.0908886791317203e+00, -1.4690418030236256e+00,
       3.1172678849485598e+00, -1.4760951381802823e+00,
       3.1578999829939911e+00, -1.4773305360086040e+00,
       3.2096756023222599e+00, -1.4681794282906657e+00,
       3.2786527811457362e+00, -1.4533766371793788e+00,
       3.3348916737521823e+00, -1.4256732336860733e+00,
       3.3744696535598404e+00, -1.3891924037257530e+00,
       3.4008739164505011e+00, -1.3384893857308529e+00,
       3.4518923971684172e+00, -1.2888694143422734e+00,
       3.4584905662057004e+00, -1.2221598284979707e+00,
       3.4668087987828886e+00, -1.1540288001400496e+00,
       3.4349845866007040e+00, -1.1391509438149052e+00,
       3.4305803596765241e+00, -1.2080957394699290e+00,
       3.4160079826733578e+00, -1.2809636141336733e+00,
       3.3795626141068924e+00, -1.3343103188400656e+00,
       3.3396793180646043e+00, -1.3791502655758276e+00,
       3.2977378091732144e+00, -1.4125902573514020e+00,
       3.2508537478646602e+00, -1.4521279653253112e+00,
       3.1903581780731547e+00, -1.4730616250244239e+00,
       3.1269670493027966e+00, -1.4817143994782014e+00,
       3.0829797729658934e+00, -1.4844876504450486e+00,
       3.0532453372291357e+00, -1.4788757573484250e+00,
       3.0463485664174144e+00, -1.4710350893824202e+00,
       3.0563589727966933e+00, -1.4635227655589882e+00,
       3.0744442525204794e+00, -1.4515173031672810e+00,
       3.1116240965517123e+00, -1.4371089285829894e+00,
       3.1717347304341090e+00, -1.4224098745356719e+00,
       3.2590247875351817e+00, -1.4152038474647965e+00,
       3.3753861430363701e+00, -1.4167764868542962e+00,
       3.4614881863007465e+00, -1.4176809797246828e+00,
       3.4659401586922569e+00, -1.4139823902651687e+00,
       3.4455515068756766e+00, -1.4215267030974861e+00,
       3.3900615820285558e+00, -1.4357508837215414e+00,
       3.2830868946522140e+00, -1.4541515307269950e+00,
       3.1757135314668208e+00, -1.4672736848973027e+00,
       3.1212424300415194e+00, -1.4787072836744479e+00,
       3.1151437944947351e+00, -1.4799145949315060e+00,
       3.1664258874001789e+00, -1.4725429502906797e+00,
       3.2644470049740311e+00, -1.4529605409973165e+00,
       3.3603167806481307e+00, -1.4331011239896232e+00,
       3.4315023517097738e+00, -1.4210963477835739e+00,
       3.4731471184630829e+00, -1.4191516464102958e+00,
       3.4651729017388542e+00, -1.4157502853726647e+00,
       3.3892131912069692e+00, -1.4137361853646790e+00,
       3.2704608484475490e+00, -1.4135353999840023e+00,
       3.1761572716727429e+00, -1.4244806333646700e+00,
       3.1228527630087313e+00, -1.4380347277412204e+00,
       3.0750799638492903e+00, -1.4473081059052366e+00,
       3.0573738482808106e+00, -1.4611059647930438e+00,
       3.0476713020673114e+00, -1.4728839603080064e+00,
       3.0516909428844308e+00, -1.4784977870446010e+00,
       3.0699894479469489e+00, -1.4827285029658406e+00,
       3.1162160590629235e+00, -1.4850947268780319e+00,
       3.1646502819339957e+00, -1.4755336370939329e+00,
       3.2329502369091010e+00, -1.4619087547063609e+00,
       3.2916679926489287e+00, -1.4343708149211694e+00,
       3.3395809674687209e+00, -1.3995321527781259e+00,
       3.3735880464018706e+00, -1.3534141664888679e+00,
       3.4155802245270279e+00, -1.3028117060942215e+00,
       3.4439223266357155e+00, -1.2332353280030068e+00,
       3.4662670609447113e+00, -1.1671112102339516e+00,
       3.4328518606801026e+00, -1.1492977449886428e+00,
       3.4111369308595902e+00, -1.2148905071922185e+00,
       3.3916136881691519e+00, -1.2903266567847080e+00,
       3.3508211179915510e+00, -1.3423275864139175e+00,
       3.3074904903704829e+00, -1.3845885102409059e+00,
       3.2612146564745945e+00, -1.4207479469132036e+00,
       3.2112503496467633e+00, -1.4583391904431577e+00,
       3.1548811179295129e+00, -1.4781539049305656e+00,
       3.0954692270005157e+00, -1.4873069565073949e+00,
       3.0579366389008511e+00, -1.4922683615489221e+00,
       3.0360546745372705e+00, -1.4903718618497486e+00,
       3.0310680639957326e+00, -1.4840750058085213e+00,
       3.0347453211620934e+00, -1.4746098199387760e+00,
       3.0493592566724899e+00, -1.4655956652060482e+00,
       3.0716816025899472e+00, -1.4542614695820293e+00,
       3.1122897183551785e+00, -1.4390742775967125e+00,
       3.1898641782461028e+00, -1.4287971373236164e+00,
       3.2963194316630493e+00, -1.4336957371247681e+00,
       3.3912560040612485e+00, -1.4311837742995734e+00,
       3.4288848330794024e+00, -1.4283128482666825e+00,
       3.4218364135679105e+00, -1.4351030351532170e+00,
       3.3737069209009523e+00, -1.4500822823726467e+00,
       3.2814436232069570e+00, -1.4729165852787927e+00,
       3.1805431322534052e+00, -1.4884986472751625e+00,
       3.1081533413584617e+00, -1.4929828853690841e+00,
       3.1033910403518359e+00, -1.4944409453655789e+00,
       3.1679260938358746e+00, -1.4928033302901729e+00,
       3.2660779989845556e+00, -1.4733063762626384e+00,
       3.3469996440831093e+00, -1.4505244938299229e+00,
       3.4150235117893688e+00, -1.4358941990854042e+00,
       3.4342003036582942e+00, -1.4300139780631316e+00,
       3.3977627724370465e+00, -1.4275680445046339e+00,
       3.3207986361899553e+00, -1.4333272051593502e+00,
       3.2106422962702030e+00, -1.4333201719954962e+00,
       3.1255242710014737e+00, -1.4397717899397404e+00,
       3.0782809173297081e+00, -1.4515315442451624e+00,
       3.0504234708910252e+00, -1.4606116236887443e+00,
       3.0356421083125129e+00, -1.4706835852393467e+00,
       3.0327024797748305e+00, -1.4824251234920187e+00,
       3.0355228958642759e+00, -1.4895618612840094e+00,
       3.0503039336041597e+00, -1.4912507982252230e+00,
       3.0882664036627983e+00, -1.4898105194706222e+00,
       3.1374689084824166e+00, -1.4821762312060167e+00,
       3.2034039247196580e+00, -1.4705591071043806e+00,
       3.2565491853353965e+00, -1.4425190207674408e+00,
       3.3067612863662110e+00, -1.4072448398068087e+00,
       3.3492212943447601e+00, -1.3615723448937607e+00,
       3.3903433138528527e+00, -1.3099864769535499e+00,
       3.4191064049776441e+00, -1.2425123074062636e+00,
       3.4513847426561739e+00, -1.1719579598097842e+00,
       3.4315957088647768e+00, -1.1537373137264537e+00,
       3.3855885528166487e+00, -1.2214040865541489e+00,
       3.3701992807454411e+00, -1.2956114004604338e+00,
       3.3330274061163645e+00, -1.3486993203419537e+00,
       3.2807214211856848e+00, -1.3897271493310754e+00,
       3.2362793110959784e+00, -1.4254483976893304e+00,
       3.1833279492476532e+00, -1.4621001550342791e+00,
       3.1269337779167738e+00, -1.4822180217557006e+00,
       3.0771343806292797e+00, -1.4909275718367685e+00,
       3.0493676508297489e+00, -1.4947162256685611e+00,
       3.0372861026413696e+00, -1.4953198187382557e+00,
       3.0392877286565239e+00, -1.4928879484302127e+00,
       3.0376314032898657e+00, -1.4833864631926690e+00,
       3.0497827417361059e+00, -1.4793418048427847e+00,
       3.0600107787105135e+00, -1.4683812013171726e+00,
       3.0947783396343573e+00, -1.4590673964538228e+00,
       3.1380930471077622e+00, -1.4455862659117973e+00,
       3.2367014955819999e+00, -1.4438116749140719e+00,
       3.3370747850973226e+00, -1.4451507459514632e+00,
       3.3849101267218926e+00, -1.4412408833187220e+00,
       3.3976666435333525e+00, -1.4449158830115805e+00,
       3.3592467891180324e+00, -1.4606855690664349e+00,
       3.2840935786107406e+00, -1.4827145107622539e+00,
       3.1864986984817336e+00, -1.5000581663767498e+00,
       3.1098504850170650e+00, -1.5035575485461994e+00,
       3.1058914118351963e+00, -1.5029651914726767e+00,
       3.1746481402414832e+00, -1.4990193559701293e+00,
       3.2706507063961974e+00, -1.4829008013652383e+00,
       3.3422216548595918e+00, -1.4626544302895781e+00,
       3.3935163599839178e+00, -1.4477136148430803e+00,
       3.3892128530305827e+00, -1.4391055930325380e+00,
       3.3404212744165225e+00, -1.4358083228104654e+00,
       3.2494759617147295e+00, -1.4402449905575976e+00,
       3.1609577727474747e+00, -1.4475910570514303e+00,
       3.1028772643237859e+00, -1.4563624984915697e+00,
       3.0581482908700819e+00, -1.4619840308762735e+00,
       3.0528019673543323e+00, -1.4767767282227844e+00,
       3.0442157844590807e+00, -1.4839299961367545e+00,
       3.0386350151432016e+00, -1.4885863063016018e+00,
       3.0376119145555092e+00, -1.4946114383476288e+00,
       3.0466177125162131e+00, -1.4939671545405455e+00,
       3.0752241111367544e+00, -1.4934718211873541e+00,
       3.1158047787345167e+00, -1.4861696049529747e+00,
       3.1794788182402911e+00, -1.4728601713915375e+00,
       3.2381769161637539e+00, -1.4456664939229567e+00,
       3.2872175124436729e+00, -1.4101063806276726e+00,
       3.3342111578468487e+00, -1.3677525119310392e+00,
       3.3705560917089494e+00, -1.3160921602767923e+00,
       3.4037387498298011e+00, -1.2498608319161648e+00,
       3.4325855574846638e+00, -1.1741774477974416e+00,
       3.4217575582659978e+00, -1.1552489102523702e+00,
       3.3813353353423738e+00, -1.2307469739277115e+00,
       3.3527219741877756e+00, -1.2988935637359240e+00,
       3.3070339243964693e+00, -1.3508151165196305e+00,
       3.2644812552922478e+00, -1.3908497303441865e+00,
       3.2152456966196281e+00, -1.4241316100061223e+00,
       3.1676467968273565e+00, -1.4588579564675062e+00,
       3.1171992755192619e+00, -1.4805203863215632e+00,
       3.0780795746455838e+00, -1.4911495635046301e+00,
       3.0568894735575087e+00, -1.4919376144898819e+00,
       3.0513194073651055e+00, -1.4958318690600676e+00,
       3.0565150712501334e+00, -1.4920462813820969e+00,
       3.0552000461356497e+00, -1.4855879226252351e+00,
       3.0625391971621245e+00, -1.4822305340827131e+00,
       3.0668907519020530e+00, -1.4745914268228386e+00,
       3.0859434132728083e+00, -1.4663092510360616e+00,
       3.1220039790934635e+00, -1.4562233941909861e+00,
       3.1942403866777482e+00, -1.4494308086592163e+00,
       3.2816203549938407e+00, -1.4468706737212402e+00,
       3.3483901633775766e+00, -1.4501760302927473e+00,
       3.3661925037348075e+00, -1.4543791924912195e+00,
       3.3489028434266133e+00, -1.4660786176911578e+00,
       3.2924340714965035e+00, -1.4882663602367485e+00,
       3.1964791020174044e+00, -1.5062487717903965e+00,
       3.1112278502641146e+00, -1.5108590558962707e+00,
       3.1051894478363868e+00, -1.5103530023942953e+00,
       3.1799594744932089e+00, -1.5047370930521033e+00,
       3.2769219243282475e+00, -1.4879793272868698e+00,
       3.3347529074274260e+00, -1.4668882200003730e+00,
       3.3624657183364377e+00, -1.4532151653629979e+00,
       3.3439400144380391e+00, -1.4411923806082614e+00,
       3.2957217954448019e+00, -1.4424537294603041e+00,
       3.2141771321658288e+00, -1.4518591689305418e+00,
       3.1392253178042711e+00, -1.4583290671752174e+00,
       3.0930359701374592e+00, -1.4657425481201594e+00,
       3.0681872761744775e+00, -1.4704381527152992e+00,
       3.0635791148873728e+00, -1.4785033349192935e+00,
       3.0553292893663211e+00, -1.4816268432830568e+00,
       3.0552655640778674e+00, -1.4868239299312780e+00,
       3.0516986922133333e+00, -1.4905769647890870e+00,
       3.0577796457994189e+00, -1.4921707116130360e+00,
       3.0754739675410305e+00, -1.4913684361642658e+00,
       3.1036066467103249e+00, -1.4811475156588543e+00,
       3.1606969004796426e+00, -1.4718823780664434e+00,
       3.2169776756821977e+00, -1.4452671011911724e+00,
       3.2674143199216985e+00, -1.4090715012818451e+00,
       3.3117508390602763e+00, -1.3671091802453823e+00,
       3.3489745474918995e+00, -1.3175036772125011e+00,
       3.3842688247084367e+00, -1.2545627751347317e+00,
       3.4132761347297440e+00, -1.1765026215044183e+00,
       3.4048643011565698e+00, -1.1561011646996799e+00,
       3.3773375636949217e+00, -1.2371389501556656e+00,
       3.3457307060515924e+00, -1.2972734881403281e+00,
       3.2958655504540109e+00, -1.3482615915181533e+00,
       3.2532192209633344e+00, -1.3848396566940353e+00,
       3.2073865018162451e+00, -1.4186550766804742e+00,
       3.1654184852872493e+00, -1.4526827897003103e+00,
       3.1240703452382901e+00, -1.4717597743161983e+00,
       3.0899701162642188e+00, -1.4793864894065722e+00,
       3.0807794708021365e+00, -1.4838157579293538e+00,
       3.0784563265641727e+00, -1.4820554078022923e+00,
       3.0868093399553396e+00, -1.4803761430035096e+00,
       3.0910215499243581e+00, -1.4774564396296832e+00,
       3.0933052288667535e+00, -1.4752523647181874e+00,
       3.0912092123973705e+00, -1.4699688858883255e+00,
       3.1003842308201843e+00, -1.4648489804955807e+00,
       3.1198314427915346e+00, -1.4559030278531264e+00,
       3.1826648344850321e+00, -1.4537439102448930e+00,
       3.2633005168101401e+00, -1.4518472786159726e+00,
       3.3191334275465127e+00, -1.4495393270261270e+00,
       3.3393450791150148e+00, -1.4494652214238872e+00,
       3.3356154308596637e+00, -1.4646252305963094e+00,
       3.2965790110201350e+00, -1.4883806396561441e+00,
       3.1965063898636590e+00, -1.5049107059046960e+00,
       3.1116903947490355e+00, -1.5105606991575207e+00,
       3.1069959747363609e+00, -1.5098300380395415e+00,
       3.1827798909702043e+00, -1.5055242627533061e+00,
       3.2719115669736945e+00, -1.4833181118868455e+00,
       3.3284244680133503e+00, -1.4650400756222879e+00,
       3.3350594909118052e+00, -1.4487063945824525e+00,
       3.3230777045796609e+00, -1.4438641989100769e+00,
       3.2702698450125665e+00, -1.4459514454034645e+00,
       3.2019288456669410e+00, -1.4539391857324429e+00,
       3.1448077015402855e+00, -1.4599827419987890e+00,
       3.1122207993115487e+00, -1.4652811743282839e+00,
       3.0987800198971702e+00, -1.4684249716279425e+00,
       3.0911345739267677e+00, -1.4687758692624393e+00,
       3.0934740736535113e+00, -1.4730130520265536e+00,
       3.0859733375437610e+00, -1.4743003822667440e+00,
       3.0840335899294984e+00, -1.4773505393776909e+00,
       3.0810541769460036e+00, -1.4778674168451920e+00,
       3.0924199972634834e+00, -1.4804803957216917e+00,
       3.1124412819423197e+00, -1.4718181858252195e+00,
       3.1590151854482409e+00, -1.4629335127548877e+00,
       3.2166877074902489e+00, -1.4399930394706710e+00,
       3.2533427144006750e+00, -1.4030382986339471e+00,
       3.3078356834315907e+00, -1.3659351327812628e+00,
       3.3421440255944597e+00, -1.3174345200706654e+00,
       3.3738301978264600e+00, -1.2548845144194603e+00,
       3.4126457639956578e+00, -1.1828158085573208e+00,
       3.4099560370482069e+00, -1.1565598237235390e+00,
       3.3776175350348758e+00, -1.2357708831599925e+00,
       3.3385680561124342e+00, -1.2942763950540022e+00,
       3.2972258606061171e+00, -1.3402140666863365e+00,
       3.2534512909469631e+00, -1.3745268886781228e+00,
       3.2177761560380445e+00, -1.4094015326536435e+00,
       3.1758683170703579e+00, -1.4379260053538860e+00,
       3.1518776747151462e+00, -1.4590705395741839e+00,
       3.1357620545178406e+00, -1.4682129148358107e+00,
       3.1295983474922009e+00, -1.4689903957154360e+00,
       3.1277497744445490e+00, -1.4653560044500584e+00,
       3.1393249334843651e+00, -1.4646543007657820e+00,
       3.1478690716531501e+00, -1.4640832873042937e+00,
       3.1576248539134815e+00, -1.4638010427885533e+00,
       3.1554265254363574e+00, -1.4613708532741716e+00,
       3.1476253042474673e+00, -1.4601183269885809e+00,
       3.1474528497473226e+00, -1.4532574388298132e+00,
       3.1854392130537450e+00, -1.4490939355345407e+00,
       3.2525225892808933e+00, -1.4467580612579058e+00,
       3.3094531889322978e+00, -1.4436658875983568e+00,
       3.3402974270780903e+00, -1.4451083823615107e+00,
       3.3320519182268815e+00, -1.4557247517219492e+00,
       3.2882740153916012e+00, -1.4787328182620716e+00,
       3.1951274822736488e+00, -1.5021072522702412e+00,
       3.1150319030095561e+00, -1.5076393996109800e+00,
       3.1094160790760581e+00, -1.5076046506194236e+00,
       3.1826935341163654e+00, -1.5002500892527213e+00,
       3.2738707675485457e+00, -1.4796242788187315e+00,
       3.3202920232653526e+00, -1.4567547521336701e+00,
       3.3354260248330814e+00, -1.4423190040800040e+00,
       3.3204063035001044e+00, -1.4412153483678136e+00,
       3.2684475840994316e+00, -1.4434174636802646e+00,
       3.2105264537123426e+00, -1.4502416941799368e+00,
       3.1602325608323927e+00, -1.4535455486912523e+00,
       3.1551635085482599e+00, -1.4565943667471239e+00,
       3.1556846607908700e+00, -1.4594185601574774e+00,
       3.1549038091040633e+00, -1.4580279737688540e+00,
       3.1531626116214104e+00, -1.4576075721016806e+00,
       3.1437319358602065e+00, -1.4608428331416656e+00,
       3.1316533554354486e+00, -1.4592406677327685e+00,
       3.1324902104641761e+00, -1.4664593158619039e+00,
       3.1341072025812791e+00, -1.4646719284773211e+00,
       3.1449344630746516e+00, -1.4613830818802229e+00,
       3.1765962898025291e+00, -1.4495888866237903e+00,
       3.2265711245128235e+00, -1.4323287396359730e+00,
       3.2639106244742075e+00, -1.3973143970584245e+00,
       3.3056923228407831e+00, -1.3596859601030504e+00,
       3.3433764479225165e+00, -1.3127185325830499e+00,
       3.3690028307645012e+00, -1.2534267362504610e+00,
       3.4065340033902229e+00, -1.1781060483690289e+00,
       3.4203512082948810e+00, -1.1543538881680193e+00,
       3.3816757858890512e+00, -1.2279826159810812e+00,
       3.3463428570676785e+00, -1.2884925397561298e+00,
       3.3088145590605760e+00, -1.3343325123389971e+00,
       3.2749161354179144e+00, -1.3698545738589170e+00,
       3.2431592037529486e+00, -1.3954877022773580e+00,
       3.2088335922237334e+00, -1.4213829527518400e+00,
       3.1930993720897192e+00, -1.4419553665207663e+00,
       3.1876495245261807e+00, -1.4450428033383391e+00,
       3.1902906652192571e+00, -1.4435090141678892e+00,
       3.2040527674620303e+00, -1.4451256607913401e+00,
       3.2147562655635213e+00, -1.4434033697439737e+00,
       3.2331466860795870e+00, -1.4462393913821634e+00,
       3.2435702887770952e+00, -1.4421638936610173e+00,
       3.2503595758215984e+00, -1.4432050952596323e+00,
       3.2380013035728776e+00, -1.4438059099667326e+00,
       3.2147003282949171e+00, -1.4400385927430484e+00,
       3.2187566885039733e+00, -1.4426465452120050e+00,
       3.2611793998099485e+00, -1.4404128124011772e+00,
       3.3096353347324716e+00, -1.4360653111454151e+00,
       3.3430920097890917e+00, -1.4334208061048166e+00,
       3.3430396660818587e+00, -1.4462881806016932e+00,
       3.2896577026065663e+00, -1.4674017803919339e+00,
       3.1949383619697600e+00, -1.4937974475018918e+00,
       3.1134834279477048e+00, -1.5029791663802086e+00,
       3.1054180850044495e+00, -1.5012070152591179e+00,
       3.1823731848822261e+00, -1.4960611022335388e+00,
       3.2722594681203656e+00, -1.4727339333866052e+00,
       3.3240682546682438e+00, -1.4418475608469257e+00,
       3.3376579287466610e+00, -1.4285321080928803e+00,
       3.3263025169164959e+00, -1.4328520074883522e+00,
       3.2858847899122696e+00, -1.4395434780935099e+00,
       3.2394126202813580e+00, -1.4404967811259912e+00,
       3.2228720840905849e+00, -1.4398948800777014e+00,
       3.2375170461695557e+00, -1.4389124561595494e+00,
       3.2441844310620298e+00, -1.4348418412825810e+00,
       3.2374904495640640e+00, -1.4313689227079980e+00,
       3.2222328217596896e+00, -1.4352008533187834e+00,
       3.2122841133022333e+00, -1.4388204805772622e+00,
       3.2010021784168377e+00, -1.4413933207959380e+00,
       3.1927093677292300e+00, -1.4416066593154468e+00,
       3.1883756970194654e+00, -1.4429277169792418e+00,
       3.1951838410930904e+00, -1.4400891781165592e+00,
       3.2128762342836028e+00, -1.4314438873003905e+00,
       3.2509628317095043e+00, -1.4164894314289918e+00,
       3.2765534091495301e+00, -1.3839779792269706e+00,
       3.3158689177618204e+00, -1.3480395422799349e+00,
       3.3369952005281247e+00, -1.3028598174665242e+00,
       3.3735790295722179e+00, -1.2461337481138159e+00,
       3.4198284050190781e+00, -1.1750066529436851e+00,
       3.4325548312969625e+00, -1.1469716695284591e+00,
       3.3871299436327145e+00, -1.2208948756074796e+00,
       3.3562238461101774e+00, -1.2799040904780610e+00,
       3.3192972581865887e+00, -1.3190280252687097e+00,
       3.2934664443559143e+00, -1.3525791110706549e+00,
       3.2803214330512884e+00, -1.3789634455025039e+00,
       3.2699003983744817e+00, -1.3987634865221987e+00,
       3.2727278963454736e+00, -1.4130259614850460e+00,
       3.2821015590859841e+00, -1.4187763419564250e+00,
       3.2977902545790299e+00, -1.4240834398599145e+00,
       3.3104490045152857e+00, -1.4211033285708476e+00,
       3.3263325093667029e+00, -1.4188102747528888e+00,
       3.3452221143853724e+00, -1.4169545608247986e+00,
       3.3603149687568670e+00, -1.4164911540305991e+00,
       3.3779799937282928e+00, -1.4176527387744073e+00,
       3.3740867700785109e+00, -1.4166456170551045e+00,
       3.3410539686412806e+00, -1.4152251563840845e+00,
       3.3043144273354832e+00, -1.4229743694614962e+00,
       3.3064772754877740e+00, -1.4272107955157602e+00,
       3.3365637957124918e+00, -1.4227807970203825e+00,
       3.3644715476353015e+00, -1.4228860047050327e+00,
       3.3586820188888020e+00, -1.4324138364425445e+00,
       3.3063356899183929e+00, -1.4570007831741874e+00,
       3.1980723567426037e+00, -1.4825452696064321e+00,
       3.1114412419817645e+00, -1.4928833230549936e+00,
       3.1057228580145786e+00, -1.4963422116154117e+00,
       3.1851786402708657e+00, -1.4886300820337712e+00,
       3.2801202789483308e+00, -1.4590950720491398e+00,
       3.3461866255349624e+00, -1.4289791376917718e+00,
       3.3634450092560786e+00, -1.4181808245017082e+00,
       3.3516041783310762e+00, -1.4221646746284675e+00,
       3.3256133951710090e+00, -1.4221839625286563e+00,
       3.3208909704216065e+00, -1.4188262242493013e+00,
       3.3377697295725013e+00, -1.4114457750221245e+00,
       3.3698412183286561e+00, -1.4104978009187505e+00,
       3.3637008478739339e+00, -1.4048200057447326e+00,
       3.3509659290057994e+00, -1.4049060044369466e+00,
       3.3304891939258057e+00, -1.4107631550205775e+00,
       3.3158747873067935e+00, -1.4159498208360517e+00,
       3.3062185485271289e+00, -1.4210420245746007e+00,
       3.2984392441335837e+00, -1.4235402590033488e+00,
       3.2879626540717020e+00, -1.4249907174927823e+00,
       3.2760667620358692e+00, -1.4192168654351818e+00,
       3.2778375794305949e+00, -1.4086277842655839e+00,
       3.2895891583509642e+00, -1.3944987755109730e+00,
       3.3025119196197519e+00, -1.3657491818951857e+00,
       3.3169902709975965e+00, -1.3318330394146418e+00,
       3.3502168166970350e+00, -1.2941231868935943e+00,
       3.3815177256291604e+00, -1.2371114362315301e+00,
       3.4308806564522234e+00, -1.1620146759273342e+00,
       3.4431774192104529e+00, -1.1307104903710623e+00,
       3.4088998077100339e+00, -1.2126597605000498e+00,
       3.3723028019219252e+00, -1.2693408758120213e+00,
       3.3486861321861565e+00, -1.3052849800757620e+00,
       3.3385838179416751e+00, -1.3332449562477493e+00,
       3.3389321896719015e+00, -1.3555779926987317e+00,
       3.3510107989738498e+00, -1.3716633686382984e+00,
       3.3756312842361225e+00, -1.3810975885415022e+00,
       3.4074569245647814e+00, -1.3819282314408992e+00,
       3.4277011931508699e+00, -1.3843170133158356e+00,
       3.4402854103716942e+00, -1.3890307365455696e+00,
       3.4481212792419336e+00, -1.3857452674532917e+00,
       3.4678158972472137e+00, -1.3795360581703886e+00,
       3.4912219461694911e+00, -1.3759522520408562e+00,
       3.5213725582613438e+00, -1.3767911577182270e+00,
       3.5360898162492580e+00, -1.3831361569308114e+00,
       3.5254399827061018e+00, -1.3872725731222253e+00,
       3.4571898196447850e+00, -1.3934094801586345e+00,
       3.3946778094985159e+00, -1.3991998869786024e+00,
       3.3835794225180216e+00, -1.4009772140147112e+00,
       3.3959963225811820e+00, -1.4038320933298012e+00,
       3.3856029840130040e+00, -1.4168355781231587e+00,
       3.3232231711609472e+00, -1.4438980047675605e+00,
       3.1966071065645085e+00, -1.4718405878057188e+00,
       3.1083238761060397e+00, -1.4838172727971206e+00,
       3.1011280358401754e+00, -1.4861793871406574e+00,
       3.1745238049377891e+00, -1.4732699201567474e+00,
       3.2965940196857773e+00, -1.4461273748316028e+00,
       3.3689852529501740e+00, -1.4162818101056789e+00,
       3.3939129442148519e+00, -1.3981841332172431e+00,
       3.4033263193412400e+00, -1.3987740495948917e+00,
       3.4084903064187837e+00, -1.3954359056373649e+00,
       3.4460033424450072e+00, -1.3860591952856485e+00,
       3.5028346490057660e+00, -1.3829837098717837e+00,
       3.5276927136390919e+00, -1.3785271765134717e+00,
       3.5120805356490918e+00, -1.3757539376475758e+00,
       3.4853891565679427e+00, -1.3755341068317530e+00,
       3.4548779233390783e+00, -1.3790411927954924e+00,
       3.4222398508791096e+00, -1.3827201881990026e+00,
       3.4225950909555913e+00, -1.3886698036062011e+00,
       3.4261722676539814e+00, -1.3891109692448353e+00,
       3.4114499935932039e+00, -1.3874337209461625e+00,
       3.3862230634329684e+00, -1.3832944135892482e+00,
       3.3633954843006881e+00, -1.3782798437165404e+00,
       3.3491169823459508e+00, -1.3666616636386610e+00,
       3.3401826701942832e+00, -1.3454425285052638e+00,
       3.3507466401103483e+00, -1.3188034980642422e+00,
       3.3693234602128914e+00, -1.2781341907097015e+00,
       3.3959800788266961e+00, -1.2235642294457783e+00,
       3.4486960117197412e+00, -1.1483044883426510e+00,
       3.4608703824160565e+00, -1.1131829222214225e+00,
       3.4371599961190724e+00, -1.1979674638356144e+00,
       3.3976972368256506e+00, -1.2522674775500182e+00,
       3.3875094187556964e+00, -1.2935728727503277e+00,
       3.3857907179605116e+00, -1.3170591837138212e+00,
       3.4170857873643943e+00, -1.3285376351345761e+00,
       3.4571084864420123e+00, -1.3263819478062604e+00,
       3.5092592510023772e+00, -1.3194187762343246e+00,
       3.5521031122891213e+00, -1.3230986938787370e+00,
       3.5604278761536730e+00, -1.3332822409350749e+00,
       3.5522557060174220e+00, -1.3360036334568568e+00,
       3.5578181197385805e+00, -1.3347492210627001e+00,
       3.5919118265545569e+00, -1.3221074579373762e+00,
       3.6417165983730246e+00, -1.3224680923958503e+00,
       3.6758502705031795e+00, -1.3304378479112673e+00,
       3.6969448202774751e+00, -1.3448021284319442e+00,
       3.7073125198605701e+00, -1.3521079040889870e+00,
       3.6293487638192024e+00, -1.3561233852735608e+00,
       3.5001836032403153e+00, -1.3559810729285096e+00,
       3.4346960700206624e+00, -1.3639435563333686e+00,
       3.4280405436695607e+00, -1.3748887718835392e+00,
       3.4149436779476892e+00, -1.3974636999774666e+00,
       3.3306172795838358e+00, -1.4312505675713434e+00,
       3.1880152627210534e+00, -1.4599728926436479e+00,
